~o
<STREAMINFO> 1 39
<VECSIZE> 39<NULLD><MFCC_D_A_0><DIAGC>
~h "ctyri"
<BEGINHMM>
<NUMSTATES> 10
<STATE> 2
<MEAN> 39
 -1.127074e+001 2.296806e-001 -1.154783e+000 -4.287764e-001 -1.018897e+000 -1.222750e+000 1.213865e+000 1.658708e+000 -1.110628e+000 3.359876e-001 7.196997e-001 1.390179e+000 4.713167e+001 -8.009242e-002 -8.453079e-003 7.252639e-002 -1.608955e-001 7.165885e-002 -1.297086e-002 9.520615e-002 8.917938e-002 8.013409e-002 1.022074e-001 -3.894701e-002 -1.257794e-003 6.368157e-002 -9.421183e-002 -5.943829e-002 1.343158e-001 -8.270174e-002 2.042789e-002 -1.504350e-002 -1.035534e-001 -4.474307e-002 3.362163e-003 -5.396261e-002 5.536226e-002 -1.738406e-002 8.047178e-002
<VARIANCE> 39
 1.007671e+001 3.896098e+000 1.250732e+001 8.664185e+000 1.351839e+001 1.336017e+001 2.238597e+001 1.994708e+001 1.874674e+001 1.648919e+001 1.182603e+001 9.406783e+000 3.582351e+000 7.882485e-001 4.538606e-001 1.023871e+000 1.452106e+000 1.510277e+000 1.997221e+000 2.372021e+000 1.526355e+000 1.693564e+000 1.473963e+000 1.498639e+000 1.052871e+000 3.549575e-001 1.839413e-001 1.066912e-001 2.768269e-001 4.540495e-001 3.579694e-001 3.730888e-001 4.538214e-001 2.778500e-001 3.553131e-001 2.688603e-001 3.414742e-001 1.878698e-001 9.294139e-002
<GCONST> 8.758729e+001
<STATE> 3
<MEAN> 39
 -1.065021e+001 -3.793965e-002 -1.656372e+000 -9.973372e-001 6.136245e-001 -1.957754e+000 3.553964e-001 1.742948e+000 -2.351099e+000 1.963024e+000 1.233213e+000 1.667641e+000 4.652049e+001 -1.230641e+000 -5.680388e-001 1.708548e+000 -1.540370e+000 7.151686e-001 -1.815808e-001 -5.762987e-001 -1.760726e-001 1.816601e-001 -3.319021e-001 3.817305e-001 9.267108e-002 9.673627e-001 -5.599988e-001 2.358199e-002 7.615901e-001 -6.163542e-001 1.980368e-001 -3.209939e-001 -5.534262e-002 -1.964542e-001 2.678180e-001 -2.239610e-001 1.250356e-001 -8.139808e-002 5.000074e-001
<VARIANCE> 39
 5.134977e+000 4.656046e+000 5.891365e+000 1.180810e+001 1.907255e+001 1.588163e+001 1.076182e+001 1.155567e+001 7.597124e+000 1.257969e+001 1.477463e+001 1.440667e+001 1.048046e+000 9.148675e-001 6.679192e-001 1.474686e+000 4.110368e+000 4.202932e+000 2.400070e+000 1.469183e+000 1.866558e+000 1.867935e+000 1.644220e+000 1.073676e+000 1.069710e+000 3.129603e-001 3.827555e-001 1.538334e-001 1.833342e-001 6.224518e-001 8.492759e-001 3.017483e-001 3.218156e-001 3.653226e-001 3.270447e-001 2.771823e-001 2.217515e-001 3.091132e-001 4.630579e-002
<GCONST> 8.766756e+001
<STATE> 4
<MEAN> 39
 -1.292252e+001 -8.397916e-001 2.471287e+000 -3.981093e+000 2.388893e+000 -1.785888e+000 -6.978558e-001 2.339837e+000 -3.926252e-001 9.964822e-001 2.144643e+000 1.705580e+000 4.876899e+001 -2.061972e+000 -1.223574e-001 2.507369e+000 -2.704408e+000 1.226635e+000 -8.629420e-001 -2.293648e-002 -3.160057e-001 8.352188e-001 -4.054234e-001 2.643527e-001 -1.057051e-001 1.588083e+000 -3.711339e-001 2.518480e-001 2.963954e-001 -1.936920e-001 -1.380553e-001 -4.118936e-001 4.075334e-001 -2.790966e-001 -3.928867e-002 -8.861323e-002 5.485159e-002 -8.896136e-002 2.958007e-001
<VARIANCE> 39
 6.449052e+000 1.143548e+001 1.228417e+001 3.886416e+001 4.859638e+001 2.953463e+001 2.108456e+001 2.648424e+001 1.350573e+001 1.756159e+001 1.553761e+001 1.174035e+001 4.094113e+000 2.619708e+000 1.534009e+000 2.670124e+000 4.126985e+000 6.894864e+000 1.935954e+000 2.738413e+000 3.191217e+000 2.741708e+000 1.285919e+000 1.557207e+000 2.227546e+000 8.355986e-001 4.218093e-001 1.407022e-001 1.953962e-001 6.292824e-001 1.247449e+000 5.582854e-001 6.782472e-001 5.859045e-001 3.266997e-001 4.236851e-001 3.805410e-001 3.894344e-001 1.055348e-001
<GCONST> 1.063589e+002
<STATE> 5
<MEAN> 39
 -2.093924e+001 1.136939e-001 9.313406e+000 -1.286771e+001 5.970573e+000 -4.121178e+000 1.011570e+000 -3.005533e-001 1.525010e+000 -7.425679e-001 1.993470e+000 4.718006e-001 5.357584e+001 -2.542391e+000 5.025993e-001 2.289558e+000 -1.652090e+000 1.775155e-001 -1.174160e+000 1.378611e+000 -9.600224e-001 2.018010e-001 -5.953481e-001 2.171286e-001 -4.671857e-001 1.731568e+000 4.800009e-001 -3.654751e-002 -6.268809e-001 8.566700e-001 -6.286383e-001 -5.338933e-002 7.673208e-002 1.060034e-001 -3.737348e-001 1.223838e-001 -5.089709e-002 -9.359320e-002 -2.908566e-001
<VARIANCE> 39
 1.902028e+001 1.823803e+001 3.110706e+001 2.982239e+001 6.849954e+001 3.602645e+001 2.962978e+001 2.332070e+001 2.492776e+001 1.627834e+001 1.224416e+001 1.378487e+001 4.090915e+000 2.641636e+000 1.290035e+000 1.761121e+000 3.459728e+000 5.493747e+000 3.637032e+000 2.805739e+000 2.001314e+000 1.691285e+000 2.331305e+000 1.807441e+000 1.524551e+000 4.903357e-001 2.097615e-001 1.842845e-001 2.116827e-001 2.703985e-001 4.178053e-001 6.903720e-001 6.255679e-001 4.879384e-001 2.622013e-001 3.863994e-001 3.441156e-001 4.049060e-001 6.319050e-002
<GCONST> 1.051121e+002
<STATE> 6
<MEAN> 39
 -2.157763e+001 1.072802e+000 9.165853e+000 -1.188868e+001 5.981017e+000 -4.850310e+000 2.265695e+000 1.845115e-001 -8.530927e-001 -2.405413e-001 1.931746e+000 -8.953624e-001 5.339962e+001 8.153805e-001 -1.051392e-002 -6.456984e-001 5.285947e-001 -1.262513e-001 -2.934253e-002 -3.506204e-001 3.935657e-001 -3.473347e-001 1.412701e-001 -9.457570e-002 9.292823e-002 -4.864087e-001 2.198104e-001 -6.437508e-002 -1.581455e-001 1.006533e-001 -5.825853e-002 3.358624e-002 -1.045652e-001 5.290667e-002 -2.212968e-002 7.974935e-002 -1.118472e-002 5.532484e-002 -9.850651e-002
<VARIANCE> 39
 3.527369e+001 1.376189e+001 3.199283e+001 2.380077e+001 3.947280e+001 1.827720e+001 2.778559e+001 2.227211e+001 1.926873e+001 1.275128e+001 1.530464e+001 1.308016e+001 1.491125e+001 2.145595e+000 8.431313e-001 1.150875e+000 1.240254e+000 2.424935e+000 2.703574e+000 2.008416e+000 1.759128e+000 1.431574e+000 1.322588e+000 1.509007e+000 1.525112e+000 9.902744e-001 3.631489e-001 1.787042e-001 2.682257e-001 2.798826e-001 3.165491e-001 3.733039e-001 4.190639e-001 3.473535e-001 2.918747e-001 2.599414e-001 2.631764e-001 2.769538e-001 1.706687e-001
<GCONST> 1.002127e+002
<STATE> 7
<MEAN> 39
 -1.396844e+001 -1.618902e+000 3.435101e+000 -7.808217e+000 3.822826e+000 -5.735961e+000 3.533267e-002 3.069934e+000 -3.442860e+000 2.464950e+000 3.017212e-001 1.120451e+000 5.043264e+001 3.560010e-001 -1.370887e+000 9.968172e-001 -1.384903e+000 -2.346974e+000 -2.432748e+000 -4.044902e-001 -3.218791e-001 -1.039294e+000 1.026201e+000 -6.116468e-002 -1.918927e-001 1.741118e+000 2.339724e-002 -3.187775e-001 6.522737e-001 -8.337723e-001 -7.077627e-001 -7.062672e-001 -1.729876e-001 -1.075531e-001 -1.858853e-001 3.273644e-001 1.233289e-001 -1.398916e-001 6.434395e-001
<VARIANCE> 39
 9.738974e+000 1.210065e+001 1.086166e+001 2.493555e+001 5.775169e+001 3.887527e+001 2.160963e+001 1.442972e+001 1.881679e+001 1.981377e+001 1.796687e+001 1.178158e+001 1.018861e+001 9.616860e-001 1.588258e+000 3.325591e+000 4.583416e+000 5.996774e+000 5.746080e+000 3.165271e+000 1.530349e+000 3.097593e+000 2.097790e+000 2.078319e+000 1.529629e+000 2.461574e+000 1.974461e-001 2.415130e-001 3.735269e-001 3.807998e-001 7.278777e-001 6.882476e-001 4.891906e-001 3.793592e-001 5.551068e-001 5.416322e-001 4.447187e-001 3.966909e-001 2.077803e-001
<GCONST> 1.094217e+002
<STATE> 8
<MEAN> 39
 -1.451546e+001 -8.262574e+000 1.280976e+001 -2.066521e+001 -8.827153e+000 -1.976624e+001 -1.833163e-001 1.412455e+000 -4.474594e+000 7.161412e+000 6.562645e-001 -8.327615e-001 6.246243e+001 7.299787e-002 -3.432422e-001 2.193096e-001 -4.068176e-001 -4.799881e-001 -4.540906e-001 6.858332e-002 -2.748394e-002 1.905730e-001 2.006976e-001 2.727422e-001 2.021625e-003 3.789094e-001 -2.274686e-002 6.763673e-002 -1.190114e-001 1.270863e-001 2.094803e-001 2.645309e-001 3.840400e-002 3.326386e-002 4.162271e-002 2.960165e-003 -1.463026e-002 2.240596e-002 -1.570434e-001
<VARIANCE> 39
 3.457474e+001 3.946347e+001 2.284686e+001 3.873004e+001 7.253416e+001 2.095496e+001 3.617888e+001 3.063910e+001 3.309710e+001 1.287219e+002 6.137059e+001 3.195461e+001 9.838168e+000 3.657120e+000 4.360139e+000 2.766560e+000 3.407323e+000 7.461382e+000 3.173280e+000 2.161244e+000 2.723459e+000 2.684103e+000 6.629677e+000 4.701807e+000 2.475158e+000 1.558488e+000 6.357588e-001 5.700062e-001 4.513850e-001 4.390648e-001 1.041074e+000 6.906044e-001 3.368290e-001 5.574805e-001 5.724322e-001 7.708998e-001 7.918693e-001 3.797245e-001 1.798468e-001
<GCONST> 1.255982e+002
<STATE> 9
<MEAN> 39
 -9.712609e+000 -8.246456e+000 9.514617e+000 -1.529081e+001 -1.526680e+001 -1.878300e+001 -4.854477e-001 1.789248e+000 -8.054939e+000 9.079594e+000 3.265474e+000 -7.776899e-001 5.941776e+001 2.601514e-002 2.990267e-001 -2.490179e-001 3.495355e-001 2.737452e-001 6.001375e-001 3.552061e-002 -4.511617e-002 -1.426386e-001 -8.394362e-002 -1.558331e-001 -4.169061e-002 -4.368025e-001 -2.459908e-002 3.388907e-002 -4.771183e-002 7.138706e-002 6.401802e-002 2.417258e-002 2.496390e-003 5.264651e-003 4.683159e-002 -7.387854e-002 -5.274458e-003 1.172277e-002 -4.452202e-002
<VARIANCE> 39
 1.448377e+001 2.039525e+001 3.185311e+001 1.836772e+002 5.559030e+001 6.044609e+001 2.760430e+001 2.523393e+001 3.552554e+001 8.501716e+001 7.310091e+001 1.552880e+001 1.923577e+001 3.731714e-001 7.178977e-001 9.693984e-001 1.481032e+000 1.721748e+000 1.995769e+000 1.178642e+000 1.350752e+000 1.344887e+000 2.459834e+000 1.716474e+000 9.963334e-001 4.394304e-001 6.881948e-002 1.051645e-001 1.251185e-001 1.507205e-001 3.128685e-001 3.717275e-001 2.415232e-001 2.775521e-001 2.309434e-001 3.770008e-001 2.860900e-001 2.014267e-001 4.083807e-002
<GCONST> 9.811839e+001
<TRANSP> 10
 0.000000e+000 1.000000e+000 0.000000e+000 0.000000e+000 0.000000e+000 0.000000e+000 0.000000e+000 0.000000e+000 0.000000e+000 0.000000e+000
 0.000000e+000 7.728908e-001 2.271091e-001 0.000000e+000 0.000000e+000 0.000000e+000 0.000000e+000 0.000000e+000 0.000000e+000 0.000000e+000
 0.000000e+000 0.000000e+000 3.217598e-001 6.782402e-001 0.000000e+000 0.000000e+000 0.000000e+000 0.000000e+000 0.000000e+000 0.000000e+000
 0.000000e+000 0.000000e+000 0.000000e+000 4.163616e-001 5.836383e-001 0.000000e+000 0.000000e+000 0.000000e+000 0.000000e+000 0.000000e+000
 0.000000e+000 0.000000e+000 0.000000e+000 0.000000e+000 5.341012e-001 4.658988e-001 0.000000e+000 0.000000e+000 0.000000e+000 0.000000e+000
 0.000000e+000 0.000000e+000 0.000000e+000 0.000000e+000 0.000000e+000 8.940057e-001 1.059943e-001 0.000000e+000 0.000000e+000 0.000000e+000
 0.000000e+000 0.000000e+000 0.000000e+000 0.000000e+000 0.000000e+000 0.000000e+000 7.489009e-001 2.510990e-001 0.000000e+000 0.000000e+000
 0.000000e+000 0.000000e+000 0.000000e+000 0.000000e+000 0.000000e+000 0.000000e+000 0.000000e+000 9.375259e-001 6.247403e-002 0.000000e+000
 0.000000e+000 0.000000e+000 0.000000e+000 0.000000e+000 0.000000e+000 0.000000e+000 0.000000e+000 0.000000e+000 9.653359e-001 3.466406e-002
 0.000000e+000 0.000000e+000 0.000000e+000 0.000000e+000 0.000000e+000 0.000000e+000 0.000000e+000 0.000000e+000 0.000000e+000 0.000000e+000
<ENDHMM>
~h "sedm"
<BEGINHMM>
<NUMSTATES> 10
<STATE> 2
<MEAN> 39
 -1.349149e+001 1.912592e+000 -2.435589e+000 -3.233990e-001 1.222831e+000 -4.214195e+000 2.775042e+000 -1.723475e-001 -8.612714e-001 2.055172e-001 2.146191e+000 6.948101e-001 4.799978e+001 -1.242428e+000 1.003859e+000 -2.598737e-001 -3.450143e-001 3.229322e-001 -9.996586e-001 7.485254e-001 -4.297804e-001 1.637825e-001 -1.047772e-001 9.706750e-002 -3.172417e-001 6.527515e-001 -1.355604e-001 1.310103e-001 -1.035936e-001 8.449323e-002 3.393786e-002 9.190178e-002 -1.098383e-002 1.662989e-001 -1.008886e-001 -1.029811e-002 -1.615423e-001 -6.944655e-002 4.477482e-002
<VARIANCE> 39
 7.326020e+000 8.352459e+000 5.522677e+000 6.239536e+000 9.766703e+000 1.424610e+001 1.131192e+001 1.686256e+001 1.871555e+001 1.459276e+001 1.703188e+001 9.307320e+000 1.742090e+000 4.293625e-001 5.515769e-001 8.609617e-001 1.138895e+000 1.179429e+000 2.054274e+000 1.734566e+000 1.675624e+000 1.748822e+000 1.459219e+000 1.589519e+000 1.209621e+000 1.268845e-001 1.132613e-001 1.308033e-001 1.726969e-001 1.779985e-001 2.666907e-001 3.745500e-001 3.443657e-001 3.684075e-001 4.218571e-001 3.640603e-001 3.058417e-001 1.769670e-001 3.404022e-002
<GCONST> 8.053334e+001
<STATE> 3
<MEAN> 39
 -1.780163e+001 5.354272e+000 -4.119340e+000 -6.308775e-001 2.146742e+000 -5.528012e+000 3.857730e+000 -1.793978e-001 -4.642603e-001 -1.387116e+000 1.681423e+000 -1.211638e+000 5.003901e+001 -1.088345e+000 6.367089e-001 -2.039107e-001 2.321648e-001 5.739557e-001 -1.867595e-001 9.925207e-002 5.302435e-001 -4.382190e-001 2.552282e-001 -3.248394e-001 -2.486633e-001 5.200698e-001 1.640793e-001 -2.716356e-001 1.950854e-001 2.921599e-002 1.390640e-002 2.087475e-001 -1.079439e-001 2.289920e-001 -3.650291e-002 2.093158e-001 -3.986654e-002 2.250478e-001 -3.653071e-002
<VARIANCE> 39
 8.497032e+000 8.312753e+000 9.000854e+000 1.165715e+001 1.247767e+001 1.492720e+001 1.533090e+001 1.394349e+001 1.783140e+001 1.706023e+001 2.249254e+001 1.280290e+001 1.832981e+000 5.683676e-001 8.191738e-001 1.202110e+000 1.156272e+000 1.484059e+000 1.891476e+000 1.856251e+000 1.544379e+000 1.239007e+000 1.946104e+000 1.102440e+000 9.870391e-001 1.889989e-001 8.700288e-002 1.218286e-001 1.603441e-001 2.517095e-001 2.274124e-001 3.024081e-001 4.312888e-001 2.026543e-001 2.871393e-001 3.034408e-001 2.157392e-001 2.134121e-001 3.358158e-002
<GCONST> 8.233183e+001
<STATE> 4
<MEAN> 39
 -2.109291e+001 4.485830e+000 -2.415715e+000 -2.093953e+000 4.986231e+000 -7.253088e+000 5.399409e+000 2.973311e+000 -2.739208e+000 1.419738e+000 1.284331e+000 -5.725692e-001 5.295812e+001 -5.883090e-001 -9.127778e-002 2.150271e-001 -8.723190e-002 7.543129e-002 -4.803805e-002 1.578268e-002 3.553871e-001 3.666046e-002 1.647814e-001 -1.622278e-001 5.255049e-001 5.001112e-001 2.393684e-001 -2.551927e-001 9.331181e-002 -8.743527e-002 -1.951962e-001 -6.397416e-002 -1.524225e-001 -1.734117e-001 1.400066e-001 -9.525318e-002 2.452974e-002 1.056375e-001 -3.851021e-002
<VARIANCE> 39
 8.615219e+000 1.053440e+001 1.693655e+001 1.218220e+001 1.505648e+001 1.354134e+001 1.981770e+001 2.530470e+001 2.154469e+001 1.635090e+001 1.842429e+001 2.354420e+001 6.347069e+000 6.395616e-001 4.779929e-001 8.540542e-001 6.489990e-001 1.770569e+000 1.246364e+000 2.213268e+000 1.861438e+000 1.783415e+000 1.439582e+000 1.582116e+000 1.894324e+000 2.750129e-001 8.553576e-002 1.033689e-001 1.936103e-001 1.964288e-001 3.058925e-001 2.630368e-001 3.260832e-001 3.615771e-001 3.944703e-001 2.755783e-001 2.557915e-001 4.134490e-001 2.611964e-002
<GCONST> 8.725031e+001
<STATE> 5
<MEAN> 39
 -2.212416e+001 2.618420e+000 4.194204e-001 -2.937409e+000 7.129849e+000 -7.967110e+000 6.091796e+000 3.185352e+000 -3.920204e+000 1.815824e+000 4.866437e-001 2.679544e+000 5.477936e+001 1.081569e-001 -5.898632e-001 3.666965e-001 -3.685411e-001 -1.692377e-001 -7.961766e-002 -4.426892e-002 -1.169647e-001 2.338175e-001 -7.059514e-002 -8.078786e-002 6.674001e-002 3.131080e-001 6.219541e-001 -3.643173e-001 -6.139158e-002 -3.036439e-001 -5.144404e-001 -4.272653e-001 -4.195420e-001 3.816376e-002 2.035764e-001 -7.836171e-002 -2.356016e-001 -1.957625e-001 6.783183e-002
<VARIANCE> 39
 1.016639e+001 9.493492e+000 1.827145e+001 2.041162e+001 2.351668e+001 2.183238e+001 3.758896e+001 2.204983e+001 1.653504e+001 1.813949e+001 1.730034e+001 1.817586e+001 9.850330e+000 1.464091e+000 7.229197e-001 1.203371e+000 1.150001e+000 1.986462e+000 1.503304e+000 2.504250e+000 1.635709e+000 2.013386e+000 1.122207e+000 1.496240e+000 1.239068e+000 3.447904e-001 1.308517e-001 3.191130e-001 2.557850e-001 4.431848e-001 5.810724e-001 6.469841e-001 5.691114e-001 4.623882e-001 4.602206e-001 3.544336e-001 3.669741e-001 2.399942e-001 1.240272e-001
<GCONST> 9.812817e+001
<STATE> 6
<MEAN> 39
 -1.836734e+001 1.399814e+000 -1.116623e+000 -3.508104e+000 1.205508e+000 -7.416766e+000 3.096962e+000 3.115813e+000 -7.313541e-001 4.734382e-001 -5.707088e-001 6.097335e-001 5.326056e+001 3.023785e+000 -2.838738e+000 -1.359326e-002 -2.369679e+000 -2.898144e+000 -3.164299e+000 -2.452829e+000 5.776056e-001 9.580183e-001 -6.173623e-002 -1.480157e+000 -3.248123e-002 1.464756e+000 5.388117e-001 -1.009034e+000 -1.837828e-001 -8.481352e-001 -5.807514e-001 -7.878435e-001 -3.837005e-001 5.794834e-001 2.891151e-001 2.831315e-002 -4.115393e-001 2.830434e-002 8.629962e-001
<VARIANCE> 39
 1.636142e+001 8.219653e+000 1.955473e+001 1.091259e+001 2.963154e+001 2.390755e+001 4.336925e+001 1.287622e+001 2.457638e+001 1.542561e+001 1.245993e+001 2.395316e+001 8.818275e+000 1.275696e+000 2.579167e+000 1.024759e+000 3.868204e+000 3.011465e+000 2.916528e+000 2.329805e+000 1.861965e+000 2.800173e+000 1.889663e+000 1.965552e+000 1.955085e+000 1.599986e+000 2.876347e-001 3.461910e-001 1.460230e-001 6.571954e-001 5.285994e-001 6.506971e-001 6.212410e-001 4.028102e-001 3.702713e-001 2.897088e-001 3.332232e-001 7.561817e-001 1.266333e-001
<GCONST> 1.055535e+002
<STATE> 7
<MEAN> 39
 -8.596752e+000 -1.110146e+001 -2.198103e+000 -1.339505e+001 -7.600939e+000 -1.951341e+001 -4.846232e+000 7.984468e+000 3.017965e+000 9.259793e-001 -6.674736e+000 1.472053e+000 6.189491e+001 1.469907e+000 -4.104908e+000 3.993090e-001 -3.492198e+000 -1.372107e+000 -1.898576e+000 -2.225184e-001 2.721562e+000 1.123854e+000 1.508061e-001 -1.669701e+000 1.516593e-002 2.901618e+000 -9.119074e-001 5.702783e-001 2.143436e-001 4.181954e-001 8.251512e-001 1.105100e+000 1.049471e+000 6.472993e-002 -3.189134e-001 4.597216e-002 3.955200e-001 -2.476536e-001 -3.389315e-001
<VARIANCE> 39
 9.893006e+000 4.964531e+001 1.695000e+001 7.549789e+001 3.501841e+001 3.025879e+001 7.008062e+001 2.870373e+001 4.360352e+001 3.138144e+001 2.538476e+001 2.923925e+001 2.748408e+001 2.772431e+000 4.303141e+000 9.498984e-001 5.740578e+000 4.077720e+000 5.835495e+000 8.351579e+000 3.359929e+000 2.700516e+000 1.935731e+000 2.856844e+000 4.907841e+000 1.600586e+000 1.604095e-001 5.942163e-001 1.101161e-001 6.895909e-001 4.448572e-001 4.353548e-001 6.644666e-001 7.183391e-001 4.528637e-001 3.140438e-001 4.002137e-001 5.108507e-001 3.608786e-001
<GCONST> 1.203226e+002
<STATE> 8
<MEAN> 39
 -7.625366e+000 -1.223074e+001 2.877738e+000 -1.492211e+001 -8.392194e+000 -1.487855e+001 -3.650030e+000 6.627551e+000 -1.302333e+000 3.767645e-001 -6.487854e+000 -3.849404e-001 6.110811e+001 2.154863e-001 4.676803e-001 1.363606e-001 1.897085e-001 2.023932e-002 2.969083e-001 -2.573581e-001 -8.403047e-001 -6.586728e-001 2.112449e-001 3.804320e-001 -1.913620e-001 -3.692276e-001 -1.061514e-002 1.402560e-001 -2.045066e-002 6.980003e-002 4.666874e-002 -1.792664e-003 -5.959382e-002 -1.109283e-001 -6.336439e-002 2.661064e-002 6.378628e-002 1.402074e-002 -8.513714e-002
<VARIANCE> 39
 1.412443e+001 5.329892e+001 2.395784e+001 9.747560e+001 2.756486e+001 3.729417e+001 9.855625e+001 6.252808e+001 5.209372e+001 3.641319e+001 4.773261e+001 4.146444e+001 3.831814e+001 5.557758e-001 2.303894e+000 1.379025e+000 2.497268e+000 1.836484e+000 3.857280e+000 3.506640e+000 3.078714e+000 2.575458e+000 2.949155e+000 2.636617e+000 3.057373e+000 1.710274e+000 1.140146e-001 4.672488e-001 2.081603e-001 4.705836e-001 3.909669e-001 8.625802e-001 6.854531e-001 6.693786e-001 5.405748e-001 5.349376e-001 5.401351e-001 6.203318e-001 2.980886e-001
<GCONST> 1.203088e+002
<STATE> 9
<MEAN> 39
 -5.560870e+000 -6.777030e+000 2.060998e+000 -1.424822e+001 -3.870684e+000 -1.356413e+001 -9.262223e+000 4.283481e-001 -9.321758e+000 3.852224e+000 -3.013639e+000 -3.190728e+000 5.723394e+001 -8.743861e-002 2.453347e-001 -5.496145e-002 3.332734e-001 2.508982e-001 2.808472e-001 7.241875e-002 4.728225e-002 -1.159218e-001 -1.486446e-001 -9.530426e-003 -3.317046e-002 -3.126782e-001 -1.705002e-002 4.454163e-003 -2.842423e-002 8.108953e-002 -8.090853e-003 5.642415e-002 3.625331e-002 2.021314e-002 8.237711e-002 -1.911733e-002 1.387135e-002 4.073732e-002 -4.283955e-002
<VARIANCE> 39
 1.045000e+001 4.173356e+001 4.912886e+001 3.509557e+001 3.187586e+001 2.519172e+001 6.762358e+001 7.604305e+001 3.003346e+001 3.491759e+001 5.878821e+001 4.270791e+001 1.081989e+001 1.663177e-001 4.415467e-001 5.850303e-001 1.057176e+000 8.307799e-001 1.215310e+000 1.683133e+000 1.216469e+000 1.265245e+000 1.543579e+000 1.247405e+000 1.141339e+000 2.252676e-001 2.349396e-002 5.554143e-002 9.645002e-002 1.206211e-001 1.334447e-001 1.721710e-001 2.034796e-001 2.362885e-001 2.411894e-001 2.693777e-001 2.312209e-001 1.958791e-001 1.736177e-002
<GCONST> 8.698724e+001
<TRANSP> 10
 0.000000e+000 1.000000e+000 0.000000e+000 0.000000e+000 0.000000e+000 0.000000e+000 0.000000e+000 0.000000e+000 0.000000e+000 0.000000e+000
 0.000000e+000 7.279205e-001 2.720795e-001 0.000000e+000 0.000000e+000 0.000000e+000 0.000000e+000 0.000000e+000 0.000000e+000 0.000000e+000
 0.000000e+000 0.000000e+000 6.463226e-001 3.536774e-001 0.000000e+000 0.000000e+000 0.000000e+000 0.000000e+000 0.000000e+000 0.000000e+000
 0.000000e+000 0.000000e+000 0.000000e+000 7.101998e-001 2.898002e-001 0.000000e+000 0.000000e+000 0.000000e+000 0.000000e+000 0.000000e+000
 0.000000e+000 0.000000e+000 0.000000e+000 0.000000e+000 6.489149e-001 3.510850e-001 0.000000e+000 0.000000e+000 0.000000e+000 0.000000e+000
 0.000000e+000 0.000000e+000 0.000000e+000 0.000000e+000 0.000000e+000 5.507537e-001 4.492463e-001 0.000000e+000 0.000000e+000 0.000000e+000
 0.000000e+000 0.000000e+000 0.000000e+000 0.000000e+000 0.000000e+000 0.000000e+000 6.731772e-001 3.268228e-001 0.000000e+000 0.000000e+000
 0.000000e+000 0.000000e+000 0.000000e+000 0.000000e+000 0.000000e+000 0.000000e+000 0.000000e+000 9.412563e-001 5.874374e-002 0.000000e+000
 0.000000e+000 0.000000e+000 0.000000e+000 0.000000e+000 0.000000e+000 0.000000e+000 0.000000e+000 0.000000e+000 9.645941e-001 3.540590e-002
 0.000000e+000 0.000000e+000 0.000000e+000 0.000000e+000 0.000000e+000 0.000000e+000 0.000000e+000 0.000000e+000 0.000000e+000 0.000000e+000
<ENDHMM>
~h "sest"
<BEGINHMM>
<NUMSTATES> 10
<STATE> 2
<MEAN> 39
 -9.967345e+000 -4.597314e-001 -1.902088e+000 1.461687e-001 -1.964977e-001 -1.091684e+000 8.911779e-001 2.107134e+000 -2.432450e+000 5.071429e-001 -3.536687e-001 6.452420e-001 4.605006e+001 -3.215419e-001 -1.928961e-001 2.638092e-001 -4.798057e-001 1.643539e-001 2.251285e-002 2.114615e-001 -8.238700e-002 -3.141108e-001 5.894770e-002 9.797676e-002 2.999972e-001 1.365549e-001 -3.510063e-001 -4.045970e-002 4.608647e-001 -4.361949e-001 2.014362e-001 -2.187092e-001 1.562822e-001 -9.025037e-002 5.779509e-004 -2.623790e-002 -4.777633e-003 6.134604e-003 2.127023e-001
<VARIANCE> 39
 2.979070e+000 2.359526e+000 4.290753e+000 1.912108e+001 1.178557e+001 1.213598e+001 1.212874e+001 1.003109e+001 1.215346e+001 1.150462e+001 1.138800e+001 9.851131e+000 7.862840e-001 5.036876e-001 5.273194e-001 6.842420e-001 3.057111e+000 1.665336e+000 2.055952e+000 2.107052e+000 1.445612e+000 1.182179e+000 1.364379e+000 1.193326e+000 1.393243e+000 1.295854e-001 1.553389e-001 1.043525e-001 2.683988e-001 7.761220e-001 3.308715e-001 5.190194e-001 5.696949e-001 3.716319e-001 3.062377e-001 3.529590e-001 3.324497e-001 3.436268e-001 5.802495e-002
<GCONST> 8.167245e+001
<STATE> 3
<MEAN> 39
 -1.081685e+001 -1.399699e+000 -9.083471e-001 -9.443982e-001 -9.383485e-001 -7.179617e-001 -2.367263e-001 1.763154e+000 -2.977132e+000 -1.307321e-001 1.163000e+000 2.391176e+000 4.628164e+001 -1.742391e+000 -3.827449e-001 2.360110e+000 -2.163002e+000 1.216103e+000 -8.311386e-001 9.604756e-001 -2.832610e-001 -3.720003e-002 -5.218340e-002 -6.727339e-002 1.996658e-001 1.122234e+000 -6.368546e-001 4.789798e-002 7.696925e-001 -4.534203e-001 3.317364e-001 -3.734626e-001 5.053307e-001 -1.535257e-001 4.432001e-001 -8.507231e-002 1.839159e-001 -2.380045e-001 4.467144e-001
<VARIANCE> 39
 2.436177e+000 3.108254e+000 6.965566e+000 6.971222e+000 9.364634e+000 9.785705e+000 1.375815e+001 1.206006e+001 1.121598e+001 1.208709e+001 1.341101e+001 1.089919e+001 9.475334e-001 2.075131e-001 8.072425e-001 1.125614e+000 1.032244e+000 2.168217e+000 3.039490e+000 3.539930e+000 2.826782e+000 2.247064e+000 1.318010e+000 1.796841e+000 1.557416e+000 1.576403e-001 6.842028e-002 9.592360e-002 2.014705e-001 2.973639e-001 2.180445e-001 2.860661e-001 3.385453e-001 4.807087e-001 2.285849e-001 2.831711e-001 3.381226e-001 1.759097e-001 3.855079e-002
<GCONST> 7.862695e+001
<STATE> 4
<MEAN> 39
 -1.458803e+001 -1.255327e+000 4.006246e+000 -6.044063e+000 3.914098e+000 -3.409516e+000 2.235499e+000 2.306153e+000 -2.691645e+000 3.944707e-001 6.912231e-001 1.782769e+000 4.888321e+001 -2.482283e+000 -9.417693e-002 2.997516e+000 -2.421768e+000 1.280158e+000 -1.180681e+000 1.638785e+000 -6.483518e-001 1.048510e+000 -5.209268e-001 2.546557e-001 -4.794593e-001 1.615785e+000 -2.457564e-001 1.403901e-001 9.513674e-002 7.773117e-002 -2.979273e-001 1.825089e-001 3.833859e-002 -1.831785e-001 1.901157e-001 -1.178416e-001 1.785521e-001 -2.759381e-001 1.757975e-001
<VARIANCE> 39
 4.487113e+000 8.600705e+000 1.109644e+001 1.234070e+001 2.891853e+001 1.982555e+001 2.955470e+001 1.536511e+001 1.447354e+001 1.725719e+001 1.304497e+001 1.230993e+001 1.525727e+000 5.722284e-001 6.421130e-001 1.617055e+000 2.189372e+000 3.720615e+000 2.294551e+000 3.199334e+000 3.310891e+000 2.004873e+000 1.550650e+000 1.592933e+000 1.186695e+000 2.848850e-001 1.045176e-001 9.872328e-002 1.329677e-001 2.189249e-001 3.883311e-001 4.831165e-001 4.139495e-001 4.096250e-001 3.272603e-001 3.028802e-001 3.390500e-001 1.850208e-001 3.133410e-002
<GCONST> 8.892255e+001
<STATE> 5
<MEAN> 39
 -1.964251e+001 -1.409579e+000 9.303768e+000 -8.886577e+000 3.554234e+000 -4.314027e+000 5.989277e+000 -9.675676e-001 2.323744e-001 -1.842180e+000 1.784270e+000 6.308411e-001 5.199546e+001 -2.218102e+000 1.572862e-001 2.262584e+000 -1.461783e+000 1.756297e-001 -3.227715e-001 9.992934e-001 -5.580810e-001 4.087741e-001 -9.372201e-002 4.820049e-001 -7.523472e-001 1.519773e+000 2.923145e-001 4.525336e-002 -5.345230e-001 5.260382e-001 -3.727323e-001 2.536713e-001 -5.179179e-001 1.887347e-001 -1.988228e-001 2.012164e-001 -4.204410e-002 7.783320e-002 -1.657974e-001
<VARIANCE> 39
 3.509278e+000 1.153946e+001 2.153916e+001 2.374719e+001 4.528358e+001 2.610710e+001 3.520835e+001 2.651362e+001 2.333691e+001 1.515578e+001 1.261148e+001 1.868838e+001 1.852086e+000 7.047638e-001 6.945895e-001 1.177519e+000 2.185313e+000 2.203413e+000 2.081765e+000 2.910148e+000 2.516398e+000 1.667512e+000 2.020986e+000 2.166214e+000 1.155177e+000 2.737147e-001 5.608539e-002 1.474097e-001 2.242576e-001 2.351095e-001 3.849626e-001 3.592936e-001 3.050302e-001 6.488020e-001 3.280264e-001 2.948548e-001 4.507887e-001 3.032508e-001 2.072053e-002
<GCONST> 9.251984e+001
<STATE> 6
<MEAN> 39
 -2.484775e+001 -1.010166e+000 1.273047e+001 -1.107333e+001 3.675928e+000 -5.468017e+000 5.264443e+000 -1.228212e+000 1.907530e-001 -9.367883e-001 2.773585e+000 -7.833090e-001 5.592252e+001 -6.935937e-001 -1.313546e-001 3.205759e-001 4.271985e-003 -2.047346e-001 -1.348501e-001 -2.685197e-001 9.349385e-002 1.036584e-001 -5.657516e-002 -2.751361e-002 8.129195e-002 5.823142e-001 4.487969e-001 -1.124577e-001 -3.539595e-001 1.828172e-001 -1.278470e-001 -3.696986e-002 -1.502434e-001 2.130958e-001 -9.856402e-002 -2.144794e-002 -5.796066e-002 1.038180e-001 -2.031977e-001
<VARIANCE> 39
 5.966200e+000 1.299029e+001 1.641903e+001 3.629447e+001 7.446879e+001 2.985180e+001 4.060362e+001 2.093513e+001 2.500151e+001 1.617393e+001 1.759681e+001 1.577420e+001 3.018168e+000 8.431967e-001 5.248076e-001 7.295659e-001 9.137415e-001 1.404515e+000 1.306883e+000 1.327022e+000 1.914209e+000 1.516834e+000 1.336438e+000 1.606243e+000 1.452942e+000 2.142380e-001 1.209491e-001 8.972887e-002 1.559547e-001 2.088511e-001 3.462952e-001 3.119248e-001 3.413800e-001 3.645665e-001 2.847048e-001 2.873831e-001 3.234620e-001 2.827582e-001 3.545198e-002
<GCONST> 8.944327e+001
<STATE> 7
<MEAN> 39
 -1.677201e+001 -5.131066e+000 7.607046e+000 -8.642884e+000 -5.831868e+000 -1.202101e+001 4.275220e-001 4.117734e+000 -3.054122e-001 2.503945e-001 9.669306e-001 1.842592e-001 5.718582e+001 2.311021e+000 -1.297618e+000 -1.309617e+000 -8.767925e-001 -1.843063e+000 -1.635726e+000 -7.943741e-001 1.301177e+000 -4.390703e-001 2.532082e-001 -4.723690e-001 -1.820373e-001 5.634168e-001 3.297973e-001 -4.454342e-001 -1.431521e-001 -3.607530e-001 -2.845281e-001 -2.348214e-001 5.437760e-002 2.651473e-001 2.284668e-002 9.299548e-002 -2.489699e-001 -1.056122e-001 3.139128e-001
<VARIANCE> 39
 9.046758e+001 1.891001e+001 4.311849e+001 4.003203e+001 1.212079e+002 8.339880e+001 4.887994e+001 4.253916e+001 2.233225e+001 1.910814e+001 1.723968e+001 1.625746e+001 6.768474e+000 3.048810e+000 2.400461e+000 8.576577e-001 2.163092e+000 5.289923e+000 4.598375e+000 3.615684e+000 2.559007e+000 2.024100e+000 1.889123e+000 2.209815e+000 1.183073e+000 1.215150e+000 5.717426e-001 3.432599e-001 1.729736e-001 3.823876e-001 8.761682e-001 8.474759e-001 6.903108e-001 4.721888e-001 3.409499e-001 3.937186e-001 2.896230e-001 2.360874e-001 2.171716e-001
<GCONST> 1.155817e+002
<STATE> 8
<MEAN> 39
 -1.018964e+001 -1.743036e+001 1.194771e+000 -1.948558e+001 -5.740571e+000 -1.447493e+001 3.282166e+000 1.145455e+001 -1.434201e+000 1.409221e+000 -6.087299e+000 9.195449e-001 6.483946e+001 -1.851189e-001 3.613431e-001 -4.620028e-001 2.601179e-001 2.173492e-001 2.686603e-001 2.720695e-001 -8.843385e-002 2.782169e-001 -6.362944e-002 -2.733157e-002 6.654970e-002 -1.284551e-001 -2.110235e-001 2.296639e-001 3.152615e-002 1.318219e-001 1.411562e-001 1.258536e-001 7.259826e-002 -1.228910e-001 2.519795e-002 -3.742373e-002 1.019948e-001 2.368044e-002 -1.087359e-001
<VARIANCE> 39
 1.624824e+001 6.497630e+001 2.195760e+001 6.871793e+001 4.358946e+001 3.909356e+001 7.646113e+001 3.776568e+001 4.387967e+001 3.557595e+001 5.393040e+001 4.197369e+001 2.337647e+001 1.649307e+000 4.805851e+000 8.333853e-001 2.556952e+000 2.246198e+000 2.450977e+000 2.599127e+000 3.055061e+000 1.842407e+000 2.271604e+000 2.536509e+000 1.738060e+000 1.449634e+000 2.457609e-001 2.857316e-001 1.307138e-001 3.097788e-001 4.536874e-001 4.131347e-001 3.813368e-001 4.158531e-001 3.516736e-001 3.964338e-001 3.577813e-001 2.753906e-001 1.122678e-001
<GCONST> 1.136346e+002
<STATE> 9
<MEAN> 39
 -1.689853e+001 1.591485e+000 -3.835989e+000 -4.671189e+000 1.023463e+000 -6.906760e+000 4.862637e+000 3.627603e+000 1.304515e+000 -6.874614e-001 -6.909583e-001 1.143884e+000 5.203613e+001 1.572399e-001 2.841732e-002 1.413528e-001 2.422568e-001 1.803118e-001 2.307843e-001 -1.946469e-001 -1.203798e-001 -2.195071e-001 3.964989e-002 1.231864e-002 3.463975e-002 -3.714332e-001 1.135674e-001 -8.301418e-002 3.654474e-002 -6.753984e-003 -3.743736e-002 3.134253e-003 -7.284965e-002 2.811528e-003 -2.326177e-002 1.771240e-002 -2.680191e-002 -1.053306e-002 -7.413801e-003
<VARIANCE> 39
 1.832071e+001 1.506149e+001 1.365505e+001 1.819591e+001 2.598201e+001 3.359231e+001 3.534502e+001 1.643117e+001 2.609876e+001 1.934743e+001 1.785342e+001 1.690736e+001 1.673206e+001 9.537856e-001 7.286910e-001 6.844986e-001 1.295644e+000 1.214120e+000 1.852910e+000 1.658110e+000 1.369014e+000 1.766565e+000 1.686906e+000 1.456587e+000 1.225252e+000 4.603480e-001 1.101257e-001 1.000405e-001 1.384721e-001 2.582340e-001 2.188828e-001 3.641187e-001 3.373485e-001 2.517024e-001 3.610964e-001 3.572788e-001 3.139353e-001 2.397277e-001 7.233350e-002
<GCONST> 9.264648e+001
<TRANSP> 10
 0.000000e+000 1.000000e+000 0.000000e+000 0.000000e+000 0.000000e+000 0.000000e+000 0.000000e+000 0.000000e+000 0.000000e+000 0.000000e+000
 0.000000e+000 5.732490e-001 4.267510e-001 0.000000e+000 0.000000e+000 0.000000e+000 0.000000e+000 0.000000e+000 0.000000e+000 0.000000e+000
 0.000000e+000 0.000000e+000 3.298875e-001 6.701124e-001 0.000000e+000 0.000000e+000 0.000000e+000 0.000000e+000 0.000000e+000 0.000000e+000
 0.000000e+000 0.000000e+000 0.000000e+000 2.902570e-001 7.097430e-001 0.000000e+000 0.000000e+000 0.000000e+000 0.000000e+000 0.000000e+000
 0.000000e+000 0.000000e+000 0.000000e+000 0.000000e+000 5.192368e-001 4.807632e-001 0.000000e+000 0.000000e+000 0.000000e+000 0.000000e+000
 0.000000e+000 0.000000e+000 0.000000e+000 0.000000e+000 0.000000e+000 8.364159e-001 1.635841e-001 0.000000e+000 0.000000e+000 0.000000e+000
 0.000000e+000 0.000000e+000 0.000000e+000 0.000000e+000 0.000000e+000 0.000000e+000 8.231614e-001 1.768385e-001 0.000000e+000 0.000000e+000
 0.000000e+000 0.000000e+000 0.000000e+000 0.000000e+000 0.000000e+000 0.000000e+000 0.000000e+000 9.532777e-001 4.672226e-002 0.000000e+000
 0.000000e+000 0.000000e+000 0.000000e+000 0.000000e+000 0.000000e+000 0.000000e+000 0.000000e+000 0.000000e+000 9.571285e-001 4.287154e-002
 0.000000e+000 0.000000e+000 0.000000e+000 0.000000e+000 0.000000e+000 0.000000e+000 0.000000e+000 0.000000e+000 0.000000e+000 0.000000e+000
<ENDHMM>
~h "dva"
<BEGINHMM>
<NUMSTATES> 10
<STATE> 2
<MEAN> 39
 -8.698811e+000 7.053966e-001 -3.819285e+000 -3.550626e+000 -4.529088e+000 -5.490067e+000 -6.153034e+000 -4.247468e+000 -3.972669e+000 -1.919918e+000 -2.460102e+000 -2.861547e+000 4.184604e+001 1.279078e-001 8.374100e-002 5.459242e-002 -1.200613e-001 -1.163704e-001 -1.899179e-001 -7.392014e-002 -5.035475e-002 -7.302624e-002 6.737050e-003 -1.510933e-002 1.922978e-002 6.169840e-002 -2.156652e-002 -2.528766e-002 6.717407e-003 -2.044045e-002 3.861172e-002 -4.645050e-002 1.292648e-002 3.484048e-002 1.505499e-002 3.413970e-002 2.168528e-002 1.325573e-002 3.548321e-002
<VARIANCE> 39
 3.459510e+000 4.411928e+000 7.586946e+000 1.009275e+001 1.526192e+001 1.600033e+001 2.016240e+001 2.531556e+001 2.193806e+001 2.073577e+001 1.608273e+001 1.298884e+001 7.368845e+000 3.839352e-001 5.085856e-001 5.767735e-001 1.106956e+000 1.456600e+000 1.262326e+000 1.931360e+000 2.025671e+000 1.886369e+000 1.848572e+000 1.321608e+000 7.063236e-001 9.219542e-002 7.956706e-002 1.102747e-001 1.262634e-001 2.637238e-001 2.842941e-001 2.448956e-001 4.376532e-001 4.669328e-001 4.575453e-001 3.907460e-001 2.955455e-001 1.513305e-001 3.106205e-002
<GCONST> 8.192944e+001
<STATE> 3
<MEAN> 39
 -7.904471e+000 1.387404e+000 -1.415412e+000 -1.180630e+000 -2.891136e+000 -4.471951e+000 -4.009634e+000 -6.939629e-001 -3.596408e+000 -1.060755e+000 -1.731261e-001 3.484719e-001 4.685360e+001 2.513846e-001 1.686490e-001 1.257765e-001 -4.131219e-001 -4.032928e-001 -7.877408e-001 -1.286065e-001 -1.895836e-001 6.185523e-003 2.512403e-001 -1.042733e-001 -1.535521e-001 3.528471e-001 -4.498226e-002 -2.996959e-001 4.120545e-002 -2.230966e-001 1.081108e-001 -1.196407e-001 1.034609e-001 1.914709e-001 1.162195e-001 2.138816e-001 -2.706296e-002 -2.783501e-002 2.111079e-001
<VARIANCE> 39
 6.702985e+000 4.073198e+000 9.244478e+000 1.419182e+001 2.399307e+001 1.414683e+001 1.364022e+001 9.589241e+000 2.295118e+001 1.853029e+001 1.563165e+001 1.065483e+001 4.950239e+000 8.036980e-001 7.238587e-001 1.276996e+000 2.529975e+000 1.949370e+000 1.707093e+000 2.137171e+000 1.352296e+000 1.521673e+000 1.442335e+000 1.760882e+000 1.493270e+000 4.400723e-001 1.801100e-001 2.578990e-001 3.016044e-001 5.808080e-001 3.146062e-001 3.863318e-001 5.818704e-001 1.862742e-001 4.046288e-001 3.558246e-001 4.459988e-001 2.607259e-001 1.452009e-001
<GCONST> 9.199562e+001
<STATE> 4
<MEAN> 39
 -7.789973e+000 1.832510e+000 -1.543087e+000 -1.621855e+000 -2.681614e+000 -6.424870e+000 -2.024588e+000 -9.096894e-001 -2.906572e+000 6.859078e-001 -1.095337e+000 1.649528e-001 4.752527e+001 1.232076e-001 -7.985462e-001 2.888446e-001 -1.619769e+000 -9.262396e-002 -1.157310e+000 -1.778547e-001 4.270609e-001 9.857056e-002 6.610953e-001 -2.792843e-002 4.608375e-002 1.076780e+000 -6.850958e-002 -7.233330e-001 7.602710e-002 -5.176812e-001 -1.391000e-001 -2.135245e-001 -2.571424e-001 3.456336e-001 1.068578e-001 2.374059e-001 -7.320705e-002 7.428691e-003 3.733961e-001
<VARIANCE> 39
 1.190151e+001 8.511499e+000 1.000945e+001 1.191715e+001 4.565667e+001 2.245391e+001 2.105831e+001 1.224881e+001 1.205995e+001 1.365338e+001 1.471656e+001 1.101021e+001 4.388893e+000 1.117003e+000 2.594940e+000 2.926138e+000 2.787028e+000 3.510730e+000 2.476046e+000 2.129914e+000 1.518275e+000 2.399016e+000 2.637048e+000 1.530299e+000 1.246246e+000 1.305702e+000 1.760595e-001 3.575551e-001 5.130829e-001 4.625032e-001 6.230821e-001 3.866899e-001 4.026148e-001 2.421933e-001 3.323682e-001 2.782457e-001 4.121771e-001 4.284810e-001 2.638127e-001
<GCONST> 1.010870e+002
<STATE> 5
<MEAN> 39
 -7.928178e+000 -9.190724e-001 -4.865587e-001 -5.253117e+000 -3.732583e+000 -7.310926e+000 -5.113803e+000 -1.400090e-004 -2.512489e+000 1.639861e+000 -9.645924e-001 -1.587976e+000 4.932180e+001 1.683534e-001 -1.679777e+000 6.103187e-001 -1.901077e+000 -6.779632e-001 -1.555374e+000 -1.201353e+000 4.231271e-001 4.112145e-002 1.124506e+000 -6.601493e-001 -2.616186e-001 2.043783e+000 1.499932e-001 -1.974542e-001 -2.051598e-001 -2.091349e-002 -1.088343e-002 8.748432e-002 -3.177385e-001 -1.663438e-001 8.387928e-002 8.077548e-002 -4.442104e-001 -1.387799e-001 2.113726e-001
<VARIANCE> 39
 1.342866e+001 2.292265e+001 3.095225e+001 2.526503e+001 5.512669e+001 2.863669e+001 1.637792e+001 3.419953e+001 2.046753e+001 2.608681e+001 2.372620e+001 2.524409e+001 2.317929e+001 1.482569e+000 4.265629e+000 4.964884e+000 5.923585e+000 3.191157e+000 3.853476e+000 4.315595e+000 3.213304e+000 3.125628e+000 4.240261e+000 2.046577e+000 2.604538e+000 2.424295e+000 2.489612e-001 6.277708e-001 3.476798e-001 9.946963e-001 7.768028e-001 4.664527e-001 4.895362e-001 5.145056e-001 3.493070e-001 4.638405e-001 4.034015e-001 4.204889e-001 2.727172e-001
<GCONST> 1.188822e+002
<STATE> 6
<MEAN> 39
 -6.388292e+000 -7.053940e+000 -5.181582e-001 -1.168086e+001 -6.089247e+000 -1.392690e+001 -6.953537e+000 2.472378e+000 -2.941013e+000 6.216335e+000 -1.885655e+000 -3.788590e-001 5.698039e+001 5.999643e-001 -2.077733e+000 -5.483007e-001 -1.529378e+000 -9.460459e-002 -5.304138e-001 -1.249423e+000 1.858709e-001 5.169825e-001 8.290085e-001 -1.599864e+000 -1.074183e+000 1.657998e+000 1.123419e-001 6.394916e-001 -4.107393e-001 7.811856e-001 4.791681e-001 8.680215e-001 2.010096e-001 -5.811400e-001 -2.826865e-002 -4.088811e-001 -1.233790e-001 -3.484621e-001 -6.617413e-001
<VARIANCE> 39
 1.126244e+001 1.277577e+001 1.080656e+002 2.928227e+001 5.216846e+001 3.107653e+001 7.579382e+001 2.593279e+001 4.281365e+001 6.291405e+001 2.673377e+001 2.689314e+001 1.243557e+001 6.902167e-001 3.316706e+000 3.107918e+000 5.699494e+000 2.870870e+000 3.564018e+000 8.095808e+000 3.099328e+000 3.237819e+000 3.904356e+000 3.524970e+000 2.814339e+000 2.314027e+000 2.290817e-001 4.890362e-001 8.067213e-001 7.196928e-001 4.135414e-001 7.000478e-001 6.161903e-001 4.686159e-001 8.908650e-001 7.818699e-001 5.126455e-001 4.259679e-001 3.020560e-001
<GCONST> 1.233037e+002
<STATE> 7
<MEAN> 39
 -3.679506e+000 -9.238500e+000 -8.656396e+000 -1.194949e+001 -1.419968e+000 -9.058108e+000 -1.879424e+000 -6.525772e-001 -4.167118e+000 7.533695e+000 -4.254210e+000 -7.161924e+000 5.783416e+001 4.355787e-002 -2.470385e-001 -4.074293e-001 -4.104238e-001 6.534857e-001 7.415512e-001 1.343775e-001 -1.656322e-001 5.629872e-003 2.173461e-001 -2.363398e-001 -3.480413e-001 1.594806e-001 -4.781979e-002 -1.576184e-001 -2.903799e-002 -2.448897e-001 2.096745e-002 1.414710e-001 1.707732e-001 1.857765e-001 -1.463558e-002 9.826995e-003 3.246263e-002 9.296592e-002 9.545784e-002
<VARIANCE> 39
 7.697842e+000 2.584773e+001 8.764532e+001 2.665326e+001 3.084690e+001 2.039267e+001 1.299773e+002 1.695711e+001 2.255433e+001 3.094024e+001 2.689871e+001 2.262455e+001 2.040373e+001 2.760109e-001 3.211412e+000 1.302451e+000 3.943664e+000 1.242741e+000 1.939244e+000 1.712211e+000 1.968441e+000 1.730698e+000 1.998951e+000 1.941091e+000 1.335165e+000 1.647892e+000 5.783423e-002 6.632431e-001 1.903962e-001 6.658964e-001 2.285038e-001 4.032528e-001 3.911417e-001 3.744231e-001 2.406387e-001 3.538932e-001 3.505230e-001 2.759261e-001 3.200251e-001
<GCONST> 1.055770e+002
<STATE> 8
<MEAN> 39
 -7.225478e+000 -1.732098e+001 -6.543081e+000 -2.287106e+001 8.930830e+000 -6.432160e-001 -7.628237e+000 2.004617e+000 -5.210048e+000 5.048186e+000 -7.028625e+000 -5.573327e+000 6.235633e+001 -1.379598e-001 -4.869338e-001 -1.436993e-001 -2.015293e-001 6.469128e-001 3.879819e-001 3.825037e-001 2.515058e-001 -3.808727e-001 -2.371113e-001 -3.561965e-001 7.673599e-002 1.626598e-001 -3.789164e-002 2.416682e-001 9.974469e-002 3.320834e-001 -1.360243e-002 -6.849455e-002 -6.458984e-002 -8.116502e-002 -2.151869e-002 -9.182958e-002 1.090267e-001 2.951527e-002 -1.932559e-001
<VARIANCE> 39
 1.389988e+001 7.728812e+001 1.854514e+001 8.279249e+001 1.137933e+002 6.170351e+001 3.687254e+001 4.915385e+001 3.173511e+001 6.652441e+001 9.871218e+001 2.464588e+001 9.824976e+001 6.506804e-001 3.585817e+000 1.162282e+000 5.101850e+000 2.623380e+000 2.965212e+000 2.908561e+000 2.480156e+000 1.882553e+000 2.496922e+000 2.874650e+000 1.855996e+000 2.263532e+000 1.140098e-001 2.580243e-001 1.951530e-001 5.822464e-001 2.944899e-001 5.136188e-001 5.309216e-001 3.838388e-001 4.553525e-001 5.421920e-001 4.519104e-001 2.904146e-001 1.359497e-001
<GCONST> 1.184798e+002
<STATE> 9
<MEAN> 39
 -8.222515e+000 -1.789846e+001 -7.455750e+000 -1.622613e+001 1.189912e+001 2.188805e+000 -4.941845e+000 3.758279e+000 -4.587991e+000 3.719034e+000 -1.018710e+001 -2.857795e+000 5.972564e+001 -8.196187e-002 6.481431e-001 2.106984e-002 7.486060e-001 -2.167838e-001 1.582130e-001 2.353619e-002 -7.066227e-002 1.112913e-001 -2.487331e-001 4.518887e-001 1.409310e-001 -6.679085e-001 2.101110e-002 2.845263e-002 1.225342e-002 4.028779e-003 -8.581172e-002 -5.028847e-002 1.968890e-002 -1.777991e-002 3.566412e-002 3.648807e-002 3.988653e-002 1.862656e-002 4.696701e-004
<VARIANCE> 39
 5.012738e+000 7.437633e+001 1.382785e+001 6.495510e+001 4.180262e+001 4.627408e+001 4.658240e+001 3.152464e+001 2.324356e+001 3.179496e+001 4.699454e+001 3.773151e+001 5.792958e+001 1.871139e-001 7.163232e-001 6.104271e-001 8.475718e-001 1.056927e+000 1.524060e+000 1.365718e+000 1.534230e+000 1.527197e+000 1.941090e+000 1.557081e+000 1.127890e+000 2.868196e-001 2.881343e-002 8.979476e-002 1.148925e-001 1.375792e-001 1.980987e-001 2.722580e-001 2.399495e-001 2.786682e-001 2.890469e-001 3.071510e-001 2.909341e-001 2.251966e-001 2.020623e-002
<GCONST> 9.157378e+001
<TRANSP> 10
 0.000000e+000 1.000000e+000 0.000000e+000 0.000000e+000 0.000000e+000 0.000000e+000 0.000000e+000 0.000000e+000 0.000000e+000 0.000000e+000
 0.000000e+000 8.367209e-001 1.632792e-001 0.000000e+000 0.000000e+000 0.000000e+000 0.000000e+000 0.000000e+000 0.000000e+000 0.000000e+000
 0.000000e+000 0.000000e+000 6.149271e-001 3.850729e-001 0.000000e+000 0.000000e+000 0.000000e+000 0.000000e+000 0.000000e+000 0.000000e+000
 0.000000e+000 0.000000e+000 0.000000e+000 5.027483e-001 4.972517e-001 0.000000e+000 0.000000e+000 0.000000e+000 0.000000e+000 0.000000e+000
 0.000000e+000 0.000000e+000 0.000000e+000 0.000000e+000 4.999762e-001 5.000237e-001 0.000000e+000 0.000000e+000 0.000000e+000 0.000000e+000
 0.000000e+000 0.000000e+000 0.000000e+000 0.000000e+000 0.000000e+000 5.182332e-001 4.817668e-001 0.000000e+000 0.000000e+000 0.000000e+000
 0.000000e+000 0.000000e+000 0.000000e+000 0.000000e+000 0.000000e+000 0.000000e+000 9.000738e-001 9.992609e-002 0.000000e+000 0.000000e+000
 0.000000e+000 0.000000e+000 0.000000e+000 0.000000e+000 0.000000e+000 0.000000e+000 0.000000e+000 9.179361e-001 8.206388e-002 0.000000e+000
 0.000000e+000 0.000000e+000 0.000000e+000 0.000000e+000 0.000000e+000 0.000000e+000 0.000000e+000 0.000000e+000 9.434628e-001 5.653727e-002
 0.000000e+000 0.000000e+000 0.000000e+000 0.000000e+000 0.000000e+000 0.000000e+000 0.000000e+000 0.000000e+000 0.000000e+000 0.000000e+000
<ENDHMM>
~h "osm"
<BEGINHMM>
<NUMSTATES> 10
<STATE> 2
<MEAN> 39
 -9.861939e+000 -4.182452e-001 -1.916628e+000 9.049636e-001 -6.593217e-001 -6.610107e-001 -3.714816e-001 1.128175e+000 -2.673783e+000 -1.172157e+000 3.479129e-001 9.232478e-001 4.541881e+001 9.151718e-002 -1.150522e-001 -7.560331e-002 -2.661373e-002 7.519460e-003 8.800782e-002 -2.773243e-001 -4.085799e-001 -2.381961e-001 -2.102218e-001 1.245194e-001 -6.716179e-002 -2.928002e-002 2.244440e-001 -1.894109e-001 -4.177190e-001 -9.274926e-001 -1.653842e-001 1.042441e-001 1.396447e-001 2.392975e-001 -1.310603e-001 1.861874e-001 3.482475e-002 -1.903631e-001 3.259645e-001
<VARIANCE> 39
 5.715646e-001 2.489933e+000 3.448335e+000 7.220847e+000 8.250313e+000 1.158349e+001 1.106161e+001 1.174010e+001 1.011053e+001 1.430178e+001 1.507718e+001 7.782749e+000 2.103683e+000 8.583525e-002 2.147879e-001 2.166019e-001 7.465281e-001 7.712819e-001 5.072729e-001 7.160227e-001 8.035175e-001 1.377018e+000 7.902698e-001 1.030615e+000 7.519489e-001 2.073061e-002 3.258960e-002 5.901506e-002 1.522329e-001 3.235687e-001 4.816607e-001 2.241484e-001 2.592163e-001 2.702351e-001 2.926752e-001 3.816862e-001 2.742370e-001 1.559597e-001 5.155320e-002
<GCONST> 6.134300e+001
<STATE> 3
<MEAN> 39
 -9.457178e+000 -4.230923e-001 -2.673802e+000 1.113868e+000 -4.288371e-001 -2.327988e-002 -1.024161e+000 1.504889e+000 -1.414182e+000 9.290733e-001 1.497086e+000 1.258276e+000 4.553672e+001 3.632100e-001 -2.430104e-001 -5.833595e-001 -9.841743e-001 -1.554805e-001 4.673946e-001 5.046913e-001 1.187099e-001 -2.131984e-001 3.049472e-001 -8.914309e-002 -4.821631e-002 3.384245e-001 3.278907e-001 -4.853292e-001 -6.210163e-001 -1.935602e+000 -6.745584e-002 1.104112e-001 1.525339e-002 3.944782e-001 -2.472196e-001 3.658895e-001 -5.663836e-002 -3.362257e-001 7.689950e-001
<VARIANCE> 39
 1.041070e+000 2.246524e+000 3.622304e+000 5.851680e+000 7.078055e+000 9.655418e+000 8.598509e+000 1.311511e+001 8.138885e+000 1.146672e+001 7.667389e+000 7.992497e+000 1.553998e+000 1.928201e-001 3.397602e-001 1.038303e+000 1.848045e+000 1.153763e+000 6.692821e-001 8.125134e-001 1.190110e+000 1.292885e+000 8.676081e-001 1.037325e+000 6.270896e-001 1.390006e-001 6.580382e-002 1.413558e-001 1.939615e-001 5.093233e-001 6.867630e-001 2.696211e-001 2.980992e-001 4.052847e-001 3.982214e-001 4.978504e-001 3.487305e-001 2.401363e-001 8.846284e-002
<GCONST> 7.165295e+001
<STATE> 4
<MEAN> 39
 -9.428329e+000 -6.644245e-001 -2.938260e+000 6.474307e-001 -1.016572e+000 -4.189835e-001 -1.053720e+000 -2.126088e-001 -2.432397e+000 -6.738799e-001 1.060272e+000 8.839135e-001 4.542960e+001 8.839401e-001 -9.940649e-001 -1.959450e+000 -4.349483e+000 -4.781813e-001 4.814656e-001 4.902219e-001 9.396376e-001 -7.535617e-001 7.676708e-001 1.333522e-002 -5.812804e-001 1.513998e+000 3.294026e-001 -6.821725e-001 -4.798528e-001 -2.254537e+000 1.454389e-001 1.274847e-001 -2.016539e-001 4.761693e-001 -1.862751e-001 5.890110e-001 -6.295031e-002 -3.740533e-001 1.054485e+000
<VARIANCE> 39
 6.707467e-001 3.045462e+000 3.918950e+000 7.820668e+000 5.071832e+000 8.024446e+000 9.752923e+000 1.180157e+001 1.673772e+001 1.252634e+001 9.542879e+000 1.063030e+001 2.531224e+000 4.138829e-001 6.817411e-001 1.730176e+000 4.896724e+000 4.308170e+000 2.247136e+000 1.491173e+000 2.743637e+000 2.352191e+000 3.318185e+000 1.765724e+000 1.845328e+000 7.805990e-001 8.420632e-002 3.981434e-001 3.367841e-001 1.176959e+000 7.797564e-001 4.545637e-001 2.048541e-001 5.675935e-001 4.830498e-001 1.406901e-001 2.541493e-001 2.561264e-001 1.848218e-001
<GCONST> 8.807969e+001
<STATE> 5
<MEAN> 39
 -7.944377e+000 -1.564955e+000 -6.137627e+000 -6.009548e+000 -2.511003e+000 1.054985e+000 2.564749e+000 2.586449e+000 -3.521961e+000 7.604373e-001 -9.279386e-002 5.721278e-001 4.746136e+001 1.236217e+000 -2.236308e+000 -2.202973e+000 -7.758202e+000 2.513475e-001 5.814840e-001 -2.686243e-001 1.276626e+000 -9.599611e-001 1.630099e+000 -1.398647e-001 -1.260968e+000 3.253739e+000 8.667808e-002 -6.140769e-001 3.619359e-002 -1.332888e+000 4.514081e-001 -4.878952e-002 -5.834970e-001 1.134404e-001 -4.136088e-002 4.902198e-001 -9.768690e-003 -2.741863e-001 8.655180e-001
<VARIANCE> 39
 3.684261e+000 3.667250e+000 3.057871e+001 3.571246e+001 1.192061e+001 9.759207e+000 1.310706e+001 2.036731e+001 1.455566e+001 3.551004e+001 1.987831e+001 7.935720e+000 7.119438e+000 6.779667e-001 2.303337e+000 2.351097e+000 7.972677e+000 7.847529e+000 4.008561e+000 2.240738e+000 3.913747e+000 2.652895e+000 2.456882e+000 2.738002e+000 2.296578e+000 1.564837e+000 7.271071e-002 4.510003e-001 3.912302e-001 1.942456e+000 5.694393e-001 3.274908e-001 1.871760e-001 5.095356e-001 3.475231e-001 3.628517e-001 2.145807e-001 2.480122e-001 2.962230e-001
<GCONST> 1.041071e+002
<STATE> 6
<MEAN> 39
 -4.508029e+000 -4.599469e+000 -1.106491e+001 -1.920500e+001 -4.342643e+000 -6.247782e-001 -1.662866e-001 4.289393e+000 -6.369270e+000 6.498274e+000 3.113941e+000 -2.734602e+000 5.400233e+001 1.179836e+000 -1.978963e+000 -1.118755e+000 -5.786871e+000 5.173195e-001 5.930389e-002 -1.185977e+000 6.669769e-001 -8.832508e-001 1.758712e+000 -6.713955e-002 -1.041223e+000 3.131814e+000 -3.040337e-001 -6.014104e-003 6.389729e-001 9.020192e-001 5.096112e-001 -6.716608e-002 -3.377010e-001 -2.199816e-001 1.957223e-001 -5.581643e-002 -1.565510e-001 2.204546e-001 -7.927343e-002
<VARIANCE> 39
 8.355126e+000 1.632917e+001 2.462296e+001 8.311971e+001 7.397097e+001 4.049147e+001 1.866209e+001 3.767896e+001 1.934790e+001 5.189228e+001 2.846603e+001 1.523130e+001 1.757022e+001 7.426476e-001 4.114784e+000 3.832038e+000 2.097115e+001 6.963051e+000 4.178763e+000 2.655296e+000 5.008411e+000 2.692223e+000 2.019475e+000 1.803485e+000 2.315171e+000 3.225327e+000 5.224891e-002 1.829427e-001 1.924098e-001 1.041837e+000 5.140435e-001 2.790976e-001 1.565909e-001 4.134072e-001 3.494594e-001 4.547642e-001 2.793294e-001 3.095787e-001 1.889505e-001
<GCONST> 1.134927e+002
<STATE> 7
<MEAN> 39
 -4.564613e+000 -1.177174e+001 -9.114169e+000 -3.272592e+001 3.060065e+000 5.425712e-001 -4.207422e+000 5.880863e+000 -7.527363e+000 9.072131e+000 -2.219693e+000 -1.148652e+000 6.279652e+001 -2.345396e-001 -2.658783e-001 2.301813e-001 -9.457709e-001 8.012887e-001 -3.826410e-001 -7.976733e-001 -2.712882e-001 1.073153e-001 5.995061e-001 -2.354120e-001 1.488420e-001 8.308998e-001 -2.907050e-001 5.596829e-001 1.896468e-001 1.182775e+000 -1.008630e-001 -1.287366e-001 2.928520e-001 -2.177252e-001 3.375033e-001 -4.035597e-001 8.448470e-002 1.556652e-001 -5.817439e-001
<VARIANCE> 39
 1.207721e+001 3.191184e+001 3.792634e+001 8.028708e+001 8.694102e+001 5.302171e+001 4.022981e+001 4.308330e+001 3.638202e+001 2.349319e+001 4.833131e+001 4.185006e+001 1.598148e+001 4.566104e-001 2.900776e+000 1.220196e+000 8.925162e+000 1.714764e+000 2.006947e+000 2.086061e+000 1.567164e+000 2.385517e+000 2.152739e+000 1.497383e+000 2.265333e+000 2.600382e+000 1.194442e-001 2.525944e-001 4.754183e-001 1.214238e+000 4.928750e-001 4.533359e-001 5.391176e-001 3.584402e-001 4.200250e-001 4.006139e-001 3.009627e-001 4.788440e-001 1.846691e-001
<GCONST> 1.149822e+002
<STATE> 8
<MEAN> 39
 -1.497386e+001 -2.522863e+000 -6.170705e+000 -1.617201e+001 3.725986e+000 -4.501322e+000 -2.881027e+000 2.122396e+000 -5.048623e-002 2.830110e+000 -5.435311e-001 -9.793290e-001 5.864298e+001 7.887509e-003 8.247849e-002 3.472718e-001 4.747086e-001 -3.918344e-001 -4.420843e-001 -3.037672e-001 -2.224419e-001 -4.625177e-002 -1.320964e-001 1.441106e-001 2.171088e-003 -6.672612e-002 5.886711e-002 -8.075096e-002 5.611494e-003 -7.510066e-002 -2.064936e-002 3.902981e-003 -3.120114e-002 2.379275e-002 -1.060013e-001 6.806601e-002 1.998335e-002 -2.071781e-002 2.852729e-002
<VARIANCE> 39
 4.423339e+001 4.182067e+001 4.304140e+001 1.052260e+002 6.057616e+001 5.915345e+001 6.537116e+001 5.005301e+001 3.913575e+001 2.893194e+001 3.179810e+001 2.193779e+001 3.137411e+001 3.969753e+000 2.151354e+000 1.646346e+000 3.972551e+000 2.637953e+000 2.925142e+000 4.857657e+000 4.039486e+000 2.734703e+000 2.971166e+000 3.210517e+000 1.805599e+000 7.231991e-001 4.257210e-001 1.992148e-001 1.808150e-001 3.999010e-001 4.677915e-001 4.920169e-001 7.222410e-001 7.421759e-001 3.941598e-001 5.200915e-001 5.483040e-001 3.487881e-001 8.118196e-002
<GCONST> 1.205554e+002
<STATE> 9
<MEAN> 39
 -5.928715e+000 -6.877739e+000 1.582876e+000 -1.500996e+001 -1.534373e+000 -1.144132e+001 -1.320129e+001 -1.123024e+000 -1.012551e+001 5.937189e+000 1.572067e+000 -2.460747e+000 5.718922e+001 -5.909407e-002 2.318417e-001 -2.095405e-002 4.258209e-001 2.177008e-001 2.536794e-001 2.911964e-001 3.317779e-002 -1.162474e-001 -1.985045e-001 -1.693370e-001 -2.581433e-002 -3.664069e-001 -3.120128e-002 4.110508e-002 -3.700858e-002 6.030560e-002 -5.461839e-003 5.958470e-002 5.638332e-002 2.274397e-002 8.500873e-002 -3.748085e-002 -1.253940e-002 2.630940e-002 -4.857383e-002
<VARIANCE> 39
 8.903653e+000 4.232164e+001 3.157930e+001 4.273355e+001 4.643032e+001 2.886581e+001 4.051424e+001 5.057168e+001 2.243405e+001 4.061239e+001 5.750793e+001 3.903858e+001 2.207297e+001 1.859530e-001 5.592774e-001 6.462126e-001 1.083986e+000 7.966461e-001 1.283909e+000 1.222793e+000 1.164128e+000 1.236047e+000 1.638320e+000 1.130787e+000 1.134567e+000 2.565973e-001 3.099015e-002 7.315489e-002 9.268823e-002 1.471146e-001 1.342197e-001 2.049802e-001 1.706679e-001 2.207207e-001 2.190054e-001 2.724938e-001 2.044061e-001 1.880229e-001 1.732703e-002
<GCONST> 8.722897e+001
<TRANSP> 10
 0.000000e+000 1.000000e+000 0.000000e+000 0.000000e+000 0.000000e+000 0.000000e+000 0.000000e+000 0.000000e+000 0.000000e+000 0.000000e+000
 0.000000e+000 3.703555e-002 9.629645e-001 0.000000e+000 0.000000e+000 0.000000e+000 0.000000e+000 0.000000e+000 0.000000e+000 0.000000e+000
 0.000000e+000 0.000000e+000 2.071582e-002 9.792842e-001 0.000000e+000 0.000000e+000 0.000000e+000 0.000000e+000 0.000000e+000 0.000000e+000
 0.000000e+000 0.000000e+000 0.000000e+000 6.219167e-002 9.378083e-001 0.000000e+000 0.000000e+000 0.000000e+000 0.000000e+000 0.000000e+000
 0.000000e+000 0.000000e+000 0.000000e+000 0.000000e+000 6.270301e-002 9.372970e-001 0.000000e+000 0.000000e+000 0.000000e+000 0.000000e+000
 0.000000e+000 0.000000e+000 0.000000e+000 0.000000e+000 0.000000e+000 4.174989e-001 5.825011e-001 0.000000e+000 0.000000e+000 0.000000e+000
 0.000000e+000 0.000000e+000 0.000000e+000 0.000000e+000 0.000000e+000 0.000000e+000 8.304321e-001 1.695679e-001 0.000000e+000 0.000000e+000
 0.000000e+000 0.000000e+000 0.000000e+000 0.000000e+000 0.000000e+000 0.000000e+000 0.000000e+000 9.591749e-001 4.082508e-002 0.000000e+000
 0.000000e+000 0.000000e+000 0.000000e+000 0.000000e+000 0.000000e+000 0.000000e+000 0.000000e+000 0.000000e+000 9.641102e-001 3.588981e-002
 0.000000e+000 0.000000e+000 0.000000e+000 0.000000e+000 0.000000e+000 0.000000e+000 0.000000e+000 0.000000e+000 0.000000e+000 0.000000e+000
<ENDHMM>
~h "pet"
<BEGINHMM>
<NUMSTATES> 10
<STATE> 2
<MEAN> 39
 -9.136025e+000 -5.397876e-002 -2.494450e+000 -1.343162e-001 -1.032856e+000 -7.301326e-001 -1.578672e-001 2.797403e+000 -1.394875e+000 4.583061e-001 1.417767e+000 1.345941e+000 4.617814e+001 -1.396241e-002 -7.617448e-003 1.601728e-001 1.576370e-001 1.447026e-001 -3.901772e-001 1.333197e-001 -1.174960e-001 1.445100e-002 -1.911132e-001 -3.995732e-001 -2.373655e-002 8.569802e-002 -7.509550e-002 -8.544836e-002 2.637846e-001 1.935143e-002 -1.687305e-001 -3.209882e-001 -1.567874e-002 -1.558450e-001 -6.115630e-002 6.331107e-002 -3.402606e-003 -1.814403e-002 1.197810e-001
<VARIANCE> 39
 1.185395e+000 3.496763e+000 5.084969e+000 2.664773e+000 5.353043e+000 9.716133e+000 1.020235e+001 6.273104e+000 9.637525e+000 1.131844e+001 1.089885e+001 1.125878e+001 6.727489e-001 1.262587e-001 4.959153e-001 4.061822e-001 3.974203e-001 7.425243e-001 1.043595e+000 1.009721e+000 8.599892e-001 1.043235e+000 7.673404e-001 5.782126e-001 6.557509e-001 4.147958e-002 4.918602e-002 9.958319e-002 1.150197e-001 7.802563e-002 1.869512e-001 2.719612e-001 1.532221e-001 2.507071e-001 2.704145e-001 3.194262e-001 2.273694e-001 2.238979e-001 2.114832e-002
<GCONST> 5.800229e+001
<STATE> 3
<MEAN> 39
 -9.282064e+000 2.817445e-001 -1.706588e+000 1.231645e+000 -1.165819e+000 -2.472679e+000 -1.097701e+000 1.128440e+000 -1.781348e+000 -5.222726e-001 1.275516e-001 1.271411e+000 4.609047e+001 -1.764082e-003 -5.372877e-002 3.486036e-001 1.692716e-001 -2.079304e-001 -6.071752e-001 4.901965e-002 -1.115274e-001 -1.681216e-001 -1.721808e-001 -3.118703e-001 -1.616406e-001 1.444332e-001 -3.544870e-002 -2.902520e-001 5.367031e-001 -4.367253e-001 -6.406994e-001 -7.104630e-001 -1.580634e-001 -6.841872e-002 -2.364042e-001 3.342132e-001 1.795154e-001 -3.492586e-002 4.529914e-001
<VARIANCE> 39
 2.014635e+000 5.378432e+000 4.597931e+000 6.891660e+000 5.359016e+000 1.832261e+001 9.558452e+000 1.382730e+001 8.744302e+000 8.632875e+000 7.421611e+000 1.212144e+001 1.045865e+000 1.992755e-001 4.214889e-001 5.171518e-001 3.467382e-001 5.531523e-001 1.885262e+000 9.001155e-001 1.608454e+000 1.949350e+000 1.374814e+000 8.844364e-001 1.114398e+000 1.068168e-001 7.594170e-002 1.454703e-001 1.604645e-001 1.614290e-001 3.984646e-001 3.933436e-001 2.066773e-001 2.904294e-001 2.667408e-001 2.589271e-001 1.421847e-001 1.777400e-001 3.330761e-002
<GCONST> 6.822830e+001
<STATE> 4
<MEAN> 39
 -9.641609e+000 -1.777425e-001 -8.708584e-001 1.919520e+000 -8.207767e-001 -2.237964e+000 6.592055e-002 2.799051e+000 -1.441186e+000 -4.046113e-001 1.534423e-001 1.545445e+000 4.627679e+001 -1.882453e-001 -3.764635e-001 1.080607e+000 -2.639898e-001 -7.963749e-001 -1.812917e+000 -3.413751e-001 -5.597166e-001 -6.586007e-001 2.727309e-001 -7.746107e-002 -5.068025e-002 7.515067e-001 6.761978e-002 -5.902505e-001 8.799976e-001 -1.045217e+000 -1.127162e+000 -1.117728e+000 -2.823104e-001 -6.766564e-002 -3.975789e-001 6.953735e-001 2.544539e-001 -9.518375e-002 8.471923e-001
<VARIANCE> 39
 2.360963e+000 7.212089e+000 4.542569e+000 7.937713e+000 3.425621e+000 1.515291e+001 1.489931e+001 1.810818e+001 1.078447e+001 1.429571e+001 5.452689e+000 9.039556e+000 1.902983e+000 7.171331e-001 7.644190e-001 9.578918e-001 4.766687e-001 2.029869e+000 3.512344e+000 7.544987e-001 1.897522e+000 3.941480e+000 1.384608e+000 1.310492e+000 1.478356e+000 3.070898e-001 7.213502e-002 2.349971e-001 3.999464e-001 3.341390e-001 4.321022e-001 2.907633e-001 4.202849e-001 3.979119e-001 2.156429e-001 3.923776e-001 2.286883e-001 1.877677e-001 1.223232e-001
<GCONST> 8.166780e+001
<STATE> 5
<MEAN> 39
 -8.873725e+000 3.543823e-002 -8.476663e-001 6.717253e-001 -2.374353e+000 -4.094531e+000 -9.522824e-001 1.299635e+000 -2.538509e+000 8.474932e-001 1.085433e+000 8.358959e-001 4.686714e+001 -2.450660e-002 -1.263752e+000 2.188175e+000 -1.888928e+000 -2.619226e+000 -3.523665e+000 -7.291110e-001 -3.082406e-001 -9.342157e-001 1.315045e+000 5.145783e-001 -2.328798e-001 2.038836e+000 1.005421e-001 -7.838851e-001 1.013117e+000 -1.324006e+000 -1.142257e+000 -9.003332e-001 -9.246765e-002 1.974890e-001 -3.242899e-001 8.852676e-001 1.857986e-001 -6.869822e-002 9.742482e-001
<VARIANCE> 39
 3.959484e+000 5.427648e+000 9.795985e+000 8.084659e+000 1.467550e+001 3.644645e+001 1.602530e+001 1.569516e+001 3.360628e+001 7.812950e+000 8.076265e+000 6.529285e+000 3.739213e+000 7.922760e-001 1.084271e+000 1.813860e+000 1.946595e+000 3.663585e+000 3.903636e+000 1.659840e+000 2.915487e+000 1.701956e+000 2.445606e+000 1.093985e+000 1.787160e+000 4.526377e-001 6.314640e-002 2.395331e-001 7.487988e-001 8.197727e-001 5.592836e-001 4.671699e-001 5.087494e-001 3.581128e-001 6.667920e-001 6.797072e-001 3.899726e-001 1.889110e-001 2.351050e-001
<GCONST> 9.585999e+001
<STATE> 6
<MEAN> 39
 -8.677289e+000 -1.608254e+000 3.151086e+000 -1.211990e+000 -8.484452e+000 -1.492541e+001 -2.058500e+000 9.664845e-002 -5.845940e+000 2.809910e+000 1.001109e+000 2.066547e+000 5.166625e+001 3.685887e-001 -2.335816e+000 2.667337e+000 -2.990156e+000 -3.412620e+000 -3.697691e+000 5.215292e-002 5.057104e-001 -1.240776e+000 2.319973e+000 1.282266e-001 -3.480690e-001 2.947038e+000 4.803256e-002 -4.892214e-001 2.443805e-001 -7.590834e-001 -2.068449e-001 4.672869e-001 4.000527e-001 4.055134e-001 1.011497e-002 4.597784e-001 -3.978696e-002 -3.235084e-002 3.688716e-001
<VARIANCE> 39
 1.229934e+001 1.234533e+001 1.274564e+001 1.288919e+001 6.744498e+001 8.694764e+001 1.240915e+001 2.210102e+001 4.085012e+001 1.803867e+001 1.664968e+001 1.061682e+001 9.867651e+000 3.988697e-001 2.913584e+000 5.912482e+000 7.412859e+000 4.609841e+000 3.427341e+000 4.810213e+000 2.702697e+000 2.563702e+000 5.444893e+000 2.688962e+000 9.570959e-001 2.131890e+000 1.175514e-001 2.250067e-001 4.962912e-001 9.409384e-001 8.799915e-001 8.461909e-001 4.290120e-001 4.851446e-001 5.274647e-001 9.480268e-001 3.566106e-001 2.251239e-001 2.864455e-001
<GCONST> 1.130289e+002
<STATE> 7
<MEAN> 39
 -5.982869e+000 -9.749136e+000 2.668921e+000 -8.816754e+000 -1.665311e+001 -2.358559e+001 1.064474e+000 8.863168e+000 -5.054050e+000 9.759434e+000 -1.299186e+000 -7.219552e-001 6.066388e+001 1.914724e-002 -9.033715e-001 1.013537e+000 -2.009969e+000 -8.225002e-001 -4.938886e-001 -9.962983e-002 3.295423e-001 7.792654e-003 1.167447e+000 -6.590282e-002 -1.432806e-001 1.214145e+000 -6.961962e-002 2.560814e-001 -3.252084e-001 2.031725e-001 4.120778e-001 4.721664e-001 -2.250623e-004 -8.337402e-002 2.212389e-001 -2.545286e-001 -4.407288e-002 9.252507e-002 -2.918467e-001
<VARIANCE> 39
 9.398864e+000 9.851497e+000 8.563455e+001 5.928978e+001 2.401125e+001 3.606768e+001 2.369306e+001 4.403044e+001 1.746281e+001 3.947046e+001 2.698616e+001 8.858795e+000 9.229639e+000 2.767654e-001 1.915759e+000 4.774708e+000 7.673647e+000 5.338864e+000 2.960823e+000 2.281904e+000 1.507146e+000 1.729678e+000 4.970170e+000 1.891774e+000 7.193392e-001 2.835700e+000 3.217952e-002 1.227095e-001 4.561090e-001 4.117531e-001 5.007603e-001 6.035176e-001 2.662511e-001 1.814630e-001 3.074134e-001 5.139998e-001 2.295750e-001 1.286726e-001 1.595315e-001
<GCONST> 1.045149e+002
<STATE> 8
<MEAN> 39
 -1.020845e+001 -1.911578e+001 7.862824e+000 -2.420339e+001 -1.018225e+001 -1.220170e+001 3.499815e+000 1.124247e+001 -4.436572e+000 5.209999e+000 -5.087513e+000 -8.322942e-001 6.487981e+001 4.365458e-002 6.946392e-002 -5.824235e-001 3.244800e-001 4.598992e-001 3.882273e-001 3.987160e-002 3.814331e-001 1.997784e-001 -6.151795e-001 -2.656858e-001 5.372790e-002 -3.046603e-001 -4.347278e-003 1.344348e-001 -8.152441e-002 2.373112e-001 5.409321e-002 1.261706e-001 5.683736e-002 -1.117731e-002 -1.394925e-002 -6.889081e-002 4.692859e-002 -3.157094e-002 -1.804382e-001
<VARIANCE> 39
 1.124138e+001 2.586388e+001 4.597962e+001 4.095911e+001 6.514420e+001 2.351782e+001 8.726502e+001 5.184391e+001 3.840336e+001 6.895860e+001 8.642622e+001 1.826751e+001 1.098329e+001 2.306552e-001 1.846316e+000 7.947860e-001 1.759015e+000 1.193324e+000 2.100394e+000 2.346628e+000 2.405283e+000 1.292475e+000 1.741284e+000 1.821634e+000 1.219799e+000 1.048429e+000 4.180073e-002 1.237122e-001 2.095958e-001 2.781536e-001 2.762629e-001 4.003761e-001 4.307269e-001 3.461568e-001 2.217238e-001 4.184479e-001 2.279619e-001 2.288722e-001 8.679225e-002
<GCONST> 1.020856e+002
<STATE> 9
<MEAN> 39
 -9.869862e+000 -5.168008e+000 -5.144512e-001 -6.244678e+000 -4.546707e+000 -3.766549e+000 1.826643e+000 8.558901e+000 -5.949488e-001 6.486646e-001 -5.811906e-001 3.054411e-001 5.024629e+001 -1.755551e-001 3.809634e-001 -1.407794e-001 4.939351e-001 3.664796e-001 3.346818e-001 1.009424e-001 -2.466084e-001 5.969189e-002 -1.781986e-002 1.799166e-001 3.543436e-002 -4.110647e-001 3.807848e-002 -6.175544e-002 2.030392e-002 -3.160894e-002 -2.310828e-003 -1.008131e-001 -8.850236e-002 -3.614154e-002 -3.087824e-003 8.654690e-003 -5.949751e-002 1.143551e-002 7.568477e-002
<VARIANCE> 39
 4.364867e+000 2.127948e+001 9.717724e+000 3.073248e+001 3.239355e+001 3.229877e+001 2.855247e+001 2.446136e+001 2.461039e+001 1.951344e+001 1.611861e+001 1.865781e+001 9.518663e+000 3.533544e-001 7.179471e-001 8.288224e-001 1.847878e+000 1.768597e+000 2.456927e+000 2.165680e+000 1.852043e+000 1.465798e+000 1.597630e+000 1.916733e+000 1.635397e+000 8.433166e-001 6.964937e-002 1.209940e-001 1.723170e-001 3.342377e-001 3.303703e-001 4.284088e-001 4.140259e-001 3.754789e-001 3.144531e-001 3.452183e-001 3.831176e-001 3.124483e-001 1.321288e-001
<GCONST> 9.546475e+001
<TRANSP> 10
 0.000000e+000 1.000000e+000 0.000000e+000 0.000000e+000 0.000000e+000 0.000000e+000 0.000000e+000 0.000000e+000 0.000000e+000 0.000000e+000
 0.000000e+000 1.008750e-001 8.991249e-001 0.000000e+000 0.000000e+000 0.000000e+000 0.000000e+000 0.000000e+000 0.000000e+000 0.000000e+000
 0.000000e+000 0.000000e+000 3.305129e-002 9.669487e-001 0.000000e+000 0.000000e+000 0.000000e+000 0.000000e+000 0.000000e+000 0.000000e+000
 0.000000e+000 0.000000e+000 0.000000e+000 2.804225e-002 9.719577e-001 0.000000e+000 0.000000e+000 0.000000e+000 0.000000e+000 0.000000e+000
 0.000000e+000 0.000000e+000 0.000000e+000 0.000000e+000 5.432650e-002 9.456735e-001 0.000000e+000 0.000000e+000 0.000000e+000 0.000000e+000
 0.000000e+000 0.000000e+000 0.000000e+000 0.000000e+000 0.000000e+000 4.375241e-001 5.624759e-001 0.000000e+000 0.000000e+000 0.000000e+000
 0.000000e+000 0.000000e+000 0.000000e+000 0.000000e+000 0.000000e+000 0.000000e+000 8.434787e-001 1.565212e-001 0.000000e+000 0.000000e+000
 0.000000e+000 0.000000e+000 0.000000e+000 0.000000e+000 0.000000e+000 0.000000e+000 0.000000e+000 9.474865e-001 5.251357e-002 0.000000e+000
 0.000000e+000 0.000000e+000 0.000000e+000 0.000000e+000 0.000000e+000 0.000000e+000 0.000000e+000 0.000000e+000 9.435680e-001 5.643203e-002
 0.000000e+000 0.000000e+000 0.000000e+000 0.000000e+000 0.000000e+000 0.000000e+000 0.000000e+000 0.000000e+000 0.000000e+000 0.000000e+000
<ENDHMM>
~h "sil"
<BEGINHMM>
<NUMSTATES> 5
<STATE> 2
<MEAN> 39
 -1.001165e+001 -1.730810e+000 -1.920805e+000 -2.027305e+000 -2.978879e-001 -1.716605e+000 -7.129337e-001 2.885872e+000 -2.480824e+000 1.190283e+000 9.356815e-002 3.679548e-001 4.753763e+001 -3.258566e-003 1.414771e-001 -1.066229e-001 4.456814e-001 5.698730e-003 2.145261e-001 1.090860e-001 -2.487945e-002 2.174748e-001 -1.469394e-001 1.453905e-001 1.122291e-001 -2.775038e-001 1.868596e-002 -7.850205e-003 8.566809e-003 -5.193998e-002 -3.424624e-002 -4.251833e-002 -1.202824e-002 -9.009278e-003 -6.821785e-003 -8.194450e-003 -2.953626e-002 -8.501724e-003 4.785198e-002
<VARIANCE> 39
 2.880171e+000 6.635258e+000 1.317093e+001 1.448202e+001 1.984459e+001 2.062976e+001 1.679316e+001 1.807241e+001 1.962364e+001 1.848813e+001 1.647248e+001 1.521760e+001 2.856335e+000 2.411495e-001 4.318069e-001 6.794969e-001 1.111710e+000 1.350481e+000 1.810827e+000 1.445550e+000 1.628632e+000 1.727315e+000 1.730385e+000 1.638827e+000 1.331859e+000 2.446990e-001 3.928275e-002 7.297330e-002 1.142381e-001 1.981509e-001 2.301302e-001 3.330471e-001 2.624701e-001 2.849081e-001 3.142272e-001 3.339677e-001 2.901818e-001 2.427336e-001 3.940563e-002
<GCONST> 8.080566e+001
<STATE> 3
<MEAN> 39
 -9.777726e+000 -4.818945e-001 -2.451724e+000 9.305163e-001 -1.103531e+000 -2.711640e-001 -1.495955e-001 1.936172e+000 -1.318244e+000 1.294580e-002 1.022735e+000 8.598970e-001 4.573793e+001 3.712206e-003 4.536855e-003 -1.610124e-003 1.820234e-002 -1.445890e-002 9.115887e-004 3.424291e-003 -9.539975e-003 1.458517e-002 -3.451074e-003 4.755133e-003 6.830979e-003 -1.049496e-002 -1.899131e-003 -1.506467e-003 1.357026e-003 -6.531478e-003 3.222356e-003 -4.846409e-003 -1.980293e-003 1.513232e-003 -5.026604e-003 4.619805e-003 -6.147007e-004 -4.767842e-004 3.848129e-003
<VARIANCE> 39
 9.871267e-001 2.142263e+000 3.737013e+000 5.355177e+000 7.325510e+000 8.853024e+000 1.015486e+001 1.083822e+001 1.121090e+001 1.157219e+001 1.092688e+001 1.006996e+001 2.932101e-001 9.962809e-002 2.197673e-001 3.758977e-001 5.602283e-001 7.680758e-001 9.504868e-001 1.143184e+000 1.225394e+000 1.287076e+000 1.315245e+000 1.264366e+000 1.141884e+000 2.764237e-002 2.074564e-002 4.564815e-002 7.771777e-002 1.157795e-001 1.584407e-001 1.962528e-001 2.372722e-001 2.540152e-001 2.687604e-001 2.742043e-001 2.655270e-001 2.374865e-001 5.687424e-003
<GCONST> 5.608978e+001
<STATE> 4
<MEAN> 39
 -9.824668e+000 -3.405574e-001 -1.799773e+000 -9.347711e-002 -5.706102e-001 -1.674519e+000 -9.476680e-001 1.057325e+000 -1.797425e+000 5.166270e-001 5.949590e-001 6.902390e-001 4.571878e+001 1.640449e-002 1.962357e-002 2.315328e-002 -4.397997e-002 -4.505402e-003 -5.087993e-002 -3.871250e-002 -7.623609e-003 -4.584728e-002 2.512726e-002 3.599845e-002 1.375770e-002 3.537253e-002 -5.308880e-003 9.219868e-003 1.999336e-002 -2.740673e-002 -2.243947e-002 -2.207324e-002 -6.261469e-004 -8.078311e-003 -7.525087e-003 5.010981e-004 8.961874e-003 -5.295198e-003 2.008541e-002
<VARIANCE> 39
 2.617624e+000 3.703666e+000 7.432131e+000 1.048697e+001 1.256206e+001 1.458298e+001 1.498148e+001 1.692867e+001 1.296546e+001 1.434929e+001 1.327752e+001 1.310863e+001 3.653561e+000 2.591170e-001 3.961600e-001 6.732951e-001 9.149323e-001 1.355913e+000 1.501555e+000 1.432091e+000 1.330943e+000 1.628130e+000 1.696149e+000 1.475472e+000 1.222451e+000 1.069351e-001 5.548140e-002 8.153668e-002 1.412690e-001 1.913829e-001 2.764514e-001 3.048057e-001 2.835774e-001 2.511526e-001 3.250376e-001 3.287339e-001 2.834791e-001 2.245516e-001 2.340043e-002
<GCONST> 7.582703e+001
<TRANSP> 5
 0.000000e+000 1.000000e+000 0.000000e+000 0.000000e+000 0.000000e+000
 0.000000e+000 8.293435e-001 1.706565e-001 0.000000e+000 0.000000e+000
 0.000000e+000 0.000000e+000 9.832494e-001 1.675059e-002 0.000000e+000
 0.000000e+000 0.000000e+000 0.000000e+000 7.597556e-001 2.402445e-001
 0.000000e+000 0.000000e+000 0.000000e+000 0.000000e+000 0.000000e+000
<ENDHMM>
~h "tri"
<BEGINHMM>
<NUMSTATES> 10
<STATE> 2
<MEAN> 39
 -9.705905e+000 -5.191308e-001 -2.249942e+000 1.203705e+000 2.706257e-001 4.752018e-001 -4.664193e-001 1.808020e+000 -1.110048e+000 5.387546e-001 1.454879e+000 1.237700e+000 4.590658e+001 -3.560928e-001 -3.286274e-001 6.698598e-001 -5.858984e-001 7.105026e-001 -7.810636e-001 -3.008865e-002 4.444886e-001 -3.799715e-001 -3.756585e-001 -1.854935e-002 -4.159154e-002 4.647437e-001 -4.732816e-001 -3.153994e-001 4.037803e-001 -6.632564e-001 2.570466e-001 -6.118177e-001 9.924744e-002 2.091361e-001 -1.480772e-001 1.181814e-001 -1.244336e-001 -1.008700e-001 5.210998e-001
<VARIANCE> 39
 9.552914e-001 1.964517e+000 1.909247e+000 3.356505e+000 8.160339e+000 8.713978e+000 9.222669e+000 9.887615e+000 1.057751e+001 1.527691e+001 9.159406e+000 1.008576e+001 3.749139e-001 2.171255e-001 2.985814e-001 5.429853e-001 1.206811e+000 1.453637e+000 1.388654e+000 1.659725e+000 1.480095e+000 1.171632e+000 1.740855e+000 1.435591e+000 7.838902e-001 1.805272e-001 3.191013e-002 1.168133e-001 1.623291e-001 3.535633e-001 2.920117e-001 2.287814e-001 3.641680e-001 4.010814e-001 1.404752e-001 5.008609e-001 2.432482e-001 1.597588e-001 4.696955e-002
<GCONST> 6.709319e+001
<STATE> 3
<MEAN> 39
 -1.005024e+001 -3.821854e-001 -1.779737e+000 6.283780e-001 1.507447e+000 -1.163494e+000 -3.467813e-001 2.104804e+000 -2.591092e+000 -7.896239e-001 9.146756e-001 6.527900e-001 4.631289e+001 -1.342932e+000 -1.203137e+000 1.459467e+000 -1.876493e+000 1.156929e+000 -1.892565e+000 2.258320e-001 1.040701e+000 -4.732651e-001 3.775908e-001 -2.554417e-001 -1.947332e-001 1.522947e+000 -5.854914e-001 -1.820386e-001 3.143151e-001 -6.494365e-001 1.050494e-001 -4.938688e-001 1.457244e-001 1.070851e-002 8.863691e-002 4.198625e-001 2.263832e-002 1.584513e-001 5.761127e-001
<VARIANCE> 39
 2.041077e+000 3.489078e+000 3.454721e+000 7.513597e+000 1.283258e+001 8.842006e+000 1.228374e+001 1.129681e+001 9.762436e+000 1.255060e+001 1.360183e+001 7.291255e+000 1.063852e+000 1.598299e-001 7.647869e-001 1.361897e+000 2.810566e+000 1.931368e+000 1.800747e+000 2.415348e+000 2.639161e+000 1.367948e+000 3.287401e+000 1.190860e+000 6.879791e-001 3.833548e-001 4.167081e-002 2.140868e-001 2.051652e-001 2.121628e-001 3.762376e-001 3.469350e-001 4.419638e-001 3.206283e-001 1.961302e-001 2.195546e-001 3.447067e-001 1.963078e-001 7.603087e-002
<GCONST> 7.845394e+001
<STATE> 4
<MEAN> 39
 -1.414924e+001 -2.509043e+000 1.967658e+000 -3.539820e+000 2.319351e+000 -4.628109e+000 7.779527e-001 5.616445e+000 -3.294294e+000 1.912725e-001 9.497806e-001 7.636428e-001 5.031568e+001 -1.997855e+000 -7.387651e-001 1.440772e+000 -2.216608e+000 1.035026e+000 -2.051908e+000 7.283379e-002 4.588908e-001 -3.349008e-001 8.471740e-001 -2.562214e-001 4.174607e-001 1.846511e+000 -2.715212e-001 2.663319e-001 5.540167e-002 -2.462399e-001 1.999868e-001 -1.219972e-002 2.394427e-001 -2.348355e-001 2.653168e-001 1.626626e-001 4.704342e-002 3.133511e-001 8.202118e-002
<VARIANCE> 39
 8.441261e+000 7.009275e+000 1.149672e+001 2.479210e+001 2.215893e+001 2.320102e+001 1.687025e+001 2.588908e+001 1.725395e+001 1.630115e+001 1.439857e+001 4.830955e+000 5.140736e+000 6.585330e-001 1.445296e+000 1.423847e+000 2.634586e+000 2.671015e+000 2.656074e+000 2.342861e+000 2.339534e+000 1.241864e+000 2.395464e+000 1.593854e+000 8.014873e-001 9.647279e-001 1.237904e-001 1.679508e-001 2.357523e-001 1.823534e-001 4.660000e-001 2.996429e-001 3.990277e-001 3.824006e-001 4.429479e-001 4.614585e-001 3.156837e-001 1.423800e-001 1.143511e-001
<GCONST> 9.375589e+001
<STATE> 5
<MEAN> 39
 -1.698477e+001 -3.740582e+000 4.288310e+000 -8.239639e+000 4.381762e+000 -7.966066e+000 3.578910e-001 4.058550e+000 -2.586467e+000 2.341044e+000 4.208668e-001 2.859317e+000 5.347605e+001 -1.768947e+000 1.444539e-001 1.156909e+000 -1.833825e+000 1.289727e+000 -6.506789e-001 1.027465e+000 1.163690e-001 4.726009e-001 3.909703e-001 -3.881038e-002 5.727640e-001 1.270156e+000 3.420543e-002 4.076467e-001 -4.796079e-002 1.855252e-001 7.606398e-002 3.938332e-001 1.831711e-001 -1.874468e-001 1.939615e-001 -3.422468e-001 1.030659e-001 -1.403896e-001 -2.477463e-001
<VARIANCE> 39
 1.548082e+001 2.006893e+001 1.364779e+001 3.473587e+001 2.774331e+001 3.696878e+001 2.799063e+001 3.339202e+001 2.039009e+001 2.647963e+001 1.625364e+001 9.916019e+000 1.131039e+001 1.633622e+000 2.499035e+000 1.956388e+000 3.126989e+000 2.763888e+000 3.452358e+000 2.586256e+000 1.921328e+000 1.900605e+000 2.222583e+000 2.543069e+000 1.191432e+000 1.630639e+000 1.827397e-001 5.054309e-001 3.974966e-001 5.244117e-001 4.212973e-001 6.998477e-001 4.904301e-001 4.273093e-001 3.569222e-001 5.758952e-001 4.826224e-001 2.387993e-001 2.230818e-001
<GCONST> 1.092883e+002
<STATE> 6
<MEAN> 39
 -2.216517e+001 -1.436597e+000 7.164556e+000 -1.034502e+001 8.145459e+000 -1.058756e+001 5.365619e+000 3.634180e+000 -2.051358e-001 7.978967e-001 3.205022e-001 3.751258e+000 5.599297e+001 -8.136051e-001 7.001426e-001 8.348555e-001 -6.227548e-001 2.764448e-001 -8.365572e-001 2.507419e-001 -4.056459e-001 3.338143e-001 -8.624393e-001 6.016794e-001 -4.355678e-002 5.725726e-001 3.015039e-001 2.132179e-002 -1.540381e-001 5.077574e-001 -4.364659e-001 -1.566573e-002 -3.638917e-001 -5.635633e-002 -1.015681e-001 -2.784849e-001 1.736987e-001 -1.082355e-001 -1.822815e-001
<VARIANCE> 39
 2.287233e+001 1.209055e+001 1.333676e+001 6.030162e+001 5.263250e+001 3.191210e+001 4.958250e+001 2.761860e+001 2.828688e+001 3.034747e+001 2.527254e+001 1.494434e+001 4.693095e+000 3.310190e+000 1.368105e+000 1.625298e+000 2.368433e+000 4.123364e+000 3.706132e+000 4.326496e+000 2.376999e+000 2.491410e+000 2.427074e+000 2.980290e+000 1.375257e+000 2.964007e-001 2.540548e-001 2.058121e-001 2.493798e-001 2.612163e-001 4.426818e-001 6.285841e-001 5.936728e-001 5.050029e-001 4.500735e-001 4.705005e-001 4.535359e-001 3.186185e-001 8.270577e-002
<GCONST> 1.086377e+002
<STATE> 7
<MEAN> 39
 -2.096956e+001 -5.189192e-001 9.363780e+000 -8.959099e+000 1.341478e-001 -1.618698e+001 2.890671e+000 1.062128e+000 -3.927763e+000 -2.471095e+000 4.566019e+000 1.122203e+000 5.810250e+001 5.844118e-001 -3.490058e-001 -2.114033e-002 1.404644e-001 -1.373085e+000 -7.961733e-001 -2.433315e-001 -3.005072e-001 -4.351216e-001 -2.590071e-001 1.596905e-001 -4.321766e-001 2.345525e-001 3.689438e-001 -3.456908e-001 -4.589483e-002 -9.101151e-002 -4.228204e-001 -9.775591e-002 -1.306507e-001 2.595286e-002 -8.106953e-002 2.440942e-001 -1.160726e-001 -5.664557e-002 6.805488e-002
<VARIANCE> 39
 9.292271e+001 2.200203e+001 2.341253e+001 8.395966e+001 2.267355e+002 7.086950e+001 4.064860e+001 1.731473e+001 7.208001e+001 2.269491e+001 1.881173e+001 1.677847e+001 4.485979e+000 3.398153e+000 2.161690e+000 1.162693e+000 1.189466e+000 4.362249e+000 2.785796e+000 2.155796e+000 1.692914e+000 2.619752e+000 2.646139e+000 1.452520e+000 1.246076e+000 4.013260e-001 3.138448e-001 2.573739e-001 2.415340e-001 3.170472e-001 5.413775e-001 3.846807e-001 4.039184e-001 3.405620e-001 4.430987e-001 4.816426e-001 2.331695e-001 2.339664e-001 1.121189e-001
<GCONST> 1.102278e+002
<STATE> 8
<MEAN> 39
 -1.249546e+001 -1.119199e+001 1.425931e+001 -2.056858e+001 -1.408628e+001 -1.678014e+001 -6.136076e-001 1.505852e+000 -4.678202e+000 9.166076e+000 -1.125031e+000 -3.255399e+000 6.218533e+001 5.183051e-001 -3.558223e-001 7.648574e-002 -3.770781e-001 -4.734902e-001 5.954123e-001 -1.113610e-001 -8.125134e-002 -2.700663e-001 9.277161e-001 -4.886794e-002 -4.772165e-002 -6.800882e-002 -2.827304e-001 2.745494e-001 -3.850190e-002 1.578262e-001 4.319677e-001 2.711366e-001 1.345081e-001 3.832044e-002 7.058452e-002 -5.627547e-002 2.725114e-002 7.435176e-002 -1.889219e-001
<VARIANCE> 39
 1.758863e+001 2.746724e+001 4.536034e+001 9.048300e+001 5.558591e+001 4.111663e+001 2.302690e+001 4.786089e+001 6.336731e+001 9.880326e+001 1.043481e+002 3.386095e+001 1.501323e+001 2.100926e+000 3.867306e+000 2.424486e+000 2.971700e+000 6.629582e+000 2.283070e+000 1.889299e+000 1.939134e+000 2.422095e+000 5.478443e+000 2.446183e+000 1.363372e+000 1.537642e+000 3.051358e-001 3.485061e-001 2.803666e-001 1.689900e-001 7.191308e-001 4.480477e-001 3.167980e-001 3.146743e-001 3.102920e-001 5.782166e-001 3.429174e-001 2.230302e-001 1.013437e-001
<GCONST> 1.175360e+002
<STATE> 9
<MEAN> 39
 -1.120681e+001 -8.982059e+000 1.150529e+001 -2.052117e+001 -1.242039e+001 -1.150196e+001 1.090236e+000 -7.491463e-002 -6.810055e+000 1.295479e+001 -3.269133e-001 -9.331911e-001 5.883229e+001 3.714173e-002 4.547874e-001 -3.358993e-001 7.027794e-001 4.007346e-001 7.950582e-001 -2.173182e-002 6.100092e-002 1.221989e-001 -1.647443e-001 -1.690499e-001 5.529427e-002 -6.777515e-001 1.078587e-002 -1.052202e-002 -6.904376e-002 6.275749e-002 5.591053e-003 -4.954814e-002 5.461338e-003 2.924804e-002 4.470613e-002 -9.476945e-002 1.763079e-002 2.239671e-003 6.376930e-003
<VARIANCE> 39
 5.241082e+000 3.071604e+001 2.315582e+001 1.322484e+002 2.943687e+001 5.968663e+001 3.407384e+001 1.685418e+001 3.134962e+001 5.467678e+001 5.575110e+001 1.183937e+001 3.668242e+001 1.971111e-001 4.077233e-001 1.024473e+000 1.383371e+000 1.269321e+000 1.547730e+000 1.024236e+000 1.203720e+000 1.528761e+000 2.073276e+000 1.681284e+000 7.058527e-001 2.306338e-001 3.964481e-002 8.022560e-002 1.365239e-001 1.143883e-001 1.823706e-001 2.963001e-001 1.840387e-001 2.752652e-001 3.073794e-001 3.506216e-001 2.252903e-001 1.441197e-001 2.354877e-002
<GCONST> 8.950652e+001
<TRANSP> 10
 0.000000e+000 1.000000e+000 0.000000e+000 0.000000e+000 0.000000e+000 0.000000e+000 0.000000e+000 0.000000e+000 0.000000e+000 0.000000e+000
 0.000000e+000 3.150776e-001 6.849225e-001 0.000000e+000 0.000000e+000 0.000000e+000 0.000000e+000 0.000000e+000 0.000000e+000 0.000000e+000
 0.000000e+000 0.000000e+000 1.465021e-001 8.534979e-001 0.000000e+000 0.000000e+000 0.000000e+000 0.000000e+000 0.000000e+000 0.000000e+000
 0.000000e+000 0.000000e+000 0.000000e+000 4.036775e-001 5.963225e-001 0.000000e+000 0.000000e+000 0.000000e+000 0.000000e+000 0.000000e+000
 0.000000e+000 0.000000e+000 0.000000e+000 0.000000e+000 6.806526e-001 3.193474e-001 0.000000e+000 0.000000e+000 0.000000e+000 0.000000e+000
 0.000000e+000 0.000000e+000 0.000000e+000 0.000000e+000 0.000000e+000 6.710817e-001 3.289183e-001 0.000000e+000 0.000000e+000 0.000000e+000
 0.000000e+000 0.000000e+000 0.000000e+000 0.000000e+000 0.000000e+000 0.000000e+000 9.092086e-001 9.079144e-002 0.000000e+000 0.000000e+000
 0.000000e+000 0.000000e+000 0.000000e+000 0.000000e+000 0.000000e+000 0.000000e+000 0.000000e+000 9.122040e-001 8.779594e-002 0.000000e+000
 0.000000e+000 0.000000e+000 0.000000e+000 0.000000e+000 0.000000e+000 0.000000e+000 0.000000e+000 0.000000e+000 9.269251e-001 7.307491e-002
 0.000000e+000 0.000000e+000 0.000000e+000 0.000000e+000 0.000000e+000 0.000000e+000 0.000000e+000 0.000000e+000 0.000000e+000 0.000000e+000
<ENDHMM>
~h "nula"
<BEGINHMM>
<NUMSTATES> 10
<STATE> 2
<MEAN> 39
 -9.370165e+000 4.833753e-002 -3.627231e+000 -3.110044e+000 -3.346955e+000 -4.784183e+000 -4.767786e+000 -3.337364e+000 -3.046593e+000 -4.199799e-001 -1.287889e+000 -1.498302e+000 4.272570e+001 1.107741e-001 1.051428e-001 -6.865160e-003 -1.902265e-001 -6.157738e-002 -3.200122e-001 -1.852645e-001 -1.663536e-001 -2.541062e-001 -1.479741e-002 -1.804656e-001 -2.005350e-001 1.220520e-001 5.678273e-002 1.841776e-003 -1.196684e-002 -9.413009e-002 -1.291326e-001 -1.147889e-001 1.730224e-002 -1.199132e-002 -9.876066e-002 -1.897333e-002 -2.908583e-002 -2.657487e-002 4.984859e-002
<VARIANCE> 39
 1.596704e+000 3.557326e+000 1.125729e+001 1.547909e+001 1.311995e+001 1.295090e+001 1.187880e+001 1.456042e+001 1.266662e+001 1.369282e+001 1.230336e+001 1.058438e+001 1.159301e+001 1.863737e-001 3.995563e-001 7.219404e-001 1.111678e+000 9.763733e-001 1.785292e+000 1.225679e+000 1.503932e+000 1.447196e+000 1.401747e+000 1.525999e+000 9.885202e-001 1.291374e-001 3.545938e-002 7.762029e-002 1.452055e-001 2.756071e-001 3.032171e-001 4.163284e-001 3.053663e-001 3.079536e-001 3.009181e-001 3.282379e-001 3.545573e-001 1.990689e-001 3.252357e-002
<GCONST> 7.682098e+001
<STATE> 3
<MEAN> 39
 -9.310486e+000 2.493235e-001 -2.018201e+000 -5.124711e-002 -5.882210e-001 -2.211648e+000 -1.480692e+000 1.266501e+000 -2.575831e+000 9.380130e-001 -2.536823e-001 5.116283e-002 4.659227e+001 5.782259e-001 2.660168e-001 3.048470e-002 -1.048127e+000 -1.087634e+000 -1.345538e+000 -1.944896e-001 -6.343107e-001 -1.043085e+000 -7.560698e-002 -5.422533e-001 -4.797077e-001 5.237921e-001 2.594366e-001 -4.610842e-002 1.623797e-001 -5.257965e-001 -5.909905e-001 -4.074927e-001 -1.499016e-001 -2.862643e-001 -2.447173e-001 -6.452452e-002 -2.871729e-001 2.500896e-002 3.460935e-001
<VARIANCE> 39
 4.003263e+000 7.242081e+000 1.480461e+001 1.363281e+001 1.085083e+001 2.765338e+001 1.829672e+001 1.120276e+001 1.532768e+001 1.337882e+001 1.707920e+001 9.897288e+000 5.042902e+000 5.166602e-001 5.391715e-001 1.218498e+000 1.333654e+000 2.367620e+000 2.385904e+000 2.440183e+000 1.111502e+000 2.024035e+000 2.157231e+000 1.787139e+000 8.934283e-001 3.151856e-001 1.018482e-001 1.832892e-001 3.952761e-001 4.280185e-001 5.033429e-001 7.123753e-001 4.211133e-001 4.430006e-001 2.240841e-001 3.338485e-001 3.020754e-001 2.243316e-001 1.027823e-001
<GCONST> 9.015186e+001
<STATE> 4
<MEAN> 39
 -8.892020e+000 1.884462e-001 -1.164197e+000 -1.857509e+000 -2.223950e+000 -4.849613e+000 -2.643474e+000 -8.334879e-001 -3.444096e+000 3.825262e-001 -6.027472e-001 -4.922547e-001 4.726107e+001 1.045105e+000 1.612858e-001 1.017358e-001 -1.503328e+000 -1.763134e+000 -1.745509e+000 -6.956297e-001 -8.900672e-001 -1.312323e+000 -2.180808e-001 -1.294789e+000 -4.682939e-001 9.562273e-001 1.921622e-001 -1.361794e-001 1.572072e-001 -4.185279e-001 -4.029878e-001 -1.366294e-001 -2.344812e-001 -1.286454e-001 -6.105101e-002 3.851413e-002 -2.489656e-001 7.696451e-002 3.448972e-001
<VARIANCE> 39
 6.090664e+000 7.005387e+000 1.464506e+001 1.033265e+001 1.899394e+001 3.506181e+001 1.716007e+001 1.339802e+001 2.523632e+001 2.414637e+001 1.187738e+001 5.831901e+000 4.936130e+000 6.299331e-001 8.141403e-001 2.020401e+000 3.531554e+000 4.592204e+000 4.711031e+000 3.346683e+000 1.860688e+000 2.319807e+000 3.062467e+000 2.049331e+000 1.040190e+000 7.306921e-001 1.809120e-001 2.000296e-001 3.825334e-001 3.986876e-001 4.819846e-001 5.411021e-001 5.082514e-001 5.235507e-001 3.491034e-001 2.724878e-001 2.684042e-001 1.944123e-001 1.035422e-001
<GCONST> 9.779946e+001
<STATE> 5
<MEAN> 39
 -5.206978e+000 1.846910e+000 -2.303730e+000 -5.835122e+000 -6.977547e+000 -9.254364e+000 -3.541041e+000 -2.642931e+000 -7.913786e+000 9.063932e-001 -3.126718e+000 -6.804139e-001 5.000061e+001 1.274679e+000 -9.813504e-002 3.793102e-001 -2.521349e+000 -2.329429e+000 -1.487489e+000 -6.619429e-001 -1.222847e+000 -1.176548e+000 -6.403513e-002 -1.022520e+000 5.267833e-002 1.565439e+000 -1.691296e-001 -2.177901e-001 1.565417e-001 1.204468e-001 2.401003e-001 2.765188e-001 -1.173815e-002 2.257040e-001 4.581214e-001 1.366632e-001 8.622725e-002 1.000876e-001 5.585834e-002
<VARIANCE> 39
 6.510337e+000 3.100385e+000 2.357905e+001 1.402720e+001 3.011782e+001 2.342163e+001 2.041597e+001 1.280185e+001 2.064344e+001 3.021501e+001 1.427040e+001 1.125062e+001 5.837538e+000 9.853213e-001 1.077306e+000 3.151265e+000 1.486848e+000 3.749449e+000 6.352250e+000 3.389799e+000 3.584570e+000 2.192392e+000 1.727225e+000 2.727412e+000 1.751957e+000 5.732142e-001 1.108810e-001 1.479707e-001 1.638414e-001 3.386409e-001 3.153899e-001 4.182771e-001 3.678055e-001 2.994872e-001 3.401956e-001 3.651892e-001 1.921921e-001 2.778363e-001 9.626286e-002
<GCONST> 9.690852e+001
<STATE> 6
<MEAN> 39
 -3.001914e+000 3.154822e-001 -1.081285e+000 -9.759805e+000 -1.082977e+001 -1.141691e+001 -4.641390e+000 -4.339644e+000 -8.449707e+000 8.847599e-001 -4.139198e+000 -6.998630e-001 5.332912e+001 4.401507e-001 -7.430027e-001 3.110378e-001 -8.899146e-001 -7.045981e-001 -6.977701e-001 -6.796339e-001 -7.981575e-002 1.886083e-001 1.156830e-001 -9.538314e-002 8.023234e-003 1.040471e+000 -2.255479e-001 -2.905654e-001 -2.496112e-001 3.919454e-001 5.248213e-001 3.313572e-001 -3.234092e-002 3.348032e-001 4.834565e-001 7.060953e-002 3.321731e-001 -3.015437e-002 -9.256433e-002
<VARIANCE> 39
 1.027988e+001 1.053662e+001 5.162501e+001 1.384927e+001 2.983406e+001 2.237433e+001 2.578626e+001 3.188142e+001 3.284354e+001 2.638182e+001 3.069806e+001 2.295052e+001 3.270056e+000 8.437017e-001 9.342867e-001 1.370196e+000 2.982527e+000 1.827109e+000 1.436985e+000 1.801335e+000 2.374164e+000 2.249680e+000 1.458386e+000 2.547456e+000 1.764804e+000 6.013018e-001 6.869527e-002 2.190382e-001 2.940164e-001 3.474355e-001 4.226531e-001 5.043562e-001 2.388617e-001 3.706567e-001 4.972969e-001 4.629301e-001 2.259357e-001 2.785800e-001 7.490436e-002
<GCONST> 9.915380e+001
<STATE> 7
<MEAN> 39
 -2.195964e+000 -4.632838e+000 -3.269334e+000 -1.260960e+001 -1.311980e+001 -9.115458e+000 -7.605655e+000 -4.701286e+000 -5.417560e+000 1.498345e+000 -3.768542e-001 -1.305945e+000 5.706070e+001 2.063313e-001 -1.174288e+000 -7.128246e-001 -9.893595e-001 2.620659e-001 3.656326e-001 -5.381773e-001 6.364064e-001 7.374785e-001 3.145020e-001 3.265722e-001 -3.516565e-001 8.129356e-001 -4.932661e-002 -3.396872e-002 -1.598289e-001 -2.836527e-001 2.811494e-001 2.244388e-001 9.835514e-002 9.084108e-002 -1.494457e-003 1.457186e-001 4.981269e-002 -9.731252e-002 -2.475641e-002
<VARIANCE> 39
 2.585472e+001 2.490716e+001 4.901856e+001 3.953354e+001 3.041985e+001 3.616318e+001 4.507149e+001 5.049738e+001 3.093037e+001 3.315630e+001 8.569398e+001 3.730470e+001 8.037179e+000 1.160784e+000 2.486552e+000 1.609616e+000 3.265521e+000 2.781521e+000 2.847251e+000 3.292793e+000 1.988373e+000 3.295303e+000 2.800756e+000 4.299954e+000 3.022707e+000 7.630824e-001 2.296695e-001 3.301881e-001 2.973766e-001 6.792828e-001 5.080308e-001 5.423757e-001 5.182604e-001 4.196039e-001 4.263946e-001 4.997028e-001 9.184201e-001 4.524764e-001 1.015773e-001
<GCONST> 1.170144e+002
<STATE> 8
<MEAN> 39
 -3.772115e+000 -1.274614e+001 -8.717468e+000 -2.452839e+001 -1.026154e+000 -3.348885e+000 -6.698038e+000 -8.530412e-001 -2.239707e+000 6.982632e+000 -1.289382e+000 -4.509365e+000 6.286557e+001 -1.968998e-001 -3.857907e-001 -2.786367e-001 -5.650195e-001 8.509693e-001 5.737802e-001 4.031337e-001 1.637252e-001 -1.198391e-002 2.562616e-001 -1.795193e-001 -1.344270e-001 2.145515e-001 -8.067522e-003 5.627193e-002 5.970611e-002 1.781166e-001 -3.324484e-002 -4.431510e-002 5.160843e-002 -2.365695e-002 -8.349960e-002 -6.624772e-002 -8.643572e-002 7.175434e-002 -5.821491e-002
<VARIANCE> 39
 1.328727e+001 1.791403e+001 4.529078e+001 7.953188e+001 8.078153e+001 6.106529e+001 9.519778e+001 5.700303e+001 7.486107e+001 5.453861e+001 5.262397e+001 3.897305e+001 2.933668e+001 3.489801e-001 1.152673e+000 1.202327e+000 2.963181e+000 5.172444e+000 3.248305e+000 2.660512e+000 3.607571e+000 3.449598e+000 3.547142e+000 3.473117e+000 2.118123e+000 5.881187e-001 6.027699e-002 2.203124e-001 1.945727e-001 4.296089e-001 8.269771e-001 5.225636e-001 4.964526e-001 6.824979e-001 6.454402e-001 6.272464e-001 5.021902e-001 3.637461e-001 6.096785e-002
<GCONST> 1.170468e+002
<STATE> 9
<MEAN> 39
 -7.088771e+000 -1.665713e+001 -8.042181e+000 -1.822662e+001 8.549459e+000 1.928997e+000 -3.416597e+000 3.626193e+000 -2.726877e+000 5.338768e+000 -1.040000e+001 -4.121533e+000 5.985531e+001 -9.208198e-002 5.634339e-001 1.113364e-001 1.063710e+000 -1.961490e-001 3.629013e-002 1.286030e-001 -5.711221e-002 -1.476735e-003 -3.178690e-001 1.012061e-001 7.951038e-002 -7.035460e-001 3.187503e-003 4.646748e-002 2.377756e-002 8.674446e-003 -7.645480e-002 -4.111736e-002 -4.597912e-002 -1.430020e-002 5.633553e-002 8.589216e-003 1.233096e-001 1.559684e-002 -2.821643e-002
<VARIANCE> 39
 7.113334e+000 6.665012e+001 1.239172e+001 7.841777e+001 4.699432e+001 4.138465e+001 5.650432e+001 2.596821e+001 3.926538e+001 4.028796e+001 6.689703e+001 3.062580e+001 5.198330e+001 2.914972e-001 1.173214e+000 7.896751e-001 1.108921e+000 1.273960e+000 1.886216e+000 1.677515e+000 1.516231e+000 1.995272e+000 2.010680e+000 2.202058e+000 1.676274e+000 4.109375e-001 4.054078e-002 1.169915e-001 1.556635e-001 2.027995e-001 2.792703e-001 3.074409e-001 2.749977e-001 2.911611e-001 4.103578e-001 3.578793e-001 3.288278e-001 3.485042e-001 3.156527e-002
<GCONST> 9.960764e+001
<TRANSP> 10
 0.000000e+000 1.000000e+000 0.000000e+000 0.000000e+000 0.000000e+000 0.000000e+000 0.000000e+000 0.000000e+000 0.000000e+000 0.000000e+000
 0.000000e+000 7.995916e-001 2.004085e-001 0.000000e+000 0.000000e+000 0.000000e+000 0.000000e+000 0.000000e+000 0.000000e+000 0.000000e+000
 0.000000e+000 0.000000e+000 1.889800e-001 8.110200e-001 0.000000e+000 0.000000e+000 0.000000e+000 0.000000e+000 0.000000e+000 0.000000e+000
 0.000000e+000 0.000000e+000 0.000000e+000 2.940749e-001 7.059251e-001 0.000000e+000 0.000000e+000 0.000000e+000 0.000000e+000 0.000000e+000
 0.000000e+000 0.000000e+000 0.000000e+000 0.000000e+000 2.962498e-001 7.037503e-001 0.000000e+000 0.000000e+000 0.000000e+000 0.000000e+000
 0.000000e+000 0.000000e+000 0.000000e+000 0.000000e+000 0.000000e+000 6.967118e-001 3.032882e-001 0.000000e+000 0.000000e+000 0.000000e+000
 0.000000e+000 0.000000e+000 0.000000e+000 0.000000e+000 0.000000e+000 0.000000e+000 8.432389e-001 1.567611e-001 0.000000e+000 0.000000e+000
 0.000000e+000 0.000000e+000 0.000000e+000 0.000000e+000 0.000000e+000 0.000000e+000 0.000000e+000 9.466380e-001 5.336196e-002 0.000000e+000
 0.000000e+000 0.000000e+000 0.000000e+000 0.000000e+000 0.000000e+000 0.000000e+000 0.000000e+000 0.000000e+000 9.515139e-001 4.848609e-002
 0.000000e+000 0.000000e+000 0.000000e+000 0.000000e+000 0.000000e+000 0.000000e+000 0.000000e+000 0.000000e+000 0.000000e+000 0.000000e+000
<ENDHMM>
~h "devet"
<BEGINHMM>
<NUMSTATES> 10
<STATE> 2
<MEAN> 39
 -7.437369e+000 1.880264e+000 -1.165957e+000 -1.112106e-002 -3.601678e+000 -3.096075e+000 -2.883629e+000 -7.890353e-001 -2.387837e+000 7.980093e-001 1.079547e+000 -3.084604e-001 4.667300e+001 4.624071e-001 4.085037e-001 2.155493e-001 -2.415815e-001 -6.863548e-001 -5.577292e-001 -1.428560e-001 -1.559085e-001 -1.789491e-001 -1.619666e-001 -1.958107e-001 -1.717114e-001 3.043500e-001 -7.891790e-002 -2.074538e-001 1.689669e-002 -1.700883e-001 -1.689676e-002 -2.731437e-001 1.529154e-001 1.677607e-001 -4.019740e-002 -5.172294e-002 -6.814715e-002 2.058580e-001 1.037733e-001
<VARIANCE> 39
 3.150656e+000 4.095180e+000 4.269201e+000 6.150129e+000 1.730282e+001 1.420641e+001 1.431587e+001 1.241094e+001 1.323127e+001 1.097683e+001 8.609194e+000 6.139287e+000 1.011633e+000 2.711673e-001 5.246537e-001 5.134034e-001 8.336732e-001 1.485091e+000 1.327880e+000 1.189607e+000 1.245064e+000 1.438968e+000 1.008767e+000 1.193680e+000 1.145150e+000 7.047001e-002 8.894436e-002 6.917989e-002 1.233596e-001 1.683273e-001 4.405884e-001 4.415231e-001 3.932379e-001 3.983488e-001 4.598825e-001 3.148280e-001 3.514751e-001 2.135865e-001 4.418086e-002
<GCONST> 7.335286e+001
<STATE> 3
<MEAN> 39
 -7.126875e+000 1.653400e+000 -1.909583e+000 -1.625340e+000 -5.015230e+000 -4.102801e+000 -2.883237e+000 -8.729218e-001 -2.679222e+000 4.005744e-001 1.202946e+000 1.175568e+000 4.712539e+001 2.456012e-001 -1.414135e-001 1.658905e-001 -3.889433e-001 -8.183461e-001 -1.253172e+000 -7.414815e-002 -6.141128e-002 -1.386896e-001 -2.432054e-001 -1.977567e-001 5.698561e-002 4.469529e-001 -1.940157e-001 -3.015507e-001 3.074770e-001 -2.760343e-001 1.555760e-001 -3.989807e-001 2.919643e-003 2.568672e-001 -1.174728e-002 8.005064e-002 -1.393695e-001 3.107975e-002 2.566208e-001
<VARIANCE> 39
 3.225204e+000 3.515253e+000 5.452061e+000 1.053780e+001 1.867263e+001 2.169619e+001 1.846751e+001 1.084014e+001 9.612677e+000 9.654674e+000 1.187585e+001 7.911616e+000 1.082594e+000 4.392513e-001 7.697276e-001 4.479620e-001 1.283912e+000 1.499308e+000 2.341043e+000 1.787650e+000 1.708667e+000 2.294368e+000 1.540552e+000 1.525840e+000 8.680199e-001 2.378440e-001 1.190448e-001 9.164459e-002 1.933755e-001 2.543175e-001 7.588242e-001 1.212590e+000 4.491921e-001 3.515059e-001 2.739882e-001 2.714857e-001 2.770036e-001 2.250637e-001 9.040673e-002
<GCONST> 8.221809e+001
<STATE> 4
<MEAN> 39
 -7.957218e+000 8.597820e-001 -1.049608e+000 9.131533e-002 -4.078555e+000 -4.007080e+000 -1.376961e+000 5.254210e-001 -2.526268e+000 -1.444597e+000 3.918127e-001 2.104481e-001 4.697354e+001 1.456673e-001 -2.225400e-001 4.911647e-001 -1.058006e+000 -3.800988e-001 -1.414450e+000 -6.090994e-001 1.765051e-001 -4.993260e-001 -7.080700e-002 -3.389886e-001 -4.493025e-002 6.261303e-001 -9.766755e-002 -3.638281e-001 3.869260e-001 -6.833267e-001 -2.527491e-001 -6.762125e-001 -2.923412e-001 1.520801e-001 -6.972738e-002 3.094475e-001 -2.958161e-002 -3.318959e-002 4.920277e-001
<VARIANCE> 39
 4.777934e+000 1.015188e+001 7.243933e+000 1.517358e+001 1.990491e+001 2.394576e+001 2.006925e+001 1.226919e+001 7.244530e+000 8.250580e+000 1.478454e+001 1.256878e+001 1.452451e+000 9.418750e-001 8.991134e-001 9.710941e-001 1.527893e+000 3.680898e+000 5.826589e+000 2.839947e+000 2.279699e+000 1.695943e+000 1.515976e+000 2.173056e+000 1.775009e+000 5.153407e-001 1.865871e-001 3.462825e-001 3.234784e-001 3.028309e-001 7.368762e-001 8.435285e-001 5.098720e-001 4.403314e-001 2.834096e-001 2.365836e-001 1.714554e-001 2.670642e-001 1.709604e-001
<GCONST> 9.382903e+001
<STATE> 5
<MEAN> 39
 -6.326449e+000 2.688056e-001 -8.068213e-001 -2.809804e+000 -5.885855e+000 -7.639769e+000 -3.792627e+000 -6.949034e-001 -4.767891e+000 -1.109426e+000 -1.243795e+000 4.551096e-001 4.927368e+001 -4.037281e-001 -1.211793e+000 1.670138e+000 -1.758043e+000 -5.667204e-001 -2.731190e+000 -7.167028e-001 5.257300e-001 -3.958900e-001 5.053231e-001 -6.561067e-001 -1.672959e-001 1.672178e+000 -2.064044e-001 -7.241540e-001 5.283090e-001 -5.940084e-001 -3.186145e-001 -4.568049e-001 2.414193e-001 6.044372e-001 2.841977e-001 4.482121e-001 2.349984e-001 -4.551788e-002 6.404551e-001
<VARIANCE> 39
 7.204121e+000 1.464200e+001 4.697401e+000 2.626159e+001 1.243336e+001 2.465603e+001 1.720916e+001 2.000604e+001 2.335769e+001 1.064970e+001 2.398994e+001 9.494143e+000 6.151125e+000 1.553676e+000 5.700184e-001 2.254915e+000 2.673488e+000 5.728652e+000 8.734112e+000 1.821983e+000 2.942451e+000 1.755187e+000 2.152178e+000 2.250893e+000 8.576590e-001 6.913588e-001 1.454757e-001 5.489402e-001 3.853295e-001 9.620131e-001 3.538950e-001 5.756826e-001 2.698755e-001 4.785200e-001 4.416989e-001 3.876366e-001 4.215448e-001 2.787908e-001 3.559986e-001
<GCONST> 1.022673e+002
<STATE> 6
<MEAN> 39
 -7.394176e+000 -7.006056e-001 2.385986e+000 -3.777176e+000 -6.229562e+000 -1.205066e+001 -3.745070e+000 2.218991e+000 -3.980650e+000 1.526917e+000 -1.818290e+000 1.573054e-001 5.125636e+001 2.119275e-002 -1.577017e+000 1.127377e+000 -1.508590e+000 -1.655549e+000 -2.486903e+000 2.280336e-001 1.045518e+000 2.122680e-001 5.957143e-001 -1.675813e-001 -3.006731e-001 2.033247e+000 -5.950409e-002 -5.944026e-001 3.958725e-002 -4.507651e-001 -2.040756e-001 2.887717e-001 2.894295e-001 3.256238e-001 1.436319e-001 1.292630e-001 6.414391e-002 1.724903e-002 3.630793e-001
<VARIANCE> 39
 1.323520e+001 1.113689e+001 2.258970e+001 3.117145e+001 7.188684e+001 7.637729e+001 1.999943e+001 3.332526e+001 2.052216e+001 2.127210e+001 2.335519e+001 1.655558e+001 1.265403e+001 1.525912e+000 2.962865e+000 3.728426e+000 6.919702e+000 3.940321e+000 6.064374e+000 1.710431e+000 3.068732e+000 2.748680e+000 3.061377e+000 1.664442e+000 2.040550e+000 2.329259e+000 2.819222e-001 5.911119e-001 4.017061e-001 1.095630e+000 1.093013e+000 1.265489e+000 3.794259e-001 6.143987e-001 6.246150e-001 5.148106e-001 3.544937e-001 4.872499e-001 3.908923e-001
<GCONST> 1.191293e+002
<STATE> 7
<MEAN> 39
 -5.866147e+000 -6.377460e+000 -1.013463e+000 -1.177972e+000 -1.287814e+001 -2.789943e+001 -2.384735e+000 4.948607e+000 -4.103772e+000 5.787219e+000 -1.859646e+000 2.971276e+000 5.782932e+001 -2.176921e-001 -7.648442e-001 6.074272e-001 -1.038714e+000 -2.328652e-001 -8.917558e-001 2.093424e-001 2.547543e-001 -1.424711e-001 5.285996e-001 -2.218637e-002 6.600196e-001 6.918458e-001 5.314255e-003 -7.249546e-002 -3.271259e-002 -7.848502e-002 -4.274275e-002 2.140139e-001 2.225309e-002 9.300614e-002 1.875932e-003 7.892432e-003 7.356835e-002 3.714572e-002 -3.123295e-002
<VARIANCE> 39
 7.442086e+000 7.804334e+000 2.830931e+001 3.782919e+001 3.562622e+001 7.302579e+001 1.834818e+001 3.500946e+001 3.412659e+001 2.098774e+001 1.655900e+001 3.459727e+001 7.604313e+000 2.638616e-001 4.018075e+000 1.815129e+000 6.088651e+000 2.666696e+000 3.495179e+000 1.480279e+000 3.802516e+000 2.272681e+000 2.217035e+000 1.956004e+000 1.517006e+000 3.335369e+000 7.125727e-002 1.478415e-001 1.270383e-001 3.285789e-001 3.802586e-001 4.023341e-001 2.831858e-001 5.130344e-001 4.095483e-001 3.378460e-001 3.961033e-001 2.872511e-001 1.283622e-001
<GCONST> 1.045883e+002
<STATE> 8
<MEAN> 39
 -8.143616e+000 -1.158074e+001 5.050310e+000 -1.421701e+001 -1.330179e+001 -2.239330e+001 -5.496853e-001 7.948767e+000 -4.434179e+000 7.901802e+000 -2.388567e+000 2.604241e+000 6.077405e+001 -1.813757e-001 -1.323464e+000 2.649980e-001 -1.284110e+000 -3.579989e-001 7.384505e-001 4.351448e-001 1.321145e+000 1.958870e-001 1.808571e-001 -3.469429e-001 -5.668889e-001 8.432861e-001 3.475840e-002 4.482058e-001 -3.449897e-001 5.720208e-001 4.248245e-001 5.387317e-001 1.279248e-001 -2.407571e-001 -1.638044e-002 -2.598574e-001 -1.124205e-001 -1.770853e-001 -4.244954e-001
<VARIANCE> 39
 5.158049e+000 3.227140e+001 5.076940e+001 1.136968e+002 3.701930e+001 1.063470e+002 3.830644e+001 3.674942e+001 2.679796e+001 3.738048e+001 3.491259e+001 3.748497e+001 2.030374e+001 3.561482e-001 4.458440e+000 1.451808e+000 5.496171e+000 3.485041e+000 2.629169e+000 2.679145e+000 3.751965e+000 2.647692e+000 2.671505e+000 2.251618e+000 1.934753e+000 2.982660e+000 5.581065e-002 3.752415e-001 2.900034e-001 6.923884e-001 5.729647e-001 6.420738e-001 3.070865e-001 4.646962e-001 4.490972e-001 4.275671e-001 4.092713e-001 3.589651e-001 2.588134e-001
<GCONST> 1.163225e+002
<STATE> 9
<MEAN> 39
 -1.041064e+001 -1.598651e+001 8.477783e+000 -2.152857e+001 -9.951425e+000 -1.204254e+001 4.094040e-001 1.065482e+001 -4.363667e+000 4.377560e+000 -4.417457e+000 -9.757683e-001 6.224586e+001 3.409194e-003 2.926148e-001 -2.223203e-001 3.486131e-001 1.673282e-001 2.304485e-001 1.373217e-002 -9.048172e-002 8.739229e-002 -1.127885e-001 4.673328e-002 6.517026e-002 -3.418248e-001 4.454299e-003 3.901065e-002 -5.059808e-003 4.326093e-002 7.095307e-003 -5.735794e-003 -2.463737e-002 -4.516238e-002 -1.177170e-002 -6.085494e-003 1.975040e-002 1.041632e-002 -3.442128e-002
<VARIANCE> 39
