~o
<STREAMINFO> 1 39
<VECSIZE> 39<NULLD><MFCC_D_A_0><DIAGC>
~h "ctyri"
<BEGINHMM>
<NUMSTATES> 10
<STATE> 2
<MEAN> 39
 -1.781949e+001 -1.427650e+001 4.896267e+000 6.252841e+000 -3.034250e+000 4.829640e+000 8.403336e+000 -9.396968e+000 3.819474e+000 5.110999e+000 6.428304e-001 -2.840209e+000 6.622744e+001 3.327433e-001 -1.435436e-001 -1.271566e-001 1.214594e-001 2.508718e-001 -1.000751e-001 -1.095879e-001 -2.493616e-002 -9.785188e-002 1.875280e-001 1.000480e-001 3.300954e-002 -2.706198e-001 -5.903766e-004 1.732963e-002 -6.849038e-002 -9.427565e-002 9.860650e-002 -2.073375e-001 -2.492368e-001 1.162651e-001 -2.614864e-001 -1.443284e-001 -1.108321e-001 1.500067e-001 1.132740e-001
<VARIANCE> 39
 4.662901e+001 2.252622e+001 1.824829e+001 4.610860e+001 4.582674e+001 9.681791e+001 4.628626e+001 3.402636e+001 2.886939e+001 2.970027e+001 2.471658e+001 2.861384e+001 1.009524e+002 2.989848e+000 1.893002e+000 1.647717e+000 3.165439e+000 5.325048e+000 4.250521e+000 5.634797e+000 4.190911e+000 3.674579e+000 2.784642e+000 2.853696e+000 2.642953e+000 4.406235e+000 4.160644e-001 3.082709e-001 3.353159e-001 5.235817e-001 9.877722e-001 1.048476e+000 8.725559e-001 8.851364e-001 8.136426e-001 5.913844e-001 5.392990e-001 4.846750e-001 6.710067e-001
<GCONST> 1.280653e+002
<STATE> 3
<MEAN> 39
 -1.146534e+001 -1.436568e+001 1.198220e+000 -3.946165e-001 6.763820e+000 7.320092e-001 -3.141731e+000 -4.970903e+000 -5.974303e+000 6.585146e-001 -8.696657e-001 2.595545e+000 6.502095e+001 9.825354e-001 1.777395e-001 9.686568e-001 -1.071123e+000 -6.822688e-001 -3.400646e+000 -3.022718e+000 2.421055e-001 -3.790626e+000 -1.798080e+000 -1.540145e+000 1.585727e+000 4.262702e+000 6.921378e-001 5.933852e-001 8.106142e-001 7.146659e-001 -1.583250e+000 8.152433e-002 -2.736708e-001 -2.605307e-001 -1.354058e-002 -4.398820e-002 4.291723e-001 -8.318219e-001 1.238627e-002
<VARIANCE> 39
 1.172943e+001 1.812541e+001 2.460865e+001 4.482823e+001 5.988835e+001 8.177572e+001 4.525455e+001 4.043548e+001 5.540675e+001 7.733794e+001 5.754066e+001 2.709438e+001 5.664176e+001 2.475405e+000 2.972014e+000 3.955405e+000 5.197320e+000 9.549618e+000 8.069921e+000 7.125056e+000 6.324168e+000 4.434551e+000 3.864522e+000 5.783013e+000 4.819331e+000 2.005391e+000 2.395669e-001 3.598779e-001 9.034947e-001 9.181058e-001 1.296427e+000 1.267871e+000 1.420963e+000 8.753870e-001 1.149092e+000 6.509281e-001 1.171893e+000 7.759579e-001 9.009348e-001
<GCONST> 1.374262e+002
<STATE> 4
<MEAN> 39
 -3.797663e+000 -9.833915e+000 7.884392e+000 3.694787e+000 -2.478715e+000 -4.141869e+000 -1.022203e+001 -6.995541e+000 -1.337083e+001 -3.007470e+000 -3.043003e+000 1.495935e+000 7.341564e+001 2.740165e+000 9.468948e-002 2.235222e+000 1.088012e+000 -4.733953e+000 -4.590004e-001 -3.547485e+000 1.037798e+000 -1.201803e+000 -9.465930e-001 1.773474e+000 -2.122969e+000 1.918836e+000 -2.524598e-001 -4.982411e-001 -2.835417e-001 -1.847429e-001 -3.784472e-001 8.424372e-001 6.556599e-002 6.368110e-001 7.488378e-001 4.934405e-001 1.025270e+000 -6.778323e-001 -6.393954e-001
<VARIANCE> 39
 2.499787e+001 3.112600e+001 4.703176e+001 6.213428e+001 6.569278e+001 8.699169e+001 9.188071e+001 6.058617e+001 6.531349e+001 1.021764e+002 5.955385e+001 5.147800e+001 1.656906e+001 1.234466e+000 2.800277e+000 5.795527e+000 3.698593e+000 4.774708e+000 4.145321e+000 8.004416e+000 4.429098e+000 3.144296e+000 3.489453e+000 5.057452e+000 2.467004e+000 9.457316e-001 3.637901e-001 5.364330e-001 4.747014e-001 9.616805e-001 1.541724e+000 1.440114e+000 1.306705e+000 8.929200e-001 7.176781e-001 7.963827e-001 7.400187e-001 8.126286e-001 3.866218e-001
<GCONST> 1.354687e+002
<STATE> 5
<MEAN> 39
 -4.550432e-002 -1.300106e+001 1.060522e+001 2.786007e+000 -1.509525e+001 -4.123669e+000 -1.944901e+001 -8.767308e-001 -1.369589e+001 -3.135156e+000 6.062885e+000 -3.976045e+000 7.769337e+001 3.721746e-001 -3.071342e-001 6.792849e-001 -8.588095e-001 -2.564498e+000 2.705065e-001 -1.935355e+000 2.264626e+000 -4.143062e-001 4.594352e-001 2.181982e+000 -1.692385e+000 1.371030e+000 -6.680290e-001 3.791864e-001 -2.344027e-001 -1.852998e-001 1.312314e+000 2.324781e-001 9.726776e-001 1.732372e-002 4.592070e-002 1.185098e-001 -6.703951e-001 4.449575e-001 -1.887772e-001
<VARIANCE> 39
 1.409959e+001 1.218082e+001 6.795531e+001 4.989581e+001 3.372594e+001 6.198238e+001 8.111226e+001 4.392571e+001 4.893984e+001 6.556254e+001 7.224117e+001 3.553542e+001 1.027609e+001 1.035425e+000 2.496029e+000 1.952776e+000 2.313293e+000 8.295557e+000 4.013690e+000 4.965040e+000 2.853792e+000 2.144872e+000 2.326085e+000 3.633218e+000 1.847736e+000 6.135344e-001 1.911428e-001 3.634574e-001 6.377634e-001 6.434683e-001 5.830029e-001 3.945574e-001 9.728951e-001 5.339244e-001 4.162926e-001 5.781484e-001 7.888899e-001 5.367872e-001 1.649512e-001
<GCONST> 1.208985e+002
<STATE> 6
<MEAN> 39
 -2.323668e+000 -9.982788e+000 1.363136e+001 6.037857e-001 -1.655396e+001 -1.605094e+000 -2.085546e+001 7.610628e+000 -1.800587e+001 -2.831031e+000 6.200315e+000 -7.928247e+000 8.171404e+001 -4.632339e-001 1.164505e+000 2.227131e-002 1.552082e-001 1.177553e+000 4.270496e-001 1.519804e+000 1.329120e+000 2.309689e-001 6.767661e-001 -1.441439e+000 4.058936e-001 5.665770e-001 -3.809305e-001 4.737622e-001 -1.179184e-001 2.658023e-002 9.432186e-001 -4.490260e-001 9.648767e-001 -8.937306e-001 9.332037e-001 -1.622778e-001 -7.338463e-001 9.147872e-001 -3.737260e-001
<VARIANCE> 39
 1.466434e+001 1.725895e+001 5.633154e+001 1.802331e+001 3.045821e+001 5.553429e+001 7.000511e+001 3.010520e+001 5.547159e+001 4.060550e+001 5.402976e+001 2.734940e+001 6.364212e+000 5.821750e-001 1.532496e+000 2.007985e+000 3.111612e+000 4.116368e+000 3.167816e+000 5.153671e+000 4.500844e+000 3.013308e+000 2.266093e+000 2.120391e+000 4.510424e+000 9.327755e-001 1.841383e-001 3.536467e-001 4.013281e-001 4.511347e-001 8.073122e-001 6.134061e-001 8.705269e-001 1.047114e+000 8.124439e-001 5.766730e-001 4.850018e-001 7.170022e-001 1.248008e-001
<GCONST> 1.184974e+002
<STATE> 7
<MEAN> 39
 -8.144228e+000 -2.013507e+000 1.266509e+001 -1.447646e+000 -4.890856e+000 -5.672970e+000 -8.982100e+000 1.353820e+000 -4.166081e+000 -2.882915e+000 -1.706801e+000 1.679639e+000 8.079932e+001 -3.496171e+000 2.931360e+000 -4.713896e-001 -1.935830e+000 2.791706e+000 -1.292800e+000 2.171390e+000 -3.463390e+000 4.559992e+000 -2.110377e+000 -3.361133e-001 2.341052e+000 -3.283956e-001 -6.246509e-001 -1.661532e-001 -2.187872e-001 -1.777414e-001 -4.281540e-001 3.116421e-001 -7.087601e-001 -1.705249e-001 -2.921400e-001 -4.839457e-001 7.395663e-001 -6.052644e-001 -2.466464e-002
<VARIANCE> 39
 3.506189e+001 3.350633e+001 2.507344e+001 4.441368e+001 4.109846e+001 9.605944e+001 5.335681e+001 1.181861e+002 1.166987e+002 6.642445e+001 5.949799e+001 5.347091e+001 8.498793e+000 2.280551e+000 1.083650e+000 3.302748e+000 4.413083e+000 2.966535e+000 3.516216e+000 6.190133e+000 6.171769e+000 5.453176e+000 4.988552e+000 6.328416e+000 7.941464e+000 6.739256e-001 4.248851e-001 5.271994e-001 4.851390e-001 1.096668e+000 8.394177e-001 8.509793e-001 9.453794e-001 1.971140e+000 2.401531e+000 1.009864e+000 5.360601e-001 1.456088e+000 1.053905e-001
<GCONST> 1.348969e+002
<STATE> 8
<MEAN> 39
 -1.611213e+001 -8.003446e-001 1.123853e+001 -2.666607e+000 -2.358540e+000 -5.581949e+000 -9.603079e+000 -6.864443e+000 2.231761e+000 -1.002627e+001 1.735374e+000 2.599170e+000 8.098896e+001 2.004213e+000 -1.607451e+000 -5.790653e-002 1.127495e+000 -1.321416e+000 5.113385e-002 -6.878241e-001 3.528932e-001 -1.013393e+000 2.467916e-001 2.394001e-001 -4.793046e-001 2.171365e-001 6.946640e-001 -3.579261e-001 5.830638e-002 2.374173e-001 -5.208006e-001 -1.903073e-002 -6.517715e-002 4.376415e-001 -3.688632e-001 3.645840e-001 -7.182927e-002 -1.409186e-001 -1.151759e-002
<VARIANCE> 39
 1.280582e+002 4.644914e+001 2.584062e+001 4.409094e+001 2.725080e+001 8.506958e+001 4.550015e+001 7.423938e+001 4.604157e+001 6.327475e+001 4.646912e+001 2.826124e+001 8.863488e+000 1.821583e+001 3.054084e+000 3.625177e+000 4.144389e+000 4.210505e+000 2.964479e+000 3.952533e+000 4.510601e+000 4.006673e+000 4.510188e+000 2.919017e+000 2.698616e+000 5.447941e-001 3.325824e+000 8.427304e-001 9.462814e-001 1.174958e+000 5.846727e-001 5.943105e-001 9.494370e-001 8.469301e-001 8.818771e-001 9.793802e-001 6.410858e-001 6.180159e-001 1.042955e-001
<GCONST> 1.336321e+002
<STATE> 9
<MEAN> 39
 1.154370e+000 -8.147319e+000 9.309251e+000 2.224364e+000 -1.475819e+001 -3.091481e+000 -1.080698e+001 -1.436379e+000 -6.917078e+000 -4.856287e+000 1.994518e+000 -1.528315e+000 7.228337e+001 2.141385e-002 8.127455e-002 -4.418210e-001 8.897360e-002 5.088568e-001 4.211997e-001 3.771073e-001 -1.413974e-001 4.911110e-002 9.938650e-002 -3.470312e-001 -7.403039e-002 -1.180426e+000 -1.046028e-001 6.556981e-002 -5.259464e-002 1.447467e-003 2.435184e-001 3.111948e-002 -2.209583e-003 -1.349098e-001 4.952592e-002 -1.577613e-002 -2.740068e-002 5.906180e-003 -2.951898e-002
<VARIANCE> 39
 1.085447e+001 1.390604e+001 3.885736e+001 3.724709e+001 6.453928e+001 8.131460e+001 9.887775e+001 5.646587e+001 5.386546e+001 4.272427e+001 1.235240e+002 4.449962e+001 8.155171e+001 5.002869e-001 7.802742e-001 1.766921e+000 1.184081e+000 3.967678e+000 3.918257e+000 4.068846e+000 3.245247e+000 3.279965e+000 3.495816e+000 3.536459e+000 2.536678e+000 5.333886e-001 1.008773e-001 1.575859e-001 2.545481e-001 2.071642e-001 3.826756e-001 5.984289e-001 7.293285e-001 5.019460e-001 5.856476e-001 6.349311e-001 6.605703e-001 4.416341e-001 5.741877e-002
<GCONST> 1.164043e+002
<TRANSP> 10
 0.000000e+000 1.000000e+000 0.000000e+000 0.000000e+000 0.000000e+000 0.000000e+000 0.000000e+000 0.000000e+000 0.000000e+000 0.000000e+000
 0.000000e+000 9.342210e-001 6.577899e-002 0.000000e+000 0.000000e+000 0.000000e+000 0.000000e+000 0.000000e+000 0.000000e+000 0.000000e+000
 0.000000e+000 0.000000e+000 6.364781e-001 3.635220e-001 0.000000e+000 0.000000e+000 0.000000e+000 0.000000e+000 0.000000e+000 0.000000e+000
 0.000000e+000 0.000000e+000 0.000000e+000 5.689911e-001 4.310090e-001 0.000000e+000 0.000000e+000 0.000000e+000 0.000000e+000 0.000000e+000
 0.000000e+000 0.000000e+000 0.000000e+000 0.000000e+000 6.436728e-001 3.563272e-001 0.000000e+000 0.000000e+000 0.000000e+000 0.000000e+000
 0.000000e+000 0.000000e+000 0.000000e+000 0.000000e+000 0.000000e+000 7.138729e-001 2.861272e-001 0.000000e+000 0.000000e+000 0.000000e+000
 0.000000e+000 0.000000e+000 0.000000e+000 0.000000e+000 0.000000e+000 0.000000e+000 7.452862e-001 2.547138e-001 0.000000e+000 0.000000e+000
 0.000000e+000 0.000000e+000 0.000000e+000 0.000000e+000 0.000000e+000 0.000000e+000 0.000000e+000 8.731241e-001 1.268758e-001 0.000000e+000
 0.000000e+000 0.000000e+000 0.000000e+000 0.000000e+000 0.000000e+000 0.000000e+000 0.000000e+000 0.000000e+000 9.434235e-001 5.657654e-002
 0.000000e+000 0.000000e+000 0.000000e+000 0.000000e+000 0.000000e+000 0.000000e+000 0.000000e+000 0.000000e+000 0.000000e+000 0.000000e+000
<ENDHMM>
~h "sedm"
<BEGINHMM>
<NUMSTATES> 10
<STATE> 2
<MEAN> 39
 -2.637266e+001 -1.249252e+000 -1.020710e+001 7.954312e+000 3.940239e+000 -3.238456e+000 1.816465e-001 -4.791062e+000 3.634826e+000 -1.844133e+000 -1.942959e+000 2.798331e+000 7.245086e+001 1.680904e+000 -9.651830e-001 8.415329e-001 -3.681870e-001 -5.368110e-001 9.379554e-002 -1.123732e+000 2.529426e-001 4.035851e-001 -1.585538e-001 -3.518375e-001 -4.911343e-002 4.706688e-001 4.871915e-001 -3.250566e-001 2.570464e-001 -2.079672e-001 -1.936524e-002 8.680746e-002 -3.654915e-001 1.170119e-001 -6.762245e-002 -1.002630e-001 -1.054124e-001 -2.076900e-001 -1.681133e-002
<VARIANCE> 39
 4.448788e+001 2.943900e+001 3.235308e+001 2.876591e+001 3.888918e+001 4.742840e+001 7.247265e+001 5.048964e+001 6.804221e+001 5.406733e+001 4.978547e+001 3.199755e+001 1.219917e+001 6.382708e+000 2.548891e+000 3.113814e+000 2.620272e+000 3.059303e+000 4.663568e+000 5.509980e+000 3.329324e+000 3.589944e+000 3.573537e+000 3.213291e+000 4.042216e+000 8.036636e-001 5.398833e-001 3.386798e-001 4.075904e-001 4.909189e-001 5.518925e-001 9.223273e-001 9.282124e-001 7.948223e-001 6.987197e-001 5.817835e-001 5.404439e-001 7.466280e-001 4.283894e-001
<GCONST> 1.279107e+002
<STATE> 3
<MEAN> 39
 -3.528179e+000 -1.330824e+001 1.595457e+000 -1.590287e+000 -1.804333e+000 -2.894353e+000 -2.145406e+001 1.312953e+000 4.374389e+000 -5.824544e+000 -5.921158e+000 -2.141752e+000 7.976109e+001 1.698759e+000 -1.752746e-001 1.137505e+000 -1.293703e+000 -1.129019e+000 1.142756e-001 -2.094025e+000 4.841115e-001 -6.636952e-001 -5.097353e-001 4.737551e-001 -2.207415e-001 1.483256e-001 -4.782183e-001 6.512682e-001 -1.755828e-001 3.912472e-001 -2.099406e-002 -1.060418e-001 1.039183e+000 -5.110862e-001 -3.558233e-002 5.229349e-002 8.630152e-002 1.233716e-001 -6.119208e-001
<VARIANCE> 39
 1.831429e+001 3.132447e+001 2.790581e+001 4.475242e+001 6.745925e+001 6.669544e+001 1.451039e+002 6.847946e+001 8.113555e+001 7.458482e+001 8.133843e+001 5.899738e+001 1.359041e+001 2.791519e+000 5.522276e+000 1.414629e+000 3.061121e+000 2.772341e+000 3.390700e+000 8.789472e+000 7.789590e+000 3.499073e+000 2.853806e+000 4.086320e+000 6.164421e+000 2.952998e+000 6.417649e-001 4.308408e-001 4.400292e-001 8.152183e-001 7.092367e-001 6.661057e-001 1.326903e+000 9.219699e-001 7.191544e-001 6.282437e-001 9.512835e-001 1.389385e+000 1.593074e-001
<GCONST> 1.346355e+002
<STATE> 4
<MEAN> 39
 -1.221491e-001 -8.599229e+000 4.265085e+000 4.141486e+000 -6.088914e+000 -2.252294e+000 -9.921170e+000 -4.739796e+000 -1.213228e+000 -5.406993e+000 -4.151360e+000 -2.395373e+000 7.037531e+001 -2.671013e-002 -1.848922e-001 -9.354421e-002 2.409543e+000 -2.112553e-001 4.773359e-001 1.553403e+000 -7.652387e-001 -4.021270e-001 2.874564e-001 -4.324684e-001 -2.143252e-001 -6.922417e-001 5.870966e-002 -2.611435e-001 -3.828201e-002 1.201002e-001 4.998183e-002 -1.444292e-001 -8.809783e-001 -3.346764e-002 -6.922641e-002 9.931169e-002 1.514874e-001 1.958970e-001 4.364067e-001
<VARIANCE> 39
 3.422676e+001 4.134935e+001 1.918164e+001 5.056790e+001 3.378813e+001 7.969552e+001 1.357950e+002 7.924445e+001 3.489251e+001 5.822952e+001 7.933589e+001 6.774825e+001 2.055764e+001 2.147568e+000 5.532644e+000 3.109721e+000 2.831236e+000 3.999560e+000 6.637155e+000 1.465241e+001 4.440873e+000 3.188439e+000 2.900340e+000 7.584557e+000 6.717373e+000 3.362762e+000 6.457158e-001 1.107434e+000 7.526035e-001 7.162805e-001 8.426476e-001 1.516351e+000 2.448886e+000 1.265730e+000 6.258339e-001 6.190630e-001 1.518985e+000 1.180346e+000 3.644494e-001
<GCONST> 1.407428e+002
<STATE> 5
<MEAN> 39
 2.343507e+000 -1.267468e+001 4.360326e+000 1.459511e+001 -6.931039e+000 2.615376e-001 -2.271138e+001 -1.124457e+001 -1.669280e+000 -2.246655e+000 -4.594919e+000 -5.309544e-001 7.293913e+001 2.214259e+000 1.041328e+000 -1.154447e-001 -6.477684e-001 -1.455478e-001 -7.625462e-002 -3.685422e+000 -3.441759e+000 -2.259121e+000 1.435591e+000 2.860035e+000 7.383142e-002 4.888645e-001 1.094231e-001 6.212631e-001 -8.465147e-002 -1.263131e+000 -2.101383e-001 2.025076e-001 1.034396e+000 -3.679095e-001 -8.344430e-001 7.239857e-002 6.675656e-001 2.181309e-001 -2.145362e-001
<VARIANCE> 39
 1.779071e+001 3.079784e+001 5.527280e+001 2.244391e+001 3.529704e+001 7.354072e+001 1.829487e+002 6.502829e+001 4.617448e+001 4.499956e+001 5.339460e+001 5.518757e+001 1.218301e+001 1.504437e+000 2.225503e+000 3.961014e+000 7.960707e+000 3.627684e+000 9.865048e+000 9.374564e+000 5.415055e+000 5.328258e+000 3.014488e+000 4.848547e+000 3.535168e+000 4.458878e-001 2.910881e-001 6.179767e-001 5.810178e-001 9.065750e-001 9.422449e-001 1.481038e+000 2.375610e+000 1.189108e+000 5.788264e-001 7.313818e-001 1.019730e+000 1.041798e+000 9.370128e-002
<GCONST> 1.333027e+002
<STATE> 6
<MEAN> 39
 9.363690e+000 -4.410328e+000 2.813194e+000 3.406169e+000 -9.421263e+000 3.813639e+000 -2.246118e+001 -2.238042e+001 -1.423642e+001 6.050964e-001 7.559314e+000 4.601343e+000 7.284464e+001 1.464575e+000 2.049784e+000 9.983772e-003 -1.769959e+000 -1.382573e-002 -1.388800e-001 2.572344e+000 -6.147827e-001 -1.800461e+000 -1.150554e+000 9.824794e-001 1.361982e+000 -3.565547e-001 -3.820992e-001 -3.277712e-001 3.638205e-002 6.409624e-001 3.602737e-001 -4.755918e-001 8.032620e-001 1.330964e+000 1.004892e+000 -5.577790e-001 -1.130991e+000 -5.530971e-001 -1.911438e-001
<VARIANCE> 39
 8.534293e+000 1.922618e+001 4.060142e+001 4.173801e+001 2.068070e+001 6.001934e+001 1.782050e+002 5.661531e+001 6.842133e+001 4.664028e+001 2.812691e+001 5.627315e+001 5.728600e+000 7.751712e-001 2.409434e+000 1.305986e+000 5.097758e+000 2.394747e+000 2.671179e+000 6.791742e+000 7.217678e+000 4.174344e+000 2.975616e+000 5.495546e+000 4.229572e+000 6.867880e-001 1.014939e-001 2.033554e-001 2.862886e-001 5.652326e-001 3.667478e-001 6.263517e-001 1.437299e+000 5.762393e-001 7.469689e-001 8.536136e-001 5.936421e-001 1.070573e+000 3.574116e-002
<GCONST> 1.196987e+002
<STATE> 7
<MEAN> 39
 8.361656e+000 1.021874e+000 5.215906e+000 3.848223e+000 -1.130393e+001 5.425038e-001 -7.258109e+000 -1.177728e+001 -1.529169e+001 -2.874685e+000 2.909944e+000 3.535332e-001 7.122146e+001 -2.399405e-001 2.360928e-002 4.065665e-001 5.444953e-001 4.893259e-001 -5.483419e-002 2.319902e-001 4.563477e-001 5.229777e-001 -2.022160e-001 -4.137808e-001 -6.201913e-001 -6.044342e-002 -4.101809e-002 -9.747223e-002 -5.559565e-003 1.303584e-001 1.021467e-001 7.308038e-002 -1.287184e-001 -9.235132e-002 1.351700e-001 1.295448e-001 -5.894668e-003 -5.306780e-002 8.344133e-003
<VARIANCE> 39
 1.474638e+001 1.951841e+001 3.284997e+001 4.217104e+001 3.957492e+001 3.486442e+001 8.037840e+001 5.007861e+001 3.907693e+001 3.749765e+001 3.926385e+001 3.143437e+001 7.889745e+000 5.906928e-001 7.333257e-001 2.285127e+000 2.836278e+000 2.214688e+000 2.659535e+000 5.523873e+000 5.275388e+000 3.934412e+000 3.188572e+000 2.696047e+000 5.977900e+000 5.917186e-001 1.119795e-001 1.326318e-001 4.214680e-001 6.227328e-001 2.634914e-001 4.897396e-001 5.751647e-001 7.002822e-001 8.227748e-001 7.249199e-001 3.561395e-001 9.543859e-001 6.963858e-002
<GCONST> 1.147744e+002
<STATE> 8
<MEAN> 39
 8.185413e+000 -6.769102e+000 1.330131e+001 1.724659e+001 -5.480347e+000 -1.052310e+001 -1.775993e+001 -1.767625e+001 -9.596220e+000 -8.936014e+000 2.182879e+000 3.020159e+000 7.237302e+001 -9.048720e-002 3.837216e-002 1.878221e-001 1.155197e-001 5.914665e-001 3.792537e-001 9.590315e-002 1.146180e-001 8.893495e-002 -1.144312e-001 -4.407822e-001 -1.980279e-002 -2.164080e-001 -9.808415e-002 1.266888e-003 -7.230975e-002 -1.025730e-001 4.105022e-002 1.873396e-001 1.523221e-001 -3.096184e-002 -1.499967e-001 6.284665e-002 -1.207515e-001 -1.890851e-001 -7.210110e-002
<VARIANCE> 39
 3.455696e+000 2.001824e+001 2.869036e+001 2.566072e+001 2.402613e+001 5.201713e+001 3.836480e+001 2.727172e+001 3.570731e+001 2.301406e+001 2.490543e+001 2.461019e+001 6.884008e+000 2.424290e-001 1.230415e+000 1.670378e+000 1.424697e+000 1.792896e+000 2.240054e+000 3.819501e+000 1.900216e+000 2.830835e+000 2.405009e+000 2.365355e+000 3.225730e+000 4.637727e-001 5.654331e-002 1.916342e-001 2.061457e-001 2.078356e-001 2.449049e-001 3.615474e-001 4.113960e-001 2.989664e-001 5.162987e-001 3.840217e-001 4.099348e-001 4.536985e-001 4.580374e-002
<GCONST> 9.929105e+001
<STATE> 9
<MEAN> 39
 1.681094e+000 -5.999516e+000 4.671211e+000 1.039212e+001 5.413052e+000 6.110452e+000 -7.295030e+000 -1.335263e+001 -1.186648e+001 -6.489253e+000 -6.632467e+000 -5.863854e+000 6.511231e+001 -7.822814e-001 -6.761438e-001 -5.243336e-001 -3.769207e-001 1.301668e-001 6.282120e-002 5.140087e-001 2.260766e-001 -1.079397e-001 9.456436e-002 -1.756820e-001 -2.251149e-001 -3.554958e-001 -1.008113e-004 -2.113126e-002 9.739703e-004 -5.219934e-002 -1.113707e-001 -5.975275e-002 -5.334211e-002 9.429859e-002 3.297391e-002 -1.879339e-002 9.808396e-002 1.093471e-001 4.153970e-002
<VARIANCE> 39
 3.839391e+001 4.411854e+001 3.863263e+001 3.909740e+001 3.079490e+001 6.918127e+001 6.055391e+001 5.183609e+001 7.753305e+001 5.611730e+001 6.554002e+001 5.480451e+001 1.946807e+001 3.980627e-001 8.563421e-001 1.400986e+000 2.711166e+000 2.546726e+000 3.934204e+000 3.489163e+000 3.657504e+000 3.257042e+000 3.875196e+000 3.519516e+000 4.532225e+000 2.853683e-001 5.768985e-002 1.306429e-001 2.542800e-001 4.058006e-001 4.010277e-001 5.834414e-001 7.183083e-001 7.877104e-001 6.200091e-001 7.557331e-001 6.417403e-001 7.944186e-001 4.093577e-002
<GCONST> 1.170327e+002
<TRANSP> 10
 0.000000e+000 1.000000e+000 0.000000e+000 0.000000e+000 0.000000e+000 0.000000e+000 0.000000e+000 0.000000e+000 0.000000e+000 0.000000e+000
 0.000000e+000 8.959388e-001 1.040612e-001 0.000000e+000 0.000000e+000 0.000000e+000 0.000000e+000 0.000000e+000 0.000000e+000 0.000000e+000
 0.000000e+000 0.000000e+000 8.241258e-001 1.758742e-001 0.000000e+000 0.000000e+000 0.000000e+000 0.000000e+000 0.000000e+000 0.000000e+000
 0.000000e+000 0.000000e+000 0.000000e+000 8.472519e-001 1.527482e-001 0.000000e+000 0.000000e+000 0.000000e+000 0.000000e+000 0.000000e+000
 0.000000e+000 0.000000e+000 0.000000e+000 0.000000e+000 6.479785e-001 3.520215e-001 0.000000e+000 0.000000e+000 0.000000e+000 0.000000e+000
 0.000000e+000 0.000000e+000 0.000000e+000 0.000000e+000 0.000000e+000 6.563436e-001 3.436564e-001 0.000000e+000 0.000000e+000 0.000000e+000
 0.000000e+000 0.000000e+000 0.000000e+000 0.000000e+000 0.000000e+000 0.000000e+000 8.701335e-001 1.298664e-001 0.000000e+000 0.000000e+000
 0.000000e+000 0.000000e+000 0.000000e+000 0.000000e+000 0.000000e+000 0.000000e+000 0.000000e+000 8.720140e-001 1.279859e-001 0.000000e+000
 0.000000e+000 0.000000e+000 0.000000e+000 0.000000e+000 0.000000e+000 0.000000e+000 0.000000e+000 0.000000e+000 9.463024e-001 5.369762e-002
 0.000000e+000 0.000000e+000 0.000000e+000 0.000000e+000 0.000000e+000 0.000000e+000 0.000000e+000 0.000000e+000 0.000000e+000 0.000000e+000
<ENDHMM>
~h "sest"
<BEGINHMM>
<NUMSTATES> 10
<STATE> 2
<MEAN> 39
 -2.466854e+001 -1.278771e+001 -1.853150e+000 4.411678e+000 -5.053065e+000 -1.975178e+000 2.069742e+000 -5.039121e+000 3.336960e+000 -1.097841e+000 -2.743875e+000 -4.572834e-002 6.649789e+001 -2.187863e-001 -7.861927e-001 1.549944e+000 5.355861e-001 -3.176516e-001 -6.312419e-001 1.816100e-001 -1.304711e+000 3.326168e-001 -3.228234e-001 2.747297e-001 1.206978e-001 4.085431e+000 2.096058e-001 -1.615418e-001 2.268381e-001 1.335363e-001 1.761821e-001 1.175942e-001 -2.200927e-001 -7.420160e-003 -2.457341e-002 1.149483e-002 1.139335e-002 9.298459e-002 5.604894e-001
<VARIANCE> 39
 1.009941e+001 4.565751e+001 5.485075e+001 3.223461e+001 3.668250e+001 3.517554e+001 2.997817e+001 6.691838e+001 2.614806e+001 1.535001e+001 1.663923e+001 1.349825e+001 3.967963e+002 3.572727e+000 1.972938e+000 3.696178e+000 1.530225e+000 2.951544e+000 3.675756e+000 3.010555e+000 4.110707e+000 2.925352e+000 2.961591e+000 1.289567e+000 1.476991e+000 2.553187e+001 5.178084e-001 3.486102e-001 6.018031e-001 3.525792e-001 6.115255e-001 8.958014e-001 6.863878e-001 6.527012e-001 5.454295e-001 5.653473e-001 2.450888e-001 3.213697e-001 3.149720e+000
<GCONST> 1.248390e+002
<STATE> 3
<MEAN> 39
 -2.662232e+001 -1.715307e+001 5.866147e+000 7.975791e+000 -2.485392e+000 -1.877360e+000 1.687057e+000 -6.872383e+000 3.652400e+000 -8.689896e-001 -1.660372e+000 2.275866e+000 7.855547e+001 5.646732e-001 -4.687067e-001 4.150932e-001 5.935765e-002 4.134041e-001 1.059203e-001 -7.827346e-001 3.520838e-001 2.712255e-001 3.104938e-002 -2.933246e-001 2.929439e-001 1.366574e+000 7.427664e-001 2.025876e-001 -2.967349e-001 -2.901210e-001 -7.447152e-002 -1.147903e-001 -5.880086e-001 1.673332e-002 -2.479911e-001 -7.782509e-002 -1.831941e-001 -6.733008e-002 -8.371478e-001
<VARIANCE> 39
 2.760761e+001 2.229807e+001 2.287297e+001 2.341658e+001 3.733451e+001 2.974821e+001 3.662268e+001 9.745652e+001 3.923655e+001 7.818834e+001 4.534504e+001 1.871081e+001 2.903086e+001 4.610285e+000 1.779832e+000 2.955056e+000 1.573429e+000 3.331993e+000 3.773637e+000 4.099525e+000 4.179334e+000 3.031279e+000 4.768120e+000 3.827884e+000 1.830094e+000 1.642573e+001 6.702627e-001 4.219247e-001 3.230884e-001 2.087543e-001 6.066400e-001 7.417136e-001 9.378526e-001 9.178248e-001 7.091608e-001 1.032721e+000 7.756524e-001 3.142641e-001 1.613041e+000
<GCONST> 1.279942e+002
<STATE> 4
<MEAN> 39
 -1.681151e+001 -1.443064e+001 4.666188e+000 4.734752e+000 -4.249462e+000 -6.786940e+000 -6.812357e+000 -8.692665e+000 1.946621e+000 -3.717881e+000 -2.824381e+000 2.571628e+000 7.641349e+001 5.950628e+000 2.379376e-001 4.192179e-001 -1.017739e+000 -7.009274e-001 -1.379475e+000 -5.001215e+000 -1.175419e+000 -2.446803e+000 -2.774781e+000 -1.314196e+000 -1.526546e-001 1.474212e+000 4.074325e-001 -4.160971e-001 -3.066011e-001 -3.046004e-001 -2.735001e-002 6.068832e-001 -6.655145e-001 8.291456e-001 -4.413618e-001 -4.752932e-001 -2.987477e-001 -2.380333e-001 -7.266268e-002
<VARIANCE> 39
 6.309303e+001 2.661718e+001 1.635019e+001 2.634862e+001 5.186502e+001 6.549548e+001 6.333315e+001 9.471861e+001 7.258879e+001 8.280978e+001 8.757473e+001 2.941707e+001 2.657244e+001 1.696515e+000 3.419871e+000 4.231518e+000 1.506859e+000 4.731027e+000 5.255921e+000 4.432252e+000 5.589339e+000 4.627385e+000 6.647573e+000 3.131170e+000 3.631742e+000 1.090483e+001 1.441538e+000 3.677571e-001 2.793857e-001 3.817330e-001 7.353957e-001 9.929485e-001 7.127016e-001 1.206184e+000 1.134630e+000 1.254171e+000 4.888860e-001 8.055992e-001 2.391981e+000
<GCONST> 1.370695e+002
<STATE> 5
<MEAN> 39
 -1.616340e+000 -1.749903e+001 4.778367e+000 1.839016e+000 -3.287634e+000 -5.135536e+000 -2.299385e+001 -3.283116e+000 -6.345524e+000 -1.378683e+001 -6.799077e+000 -3.637992e-001 8.099442e+001 2.874478e+000 -2.017126e+000 -1.611818e-001 -1.711496e+000 -5.487004e-001 1.810839e+000 -3.793350e+000 3.466444e+000 -3.995171e-001 -1.068831e+000 -1.516585e+000 -1.336954e+000 1.330313e+000 -1.589924e+000 2.158737e-001 -3.444177e-001 -1.143360e-001 -1.696139e-001 2.322232e-001 1.315355e+000 5.894929e-001 1.131833e+000 1.294676e+000 3.361067e-001 3.055250e-002 -8.449726e-001
<VARIANCE> 39
 8.667015e+000 2.646955e+001 3.635552e+001 2.858651e+001 8.425011e+001 7.275937e+001 8.508128e+001 2.394453e+002 1.417938e+002 7.490688e+001 7.398824e+001 2.881180e+001 1.336527e+001 4.217323e+000 1.536967e+000 3.091980e+000 2.206546e+000 3.909963e+000 3.830484e+000 7.302969e+000 5.089367e+000 8.337906e+000 6.335002e+000 4.230677e+000 5.167427e+000 1.290217e+000 3.317419e-001 7.262090e-001 6.287842e-001 5.319217e-001 1.251681e+000 1.234591e+000 6.973600e-001 2.131692e+000 9.238284e-001 1.419927e+000 6.952977e-001 9.240600e-001 1.697388e+000
<GCONST> 1.383187e+002
<STATE> 6
<MEAN> 39
 3.181508e-001 -1.796395e+001 3.463197e+000 -4.396548e+000 -8.273963e+000 -3.097729e+000 -2.737374e+001 8.693318e+000 -5.951611e+000 -7.979027e+000 -8.693357e+000 -3.613351e+000 8.140761e+001 6.013720e-002 8.237752e-001 -4.014842e-001 -5.803853e-001 4.661484e-002 5.140456e-001 -3.350026e-001 1.225917e+000 2.797033e-001 1.956394e+000 -6.916582e-001 3.071238e-001 -4.430850e-001 -3.930033e-001 4.460614e-001 -2.914858e-002 2.375284e-001 3.635189e-001 -2.250153e-001 6.831111e-001 -5.189849e-001 -1.379502e-001 2.110475e-001 8.847325e-002 3.152539e-001 -3.774900e-001
<VARIANCE> 39
 1.686992e+001 2.133576e+001 2.776752e+001 2.098266e+001 6.626076e+001 7.049789e+001 5.247312e+001 1.662694e+002 1.330675e+002 4.781594e+001 7.716369e+001 3.343756e+001 3.999903e+000 8.599153e-001 1.234124e+000 1.235920e+000 2.432115e+000 3.220040e+000 3.058630e+000 2.383121e+000 3.136827e+000 3.899880e+000 3.255014e+000 2.355433e+000 2.018760e+000 1.116950e+000 3.558140e-001 1.776277e-001 3.652917e-001 3.409761e-001 5.007395e-001 6.225380e-001 9.869524e-001 6.275202e-001 5.527087e-001 7.142732e-001 5.050820e-001 4.337823e-001 1.506189e-001
<GCONST> 1.182940e+002
<STATE> 7
<MEAN> 39
 -2.367159e+000 -1.291076e+001 1.030988e+000 -2.859906e+000 -3.837637e+000 1.280011e+000 -2.045449e+001 3.390684e+000 5.046083e-001 1.209560e+000 -1.378865e+001 2.833382e+000 7.557317e+001 -1.652471e+000 2.131924e+000 -5.692682e-001 2.392523e-001 1.902424e+000 -1.158682e+000 2.830695e+000 -9.230487e-001 -4.670504e-001 -1.053187e-001 -1.462099e-001 9.620336e-001 -1.051968e+000 -7.473848e-001 3.969191e-001 -4.377612e-001 1.279056e-001 3.571354e-001 -5.440938e-001 7.245838e-001 -2.608251e-001 4.842624e-002 -7.798979e-001 1.853623e-001 -5.836992e-002 2.726818e-001
<VARIANCE> 39
 1.239952e+001 6.440775e+001 4.416724e+001 2.500749e+001 9.013440e+001 4.233720e+001 1.327745e+002 1.371700e+002 1.710396e+002 4.594459e+001 6.558801e+001 3.933585e+001 1.324080e+001 2.607992e+000 1.955876e+000 3.741667e+000 1.763909e+000 7.615753e+000 5.041760e+000 1.156994e+001 9.414354e+000 9.299249e+000 6.303694e+000 4.688810e+000 3.550812e+000 7.324508e-001 3.772845e-001 2.895916e-001 6.119075e-001 3.197987e-001 6.722743e-001 9.881276e-001 1.411111e+000 1.540026e+000 1.497331e+000 1.088969e+000 1.054750e+000 6.697929e-001 1.521471e-001
<GCONST> 1.360398e+002
<STATE> 8
<MEAN> 39
 -1.723954e+001 7.162288e-001 -6.865806e+000 -2.210819e+000 7.127327e+000 -9.137299e+000 -7.333233e+000 2.928545e+000 -3.388536e+000 -4.908123e+000 -1.259533e+001 4.887567e+000 7.662033e+001 -3.655859e+000 2.564817e+000 -2.680415e+000 5.857120e-002 1.201392e+000 -1.428721e+000 2.271470e+000 -7.808201e-001 1.937138e-001 -9.617725e-001 1.597892e-001 -7.148678e-001 2.692234e-001 5.729255e-001 -5.056396e-001 3.242198e-001 4.658117e-002 -6.156524e-001 5.350273e-001 -7.926335e-001 1.907618e-001 1.903619e-002 5.627487e-001 2.561877e-002 -4.880953e-001 -5.640355e-002
<VARIANCE> 39
 4.750944e+001 8.497263e+001 4.071002e+001 3.887365e+001 4.407852e+001 1.135173e+002 7.478092e+001 1.170252e+002 8.066673e+001 4.987573e+001 4.938833e+001 4.624629e+001 1.264589e+001 2.739269e+000 3.054746e+000 2.552753e+000 1.814012e+000 3.537627e+000 5.760839e+000 8.291540e+000 1.072133e+001 4.545231e+000 4.720539e+000 5.132239e+000 3.061461e+000 9.288415e-001 4.897568e-001 2.904756e-001 6.461689e-001 4.474961e-001 4.826601e-001 6.141359e-001 1.306710e+000 2.267864e+000 1.011996e+000 9.128565e-001 1.003489e+000 7.234088e-001 1.351232e-001
<GCONST> 1.346972e+002
<STATE> 9
<MEAN> 39
 -2.461480e+001 5.941670e+000 -1.242294e+001 2.845816e+000 9.482011e+000 -1.139343e+001 -1.773842e-001 -5.019079e+000 2.203440e+000 1.235109e+000 -6.510224e+000 1.063401e+000 7.193601e+001 3.056400e-001 -3.834780e-001 9.472338e-002 6.733748e-001 -1.469178e-001 4.812144e-001 6.339362e-001 -6.240924e-001 3.204560e-001 8.180576e-001 8.513530e-001 -3.375924e-001 -9.638044e-001 2.594587e-001 -2.235262e-001 1.727946e-001 2.098958e-002 -3.774735e-002 6.649753e-002 -6.631998e-002 2.793878e-003 -7.533599e-002 -5.953985e-002 1.666851e-002 6.605377e-002 -8.153837e-002
<VARIANCE> 39
 2.665051e+001 5.741850e+001 1.997840e+001 3.242593e+001 5.217001e+001 1.016364e+002 4.612070e+001 5.808789e+001 4.737906e+001 6.950330e+001 5.637963e+001 5.846415e+001 2.570929e+001 1.849193e+000 1.811626e+000 1.435113e+000 1.651240e+000 1.189298e+000 3.809233e+000 2.982788e+000 3.840343e+000 3.362119e+000 3.318229e+000 3.332501e+000 2.638673e+000 5.754354e-001 1.703270e-001 1.815370e-001 3.435541e-001 2.928124e-001 2.097322e-001 6.385421e-001 5.013860e-001 7.088249e-001 6.524544e-001 6.607054e-001 7.028288e-001 5.138524e-001 7.219749e-002
<GCONST> 1.181481e+002
<TRANSP> 10
 0.000000e+000 1.000000e+000 0.000000e+000 0.000000e+000 0.000000e+000 0.000000e+000 0.000000e+000 0.000000e+000 0.000000e+000 0.000000e+000
 0.000000e+000 7.885070e-001 2.114930e-001 0.000000e+000 0.000000e+000 0.000000e+000 0.000000e+000 0.000000e+000 0.000000e+000 0.000000e+000
 0.000000e+000 0.000000e+000 7.852979e-001 2.147021e-001 0.000000e+000 0.000000e+000 0.000000e+000 0.000000e+000 0.000000e+000 0.000000e+000
 0.000000e+000 0.000000e+000 0.000000e+000 5.520585e-001 4.479415e-001 0.000000e+000 0.000000e+000 0.000000e+000 0.000000e+000 0.000000e+000
 0.000000e+000 0.000000e+000 0.000000e+000 0.000000e+000 5.735793e-001 4.264208e-001 0.000000e+000 0.000000e+000 0.000000e+000 0.000000e+000
 0.000000e+000 0.000000e+000 0.000000e+000 0.000000e+000 0.000000e+000 7.915037e-001 2.084963e-001 0.000000e+000 0.000000e+000 0.000000e+000
 0.000000e+000 0.000000e+000 0.000000e+000 0.000000e+000 0.000000e+000 0.000000e+000 7.558560e-001 2.441440e-001 0.000000e+000 0.000000e+000
 0.000000e+000 0.000000e+000 0.000000e+000 0.000000e+000 0.000000e+000 0.000000e+000 0.000000e+000 7.317007e-001 2.682994e-001 0.000000e+000
 0.000000e+000 0.000000e+000 0.000000e+000 0.000000e+000 0.000000e+000 0.000000e+000 0.000000e+000 0.000000e+000 8.963611e-001 1.036389e-001
 0.000000e+000 0.000000e+000 0.000000e+000 0.000000e+000 0.000000e+000 0.000000e+000 0.000000e+000 0.000000e+000 0.000000e+000 0.000000e+000
<ENDHMM>
~h "vymazat"
<BEGINHMM>
<NUMSTATES> 10
<STATE> 2
<MEAN> 39
 -2.881317e+000 -4.134490e+000 3.766500e+000 8.354650e+000 -5.289080e+000 -3.869171e+000 -1.573707e+001 -9.302814e+000 -5.043173e+000 -2.538047e+000 -1.313790e+000 -1.051783e+000 6.610152e+001 3.276571e-002 -2.598360e-001 7.593202e-001 -6.488875e-001 -1.181085e+000 -1.088484e+000 -1.209151e+000 7.623159e-001 3.008618e-001 -6.643465e-001 7.889897e-001 8.559765e-001 1.673158e+000 -5.487863e-002 -2.659621e-001 1.530943e-001 -1.890919e-001 -1.885152e-001 1.190595e-001 9.671408e-002 2.804968e-001 6.501830e-002 -5.566892e-002 2.254811e-001 -3.782605e-002 7.210291e-003
<VARIANCE> 39
 5.045900e+001 4.409873e+001 3.340673e+001 5.525369e+001 5.492458e+001 7.143541e+001 4.921307e+001 7.280212e+001 6.278291e+001 3.483770e+001 7.691917e+001 5.306382e+001 3.764536e+001 5.582758e+000 4.173645e+000 5.117365e+000 3.578825e+000 4.494123e+000 4.905372e+000 6.785396e+000 6.571467e+000 5.771163e+000 4.051095e+000 5.045151e+000 3.573223e+000 2.079107e+000 1.035635e+000 6.306316e-001 7.609676e-001 7.711790e-001 6.513379e-001 1.056454e+000 1.075563e+000 1.120019e+000 1.214561e+000 8.249338e-001 8.491451e-001 8.181847e-001 4.224252e-001
<GCONST> 1.403488e+002
<STATE> 3
<MEAN> 39
 -5.010588e-001 -1.087860e+001 1.532254e+001 4.094672e-001 -1.809097e+001 -6.442907e+000 -2.186768e+001 2.467911e+000 -5.236759e+000 -7.562913e+000 6.530650e+000 2.467340e+000 7.982251e+001 1.263577e+000 2.199060e-001 8.028903e-002 9.679020e-002 2.760296e-001 8.628012e-001 2.229999e-001 7.806938e-002 -2.443419e-001 1.022910e-001 -3.061745e-001 -1.147383e+000 -2.887489e-001 -5.318083e-002 4.090583e-001 -7.668465e-001 5.290340e-001 8.882587e-001 -2.836875e-002 4.754497e-001 -6.233659e-001 1.400600e-001 3.272372e-001 -5.272735e-001 -2.373727e-001 -5.841329e-001
<VARIANCE> 39
 1.436308e+001 9.957595e+000 2.773935e+001 1.494386e+001 4.533964e+001 5.116670e+001 2.283019e+001 2.428885e+001 8.539008e+001 3.881477e+001 7.322203e+001 2.302258e+001 8.222443e+000 6.718905e-001 1.478344e+000 4.588732e+000 2.891750e+000 5.664818e+000 1.785817e+000 1.892874e+000 3.338139e+000 3.197658e+000 2.205779e+000 3.233505e+000 1.795671e+000 2.047122e+000 1.409097e-001 1.958965e-001 3.131126e-001 2.544528e-001 3.194014e-001 4.651029e-001 5.286946e-001 4.185244e-001 7.374377e-001 4.409788e-001 5.343023e-001 3.615526e-001 1.004730e-001
<GCONST> 1.109427e+002
<STATE> 4
<MEAN> 39
 6.104448e+000 -5.874444e+000 6.355885e+000 7.733865e+000 -6.038543e+000 -4.782174e+000 -1.539857e+001 -1.083867e+001 -7.911094e+000 -1.344980e+000 1.130623e+000 -4.910182e+000 7.259990e+001 3.680469e-001 3.008015e-001 -1.475413e+000 -1.006711e-001 1.340481e+000 6.527564e-001 4.280370e-001 -1.589646e+000 -3.582433e-001 2.578333e-001 -3.656839e-001 -1.797429e-001 -9.102901e-002 -1.792059e-001 -3.278391e-001 -5.489290e-002 -8.094747e-001 -2.220339e-001 4.936932e-001 -3.898559e-001 7.171439e-001 2.053573e-001 -3.721789e-001 1.553644e-001 1.990493e-001 4.689541e-001
<VARIANCE> 39
 8.613989e+000 1.817591e+001 1.754753e+001 3.166360e+001 3.252243e+001 6.859393e+001 6.874880e+001 6.063531e+001 6.347019e+001 6.248570e+001 8.524662e+001 3.957074e+001 4.118230e+000 5.432904e-001 1.166477e+000 1.428691e+000 6.481215e+000 2.135535e+000 3.275655e+000 4.165971e+000 5.904565e+000 3.700427e+000 3.777943e+000 2.415317e+000 4.691258e+000 1.575064e+000 8.612928e-002 1.275449e-001 2.745805e-001 7.185306e-001 2.870824e-001 5.508994e-001 6.264347e-001 9.097839e-001 1.020922e+000 5.938078e-001 5.222983e-001 8.364680e-001 6.311596e-002
<GCONST> 1.167257e+002
<STATE> 5
<MEAN> 39
 6.481401e+000 -9.089998e+000 -3.335413e+000 -5.770239e+000 -3.183487e-001 7.808288e+000 -2.020483e+001 -6.408938e+000 -2.709687e+000 -5.990136e+000 5.609075e-001 -5.596411e+000 7.818732e+001 -3.122647e-001 -1.640449e+000 -1.461193e+000 -4.376866e+000 1.509843e+000 3.465650e+000 -2.494823e+000 3.696187e+000 2.044066e+000 -8.547108e-001 4.689635e-001 -1.156400e+000 1.672011e+000 -1.456380e-001 1.450248e-001 6.577005e-001 5.633557e-001 1.394186e-001 -7.539240e-001 2.398706e-002 -1.547837e-002 -4.394500e-001 5.785301e-001 -7.711194e-002 -1.561197e-001 -2.067469e-001
<VARIANCE> 39
 5.913797e+000 1.700381e+001 1.164182e+001 3.358181e+001 4.189639e+001 1.178315e+002 7.295233e+001 4.407397e+001 1.213661e+002 7.362091e+001 7.147818e+001 2.855466e+001 5.587489e+000 5.512126e-001 5.746945e-001 1.711846e+000 2.943754e+000 9.288016e-001 2.824933e+000 3.500315e+000 4.504739e+000 8.012914e+000 3.438601e+000 1.919502e+000 3.207082e+000 2.933382e-001 9.296282e-002 2.368004e-001 2.068383e-001 7.545545e-001 2.503496e-001 8.042156e-001 9.228951e-001 1.019360e+000 1.112009e+000 4.909117e-001 4.323525e-001 3.069801e-001 7.001540e-002
<GCONST> 1.127523e+002
<STATE> 6
<MEAN> 39
 4.187781e+000 -1.077729e+001 -3.284026e+000 -1.315432e+001 6.045414e+000 9.538637e+000 -2.393030e+001 1.307509e+000 -1.847504e+000 -2.936224e+000 -1.362784e+000 -8.346209e+000 8.144904e+001 -4.190334e-001 1.062777e+000 -2.750736e-001 -3.518058e-001 7.274851e-001 -1.123988e+000 1.320057e+000 3.821425e-002 -7.201890e-001 1.500105e+000 -7.809465e-001 -1.684336e-001 -4.051127e-002 -1.097265e-001 7.665955e-001 -2.846685e-001 6.631557e-001 -2.933170e-001 -5.789198e-001 9.940179e-001 -8.616484e-001 -3.809994e-002 6.706798e-002 -1.091618e-001 3.617203e-001 -4.008547e-001
<VARIANCE> 39
 9.200052e+000 1.072251e+001 1.160635e+001 1.377172e+001 7.065268e+001 6.497169e+001 4.708168e+001 1.931656e+001 1.329616e+002 5.077802e+001 6.364119e+001 4.548501e+001 3.226960e+000 4.762501e-001 2.012419e+000 1.229535e+000 1.116073e+000 1.457986e+000 1.700006e+000 3.489943e+000 2.395634e+000 1.662156e+000 1.221380e+000 1.737800e+000 1.906131e+000 6.238996e-001 1.064854e-001 1.794052e-001 4.010532e-001 2.354853e-001 3.060643e-001 4.227925e-001 2.927791e-001 4.826082e-001 6.808798e-001 5.027275e-001 3.461384e-001 3.656717e-001 2.804986e-002
<GCONST> 1.022543e+002
<STATE> 7
<MEAN> 39
 -6.293973e-001 3.147782e+000 -1.083803e+001 -9.006915e+000 5.288702e+000 6.478685e-002 -6.291714e+000 -6.670656e+000 -3.264795e+000 1.509071e+000 -4.749768e+000 -5.812900e+000 7.734432e+001 -2.637819e+000 4.132987e+000 -2.583312e+000 2.257580e+000 9.469926e-002 -2.777788e+000 4.589961e+000 -2.323840e+000 1.073063e+000 -6.316476e-001 -1.138697e+000 1.290520e+000 -9.396105e-001 -3.344890e-001 -2.928585e-001 1.901660e-001 1.221114e-001 1.614054e-001 -7.925882e-002 -6.293452e-001 3.856361e-001 2.003998e-001 -3.031957e-001 -1.284655e-001 -2.114228e-002 2.133982e-001
<VARIANCE> 39
 3.604024e+001 4.652403e+001 3.753227e+001 3.025043e+001 3.310538e+001 7.326614e+001 6.432048e+001 4.620212e+001 1.024429e+002 5.462721e+001 3.624013e+001 2.121403e+001 4.791050e+000 1.299382e+000 1.362381e+000 3.062002e+000 2.349393e+000 3.486707e+000 2.299452e+000 3.285569e+000 7.680407e+000 1.982709e+000 3.657815e+000 4.935239e+000 2.597958e+000 3.124678e-001 5.127294e-001 7.183470e-001 9.209337e-001 6.009016e-001 2.414837e-001 5.529899e-001 1.348513e+000 1.255740e+000 4.671740e-001 7.889075e-001 7.622939e-001 4.293756e-001 4.603529e-002
<GCONST> 1.217215e+002
<STATE> 8
<MEAN> 39
 -6.565582e+000 7.863021e+000 -1.128056e+001 -3.432770e+000 5.995930e+000 -9.806166e+000 -6.714081e+000 -1.044504e+001 2.823223e-001 3.007274e+000 -8.358395e+000 -7.047786e-001 7.714447e+001 1.192798e+000 -1.908806e+000 1.353461e+000 -7.231858e-001 -5.485765e-001 2.027708e-001 -2.982448e+000 3.991438e-001 3.475563e-001 1.503742e+000 6.737700e-002 1.646372e-001 5.547032e-001 5.647362e-001 -7.430676e-001 2.591827e-001 -5.208165e-001 -2.429707e-001 7.465066e-001 -5.465670e-001 4.831789e-001 -1.432766e-001 2.781460e-001 1.612655e-001 -3.444615e-001 1.464085e-001
<VARIANCE> 39
 3.655096e+001 4.050819e+001 4.030289e+001 2.000110e+001 2.809850e+001 3.830398e+001 1.112995e+002 6.298092e+001 8.900336e+001 6.039139e+001 6.479192e+001 3.193974e+001 6.339298e+000 5.656271e+000 5.235513e+000 4.106919e+000 3.247039e+000 3.405021e+000 6.468282e+000 6.223361e+000 7.542793e+000 1.949535e+000 5.507433e+000 5.275743e+000 4.303092e+000 5.991479e-001 9.756871e-001 8.587754e-001 1.119553e+000 3.431838e-001 5.913841e-001 6.783062e-001 2.134748e+000 1.268484e+000 4.343749e-001 1.005240e+000 1.069687e+000 6.566769e-001 1.046413e-001
<GCONST> 1.329912e+002
<STATE> 9
<MEAN> 39
 4.364186e+000 -6.803159e+000 -4.712536e+000 -1.186745e+001 -1.416960e+000 4.476201e-001 -1.617596e+001 -5.981817e-001 -3.968638e+000 8.897210e+000 -5.573041e+000 -5.366782e+000 7.467235e+001 2.932131e-001 -2.117517e-001 1.127514e-002 2.027765e-001 -5.662127e-001 1.099999e-001 1.248853e+000 2.490707e-001 -5.091246e-001 -6.338310e-001 8.942208e-002 -3.987828e-001 -1.221223e+000 -1.439774e-001 1.918796e-001 -3.198027e-002 2.453408e-001 6.322537e-002 -2.242219e-001 2.643221e-001 -2.108495e-001 -4.353190e-003 -2.330338e-001 -5.077890e-003 6.483892e-002 -1.347594e-001
<VARIANCE> 39
 8.111160e+000 2.070977e+001 2.046428e+001 1.994316e+001 4.519043e+001 3.211948e+001 7.666656e+001 3.992958e+001 7.235590e+001 1.915791e+002 1.102894e+002 4.434625e+001 5.413003e+001 6.096076e-001 1.616740e+000 1.309145e+000 1.994975e+000 1.910163e+000 3.426265e+000 4.164205e+000 3.872494e+000 2.859044e+000 5.433293e+000 3.681441e+000 2.988793e+000 1.137564e+000 1.286361e-001 2.885229e-001 2.420633e-001 2.219505e-001 3.791245e-001 4.267391e-001 7.343548e-001 5.268772e-001 5.769224e-001 6.455568e-001 5.276512e-001 5.544713e-001 1.372211e-001
<GCONST> 1.178261e+002
<TRANSP> 10
 0.000000e+000 1.000000e+000 0.000000e+000 0.000000e+000 0.000000e+000 0.000000e+000 0.000000e+000 0.000000e+000 0.000000e+000 0.000000e+000
 0.000000e+000 9.020771e-001 9.792289e-002 0.000000e+000 0.000000e+000 0.000000e+000 0.000000e+000 0.000000e+000 0.000000e+000 0.000000e+000
 0.000000e+000 0.000000e+000 8.444598e-001 1.555402e-001 0.000000e+000 0.000000e+000 0.000000e+000 0.000000e+000 0.000000e+000 0.000000e+000
 0.000000e+000 0.000000e+000 0.000000e+000 8.625796e-001 1.374204e-001 0.000000e+000 0.000000e+000 0.000000e+000 0.000000e+000 0.000000e+000
 0.000000e+000 0.000000e+000 0.000000e+000 0.000000e+000 6.764906e-001 3.235094e-001 0.000000e+000 0.000000e+000 0.000000e+000 0.000000e+000
 0.000000e+000 0.000000e+000 0.000000e+000 0.000000e+000 0.000000e+000 8.186406e-001 1.813594e-001 0.000000e+000 0.000000e+000 0.000000e+000
 0.000000e+000 0.000000e+000 0.000000e+000 0.000000e+000 0.000000e+000 0.000000e+000 7.453036e-001 2.546964e-001 0.000000e+000 0.000000e+000
 0.000000e+000 0.000000e+000 0.000000e+000 0.000000e+000 0.000000e+000 0.000000e+000 0.000000e+000 8.583114e-001 1.416887e-001 0.000000e+000
 0.000000e+000 0.000000e+000 0.000000e+000 0.000000e+000 0.000000e+000 0.000000e+000 0.000000e+000 0.000000e+000 9.279339e-001 7.206603e-002
 0.000000e+000 0.000000e+000 0.000000e+000 0.000000e+000 0.000000e+000 0.000000e+000 0.000000e+000 0.000000e+000 0.000000e+000 0.000000e+000
<ENDHMM>
~h "krat"
<BEGINHMM>
<NUMSTATES> 10
<STATE> 2
<MEAN> 39
 -1.244998e+001 -1.352909e+001 -4.512835e+000 2.002201e+000 1.677484e-001 -2.773310e+000 -4.920463e+000 -4.985336e-001 -2.997922e+000 4.703575e+000 -6.090757e+000 1.500057e+000 7.260754e+001 5.691900e-001 5.389903e-001 5.886147e-001 -2.351758e-001 -7.978966e-001 -2.207615e+000 -1.786551e+000 5.937018e-001 -1.028406e-001 4.202423e-002 -8.201563e-001 -3.165720e-002 2.960607e+000 6.523721e-001 -5.312444e-002 2.546450e-001 7.215171e-002 -1.681680e-001 4.389887e-001 1.082120e-001 3.685185e-002 2.374521e-001 -5.131181e-001 4.089212e-001 -3.499233e-001 -4.701650e-001
<VARIANCE> 39
 2.803722e+001 1.863482e+001 2.954556e+001 1.981094e+001 3.314467e+001 1.920626e+002 6.533064e+001 4.437930e+001 5.919519e+001 8.166396e+001 7.234392e+001 4.202355e+001 8.695775e+001 7.472604e+000 3.143127e+000 3.442332e+000 3.150848e+000 4.960366e+000 1.561484e+001 9.403611e+000 4.431840e+000 5.709011e+000 1.213042e+001 7.532074e+000 5.630470e+000 8.422716e+000 1.450304e+000 8.246783e-001 6.243323e-001 6.762538e-001 8.916954e-001 2.620191e+000 1.856920e+000 5.707923e-001 1.318608e+000 2.374352e+000 1.339210e+000 1.056482e+000 1.484097e+000
<GCONST> 1.478501e+002
<STATE> 3
<MEAN> 39
 -1.857216e+000 -1.507223e+001 4.246834e-001 3.631530e-001 -6.879113e+000 -5.130901e+000 -1.257640e+001 1.141056e+000 2.087797e+000 -2.079508e+000 -5.405040e+000 -2.682930e-001 7.951859e+001 1.347775e+000 -2.056322e+000 1.405411e-001 -5.897689e-001 -1.081524e+000 1.348214e+000 -9.742059e-001 -2.449515e-001 1.776619e+000 -9.128338e-001 -4.680384e-001 4.676698e-001 -2.124249e-001 -3.718908e-001 -4.202714e-001 -4.360016e-001 -8.361426e-002 3.683095e-001 2.117855e-001 2.672310e-001 -1.276066e-001 -1.486676e-001 2.911642e-001 -4.177350e-001 1.607032e-001 -1.906870e-001
<VARIANCE> 39
 1.376042e+001 3.021293e+001 2.566674e+001 2.825198e+001 6.536131e+001 2.001275e+002 4.784417e+001 8.436445e+001 1.027644e+002 3.699729e+001 7.068520e+001 4.289462e+001 1.061462e+001 3.700328e+000 2.013219e+000 2.955050e+000 3.067913e+000 4.584966e+000 3.535459e+000 4.194689e+000 4.192248e+000 4.395358e+000 5.552670e+000 5.635949e+000 3.244288e+000 1.441148e+000 8.153036e-001 5.005432e-001 7.370933e-001 7.840711e-001 1.033001e+000 8.093339e-001 1.208397e+000 1.294152e+000 8.609863e-001 8.473757e-001 8.823394e-001 8.769166e-001 3.467850e-001
<GCONST> 1.342225e+002
<STATE> 4
<MEAN> 39
 1.565612e+000 -2.697925e+001 -2.161217e+000 -2.163497e+000 -8.132269e+000 1.485416e-002 -1.407239e+001 2.782836e+000 4.139439e+000 -5.093445e+000 -8.337784e+000 7.976713e-001 7.760684e+001 9.539128e-001 -1.707296e+000 -1.394775e+000 -5.418915e-001 5.742921e-001 1.611885e+000 1.802070e-001 7.613982e-001 -9.727551e-001 -1.283492e+000 -1.552235e-001 -1.988375e+000 3.714580e-001 -2.992390e-001 7.755570e-001 -1.803644e-001 -2.816898e-002 7.173073e-002 6.811539e-002 2.215488e-001 1.552083e-001 -4.040225e-001 6.049295e-002 2.366803e-001 -6.811376e-001 1.409789e-001
<VARIANCE> 39
 9.328615e+000 4.226669e+001 1.900932e+001 1.553052e+001 6.250146e+001 2.366969e+002 6.478259e+001 7.847806e+001 9.734158e+001 8.154362e+001 8.946317e+001 3.128362e+001 1.274891e+001 1.730308e+000 3.158052e+000 2.039263e+000 1.958261e+000 2.496327e+000 3.942026e+000 6.122848e+000 7.168130e+000 1.802526e+000 2.774068e+000 3.175983e+000 4.074565e+000 1.378308e+000 1.409398e-001 4.622463e-001 2.639566e-001 4.034007e-001 3.299471e-001 6.227452e-001 7.013153e-001 4.630331e-001 4.132782e-001 7.075296e-001 4.351950e-001 4.954985e-001 2.971048e-001
<GCONST> 1.229259e+002
<STATE> 5
<MEAN> 39
 1.787565e+000 -2.499231e+001 -8.615510e+000 -5.198321e+000 -4.113195e+000 5.389690e+000 -1.170165e+001 5.954905e+000 -1.854083e+000 -8.838477e+000 -6.354435e+000 -9.247104e+000 7.849648e+001 1.124241e-001 1.154303e+000 -1.191789e+000 -4.029958e-001 7.544730e-001 1.252536e+000 4.611380e-001 -9.792667e-002 1.016632e-001 4.156478e-001 9.077808e-002 -1.193251e+000 5.840307e-002 -2.414948e-002 3.222435e-001 2.121836e-001 1.985669e-001 1.354818e-001 -2.465236e-001 -4.849381e-002 -2.756216e-001 2.586572e-001 2.140299e-001 -2.743273e-003 3.574072e-001 -3.692743e-002
<VARIANCE> 39
 1.232496e+001 5.019213e+001 5.643505e+001 5.186526e+001 1.750371e+001 1.880829e+002 7.055430e+001 1.626580e+002 1.353130e+002 8.861845e+001 1.028735e+002 5.602929e+001 1.312136e+001 9.090753e-001 1.634722e+000 1.332726e+000 2.631286e+000 1.260113e+000 3.601825e+000 3.248109e+000 3.025094e+000 3.139076e+000 3.516287e+000 3.410184e+000 2.917271e+000 7.973779e-001 1.246437e-001 2.273584e-001 2.116316e-001 4.147044e-001 3.040362e-001 3.901308e-001 7.621010e-001 5.867611e-001 3.380752e-001 6.416410e-001 6.876585e-001 4.825707e-001 7.700761e-002
<GCONST> 1.199516e+002
<STATE> 6
<MEAN> 39
 2.191017e+000 -1.804220e+001 -6.540850e+000 -7.330310e+000 8.405887e+000 2.039243e+001 -1.461443e+001 8.626838e+000 5.477016e+000 -4.420974e+000 -9.178317e+000 -1.610049e+001 7.770583e+001 2.741525e-001 9.451107e-001 2.994079e-001 -5.953822e-002 8.314232e-001 2.819088e-001 -8.899868e-002 -1.293535e+000 -2.562344e-001 2.997817e-002 1.248161e-001 -9.232554e-002 1.662472e-001 -1.369360e-003 -8.392800e-002 1.389152e-001 -2.614654e-002 -2.025966e-001 -9.111699e-002 -6.788958e-002 -1.034592e-001 -3.383920e-002 4.231672e-002 4.273067e-002 1.282820e-001 8.176213e-003
<VARIANCE> 39
 1.083496e+001 4.447876e+001 4.341898e+001 3.481186e+001 4.888443e+001 6.063941e+001 3.532747e+001 1.999210e+002 5.020107e+001 1.551138e+001 4.448341e+001 4.765715e+001 2.647942e+001 5.220460e-001 1.500215e+000 8.993298e-001 2.408413e+000 2.890554e+000 1.703723e+000 3.862671e+000 3.112844e+000 2.214515e+000 1.824924e+000 2.778578e+000 2.171838e+000 5.727310e-001 7.997155e-002 1.726864e-001 1.239621e-001 3.804850e-001 4.079681e-001 2.643102e-001 6.400721e-001 3.567941e-001 5.043515e-001 3.791257e-001 6.954121e-001 3.744708e-001 6.844556e-002
<GCONST> 1.101503e+002
<STATE> 7
<MEAN> 39
 6.114860e+000 -1.028424e+001 -1.168223e+001 -2.126192e+000 -1.477517e+000 7.640766e+000 -6.165555e+000 -8.784066e+000 -2.678468e+000 -3.774768e+000 -3.830489e+000 -9.646335e+000 8.001357e+001 3.641196e-002 5.930128e-001 4.287080e-002 -7.631046e-002 -1.436118e-001 -2.818236e-001 -1.803443e-001 1.139040e-001 -5.000330e-001 1.171353e-001 5.863103e-001 1.127220e-001 -2.540011e-002 -4.852252e-004 -3.514278e-002 9.870742e-003 -2.454239e-002 -3.548739e-002 -6.027911e-002 -3.463826e-002 1.266960e-001 1.694535e-002 -1.604045e-002 -2.624856e-002 3.169530e-002 -4.911080e-002
<VARIANCE> 39
 1.885730e+001 4.075482e+001 1.974923e+001 1.683669e+001 2.858945e+001 7.611650e+001 5.880338e+001 6.429957e+001 9.887753e+001 3.811113e+001 8.525587e+001 3.186337e+001 1.045938e+001 1.869041e-001 4.465809e-001 4.111923e-001 8.925026e-001 1.335870e+000 1.992743e+000 2.838580e+000 2.721879e+000 1.704234e+000 1.508922e+000 1.758217e+000 1.583260e+000 1.116738e-001 3.839979e-002 8.919483e-002 1.045989e-001 1.471260e-001 2.462115e-001 3.104008e-001 4.974697e-001 4.796213e-001 3.411617e-001 2.844760e-001 3.054158e-001 2.405056e-001 2.182424e-002
<GCONST> 9.523103e+001
<STATE> 8
<MEAN> 39
 5.477826e+000 -5.954778e+000 -7.118658e+000 -7.375268e+000 5.306165e+000 7.374028e+000 -1.362640e+001 -3.168200e+000 -1.998365e+000 -4.554122e+000 -5.555634e+000 -8.607907e+000 7.785511e+001 1.723058e-001 1.048442e+000 -2.078592e-001 1.031922e-001 7.399246e-001 -8.955975e-001 1.587886e+000 -1.909143e-001 -5.420250e-001 2.572703e-001 -1.155268e+000 3.549935e-001 -9.619251e-001 -1.061059e-001 5.155952e-002 -8.456321e-002 1.986240e-001 2.218830e-001 1.513404e-001 5.690159e-001 -1.001556e-001 -2.867202e-001 -8.075327e-002 -2.188237e-001 -3.582262e-002 -2.707140e-001
<VARIANCE> 39
 8.378818e+000 2.438102e+001 3.449216e+001 2.254617e+001 8.897563e+001 1.190399e+002 6.625876e+001 2.816026e+001 1.025629e+002 4.461985e+001 8.759402e+001 2.418110e+001 1.716806e+001 5.661466e-001 8.155490e-001 1.752428e+000 1.632705e+000 2.784211e+000 2.993298e+000 3.194830e+000 3.153372e+000 4.615834e+000 2.617726e+000 2.820179e+000 3.150624e+000 1.012387e+000 1.057400e-001 1.513046e-001 2.803825e-001 3.304659e-001 5.647838e-001 5.563725e-001 5.992364e-001 6.240043e-001 6.601257e-001 5.100276e-001 5.394064e-001 6.624159e-001 7.788430e-002
<GCONST> 1.154539e+002
<STATE> 9
<MEAN> 39
 3.075867e+000 -1.211640e+000 -8.147367e+000 -3.091412e-001 5.317391e+000 3.622638e+000 4.414515e+000 -3.469332e+000 -9.966747e+000 -5.897620e+000 -8.134793e+000 -7.881077e+000 6.575093e+001 -7.999039e-001 -3.263552e-001 3.050939e-001 9.225144e-001 -5.599202e-001 6.080534e-002 9.706322e-001 -7.848590e-003 -2.480924e-001 -7.122588e-001 -8.571111e-002 -1.255482e-001 -1.457517e+000 -7.136691e-002 -1.510578e-001 1.187773e-001 -5.776167e-002 -1.910461e-001 -1.892797e-002 -3.763458e-001 7.940688e-002 2.540163e-001 8.080211e-003 1.307312e-001 1.309792e-002 1.914893e-001
<VARIANCE> 39
 1.295838e+001 2.495200e+001 3.434272e+001 3.580563e+001 8.835676e+001 6.310026e+001 4.915927e+001 4.642503e+001 1.048580e+002 6.539881e+001 7.305269e+001 2.150390e+001 2.828507e+001 8.800937e-001 7.511570e-001 1.742619e+000 1.263904e+000 4.426363e+000 4.638733e+000 6.196614e+000 4.372594e+000 4.441823e+000 3.788232e+000 3.982521e+000 2.728238e+000 7.989032e-001 1.040180e-001 1.639186e-001 2.154548e-001 2.689750e-001 8.452586e-001 7.468566e-001 9.088911e-001 8.535777e-001 8.455406e-001 7.873067e-001 5.546461e-001 5.912707e-001 7.324588e-002
<GCONST> 1.203761e+002
<TRANSP> 10
 0.000000e+000 1.000000e+000 0.000000e+000 0.000000e+000 0.000000e+000 0.000000e+000 0.000000e+000 0.000000e+000 0.000000e+000 0.000000e+000
 0.000000e+000 8.352841e-001 1.647158e-001 0.000000e+000 0.000000e+000 0.000000e+000 0.000000e+000 0.000000e+000 0.000000e+000 0.000000e+000
 0.000000e+000 0.000000e+000 7.927137e-001 2.072863e-001 0.000000e+000 0.000000e+000 0.000000e+000 0.000000e+000 0.000000e+000 0.000000e+000
 0.000000e+000 0.000000e+000 0.000000e+000 6.922460e-001 3.077540e-001 0.000000e+000 0.000000e+000 0.000000e+000 0.000000e+000 0.000000e+000
 0.000000e+000 0.000000e+000 0.000000e+000 0.000000e+000 7.929075e-001 2.070925e-001 0.000000e+000 0.000000e+000 0.000000e+000 0.000000e+000
 0.000000e+000 0.000000e+000 0.000000e+000 0.000000e+000 0.000000e+000 8.428897e-001 1.571103e-001 0.000000e+000 0.000000e+000 0.000000e+000
 0.000000e+000 0.000000e+000 0.000000e+000 0.000000e+000 0.000000e+000 0.000000e+000 9.141646e-001 8.583542e-002 0.000000e+000 0.000000e+000
 0.000000e+000 0.000000e+000 0.000000e+000 0.000000e+000 0.000000e+000 0.000000e+000 0.000000e+000 8.404282e-001 1.595718e-001 0.000000e+000
 0.000000e+000 0.000000e+000 0.000000e+000 0.000000e+000 0.000000e+000 0.000000e+000 0.000000e+000 0.000000e+000 8.743953e-001 1.256047e-001
 0.000000e+000 0.000000e+000 0.000000e+000 0.000000e+000 0.000000e+000 0.000000e+000 0.000000e+000 0.000000e+000 0.000000e+000 0.000000e+000
<ENDHMM>
~h "procent"
<BEGINHMM>
<NUMSTATES> 10
<STATE> 2
<MEAN> 39
 -6.576329e+000 -1.239488e+001 -5.323799e+000 5.215556e+000 -4.782891e+000 3.469675e-001 -1.200410e+001 -6.314997e+000 3.219631e+000 2.657449e-002 -8.531534e-001 -2.234790e+000 7.358578e+001 1.077809e+000 -3.412660e-001 2.674141e-002 -3.324136e-001 -9.020340e-001 6.321049e-001 -2.087511e+000 -8.780044e-001 1.092683e-001 -7.065471e-002 -4.767310e-001 -7.316985e-001 1.770085e+000 -1.969891e-002 -3.867022e-002 5.567215e-002 -4.152018e-001 -7.994840e-002 2.970175e-001 -4.552835e-002 2.062512e-001 -2.517502e-001 1.633714e-001 8.958153e-002 2.149026e-002 -5.992644e-001
<VARIANCE> 39
 3.474162e+001 5.425087e+001 3.924283e+001 8.749905e+001 4.900160e+001 1.118083e+002 1.089177e+002 9.658302e+001 1.081253e+002 8.143303e+001 6.764095e+001 5.019569e+001 9.677654e+001 3.789966e+000 5.062779e+000 2.571813e+000 8.345106e+000 3.461951e+000 1.441579e+001 1.544175e+001 9.495158e+000 7.149190e+000 5.288804e+000 6.190616e+000 4.149725e+000 1.026769e+001 7.088086e-001 1.019545e+000 5.587674e-001 1.759579e+000 6.509273e-001 2.816259e+000 3.297342e+000 1.751675e+000 1.235203e+000 9.050767e-001 1.302922e+000 9.422379e-001 1.847792e+000
<GCONST> 1.540902e+002
<STATE> 3
<MEAN> 39
 1.406891e+000 -1.200219e+001 -6.195069e-001 -9.219975e+000 -9.358469e+000 6.883548e+000 -2.661625e+001 -9.000605e+000 -8.293189e+000 4.281721e+000 -1.089238e+000 -3.717390e+000 7.727492e+001 3.811310e-001 8.743203e-001 5.747662e-001 -1.699858e+000 5.390714e-001 -6.536796e-001 8.730958e-001 1.979522e-001 -7.818022e-001 1.418356e-001 3.553914e-001 1.688226e-001 -9.002097e-001 -1.799464e-001 6.818780e-002 -2.549937e-001 4.446031e-001 2.386261e-001 -4.565259e-001 8.916261e-001 -5.911539e-002 3.133768e-001 -2.775944e-001 -6.681219e-002 -2.028756e-002 -3.948873e-001
<VARIANCE> 39
 1.047924e+001 4.297643e+001 3.647810e+001 5.918554e+001 3.884775e+001 8.670241e+001 8.762283e+001 8.040215e+001 5.863842e+001 7.501865e+001 6.320702e+001 8.693842e+001 1.509953e+001 1.056470e+000 2.565594e+000 3.320791e+000 6.361039e+000 3.702713e+000 5.572981e+000 1.092181e+001 5.417811e+000 4.376969e+000 6.723871e+000 4.915497e+000 4.285568e+000 2.968131e+000 2.069219e-001 6.634782e-001 6.336294e-001 6.560796e-001 5.419197e-001 9.042917e-001 1.027208e+000 9.067714e-001 7.358060e-001 8.818185e-001 8.533870e-001 7.097376e-001 2.718667e-001
<GCONST> 1.349507e+002
<STATE> 4
<MEAN> 39
 2.512732e-001 -9.140987e+000 -4.326907e+000 -9.450768e+000 -3.559446e+000 -2.235359e+000 -8.225844e+000 -8.966459e+000 -6.540169e+000 1.890079e+000 -2.023292e+000 -3.902825e+000 6.522902e+001 -1.845664e+000 8.742111e-001 -1.560891e+000 1.105636e+000 1.406409e+000 -2.142843e+000 2.353174e+000 6.250267e-001 7.203460e-002 -2.970165e-001 -7.753426e-001 2.879597e-001 -4.850627e-001 -9.838987e-001 7.057179e-001 -9.501334e-002 1.625237e-001 4.221866e-001 -2.574014e-001 -4.060183e-001 3.140356e-001 -9.635077e-002 1.510770e-001 -1.624116e-001 3.052137e-001 8.619338e-001
<VARIANCE> 39
 2.279002e+001 2.510530e+001 2.110378e+001 6.637085e+001 3.953459e+001 5.340999e+001 5.079698e+001 4.512007e+001 4.814854e+001 3.014271e+001 6.258582e+001 9.431453e+001 7.058580e+000 5.419035e+000 3.479233e+000 2.063776e+000 3.208630e+000 6.171412e+000 5.335923e+000 4.801993e+000 4.694437e+000 5.087630e+000 4.029899e+000 4.971079e+000 4.943172e+000 3.513098e+000 5.144274e-001 5.217968e-001 3.114237e-001 7.584277e-001 8.097471e-001 8.500260e-001 9.541876e-001 8.291662e-001 7.602139e-001 7.054181e-001 9.880033e-001 7.019410e-001 1.602356e-001
<GCONST> 1.313107e+002
<STATE> 5
<MEAN> 39
 -2.045807e+001 6.133427e+000 -1.182592e+001 -3.076784e+000 7.341154e+000 -1.429905e+001 -9.315291e-001 -2.249300e+000 -6.540427e+000 1.285091e+000 -5.183709e+000 1.434861e-001 7.261241e+001 -4.749899e+000 2.748630e+000 -8.943912e-002 1.148648e+000 1.430433e+000 -1.297655e+000 -4.312387e-001 1.196556e+000 5.993227e-001 -5.753965e-001 -5.995178e-001 9.702988e-001 2.208250e+000 9.437516e-001 -1.339377e+000 8.167353e-001 -8.346850e-002 -7.069851e-001 7.358854e-001 -7.115346e-001 -3.311538e-001 3.100069e-001 -2.587868e-001 -1.253172e-002 -9.504215e-002 -2.504178e-001
<VARIANCE> 39
 4.368215e+001 5.076397e+001 5.049522e+001 2.217509e+001 7.390929e+001 5.357983e+001 5.622763e+001 5.128897e+001 4.829370e+001 6.710249e+001 5.749775e+001 3.917416e+001 1.231205e+001 3.339391e+000 6.439697e+000 5.419447e+000 4.989377e+000 4.240326e+000 3.464185e+000 6.330251e+000 5.499372e+000 2.933468e+000 5.230720e+000 4.721111e+000 3.709543e+000 7.229710e-001 6.961163e-001 1.189950e+000 5.458568e-001 7.920930e-001 6.230203e-001 5.843006e-001 9.561889e-001 7.781261e-001 9.280314e-001 1.521186e+000 8.157452e-001 6.015950e-001 1.722235e-001
<GCONST> 1.343799e+002
<STATE> 6
<MEAN> 39
 -2.663647e+001 -6.081324e-001 -5.754745e+000 1.733846e+000 7.662882e+000 -1.444170e+001 -6.839326e+000 -1.975833e+000 -2.231817e+000 -3.316943e+000 -9.766097e+000 3.738956e+000 7.674830e+001 1.678739e+000 -2.803634e+000 9.785572e-001 1.253849e+000 -9.863408e-002 1.034344e+000 -1.022621e+000 -2.101754e-001 7.498981e-001 -4.544023e-001 -1.086752e+000 1.137292e-001 -3.140951e-001 1.324036e+000 4.238022e-002 -1.140893e-001 -2.118168e-001 -1.520143e-001 4.443255e-001 3.620884e-002 -2.387010e-003 -2.583342e-001 3.403315e-001 -1.057256e-002 -4.692104e-001 -2.693506e-001
<VARIANCE> 39
 1.103132e+001 4.273629e+001 4.064329e+001 3.868861e+001 6.491834e+001 9.113956e+001 5.680873e+001 7.303609e+001 5.594161e+001 5.451904e+001 5.375198e+001 3.713792e+001 1.097097e+001 4.066419e+000 1.967390e+000 2.993736e+000 1.920260e+000 1.677317e+000 2.874992e+000 2.374647e+000 2.308672e+000 4.030674e+000 6.004865e+000 3.544146e+000 3.436969e+000 9.499055e-001 2.176594e-001 1.137925e+000 4.738556e-001 4.631380e-001 3.972261e-001 5.770559e-001 5.758662e-001 4.443801e-001 6.434329e-001 1.152892e+000 7.899140e-001 7.935489e-001 3.828368e-001
<GCONST> 1.254908e+002
<STATE> 7
<MEAN> 39
 -8.219549e+000 -7.320075e+000 -2.268782e+000 3.091460e+000 5.547515e+000 -5.495999e+000 -1.152642e+001 -2.191607e+000 -5.022753e-001 -6.499554e-001 -1.525346e+001 -1.696982e+000 7.618677e+001 4.887910e+000 -8.793129e-001 1.007439e+000 -1.768216e+000 -1.827896e+000 2.036458e+000 -2.395741e+000 1.192924e+000 2.227988e-001 7.255453e-001 -4.524825e-001 -2.338469e+000 1.532135e+000 -5.699114e-001 -1.294653e-001 -1.465743e-001 -5.982744e-001 -3.052376e-001 -5.800938e-002 -3.176250e-001 4.646584e-001 -5.479451e-002 -2.197031e-001 4.360616e-001 -3.523529e-002 4.688286e-001
<VARIANCE> 39
 6.294135e+001 3.725214e+001 3.110203e+001 4.063506e+001 2.799737e+001 7.341649e+001 6.112610e+001 9.435735e+001 4.718320e+001 4.522800e+001 5.736554e+001 2.799843e+001 1.861203e+001 2.576388e+000 2.496144e+000 3.449914e+000 2.630209e+000 2.267235e+000 3.246153e+000 9.182940e+000 4.232924e+000 5.108203e+000 4.448411e+000 4.653296e+000 3.081599e+000 2.506520e+000 8.559279e-001 4.420172e-001 5.861017e-001 3.823101e-001 6.578650e-001 4.411488e-001 1.135108e+000 5.893441e-001 9.692919e-001 9.208317e-001 4.141859e-001 7.323880e-001 4.503015e-001
<GCONST> 1.310553e+002
<STATE> 8
<MEAN> 39
 1.567915e+000 -1.218547e+001 -6.541986e-001 -3.804192e+000 -2.778235e+000 3.559146e-002 -2.021338e+001 7.059232e+000 -3.392987e+000 -4.127463e+000 -9.489202e+000 -1.044980e+001 8.086802e+001 5.651831e-001 1.021760e-002 1.096264e-001 2.047176e-001 -5.294254e-001 1.647269e-001 6.173291e-001 -2.878864e-001 -4.757860e-001 -2.201483e-001 1.887678e-001 -4.192194e-001 -5.590820e-001 -2.244116e-001 2.869071e-001 5.638967e-002 4.632451e-001 9.824122e-002 -2.644924e-001 6.054022e-001 -5.660213e-001 3.192530e-002 9.483396e-002 -7.945063e-002 2.861164e-001 -3.999015e-001
<VARIANCE> 39
 1.008455e+001 4.337297e+001 4.977282e+001 2.524955e+001 6.969527e+001 4.004025e+001 7.703826e+001 8.521246e+001 1.314674e+002 9.056741e+001 1.639820e+002 5.162269e+001 2.509181e+001 5.560219e-001 1.851532e+000 2.014034e+000 2.983355e+000 2.450202e+000 3.381791e+000 3.717854e+000 5.319974e+000 2.711439e+000 2.792045e+000 2.530789e+000 1.838940e+000 1.281831e+000 2.620715e-001 2.446964e-001 3.665192e-001 4.165319e-001 5.479458e-001 4.649007e-001 3.645381e-001 5.288375e-001 6.188035e-001 5.090139e-001 5.154626e-001 3.738022e-001 1.134803e-001
<GCONST> 1.213825e+002
<STATE> 9
<MEAN> 39
 5.679271e+000 -4.309763e+000 5.491123e+000 8.692924e+000 -4.769507e+000 -1.206452e+000 -6.403871e+000 -1.124897e+001 -6.017407e+000 -1.470379e+000 -9.076838e+000 -5.157567e+000 6.805840e+001 -1.778614e-001 2.024612e-001 9.583379e-002 7.101868e-001 8.716452e-002 1.020883e-002 7.674677e-001 -7.259736e-001 -2.137080e-001 3.383213e-002 5.608981e-001 3.439555e-001 -8.514404e-001 -1.074690e-001 -9.088303e-002 -1.097053e-001 -1.501697e-001 9.865642e-002 2.931165e-002 -1.440207e-001 2.054478e-001 1.259209e-003 -6.536106e-002 3.404875e-002 -1.865418e-002 6.115689e-002
<VARIANCE> 39
 1.064791e+001 2.443310e+001 2.002828e+001 3.257504e+001 7.113777e+001 6.091012e+001 5.434093e+001 7.296749e+001 5.751904e+001 6.143608e+001 7.303900e+001 6.201535e+001 3.742768e+001 7.043388e-001 1.193242e+000 1.214961e+000 1.374291e+000 2.985332e+000 2.796550e+000 3.656323e+000 4.166029e+000 3.364264e+000 3.625012e+000 3.007853e+000 2.935744e+000 3.188739e-001 6.574694e-002 1.327926e-001 1.498452e-001 2.074632e-001 4.192203e-001 5.009488e-001 6.259162e-001 5.864105e-001 5.861909e-001 6.649357e-001 4.925523e-001 5.271373e-001 3.913805e-002
<GCONST> 1.130040e+002
<TRANSP> 10
 0.000000e+000 1.000000e+000 0.000000e+000 0.000000e+000 0.000000e+000 0.000000e+000 0.000000e+000 0.000000e+000 0.000000e+000 0.000000e+000
 0.000000e+000 8.856561e-001 1.143440e-001 0.000000e+000 0.000000e+000 0.000000e+000 0.000000e+000 0.000000e+000 0.000000e+000 0.000000e+000
 0.000000e+000 0.000000e+000 8.708348e-001 1.291652e-001 0.000000e+000 0.000000e+000 0.000000e+000 0.000000e+000 0.000000e+000 0.000000e+000
 0.000000e+000 0.000000e+000 0.000000e+000 8.226236e-001 1.773764e-001 0.000000e+000 0.000000e+000 0.000000e+000 0.000000e+000 0.000000e+000
 0.000000e+000 0.000000e+000 0.000000e+000 0.000000e+000 7.442603e-001 2.557397e-001 0.000000e+000 0.000000e+000 0.000000e+000 0.000000e+000
 0.000000e+000 0.000000e+000 0.000000e+000 0.000000e+000 0.000000e+000 7.976293e-001 2.023706e-001 0.000000e+000 0.000000e+000 0.000000e+000
 0.000000e+000 0.000000e+000 0.000000e+000 0.000000e+000 0.000000e+000 0.000000e+000 7.353163e-001 2.646837e-001 0.000000e+000 0.000000e+000
 0.000000e+000 0.000000e+000 0.000000e+000 0.000000e+000 0.000000e+000 0.000000e+000 0.000000e+000 8.807448e-001 1.192552e-001 0.000000e+000
 0.000000e+000 0.000000e+000 0.000000e+000 0.000000e+000 0.000000e+000 0.000000e+000 0.000000e+000 0.000000e+000 9.339749e-001 6.602513e-002
 0.000000e+000 0.000000e+000 0.000000e+000 0.000000e+000 0.000000e+000 0.000000e+000 0.000000e+000 0.000000e+000 0.000000e+000 0.000000e+000
<ENDHMM>
~h "dva"
<BEGINHMM>
<NUMSTATES> 10
<STATE> 2
<MEAN> 39
 -4.143162e+000 -7.656997e-001 3.953161e+000 8.386858e+000 6.355931e-001 -1.131630e+000 -5.277722e+000 -3.102423e+000 -2.521738e+000 -2.365747e+000 -4.301270e+000 -2.248420e+000 6.494542e+001 -5.079971e-001 -8.496750e-001 -4.434404e-001 -6.142961e-001 2.786085e-001 -4.860012e-001 -2.698937e-001 -1.779698e-001 4.649087e-001 2.390008e-001 -6.452121e-002 6.102372e-001 1.307263e+000 1.424656e-001 -1.438494e-001 -9.546567e-002 -2.003249e-001 -2.370658e-001 -2.213183e-002 -2.112061e-001 -2.074090e-002 1.419728e-001 4.999201e-002 -1.439398e-002 3.191730e-002 5.350999e-002
<VARIANCE> 39
 8.499186e+001 5.960033e+001 4.857151e+001 4.944904e+001 7.824790e+001 5.591903e+001 6.218626e+001 8.201491e+001 9.258284e+001 5.086381e+001 3.559726e+001 3.460070e+001 6.491032e+001 6.504929e+000 5.120739e+000 2.855362e+000 4.975415e+000 5.878061e+000 4.312965e+000 6.417658e+000 7.776907e+000 7.409943e+000 4.298683e+000 3.841490e+000 4.776381e+000 8.335690e+000 1.780369e+000 9.827256e-001 5.218452e-001 1.065211e+000 1.230915e+000 8.861136e-001 1.373087e+000 1.428527e+000 1.049203e+000 1.025852e+000 8.754081e-001 1.152663e+000 1.747730e+000
<GCONST> 1.478261e+002
<STATE> 3
<MEAN> 39
 -2.775193e+000 -8.501158e+000 1.313793e+000 2.655649e+000 -3.525362e+000 -2.117782e+000 -1.645463e+001 -8.485827e+000 7.637584e+000 -1.437594e+000 -8.843657e+000 9.925001e-001 7.805836e+001 3.051175e+000 -6.689882e-001 3.216896e-001 8.366613e-001 -1.761096e+000 1.622482e+000 -1.710602e+000 -7.507368e-001 8.926761e-001 1.317494e+000 -1.817536e-001 -2.524431e+000 -4.346058e-001 -7.954698e-002 6.311055e-002 -9.739932e-002 1.906091e-001 7.562380e-001 5.466769e-001 1.014789e+000 -3.440821e-001 -9.230256e-001 3.092698e-001 5.364134e-001 -6.970265e-001 -1.117248e+000
<VARIANCE> 39
 3.191240e+001 2.303288e+001 2.795650e+001 2.945248e+001 2.427837e+001 4.592588e+001 6.497645e+001 3.095654e+001 1.325154e+002 5.913626e+001 4.906227e+001 5.366351e+001 1.175451e+001 1.872698e+000 1.640172e+000 1.766189e+000 2.959900e+000 5.254186e+000 2.731256e+000 6.518240e+000 3.328374e+000 4.820248e+000 6.162562e+000 4.140279e+000 3.778796e+000 2.614454e+000 9.552040e-001 4.258496e-001 3.158118e-001 6.984826e-001 8.842703e-001 7.832418e-001 8.910314e-001 5.646757e-001 7.566190e-001 7.103325e-001 4.611381e-001 1.567745e+000 7.045832e-001
<GCONST> 1.297793e+002
<STATE> 4
<MEAN> 39
 1.708534e+000 -8.074687e+000 -4.527810e-001 6.893494e+000 1.049185e+000 5.813445e+000 -1.077673e+001 -1.102213e+001 -1.351725e+000 3.878812e+000 -4.615541e+000 -6.124635e+000 6.954075e+001 5.526931e-001 4.563246e-001 -1.120190e+000 -1.015207e-001 7.804652e-001 1.111018e+000 7.178126e-001 -2.022907e-001 -1.683519e+000 6.309299e-001 1.616066e+000 -4.518154e-001 -8.549868e-001 -8.657172e-003 -2.018998e-001 -1.851934e-001 -5.316597e-001 -2.701656e-001 5.642183e-002 -3.275853e-001 2.021412e-002 3.725257e-001 -1.505102e-001 9.786042e-002 1.244537e-001 5.736631e-001
<VARIANCE> 39
 2.269219e+001 2.073371e+001 3.151611e+001 2.942515e+001 4.014508e+001 6.683258e+001 7.347054e+001 4.921512e+001 1.217115e+002 4.200062e+001 5.187835e+001 3.080084e+001 2.382097e+001 1.869952e+000 1.142268e+000 1.273995e+000 5.100798e+000 3.542615e+000 2.241529e+000 2.884673e+000 3.237790e+000 6.376968e+000 4.488192e+000 2.478011e+000 2.883198e+000 2.375239e+000 3.353807e-001 3.616192e-001 2.510640e-001 5.550627e-001 5.810227e-001 5.852048e-001 3.952004e-001 5.478543e-001 1.424361e+000 8.954188e-001 3.680849e-001 7.963918e-001 2.129046e-001
<GCONST> 1.237399e+002
<STATE> 5
<MEAN> 39
 5.098128e+000 -9.818333e+000 -6.009249e+000 3.265960e-001 -1.061064e+000 1.075235e+001 -1.336385e+001 -1.475144e+001 -2.485197e+000 6.562412e+000 3.088692e+000 -8.320461e+000 7.293418e+001 1.358422e+000 -1.545558e+000 -9.590717e-001 -3.270702e+000 -1.841653e+000 1.940999e+000 -1.442391e+000 -1.219807e-001 9.138728e-001 7.541474e-001 1.611889e+000 -2.292149e+000 2.351280e+000 -2.628677e-001 -5.594364e-002 2.320379e-001 -1.663123e-001 -9.448082e-002 -9.665350e-002 -1.102795e-001 6.213925e-001 1.334207e-001 -4.045905e-001 -5.555054e-001 -5.481283e-001 2.760293e-001
<VARIANCE> 39
 1.773535e+001 1.692006e+001 3.945989e+001 4.758161e+001 8.549555e+001 1.002403e+002 7.731046e+001 7.930318e+001 1.412624e+002 3.174161e+001 5.671710e+001 2.648208e+001 1.532873e+001 2.503165e+000 1.010188e+000 2.236869e+000 3.014627e+000 2.594594e+000 1.894826e+000 2.883845e+000 3.132977e+000 7.541339e+000 3.493658e+000 3.077962e+000 3.822628e+000 1.186504e+000 1.589369e-001 1.444562e-001 2.648256e-001 7.406743e-001 7.016853e-001 2.923719e-001 6.254674e-001 5.527869e-001 8.430189e-001 9.816996e-001 5.723062e-001 5.520993e-001 1.575237e-001
<GCONST> 1.224477e+002
<STATE> 6
<MEAN> 39
 5.902674e+000 -1.255663e+001 -9.337895e+000 -7.916650e+000 -5.481798e+000 1.375610e+001 -1.666691e+001 -1.018376e+001 -2.085251e+000 5.793159e+000 5.936031e+000 -1.719045e+001 7.961735e+001 9.737187e-002 -7.473525e-001 -3.858503e-001 -1.830509e+000 -4.468497e-001 1.064101e+000 -5.901099e-001 1.415925e+000 3.498141e-001 -1.164023e+000 -5.945863e-001 -2.376655e+000 1.677635e+000 -4.653981e-001 2.557204e-001 3.066378e-001 6.748340e-001 7.253574e-001 -3.355383e-001 5.268808e-001 8.809530e-002 -3.522702e-001 -3.860862e-001 -7.378368e-001 8.336390e-001 -5.343549e-001
<VARIANCE> 39
 9.713807e+000 1.896516e+001 3.948253e+001 3.127992e+001 3.699983e+001 1.124139e+002 5.001655e+001 3.602254e+001 1.430825e+002 5.811900e+001 9.419492e+001 3.390380e+001 4.670636e+000 1.240164e+000 5.882317e-001 7.341015e-001 1.600778e+000 2.950334e+000 1.649853e+000 2.978427e+000 2.427310e+000 2.348833e+000 2.587349e+000 2.815701e+000 2.808990e+000 4.544224e-001 2.047589e-001 1.824803e-001 1.935095e-001 4.704236e-001 4.096036e-001 2.251082e-001 2.615498e-001 3.333173e-001 8.568417e-001 4.514270e-001 5.310041e-001 6.047642e-001 4.155913e-002
<GCONST> 1.091950e+002
<STATE> 7
<MEAN> 39
 3.929159e+000 -1.318804e+001 -7.354104e+000 -1.313406e+001 -3.185068e+000 1.084965e+001 -1.404599e+001 -2.744797e+000 -8.914381e+000 -3.196957e-001 5.663811e+000 -1.696566e+001 8.223039e+001 -2.264040e-001 -2.744958e-001 4.300804e-001 -2.805383e-001 3.350188e-001 7.231760e-001 4.191176e-001 9.100519e-001 -2.583752e-001 -4.201698e-001 -1.204236e+000 6.330957e-001 1.209378e-001 -1.293319e-003 1.676658e-001 5.077049e-002 3.148761e-001 -5.793403e-003 -8.769959e-003 1.634552e-002 -9.171888e-002 -1.528377e-001 1.194029e-001 -3.693309e-002 3.163275e-001 -2.381658e-001
<VARIANCE> 39
 3.683795e+000 8.979784e+000 2.055143e+001 1.676435e+001 2.093829e+001 1.040578e+002 3.226532e+001 4.442290e+001 1.334185e+002 4.034885e+001 1.055690e+002 3.922696e+001 2.790916e+000 2.841826e-001 4.519309e-001 5.272568e-001 1.604142e+000 9.743036e-001 8.711222e-001 1.531061e+000 1.622526e+000 9.401350e-001 1.805014e+000 1.726393e+000 1.232498e+000 3.617012e-001 5.336999e-002 8.177406e-002 1.144215e-001 1.173552e-001 2.305633e-001 1.442350e-001 2.593804e-001 2.537742e-001 1.659527e-001 3.190288e-001 2.819911e-001 2.829009e-001 6.649072e-002
<GCONST> 8.866505e+001
<STATE> 8
<MEAN> 39
 5.907308e+000 -1.234332e+001 -6.989005e+000 -9.698090e+000 -3.167936e-001 2.172697e+001 -1.445123e+001 -5.191662e+000 -1.472151e+000 -2.689305e+000 -6.879165e+000 -1.306844e+001 7.844795e+001 2.053225e-001 8.545850e-001 1.503020e-001 5.010888e-001 5.530487e-001 -1.076755e-001 2.981867e-001 3.258037e-001 -3.112780e-001 -9.115754e-001 -3.576789e-002 5.845965e-001 -8.171492e-001 2.951252e-002 7.562244e-002 -5.177046e-002 1.680666e-001 8.489086e-002 -1.159536e-001 3.033252e-001 -4.765401e-002 1.102362e-001 2.117001e-002 1.398558e-002 -5.872193e-002 -1.843347e-001
<VARIANCE> 39
 7.785738e+000 1.426563e+001 2.209620e+001 2.268691e+001 4.494513e+001 3.351598e+001 2.948041e+001 5.757833e+001 8.472807e+001 7.015203e+001 6.747617e+001 4.539592e+001 1.072668e+001 3.947670e-001 4.912404e-001 9.990454e-001 1.600733e+000 2.147745e+000 1.390698e+000 2.893130e+000 1.876838e+000 1.967460e+000 2.398531e+000 3.343215e+000 1.614994e+000 4.613022e-001 5.558997e-002 1.084997e-001 1.970751e-001 3.350148e-001 4.759693e-001 2.152840e-001 6.563114e-001 3.712670e-001 3.082335e-001 4.363065e-001 6.360331e-001 3.508216e-001 8.858046e-002
<GCONST> 1.030797e+002
<STATE> 9
<MEAN> 39
 3.577492e+000 -6.752007e+000 -8.548937e+000 -1.648830e+000 5.077453e+000 1.159398e+001 2.114101e+000 -1.495979e+000 -5.807621e+000 -6.391521e+000 -8.127357e+000 -7.672047e+000 6.391592e+001 -5.627556e-001 -3.543824e-002 -3.075097e-001 6.964817e-001 2.704029e-002 -9.913938e-001 1.423701e+000 -1.036059e-001 5.375376e-002 7.089064e-002 -3.924603e-001 2.603768e-001 -1.408317e+000 -6.841765e-002 -8.639675e-002 5.268765e-002 -1.132524e-001 -1.313385e-001 -3.729363e-002 -2.416960e-001 -6.406625e-002 1.070945e-002 4.915000e-002 1.360010e-001 -7.442050e-004 9.515588e-002
<VARIANCE> 39
 1.808157e+001 2.051547e+001 1.919366e+001 4.530531e+001 4.732283e+001 6.610329e+001 6.581393e+001 4.179983e+001 8.706962e+001 4.390036e+001 8.466342e+001 4.575196e+001 4.009243e+001 6.467877e-001 9.449900e-001 1.435220e+000 2.141475e+000 3.799700e+000 2.208461e+000 4.751760e+000 4.001009e+000 3.215613e+000 3.388350e+000 4.290846e+000 2.478335e+000 5.308555e-001 1.021117e-001 1.975392e-001 2.855971e-001 3.972740e-001 6.424696e-001 4.295503e-001 7.676251e-001 7.285236e-001 6.002686e-001 5.985640e-001 6.393800e-001 4.678537e-001 4.046785e-002
<GCONST> 1.169667e+002
<TRANSP> 10
 0.000000e+000 1.000000e+000 0.000000e+000 0.000000e+000 0.000000e+000 0.000000e+000 0.000000e+000 0.000000e+000 0.000000e+000 0.000000e+000
 0.000000e+000 8.905405e-001 1.094595e-001 0.000000e+000 0.000000e+000 0.000000e+000 0.000000e+000 0.000000e+000 0.000000e+000 0.000000e+000
 0.000000e+000 0.000000e+000 6.745440e-001 3.254560e-001 0.000000e+000 0.000000e+000 0.000000e+000 0.000000e+000 0.000000e+000 0.000000e+000
 0.000000e+000 0.000000e+000 0.000000e+000 7.810793e-001 2.189207e-001 0.000000e+000 0.000000e+000 0.000000e+000 0.000000e+000 0.000000e+000
 0.000000e+000 0.000000e+000 0.000000e+000 0.000000e+000 6.212794e-001 3.787206e-001 0.000000e+000 0.000000e+000 0.000000e+000 0.000000e+000
 0.000000e+000 0.000000e+000 0.000000e+000 0.000000e+000 0.000000e+000 5.935911e-001 4.064089e-001 0.000000e+000 0.000000e+000 0.000000e+000
 0.000000e+000 0.000000e+000 0.000000e+000 0.000000e+000 0.000000e+000 0.000000e+000 8.257542e-001 1.742459e-001 0.000000e+000 0.000000e+000
 0.000000e+000 0.000000e+000 0.000000e+000 0.000000e+000 0.000000e+000 0.000000e+000 0.000000e+000 8.775576e-001 1.224423e-001 0.000000e+000
 0.000000e+000 0.000000e+000 0.000000e+000 0.000000e+000 0.000000e+000 0.000000e+000 0.000000e+000 0.000000e+000 9.194838e-001 8.051619e-002
 0.000000e+000 0.000000e+000 0.000000e+000 0.000000e+000 0.000000e+000 0.000000e+000 0.000000e+000 0.000000e+000 0.000000e+000 0.000000e+000
<ENDHMM>
~h "rovnase"
<BEGINHMM>
<NUMSTATES> 10
<STATE> 2
<MEAN> 39
 -1.305328e+000 -1.663424e+001 -6.481727e+000 3.231071e+000 -1.982637e+000 6.560712e+000 -1.782948e+001 -9.123599e+000 -1.102056e+000 3.669093e+000 -3.346095e-002 6.587488e-001 7.318323e+001 7.117548e-001 6.572585e-002 -3.784891e-001 -6.023238e-001 -6.831102e-001 -1.401774e-001 -1.617360e-001 -7.570994e-001 -6.742711e-001 3.702857e-001 4.495483e-001 7.298805e-001 3.381158e-001 -1.208439e-001 2.788014e-001 2.199024e-002 9.033234e-002 5.442931e-002 -1.753706e-001 3.867013e-001 2.740723e-002 -2.970817e-002 3.479709e-002 -9.705483e-002 3.927902e-002 -2.362134e-001
<VARIANCE> 39
 4.209275e+001 2.718865e+001 3.626455e+001 9.016814e+001 1.176878e+002 1.027071e+002 1.083226e+002 8.597346e+001 1.223303e+002 7.520182e+001 8.381964e+001 6.789635e+001 1.814708e+001 3.118448e+000 4.200497e+000 2.116967e+000 8.458181e+000 6.312717e+000 8.020828e+000 8.364886e+000 5.579934e+000 6.484923e+000 5.721271e+000 5.918633e+000 3.568383e+000 1.457310e+000 6.344796e-001 4.154076e-001 4.228517e-001 1.595783e+000 1.306361e+000 1.703801e+000 1.740306e+000 1.362599e+000 1.356557e+000 9.345008e-001 1.167859e+000 7.542915e-001 3.643655e-001
<GCONST> 1.453270e+002
<STATE> 3
<MEAN> 39
 1.414031e+000 -3.780340e+000 -2.910514e+000 3.336398e+000 -1.854279e+000 -6.297150e-001 -1.230244e+001 -1.261133e+001 -3.750680e+000 3.736997e+000 -3.853172e+000 2.187119e+000 7.189534e+001 5.907317e-002 2.926353e-001 9.921516e-001 8.589406e-001 3.247640e-001 -8.389267e-002 -4.140496e-001 -3.573786e-001 7.805145e-001 -3.697177e-001 -1.055747e+000 -3.876945e-001 8.151640e-002 1.034869e-002 -3.942769e-001 1.619764e-002 -2.209999e-001 -1.026853e-001 3.944387e-001 -4.495546e-001 3.386118e-001 4.816317e-002 -8.715539e-002 3.176795e-002 -7.800448e-002 2.327218e-001
<VARIANCE> 39
 3.641813e+001 2.266561e+001 3.661502e+001 4.456676e+001 5.523009e+001 5.755146e+001 6.106193e+001 5.752283e+001 6.722990e+001 6.820644e+001 7.321841e+001 3.447102e+001 1.040703e+001 4.662737e+000 3.033830e+000 2.953688e+000 4.091429e+000 4.540785e+000 6.186162e+000 1.044426e+001 1.089043e+001 5.401814e+000 5.472786e+000 6.284168e+000 3.648636e+000 1.254241e+000 7.816603e-001 3.434542e-001 4.841779e-001 8.633693e-001 7.735993e-001 7.883828e-001 1.256246e+000 2.776516e+000 1.262603e+000 1.127054e+000 1.263279e+000 6.810728e-001 1.923897e-001
<GCONST> 1.377035e+002
<STATE> 4
<MEAN> 39
 4.568373e+000 -1.105956e+001 4.720857e+000 -3.523225e-001 -2.486922e+000 1.026877e+001 -2.783064e+001 -4.689020e+000 4.846906e+000 -2.114933e+000 -1.055503e+001 -3.003177e+000 8.000749e+001 -6.571078e-001 -1.421696e+000 -1.235421e+000 -2.970891e+000 6.492652e-001 1.860446e+000 -1.872738e+000 6.070093e+000 9.148972e-001 -2.056463e+000 3.862461e-001 -1.005545e+000 2.292797e+000 -1.369595e-001 4.665528e-001 -5.318340e-001 3.633681e-001 3.044158e-001 -5.608309e-001 7.344072e-001 -3.737005e-001 -4.566575e-001 -1.291403e-001 4.841113e-001 3.629300e-003 -3.542067e-001
<VARIANCE> 39
 1.056454e+001 2.128133e+001 4.396845e+001 7.158067e+001 1.491380e+001 8.205996e+001 3.031637e+001 1.888858e+002 8.964359e+001 3.116101e+001 6.340918e+001 3.154919e+001 1.581720e+001 7.745695e-001 2.509747e+000 1.945019e+000 4.231910e+000 2.556813e+000 2.412112e+000 3.664114e+000 7.395381e+000 7.511817e+000 2.136038e+000 3.540088e+000 3.274440e+000 1.113354e+000 1.885686e-001 3.884875e-001 5.151076e-001 1.207161e+000 4.147803e-001 5.344697e-001 7.262516e-001 5.265892e+000 5.553530e-001 5.602051e-001 6.452990e-001 4.796198e-001 2.776459e-001
<GCONST> 1.255553e+002
<STATE> 5
<MEAN> 39
 1.525616e+000 -1.109598e+001 -2.635893e+000 -6.107600e+000 -3.442855e+000 6.332675e+000 -2.413152e+001 9.660649e+000 -9.761694e+000 -8.617506e+000 1.338931e+000 -7.999382e+000 8.434473e+001 -3.609828e-002 1.650864e-001 -2.500883e-001 9.484174e-003 2.387715e-001 5.142897e-001 5.899850e-001 -1.301443e-001 -3.489223e-001 -1.738406e-001 1.781787e-001 -2.644301e-001 -6.859391e-002 6.103389e-002 1.667719e-001 1.622872e-001 2.592222e-001 2.121220e-002 -2.261311e-001 2.752533e-001 -5.844263e-001 1.498424e-001 2.968343e-001 -1.844810e-001 8.931234e-002 -2.733341e-001
<VARIANCE> 39
 7.760808e+000 8.357411e+000 1.329877e+001 1.421762e+001 1.338759e+001 6.942265e+001 3.111029e+001 1.921046e+001 1.624672e+002 1.417584e+001 5.798434e+001 1.885349e+001 4.623494e+000 2.905945e-001 7.747265e-001 1.344930e+000 8.093361e-001 5.283996e-001 2.005209e+000 1.114216e+000 1.152709e+000 1.306915e+000 2.066974e+000 1.977898e+000 1.644615e+000 2.995038e-001 6.950613e-002 1.274301e-001 1.364948e-001 2.144592e-001 1.664371e-001 1.946500e-001 2.567776e-001 7.317711e-001 2.132658e-001 2.663191e-001 1.383346e-001 3.076565e-001 9.954902e-002
<GCONST> 8.876728e+001
<STATE> 6
<MEAN> 39
 3.322421e+000 -9.476434e+000 -4.399463e+000 -5.055820e+000 5.071426e+000 1.423485e+001 -2.273264e+001 3.422942e-001 6.484903e+000 -7.955995e+000 -7.310623e+000 -6.929606e+000 8.197168e+001 -1.723523e-002 5.328202e-001 -3.436110e-001 -6.045797e-002 8.253525e-001 -6.560661e-001 1.230763e+000 -1.976961e-001 -8.571382e-001 5.641335e-001 -2.070173e-001 -1.656738e-002 -3.682230e-001 -4.737112e-002 6.591007e-002 7.831097e-002 2.061456e-002 5.632066e-002 -2.137494e-001 2.715904e-001 4.071014e-002 -1.170065e-001 1.831853e-001 -2.229527e-001 1.396568e-001 -8.272087e-002
<VARIANCE> 39
 8.676097e+000 1.028193e+001 2.090244e+001 1.605897e+001 2.662794e+001 2.566680e+001 6.297915e+001 3.923810e+001 8.948048e+001 2.729037e+001 3.608918e+001 3.351842e+001 3.985759e+000 3.376296e-001 6.066715e-001 1.204081e+000 1.065249e+000 1.245641e+000 1.953927e+000 2.931420e+000 2.426442e+000 2.216794e+000 2.723492e+000 3.403965e+000 1.420671e+000 2.575143e-001 6.705035e-002 1.237532e-001 2.359965e-001 2.076529e-001 2.198920e-001 3.959925e-001 6.083335e-001 5.219710e-001 4.310855e-001 4.632706e-001 4.287330e-001 2.656931e-001 2.877672e-002
<GCONST> 9.741021e+001
<STATE> 7
<MEAN> 39
 -8.152512e-002 -2.498132e+000 -6.714809e+000 -3.173724e+000 1.026482e+001 9.681718e-001 -5.484264e+000 2.517997e+000 -4.705570e+000 -2.230107e+000 -1.072592e+001 -5.265042e+000 7.788586e+001 -2.530554e+000 2.164789e+000 -1.602604e+000 1.470644e+000 8.759643e-001 -3.362362e+000 4.777105e+000 -1.217212e+000 -5.044609e-001 -3.834778e-001 -4.806213e-001 -2.385814e-001 -6.357343e-001 -8.977984e-001 2.274213e-001 -4.388216e-001 5.941387e-002 -4.905309e-001 -1.313623e-001 -9.525727e-002 -2.628523e-001 -6.495158e-002 -5.589841e-001 1.817045e-001 -3.570080e-001 3.070377e-001
<VARIANCE> 39
 1.625548e+001 1.451438e+001 2.089028e+001 2.364124e+001 4.472226e+001 5.815140e+001 8.294946e+001 4.418865e+001 8.592955e+001 3.260326e+001 4.588051e+001 4.128630e+001 4.304041e+000 4.080136e+000 1.033841e+000 1.930564e+000 1.831358e+000 3.972195e+000 3.812261e+000 2.881733e+000 6.740090e+000 3.093665e+000 3.385818e+000 4.559175e+000 3.498400e+000 8.203687e-001 2.536550e-001 1.901481e-001 3.016585e-001 4.139766e-001 5.031629e-001 7.358862e-001 1.232169e+000 9.266462e-001 5.011444e-001 5.284246e-001 9.350328e-001 5.571898e-001 8.928636e-002
<GCONST> 1.192943e+002
<STATE> 8
<MEAN> 39
 -2.186857e+001 4.949583e+000 -1.181584e+001 3.225357e+000 5.874525e+000 -1.275083e+001 3.823903e+000 -6.230209e+000 -7.557991e+000 -5.884426e+000 -1.054127e+001 -4.976275e+000 7.702640e+001 -8.966227e-001 -4.934497e-001 2.584743e-001 4.918970e-001 -3.269006e-001 -4.731545e-001 -4.485709e-001 -3.624503e-001 4.252506e-001 2.315808e-002 8.822899e-002 6.731914e-001 -2.683831e-001 6.340730e-001 -2.459294e-001 2.390677e-001 -1.043895e-001 -3.013737e-002 2.228233e-001 -3.656366e-001 1.677179e-001 2.051526e-001 2.513923e-001 5.212199e-002 8.799075e-002 -5.855662e-002
<VARIANCE> 39
 2.431991e+001 3.099910e+001 3.171602e+001 3.801207e+001 3.617323e+001 5.234024e+001 4.661778e+001 5.448010e+001 8.314453e+001 2.826347e+001 4.828780e+001 6.281504e+001 7.456417e+000 4.303911e+000 3.287561e+000 1.906767e+000 1.809355e+000 2.457003e+000 2.382728e+000 3.903216e+000 4.620345e+000 5.455204e+000 3.312741e+000 3.387058e+000 3.217533e+000 3.927157e-001 3.195595e-001 4.169012e-001 2.962939e-001 3.849261e-001 5.109955e-001 4.852884e-001 1.009452e+000 9.060636e-001 1.103957e+000 6.513408e-001 6.765686e-001 5.200912e-001 6.863487e-002
<GCONST> 1.217437e+002
<STATE> 9
<MEAN> 39
 4.053496e-001 -6.841640e+000 4.595693e-001 -2.258869e+000 -1.190209e+000 -4.048513e+000 -1.252341e+001 4.427001e+000 3.250653e-001 2.714944e-001 -8.939000e+000 -1.650677e+000 7.592778e+001 1.294676e+000 -3.677968e-001 4.935892e-001 -3.573814e-001 -4.141311e-001 7.281512e-001 -1.526329e-001 4.654707e-001 1.060125e-001 -7.258862e-002 2.540190e-001 -1.864420e-001 -4.399914e-001 -2.239420e-001 3.513332e-002 -8.318786e-002 6.665462e-002 6.292786e-002 8.567477e-003 1.740580e-001 -9.042391e-002 -1.465417e-001 -1.321833e-001 5.371274e-002 -3.119843e-002 -4.897420e-002
<VARIANCE> 39
 5.988145e+001 2.739930e+001 3.553338e+001 4.795344e+001 5.182199e+001 4.893178e+001 7.985273e+001 1.116870e+002 1.681490e+002 1.019899e+002 4.786828e+001 4.997445e+001 2.957677e+001 6.203032e+000 1.407698e+000 2.192278e+000 3.909700e+000 3.233020e+000 2.910655e+000 7.517013e+000 5.136671e+000 3.676581e+000 6.624647e+000 3.263149e+000 3.364074e+000 2.104425e+000 6.456658e-001 3.032475e-001 2.947729e-001 5.620353e-001 4.929449e-001 4.420463e-001 8.949312e-001 7.148110e-001 4.843097e-001 8.751521e-001 4.795493e-001 6.530233e-001 2.711404e-001
<GCONST> 1.321916e+002
<TRANSP> 10
 0.000000e+000 1.000000e+000 0.000000e+000 0.000000e+000 0.000000e+000 0.000000e+000 0.000000e+000 0.000000e+000 0.000000e+000 0.000000e+000
 0.000000e+000 9.190845e-001 8.091546e-002 0.000000e+000 0.000000e+000 0.000000e+000 0.000000e+000 0.000000e+000 0.000000e+000 0.000000e+000
 0.000000e+000 0.000000e+000 9.124742e-001 8.752586e-002 0.000000e+000 0.000000e+000 0.000000e+000 0.000000e+000 0.000000e+000 0.000000e+000
 0.000000e+000 0.000000e+000 0.000000e+000 7.313864e-001 2.686136e-001 0.000000e+000 0.000000e+000 0.000000e+000 0.000000e+000 0.000000e+000
 0.000000e+000 0.000000e+000 0.000000e+000 0.000000e+000 8.151715e-001 1.848285e-001 0.000000e+000 0.000000e+000 0.000000e+000 0.000000e+000
 0.000000e+000 0.000000e+000 0.000000e+000 0.000000e+000 0.000000e+000 8.715695e-001 1.284305e-001 0.000000e+000 0.000000e+000 0.000000e+000
 0.000000e+000 0.000000e+000 0.000000e+000 0.000000e+000 0.000000e+000 0.000000e+000 7.563244e-001 2.436756e-001 0.000000e+000 0.000000e+000
 0.000000e+000 0.000000e+000 0.000000e+000 0.000000e+000 0.000000e+000 0.000000e+000 0.000000e+000 9.182949e-001 8.170505e-002 0.000000e+000
 0.000000e+000 0.000000e+000 0.000000e+000 0.000000e+000 0.000000e+000 0.000000e+000 0.000000e+000 0.000000e+000 9.409401e-001 5.905985e-002
 0.000000e+000 0.000000e+000 0.000000e+000 0.000000e+000 0.000000e+000 0.000000e+000 0.000000e+000 0.000000e+000 0.000000e+000 0.000000e+000
<ENDHMM>
~h "osm"
<BEGINHMM>
<NUMSTATES> 10
<STATE> 2
<MEAN> 39
 -4.026450e+000 -5.858820e+000 -1.303222e+000 -3.999280e+000 -1.155340e+000 8.125375e+000 -9.091807e+000 -3.338247e+000 -5.625798e+000 -1.986434e-001 -2.634218e+000 7.408511e+000 7.101966e+001 1.591008e+000 6.850337e-001 1.007773e-001 -3.091442e+000 2.278225e-002 1.743594e+000 -1.645785e+000 1.241292e+000 -7.089540e-001 6.599958e-001 -3.224905e-001 1.450491e+000 3.916628e+000 -5.485783e-001 -2.608477e-001 -1.332501e-001 -2.280838e-002 3.830760e-001 -8.482156e-002 3.964770e-001 3.034237e-001 1.613935e-001 9.449291e-002 1.001064e-001 -2.963129e-001 -7.582343e-001
<VARIANCE> 39
 4.929369e+001 2.469506e+001 1.633875e+001 1.602817e+002 6.859455e+001 8.189770e+001 8.499490e+001 4.557404e+001 9.829491e+001 3.179970e+001 7.934148e+001 5.310635e+001 8.934697e+001 5.420652e+000 3.215755e+000 1.546749e+000 1.227695e+001 5.480762e+000 9.096310e+000 6.489862e+000 4.417918e+000 9.294527e+000 4.165384e+000 5.552803e+000 6.147599e+000 5.341504e+000 1.367615e+000 6.627903e-001 4.681601e-001 3.283964e+000 8.915345e-001 1.565598e+000 1.555036e+000 1.064363e+000 1.637732e+000 8.411922e-001 9.409175e-001 1.063638e+000 2.034619e+000
<GCONST> 1.485637e+002
<STATE> 3
<MEAN> 39
 -5.178899e+000 -5.440521e+000 -2.579657e+000 -9.485929e+000 4.008463e+000 1.044021e+001 -8.631780e+000 2.774871e-001 -7.239500e+000 7.903202e-001 -1.231307e+000 5.879961e+000 7.878275e+001 -2.503595e+000 3.100754e-001 -7.490624e-001 1.807246e+000 5.681939e-001 -1.151582e+000 9.529142e-001 -2.852499e-001 8.520019e-001 -4.207142e-001 -7.575724e-002 -1.338995e+000 2.691963e-002 -5.164496e-001 1.618730e-001 -1.135029e-001 3.129672e-001 -2.010677e-001 -2.853667e-001 3.204743e-002 -1.030677e-001 1.461057e-001 -8.956786e-002 -1.296890e-001 -6.899448e-002 -2.073832e-001
<VARIANCE> 39
 8.045732e+001 4.074382e+001 2.413227e+001 8.002166e+001 7.320349e+001 1.206819e+002 6.214104e+001 4.701434e+001 1.065583e+002 3.411830e+001 4.086542e+001 6.434757e+001 1.123729e+001 4.402623e+000 1.941104e+000 1.640565e+000 5.232350e+000 4.822938e+000 5.973154e+000 3.401994e+000 3.452650e+000 6.330980e+000 3.210551e+000 2.431492e+000 3.223502e+000 9.811999e-001 5.473229e-001 3.729263e-001 2.917744e-001 1.249229e+000 6.605210e-001 1.409391e+000 6.166402e-001 6.984386e-001 1.415766e+000 6.929034e-001 3.611155e-001 7.834396e-001 4.925423e-001
<GCONST> 1.325658e+002
<STATE> 4
<MEAN> 39
 -2.499291e+001 -8.653653e-001 -5.879292e+000 -7.052642e-001 5.512376e+000 3.344890e+000 -5.590370e+000 1.106356e+000 -9.311631e-001 4.684046e-001 -2.770076e+000 2.380121e+000 7.868922e+001 -7.833713e-001 -2.497883e-001 2.865679e-001 2.385342e-001 2.490200e-001 -1.600150e-001 -4.013336e-001 1.086410e-001 2.581575e-001 4.057545e-001 1.240822e-002 3.643175e-001 -2.686132e-001 4.186972e-001 -2.697319e-001 1.949207e-001 -7.010016e-003 -5.830248e-002 6.269716e-002 -1.839184e-001 -1.039448e-001 -2.189526e-002 2.433226e-002 1.044760e-001 3.468177e-002 -8.412738e-002
<VARIANCE> 39
 2.625229e+001 2.863819e+001 2.030837e+001 4.769748e+001 6.013058e+001 1.518142e+002 3.741031e+001 6.486908e+001 1.100160e+002 4.273932e+001 7.015841e+001 2.629614e+001 1.483790e+001 1.181251e+000 1.607760e+000 1.253804e+000 1.863138e+000 2.154285e+000 1.780562e+000 2.157882e+000 2.954464e+000 3.287428e+000 2.624053e+000 2.386104e+000 1.726367e+000 2.253641e-001 1.882008e-001 1.328805e-001 2.839836e-001 5.072500e-001 5.139133e-001 3.814713e-001 3.826351e-001 6.110606e-001 7.926746e-001 5.514445e-001 5.702356e-001 3.183182e-001 6.739923e-002
<GCONST> 1.135895e+002
<STATE> 5
<MEAN> 39
 -2.250375e+001 -9.999392e+000 -4.515633e-001 4.324386e+000 5.001500e+000 2.041922e+000 -1.111744e+001 -1.589045e+000 3.285690e+000 3.017598e+000 -1.229386e+000 4.476890e+000 7.434103e+001 3.155462e+000 -1.090533e+000 1.296903e+000 1.305786e+000 -3.396770e-001 -3.820742e-001 -1.160488e+000 -2.030409e+000 3.593874e-002 1.020503e-001 6.193175e-001 -1.618726e-001 -9.907031e-001 1.011038e+000 6.504789e-001 -2.192106e-002 -4.302738e-002 -6.722592e-002 -2.055316e-001 -3.943380e-002 -6.950462e-001 -4.813313e-001 6.589352e-002 1.307301e-001 6.056278e-002 7.620183e-002
<VARIANCE> 39
 2.590962e+001 3.301358e+001 2.757536e+001 5.570652e+001 7.263763e+001 1.837065e+002 2.857215e+001 5.715932e+001 1.087905e+002 4.492618e+001 6.451425e+001 1.804081e+001 1.863564e+001 3.627330e+000 3.300284e+000 1.956225e+000 3.627280e+000 3.661315e+000 2.320264e+000 3.388381e+000 5.589373e+000 5.665068e+000 2.077418e+000 4.155336e+000 1.573397e+000 4.981292e-001 3.174457e-001 4.006373e-001 3.945474e-001 7.359285e-001 6.780995e-001 4.766835e-001 3.719835e-001 7.732189e-001 1.040811e+000 6.489820e-001 6.737263e-001 4.565437e-001 2.003416e-001
<GCONST> 1.254575e+002
<STATE> 6
<MEAN> 39
 -4.587426e+000 -5.475576e+000 4.696867e+000 6.202829e+000 5.035429e+000 7.963291e-001 -1.868708e+001 -1.449436e+001 -1.754118e+000 4.385604e+000 6.556603e-001 4.234855e+000 7.391589e+001 4.404388e+000 3.000888e-001 3.460092e-001 8.273907e-002 -8.416696e-001 -2.779476e-003 -7.916627e-001 -3.171937e+000 -1.526133e+000 7.058896e-001 1.027731e+000 8.164994e-001 4.737624e-001 -7.173802e-001 -3.345161e-001 -5.193436e-001 -2.126251e-001 -4.131687e-001 1.737705e-001 9.677017e-001 6.557904e-001 1.774907e-001 -2.746392e-001 -2.030251e-001 1.064130e-001 1.754149e-001
<VARIANCE> 39
 6.619341e+001 4.985091e+001 3.400345e+001 6.628882e+001 3.406252e+001 1.430353e+002 9.819879e+001 7.760869e+001 7.872874e+001 2.694830e+001 4.950194e+001 3.235854e+001 1.764224e+001 3.951508e+000 3.085021e+000 2.415748e+000 7.723679e+000 5.607066e+000 8.765228e+000 7.786395e+000 1.221744e+001 5.277234e+000 6.038393e+000 3.790440e+000 3.801976e+000 4.788663e-001 5.295484e-001 4.358506e-001 2.473382e-001 8.127984e-001 9.046678e-001 1.077453e+000 7.591837e-001 1.254098e+000 7.270468e-001 7.649242e-001 7.718943e-001 6.833729e-001 1.610360e-001
<GCONST> 1.359110e+002
<STATE> 7
<MEAN> 39
 1.822295e+000 -1.106857e+001 2.022943e+000 8.593130e+000 -2.418786e+000 -2.202400e+000 -1.115264e+001 -1.902533e+001 -5.674230e+000 1.111620e+000 2.236666e+000 6.939982e+000 7.420253e+001 2.015752e+000 2.713084e-001 3.794099e-001 1.136464e-001 -2.283967e+000 -8.108916e-001 1.281035e+000 -1.827944e-001 -7.210472e-001 -9.463131e-001 -5.460477e-001 1.851985e-001 1.576977e-001 -4.518779e-001 1.601553e-001 2.210469e-001 2.290659e-002 6.118331e-002 1.516913e-003 -6.732851e-002 6.841386e-001 1.051355e-001 -1.496602e-001 -2.637670e-001 -3.532735e-001 -1.315784e-001
<VARIANCE> 39
 5.194016e+001 5.693285e+001 3.693755e+001 6.371857e+001 4.400506e+001 1.374390e+002 1.345559e+002 1.019212e+002 8.003629e+001 6.883304e+001 4.308358e+001 3.557167e+001 1.302796e+001 8.853839e-001 2.387582e+000 2.156228e+000 3.813903e+000 2.310905e+000 5.095421e+000 4.792084e+000 4.498084e+000 5.434179e+000 3.849837e+000 3.864838e+000 3.211544e+000 6.127998e-001 2.500602e-001 3.358412e-001 3.429064e-001 5.053134e-001 8.543087e-001 1.114673e+000 9.314533e-001 1.381619e+000 8.632283e-001 1.244074e+000 8.767298e-001 5.736686e-001 5.717734e-002
<GCONST> 1.301401e+002
<STATE> 8
<MEAN> 39
 7.694798e+000 -8.483783e+000 7.773707e+000 1.334358e+001 -1.252111e+001 -8.587257e+000 -1.265208e+001 -1.465012e+001 -3.250038e-001 -5.162342e+000 5.100619e+000 4.364409e+000 7.605572e+001 8.672057e-002 3.634887e-001 3.022880e-001 1.897840e-001 -3.171724e-001 2.449323e-001 8.282805e-002 4.322796e-001 6.490600e-002 -6.042973e-001 -6.695796e-002 -5.920890e-001 -2.137599e-001 -1.158154e-001 3.492497e-002 -6.511702e-002 -3.356929e-003 2.698072e-001 4.510721e-002 -1.733181e-003 -7.811586e-002 -7.707195e-002 6.455953e-002 -5.660012e-002 2.683312e-002 -7.494831e-002
<VARIANCE> 39
 1.191961e+001 1.737759e+001 3.302797e+001 4.964486e+001 5.822870e+001 1.196576e+002 6.009514e+001 4.753877e+001 4.190624e+001 1.181224e+002 7.925345e+001 3.624950e+001 7.281981e+000 3.375359e-001 7.070905e-001 1.436730e+000 1.315621e+000 2.312224e+000 1.608176e+000 3.500991e+000 3.287128e+000 2.730798e+000 3.103879e+000 1.991321e+000 2.204710e+000 3.210127e-001 6.991308e-002 1.355724e-001 3.145308e-001 2.565788e-001 3.610921e-001 4.384043e-001 7.693204e-001 5.176892e-001 3.557657e-001 5.378550e-001 3.364763e-001 4.700608e-001 2.741564e-002
<GCONST> 1.080817e+002
<STATE> 9
<MEAN> 39
 3.345436e+000 -6.169226e+000 5.426417e+000 1.086067e+001 8.510490e-001 5.691170e+000 -5.296308e+000 -1.375766e+001 -8.911292e+000 -3.606514e+000 -4.800792e+000 -2.231798e+000 6.756536e+001 -4.804335e-001 -3.446881e-001 -3.160369e-001 -5.511657e-002 4.534059e-001 3.186201e-001 4.864323e-001 1.706651e-001 -1.486059e-001 -5.538988e-002 -2.262597e-001 -2.587255e-001 -4.053744e-001 -2.888753e-002 -4.445548e-002 -1.917315e-002 -4.059816e-002 -5.178746e-002 -9.147714e-003 -7.054777e-003 3.351806e-002 1.249605e-001 5.007635e-002 5.034953e-002 2.100741e-002 3.101964e-002
<VARIANCE> 39
 3.072269e+001 4.203316e+001 4.060544e+001 3.819069e+001 5.707716e+001 7.957364e+001 6.888635e+001 3.761563e+001 5.940016e+001 4.981331e+001 5.858791e+001 5.059562e+001 4.063201e+001 3.773042e-001 9.095943e-001 1.581006e+000 2.447567e+000 2.594886e+000 3.652333e+000 3.738032e+000 2.899853e+000 4.899962e+000 4.267842e+000 3.765792e+000 3.002942e+000 4.827855e-001 6.295323e-002 1.460786e-001 2.378540e-001 3.831874e-001 4.497936e-001 6.254994e-001 6.688811e-001 5.287163e-001 8.691013e-001 7.111621e-001 7.161756e-001 5.188224e-001 5.816152e-002
<GCONST> 1.181056e+002
<TRANSP> 10
 0.000000e+000 1.000000e+000 0.000000e+000 0.000000e+000 0.000000e+000 0.000000e+000 0.000000e+000 0.000000e+000 0.000000e+000 0.000000e+000
 0.000000e+000 7.640098e-001 2.359902e-001 0.000000e+000 0.000000e+000 0.000000e+000 0.000000e+000 0.000000e+000 0.000000e+000 0.000000e+000
 0.000000e+000 0.000000e+000 8.362471e-001 1.637529e-001 0.000000e+000 0.000000e+000 0.000000e+000 0.000000e+000 0.000000e+000 0.000000e+000
 0.000000e+000 0.000000e+000 0.000000e+000 9.004864e-001 9.951369e-002 0.000000e+000 0.000000e+000 0.000000e+000 0.000000e+000 0.000000e+000
 0.000000e+000 0.000000e+000 0.000000e+000 0.000000e+000 7.378368e-001 2.621632e-001 0.000000e+000 0.000000e+000 0.000000e+000 0.000000e+000
 0.000000e+000 0.000000e+000 0.000000e+000 0.000000e+000 0.000000e+000 6.418567e-001 3.581433e-001 0.000000e+000 0.000000e+000 0.000000e+000
 0.000000e+000 0.000000e+000 0.000000e+000 0.000000e+000 0.000000e+000 0.000000e+000 7.214398e-001 2.785602e-001 0.000000e+000 0.000000e+000
 0.000000e+000 0.000000e+000 0.000000e+000 0.000000e+000 0.000000e+000 0.000000e+000 0.000000e+000 8.808025e-001 1.191975e-001 0.000000e+000
 0.000000e+000 0.000000e+000 0.000000e+000 0.000000e+000 0.000000e+000 0.000000e+000 0.000000e+000 0.000000e+000 9.550074e-001 4.499260e-002
 0.000000e+000 0.000000e+000 0.000000e+000 0.000000e+000 0.000000e+000 0.000000e+000 0.000000e+000 0.000000e+000 0.000000e+000 0.000000e+000
<ENDHMM>
~h "nadruhou"
<BEGINHMM>
<NUMSTATES> 10
<STATE> 2
<MEAN> 39
 1.695939e+000 -4.372708e+000 4.476812e+000 1.113360e+000 -4.039701e+000 -2.713408e-001 -1.772201e+001 -1.286193e+001 -5.167406e+000 -3.143706e+000 -5.501390e+000 -3.767566e+000 7.060920e+001 4.232539e-001 -5.514531e-001 -3.227879e-001 -1.644177e+000 4.414530e-001 9.289242e-002 -1.078040e+000 5.295068e-001 3.817613e-001 -1.722885e-001 -5.757560e-001 -4.778776e-001 1.609743e+000 -3.391950e-001 -3.493512e-001 -5.378707e-001 -2.775042e-001 2.945605e-001 2.502605e-002 3.975175e-001 5.124342e-001 2.667906e-001 3.231749e-002 -1.298232e-001 -5.808081e-002 -1.528376e-001
<VARIANCE> 39
 2.158302e+001 6.665836e+001 5.705608e+001 1.022161e+002 5.335138e+001 9.571363e+001 1.003778e+002 6.473094e+001 5.761742e+001 4.178605e+001 5.768097e+001 3.342618e+001 4.092989e+001 3.423288e+000 4.220823e+000 4.943614e+000 5.546515e+000 5.716341e+000 4.589995e+000 7.031111e+000 1.007660e+001 3.918758e+000 4.572680e+000 4.701662e+000 2.804470e+000 2.810847e+000 4.803244e-001 6.627330e-001 5.324575e-001 1.030952e+000 6.340067e-001 8.659414e-001 7.434877e-001 1.167718e+000 7.587798e-001 8.088184e-001 8.607878e-001 5.831054e-001 5.109347e-001
<GCONST> 1.396735e+002
<STATE> 3
<MEAN> 39
 2.337223e+000 -7.671159e+000 -5.008814e+000 -7.347407e+000 3.436141e+000 -6.749021e-001 -1.245111e+001 -5.557022e+000 1.002972e+000 -4.762861e+000 -1.229444e+001 -6.036952e+000 7.525401e+001 -3.543465e-001 3.903508e-001 1.249281e-001 4.075836e-001 -4.001274e-003 -8.446015e-001 7.421841e-001 -2.205397e-001 -3.353056e-002 1.002738e-001 -1.792240e-001 6.945165e-001 -4.049537e-001 -1.413737e-001 7.458805e-002 4.008310e-001 3.026924e-001 -3.190627e-001 -1.551710e-001 -3.140991e-001 -2.067716e-001 -6.093781e-002 2.035096e-002 2.388087e-001 2.856624e-001 1.366759e-001
<VARIANCE> 39
