~o
<STREAMINFO> 1 39
<VECSIZE> 39<NULLD><MFCC_D_A_0><DIAGC>
~h "ctyri"
<BEGINHMM>
<NUMSTATES> 10
<STATE> 2
<MEAN> 39
 -1.892642e+001 -1.425834e+001 5.379319e+000 3.548218e+000 -3.893325e+000 -3.731732e-001 6.882824e+000 -8.193526e+000 3.208008e+000 3.292420e+000 2.389100e-001 -4.127493e+000 6.202575e+001 4.502076e-001 -1.939035e-001 -1.580875e-001 1.240097e-002 4.213625e-001 -1.854090e-001 -1.347347e-001 3.709508e-002 -1.341980e-001 1.672016e-003 8.044812e-002 7.344487e-002 -2.061225e-001 -1.018848e-002 -4.640325e-003 -4.137534e-002 -5.752089e-002 7.754439e-002 -2.840527e-001 -2.225735e-001 5.361438e-002 -2.730086e-001 -2.530626e-001 -9.813073e-002 1.652211e-001 2.783295e-001
<VARIANCE> 39
 4.245829e+001 2.962817e+001 1.927559e+001 3.999725e+001 3.578404e+001 7.467369e+001 4.682291e+001 4.391285e+001 1.579449e+001 2.343180e+001 1.986063e+001 2.261727e+001 8.271278e+001 2.683087e+000 2.008175e+000 1.342119e+000 3.121910e+000 4.644761e+000 5.448421e+000 5.123748e+000 5.038968e+000 3.886998e+000 3.143717e+000 3.027168e+000 2.248535e+000 4.748985e+000 3.575092e-001 2.589173e-001 3.188836e-001 5.506324e-001 7.237895e-001 1.160191e+000 7.261431e-001 1.070453e+000 7.414219e-001 6.504222e-001 4.567676e-001 3.496593e-001 7.550160e-001
<GCONST> 1.256051e+002
<STATE> 3
<MEAN> 39
 -9.171333e+000 -1.239254e+001 4.670207e+000 1.143502e+000 5.025761e+000 -6.173213e+000 -7.351224e+000 -4.428473e+000 -1.188901e+001 -7.416458e+000 -2.080236e+000 2.785606e+000 6.744460e+001 1.991941e+000 5.686139e-001 2.292573e+000 -3.517941e-001 -2.788915e+000 -2.052283e+000 -3.866040e+000 9.253342e-001 -2.875474e+000 -1.718108e+000 7.715128e-001 -4.033462e-001 3.629884e+000 1.784776e-001 1.538879e-001 5.690091e-001 1.464331e-001 -1.555257e+000 8.191019e-001 -4.315636e-001 2.024124e-001 6.027570e-001 5.821229e-001 9.388413e-001 -1.010818e+000 -3.557764e-001
<VARIANCE> 39
 1.941043e+001 2.873730e+001 3.816351e+001 3.152479e+001 9.253529e+001 6.085924e+001 9.247227e+001 6.366332e+001 4.724349e+001 4.592362e+001 8.001724e+001 5.033723e+001 3.483064e+001 1.407972e+000 2.529128e+000 5.326884e+000 4.121256e+000 1.423828e+001 1.062350e+001 7.988780e+000 6.948257e+000 5.116912e+000 4.185147e+000 8.948409e+000 8.304022e+000 2.887254e+000 2.457577e-001 6.731961e-001 9.510173e-001 6.770104e-001 1.713081e+000 1.236642e+000 1.288087e+000 1.175588e+000 6.601384e-001 5.763730e-001 1.381985e+000 8.588867e-001 6.312425e-001
<GCONST> 1.414427e+002
<STATE> 4
<MEAN> 39
 -2.909304e+000 -9.404129e+000 1.567495e+001 7.314552e-001 -1.592723e+001 -4.738834e+000 -2.155221e+001 7.502647e+000 -1.841420e+001 -6.420559e+000 8.152093e+000 -6.814466e+000 7.926052e+001 -3.219647e-001 7.639418e-001 3.296570e-001 -3.244106e-001 -5.210772e-001 -2.230924e-001 6.952263e-001 7.820029e-001 7.052823e-001 4.561110e-001 -3.666300e-002 6.141887e-002 9.297382e-001 -5.371847e-001 3.374543e-001 -3.983088e-001 -1.256094e-001 1.056392e+000 -2.261343e-001 9.708307e-001 -6.967960e-001 7.114353e-001 -1.878212e-001 -6.022404e-001 6.925309e-001 -2.837555e-001
<VARIANCE> 39
 1.108214e+001 1.868668e+001 3.112109e+001 1.564825e+001 3.513115e+001 5.608601e+001 7.253310e+001 4.841571e+001 4.270246e+001 2.935707e+001 5.789927e+001 3.194502e+001 1.195794e+001 1.737701e+000 2.834435e+000 2.786323e+000 2.333414e+000 1.286938e+001 4.293958e+000 1.190500e+001 9.585326e+000 6.987250e+000 2.993700e+000 6.772990e+000 7.523046e+000 1.606760e+000 2.066884e-001 4.428501e-001 4.694208e-001 5.282447e-001 9.364144e-001 5.379953e-001 1.179455e+000 1.113102e+000 9.477695e-001 7.305435e-001 7.461787e-001 5.658576e-001 1.300627e-001
<GCONST> 1.282793e+002
<STATE> 5
<MEAN> 39
 -1.787448e+001 4.170737e+000 1.084428e+001 -6.484768e+000 -2.852848e+000 -1.251101e+001 -8.188457e+000 -5.517646e+000 5.901214e-001 -1.230340e+001 2.550512e+000 5.037149e+000 7.900714e+001 -2.806432e+000 1.290231e+000 -5.282136e-001 -7.063950e-001 1.503141e+000 -2.266452e-001 3.898915e-001 -1.818960e+000 2.259987e+000 -1.824504e+000 -9.399652e-002 1.004290e+000 -8.834040e-002 7.891394e-001 -9.050321e-001 4.079795e-001 7.737522e-001 -4.699247e-001 4.900478e-001 -5.737784e-001 1.040685e+000 -1.047205e+000 3.004212e-001 3.532921e-001 -7.630318e-001 9.410646e-002
<VARIANCE> 39
 6.101411e+001 4.697610e+001 3.464803e+001 2.698264e+001 2.967152e+001 8.300944e+001 4.643538e+001 1.100661e+002 4.057254e+001 8.193359e+001 5.989699e+001 3.529619e+001 4.687047e+000 6.543187e+000 6.684402e+000 3.543754e+000 6.447454e+000 4.138945e+000 2.865337e+000 5.154574e+000 1.042757e+001 8.131498e+000 5.151375e+000 4.764112e+000 6.382972e+000 7.112060e-001 1.736803e+000 8.687105e-001 7.141760e-001 9.498013e-001 1.025225e+000 4.828726e-001 1.486018e+000 1.032822e+000 6.718853e-001 1.087187e+000 1.060361e+000 1.137297e+000 1.321091e-001
<GCONST> 1.379079e+002
<STATE> 6
<MEAN> 39
 -1.452568e+001 -2.505747e+000 1.383696e+001 -1.139510e+000 -3.814130e+000 -1.187183e+001 -1.069964e+001 -6.502480e+000 -1.301811e+000 -1.400944e+001 6.838154e+000 2.449641e+000 8.097869e+001 3.365325e+000 -3.150851e+000 1.029958e+000 1.734658e+000 -1.335622e+000 1.870302e-001 -1.976719e-001 2.020560e+000 -1.001505e+000 1.620063e+000 1.580610e+000 -1.654586e+000 8.332373e-001 3.943037e-001 8.654591e-002 -3.136489e-001 -6.505678e-002 -5.507030e-001 6.551611e-003 -3.766915e-001 1.023526e-002 -2.888711e-001 3.019008e-001 1.859237e-001 1.905819e-002 -1.500491e-001
<VARIANCE> 39
 8.946008e+001 3.585936e+001 6.813911e+001 4.145228e+001 3.816899e+001 6.641843e+001 4.904943e+001 9.228883e+001 7.452740e+001 6.976871e+001 5.609592e+001 3.256009e+001 4.784957e+000 6.444834e+000 3.361457e+000 1.219478e+000 5.199809e+000 6.779250e+000 2.108211e+000 4.622167e+000 2.797871e+000 4.271913e+000 4.342997e+000 4.073046e+000 2.552207e+000 5.893092e-001 1.951294e+000 6.530247e-001 6.837630e-001 1.237623e+000 7.560252e-001 3.922924e-001 4.182394e-001 5.385651e-001 1.159563e+000 1.136815e+000 4.366029e-001 5.541323e-001 3.167001e-001
<GCONST> 1.315365e+002
<STATE> 7
<MEAN> 39
 -1.112922e+001 -4.159163e+000 1.228176e+001 1.928229e+000 -2.965266e+000 -6.991338e+000 -7.453676e+000 1.225747e+000 -1.653313e+000 -8.993719e+000 -6.234540e-001 2.260035e+000 8.009470e+001 2.815428e+000 -1.284263e+000 -3.519037e-001 1.134747e+000 -1.350330e+000 -4.526973e-001 -4.599213e-001 -2.934399e-001 -1.080162e+000 5.457629e-001 3.715695e-001 1.309733e-001 -4.259615e-002 -2.448948e-001 1.357113e-001 -1.232016e-002 -2.833506e-001 -5.762137e-001 -5.442727e-002 -6.394420e-002 6.518281e-002 -8.085156e-002 7.682062e-002 -1.150920e-002 -1.814581e-001 -1.358425e-001
<VARIANCE> 39
 1.384743e+002 3.210798e+001 3.479644e+001 5.193470e+001 2.906750e+001 3.470316e+001 5.471189e+001 6.045243e+001 6.673811e+001 3.630057e+001 4.778465e+001 2.441360e+001 5.480042e+000 1.414122e+001 2.902550e+000 3.325263e+000 7.183926e+000 6.615837e+000 2.857996e+000 5.985469e+000 5.801651e+000 1.060392e+001 3.827710e+000 1.220728e+000 3.687705e+000 7.098813e-001 2.915898e+000 4.045187e-001 8.333370e-001 1.333818e+000 5.684538e-001 5.994284e-001 1.042341e+000 1.164721e+000 1.796060e+000 8.293955e-001 2.332240e-001 7.643201e-001 1.926798e-001
<GCONST> 1.338084e+002
<STATE> 8
<MEAN> 39
 -1.597926e+000 -1.039847e+001 1.386722e+001 1.440944e+000 -2.125743e+001 -5.394959e+000 -2.110308e+001 1.781108e+000 -1.257810e+001 -8.230693e+000 1.425386e+001 -5.926853e+000 8.074578e+001 1.278566e-001 3.578736e-001 1.757010e-001 4.734531e-002 -8.916985e-001 1.363682e+000 4.028343e-002 7.138861e-001 -5.742396e-001 7.066708e-001 -6.215802e-002 -5.946000e-001 -7.103139e-001 -1.006070e-001 2.536242e-001 -4.435670e-002 -3.037939e-002 4.055718e-001 2.432172e-002 3.060822e-001 -2.939506e-001 2.243622e-001 -2.823991e-002 -2.610684e-001 2.257421e-001 -1.920738e-001
<VARIANCE> 39
 7.738240e+000 1.051968e+001 1.487392e+001 1.738136e+001 2.669534e+001 5.340931e+001 6.176352e+001 2.730070e+001 3.152405e+001 1.746831e+001 9.021645e+001 4.231207e+001 8.818210e+000 3.975483e-001 7.050681e-001 9.236721e-001 8.631479e-001 3.188753e+000 1.180917e+000 3.243279e+000 1.838404e+000 1.426109e+000 1.570265e+000 1.423433e+000 1.312583e+000 4.388074e-001 1.489648e-001 1.325750e-001 1.476178e-001 9.632071e-002 2.348284e-001 2.575671e-001 4.442366e-001 2.682243e-001 2.961132e-001 2.499623e-001 2.718276e-001 1.913507e-001 3.107220e-002
<GCONST> 9.313838e+001
<STATE> 9
<MEAN> 39
 1.056794e+000 -5.793139e+000 8.684072e+000 3.646252e+000 -1.130717e+001 -5.943581e+000 -8.754446e+000 -9.403797e-001 -4.597854e+000 -4.215943e+000 4.820821e-001 -3.234778e-001 6.447659e+001 -9.928289e-002 2.172212e-001 -7.718441e-001 4.144432e-002 1.229744e+000 -8.245548e-002 2.675809e-001 -6.284150e-001 5.105044e-001 2.549413e-002 -4.862378e-001 8.624096e-002 -1.425989e+000 -6.467545e-002 -4.084913e-002 -4.591630e-002 -2.277947e-003 7.918558e-002 6.968786e-002 -1.134940e-001 -9.231140e-002 -8.645366e-002 1.878923e-002 9.830269e-002 -8.740100e-002 6.055178e-002
<VARIANCE> 39
 9.424141e+000 9.775541e+000 4.132266e+001 6.010548e+001 8.279778e+001 6.710526e+001 5.494254e+001 6.794494e+001 6.421462e+001 4.308820e+001 5.719341e+001 4.173268e+001 4.811282e+001 5.026574e-001 6.319882e-001 1.272686e+000 1.461865e+000 2.700129e+000 4.505583e+000 3.757668e+000 3.513783e+000 3.952010e+000 4.923573e+000 5.315461e+000 3.613285e+000 5.610986e-001 6.184663e-002 1.292916e-001 2.084703e-001 2.588588e-001 4.829466e-001 6.572565e-001 6.813937e-001 6.530250e-001 7.502786e-001 1.013790e+000 9.693746e-001 6.196867e-001 6.066179e-002
<GCONST> 1.170499e+002
<TRANSP> 10
 0.000000e+000 1.000000e+000 0.000000e+000 0.000000e+000 0.000000e+000 0.000000e+000 0.000000e+000 0.000000e+000 0.000000e+000 0.000000e+000
 0.000000e+000 9.282421e-001 7.175788e-002 0.000000e+000 0.000000e+000 0.000000e+000 0.000000e+000 0.000000e+000 0.000000e+000 0.000000e+000
 0.000000e+000 0.000000e+000 7.523647e-001 2.476352e-001 0.000000e+000 0.000000e+000 0.000000e+000 0.000000e+000 0.000000e+000 0.000000e+000
 0.000000e+000 0.000000e+000 0.000000e+000 8.654541e-001 1.345459e-001 0.000000e+000 0.000000e+000 0.000000e+000 0.000000e+000 0.000000e+000
 0.000000e+000 0.000000e+000 0.000000e+000 0.000000e+000 7.826094e-001 2.173906e-001 0.000000e+000 0.000000e+000 0.000000e+000 0.000000e+000
 0.000000e+000 0.000000e+000 0.000000e+000 0.000000e+000 0.000000e+000 4.806705e-001 5.193295e-001 0.000000e+000 0.000000e+000 0.000000e+000
 0.000000e+000 0.000000e+000 0.000000e+000 0.000000e+000 0.000000e+000 0.000000e+000 7.719145e-001 2.280855e-001 0.000000e+000 0.000000e+000
 0.000000e+000 0.000000e+000 0.000000e+000 0.000000e+000 0.000000e+000 0.000000e+000 0.000000e+000 8.522498e-001 1.477502e-001 0.000000e+000
 0.000000e+000 0.000000e+000 0.000000e+000 0.000000e+000 0.000000e+000 0.000000e+000 0.000000e+000 0.000000e+000 9.244720e-001 7.552806e-002
 0.000000e+000 0.000000e+000 0.000000e+000 0.000000e+000 0.000000e+000 0.000000e+000 0.000000e+000 0.000000e+000 0.000000e+000 0.000000e+000
<ENDHMM>
~h "sedm"
<BEGINHMM>
<NUMSTATES> 10
<STATE> 2
<MEAN> 39
 -2.690822e+001 -1.246265e+000 -1.005176e+001 9.244806e+000 2.378206e+000 -3.042513e+000 -1.432547e+000 -3.541125e+000 4.835909e+000 -3.921664e+000 2.429504e-001 2.559481e+000 7.142605e+001 1.784765e+000 -1.140118e+000 1.003656e+000 -4.533788e-001 -6.090249e-001 1.196592e-001 -1.334125e+000 1.879651e-001 1.670949e-001 -2.115278e-001 -3.281594e-001 -9.206687e-003 5.680303e-001 5.308045e-001 -3.756512e-001 2.795509e-001 -2.964036e-001 -6.488343e-002 2.675673e-002 -4.112442e-001 1.392775e-001 -1.410273e-001 -7.280467e-002 -8.354735e-002 -2.529711e-001 -2.130042e-002
<VARIANCE> 39
 3.736884e+001 2.966454e+001 3.649386e+001 2.942533e+001 3.290661e+001 5.403775e+001 6.294375e+001 5.321909e+001 7.814511e+001 5.678171e+001 4.165663e+001 3.197907e+001 9.197066e+000 6.171003e+000 2.509063e+000 3.339533e+000 2.793517e+000 2.862013e+000 4.825928e+000 6.287972e+000 3.340609e+000 3.977502e+000 3.549159e+000 3.295112e+000 4.702489e+000 9.391296e-001 5.410239e-001 3.411020e-001 4.491073e-001 4.143336e-001 5.332463e-001 1.017662e+000 1.093321e+000 9.523664e-001 7.952507e-001 6.158996e-001 5.539433e-001 8.826635e-001 5.198497e-001
<GCONST> 1.290208e+002
<STATE> 3
<MEAN> 39
 -4.555973e+000 -1.446034e+001 1.560603e+000 -7.919440e-001 -2.690303e+000 -3.058394e+000 -2.364180e+001 1.513922e+000 3.688230e+000 -7.441419e+000 -4.593348e+000 -4.746576e+000 8.042258e+001 2.096895e+000 -6.942739e-001 1.162636e+000 -1.834330e+000 -1.185627e+000 1.417382e-001 -2.963788e+000 1.307972e+000 -9.286523e-001 -9.330364e-001 4.465272e-001 -9.575312e-001 7.051992e-001 -5.290504e-001 8.808613e-001 -5.956919e-002 2.125239e-001 -7.264113e-002 -1.279710e-001 9.514840e-001 -6.149285e-001 4.737102e-002 4.477991e-002 7.574271e-002 4.601015e-001 -6.422493e-001
<VARIANCE> 39
 1.025853e+001 3.725911e+001 2.302311e+001 5.243668e+001 4.981675e+001 5.187914e+001 1.150702e+002 5.662797e+001 8.355966e+001 7.118926e+001 6.763132e+001 2.175133e+001 9.434155e+000 2.731634e+000 4.926417e+000 1.778146e+000 1.925877e+000 2.147456e+000 3.171000e+000 6.313499e+000 6.777816e+000 3.174497e+000 2.117035e+000 3.711331e+000 3.592686e+000 2.096984e+000 5.103001e-001 4.563877e-001 4.566190e-001 6.375331e-001 5.050762e-001 5.574531e-001 1.085637e+000 1.065808e+000 7.495707e-001 4.100200e-001 8.900936e-001 5.638973e-001 1.642306e-001
<GCONST> 1.268404e+002
<STATE> 4
<MEAN> 39
 3.052122e+000 -7.690785e+000 6.174383e+000 -3.899297e+000 -6.233288e+000 -3.929662e+000 -2.054994e+001 -9.683331e-001 1.510729e+000 -9.241030e+000 -4.363416e+000 -5.509736e+000 7.466586e+001 8.095665e-001 1.686163e+000 -5.054849e-001 1.789000e+000 7.315627e-001 7.244908e-001 3.808458e+000 -1.126099e+000 5.930036e-002 2.065593e-001 -1.605515e+000 -4.874482e-001 -2.161508e+000 -4.607835e-001 -6.730967e-001 -3.815627e-001 8.403698e-001 1.061442e-001 -2.203591e-002 4.641871e-001 2.153993e-001 -2.141601e-001 1.092407e-001 -3.970110e-002 1.616861e-001 1.767364e-001
<VARIANCE> 39
 1.296655e+001 2.124031e+001 1.630573e+001 2.248582e+001 4.311852e+001 5.988557e+001 9.182765e+001 5.072509e+001 4.841133e+001 4.493060e+001 1.069229e+002 3.898576e+001 1.871668e+001 1.004584e+000 3.165453e+000 2.681857e+000 3.667100e+000 2.046562e+000 3.077823e+000 6.209013e+000 4.721688e+000 3.835380e+000 2.395302e+000 5.085098e+000 3.592254e+000 9.773080e-001 1.077914e-001 5.812336e-001 7.039983e-001 6.035798e-001 5.795426e-001 8.591935e-001 2.781777e+000 7.643158e-001 6.648567e-001 6.419396e-001 1.470246e+000 1.131405e+000 5.845073e-001
<GCONST> 1.277649e+002
<STATE> 5
<MEAN> 39
 1.759678e+000 -9.165973e+000 4.026301e+000 8.651752e+000 -5.183929e+000 -4.310374e+000 -1.012428e+001 -2.304063e+000 -4.411906e-001 -6.718268e+000 -5.483098e+000 -3.505178e+000 7.051942e+001 2.481160e-001 -7.512078e-001 1.023157e+000 2.376026e+000 -8.292529e-001 -1.432115e-001 -1.631505e+000 -1.778200e+000 -4.620398e-001 8.602734e-001 1.285301e+000 1.275562e+000 3.653758e-001 4.061314e-001 3.310322e-001 3.511936e-001 -5.948268e-001 -5.237453e-002 1.382464e-001 -1.365965e+000 -7.123795e-001 -1.559782e-001 2.345733e-001 5.909978e-001 -1.578313e-002 2.587245e-001
<VARIANCE> 39
 1.153514e+001 2.924521e+001 3.376605e+001 3.601421e+001 2.469891e+001 4.584718e+001 2.107357e+002 5.296566e+001 3.642228e+001 6.123856e+001 8.117665e+001 6.717585e+001 1.423289e+001 1.714835e+000 4.432437e+000 2.927166e+000 3.807074e+000 3.418376e+000 8.173639e+000 1.471360e+001 6.674539e+000 2.082548e+000 2.849456e+000 5.234147e+000 5.303726e+000 1.157700e+000 2.159808e-001 8.090733e-001 8.269584e-001 1.105536e+000 6.921522e-001 1.717306e+000 2.444267e+000 1.148984e+000 6.146877e-001 5.058194e-001 9.420168e-001 7.539248e-001 2.561556e-001
<GCONST> 1.340295e+002
<STATE> 6
<MEAN> 39
 6.651565e+000 -7.962147e+000 9.238306e+000 1.265021e+001 -7.685288e+000 -1.053856e+000 -2.131205e+001 -1.549622e+001 -5.064198e+000 -3.886617e+000 1.242095e+000 -1.546426e+000 7.265013e+001 1.349396e+000 1.241408e+000 3.376395e-001 -3.586971e-001 -2.347645e-001 -1.574042e-001 -1.928647e+000 -2.897989e+000 -2.087778e+000 9.693714e-001 2.830690e+000 1.059002e+000 2.045312e-001 -1.143557e-001 1.605584e-001 -3.567330e-001 -3.962651e-001 3.356624e-002 -3.175911e-001 8.751547e-001 5.491695e-001 2.873758e-002 -4.491550e-001 -2.115274e-001 1.877386e-001 -1.240267e-001
<VARIANCE> 39
 6.251455e+000 3.389151e+001 1.545666e+001 3.742781e+001 2.966180e+001 9.139872e+001 2.671529e+002 5.714925e+001 6.556898e+001 6.306407e+001 6.103725e+001 4.620381e+001 8.214964e+000 8.022115e-001 2.993589e+000 2.462178e+000 8.784871e+000 1.155781e+000 6.710491e+000 9.248575e+000 4.008918e+000 6.796669e+000 3.655493e+000 3.171189e+000 3.732630e+000 4.371454e-001 1.073616e-001 7.244881e-001 3.824562e-001 8.166932e-001 5.557064e-001 6.441004e-001 2.465409e+000 7.046298e-001 1.663079e+000 7.843093e-001 1.175011e+000 5.100265e-001 1.401697e-001
<GCONST> 1.273742e+002
<STATE> 7
<MEAN> 39
 9.961850e+000 -1.604621e+000 8.172180e+000 6.669529e+000 -5.970413e+000 1.704497e+000 -2.545923e+001 -1.876913e+001 -1.011998e+001 -5.229233e+000 5.153231e+000 5.208871e+000 7.143817e+001 5.610902e-001 7.436543e-001 -1.581802e-001 3.588810e-001 5.928503e-001 -1.289153e+000 2.190824e+000 4.122516e-001 -2.322104e-003 -1.271065e+000 -8.245508e-001 -9.854399e-001 -6.829612e-001 -3.010709e-001 -4.989954e-001 3.774199e-002 5.801615e-001 2.780194e-001 -1.911333e-001 5.485899e-001 5.639334e-001 8.474476e-001 3.271627e-002 -9.010293e-001 -9.788993e-001 -1.110946e-001
<VARIANCE> 39
 3.569361e+000 1.799977e+001 8.200172e+000 6.557559e+001 2.460692e+001 1.420750e+002 1.088552e+002 6.629435e+001 2.298864e+001 4.313689e+001 2.967783e+001 7.255772e+001 6.810431e+000 2.473841e-001 2.292221e+000 1.133277e+000 3.001317e+000 2.324690e+000 2.122727e+000 9.379808e+000 2.862475e+000 4.645740e+000 4.922032e+000 3.311957e+000 1.068902e+001 8.862691e-001 3.005654e-002 1.542849e-001 1.770403e-001 6.458321e-001 2.901250e-001 6.926449e-001 6.251147e-001 7.594523e-001 5.169243e-001 1.237072e+000 3.582330e-001 1.098695e+000 4.400866e-002
<GCONST> 1.133877e+002
<STATE> 8
<MEAN> 39
 8.141125e+000 -7.660925e+000 1.446665e+001 1.797768e+001 -5.649439e+000 -1.211085e+001 -1.955877e+001 -1.832009e+001 -9.753630e+000 -9.484109e+000 1.982148e+000 3.682126e+000 7.239349e+001 -1.519113e-001 -6.465195e-003 2.346750e-001 -3.387123e-002 5.262348e-001 5.495882e-001 2.458472e-001 2.406108e-001 6.326982e-002 -1.312608e-001 -6.483729e-001 -1.184143e-001 -2.629193e-001 -5.917363e-002 3.281159e-002 -7.909366e-002 -9.830721e-002 3.554151e-002 1.564565e-001 1.481812e-001 -2.677253e-002 -7.794161e-002 1.020824e-001 -1.261682e-001 -1.817238e-001 -7.998077e-002
<VARIANCE> 39
 3.055007e+000 1.621339e+001 2.545230e+001 1.991790e+001 2.122293e+001 2.723719e+001 2.625912e+001 2.378324e+001 3.659701e+001 2.148167e+001 2.300956e+001 2.361347e+001 6.967033e+000 1.951890e-001 1.226963e+000 1.782600e+000 1.128443e+000 1.369098e+000 1.576813e+000 3.694024e+000 1.517885e+000 2.415889e+000 2.146567e+000 1.979394e+000 3.404534e+000 4.579911e-001 4.782568e-002 1.690499e-001 2.347837e-001 2.174581e-001 2.290500e-001 3.394821e-001 4.005560e-001 2.833821e-001 4.392546e-001 3.970081e-001 4.084825e-001 4.915392e-001 4.467252e-002
<GCONST> 9.506419e+001
<STATE> 9
<MEAN> 39
 3.477103e+000 -5.097722e+000 7.426954e+000 1.135913e+001 4.385188e+000 4.535002e+000 -1.040366e+001 -1.553202e+001 -9.936489e+000 -5.790901e+000 -1.063651e+001 -6.875191e+000 6.342244e+001 -7.511190e-001 -6.225129e-001 -3.591730e-001 -2.841303e-001 2.924817e-001 3.482426e-001 6.338370e-001 2.057594e-001 -1.706126e-001 1.617333e-001 -2.651140e-001 -2.234703e-001 -3.811917e-001 -1.255313e-002 -3.642681e-002 1.556646e-002 -4.505584e-002 -7.249279e-002 -4.138171e-002 -8.759040e-002 1.036331e-001 2.283866e-003 5.555510e-003 1.779068e-001 1.606541e-001 5.527001e-002
<VARIANCE> 39
 3.769747e+001 4.796719e+001 1.953292e+001 3.697793e+001 2.901544e+001 6.305499e+001 4.453972e+001 3.641225e+001 7.939030e+001 4.947145e+001 3.785045e+001 6.127810e+001 1.041276e+001 4.332889e-001 1.015701e+000 1.590825e+000 2.672990e+000 1.877307e+000 3.610867e+000 3.319095e+000 3.222274e+000 2.905620e+000 3.804922e+000 4.030718e+000 5.440162e+000 3.361737e-001 5.367357e-002 1.398278e-001 2.602979e-001 3.896381e-001 3.761631e-001 5.548287e-001 6.706481e-001 6.279821e-001 6.244951e-001 7.638171e-001 6.575620e-001 8.754478e-001 4.201807e-002
<GCONST> 1.142672e+002
<TRANSP> 10
 0.000000e+000 1.000000e+000 0.000000e+000 0.000000e+000 0.000000e+000 0.000000e+000 0.000000e+000 0.000000e+000 0.000000e+000 0.000000e+000
 0.000000e+000 9.023542e-001 9.764587e-002 0.000000e+000 0.000000e+000 0.000000e+000 0.000000e+000 0.000000e+000 0.000000e+000 0.000000e+000
 0.000000e+000 0.000000e+000 8.094353e-001 1.905648e-001 0.000000e+000 0.000000e+000 0.000000e+000 0.000000e+000 0.000000e+000 0.000000e+000
 0.000000e+000 0.000000e+000 0.000000e+000 7.651510e-001 2.348490e-001 0.000000e+000 0.000000e+000 0.000000e+000 0.000000e+000 0.000000e+000
 0.000000e+000 0.000000e+000 0.000000e+000 0.000000e+000 7.575256e-001 2.424744e-001 0.000000e+000 0.000000e+000 0.000000e+000 0.000000e+000
 0.000000e+000 0.000000e+000 0.000000e+000 0.000000e+000 0.000000e+000 6.897854e-001 3.102146e-001 0.000000e+000 0.000000e+000 0.000000e+000
 0.000000e+000 0.000000e+000 0.000000e+000 0.000000e+000 0.000000e+000 0.000000e+000 6.635922e-001 3.364078e-001 0.000000e+000 0.000000e+000
 0.000000e+000 0.000000e+000 0.000000e+000 0.000000e+000 0.000000e+000 0.000000e+000 0.000000e+000 8.958341e-001 1.041659e-001 0.000000e+000
 0.000000e+000 0.000000e+000 0.000000e+000 0.000000e+000 0.000000e+000 0.000000e+000 0.000000e+000 0.000000e+000 9.459750e-001 5.402498e-002
 0.000000e+000 0.000000e+000 0.000000e+000 0.000000e+000 0.000000e+000 0.000000e+000 0.000000e+000 0.000000e+000 0.000000e+000 0.000000e+000
<ENDHMM>
~h "sest"
<BEGINHMM>
<NUMSTATES> 10
<STATE> 2
<MEAN> 39
 -2.711358e+001 -1.199530e+001 -1.355389e-001 5.653806e+000 -4.253085e+000 -3.861563e+000 -1.178056e+000 -3.502291e+000 8.881652e-001 -2.700378e+000 8.535106e-001 9.081993e-001 6.529861e+001 -1.229372e-001 -4.644253e-001 1.061853e+000 3.831402e-001 8.039527e-002 -2.255757e-001 -3.954368e-001 1.781068e-002 3.727321e-002 -5.843751e-001 4.585064e-001 3.601220e-001 3.600843e+000 6.791922e-001 -2.363642e-002 1.110291e-001 2.403405e-002 2.186415e-001 -2.432363e-002 -5.499884e-001 2.091680e-002 -1.073156e-001 -1.764121e-002 -9.915797e-002 5.149432e-002 -3.418164e-002
<VARIANCE> 39
 1.264402e+001 3.283986e+001 8.714737e+001 3.499814e+001 3.858122e+001 2.535213e+001 2.825985e+001 1.077601e+002 2.909543e+001 5.695792e+001 2.839491e+001 1.686833e+001 2.703046e+002 4.571005e+000 1.691503e+000 3.791265e+000 1.826733e+000 3.926651e+000 3.040064e+000 3.452351e+000 5.608813e+000 2.871542e+000 4.822577e+000 2.734404e+000 1.718758e+000 2.525044e+001 7.337832e-001 4.623194e-001 7.906492e-001 4.783707e-001 8.131641e-001 1.007398e+000 9.573563e-001 7.683623e-001 6.657010e-001 9.131651e-001 6.536199e-001 3.476402e-001 4.447176e+000
<GCONST> 1.336010e+002
<STATE> 3
<MEAN> 39
 -2.161045e+001 -1.217845e+001 4.741755e+000 6.702247e+000 -1.916475e+000 -7.283650e+000 -5.925137e+000 -4.998573e-001 1.271518e-001 -6.522037e+000 3.845042e+000 3.232235e+000 7.308298e+001 5.092986e+000 7.409757e-002 1.797359e+000 -3.522350e-001 1.961983e-001 -1.951576e+000 -4.942473e+000 -1.411705e+000 -1.769610e+000 -1.962073e+000 -5.561159e-001 1.629529e-001 3.017787e+000 1.074831e+000 -3.229651e-001 -2.037650e-001 -6.591709e-001 -2.140496e-001 3.906534e-001 -1.160693e+000 4.294961e-001 -9.725058e-001 -4.598254e-001 -7.716321e-001 -2.954638e-001 -3.099603e-001
<VARIANCE> 39
 6.625023e+001 2.430886e+001 3.023158e+001 1.696415e+001 3.333733e+001 3.802197e+001 3.318103e+001 8.808615e+001 4.733643e+001 5.304567e+001 3.970938e+001 2.098445e+001 2.683854e+001 3.089110e+000 3.157027e+000 5.976433e+000 2.174858e+000 5.275688e+000 9.909990e+000 3.511818e+000 6.559356e+000 4.875658e+000 3.414903e+000 1.926113e+000 2.691583e+000 3.188911e+001 1.028363e+000 3.349366e-001 3.711363e-001 2.484688e-001 9.996493e-001 1.226372e+000 8.520197e-001 1.409095e+000 5.643370e-001 1.235228e+000 1.209520e-001 6.760660e-001 2.288891e+000
<GCONST> 1.330270e+002
<STATE> 4
<MEAN> 39
 -6.159402e+000 -1.212245e+001 5.659199e+000 3.203216e+000 -2.680022e+000 -1.105381e+001 -2.118406e+001 -8.957847e+000 -6.428525e+000 -1.254499e+001 -2.534313e+000 3.523896e+000 7.808218e+001 5.098159e+000 -2.451855e+000 1.033851e+000 -1.631539e+000 -1.903686e-001 1.283219e+000 -5.739228e+000 2.201988e+000 -2.603857e+000 -2.745661e+000 -2.837988e+000 -1.430879e+000 3.128772e+000 -1.215852e+000 -4.665627e-001 -4.533806e-001 -3.326751e-001 2.957159e-002 1.141453e+000 8.079893e-001 1.623750e+000 6.578294e-001 7.125419e-001 -2.509488e-001 -7.641972e-001 -9.008936e-001
<VARIANCE> 39
 2.295414e+001 2.635889e+001 2.238400e+001 1.621267e+001 5.448324e+001 6.800217e+001 4.592404e+001 2.089435e+002 5.134966e+001 4.298377e+001 4.820265e+001 1.268250e+001 3.290345e+001 4.181888e+000 2.688138e+000 2.242645e+000 1.878956e+000 4.010476e+000 5.858531e+000 6.158518e+000 7.154246e+000 6.637909e+000 9.390353e+000 1.715231e+000 5.381029e+000 8.828481e+000 6.023084e-001 6.129102e-001 7.119412e-001 3.795920e-001 9.115362e-001 1.047297e+000 4.593436e-001 1.158175e+000 7.546256e-001 9.629307e-001 2.459442e-001 6.711032e-001 3.706085e+000
<GCONST> 1.345118e+002
<STATE> 5
<MEAN> 39
 -1.497620e+000 -1.973005e+001 7.646708e+000 -1.920747e+000 -4.281490e+000 -4.082845e+000 -2.948801e+001 5.192869e+000 -9.152209e+000 -1.561436e+001 -7.923502e+000 -4.046678e+000 8.129783e+001 1.418038e+000 -1.038743e+000 -1.451586e-001 -2.160966e+000 -6.509106e-001 1.271439e+000 -1.776324e+000 3.476011e+000 4.651002e-001 8.272275e-001 -1.543339e+000 -1.722006e+000 7.797478e-001 -9.771804e-001 8.918155e-001 -4.775804e-001 2.729928e-001 4.959215e-002 -5.757740e-001 1.422383e+000 -6.674793e-001 7.862889e-001 9.974508e-001 6.323766e-001 6.272196e-001 -8.444415e-001
<VARIANCE> 39
 8.769262e+000 1.867895e+001 2.490979e+001 2.503296e+001 3.816641e+001 1.085705e+002 4.970349e+001 1.510396e+002 1.684378e+002 7.325565e+001 9.277665e+001 2.091228e+001 9.406682e+000 2.819756e+000 1.622732e+000 2.520551e+000 3.056666e+000 4.190750e+000 4.970383e+000 5.840053e+000 3.526628e+000 4.989575e+000 4.873318e+000 2.707950e+000 3.884537e+000 1.554190e+000 6.412827e-001 2.324308e-001 4.263374e-001 6.508703e-001 5.801669e-001 7.992955e-001 1.087878e+000 8.137215e-001 1.133550e+000 1.062355e+000 3.565846e-001 5.533792e-001 1.001849e+000
<GCONST> 1.297950e+002
<STATE> 6
<MEAN> 39
 8.386822e-001 -1.585257e+001 4.605608e+000 -5.508906e+000 -6.752612e+000 -5.151596e+000 -2.808978e+001 1.381433e+001 -9.550841e+000 -7.409608e+000 -7.194825e+000 -4.849169e+000 8.133858e+001 5.776138e-002 1.376009e+000 -2.198712e-001 -2.165436e-001 3.328473e-001 2.745619e-001 1.300370e-001 5.985868e-001 -1.284252e-001 1.980791e+000 -6.621780e-001 5.183650e-001 -5.757900e-001 -3.476085e-001 3.450683e-001 -9.834146e-002 2.718616e-001 3.564914e-001 -1.091564e-001 6.661811e-001 -5.570214e-001 -9.368294e-002 -6.469496e-002 1.852318e-002 2.632582e-001 -3.432930e-001
<VARIANCE> 39
 1.524340e+001 1.652124e+001 1.610401e+001 2.147665e+001 3.118750e+001 4.479940e+001 4.478602e+001 1.010866e+002 9.832510e+001 4.008615e+001 8.406316e+001 2.409332e+001 5.425109e+000 7.466171e-001 5.256485e-001 9.663410e-001 1.537009e+000 2.064845e+000 2.196156e+000 2.949304e+000 2.353443e+000 3.156802e+000 2.788522e+000 1.744527e+000 1.616687e+000 1.339567e+000 3.154302e-001 1.609862e-001 3.480621e-001 3.150154e-001 4.712902e-001 5.335069e-001 1.100665e+000 6.900210e-001 6.404119e-001 7.243900e-001 6.358877e-001 4.251051e-001 1.966449e-001
<GCONST> 1.121607e+002
<STATE> 7
<MEAN> 39
 -2.342505e+000 -7.327431e+000 4.403704e+000 -3.066827e+000 2.773898e+000 -2.327282e+000 -2.242185e+001 8.157646e+000 -6.185699e+000 5.488782e-002 -1.339245e+001 1.876575e+000 7.557899e+001 -2.669051e+000 3.154069e+000 -2.420263e+000 7.808678e-001 2.452660e+000 -2.666965e+000 5.765759e+000 -3.110809e+000 1.578192e+000 -9.959946e-001 1.928942e-001 1.417341e+000 -1.093492e+000 -9.781969e-001 4.656644e-001 -8.767447e-001 5.917793e-002 -1.120022e-001 -8.585267e-001 8.221676e-001 -3.403009e-001 4.665014e-001 -1.017642e+000 4.088604e-001 -4.048723e-001 3.351274e-001
<VARIANCE> 39
 1.330318e+001 2.430300e+001 3.304321e+001 2.978581e+001 6.198834e+001 6.929214e+001 2.090670e+002 8.928259e+001 1.169854e+002 3.402003e+001 9.732497e+001 5.104389e+001 1.357237e+001 3.058827e+000 1.622074e+000 3.103489e+000 1.181692e+000 4.019525e+000 5.401388e+000 7.269011e+000 8.993450e+000 7.275043e+000 6.344196e+000 7.706198e+000 4.273576e+000 8.073155e-001 1.514026e-001 2.002274e-001 3.668761e-001 2.836443e-001 4.185137e-001 8.915194e-001 2.013049e+000 1.087723e+000 1.333451e+000 1.052932e+000 1.200384e+000 8.374919e-001 7.993571e-002
<GCONST> 1.310838e+002
<STATE> 8
<MEAN> 39
 -1.906641e+001 8.514550e+000 -1.157173e+001 -1.379036e+000 9.255948e+000 -1.643444e+001 -2.772936e+000 -1.296916e+000 8.493067e-002 -6.784580e+000 -1.164695e+001 2.201485e-002 7.585482e+001 -2.755064e+000 2.070973e+000 -2.101745e+000 4.179117e-001 4.864295e-001 -1.494617e+000 1.769782e+000 -6.004995e-001 7.747316e-001 -2.988577e-001 3.734988e-001 -1.336577e+000 -1.838380e-001 6.765571e-001 -6.672313e-001 8.207659e-001 6.491044e-002 -3.903798e-001 5.514143e-001 -1.013340e+000 5.356110e-001 -1.473711e-001 6.425059e-001 1.023055e-001 4.350462e-003 -7.794382e-002
<VARIANCE> 39
 3.169466e+001 3.905215e+001 3.894850e+001 5.005225e+001 5.569247e+001 8.382213e+001 6.196949e+001 5.868196e+001 9.471667e+001 5.062635e+001 4.738816e+001 5.107468e+001 1.263163e+001 3.075914e+000 3.206789e+000 4.940335e+000 1.747325e+000 1.995453e+000 3.912535e+000 6.990292e+000 4.831671e+000 3.780179e+000 5.520844e+000 5.893462e+000 1.758766e+000 6.548907e-001 2.396082e-001 2.050592e-001 3.426322e-001 3.652878e-001 3.864180e-001 6.355671e-001 1.012296e+000 1.077182e+000 8.735501e-001 1.019464e+000 1.375802e+000 9.589586e-001 5.812958e-002
<GCONST> 1.277040e+002
<STATE> 9
<MEAN> 39
 -2.077612e+001 5.053304e+000 -1.075717e+001 5.788048e+000 6.347538e+000 -1.302325e+001 1.162633e+000 -6.731752e+000 3.072494e+000 6.410450e-001 -3.073258e+000 -1.740123e+000 6.815259e+001 5.800139e-001 -9.957808e-001 3.061164e-001 5.525320e-001 -1.850333e-001 7.291088e-001 1.618121e-001 -5.969943e-001 1.432001e-001 2.725535e-001 4.248402e-001 5.548609e-002 -9.494591e-001 1.251047e-001 -1.206133e-001 -9.123630e-003 -3.055860e-002 -8.965536e-003 9.782831e-002 -1.007226e-002 -1.014545e-002 -1.067326e-001 -7.578252e-002 -6.654091e-002 2.084237e-003 -3.048939e-002
<VARIANCE> 39
 4.582246e+001 8.241257e+001 2.671398e+001 3.710943e+001 7.210112e+001 8.315939e+001 4.166554e+001 6.457807e+001 4.700248e+001 7.999955e+001 6.738232e+001 5.302991e+001 4.809410e+001 1.564737e+000 1.547654e+000 1.450015e+000 2.227011e+000 1.404102e+000 6.058794e+000 3.086009e+000 4.761778e+000 6.050442e+000 5.441557e+000 4.052738e+000 4.283013e+000 1.345589e+000 1.736001e-001 2.093005e-001 3.181653e-001 3.819816e-001 2.975129e-001 1.132906e+000 6.085931e-001 9.206869e-001 1.315248e+000 1.037754e+000 7.593537e-001 7.952802e-001 2.327611e-001
<GCONST> 1.284856e+002
<TRANSP> 10
 0.000000e+000 1.000000e+000 0.000000e+000 0.000000e+000 0.000000e+000 0.000000e+000 0.000000e+000 0.000000e+000 0.000000e+000 0.000000e+000
 0.000000e+000 8.107297e-001 1.892703e-001 0.000000e+000 0.000000e+000 0.000000e+000 0.000000e+000 0.000000e+000 0.000000e+000 0.000000e+000
 0.000000e+000 0.000000e+000 5.399916e-001 4.600084e-001 0.000000e+000 0.000000e+000 0.000000e+000 0.000000e+000 0.000000e+000 0.000000e+000
 0.000000e+000 0.000000e+000 0.000000e+000 4.450195e-001 5.549806e-001 0.000000e+000 0.000000e+000 0.000000e+000 0.000000e+000 0.000000e+000
 0.000000e+000 0.000000e+000 0.000000e+000 0.000000e+000 5.845907e-001 4.154092e-001 0.000000e+000 0.000000e+000 0.000000e+000 0.000000e+000
 0.000000e+000 0.000000e+000 0.000000e+000 0.000000e+000 0.000000e+000 8.135719e-001 1.864281e-001 0.000000e+000 0.000000e+000 0.000000e+000
 0.000000e+000 0.000000e+000 0.000000e+000 0.000000e+000 0.000000e+000 0.000000e+000 6.785455e-001 3.214546e-001 0.000000e+000 0.000000e+000
 0.000000e+000 0.000000e+000 0.000000e+000 0.000000e+000 0.000000e+000 0.000000e+000 0.000000e+000 7.790344e-001 2.209655e-001 0.000000e+000
 0.000000e+000 0.000000e+000 0.000000e+000 0.000000e+000 0.000000e+000 0.000000e+000 0.000000e+000 0.000000e+000 9.165508e-001 8.344921e-002
 0.000000e+000 0.000000e+000 0.000000e+000 0.000000e+000 0.000000e+000 0.000000e+000 0.000000e+000 0.000000e+000 0.000000e+000 0.000000e+000
<ENDHMM>
~h "vymazat"
<BEGINHMM>
<NUMSTATES> 10
<STATE> 2
<MEAN> 39
 -1.925186e+000 -2.253322e+000 5.308408e+000 1.134133e+001 -3.565208e+000 -3.677521e+000 -1.665387e+001 -1.060625e+001 -4.471189e+000 -3.022992e+000 1.851493e-001 -1.079745e+000 6.577509e+001 -1.843838e-001 -3.262449e-001 5.917701e-001 -6.142317e-001 -1.212956e+000 -1.224731e+000 -1.199498e+000 8.915225e-001 3.628217e-001 -8.232685e-001 8.428361e-001 8.451663e-001 1.809215e+000 -1.000298e-001 -3.952435e-001 8.836467e-002 -3.145776e-001 -2.319791e-001 1.715083e-001 1.306806e-001 3.696464e-001 7.791430e-002 -9.990703e-002 2.035039e-001 -4.776279e-002 -2.256851e-002
<VARIANCE> 39
 5.245701e+001 3.582696e+001 2.440732e+001 3.540272e+001 5.729284e+001 8.237889e+001 5.297039e+001 7.275279e+001 6.353053e+001 3.718718e+001 8.184605e+001 5.641410e+001 4.188671e+001 5.731489e+000 4.506883e+000 5.135238e+000 3.240642e+000 4.972249e+000 4.294027e+000 6.105896e+000 5.640509e+000 4.422123e+000 4.265628e+000 6.038796e+000 3.966706e+000 2.150107e+000 1.210165e+000 5.692209e-001 8.467429e-001 6.958000e-001 6.766768e-001 9.397215e-001 8.084342e-001 8.669918e-001 9.147139e-001 8.229186e-001 1.011178e+000 8.763085e-001 4.354628e-001
<GCONST> 1.392303e+002
<STATE> 3
<MEAN> 39
 -1.815058e+000 -1.159815e+001 1.664074e+001 1.198968e+000 -1.905500e+001 -8.547456e+000 -2.267289e+001 3.746885e+000 -5.037508e+000 -1.041220e+001 9.593238e+000 2.483252e+000 8.123309e+001 1.274029e+000 3.034680e-002 2.135731e-001 -1.297508e-001 3.168814e-002 1.161725e+000 2.141491e-001 4.221063e-001 -5.730777e-001 -1.226859e-001 -5.600278e-001 -1.123022e+000 -2.307017e-001 9.128883e-003 4.447697e-001 -7.570723e-001 5.196145e-001 1.023090e+000 3.769201e-002 3.750840e-001 -6.985186e-001 1.364754e-001 4.339990e-001 -5.706208e-001 -1.418479e-001 -6.645216e-001
<VARIANCE> 39
 1.235436e+001 7.359495e+000 2.963766e+001 1.148875e+001 5.712471e+001 5.236653e+001 2.323943e+001 1.715558e+001 1.031912e+002 2.514596e+001 6.688478e+001 2.806252e+001 4.336426e+000 7.272224e-001 1.762727e+000 4.194998e+000 2.728009e+000 6.526473e+000 1.077119e+000 1.912598e+000 3.429671e+000 2.571232e+000 2.409816e+000 3.310779e+000 1.450068e+000 2.260595e+000 1.556017e-001 2.245799e-001 2.047868e-001 2.668675e-001 3.244985e-001 4.561705e-001 5.413068e-001 3.300216e-001 5.665060e-001 4.732867e-001 5.934129e-001 3.742921e-001 8.066186e-002
<GCONST> 1.083684e+002
<STATE> 4
<MEAN> 39
 5.355983e+000 -7.306727e+000 8.160281e+000 8.856803e+000 -6.242627e+000 -6.934942e+000 -1.835632e+001 -8.521617e+000 -6.449749e+000 -5.446782e+000 5.485618e+000 -3.265623e+000 7.302648e+001 5.308023e-001 4.606566e-001 -1.558457e+000 4.813493e-001 1.748164e+000 3.252609e-001 2.614189e-001 -1.991946e+000 3.170642e-002 1.248575e-001 -2.784176e-001 6.767144e-002 -4.387865e-001 -2.109794e-001 -2.807312e-001 -8.539531e-002 -7.330328e-001 -3.310998e-001 4.078400e-001 -1.713166e-001 6.400845e-001 4.023594e-002 -4.154574e-001 7.459857e-002 1.643312e-001 5.085661e-001
<VARIANCE> 39
 7.816850e+000 1.947909e+001 1.567989e+001 3.818487e+001 4.475457e+001 8.256113e+001 5.838722e+001 7.976979e+001 7.397599e+001 2.707145e+001 7.487006e+001 4.529285e+001 4.712540e+000 7.439337e-001 1.113257e+000 1.521793e+000 5.388310e+000 2.511837e+000 2.777384e+000 3.149312e+000 5.341164e+000 2.156702e+000 4.100243e+000 2.601536e+000 5.088005e+000 1.767886e+000 1.136040e-001 1.823756e-001 2.809799e-001 1.087523e+000 2.837384e-001 6.483393e-001 5.442821e-001 1.252339e+000 5.049382e-001 5.725346e-001 6.366495e-001 9.416810e-001 7.300518e-002
<GCONST> 1.175447e+002
<STATE> 5
<MEAN> 39
 6.186311e+000 -9.370059e+000 -2.040035e+000 -2.092686e+000 -7.337016e-001 4.003017e+000 -1.995931e+001 -5.755944e+000 -3.105705e+000 -1.145691e+001 2.631972e+000 -3.956614e+000 7.772674e+001 -4.156549e-001 -1.610863e+000 -1.529417e+000 -4.768193e+000 1.060763e+000 3.690414e+000 -1.600014e+000 3.481085e+000 1.111698e+000 -7.120472e-001 -2.619813e-001 -1.385557e+000 1.845817e+000 -2.430067e-001 1.816210e-002 6.444655e-001 2.816560e-001 2.548460e-001 -3.968900e-001 -3.975741e-001 9.070395e-002 -8.564125e-002 7.275723e-001 1.158838e-001 -1.353971e-001 -8.506297e-002
<VARIANCE> 39
 4.791308e+000 2.386529e+001 1.626397e+001 5.603672e+001 5.285538e+001 1.557005e+002 8.120198e+001 5.343394e+001 1.225596e+002 2.031024e+001 9.851524e+001 3.502213e+001 1.009092e+001 6.750739e-001 6.875796e-001 2.229791e+000 4.035138e+000 1.086505e+000 1.650194e+000 3.356133e+000 6.691721e+000 7.479709e+000 3.926407e+000 1.597211e+000 5.054533e+000 3.228645e-001 1.145542e-001 3.334091e-001 2.724312e-001 1.317338e+000 2.489541e-001 8.612946e-001 5.326087e-001 1.260274e+000 9.212224e-001 5.823435e-001 3.723739e-001 5.989589e-001 1.593580e-001
<GCONST> 1.181747e+002
<STATE> 6
<MEAN> 39
 2.882448e+000 -1.114621e+001 -2.386771e+000 -1.155168e+001 7.030568e+000 8.983116e+000 -2.541204e+001 1.783152e+000 -1.624910e+000 -6.260101e+000 -8.916954e-001 -6.447800e+000 8.191624e+001 -6.327399e-001 1.004070e+000 -3.316498e-001 -2.932483e-001 9.367313e-001 -7.927796e-001 9.399305e-001 9.038847e-002 -5.254316e-001 1.414153e+000 -6.004023e-001 -3.488510e-001 2.876023e-002 -9.367738e-002 7.568530e-001 -3.690162e-001 6.362244e-001 -2.088447e-001 -5.403947e-001 9.287828e-001 -8.252336e-001 6.982509e-002 -4.184676e-002 -4.670929e-002 2.376404e-001 -4.160126e-001
<VARIANCE> 39
 5.692567e+000 1.134654e+001 9.895188e+000 9.536791e+000 8.642605e+001 7.781657e+001 5.335196e+001 2.039551e+001 1.922025e+002 2.440288e+001 7.609170e+001 5.283067e+001 3.370665e+000 5.202782e-001 2.293960e+000 1.505000e+000 1.321293e+000 1.639336e+000 1.627771e+000 3.728588e+000 2.151903e+000 1.880957e+000 1.172363e+000 1.711632e+000 1.791937e+000 7.573016e-001 1.144195e-001 2.327031e-001 4.943577e-001 2.940367e-001 3.341361e-001 4.462295e-001 3.052559e-001 5.660370e-001 8.429912e-001 3.200549e-001 3.501967e-001 4.216413e-001 3.406553e-002
<GCONST> 1.039118e+002
<STATE> 7
<MEAN> 39
 -3.215014e+000 3.531735e+000 -1.230668e+001 -7.848362e+000 7.124434e+000 6.192825e-001 -7.591862e+000 -7.181072e+000 -2.222102e+000 -2.110579e+000 -2.821287e+000 -6.274991e+000 7.780058e+001 -2.537649e+000 4.496125e+000 -3.372971e+000 1.750167e+000 3.522276e-001 -2.451027e+000 4.560128e+000 -3.034589e+000 1.416370e+000 -1.723979e-001 -8.531126e-001 1.254113e+000 -1.101238e+000 -1.134075e-001 -2.712283e-001 3.458367e-001 7.386783e-002 9.206863e-002 -2.865674e-001 -6.328530e-001 4.775402e-001 6.302326e-002 -9.900517e-002 -7.113844e-002 9.312639e-002 1.633915e-001
<VARIANCE> 39
 2.465463e+001 5.129291e+001 3.956968e+001 2.164090e+001 3.613655e+001 9.102898e+001 6.340126e+001 5.778621e+001 1.420225e+002 2.960692e+001 2.639145e+001 2.522037e+001 5.377726e+000 6.578674e-001 1.261999e+000 2.076189e+000 1.934904e+000 4.181839e+000 2.604481e+000 3.815178e+000 9.375367e+000 1.576425e+000 2.939677e+000 5.828849e+000 3.365849e+000 1.780333e-001 4.313935e-001 7.801394e-001 1.048857e+000 4.472093e-001 2.485705e-001 4.818652e-001 1.448770e+000 1.758641e+000 4.297662e-001 6.396014e-001 7.771004e-001 5.282910e-001 3.938687e-002
<GCONST> 1.199089e+002
<STATE> 8
<MEAN> 39
 -6.772122e+000 1.003604e+001 -1.261208e+001 -2.977859e+000 8.420380e+000 -1.018019e+001 -8.620083e+000 -1.062174e+001 2.325174e+000 1.702407e+000 -5.631802e+000 -8.683168e-001 7.641766e+001 1.297630e+000 -1.919595e+000 1.966986e+000 -4.727894e-001 -6.354509e-001 -8.014605e-002 -3.107574e+000 1.054279e+000 3.309275e-001 1.503114e+000 -6.498730e-002 1.299009e-001 5.344437e-001 4.953466e-001 -9.193789e-001 3.959827e-001 -5.049646e-001 -3.157955e-001 8.684426e-001 -5.802829e-001 6.131582e-001 -2.031253e-001 1.202043e-001 1.916188e-001 -3.931489e-001 2.284696e-001
<VARIANCE> 39
 3.048514e+001 3.615340e+001 5.306172e+001 1.868330e+001 2.123412e+001 5.263073e+001 1.147543e+002 7.690657e+001 1.159437e+002 5.461823e+001 4.499570e+001 3.493958e+001 6.857495e+000 2.869982e+000 6.998187e+000 3.740451e+000 2.368341e+000 4.170264e+000 7.481861e+000 6.958881e+000 9.108795e+000 1.659383e+000 3.812115e+000 5.138576e+000 4.908144e+000 8.675992e-001 6.717519e-001 9.902999e-001 1.343941e+000 2.292459e-001 6.919237e-001 8.515723e-001 2.383995e+000 1.557358e+000 3.279020e-001 8.560603e-001 9.034744e-001 6.636895e-001 1.238872e-001
<GCONST> 1.327535e+002
<STATE> 9
<MEAN> 39
 3.840544e+000 -6.845587e+000 -2.719633e+000 -1.227949e+001 9.163765e-001 1.857744e+000 -1.859002e+001 1.586620e+000 -4.085531e+000 6.462650e+000 -2.773880e+000 -6.119551e+000 7.503127e+001 4.920561e-001 -2.675132e-001 7.044653e-002 -1.736933e-002 -4.197987e-001 3.651574e-001 1.141206e+000 2.098399e-001 -4.725729e-001 -3.345432e-001 1.458176e-001 -3.365806e-001 -1.206533e+000 -1.111483e-001 2.257425e-001 -6.783271e-002 2.602004e-001 6.304523e-002 -2.373875e-001 2.838613e-001 -2.319602e-001 1.080153e-002 -1.954885e-001 -9.192581e-002 5.964397e-002 -1.560496e-001
<VARIANCE> 39
 9.659323e+000 2.664725e+001 1.162823e+001 1.666286e+001 3.226891e+001 2.871869e+001 6.167311e+001 2.804407e+001 9.044072e+001 2.026976e+002 1.213361e+002 5.093998e+001 5.522503e+001 6.123318e-001 2.145122e+000 1.539356e+000 2.367750e+000 1.931743e+000 4.001174e+000 4.294971e+000 3.989553e+000 3.117281e+000 4.223214e+000 3.871330e+000 3.095481e+000 1.355656e+000 1.345960e-001 3.226656e-001 2.900699e-001 1.878248e-001 4.378943e-001 4.266013e-001 6.875779e-001 4.724305e-001 6.088969e-001 5.407046e-001 5.778590e-001 5.643073e-001 1.487526e-001
<GCONST> 1.181706e+002
<TRANSP> 10
 0.000000e+000 1.000000e+000 0.000000e+000 0.000000e+000 0.000000e+000 0.000000e+000 0.000000e+000 0.000000e+000 0.000000e+000 0.000000e+000
 0.000000e+000 9.081516e-001 9.184837e-002 0.000000e+000 0.000000e+000 0.000000e+000 0.000000e+000 0.000000e+000 0.000000e+000 0.000000e+000
 0.000000e+000 0.000000e+000 8.464668e-001 1.535332e-001 0.000000e+000 0.000000e+000 0.000000e+000 0.000000e+000 0.000000e+000 0.000000e+000
 0.000000e+000 0.000000e+000 0.000000e+000 8.555771e-001 1.444229e-001 0.000000e+000 0.000000e+000 0.000000e+000 0.000000e+000 0.000000e+000
 0.000000e+000 0.000000e+000 0.000000e+000 0.000000e+000 7.009670e-001 2.990330e-001 0.000000e+000 0.000000e+000 0.000000e+000 0.000000e+000
 0.000000e+000 0.000000e+000 0.000000e+000 0.000000e+000 0.000000e+000 8.333260e-001 1.666740e-001 0.000000e+000 0.000000e+000 0.000000e+000
 0.000000e+000 0.000000e+000 0.000000e+000 0.000000e+000 0.000000e+000 0.000000e+000 7.430249e-001 2.569751e-001 0.000000e+000 0.000000e+000
 0.000000e+000 0.000000e+000 0.000000e+000 0.000000e+000 0.000000e+000 0.000000e+000 0.000000e+000 8.488219e-001 1.511781e-001 0.000000e+000
 0.000000e+000 0.000000e+000 0.000000e+000 0.000000e+000 0.000000e+000 0.000000e+000 0.000000e+000 0.000000e+000 9.303321e-001 6.966789e-002
 0.000000e+000 0.000000e+000 0.000000e+000 0.000000e+000 0.000000e+000 0.000000e+000 0.000000e+000 0.000000e+000 0.000000e+000 0.000000e+000
<ENDHMM>
~h "krat"
<BEGINHMM>
<NUMSTATES> 10
<STATE> 2
<MEAN> 39
 -1.258524e+001 -1.261268e+001 -3.482994e+000 2.516416e+000 -7.803995e-001 -1.583146e+001 -6.964464e+000 2.391552e+000 -6.609958e+000 2.676935e+000 -7.843362e+000 5.978266e+000 7.514893e+001 1.462140e+000 9.988301e-001 1.152958e+000 -2.540675e-001 -1.011760e+000 -2.679676e+000 -1.322720e+000 1.600763e+000 -9.593492e-001 -1.077276e+000 4.853890e-001 -1.594172e-001 3.295981e+000 1.044682e+000 -1.234029e-001 4.237324e-001 7.107911e-002 -2.880879e-001 1.538181e+000 1.233522e-001 1.254602e-002 6.009853e-001 -6.072211e-001 6.666922e-001 -8.935262e-001 -1.080340e+000
<VARIANCE> 39
 2.971265e+001 2.239070e+001 3.667520e+001 2.562499e+001 3.579248e+001 5.763348e+001 2.564923e+001 3.396762e+001 3.931817e+001 6.403250e+001 4.216661e+001 2.163314e+001 2.522989e+001 6.816520e+000 2.556375e+000 3.904582e+000 3.738894e+000 5.267827e+000 1.528194e+001 5.677371e+000 4.566560e+000 7.001756e+000 7.426155e+000 6.033842e+000 6.821002e+000 7.516340e+000 6.850436e-001 9.226615e-001 6.954927e-001 8.718804e-001 1.058463e+000 1.750850e+000 9.573816e-001 6.868301e-001 1.426135e+000 1.198365e+000 5.802115e-001 1.041138e+000 6.261455e-001
<GCONST> 1.389703e+002
<STATE> 3
<MEAN> 39
 -5.430852e-001 -1.594061e+001 2.529565e+000 4.783775e-001 -8.745705e+000 -1.245374e+001 -1.442548e+001 5.767930e+000 -3.723831e-001 -2.831997e+000 -3.087831e+000 2.111564e+000 7.924326e+001 1.209444e+000 -2.412036e+000 -9.451789e-002 -7.521032e-001 -1.070082e+000 1.287971e+000 -1.525687e+000 2.995680e-001 1.381513e+000 -8.769475e-001 -3.201053e-001 5.666479e-002 -1.061999e-001 -4.820522e-001 -4.016090e-001 -5.436680e-001 -6.458311e-002 5.511490e-001 2.718261e-001 4.616225e-001 -2.295314e-001 -1.952779e-001 1.209897e-001 -4.301630e-001 1.264964e-001 -2.075562e-001
<VARIANCE> 39
 1.071524e+001 3.672554e+001 2.169994e+001 3.503011e+001 5.563613e+001 7.459396e+001 5.964853e+001 4.935114e+001 8.848605e+001 3.956570e+001 4.413613e+001 3.033487e+001 9.211952e+000 2.300673e+000 1.508000e+000 2.556169e+000 3.740687e+000 4.855191e+000 3.577592e+000 6.144135e+000 5.800184e+000 4.649249e+000 5.644130e+000 4.513969e+000 4.411863e+000 1.657061e+000 5.122868e-001 4.400452e-001 6.330651e-001 9.548054e-001 1.021874e+000 7.998649e-001 1.466592e+000 1.536260e+000 7.950217e-001 9.656297e-001 8.564692e-001 1.134330e+000 4.281621e-001
<GCONST> 1.323547e+002
<STATE> 4
<MEAN> 39
 1.513491e+000 -2.689276e+001 -2.651588e+000 -1.378814e+000 -9.310198e+000 -7.111457e+000 -1.499461e+001 6.556548e+000 -1.391251e+000 -8.153858e+000 -3.705039e+000 3.124938e-001 7.745365e+001 2.352765e-001 -1.639850e+000 -1.393852e+000 -6.059132e-001 1.141484e+000 2.081616e+000 9.474858e-001 5.922557e-001 -1.339530e+000 -1.426553e+000 -3.967742e-003 -2.344347e+000 6.293116e-001 -2.805863e-001 6.554492e-001 -4.425359e-002 -2.364450e-001 1.195994e-001 2.250260e-001 2.635472e-001 2.742606e-001 -3.446952e-001 1.537188e-001 1.153270e-001 -6.361026e-001 1.973898e-001
<VARIANCE> 39
 8.526026e+000 5.208701e+001 1.919264e+001 1.959189e+001 5.212387e+001 1.096914e+002 4.806230e+001 6.067132e+001 9.353596e+001 8.639179e+001 6.257150e+001 3.566016e+001 1.471940e+001 7.100843e-001 2.153414e+000 2.733005e+000 2.073007e+000 1.544111e+000 2.508522e+000 3.668287e+000 6.311517e+000 2.065985e+000 2.792758e+000 3.802821e+000 3.970079e+000 1.581919e+000 1.058915e-001 3.818612e-001 1.755486e-001 3.313359e-001 2.655888e-001 2.618978e-001 6.590486e-001 5.859843e-001 4.581131e-001 7.580038e-001 5.338467e-001 6.285602e-001 3.353000e-001
<GCONST> 1.183981e+002
<STATE> 5
<MEAN> 39
 1.187659e-001 -2.763032e+001 -7.243840e+000 -7.484476e+000 -4.954054e+000 4.480630e+000 -1.432144e+001 1.150243e+001 -2.998877e+000 -9.738360e+000 -6.754483e+000 -1.122902e+001 7.882491e+001 -1.504580e-001 1.086159e+000 -1.218881e+000 -6.146837e-001 9.513516e-001 1.911872e+000 8.498177e-001 5.168397e-001 5.363863e-001 3.717478e-001 -2.362726e-002 -1.472656e+000 -2.368698e-001 5.532227e-002 3.895315e-001 1.651028e-001 3.176490e-001 4.026955e-002 -2.703473e-001 -7.226661e-002 -3.987556e-001 3.604380e-001 3.253879e-001 5.503452e-002 5.197877e-001 -1.152572e-001
<VARIANCE> 39
 5.699872e+000 6.047722e+001 5.878764e+001 4.338680e+001 1.756965e+001 1.689629e+002 6.264565e+001 1.104572e+002 1.095393e+002 8.309020e+001 9.488663e+001 5.648614e+001 1.117225e+001 4.730469e-001 1.542023e+000 1.163249e+000 2.801506e+000 1.093660e+000 1.765077e+000 2.532238e+000 2.419512e+000 3.089695e+000 3.391413e+000 4.012288e+000 3.576092e+000 9.270980e-001 8.215151e-002 2.118733e-001 3.005729e-001 3.770398e-001 3.109455e-001 3.967446e-001 5.067729e-001 4.459274e-001 3.370593e-001 6.448898e-001 7.223409e-001 5.766271e-001 1.005773e-001
<GCONST> 1.160847e+002
<STATE> 6
<MEAN> 39
 1.358689e+000 -1.950348e+001 -6.648493e+000 -7.887908e+000 8.255897e+000 2.047643e+001 -1.362723e+001 1.327478e+001 4.862896e+000 -4.983297e+000 -8.214592e+000 -1.791265e+001 7.737527e+001 2.190027e-001 1.000551e+000 2.168514e-001 1.755388e-001 8.428471e-001 4.696246e-001 -2.402679e-002 -1.165661e+000 -3.804430e-001 1.369223e-001 -6.138913e-002 -8.121981e-002 1.062130e-001 3.257855e-002 -5.644692e-002 1.528026e-001 -1.087121e-002 -1.237005e-001 -1.421714e-001 -2.277624e-001 -1.768726e-001 -1.049352e-001 4.310622e-002 5.623184e-003 2.091330e-001 3.188891e-002
<VARIANCE> 39
 7.843393e+000 3.849537e+001 4.700296e+001 2.913841e+001 3.959749e+001 7.471687e+001 3.185371e+001 1.403356e+002 5.598666e+001 2.081922e+001 3.819937e+001 3.337751e+001 2.985305e+001 4.589103e-001 1.596340e+000 9.126964e-001 2.086309e+000 3.088618e+000 1.717931e+000 2.971558e+000 2.880691e+000 2.177504e+000 1.562799e+000 2.773092e+000 1.988235e+000 6.392607e-001 8.071858e-002 1.963094e-001 9.811381e-002 4.132464e-001 4.442150e-001 2.917765e-001 5.504742e-001 3.241291e-001 4.653001e-001 3.435625e-001 7.447080e-001 3.113472e-001 8.074285e-002
<GCONST> 1.083200e+002
<STATE> 7
<MEAN> 39
 1.967268e+000 -1.256320e+001 -1.203217e+001 -2.976694e+000 -6.920152e-001 -8.287656e-001 -9.125251e+000 -1.303851e+000 -1.225090e+001 -9.709699e+000 4.769836e+000 -7.597740e+000 8.267959e+001 5.947673e-002 5.512570e-001 2.092532e-001 -2.245591e-001 -2.047958e-001 -7.334900e-003 -5.925764e-001 -3.011574e-001 -3.862937e-002 3.788797e-001 1.352100e-001 1.985723e-001 6.441263e-002 2.216235e-002 -1.574693e-002 -3.482847e-002 -6.225559e-002 -1.606922e-002 -1.096797e-001 4.167036e-002 7.046733e-002 4.332164e-002 -1.497304e-002 -1.062535e-001 -6.744666e-002 -1.148182e-001
<VARIANCE> 39
 6.371881e+000 2.695485e+001 2.931124e+001 2.333161e+001 2.407250e+001 5.257565e+001 5.135800e+001 1.837483e+001 2.902101e+001 1.969415e+001 3.414266e+001 1.926760e+001 6.175332e+000 4.570258e-001 6.165899e-001 4.469758e-001 7.681637e-001 1.196384e+000 1.737534e+000 2.096208e+000 2.302132e+000 1.596177e+000 1.614790e+000 1.709990e+000 1.342939e+000 3.046038e-001 5.393501e-002 1.158243e-001 1.215796e-001 1.272051e-001 2.265588e-001 1.969091e-001 3.721842e-001 3.526482e-001 3.410299e-001 2.314744e-001 2.792474e-001 1.877253e-001 5.385753e-002
<GCONST> 8.976751e+001
<STATE> 8
<MEAN> 39
 4.798903e+000 -6.733477e+000 -4.661099e+000 -9.623541e+000 1.026102e+001 1.282172e+001 -1.772043e+001 -3.808222e+000 2.389202e+000 -5.121078e+000 -9.461591e+000 -9.988547e+000 7.755553e+001 2.360568e-001 9.921622e-001 -5.143508e-001 -2.115034e-001 8.284112e-001 -9.853550e-001 1.222582e+000 -6.159719e-001 -3.111060e-001 6.625532e-002 -9.713761e-001 7.075526e-001 -9.133257e-001 -9.313831e-002 -2.989370e-002 -1.341001e-001 1.663262e-001 1.016755e-001 1.555685e-001 4.986399e-001 5.240683e-002 -1.574728e-001 -6.315381e-002 -1.323253e-001 7.584931e-004 -2.257462e-001
<VARIANCE> 39
 5.291586e+000 2.426675e+001 3.266529e+001 1.821694e+001 7.842010e+001 1.210274e+002 5.928056e+001 3.300416e+001 9.333601e+001 4.805336e+001 6.028039e+001 2.124028e+001 1.596234e+001 5.161645e-001 7.659473e-001 1.446042e+000 1.998261e+000 3.154029e+000 3.309039e+000 4.241975e+000 3.740389e+000 4.806494e+000 3.553000e+000 4.097926e+000 3.392512e+000 1.164026e+000 1.096048e-001 1.365286e-001 2.949416e-001 3.530292e-001 6.340356e-001 5.279381e-001 7.612028e-001 7.375087e-001 8.155903e-001 5.969393e-001 6.397452e-001 7.629161e-001 7.192639e-002
<GCONST> 1.166509e+002
<STATE> 9
<MEAN> 39
 2.773275e+000 -2.489472e+000 -1.102040e+001 -3.150670e+000 8.215611e+000 6.494802e+000 2.369692e+000 -3.459193e+000 -6.703839e+000 -4.397349e+000 -1.096301e+001 -7.661376e+000 6.446323e+001 -4.938228e-001 -2.878974e-001 7.124002e-002 1.036051e+000 -8.685452e-001 5.848267e-001 1.367179e+000 1.207670e-002 -4.137432e-002 -2.434753e-001 -8.471866e-002 -4.319908e-001 -1.751440e+000 -9.223540e-002 -1.127138e-001 2.282672e-001 -1.326066e-002 -2.626098e-001 -1.102945e-001 -3.113421e-001 2.542212e-001 2.667164e-001 -7.552160e-002 1.300691e-001 -4.179689e-002 2.098723e-001
<VARIANCE> 39
 9.225295e+000 2.715285e+001 2.446281e+001 2.451864e+001 8.563153e+001 6.210365e+001 5.103456e+001 5.774054e+001 9.762832e+001 4.260612e+001 7.185961e+001 2.400479e+001 2.939908e+001 5.925738e-001 6.061413e-001 2.168578e+000 1.244767e+000 3.723948e+000 4.241362e+000 6.342359e+000 5.268901e+000 4.580763e+000 2.766356e+000 5.112075e+000 2.559633e+000 6.145637e-001 1.052655e-001 1.460497e-001 2.388962e-001 2.898970e-001 6.699281e-001 8.242743e-001 9.743730e-001 1.018090e+000 1.071304e+000 5.778674e-001 6.424621e-001 6.487659e-001 7.942789e-002
<GCONST> 1.188590e+002
<TRANSP> 10
 0.000000e+000 1.000000e+000 0.000000e+000 0.000000e+000 0.000000e+000 0.000000e+000 0.000000e+000 0.000000e+000 0.000000e+000 0.000000e+000
 0.000000e+000 7.646569e-001 2.353432e-001 0.000000e+000 0.000000e+000 0.000000e+000 0.000000e+000 0.000000e+000 0.000000e+000 0.000000e+000
 0.000000e+000 0.000000e+000 7.962797e-001 2.037204e-001 0.000000e+000 0.000000e+000 0.000000e+000 0.000000e+000 0.000000e+000 0.000000e+000
 0.000000e+000 0.000000e+000 0.000000e+000 7.011625e-001 2.988376e-001 0.000000e+000 0.000000e+000 0.000000e+000 0.000000e+000 0.000000e+000
 0.000000e+000 0.000000e+000 0.000000e+000 0.000000e+000 7.751523e-001 2.248477e-001 0.000000e+000 0.000000e+000 0.000000e+000 0.000000e+000
 0.000000e+000 0.000000e+000 0.000000e+000 0.000000e+000 0.000000e+000 8.695109e-001 1.304891e-001 0.000000e+000 0.000000e+000 0.000000e+000
 0.000000e+000 0.000000e+000 0.000000e+000 0.000000e+000 0.000000e+000 0.000000e+000 8.922192e-001 1.077808e-001 0.000000e+000 0.000000e+000
 0.000000e+000 0.000000e+000 0.000000e+000 0.000000e+000 0.000000e+000 0.000000e+000 0.000000e+000 8.616141e-001 1.383859e-001 0.000000e+000
 0.000000e+000 0.000000e+000 0.000000e+000 0.000000e+000 0.000000e+000 0.000000e+000 0.000000e+000 0.000000e+000 8.718483e-001 1.281518e-001
 0.000000e+000 0.000000e+000 0.000000e+000 0.000000e+000 0.000000e+000 0.000000e+000 0.000000e+000 0.000000e+000 0.000000e+000 0.000000e+000
<ENDHMM>
~h "procent"
<BEGINHMM>
<NUMSTATES> 10
<STATE> 2
<MEAN> 39
 -3.040454e+000 -1.045573e+001 -2.823299e+000 7.308387e+000 -4.674883e+000 -5.195595e-001 -1.758284e+001 -5.658736e+000 -1.729552e+000 -2.755862e+000 -1.337387e+000 -3.749109e+000 7.264076e+001 1.124348e+000 -3.318621e-001 3.656060e-001 -9.424403e-001 -1.122787e+000 1.124565e+000 -2.288045e+000 -2.447218e-001 -4.612131e-001 -4.244090e-002 -3.872831e-001 -7.913241e-001 1.641565e+000 -1.661035e-001 -2.674251e-002 1.200667e-001 -5.620253e-001 9.298418e-003 2.363067e-001 1.173817e-001 2.588247e-001 -1.440325e-001 2.763809e-001 1.842964e-001 4.099509e-002 -4.634803e-001
<VARIANCE> 39
 2.580448e+001 4.354781e+001 2.886739e+001 6.892600e+001 5.126747e+001 1.209690e+002 1.257559e+002 1.078355e+002 9.014076e+001 6.714550e+001 8.676337e+001 5.739598e+001 8.564721e+001 2.462432e+000 5.321599e+000 2.775938e+000 8.215803e+000 3.239243e+000 1.411646e+001 1.611720e+001 9.022547e+000 5.869184e+000 6.043887e+000 6.923496e+000 4.671331e+000 9.619547e+000 4.421078e-001 1.158070e+000 5.945957e-001 1.207451e+000 7.196674e-001 3.207525e+000 3.577701e+000 1.814379e+000 9.584330e-001 7.802141e-001 1.399466e+000 9.547800e-001 1.941900e+000
<GCONST> 1.523967e+002
<STATE> 3
<MEAN> 39
 2.056884e+000 -8.580528e+000 1.891629e+000 -1.395879e+001 -7.323063e+000 5.721879e+000 -2.770834e+001 -6.514834e+000 -1.109291e+001 2.815776e+000 -3.036653e-001 -7.307655e+000 7.687090e+001 3.460722e-001 1.093126e+000 -1.752905e-001 -1.599687e+000 8.287818e-001 -1.020031e+000 2.056070e+000 -5.694845e-001 -1.371344e-001 1.748084e-001 -3.370487e-003 -3.581790e-001 -1.376349e+000 -4.164758e-002 -1.122340e-001 -4.053089e-001 7.310348e-001 9.670302e-002 -3.393335e-001 8.375450e-001 -2.473135e-001 3.634871e-001 -2.355929e-001 -2.706702e-001 -1.454119e-002 -5.229926e-001
<VARIANCE> 39
 7.514179e+000 3.233962e+001 1.818116e+001 3.380514e+001 3.668299e+001 9.805006e+001 1.136180e+002 6.259144e+001 5.301216e+001 8.176427e+001 8.967559e+001 9.308232e+001 2.136488e+001 6.620743e-001 2.359804e+000 2.752330e+000 6.877728e+000 3.458284e+000 2.723183e+000 9.453880e+000 5.828248e+000 3.956243e+000 5.934678e+000 6.774134e+000 4.258015e+000 3.488637e+000 1.681607e-001 6.341221e-001 3.101143e-001 4.179302e-001 7.082479e-001 7.335563e-001 1.497695e+000 9.112539e-001 7.313583e-001 9.242380e-001 9.421951e-001 7.902637e-001 3.250106e-001
<GCONST> 1.320847e+002
<STATE> 4
<MEAN> 39
 2.351197e+000 -6.789253e+000 -4.754254e+000 -1.277437e+001 -2.888581e+000 -2.748348e+000 -1.034309e+001 -1.042555e+001 -7.044233e+000 1.053344e+000 -4.636475e+000 -9.495121e+000 6.474615e+001 -2.498448e+000 1.185159e+000 -2.017146e+000 1.495595e+000 1.585247e+000 -2.990894e+000 2.875896e+000 6.870673e-001 7.669488e-001 -5.905382e-001 -8.200946e-001 1.084783e+000 -7.140879e-002 -1.279069e+000 9.977128e-001 -2.175463e-001 4.488176e-001 4.670601e-001 -5.263403e-001 -1.319431e-001 5.284212e-001 -3.583291e-002 2.695588e-002 1.901153e-002 5.361047e-001 1.007731e+000
<VARIANCE> 39
 1.974434e+001 1.102394e+001 2.169683e+001 5.391319e+001 4.179892e+001 6.641235e+001 4.422023e+001 5.704737e+001 4.727679e+001 3.277336e+001 5.676348e+001 5.560931e+001 5.050663e+000 5.845619e+000 3.797686e+000 1.831366e+000 3.769793e+000 6.832106e+000 5.758066e+000 3.845031e+000 4.574641e+000 3.628477e+000 5.571225e+000 4.955165e+000 5.652055e+000 3.215401e+000 2.966346e-001 2.995891e-001 2.551747e-001 7.758405e-001 8.065045e-001 7.833265e-001 1.039661e+000 9.787740e-001 6.975494e-001 9.839294e-001 1.103426e+000 8.239726e-001 1.003254e-001
<GCONST> 1.287345e+002
<STATE> 5
<MEAN> 39
 -1.940175e+001 8.457047e+000 -1.392734e+001 -2.226206e+000 6.473982e+000 -1.620697e+001 3.047879e-001 -2.885566e+000 -4.790080e+000 -2.037989e-002 -5.281707e+000 -1.846960e+000 7.229108e+001 -4.719013e+000 2.706847e+000 -4.599093e-001 1.913449e+000 1.141203e+000 -1.750044e+000 2.803937e-001 1.855943e+000 3.365932e-001 -3.100369e-001 1.727262e-001 1.443992e+000 1.845825e+000 9.308107e-001 -1.370504e+000 9.921889e-001 -4.178136e-001 -6.784035e-001 7.489730e-001 -9.742153e-001 -1.709572e-001 1.028456e-001 -2.194687e-001 5.434419e-003 -4.902070e-002 -2.679342e-001
<VARIANCE> 39
 4.523699e+001 3.618119e+001 5.425755e+001 2.417057e+001 8.737673e+001 5.113126e+001 5.433658e+001 5.069166e+001 4.035626e+001 6.352549e+001 6.541039e+001 3.184694e+001 5.905220e+000 3.252465e+000 6.604786e+000 6.416405e+000 4.498613e+000 4.482781e+000 3.513278e+000 5.773221e+000 4.628761e+000 3.133947e+000 5.215016e+000 4.163042e+000 3.833924e+000 3.158201e-001 6.234391e-001 1.205086e+000 5.707870e-001 5.719886e-001 6.679236e-001 7.057768e-001 6.958722e-001 5.748095e-001 7.894652e-001 1.867176e+000 9.062160e-001 6.261685e-001 8.626058e-002
<GCONST> 1.310296e+002
<STATE> 6
<MEAN> 39
 -2.612904e+001 9.908438e-001 -7.335831e+000 2.213412e+000 5.143190e+000 -1.873772e+001 -5.176733e+000 1.042386e+000 -1.769584e+000 -5.502394e+000 -8.022951e+000 3.633628e+000 7.547823e+001 1.663015e+000 -2.717498e+000 1.398582e+000 1.003800e+000 -1.588862e-001 8.444756e-001 -1.202152e+000 2.141726e-001 5.978974e-001 -5.305951e-001 -1.165409e+000 1.799096e-001 -3.739310e-001 1.289640e+000 1.323618e-001 -1.612291e-003 -1.608672e-001 4.842956e-002 5.877802e-001 -1.272187e-001 -1.924437e-001 -2.854123e-001 3.939075e-001 -1.343364e-001 -6.656265e-001 -1.029701e-001
<VARIANCE> 39
 1.273750e+001 3.778773e+001 4.207829e+001 3.917157e+001 6.542209e+001 6.606986e+001 6.033251e+001 7.058221e+001 6.819402e+001 3.394347e+001 5.663516e+001 4.617163e+001 7.552199e+000 4.890450e+000 2.256774e+000 2.789934e+000 1.773511e+000 1.594170e+000 3.495133e+000 2.249450e+000 1.821162e+000 4.180154e+000 7.051282e+000 3.871081e+000 3.527845e+000 8.324592e-001 2.537068e-001 1.001509e+000 4.571565e-001 3.838283e-001 3.210728e-001 6.156981e-001 5.882288e-001 4.139516e-001 7.121861e-001 1.136386e+000 9.189569e-001 6.586514e-001 3.907265e-001
<GCONST> 1.247723e+002
<STATE> 7
<MEAN> 39
 -7.557591e+000 -4.621261e+000 -1.180751e+000 4.959642e+000 5.680275e+000 -8.257998e+000 -1.275344e+001 1.431116e+000 -1.275819e+000 -2.141315e+000 -1.441029e+001 -3.325353e+000 7.582883e+001 4.948703e+000 -1.054993e+000 1.909207e+000 -1.583968e+000 -1.820165e+000 2.942634e+000 -3.760458e+000 1.124699e+000 -3.846217e-001 6.517981e-001 -1.656639e-001 -2.918404e+000 2.231777e+000 -6.868597e-001 -2.620129e-001 -1.458803e-001 -6.094694e-001 -7.425568e-001 -2.426405e-003 -3.073237e-001 5.033576e-001 7.095911e-002 -3.632396e-001 6.115291e-001 6.094846e-002 4.804202e-001
<VARIANCE> 39
 5.810091e+001 2.220382e+001 3.636055e+001 3.579110e+001 3.301551e+001 7.647695e+001 6.299736e+001 1.087266e+002 6.335344e+001 5.708868e+001 7.721486e+001 2.698786e+001 2.140756e+001 3.187950e+000 2.735769e+000 2.211598e+000 2.712840e+000 2.471243e+000 2.239338e+000 7.288379e+000 5.556167e+000 6.727878e+000 5.999389e+000 6.166096e+000 3.216812e+000 1.488313e+000 8.580717e-001 3.795156e-001 7.797894e-001 3.460475e-001 3.214817e-001 4.773980e-001 1.465713e+000 7.425051e-001 1.233744e+000 1.068127e+000 3.148326e-001 8.382589e-001 5.627905e-001
<GCONST> 1.321759e+002
<STATE> 8
<MEAN> 39
 1.256745e+000 -1.047768e+001 2.016567e+000 -2.237057e+000 -5.345389e+000 1.505796e-002 -2.363262e+001 1.001946e+001 -4.277277e+000 -7.633260e+000 -6.366179e+000 -1.272925e+001 8.205166e+001 5.068639e-001 9.423165e-002 1.304943e-002 3.935263e-002 -5.685034e-001 4.495465e-001 5.255134e-001 -2.106627e-001 -2.946549e-001 -3.927242e-001 2.561574e-001 -5.675498e-001 -5.409197e-001 -2.029187e-001 3.236165e-001 -4.712072e-002 3.774540e-001 2.308984e-001 -3.792903e-001 6.739170e-001 -5.472010e-001 -8.683573e-003 1.176122e-001 -1.682449e-001 2.784450e-001 -4.569690e-001
<VARIANCE> 39
 7.680597e+000 2.085212e+001 2.291593e+001 1.863139e+001 6.359996e+001 5.001764e+001 4.007856e+001 8.471969e+001 1.663636e+002 7.259557e+001 1.928356e+002 3.852772e+001 1.794125e+001 6.358505e-001 2.067180e+000 2.105649e+000 2.594486e+000 2.723619e+000 3.564125e+000 3.665833e+000 5.006945e+000 2.601788e+000 3.356274e+000 2.884665e+000 1.452682e+000 1.570567e+000 3.004633e-001 2.597294e-001 3.891096e-001 4.179916e-001 5.557233e-001 4.140674e-001 3.510948e-001 5.753882e-001 5.928046e-001 6.292354e-001 5.431261e-001 3.886247e-001 1.245913e-001
<GCONST> 1.193503e+002
<STATE> 9
<MEAN> 39
 5.827641e+000 -2.496800e+000 6.205593e+000 7.481913e+000 -3.750906e+000 -3.184666e+000 -7.457000e+000 -8.892586e+000 -5.071277e+000 -2.624774e+000 -9.826299e+000 -9.160480e+000 6.672795e+001 -2.041449e-002 2.637644e-001 1.314829e-001 6.866096e-001 1.655164e-001 -2.082995e-001 9.703459e-001 -9.316642e-001 -2.078328e-001 2.417753e-001 3.541976e-001 4.188132e-001 -9.884609e-001 -1.252466e-001 -1.099762e-001 -9.943348e-002 -1.236002e-001 8.833100e-002 5.335555e-002 -1.671760e-001 1.935628e-001 9.436422e-003 -8.513305e-002 4.096979e-002 -3.359060e-003 6.736447e-002
<VARIANCE> 39
 1.084646e+001 2.017662e+001 1.574621e+001 2.635307e+001 8.001997e+001 6.397551e+001 6.762383e+001 8.478757e+001 5.705441e+001 7.596017e+001 8.546771e+001 3.688673e+001 4.389937e+001 8.525605e-001 1.518548e+000 9.253790e-001 1.145598e+000 2.226201e+000 2.639542e+000 4.139102e+000 5.228514e+000 3.915936e+000 4.309387e+000 3.194057e+000 3.368696e+000 3.482247e-001 7.933748e-002 1.751980e-001 1.343570e-001 2.236400e-001 4.001044e-001 4.026715e-001 7.327895e-001 7.227991e-001 7.099379e-001 8.188493e-001 4.527486e-001 6.176283e-001 4.480833e-002
<GCONST> 1.146455e+002
<TRANSP> 10
 0.000000e+000 1.000000e+000 0.000000e+000 0.000000e+000 0.000000e+000 0.000000e+000 0.000000e+000 0.000000e+000 0.000000e+000 0.000000e+000
 0.000000e+000 8.987772e-001 1.012229e-001 0.000000e+000 0.000000e+000 0.000000e+000 0.000000e+000 0.000000e+000 0.000000e+000 0.000000e+000
 0.000000e+000 0.000000e+000 8.597186e-001 1.402814e-001 0.000000e+000 0.000000e+000 0.000000e+000 0.000000e+000 0.000000e+000 0.000000e+000
 0.000000e+000 0.000000e+000 0.000000e+000 7.802212e-001 2.197788e-001 0.000000e+000 0.000000e+000 0.000000e+000 0.000000e+000 0.000000e+000
 0.000000e+000 0.000000e+000 0.000000e+000 0.000000e+000 7.542939e-001 2.457061e-001 0.000000e+000 0.000000e+000 0.000000e+000 0.000000e+000
 0.000000e+000 0.000000e+000 0.000000e+000 0.000000e+000 0.000000e+000 8.115879e-001 1.884121e-001 0.000000e+000 0.000000e+000 0.000000e+000
 0.000000e+000 0.000000e+000 0.000000e+000 0.000000e+000 0.000000e+000 0.000000e+000 7.069703e-001 2.930297e-001 0.000000e+000 0.000000e+000
 0.000000e+000 0.000000e+000 0.000000e+000 0.000000e+000 0.000000e+000 0.000000e+000 0.000000e+000 8.850175e-001 1.149826e-001 0.000000e+000
 0.000000e+000 0.000000e+000 0.000000e+000 0.000000e+000 0.000000e+000 0.000000e+000 0.000000e+000 0.000000e+000 9.327917e-001 6.720839e-002
 0.000000e+000 0.000000e+000 0.000000e+000 0.000000e+000 0.000000e+000 0.000000e+000 0.000000e+000 0.000000e+000 0.000000e+000 0.000000e+000
<ENDHMM>
~h "dva"
<BEGINHMM>
<NUMSTATES> 10
<STATE> 2
<MEAN> 39
 -6.851933e-002 -1.140011e+000 7.264246e+000 9.690886e+000 -3.042683e+000 -5.017253e+000 -9.368611e+000 -3.108366e+000 -3.610713e-001 -3.047244e+000 -4.777990e+000 -1.645908e+000 6.378834e+001 -3.762885e-001 -9.057040e-001 -4.052769e-001 -1.923557e-001 3.551342e-001 -1.962506e-001 -4.945555e-001 8.049849e-002 -7.884411e-002 -2.607488e-001 4.630162e-002 3.099101e-001 1.478458e+000 -1.706813e-001 -5.435552e-002 -1.250455e-001 -9.663390e-002 9.350975e-002 1.836732e-001 -3.639321e-002 -7.874825e-002 -4.402746e-002 7.985978e-004 -6.263807e-002 -1.471612e-001 -2.245962e-001
<VARIANCE> 39
 6.329553e+001 6.276516e+001 2.898885e+001 2.628692e+001 5.496906e+001 2.793098e+001 3.976173e+001 1.080552e+002 7.580653e+001 3.279595e+001 4.017377e+001 3.982297e+001 7.066686e+001 8.544591e+000 3.976093e+000 3.328005e+000 4.355744e+000 7.047733e+000 4.217561e+000 6.545282e+000 9.450065e+000 6.188626e+000 4.468537e+000 2.648349e+000 5.553219e+000 7.965485e+000 1.746613e+000 8.662943e-001 5.456899e-001 7.850625e-001 1.287309e+000 9.629352e-001 1.360329e+000 1.680833e+000 1.050223e+000 8.843840e-001 6.111853e-001 1.512249e+000 2.152107e+000
<GCONST> 1.447780e+002
<STATE> 3
<MEAN> 39
 -7.302632e+000 -6.698952e+000 -1.237480e+000 5.174668e+000 -1.246651e-001 -4.829499e+000 -1.434949e+001 -7.350262e+000 -7.121072e+000 -6.409068e+000 -1.664191e+000 -3.500913e+000 7.361388e+001 1.167849e+000 9.048265e-002 -7.309376e-001 -3.520630e-001 -2.421150e-001 7.237827e-001 -4.492160e-001 -4.562707e-001 -4.528531e-001 1.423545e+000 1.206730e+000 -1.495614e+000 -3.124218e-001 3.552847e-001 -9.733818e-002 -5.147921e-002 -3.069615e-001 8.463246e-002 8.579102e-002 3.187074e-001 4.825985e-002 -2.270137e-001 5.172009e-001 5.188685e-001 -1.775324e-001 -3.371666e-001
<VARIANCE> 39
 5.384234e+001 3.421828e+001 3.730276e+001 3.278903e+001 3.732600e+001 3.648814e+001 9.843182e+001 4.208020e+001 2.262797e+002 6.279646e+001 4.197745e+001 3.951942e+001 1.284881e+001 3.418653e+000 2.450607e+000 1.014927e+000 3.830418e+000 4.865259e+000 3.156520e+000 4.522281e+000 1.904708e+000 4.327381e+000 6.404771e+000 2.199836e+000 6.072180e+000 2.154727e+000 6.557316e-001 5.684029e-001 1.915952e-001 7.360520e-001 1.300380e+000 4.377665e-001 1.094342e+000 4.907287e-001 8.581939e-001 8.387159e-001 3.802249e-001 1.559766e+000 9.079132e-001
<GCONST> 1.313510e+002
<STATE> 4
<MEAN> 39
 3.999426e+000 -8.026278e+000 8.005848e-001 6.201131e+000 4.122610e+000 3.937032e+000 -1.694145e+001 -1.310564e+001 -7.530206e-001 5.885789e+000 -1.705705e+000 -7.993244e+000 6.914539e+001 1.003345e+000 6.262432e-002 -9.864813e-001 -1.242885e+000 7.728960e-001 1.435431e+000 -1.939815e-001 -3.395340e-001 -1.256592e+000 5.462863e-001 1.698187e+000 -8.870792e-001 -5.697198e-002 -2.137852e-001 -2.588030e-001 7.055704e-003 -5.112280e-001 -3.370246e-001 2.023242e-001 -2.633182e-001 1.287764e-001 1.559940e-001 -5.805097e-001 -2.835365e-002 -1.254687e-001 6.645981e-001
<VARIANCE> 39
 2.385085e+001 1.831909e+001 4.299049e+001 4.486045e+001 3.646998e+001 3.394827e+001 3.706869e+001 4.645113e+001 9.675891e+001 2.081357e+001 4.581315e+001 3.005044e+001 2.460848e+001 1.941627e+000 2.268348e+000 7.108586e-001 4.877626e+000 5.302114e+000 2.156874e+000 3.310651e+000 3.284495e+000 3.147642e+000 3.157630e+000 3.033405e+000 3.720427e+000 4.383152e+000 7.304173e-002 3.709370e-001 2.069024e-001 5.621420e-001 5.618988e-001 5.464210e-001 3.171774e-001 8.737166e-001 7.605518e-001 6.929243e-001 3.170191e-001 7.422253e-001 2.657021e-001
<GCONST> 1.200423e+002
<STATE> 5
<MEAN> 39
 3.808880e+000 -9.117066e+000 -4.839423e+000 -6.226656e+000 1.030037e+000 4.702123e+000 -1.649427e+001 -8.610160e+000 -1.124283e+001 1.300691e+000 1.015963e+001 -1.354806e+001 7.606018e+001 1.157244e+000 -1.263118e+000 -5.354383e-001 -3.011045e+000 -1.379067e+000 1.502578e+000 -9.955505e-001 5.803120e-001 -3.233409e-001 -2.963260e-001 1.466866e+000 -3.065197e+000 2.303933e+000 -5.149639e-001 1.014172e-001 1.417349e-001 3.805347e-001 1.396989e-001 -1.746061e-001 3.635713e-001 3.541984e-001 1.870318e-001 -8.950333e-002 -8.588714e-001 2.849281e-001 -4.069457e-002
<VARIANCE> 39
 1.081626e+001 1.994771e+001 4.001507e+001 5.443171e+001 7.090373e+001 1.040355e+002 5.820981e+001 4.673923e+001 1.172234e+002 2.485682e+001 9.835526e+001 3.320202e+001 1.189374e+001 2.129799e+000 1.128013e+000 1.581628e+000 2.702550e+000 3.141551e+000 1.999269e+000 3.053688e+000 2.827376e+000 4.001296e+000 3.170704e+000 3.710744e+000 3.275997e+000 6.311489e-001 2.609450e-001 2.008239e-001 2.443354e-001 8.152805e-001 9.574757e-001 2.830721e-001 7.326679e-001 3.854235e-001 5.057086e-001 8.161561e-001 8.705410e-001 1.342098e+000 1.820233e-001
<GCONST> 1.214321e+002
<STATE> 6
<MEAN> 39
 4.613380e+000 -1.293931e+001 -4.607712e+000 -9.532520e+000 -3.800824e-001 1.529710e+001 -1.997070e+001 -8.320703e+000 -3.650264e+000 3.521480e+000 2.694560e+000 -2.163044e+001 8.155899e+001 -3.344153e-001 -6.368678e-001 -2.985812e-001 -2.052697e+000 -7.522243e-002 1.063257e+000 3.496048e-001 1.801349e+000 2.835552e-001 -1.281848e+000 -1.264690e+000 -1.727445e+000 1.229041e+000 -1.320175e-001 1.249962e-001 2.268286e-001 3.492046e-001 3.730611e-001 -1.803079e-001 3.419026e-001 3.164076e-002 -4.254786e-002 -1.889301e-001 -4.850861e-001 7.119242e-001 -5.044266e-001
<VARIANCE> 39
 4.114465e+000 1.598755e+001 2.210927e+001 2.179781e+001 3.020984e+001 8.826388e+001 3.385196e+001 4.382326e+001 5.951871e+001 4.885023e+001 7.736278e+001 2.335818e+001 3.801723e+000 4.569172e-001 4.012941e-001 1.012962e+000 1.673679e+000 2.629702e+000 5.796193e-001 1.989182e+000 2.002979e+000 1.069969e+000 2.297877e+000 2.716066e+000 3.516663e+000 8.028578e-001 9.644812e-002 8.265360e-002 1.707651e-001 1.973002e-001 4.576945e-001 1.530719e-001 3.078054e-001 3.215420e-001 3.312048e-001 5.815192e-001 4.640453e-001 5.256435e-001 2.333235e-002
<GCONST> 9.760449e+001
<STATE> 7
<MEAN> 39
 3.288194e+000 -1.244324e+001 -6.938769e+000 -1.461456e+001 -3.105930e+000 7.122859e+000 -1.285965e+001 3.267080e-001 -1.446099e+001 -2.471088e+000 9.220008e+000 -1.583607e+001 8.228066e+001 -1.487987e-001 -2.039785e-001 5.404415e-001 5.952020e-002 1.158851e-001 8.685449e-001 2.739917e-001 8.673686e-001 -2.995740e-001 -9.249462e-002 -9.191308e-001 9.184214e-001 -4.436022e-002 -2.841571e-002 1.953220e-001 -1.458045e-002 3.303024e-001 1.610631e-002 -4.539210e-002 -4.893114e-002 -7.536674e-002 -1.092416e-001 8.473463e-002 2.266812e-002 1.416168e-001 -1.564237e-001
<VARIANCE> 39
 1.965106e+000 6.526147e+000 1.577531e+001 8.175903e+000 1.284016e+001 7.969485e+001 2.816532e+001 2.437705e+001 6.945327e+001 1.903201e+001 8.804493e+001 3.789557e+001 3.673388e+000 2.893890e-001 4.954988e-001 4.416789e-001 9.124593e-001 7.513478e-001 9.324334e-001 1.665288e+000 1.510406e+000 7.207157e-001 1.226277e+000 1.469197e+000 7.776827e-001 3.539338e-001 4.858749e-002 9.408469e-002 1.118243e-001 1.016598e-001 1.575032e-001 1.540068e-001 2.417176e-001 3.051441e-001 1.161628e-001 2.300089e-001 2.153471e-001 2.078410e-001 6.415688e-002
<GCONST> 8.017172e+001
<STATE> 8
<MEAN> 39
 4.336616e+000 -1.135628e+001 -3.976569e+000 -1.173252e+001 4.324392e+000 2.003186e+001 -1.521230e+001 2.462909e-001 -4.061397e+000 -7.801453e+000 -5.716997e+000 -1.613682e+001 7.941593e+001 4.402165e-001 9.739967e-001 -2.506211e-001 9.094881e-001 9.169189e-001 2.666056e-003 8.677275e-001 -5.607878e-002 3.272243e-001 -8.599029e-001 -7.850541e-001 8.427387e-001 -1.261212e+000 8.833868e-002 1.774982e-003 -1.649174e-001 8.482382e-002 4.915471e-002 -1.160125e-001 4.221408e-001 -2.015835e-001 1.341727e-001 8.718701e-002 -1.738780e-001 2.915890e-003 -2.857749e-001
<VARIANCE> 39
 8.033772e+000 1.486103e+001 9.189817e+000 1.637390e+001 3.819309e+001 5.639162e+001 3.208049e+001 3.715179e+001 1.135814e+002 6.535451e+001 1.054257e+002 3.891829e+001 1.327814e+001 4.344105e-001 5.114420e-001 9.249702e-001 1.073875e+000 2.376133e+000 1.061807e+000 4.901673e+000 2.160806e+000 1.589308e+000 3.115548e+000 3.456424e+000 1.816801e+000 1.090157e+000 6.611352e-002 1.485725e-001 2.305003e-001 2.444751e-001 5.478948e-001 1.943289e-001 8.369582e-001 4.639439e-001 3.452100e-001 4.511277e-001 6.838307e-001 4.371251e-001 1.057304e-001
<GCONST> 1.053483e+002
<STATE> 9
<MEAN> 39
 3.878901e+000 -6.552445e+000 -9.206352e+000 -4.204606e+000 5.981724e+000 1.043006e+001 2.195905e+000 -1.405288e+000 -5.655813e+000 -7.009618e+000 -1.086808e+001 -7.557119e+000 6.200019e+001 -5.952165e-001 -8.389568e-002 -2.994502e-001 5.417802e-001 -2.758546e-001 -9.182252e-001 1.135652e+000 -4.180644e-001 2.195971e-001 1.179812e-001 -3.426112e-001 2.835576e-001 -1.428698e+000 -1.005171e-001 -5.599491e-002 1.282839e-001 -2.889272e-002 -9.661640e-002 -2.055314e-002 -3.004217e-001 -2.224745e-002 -2.770835e-002 -1.507923e-002 2.211517e-001 -5.123451e-002 1.557676e-001
<VARIANCE> 39
 2.035441e+001 2.539890e+001 1.458270e+001 2.343059e+001 4.543496e+001 7.186867e+001 4.121046e+001 3.693771e+001 1.032225e+002 4.289690e+001 7.912517e+001 5.583398e+001 3.420524e+001 5.302373e-001 1.041412e+000 1.687481e+000 1.818052e+000 3.370661e+000 2.167490e+000 3.940604e+000 4.353506e+000 2.871546e+000 3.538749e+000 4.895938e+000 2.369447e+000 4.389860e-001 7.952999e-002 2.145681e-001 2.869355e-001 4.163841e-001 6.405213e-001 4.684314e-001 7.232649e-001 8.984470e-001 4.939096e-001 6.338667e-001 7.362028e-001 4.696035e-001 2.575980e-002
<GCONST> 1.150915e+002
<TRANSP> 10
 0.000000e+000 1.000000e+000 0.000000e+000 0.000000e+000 0.000000e+000 0.000000e+000 0.000000e+000 0.000000e+000 0.000000e+000 0.000000e+000
 0.000000e+000 8.904077e-001 1.095923e-001 0.000000e+000 0.000000e+000 0.000000e+000 0.000000e+000 0.000000e+000 0.000000e+000 0.000000e+000
 0.000000e+000 0.000000e+000 7.758846e-001 2.241154e-001 0.000000e+000 0.000000e+000 0.000000e+000 0.000000e+000 0.000000e+000 0.000000e+000
 0.000000e+000 0.000000e+000 0.000000e+000 7.242054e-001 2.757946e-001 0.000000e+000 0.000000e+000 0.000000e+000 0.000000e+000 0.000000e+000
 0.000000e+000 0.000000e+000 0.000000e+000 0.000000e+000 5.708749e-001 4.291251e-001 0.000000e+000 0.000000e+000 0.000000e+000 0.000000e+000
 0.000000e+000 0.000000e+000 0.000000e+000 0.000000e+000 0.000000e+000 6.835631e-001 3.164369e-001 0.000000e+000 0.000000e+000 0.000000e+000
 0.000000e+000 0.000000e+000 0.000000e+000 0.000000e+000 0.000000e+000 0.000000e+000 8.343406e-001 1.656594e-001 0.000000e+000 0.000000e+000
 0.000000e+000 0.000000e+000 0.000000e+000 0.000000e+000 0.000000e+000 0.000000e+000 0.000000e+000 8.626258e-001 1.373742e-001 0.000000e+000
 0.000000e+000 0.000000e+000 0.000000e+000 0.000000e+000 0.000000e+000 0.000000e+000 0.000000e+000 0.000000e+000 9.172647e-001 8.273533e-002
 0.000000e+000 0.000000e+000 0.000000e+000 0.000000e+000 0.000000e+000 0.000000e+000 0.000000e+000 0.000000e+000 0.000000e+000 0.000000e+000
<ENDHMM>
~h "rovnase"
<BEGINHMM>
<NUMSTATES> 10
<STATE> 2
<MEAN> 39
 -5.773622e-001 -1.598487e+001 -6.989905e+000 1.350263e+000 -5.974112e+000 2.601854e+000 -2.084337e+001 -8.099463e+000 -8.887651e-001 3.956383e+000 1.452928e+000 -1.888506e-001 7.431964e+001 5.446354e-001 -2.838342e-002 -4.096807e-001 -4.798796e-001 -5.802432e-001 -1.762291e-001 6.609983e-002 -7.267916e-001 -6.915276e-001 3.800532e-001 2.431066e-001 9.063679e-001 5.112088e-001 -1.820493e-001 2.781290e-001 -1.461601e-004 1.423358e-001 1.479498e-001 -1.124927e-001 5.034191e-001 -5.097356e-002 -8.308940e-002 -5.365097e-002 -1.164753e-001 6.210557e-002 -3.032504e-001
<VARIANCE> 39
 3.667694e+001 2.962646e+001 3.905190e+001 7.048195e+001 7.186855e+001 7.773621e+001 6.375519e+001 8.444077e+001 1.441655e+002 8.900101e+001 8.689040e+001 8.484041e+001 1.584680e+001 2.951684e+000 4.284268e+000 2.398216e+000 6.869240e+000 5.781129e+000 7.235870e+000 8.913157e+000 6.201231e+000 6.451101e+000 5.946784e+000 6.531476e+000 3.671486e+000 1.456672e+000 6.186717e-001 4.177229e-001 4.610305e-001 1.199956e+000 1.304956e+000 1.586901e+000 1.820851e+000 1.416203e+000 1.268811e+000 9.817621e-001 1.073088e+000 8.024319e-001 3.700312e-001
<GCONST> 1.440271e+002
<STATE> 3
<MEAN> 39
 1.232258e+000 -2.839830e+000 -5.162169e+000 3.243447e+000 -1.360951e+000 -3.327432e+000 -1.035867e+001 -1.168093e+001 -4.194117e+000 1.094388e+000 -3.019716e-001 3.353953e+000 7.269109e+001 8.424213e-002 5.273179e-001 1.079582e+000 1.541639e+000 4.151531e-001 -4.019846e-001 -3.972546e-001 -6.448448e-001 8.841228e-001 -3.239370e-001 -9.178985e-001 -4.175414e-001 -2.506714e-001 6.975376e-002 -4.562760e-001 2.272843e-001 -1.035077e-001 -2.996219e-001 3.801606e-001 -5.880926e-001 1.738970e-001 9.743628e-003 3.468338e-002 3.431004e-002 -1.147269e-001 2.177967e-001
<VARIANCE> 39
 2.333707e+001 1.434769e+001 2.793431e+001 4.676111e+001 7.074137e+001 2.583169e+001 7.325851e+001 4.951944e+001 8.485525e+001 7.105186e+001 4.794168e+001 3.568795e+001 1.131017e+001 3.562438e+000 2.817383e+000 3.629989e+000 2.387224e+000 5.054997e+000 4.142491e+000 1.345878e+001 1.032781e+001 6.045131e+000 5.614137e+000 2.571671e+000 2.975998e+000 9.364831e-001 6.490306e-001 2.780457e-001 4.584091e-001 7.522653e-001 6.874455e-001 8.024741e-001 1.614620e+000 2.351368e+000 1.512852e+000 1.105153e+000 6.258413e-001 4.762969e-001 2.071488e-001
<GCONST> 1.325750e+002
<STATE> 4
<MEAN> 39
 4.157987e+000 -1.023601e+001 7.823148e+000 5.492246e+000 -3.473996e+000 7.149275e+000 -2.682695e+001 -9.651567e+000 4.475720e+000 -1.778260e+000 -8.386166e+000 -3.243806e+000 7.821924e+001 -6.902931e-001 -1.915846e+000 -3.195832e-001 -3.416100e+000 1.130883e-001 2.413082e+000 -2.021515e+000 5.792162e+000 1.064272e+000 -1.910909e+000 3.010277e-001 -1.649083e+000 2.520151e+000 -1.678622e-001 2.513672e-001 -8.474998e-001 -2.528977e-001 4.839559e-001 -3.377330e-001 5.389651e-001 6.089375e-001 -2.845098e-001 -1.248791e-001 4.443348e-001 6.634125e-003 -3.595127e-002
<VARIANCE> 39
 8.019682e+000 2.999625e+001 2.558919e+001 8.287933e+001 2.616278e+001 9.819970e+001 3.081444e+001 2.335943e+002 1.001229e+002 3.824232e+001 4.921816e+001 3.504449e+001 2.446648e+001 4.345020e-001 2.408415e+000 3.442287e+000 4.377001e+000 4.061282e+000 3.563144e+000 2.315928e+000 1.403368e+001 9.169205e+000 2.050622e+000 3.629530e+000 3.726942e+000 9.225089e-001 1.426156e-001 5.593448e-001 3.266673e-001 1.793043e+000 4.911890e-001 7.560998e-001 6.495355e-001 6.674996e+000 9.076997e-001 5.588337e-001 4.554129e-001 5.757921e-001 4.223838e-001
<GCONST> 1.293562e+002
<STATE> 5
<MEAN> 39
 4.932398e-001 -1.153683e+001 -1.903563e+000 -6.985884e+000 -4.215704e+000 5.496995e+000 -2.344025e+001 9.300121e+000 -1.124952e+001 -8.308915e+000 3.672113e+000 -8.635258e+000 8.530695e+001 -3.631011e-002 1.800586e-001 -4.840857e-001 -3.188246e-001 1.572781e-001 4.751943e-001 5.423501e-001 1.817713e-001 -4.287218e-001 -1.445105e-001 2.677903e-001 -2.411280e-001 9.023533e-002 5.611078e-002 1.948833e-001 1.454351e-001 4.084440e-001 -4.018611e-002 -2.194557e-001 2.760389e-001 -6.668666e-001 1.396370e-001 1.961015e-001 -2.101165e-001 9.039656e-002 -2.997574e-001
<VARIANCE> 39
 4.127070e+000 7.239355e+000 1.448464e+001 1.245018e+001 1.267092e+001 4.322715e+001 3.265535e+001 7.918911e+000 1.565352e+002 1.145415e+001 5.041865e+001 1.384914e+001 2.591777e+000 3.372350e-001 7.327394e-001 9.166435e-001 8.323931e-001 4.944888e-001 1.524711e+000 9.341170e-001 1.665038e+000 1.342342e+000 2.366379e+000 1.803078e+000 1.520466e+000 3.794821e-001 5.606542e-002 1.628934e-001 1.132881e-001 2.907588e-001 1.692834e-001 1.960127e-001 2.952206e-001 1.103218e+000 2.549435e-001 2.534738e-001 1.667098e-001 3.507080e-001 1.153555e-001
<GCONST> 8.643414e+001
<STATE> 6
<MEAN> 39
 1.374709e+000 -9.965973e+000 -1.335868e+000 -3.057408e+000 3.652216e+000 1.196868e+001 -2.459909e+001 6.035086e+000 6.482570e+000 -1.115624e+001 -3.893972e+000 -1.077771e+001 8.318610e+001 -4.764573e-002 4.270711e-001 -5.363860e-001 1.508231e-001 1.061710e+000 -1.625817e-001 1.095587e+000 -1.441337e-001 -8.927873e-001 4.366764e-001 -5.313008e-001 -2.280588e-001 -4.020835e-001 5.203190e-003 5.830987e-002 7.299795e-002 -1.309802e-002 1.569215e-001 -1.412116e-001 2.290268e-001 -2.918823e-002 -1.027268e-001 3.587994e-001 -3.254076e-001 1.769400e-001 -1.314354e-001
<VARIANCE> 39
 3.487296e+000 9.106411e+000 1.300002e+001 1.259469e+001 4.045888e+001 6.682782e+001 2.832845e+001 4.305073e+001 2.131560e+002 2.276891e+001 3.775186e+001 1.320426e+001 3.769370e+000 1.509931e-001 4.701639e-001 1.176768e+000 1.022505e+000 9.296570e-001 1.999173e+000 2.023541e+000 1.700955e+000 2.322779e+000 3.924331e+000 3.993248e+000 1.224140e+000 1.910636e-001 4.226636e-002 6.865149e-002 1.926399e-001 1.606054e-001 1.416351e-001 3.712605e-001 4.122520e-001 4.411871e-001 3.761203e-001 5.436245e-001 4.685206e-001 1.712806e-001 4.345101e-002
<GCONST> 9.159134e+001
<STATE> 7
<MEAN> 39
 -1.605182e-001 -4.140522e+000 -5.760242e+000 -3.880213e+000 1.057772e+001 4.310276e+000 -8.457275e+000 5.897167e+000 -3.315846e+000 -1.340852e+000 -1.156828e+001 -8.177028e+000 7.878747e+001 -1.560641e+000 2.131821e+000 -1.445496e+000 1.250281e+000 1.060920e+000 -3.171821e+000 4.658003e+000 -1.075642e+000 1.230534e-001 4.549278e-001 -6.275815e-001 2.810921e-001 -1.104737e+000 -8.119341e-001 3.115689e-001 -5.717443e-001 2.933276e-001 -4.851670e-001 -5.645043e-001 3.688330e-001 -3.527548e-001 2.883824e-002 -6.759858e-001 5.114243e-001 -2.651218e-001 1.908157e-001
<VARIANCE> 39
 8.499622e+000 1.897291e+001 2.099562e+001 1.678897e+001 5.829539e+001 4.116605e+001 8.938538e+001 2.564249e+001 1.293122e+002 2.912188e+001 6.149105e+001 2.891015e+001 6.447143e+000 2.809189e+000 8.897231e-001 2.218391e+000 1.938254e+000 3.858540e+000 4.341572e+000 3.806966e+000 7.266019e+000 2.615058e+000 3.389567e+000 5.691768e+000 3.089626e+000 4.997714e-001 2.618753e-001 1.678117e-001 2.674228e-001 3.141546e-001 4.455744e-001 4.824633e-001 1.176031e+000 8.468695e-001 6.612148e-001 5.147329e-001 8.710895e-001 5.822915e-001 1.414565e-001
<GCONST> 1.177395e+002
<STATE> 8
<MEAN> 39
 -2.119859e+001 5.724991e+000 -1.267841e+001 4.539137e+000 6.355477e+000 -1.536185e+001 4.178066e+000 -4.134534e+000 -7.857628e+000 -5.320925e+000 -8.469302e+000 -6.079330e+000 7.595820e+001 -1.220775e+000 -3.020023e-001 2.078127e-001 6.025753e-001 -1.428366e-001 -7.020673e-001 -8.970680e-002 -4.268928e-001 2.186650e-001 -2.875524e-001 1.552257e-001 7.630966e-001 -2.851933e-001 4.967111e-001 -2.685810e-001 2.785538e-001 -1.227165e-001 -4.218429e-002 2.994883e-001 -4.083270e-001 1.586965e-001 1.696828e-001 1.866932e-001 -3.722561e-002 9.257443e-002 -3.391371e-002
<VARIANCE> 39
 3.905292e+001 2.876985e+001 4.179781e+001 3.342083e+001 3.248861e+001 3.641861e+001 5.074205e+001 6.132217e+001 1.003012e+002 2.874088e+001 4.861808e+001 6.019710e+001 5.185747e+000 3.397040e+000 3.914189e+000 2.871890e+000 1.785936e+000 2.886925e+000 3.120215e+000 4.775742e+000 5.402487e+000 5.016576e+000 3.425990e+000 3.784471e+000 2.942447e+000 3.553412e-001 3.387878e-001 3.995961e-001 3.416887e-001 3.491160e-001 5.998556e-001 4.578400e-001 1.139723e+000 1.062228e+000 9.623019e-001 7.098120e-001 7.495237e-001 4.575071e-001 5.963432e-002
<GCONST> 1.230489e+002
<STATE> 9
<MEAN> 39
 2.270001e-001 -5.854377e+000 2.201391e+000 -6.838185e-001 1.871861e-002 -4.858842e+000 -1.341013e+001 8.366704e+000 -2.742203e+000 -7.502223e-001 -7.767714e+000 -3.106282e+000 7.515293e+001 1.417549e+000 -2.663814e-001 5.217981e-001 -2.756114e-001 -4.061789e-001 7.081777e-001 -1.526214e-001 4.528830e-001 1.671371e-001 1.701598e-001 9.292735e-002 -2.742151e-001 -5.014110e-001 -1.826128e-001 3.772477e-002 -8.840717e-002 3.178127e-002 5.215369e-002 -2.590398e-003 1.701751e-001 -9.063957e-002 -1.040318e-001 -9.200017e-002 7.368712e-002 -4.770205e-002 -3.654067e-002
<VARIANCE> 39
 6.832596e+001 2.368969e+001 3.273736e+001 5.148540e+001 5.979717e+001 5.627931e+001 9.904746e+001 9.547215e+001 1.976214e+002 1.029549e+002 4.756363e+001 5.859210e+001 3.394041e+001 5.546162e+000 1.392897e+000 2.260783e+000 4.046009e+000 2.916448e+000 3.260467e+000 8.648774e+000 6.180762e+000 2.676177e+000 4.958124e+000 2.890407e+000 3.581336e+000 2.412722e+000 6.495968e-001 3.355332e-001 2.623417e-001 5.204605e-001 4.502746e-001 4.986767e-001 9.120170e-001 7.561067e-001 4.107825e-001 6.921332e-001 4.014167e-001 6.324444e-001 2.928408e-001
<GCONST> 1.322057e+002
<TRANSP> 10
 0.000000e+000 1.000000e+000 0.000000e+000 0.000000e+000 0.000000e+000 0.000000e+000 0.000000e+000 0.000000e+000 0.000000e+000 0.000000e+000
 0.000000e+000 9.198207e-001 8.017932e-002 0.000000e+000 0.000000e+000 0.000000e+000 0.000000e+000 0.000000e+000 0.000000e+000 0.000000e+000
 0.000000e+000 0.000000e+000 8.934864e-001 1.065135e-001 0.000000e+000 0.000000e+000 0.000000e+000 0.000000e+000 0.000000e+000 0.000000e+000
 0.000000e+000 0.000000e+000 0.000000e+000 7.568893e-001 2.431107e-001 0.000000e+000 0.000000e+000 0.000000e+000 0.000000e+000 0.000000e+000
 0.000000e+000 0.000000e+000 0.000000e+000 0.000000e+000 8.217879e-001 1.782121e-001 0.000000e+000 0.000000e+000 0.000000e+000 0.000000e+000
 0.000000e+000 0.000000e+000 0.000000e+000 0.000000e+000 0.000000e+000 8.606176e-001 1.393823e-001 0.000000e+000 0.000000e+000 0.000000e+000
 0.000000e+000 0.000000e+000 0.000000e+000 0.000000e+000 0.000000e+000 0.000000e+000 7.489318e-001 2.510682e-001 0.000000e+000 0.000000e+000
 0.000000e+000 0.000000e+000 0.000000e+000 0.000000e+000 0.000000e+000 0.000000e+000 0.000000e+000 9.209465e-001 7.905352e-002 0.000000e+000
 0.000000e+000 0.000000e+000 0.000000e+000 0.000000e+000 0.000000e+000 0.000000e+000 0.000000e+000 0.000000e+000 9.439008e-001 5.609921e-002
 0.000000e+000 0.000000e+000 0.000000e+000 0.000000e+000 0.000000e+000 0.000000e+000 0.000000e+000 0.000000e+000 0.000000e+000 0.000000e+000
<ENDHMM>
~h "osm"
<BEGINHMM>
<NUMSTATES> 10
<STATE> 2
<MEAN> 39
 -3.049457e+000 -6.312623e+000 -2.596312e-001 -7.053382e+000 -9.786471e-001 7.601912e+000 -1.300701e+001 -3.407564e+000 -6.067824e+000 1.002266e+000 -4.847964e+000 9.703048e+000 7.034834e+001 1.696752e+000 5.473095e-001 2.295889e-001 -3.222024e+000 1.229045e-001 1.241901e+000 -1.433688e+000 1.028970e+000 -9.135761e-001 2.829508e-001 2.570197e-003 1.560596e+000 3.444175e+000 -3.267885e-001 -1.349693e-001 -8.653913e-002 1.747103e-001 3.264463e-001 -5.780680e-002 4.965685e-001 1.447985e-001 1.623892e-001 -1.741009e-002 1.819498e-001 -4.967552e-001 -6.127836e-001
<VARIANCE> 39
 6.027474e+001 2.716849e+001 1.323811e+001 1.894430e+002 8.263234e+001 8.062689e+001 6.993243e+001 4.377844e+001 1.337697e+002 2.383761e+001 6.925513e+001 6.254421e+001 8.900136e+001 4.429545e+000 3.384930e+000 1.652590e+000 1.209240e+001 6.174987e+000 8.031960e+000 7.382507e+000 4.036352e+000 1.077961e+001 3.689188e+000 6.093882e+000 5.544240e+000 4.958982e+000 1.049572e+000 7.352148e-001 5.012014e-001 3.438095e+000 1.007008e+000 1.307322e+000 1.455800e+000 8.837712e-001 2.036852e+000 7.274665e-001 9.374557e-001 7.027848e-001 1.511202e+000
<GCONST> 1.476720e+002
<STATE> 3
<MEAN> 39
 -5.032262e+000 -3.427351e+000 -2.443271e+000 -1.109766e+001 2.903903e+000 5.622550e+000 -1.082057e+001 2.993724e-002 -7.451993e+000 -3.354167e-001 -1.997467e+000 5.123151e+000 7.775412e+001 -2.853691e+000 8.022931e-001 -1.057257e+000 1.984334e+000 5.354214e-001 -1.796132e+000 1.158664e+000 9.709446e-002 7.575400e-001 -6.285886e-001 9.650362e-002 -1.604265e+000 -2.317384e-002 -4.587242e-001 9.739401e-002 -7.632387e-002 1.948939e-001 -7.526784e-002 -1.293054e-001 -2.735135e-002 9.545508e-003 2.791047e-002 -4.944236e-002 -1.123298e-001 1.167173e-001 -6.740963e-002
<VARIANCE> 39
 9.593665e+001 4.146731e+001 3.141308e+001 5.898836e+001 7.743666e+001 1.057777e+002 3.362158e+001 5.292712e+001 1.232628e+002 3.257556e+001 3.381189e+001 5.932562e+001 8.349496e+000 4.462088e+000 1.580117e+000 1.735329e+000 5.702348e+000 4.698528e+000 4.788025e+000 3.886990e+000 2.350312e+000 5.467737e+000 2.925662e+000 1.799494e+000 3.574467e+000 7.354181e-001 8.121519e-001 3.783361e-001 3.955627e-001 1.239111e+000 6.457313e-001 1.518823e+000 6.838833e-001 4.751459e-001 1.447089e+000 6.054846e-001 2.901845e-001 8.046330e-001 2.442519e-001
<GCONST> 1.298734e+002
<STATE> 4
<MEAN> 39
 -2.428367e+001 1.755996e+000 -5.490254e+000 -2.725752e+000 7.807548e+000 -3.083040e+000 -6.728505e+000 4.008219e+000 -3.077219e+000 -9.703304e-001 -9.962099e-002 2.940951e+000 7.669454e+001 -7.582302e-001 -2.159499e-001 4.593680e-001 2.965216e-001 5.294681e-001 -2.586370e-001 -2.658978e-001 1.981384e-001 3.931983e-001 3.775654e-001 2.324066e-001 4.387228e-001 -3.268053e-001 3.848451e-001 -3.202003e-001 2.267144e-001 9.470937e-003 -1.255613e-001 4.018452e-002 -2.126409e-001 -1.964601e-001 -2.730605e-003 3.700496e-002 2.629109e-002 2.468544e-002 -4.528277e-002
<VARIANCE> 39
 3.292976e+001 1.615316e+001 2.414856e+001 5.320626e+001 7.023193e+001 9.318417e+001 3.738127e+001 6.636492e+001 1.347591e+002 4.951914e+001 8.323878e+001 2.940977e+001 5.113897e+000 8.012338e-001 1.849805e+000 1.378745e+000 1.717015e+000 1.322703e+000 1.532025e+000 2.351065e+000 3.872906e+000 3.124432e+000 2.532405e+000 2.245495e+000 1.738424e+000 2.463313e-001 2.145854e-001 1.462974e-001 3.692530e-001 4.780757e-001 3.578018e-001 3.084123e-001 4.497250e-001 7.333248e-001 6.782904e-001 5.570659e-001 5.351954e-001 3.384949e-001 5.566955e-002
<GCONST> 1.120765e+002
<STATE> 5
<MEAN> 39
 -2.288802e+001 -8.402570e+000 9.929677e-001 1.546498e+000 7.884602e+000 -5.421409e+000 -1.122863e+001 9.494062e-001 -1.986032e-001 7.413151e-001 1.051176e+000 5.777782e+000 7.243536e+001 3.015750e+000 -1.378454e+000 1.702869e+000 1.232679e+000 -7.409062e-001 4.724457e-002 -1.548378e+000 -2.514154e+000 -7.968234e-002 3.137857e-001 -4.995294e-002 -1.305227e-001 -9.087699e-001 1.017619e+000 5.760261e-001 -3.743043e-002 3.182052e-002 -1.674257e-001 -1.171043e-002 -2.011184e-001 -7.252148e-001 -2.633643e-001 2.664372e-001 1.315029e-001 5.799617e-002 7.193037e-002
<VARIANCE> 39
 2.768826e+001 2.980709e+001 1.528314e+001 3.653537e+001 5.550299e+001 1.054954e+002 2.724638e+001 6.490858e+001 1.182353e+002 3.525667e+001 6.203058e+001 1.520168e+001 1.260432e+001 4.086748e+000 3.440559e+000 1.886734e+000 4.059446e+000 3.169920e+000 1.785743e+000 3.410099e+000 4.850706e+000 4.994336e+000 1.697138e+000 3.789083e+000 1.705581e+000 6.823089e-001 3.236031e-001 4.628260e-001 4.120799e-001 6.955145e-001 6.167777e-001 3.748917e-001 3.176890e-001 5.008586e-001 6.747226e-001 3.153808e-001 7.775886e-001 4.328268e-001 2.544103e-001
<GCONST> 1.209731e+002
<STATE> 6
<MEAN> 39
 -3.987427e+000 -5.118068e+000 7.250666e+000 5.049971e+000 7.156880e+000 -5.527138e-001 -2.282586e+001 -1.319539e+001 -3.105705e+000 5.375977e+000 6.209545e-001 5.083333e+000 7.266367e+001 4.141063e+000 -6.305808e-002 3.467749e-001 8.508647e-001 -1.201856e+000 9.164808e-001 -1.264543e+000 -2.772835e+000 -1.144448e+000 1.307028e+000 9.976013e-001 5.182084e-001 3.399839e-001 -5.880620e-001 -1.616756e-001 -4.471256e-001 -3.041384e-002 -4.188533e-001 -1.885193e-001 8.361010e-001 5.154430e-001 1.857351e-001 -5.002702e-001 -1.188673e-001 4.782585e-002 1.389774e-001
<VARIANCE> 39
 6.105859e+001 5.658315e+001 1.396941e+001 6.649322e+001 2.460349e+001 1.548600e+002 8.110184e+001 9.402928e+001 1.063476e+002 2.536954e+001 5.363933e+001 2.131326e+001 1.415300e+001 4.407577e+000 2.909288e+000 2.928061e+000 7.736909e+000 6.448125e+000 5.718795e+000 7.019171e+000 1.220945e+001 5.697504e+000 3.421587e+000 4.500371e+000 3.666680e+000 5.498484e-001 6.332707e-001 5.505969e-001 3.778749e-001 6.890625e-001 1.032566e+000 1.124715e+000 1.032503e+000 1.653829e+000 6.433730e-001 7.170189e-001 8.707184e-001 7.359778e-001 1.680821e-001
<GCONST> 1.356241e+002
<STATE> 7
<MEAN> 39
 2.351549e+000 -1.213717e+001 5.491394e+000 1.077085e+001 -2.340759e+000 -6.422759e+000 -1.701227e+001 -2.019136e+001 -5.823376e+000 1.599799e+000 2.159072e+000 8.775821e+000 7.292007e+001 2.265689e+000 4.312108e-001 5.511914e-001 6.890184e-001 -1.881694e+000 -1.058060e+000 7.566122e-001 -7.133900e-001 -7.030643e-002 -1.388794e+000 -4.242157e-001 3.976813e-001 3.950162e-001 -5.099205e-001 2.175470e-001 5.751381e-002 -2.105688e-001 4.136970e-001 9.279196e-002 2.620844e-001 8.398264e-001 1.850503e-001 -2.167776e-001 -1.801918e-001 -2.948003e-001 -1.175962e-001
<VARIANCE> 39
 4.525300e+001 7.632281e+001 2.197329e+001 5.114948e+001 1.946589e+001 1.371821e+002 3.581350e+001 9.849039e+001 7.842833e+001 9.157157e+001 4.666252e+001 3.598683e+001 7.555934e+000 9.847878e-001 2.475411e+000 1.910870e+000 2.285586e+000 2.210378e+000 3.460562e+000 4.606360e+000 4.570220e+000 4.066333e+000 5.084850e+000 4.251108e+000 4.504071e+000 7.459268e-001 2.653570e-001 3.278492e-001 3.638234e-001 4.061557e-001 4.746810e-001 4.654905e-001 4.972497e-001 9.069692e-001 9.510341e-001 1.396856e+000 1.196787e+000 6.656257e-001 4.310370e-002
<GCONST> 1.246223e+002
<STATE> 8
<MEAN> 39
 7.901460e+000 -8.856572e+000 9.065059e+000 1.473069e+001 -1.127492e+001 -1.081247e+001 -1.503945e+001 -1.515099e+001 1.268010e+000 -7.686182e+000 6.347731e+000 4.420683e+000 7.550723e+001 1.122665e-001 3.460368e-001 1.805610e-001 2.014007e-002 -1.943361e-001 2.134385e-001 2.343241e-001 5.000197e-001 3.851676e-001 -6.867741e-001 1.797673e-002 -6.176530e-001 -1.641921e-001 -8.443601e-002 2.878656e-002 -3.423290e-002 -3.951655e-002 2.019612e-001 1.135450e-001 6.736122e-002 -3.928813e-002 -1.462529e-001 1.079466e-001 -9.891498e-002 2.877359e-002 -9.503152e-002
<VARIANCE> 39
 4.966953e+000 1.585594e+001 2.247710e+001 3.674786e+001 5.125292e+001 8.922511e+001 2.150427e+001 5.430265e+001 2.881848e+001 9.011363e+001 6.926936e+001 3.695739e+001 1.168588e+001 2.903911e-001 6.819956e-001 1.602451e+000 1.069402e+000 1.787506e+000 2.008890e+000 3.135919e+000 3.483631e+000 2.688282e+000 2.544629e+000 2.087507e+000 2.401198e+000 4.119023e-001 7.192806e-002 1.278720e-001 3.382924e-001 2.494142e-001 2.661632e-001 4.328079e-001 6.751780e-001 4.954408e-001 3.876099e-001 4.819331e-001 3.666222e-001 4.688356e-001 3.572969e-002
<GCONST> 1.044679e+002
<STATE> 9
<MEAN> 39
 5.010505e+000 -3.539722e+000 8.421477e+000 1.208690e+001 2.739328e+000 4.705089e+000 -6.564334e+000 -1.357686e+001 -6.677063e+000 -4.083484e+000 -6.349788e+000 -3.818619e+000 6.443153e+001 -5.704882e-001 -3.469697e-001 -3.762762e-001 -7.093510e-002 3.989202e-001 4.307830e-001 7.270316e-001 1.146114e-001 -3.059428e-001 1.276484e-001 -4.000874e-001 -3.499537e-001 -5.736747e-001 -5.823929e-002 -7.660224e-002 -3.915413e-002 -4.484696e-002 -9.483154e-002 -9.398192e-003 -4.726691e-002 7.719553e-002 1.526065e-001 8.049475e-002 9.587936e-002 2.577857e-003 4.244205e-002
<VARIANCE> 39
 2.631369e+001 2.840119e+001 2.537495e+001 3.815336e+001 5.007170e+001 8.157497e+001 6.807984e+001 3.354455e+001 4.064407e+001 3.411113e+001 5.600792e+001 4.558699e+001 2.268923e+001 3.308356e-001 1.015165e+000 1.712612e+000 2.614645e+000 2.413101e+000 3.202021e+000 3.518559e+000 2.864252e+000 4.474288e+000 4.034785e+000 3.999050e+000 3.053419e+000 4.789062e-001 5.243672e-002 1.705198e-001 2.547108e-001 3.942178e-001 3.997518e-001 6.182642e-001 6.820064e-001 5.185235e-001 8.081725e-001 7.107926e-001 7.749478e-001 5.412860e-001 6.168725e-002
<GCONST> 1.151800e+002
<TRANSP> 10
 0.000000e+000 1.000000e+000 0.000000e+000 0.000000e+000 0.000000e+000 0.000000e+000 0.000000e+000 0.000000e+000 0.000000e+000 0.000000e+000
 0.000000e+000 8.149992e-001 1.850008e-001 0.000000e+000 0.000000e+000 0.000000e+000 0.000000e+000 0.000000e+000 0.000000e+000 0.000000e+000
 0.000000e+000 0.000000e+000 8.387628e-001 1.612372e-001 0.000000e+000 0.000000e+000 0.000000e+000 0.000000e+000 0.000000e+000 0.000000e+000
 0.000000e+000 0.000000e+000 0.000000e+000 8.912817e-001 1.087183e-001 0.000000e+000 0.000000e+000 0.000000e+000 0.000000e+000 0.000000e+000
 0.000000e+000 0.000000e+000 0.000000e+000 0.000000e+000 7.552819e-001 2.447181e-001 0.000000e+000 0.000000e+000 0.000000e+000 0.000000e+000
 0.000000e+000 0.000000e+000 0.000000e+000 0.000000e+000 0.000000e+000 6.954809e-001 3.045191e-001 0.000000e+000 0.000000e+000 0.000000e+000
 0.000000e+000 0.000000e+000 0.000000e+000 0.000000e+000 0.000000e+000 0.000000e+000 7.146220e-001 2.853780e-001 0.000000e+000 0.000000e+000
 0.000000e+000 0.000000e+000 0.000000e+000 0.000000e+000 0.000000e+000 0.000000e+000 0.000000e+000 9.103621e-001 8.963787e-002 0.000000e+000
 0.000000e+000 0.000000e+000 0.000000e+000 0.000000e+000 0.000000e+000 0.000000e+000 0.000000e+000 0.000000e+000 9.519385e-001 4.806157e-002
 0.000000e+000 0.000000e+000 0.000000e+000 0.000000e+000 0.000000e+000 0.000000e+000 0.000000e+000 0.000000e+000 0.000000e+000 0.000000e+000
<ENDHMM>
~h "nadruhou"
<BEGINHMM>
<NUMSTATES> 10
<STATE> 2
<MEAN> 39
 2.146262e+000 -6.842336e+000 1.730326e+000 -6.586832e-001 -2.302176e+000 -3.458763e+000 -2.127314e+001 -1.006784e+001 -3.871705e+000 -6.574881e+000 -3.811512e+000 -5.114303e+000 7.054014e+001 5.537036e-001 -4.847195e-001 -2.094558e-001 -1.286298e+000 3.746986e-001 3.547979e-001 -4.371920e-001 3.992197e-001 3.550639e-001 -4.062718e-001 -3.878672e-001 -4.960281e-001 1.178566e+000 -3.495963e-001 -1.742694e-001 -2.935572e-001 -2.132416e-001 1.187770e-001 3.312492e-002 4.151019e-001 3.602301e-001 1.993273e-001 5.425225e-002 -4.134783e-002 4.087715e-002 -2.738715e-001
<VARIANCE> 39
 2.332193e+001 8.915029e+001 1.019176e+002 1.389872e+002 3.643151e+001 7.040688e+001 7.030437e+001 7.327065e+001 6.398761e+001 4.614198e+001 7.405798e+001 3.882720e+001 5.252802e+001 3.311432e+000 4.309479e+000 4.119174e+000 7.179395e+000 4.140561e+000 4.248830e+000 7.595738e+000 7.961024e+000 4.777822e+000 4.330259e+000 5.367497e+000 3.620164e+000 6.206508e+000 4.732366e-001 7.603828e-001 7.018093e-001 1.210614e+000 5.409399e-001 9.063120e-001 7.637925e-001 1.337149e+000 9.984697e-001 9.268435e-001 1.038581e+000 7.388961e-001 1.128862e+000
<GCONST> 1.439269e+002
<STATE> 3
<MEAN> 39
 2.020836e+000 -6.257086e+000 -2.680672e+000 -4.825153e+000 3.985426e+000 -2.240110e+000 -1.311904e+001 -5.507933e+000 6.879767e+000 -8.525158e+000 -1.140829e+001 -3.084899e+000 7.423096e+001 -5.447348e-001 4.029253e-001 5.920752e-001 9.515442e-001 -5.738096e-001 -1.197899e+000 2.813185e-001 -2.983469e-001 -4.198664e-002 3.983618e-001 2.541246e-001 1.253757e+000 1.552562e-001 4.483956e-002 -1.944961e-002 3.740570e-001 3.952756e-001 -4.742478e-001 -5.975968e-002 -5.605979e-001 -2.331614e-001 -9.727897e-002 2.787621e-002 2.351283e-001 1.225431e-001 1.531227e-001
<VARIANCE> 39
