~o
<STREAMINFO> 1 39
<VECSIZE> 39<NULLD><MFCC_D_A_0><DIAGC>
~h "ctyri"
<BEGINHMM>
<NUMSTATES> 10
<STATE> 2
<MEAN> 39
 -1.119725e+001 1.565193e-001 -6.927568e-001 -6.373406e-003 -8.510972e-001 -1.291420e+000 1.154698e+000 1.262164e+000 -1.642571e+000 1.361185e+000 7.743460e-001 1.656948e+000 4.716534e+001 -9.313113e-003 3.611515e-002 -3.694917e-002 -5.314016e-002 6.039982e-003 1.377084e-002 1.371826e-002 3.341400e-002 1.263761e-002 6.031375e-003 -4.421417e-002 -4.377405e-002 3.121607e-002 -3.327965e-002 -1.563924e-002 4.659830e-002 -2.123730e-002 -2.066051e-005 1.078844e-002 -8.543783e-002 -2.320425e-003 3.451502e-002 -4.673277e-002 3.955715e-002 -9.609687e-003 3.065065e-002
<VARIANCE> 39
 9.584959e+000 4.765532e+000 1.098035e+001 9.394897e+000 1.413047e+001 1.626694e+001 2.456734e+001 2.028602e+001 1.870124e+001 1.717033e+001 1.090619e+001 1.151523e+001 2.821162e+000 6.419874e-001 4.103709e-001 9.474174e-001 1.144373e+000 1.403229e+000 2.018703e+000 2.476988e+000 1.814990e+000 2.144179e+000 1.611483e+000 1.366344e+000 1.092965e+000 2.806848e-001 1.343545e-001 8.629037e-002 2.184807e-001 3.006119e-001 3.200655e-001 3.927009e-001 4.681574e-001 3.244145e-001 4.418896e-001 3.376850e-001 3.205214e-001 2.080933e-001 6.034706e-002
<GCONST> 8.653110e+001
<STATE> 3
<MEAN> 39
 -1.016171e+001 -4.058542e-001 -1.814063e+000 -1.417132e-001 -6.273126e-001 -4.930432e-001 -2.654841e-001 1.755874e+000 -2.071121e+000 3.975112e-001 7.025228e-001 1.365187e+000 4.617063e+001 -1.212431e+000 -4.649546e-001 1.669115e+000 -1.814358e+000 7.698510e-001 -8.063896e-002 -2.370967e-001 4.538718e-002 4.598473e-001 -1.368624e-001 4.681970e-001 8.327178e-002 9.272518e-001 -7.246957e-001 8.255502e-002 7.712826e-001 -9.021472e-001 4.631220e-001 -4.613543e-001 6.867713e-002 -1.792578e-001 3.238298e-001 -1.981120e-002 2.064870e-001 -2.723140e-002 5.349356e-001
<VARIANCE> 39
 1.952222e+000 3.365387e+000 6.029163e+000 7.167949e+000 1.163041e+001 8.396755e+000 6.666812e+000 1.078012e+001 8.508701e+000 8.934021e+000 8.387620e+000 1.182745e+001 6.618616e-001 8.621550e-001 6.381170e-001 1.346495e+000 2.937133e+000 3.925715e+000 1.861928e+000 1.957709e+000 1.890720e+000 1.977624e+000 1.699165e+000 1.089640e+000 1.099009e+000 3.082922e-001 2.104139e-001 1.424095e-001 2.046475e-001 3.560917e-001 6.093935e-001 2.451637e-001 3.219634e-001 3.965499e-001 2.747611e-001 2.339376e-001 1.820173e-001 2.974404e-001 3.291306e-002
<GCONST> 7.982776e+001
<STATE> 4
<MEAN> 39
 -1.348674e+001 -4.769814e-001 2.549444e+000 -5.175043e+000 3.755402e+000 -2.463914e+000 -2.046363e-001 2.824608e+000 -4.455105e-001 1.837698e+000 2.347164e+000 1.252008e+000 4.909597e+001 -2.240226e+000 1.141320e-001 2.479495e+000 -2.964698e+000 1.621341e+000 -1.001787e+000 1.579535e-001 -2.904359e-001 9.128326e-001 -1.876829e-001 1.890268e-001 -8.547170e-002 1.570115e+000 -2.812591e-001 1.809649e-001 2.745395e-001 1.953052e-002 -2.916889e-001 -2.837712e-001 2.960903e-001 -3.526832e-001 -9.440934e-002 -2.056440e-001 -2.052529e-002 -4.307775e-002 2.327224e-001
<VARIANCE> 39
 5.740192e+000 1.274149e+001 1.302059e+001 3.710718e+001 5.848646e+001 3.379041e+001 2.724490e+001 2.680426e+001 1.409209e+001 1.696869e+001 1.789808e+001 1.031822e+001 3.373197e+000 2.267002e+000 1.118520e+000 2.931338e+000 2.798942e+000 5.578462e+000 1.842750e+000 2.390068e+000 3.343332e+000 2.049927e+000 1.620967e+000 1.624746e+000 2.718947e+000 9.173663e-001 3.621766e-001 1.404770e-001 1.810585e-001 4.474155e-001 1.022979e+000 5.684103e-001 7.811058e-001 5.205970e-001 3.097719e-001 4.110680e-001 3.825366e-001 3.739750e-001 9.075727e-002
<GCONST> 1.049490e+002
<STATE> 5
<MEAN> 39
 -2.241954e+001 3.288605e-001 1.098466e+001 -1.357129e+001 5.487219e+000 -4.206213e+000 2.392213e+000 -1.071613e+000 2.145245e+000 -6.742747e-001 2.426103e+000 4.988335e-001 5.435732e+001 -2.258836e+000 3.340828e-001 1.892565e+000 -1.162634e+000 4.693509e-002 -1.007816e+000 1.342742e+000 -7.920402e-001 -1.725106e-002 -3.824939e-001 1.651775e-001 -5.295974e-001 1.476056e+000 5.898262e-001 -8.791437e-002 -7.355037e-001 8.510047e-001 -4.716411e-001 4.239412e-002 -1.337645e-001 2.262937e-001 -3.874538e-001 7.803459e-002 -1.033857e-001 -9.596977e-002 -3.531218e-001
<VARIANCE> 39
 1.854148e+001 1.741469e+001 3.211014e+001 1.967010e+001 6.077672e+001 2.977267e+001 2.642970e+001 2.227190e+001 1.973708e+001 1.720598e+001 1.376769e+001 1.340420e+001 5.538655e+000 2.215291e+000 1.140935e+000 1.898641e+000 3.036260e+000 3.460779e+000 3.032407e+000 2.655267e+000 2.060671e+000 1.741057e+000 2.372746e+000 1.817252e+000 1.426018e+000 5.453150e-001 1.860622e-001 1.567551e-001 2.383828e-001 2.050602e-001 4.950309e-001 5.147732e-001 5.647249e-001 4.844914e-001 2.580494e-001 4.431430e-001 3.235658e-001 3.307282e-001 5.213873e-002
<GCONST> 1.024592e+002
<STATE> 6
<MEAN> 39
 -2.101762e+001 1.203434e+000 8.471075e+000 -1.162435e+001 6.347471e+000 -4.703518e+000 1.920428e+000 6.079412e-001 -1.206357e+000 -1.015991e-001 1.621591e+000 -9.702193e-001 5.290196e+001 1.031112e+000 -2.163006e-002 -8.094984e-001 6.266528e-001 -6.867358e-002 7.599555e-002 -4.999527e-001 4.485677e-001 -3.084658e-001 1.743898e-001 -1.441697e-001 2.101627e-001 -6.438074e-001 1.433665e-001 -6.668047e-002 -7.493964e-002 4.517289e-002 -6.732959e-002 3.121897e-003 -5.724786e-002 1.232135e-002 4.759850e-003 7.840891e-002 1.866975e-002 6.596570e-002 -3.966720e-002
<VARIANCE> 39
 3.529641e+001 1.196413e+001 3.043513e+001 2.215352e+001 3.343003e+001 1.610169e+001 2.705941e+001 2.208224e+001 1.951715e+001 1.322007e+001 1.472518e+001 1.326561e+001 1.563611e+001 1.675573e+000 8.305205e-001 8.802589e-001 1.188741e+000 2.106509e+000 2.344536e+000 1.727808e+000 1.616699e+000 1.395395e+000 1.205480e+000 1.387911e+000 1.405516e+000 7.526201e-001 3.541567e-001 1.744445e-001 1.947490e-001 2.592320e-001 3.132687e-001 3.542727e-001 4.074037e-001 3.141838e-001 3.055364e-001 2.408630e-001 2.587410e-001 2.995811e-001 1.748751e-001
<GCONST> 9.746471e+001
<STATE> 7
<MEAN> 39
 -1.372752e+001 -2.021553e+000 3.179485e+000 -7.472733e+000 3.223135e+000 -5.689970e+000 -4.228726e-002 3.008298e+000 -3.466565e+000 2.728743e+000 3.704205e-001 1.429567e+000 5.063858e+001 3.113339e-001 -1.581908e+000 1.291259e+000 -1.582304e+000 -2.690686e+000 -2.750253e+000 -4.263004e-001 -3.745287e-001 -1.203904e+000 9.613467e-001 3.597292e-002 -2.636321e-001 2.046365e+000 9.166307e-002 -3.338425e-001 7.030928e-001 -8.401462e-001 -8.274651e-001 -7.757990e-001 -1.929586e-001 -1.234530e-001 -1.993880e-001 3.001304e-001 1.615851e-001 -1.941917e-001 6.496826e-001
<VARIANCE> 39
 9.010329e+000 1.344791e+001 1.153069e+001 3.180304e+001 4.908660e+001 3.510671e+001 2.302580e+001 1.450508e+001 1.744046e+001 1.968843e+001 1.671955e+001 1.220862e+001 1.160834e+001 9.972302e-001 1.614913e+000 3.173896e+000 4.562573e+000 6.742236e+000 5.675146e+000 3.171282e+000 1.742302e+000 3.073513e+000 2.798743e+000 2.193805e+000 1.616947e+000 2.052214e+000 1.757232e-001 2.888665e-001 3.443638e-001 4.069924e-001 6.153724e-001 7.101106e-001 4.835846e-001 4.219671e-001 5.295080e-001 6.333866e-001 4.572357e-001 3.773237e-001 2.131620e-001
<GCONST> 1.101333e+002
<STATE> 8
<MEAN> 39
 -1.408840e+001 -8.701928e+000 1.178497e+001 -2.152773e+001 -8.845678e+000 -1.993714e+001 8.395171e-001 9.605966e-001 -4.425265e+000 8.233315e+000 1.999256e+000 -6.666808e-001 6.280449e+001 8.765847e-002 -2.207091e-001 1.121423e-001 -2.472847e-001 -3.661600e-001 -2.492006e-001 4.187498e-002 2.287058e-002 1.054454e-001 7.782233e-002 1.807021e-001 8.551513e-003 2.163677e-001 -2.809927e-002 6.825460e-002 -9.453183e-002 9.678867e-002 1.766998e-001 1.991842e-001 3.046675e-002 4.686385e-002 2.514889e-002 -1.442639e-002 -3.451923e-002 1.728538e-002 -1.319110e-001
<VARIANCE> 39
 3.051980e+001 3.805622e+001 2.588231e+001 4.094692e+001 6.286552e+001 2.321141e+001 3.772887e+001 2.996088e+001 3.169793e+001 1.237426e+002 7.419031e+001 2.874900e+001 1.086043e+001 3.107297e+000 3.869163e+000 2.348934e+000 3.257175e+000 6.182471e+000 2.958717e+000 2.137967e+000 2.531228e+000 2.401999e+000 5.975029e+000 4.278415e+000 2.263826e+000 1.334567e+000 5.450777e-001 5.006413e-001 3.871693e-001 4.085554e-001 8.946841e-001 6.357633e-001 3.591507e-001 5.095128e-001 4.982971e-001 7.522839e-001 7.101631e-001 3.752509e-001 1.552141e-001
<GCONST> 1.231092e+002
<STATE> 9
<MEAN> 39
 -9.108597e+000 -7.999589e+000 9.846415e+000 -1.350237e+001 -1.681177e+001 -1.877059e+001 -1.428549e+000 2.327784e+000 -8.762768e+000 8.634510e+000 2.742178e+000 -8.967545e-001 5.867897e+001 1.063731e-002 3.381333e-001 -2.500594e-001 3.536433e-001 3.102524e-001 6.447147e-001 6.308302e-002 -8.049203e-002 -1.232853e-001 -2.971094e-002 -1.730890e-001 -4.142690e-002 -4.570050e-001 -2.267657e-002 3.643952e-002 -6.586345e-002 8.976593e-002 8.893513e-002 5.548900e-002 8.213168e-003 -2.001014e-002 4.855981e-002 -8.341800e-002 6.558502e-003 1.564956e-002 -5.214094e-002
<VARIANCE> 39
 1.275276e+001 1.689324e+001 3.379737e+001 1.967533e+002 4.750406e+001 6.257888e+001 2.250893e+001 2.328169e+001 3.439046e+001 8.288068e+001 6.730312e+001 1.496765e+001 1.489560e+001 2.030216e-001 4.248216e-001 9.373376e-001 1.191110e+000 1.632749e+000 2.038053e+000 9.977428e-001 1.231414e+000 1.299469e+000 2.182317e+000 1.506081e+000 8.661848e-001 4.082715e-001 3.748773e-002 6.859144e-002 1.150278e-001 1.188454e-001 2.934964e-001 3.637572e-001 2.030143e-001 2.506282e-001 2.156208e-001 2.913662e-001 2.475940e-001 1.664100e-001 3.488172e-002
<GCONST> 9.237884e+001
<TRANSP> 10
 0.000000e+000 1.000000e+000 0.000000e+000 0.000000e+000 0.000000e+000 0.000000e+000 0.000000e+000 0.000000e+000 0.000000e+000 0.000000e+000
 0.000000e+000 8.574060e-001 1.425941e-001 0.000000e+000 0.000000e+000 0.000000e+000 0.000000e+000 0.000000e+000 0.000000e+000 0.000000e+000
 0.000000e+000 0.000000e+000 4.644008e-001 5.355992e-001 0.000000e+000 0.000000e+000 0.000000e+000 0.000000e+000 0.000000e+000 0.000000e+000
 0.000000e+000 0.000000e+000 0.000000e+000 3.765360e-001 6.234640e-001 0.000000e+000 0.000000e+000 0.000000e+000 0.000000e+000 0.000000e+000
 0.000000e+000 0.000000e+000 0.000000e+000 0.000000e+000 6.545489e-001 3.454510e-001 0.000000e+000 0.000000e+000 0.000000e+000 0.000000e+000
 0.000000e+000 0.000000e+000 0.000000e+000 0.000000e+000 0.000000e+000 8.885627e-001 1.114373e-001 0.000000e+000 0.000000e+000 0.000000e+000
 0.000000e+000 0.000000e+000 0.000000e+000 0.000000e+000 0.000000e+000 0.000000e+000 7.428242e-001 2.571758e-001 0.000000e+000 0.000000e+000
 0.000000e+000 0.000000e+000 0.000000e+000 0.000000e+000 0.000000e+000 0.000000e+000 0.000000e+000 9.515925e-001 4.840750e-002 0.000000e+000
 0.000000e+000 0.000000e+000 0.000000e+000 0.000000e+000 0.000000e+000 0.000000e+000 0.000000e+000 0.000000e+000 9.578775e-001 4.212256e-002
 0.000000e+000 0.000000e+000 0.000000e+000 0.000000e+000 0.000000e+000 0.000000e+000 0.000000e+000 0.000000e+000 0.000000e+000 0.000000e+000
<ENDHMM>
~h "sedm"
<BEGINHMM>
<NUMSTATES> 10
<STATE> 2
<MEAN> 39
 -1.206507e+001 2.119161e-001 -1.690669e+000 -6.311290e-001 1.126985e+000 -2.881070e+000 2.044277e+000 9.253102e-001 -1.514176e+000 -1.514566e-001 1.661722e+000 8.616573e-001 4.731499e+001 -1.384599e+000 9.000903e-001 2.595861e-002 -6.330394e-001 7.195731e-001 -1.411980e+000 1.060255e+000 -6.635497e-001 1.259588e-001 7.369167e-002 1.895721e-001 -3.128621e-001 7.629155e-001 -2.768547e-001 3.158358e-001 -1.402978e-001 5.959130e-002 7.007590e-002 -1.038898e-001 9.913206e-002 2.883883e-002 -1.838268e-002 6.872238e-002 -8.043337e-002 -1.077702e-001 1.308666e-001
<VARIANCE> 39
 5.780467e+000 3.129342e+000 4.293840e+000 7.082167e+000 1.002096e+001 1.407778e+001 9.685063e+000 1.395696e+001 1.898935e+001 1.713390e+001 1.553970e+001 8.460375e+000 1.438026e+000 4.751742e-001 5.292295e-001 9.081217e-001 9.921714e-001 1.404840e+000 1.844489e+000 1.635543e+000 1.819598e+000 1.875503e+000 1.896662e+000 1.650810e+000 1.301085e+000 1.396307e-001 1.140298e-001 7.006381e-002 1.885552e-001 1.998160e-001 3.036538e-001 4.028749e-001 3.659918e-001 3.220064e-001 4.158254e-001 4.267637e-001 2.345501e-001 2.221228e-001 4.357709e-002
<GCONST> 7.932835e+001
<STATE> 3
<MEAN> 39
 -1.731927e+001 5.482138e+000 -4.031022e+000 -3.800297e-001 2.096013e+000 -5.958098e+000 3.611609e+000 -6.004801e-001 -1.711005e-001 -3.138665e-001 2.039978e+000 -8.432577e-001 4.983559e+001 -1.000824e+000 7.721301e-001 -3.052354e-001 2.537255e-001 3.689616e-001 -7.760152e-002 7.445284e-002 5.125600e-001 -3.171833e-001 1.755235e-001 -1.933963e-001 -1.652819e-001 4.982573e-001 1.541503e-001 -2.945050e-001 1.365939e-001 4.614906e-002 -6.253572e-003 2.716450e-001 -1.031774e-001 2.576649e-001 -9.718438e-002 7.257793e-002 -1.139237e-001 1.752415e-001 -6.049670e-002
<VARIANCE> 39
 5.651189e+000 6.135132e+000 9.470052e+000 1.093863e+001 1.200216e+001 1.366999e+001 1.588317e+001 1.850909e+001 1.650431e+001 1.557179e+001 2.158563e+001 1.224944e+001 1.300586e+000 5.064323e-001 7.614923e-001 1.245066e+000 1.105672e+000 1.596011e+000 1.629456e+000 1.980591e+000 1.298428e+000 1.427208e+000 1.693755e+000 1.273945e+000 1.103926e+000 2.143431e-001 5.947623e-002 8.842534e-002 1.461910e-001 2.233281e-001 1.886701e-001 2.618639e-001 3.688978e-001 2.899052e-001 3.176148e-001 2.954437e-001 3.036260e-001 1.880576e-001 1.584307e-002
<GCONST> 7.970029e+001
<STATE> 4
<MEAN> 39
 -2.144642e+001 4.621182e+000 -2.459394e+000 -2.029304e+000 4.961402e+000 -7.331029e+000 5.828289e+000 3.116624e+000 -2.728522e+000 1.284759e+000 1.243452e+000 -4.066670e-001 5.322143e+001 -5.490742e-001 -1.769119e-001 1.522408e-001 -5.261477e-002 -7.580276e-002 -5.246906e-002 -4.913445e-002 2.975565e-001 7.144492e-002 6.870187e-004 -1.774250e-001 5.426389e-001 4.687085e-001 2.604934e-001 -2.601149e-001 9.436795e-002 -9.996318e-002 -2.176356e-001 -4.960594e-002 -2.235252e-001 -1.949605e-001 1.418705e-001 -1.082735e-001 3.205091e-002 8.503766e-002 -5.203791e-002
<VARIANCE> 39
 6.884168e+000 1.002828e+001 1.655659e+001 1.142054e+001 1.494362e+001 1.178413e+001 2.376518e+001 2.398224e+001 2.179188e+001 1.780009e+001 1.909888e+001 2.374480e+001 5.806398e+000 5.598603e-001 4.386678e-001 6.582497e-001 5.443839e-001 1.429323e+000 1.159455e+000 1.781810e+000 1.861317e+000 1.796398e+000 1.140146e+000 1.608343e+000 1.868610e+000 2.408877e-001 6.979071e-002 9.958810e-002 2.065355e-001 1.845999e-001 3.190970e-001 2.350156e-001 3.807105e-001 3.645092e-001 3.885453e-001 2.884876e-001 2.468349e-001 3.958533e-001 2.276209e-002
<GCONST> 8.507698e+001
<STATE> 5
<MEAN> 39
 -2.236202e+001 2.338763e+000 4.770803e-001 -2.820336e+000 7.139171e+000 -7.763438e+000 6.128957e+000 2.593848e+000 -3.887487e+000 1.741167e+000 5.819105e-001 2.876575e+000 5.501030e+001 2.169085e-001 -5.601036e-001 3.640232e-001 -4.033752e-001 -1.864056e-001 1.978373e-002 2.821244e-002 -1.114301e-001 1.899290e-001 -7.309500e-002 -9.040638e-002 -6.232622e-002 2.223736e-001 6.728106e-001 -3.903636e-001 -3.546475e-002 -3.677327e-001 -4.952183e-001 -4.668885e-001 -4.169909e-001 1.312059e-001 1.847799e-001 -6.671401e-002 -2.757002e-001 -1.680133e-001 8.946618e-002
<VARIANCE> 39
 8.464064e+000 9.945201e+000 1.751874e+001 2.104649e+001 2.459285e+001 2.314078e+001 3.161240e+001 2.169149e+001 1.573781e+001 1.646384e+001 1.624607e+001 1.763803e+001 9.941580e+000 1.393018e+000 7.148404e-001 1.204255e+000 1.171578e+000 1.646425e+000 1.222638e+000 2.267055e+000 1.585680e+000 2.078196e+000 1.142520e+000 1.434240e+000 1.119984e+000 2.963423e-001 1.267148e-001 3.465273e-001 2.358237e-001 4.992359e-001 5.954230e-001 6.542175e-001 5.200841e-001 4.298860e-001 4.763131e-001 3.132515e-001 3.692034e-001 2.402565e-001 1.313894e-001
<GCONST> 9.678781e+001
<STATE> 6
<MEAN> 39
 -1.787998e+001 1.455510e+000 -1.280426e+000 -3.827156e+000 8.474719e-001 -7.690561e+000 2.748185e+000 3.403890e+000 -3.799045e-001 1.914359e-001 -6.884254e-001 9.556825e-001 5.299774e+001 3.063733e+000 -3.313591e+000 7.060777e-002 -2.846812e+000 -2.825727e+000 -3.425520e+000 -2.784106e+000 9.040756e-001 1.116333e+000 -6.495386e-002 -1.728195e+000 1.680020e-001 1.767970e+000 4.279485e-001 -1.017854e+000 -1.655567e-001 -8.269512e-001 -5.133774e-001 -7.068828e-001 -3.021105e-001 6.051793e-001 2.819591e-001 1.043847e-001 -4.202809e-001 2.273875e-002 8.830522e-001
<VARIANCE> 39
 1.443739e+001 7.237901e+000 1.908390e+001 1.168277e+001 2.996009e+001 2.134830e+001 3.767768e+001 1.074669e+001 2.648055e+001 1.389806e+001 1.319423e+001 2.255648e+001 7.825666e+000 1.211378e+000 3.083226e+000 1.027889e+000 4.388492e+000 2.875265e+000 2.939010e+000 2.084520e+000 2.876034e+000 2.540844e+000 1.830568e+000 2.312979e+000 2.337387e+000 1.781853e+000 3.375450e-001 3.142652e-001 1.586885e-001 6.244147e-001 5.667422e-001 7.154291e-001 6.171125e-001 4.264001e-001 3.963105e-001 2.688695e-001 3.271039e-001 8.032172e-001 1.082938e-001
<GCONST> 1.058192e+002
<STATE> 7
<MEAN> 39
 -8.342998e+000 -1.283138e+001 -1.568307e+000 -1.514388e+001 -7.797860e+000 -1.954564e+001 -4.932988e+000 9.088234e+000 3.325696e+000 6.901708e-001 -7.372104e+000 9.731633e-001 6.317920e+001 1.103748e+000 -3.706910e+000 4.289556e-001 -3.037938e+000 -1.161864e+000 -1.329965e+000 2.526511e-001 2.566168e+000 9.836982e-001 2.236075e-001 -1.347208e+000 -3.223355e-001 2.665321e+000 -9.252790e-001 7.939633e-001 1.910429e-001 6.350879e-001 8.036185e-001 1.110960e+000 1.037329e+000 -1.212179e-001 -3.854478e-001 3.531387e-002 5.302480e-001 -2.548866e-001 -5.051793e-001
<VARIANCE> 39
 6.989694e+000 4.199502e+001 1.877104e+001 7.457498e+001 3.563521e+001 3.037160e+001 7.354794e+001 3.243750e+001 5.185682e+001 3.626641e+001 2.849470e+001 3.672847e+001 2.332487e+001 2.890658e+000 4.014211e+000 9.981419e-001 5.554776e+000 4.336143e+000 5.772262e+000 7.434720e+000 3.286365e+000 2.859969e+000 1.911380e+000 2.772442e+000 4.670351e+000 1.625489e+000 1.387047e-001 3.872202e-001 1.160434e-001 5.534434e-001 4.551342e-001 4.289547e-001 6.516126e-001 7.348942e-001 4.566895e-001 3.170692e-001 3.381566e-001 5.795557e-001 2.508787e-001
<GCONST> 1.193507e+002
<STATE> 8
<MEAN> 39
 -7.560688e+000 -1.193113e+001 3.073723e+000 -1.499993e+001 -8.482366e+000 -1.471669e+001 -3.304134e+000 6.327793e+000 -1.797888e+000 3.640200e-001 -6.461161e+000 -5.149366e-001 6.084189e+001 2.384324e-001 4.885790e-001 1.001544e-001 2.437369e-001 1.082918e-002 2.099764e-001 -3.731102e-001 -8.494669e-001 -6.471549e-001 2.366557e-001 3.569869e-001 -1.542483e-001 -3.850152e-001 3.567157e-003 9.865443e-002 -2.588662e-002 3.227060e-002 4.466289e-002 -2.624363e-002 -8.016326e-002 -8.854672e-002 -4.193844e-002 2.684907e-002 4.106518e-002 3.686913e-002 -5.402272e-002
<VARIANCE> 39
 1.348890e+001 5.058568e+001 2.371470e+001 9.403351e+001 2.659665e+001 3.681548e+001 9.885899e+001 5.948354e+001 4.989630e+001 3.455814e+001 4.566242e+001 3.992507e+001 3.607101e+001 5.196143e-001 2.128244e+000 1.319661e+000 2.344445e+000 1.833051e+000 3.806531e+000 3.350647e+000 2.880269e+000 2.502029e+000 2.891135e+000 2.596402e+000 2.962565e+000 1.601127e+000 9.899411e-002 4.202609e-001 2.059523e-001 4.230525e-001 3.801932e-001 8.367264e-001 6.613633e-001 6.320481e-001 5.155077e-001 5.179416e-001 5.177045e-001 5.957335e-001 2.727713e-001
<GCONST> 1.185209e+002
<STATE> 9
<MEAN> 39
 -5.413675e+000 -6.945101e+000 1.972111e+000 -1.438678e+001 -3.797035e+000 -1.393750e+001 -9.944880e+000 2.848286e-001 -9.286623e+000 4.294574e+000 -2.848645e+000 -3.168164e+000 5.743229e+001 -8.655485e-002 2.541163e-001 -4.480787e-002 2.726820e-001 2.477272e-001 2.674157e-001 1.026718e-001 3.935523e-002 -1.658192e-001 -1.873311e-001 -4.125109e-002 -6.240508e-002 -2.911315e-001 -1.895900e-002 2.114542e-002 -2.026136e-002 1.002972e-001 -1.594498e-003 7.819433e-002 5.694932e-002 1.777840e-002 6.443346e-002 -3.632708e-002 1.086225e-002 2.152653e-002 -5.465250e-002
<VARIANCE> 39
 1.071407e+001 4.215495e+001 5.138277e+001 3.263971e+001 3.137504e+001 2.379400e+001 6.273967e+001 7.912488e+001 3.029854e+001 3.322133e+001 6.124509e+001 4.464015e+001 9.466793e+000 1.471672e-001 4.199018e-001 5.619179e-001 9.490261e-001 7.713777e-001 1.054835e+000 1.556291e+000 1.170873e+000 1.133915e+000 1.502218e+000 1.161122e+000 1.042722e+000 1.874402e-001 2.144535e-002 4.865543e-002 8.965612e-002 1.105421e-001 1.228107e-001 1.530990e-001 1.821465e-001 2.296348e-001 2.339213e-001 2.573842e-001 2.205131e-001 1.753067e-001 1.353718e-002
<GCONST> 8.445411e+001
<TRANSP> 10
 0.000000e+000 1.000000e+000 0.000000e+000 0.000000e+000 0.000000e+000 0.000000e+000 0.000000e+000 0.000000e+000 0.000000e+000 0.000000e+000
 0.000000e+000 6.865374e-001 3.134626e-001 0.000000e+000 0.000000e+000 0.000000e+000 0.000000e+000 0.000000e+000 0.000000e+000 0.000000e+000
 0.000000e+000 0.000000e+000 7.422653e-001 2.577347e-001 0.000000e+000 0.000000e+000 0.000000e+000 0.000000e+000 0.000000e+000 0.000000e+000
 0.000000e+000 0.000000e+000 0.000000e+000 7.162301e-001 2.837699e-001 0.000000e+000 0.000000e+000 0.000000e+000 0.000000e+000 0.000000e+000
 0.000000e+000 0.000000e+000 0.000000e+000 0.000000e+000 6.314121e-001 3.685879e-001 0.000000e+000 0.000000e+000 0.000000e+000 0.000000e+000
 0.000000e+000 0.000000e+000 0.000000e+000 0.000000e+000 0.000000e+000 5.816976e-001 4.183024e-001 0.000000e+000 0.000000e+000 0.000000e+000
 0.000000e+000 0.000000e+000 0.000000e+000 0.000000e+000 0.000000e+000 0.000000e+000 6.858148e-001 3.141852e-001 0.000000e+000 0.000000e+000
 0.000000e+000 0.000000e+000 0.000000e+000 0.000000e+000 0.000000e+000 0.000000e+000 0.000000e+000 9.439029e-001 5.609719e-002 0.000000e+000
 0.000000e+000 0.000000e+000 0.000000e+000 0.000000e+000 0.000000e+000 0.000000e+000 0.000000e+000 0.000000e+000 9.615411e-001 3.845888e-002
 0.000000e+000 0.000000e+000 0.000000e+000 0.000000e+000 0.000000e+000 0.000000e+000 0.000000e+000 0.000000e+000 0.000000e+000 0.000000e+000
<ENDHMM>
~h "sest"
<BEGINHMM>
<NUMSTATES> 10
<STATE> 2
<MEAN> 39
 -9.938540e+000 -5.044012e-001 -1.915523e+000 7.138197e-002 -1.731628e-001 -1.096258e+000 7.007238e-001 2.029138e+000 -2.304199e+000 4.625933e-001 -3.004520e-001 5.049419e-001 4.605157e+001 -2.798221e-001 -2.306281e-001 1.738495e-001 -3.808222e-001 1.175148e-001 7.584482e-002 1.963831e-001 -8.263613e-002 -3.636352e-001 4.452397e-002 1.035309e-001 2.663333e-001 1.033611e-001 -3.434670e-001 -5.034442e-002 4.585309e-001 -4.233502e-001 1.802544e-001 -2.109756e-001 1.760257e-001 -6.553611e-002 -4.375408e-002 -8.051401e-003 -9.296493e-003 2.201791e-002 2.088856e-001
<VARIANCE> 39
 2.900923e+000 2.174130e+000 4.083365e+000 1.837102e+001 1.164025e+001 1.189491e+001 1.234355e+001 1.017377e+001 1.155196e+001 1.199471e+001 1.089990e+001 9.802800e+000 7.765304e-001 4.578796e-001 5.021668e-001 6.323214e-001 2.801516e+000 1.621494e+000 1.884703e+000 2.122877e+000 1.403166e+000 1.116740e+000 1.489211e+000 1.198258e+000 1.402515e+000 1.158081e-001 1.430789e-001 1.044562e-001 2.694389e-001 7.575236e-001 3.308985e-001 5.086442e-001 5.664249e-001 3.605670e-001 2.811176e-001 3.569611e-001 3.169003e-001 3.580875e-001 5.568194e-002
<GCONST> 8.060605e+001
<STATE> 3
<MEAN> 39
 -1.067123e+001 -1.171835e+000 -9.554306e-001 -8.559102e-001 -8.528824e-001 -6.288602e-001 -2.284536e-001 1.604394e+000 -3.200345e+000 -5.162217e-002 1.149732e+000 2.065381e+000 4.620724e+001 -1.742928e+000 -3.108923e-001 2.330215e+000 -2.246834e+000 1.262041e+000 -9.083996e-001 9.065225e-001 -1.999298e-001 -9.133780e-002 -1.316396e-001 -5.311181e-002 1.905056e-001 1.128968e+000 -6.577006e-001 3.826852e-002 7.670484e-001 -4.647135e-001 3.687737e-001 -4.010162e-001 5.218906e-001 -1.300441e-001 4.916419e-001 -7.700764e-002 2.047972e-001 -1.904900e-001 4.525813e-001
<VARIANCE> 39
 2.372181e+000 2.972544e+000 7.094085e+000 7.253410e+000 8.772174e+000 9.828858e+000 1.347290e+001 1.175042e+001 1.106307e+001 1.111421e+001 1.337597e+001 1.247648e+001 7.663043e-001 2.292059e-001 7.743290e-001 1.114506e+000 9.153416e-001 1.937532e+000 3.076636e+000 3.530514e+000 2.663761e+000 2.123009e+000 1.357783e+000 1.789731e+000 1.512691e+000 1.843170e-001 6.227162e-002 9.224319e-002 1.798639e-001 2.952363e-001 2.182965e-001 2.820926e-001 3.187244e-001 5.066696e-001 2.071389e-001 2.764178e-001 3.303680e-001 1.789566e-001 3.525211e-002
<GCONST> 7.769718e+001
<STATE> 4
<MEAN> 39
 -1.466873e+001 -1.290523e+000 4.167444e+000 -6.136394e+000 3.959249e+000 -3.833188e+000 2.323057e+000 2.794408e+000 -2.666908e+000 4.378150e-001 8.622869e-001 1.939209e+000 4.901366e+001 -2.492691e+000 -1.264156e-001 3.029787e+000 -2.395399e+000 1.237315e+000 -1.197374e+000 1.725838e+000 -6.220382e-001 1.194277e+000 -3.883913e-001 2.453712e-001 -4.393059e-001 1.611687e+000 -2.335175e-001 1.381468e-001 6.885295e-002 7.930739e-002 -2.899241e-001 2.121886e-001 3.996757e-002 -2.804478e-001 1.718154e-001 -1.246735e-001 1.424399e-001 -2.875695e-001 1.614212e-001
<VARIANCE> 39
 4.073089e+000 9.161596e+000 1.049351e+001 1.256239e+001 3.099445e+001 1.972081e+001 2.982190e+001 1.205485e+001 1.513359e+001 1.576516e+001 1.413475e+001 1.086316e+001 1.553854e+000 5.693091e-001 6.761698e-001 1.627455e+000 2.063260e+000 4.006404e+000 2.338539e+000 3.343689e+000 3.380049e+000 1.972716e+000 1.614382e+000 1.514992e+000 1.147337e+000 2.905510e-001 9.592289e-002 9.600655e-002 1.221510e-001 2.367173e-001 3.490463e-001 4.509155e-001 3.690643e-001 3.226148e-001 3.070694e-001 2.868537e-001 3.484479e-001 1.807527e-001 2.590347e-002
<GCONST> 8.776626e+001
<STATE> 5
<MEAN> 39
 -2.000383e+001 -1.537473e+000 9.782537e+000 -8.920117e+000 3.197158e+000 -4.621316e+000 6.395896e+000 -9.848816e-001 2.833931e-001 -1.593094e+000 2.036101e+000 3.141240e-001 5.228984e+001 -2.180892e+000 1.197664e-001 2.091105e+000 -1.373698e+000 6.496438e-002 -2.492289e-001 8.315985e-001 -5.336796e-001 3.400122e-001 -4.510180e-002 5.359613e-001 -7.293249e-001 1.463506e+000 3.405651e-001 4.124242e-002 -5.893399e-001 5.391644e-001 -3.475032e-001 2.665839e-001 -5.771992e-001 1.837756e-001 -2.124902e-001 1.990930e-001 -5.627748e-002 1.315402e-001 -1.999293e-001
<VARIANCE> 39
 3.514124e+000 1.138107e+001 2.323560e+001 2.573816e+001 4.282119e+001 3.048872e+001 3.559057e+001 2.623571e+001 2.389379e+001 1.552622e+001 1.218444e+001 1.993464e+001 2.497993e+000 7.211514e-001 7.089294e-001 1.127195e+000 2.203102e+000 2.225306e+000 2.222914e+000 2.595551e+000 2.704902e+000 1.514166e+000 1.885866e+000 2.289151e+000 1.337417e+000 2.554801e-001 5.019839e-002 1.463273e-001 2.372486e-001 2.380873e-001 3.784643e-001 3.664356e-001 3.002385e-001 6.449656e-001 3.509330e-001 3.071659e-001 4.087824e-001 2.999766e-001 2.863686e-002
<GCONST> 9.340335e+001
<STATE> 6
<MEAN> 39
 -2.537963e+001 -8.996102e-001 1.279890e+001 -1.137786e+001 3.877315e+000 -5.631536e+000 5.316028e+000 -1.154391e+000 2.382917e-001 -8.879523e-001 2.699550e+000 -1.002893e+000 5.636781e+001 -4.885407e-001 -2.167392e-001 1.817466e-001 9.328227e-002 -2.467936e-001 -1.207053e-001 -2.862089e-001 1.488427e-001 2.996427e-002 -1.822590e-002 -7.059316e-002 1.844115e-001 5.087246e-001 4.866550e-001 -1.431953e-001 -3.123531e-001 1.286346e-001 -1.455384e-001 -7.474748e-002 -1.136493e-001 1.798834e-001 -1.064167e-001 -4.194090e-002 -5.195346e-002 1.030412e-001 -1.858280e-001
<VARIANCE> 39
 6.149676e+000 1.348823e+001 1.556102e+001 3.561569e+001 7.359013e+001 2.877505e+001 4.074253e+001 2.074542e+001 2.449660e+001 1.707776e+001 1.777956e+001 1.594025e+001 3.543161e+000 7.479302e-001 5.999027e-001 6.337584e-001 7.985227e-001 1.308639e+000 1.114213e+000 1.229935e+000 1.805361e+000 1.588694e+000 1.353399e+000 1.447729e+000 1.403175e+000 1.820246e-001 1.520986e-001 1.072541e-001 1.322184e-001 2.069588e-001 3.682278e-001 2.776140e-001 2.987066e-001 3.681155e-001 2.692342e-001 3.081111e-001 3.283669e-001 2.810784e-001 3.615891e-002
<GCONST> 8.882724e+001
<STATE> 7
<MEAN> 39
 -1.724945e+001 -6.149389e+000 8.883281e+000 -1.118786e+001 -4.775277e+000 -1.004401e+001 8.130915e-001 3.084286e+000 -1.645092e+000 -1.225811e+000 8.101342e-001 8.385850e-001 5.759777e+001 3.100082e+000 -2.251427e+000 -1.545304e+000 -1.459314e+000 -2.705543e+000 -2.307298e+000 -1.032889e+000 1.883956e+000 -4.189142e-001 1.582968e-001 -8.556734e-001 -1.295085e-001 1.113745e+000 7.716510e-002 -5.027871e-001 -9.473454e-002 -4.233729e-001 -8.007557e-002 -1.187953e-001 2.021420e-001 4.062586e-001 1.452284e-001 1.640013e-001 -2.937559e-001 -1.694142e-001 4.166993e-001
<VARIANCE> 39
 5.177021e+001 2.807476e+001 2.128267e+001 5.613465e+001 8.675009e+001 5.377638e+001 3.839475e+001 3.079527e+001 3.103024e+001 1.720468e+001 2.141267e+001 1.363894e+001 1.693852e+001 1.927006e+000 4.077637e+000 6.337269e-001 3.129246e+000 4.560876e+000 4.123741e+000 3.800920e+000 2.916347e+000 2.733890e+000 2.985600e+000 2.979006e+000 1.155712e+000 2.274801e+000 9.514179e-001 4.459314e-001 2.213171e-001 5.103009e-001 1.467978e+000 1.161332e+000 7.650662e-001 4.518768e-001 5.915145e-001 4.587229e-001 3.841210e-001 2.355405e-001 2.618135e-001
<GCONST> 1.199839e+002
<STATE> 8
<MEAN> 39
 -9.339500e+000 -1.828878e+001 1.157081e+000 -1.929465e+001 -6.390614e+000 -1.561235e+001 2.714607e+000 1.220937e+001 -1.470400e+000 1.938803e+000 -6.501646e+000 9.131480e-001 6.512973e+001 -1.873521e-001 4.763035e-001 -3.969256e-001 3.184870e-001 3.691458e-001 3.241272e-001 2.181116e-001 -2.113444e-001 2.612583e-001 -3.765839e-002 -1.328791e-002 1.590095e-002 -2.228011e-001 -1.991437e-001 2.972224e-001 1.268889e-002 1.738376e-001 1.048278e-001 1.426968e-001 7.247764e-002 -1.648757e-001 2.750841e-002 -5.064717e-002 1.386419e-001 1.573321e-002 -1.442099e-001
<VARIANCE> 39
 1.635660e+001 5.304424e+001 1.918722e+001 7.853005e+001 5.230727e+001 3.880855e+001 8.116972e+001 3.428618e+001 4.143799e+001 3.485206e+001 5.155728e+001 4.336881e+001 2.143970e+001 8.270342e-001 3.568722e+000 8.068293e-001 2.009680e+000 1.631259e+000 2.026545e+000 2.460188e+000 2.673540e+000 1.626478e+000 1.954381e+000 2.122635e+000 1.664873e+000 1.038934e+000 1.785455e-001 2.053933e-001 1.162836e-001 2.523210e-001 3.613419e-001 3.573203e-001 3.595887e-001 3.798180e-001 2.723455e-001 3.562470e-001 2.857743e-001 2.444809e-001 8.212546e-002
<GCONST> 1.080969e+002
<STATE> 9
<MEAN> 39
 -1.818329e+001 1.883528e+000 -4.349540e+000 -5.691350e+000 7.972456e-001 -7.741017e+000 5.904856e+000 4.272735e+000 1.852556e+000 -8.708620e-001 -7.056640e-001 1.049065e+000 5.361811e+001 2.567218e-002 2.204035e-001 1.941944e-002 4.010334e-001 2.793671e-001 3.193916e-001 -2.901704e-002 -1.326298e-001 -2.293621e-001 4.868548e-002 9.615172e-002 1.593460e-002 -4.981289e-001 1.581170e-001 -1.513519e-001 6.445008e-002 -4.288089e-002 -5.169589e-002 -4.792152e-002 -1.256982e-001 1.657864e-002 -6.245490e-002 1.945336e-002 -6.075259e-002 5.190076e-003 1.068696e-002
<VARIANCE> 39
 1.243330e+001 1.791430e+001 1.457864e+001 1.870742e+001 3.185762e+001 3.517251e+001 3.714859e+001 1.623935e+001 2.859783e+001 2.110813e+001 2.019515e+001 1.851747e+001 1.357646e+001 1.424474e+000 1.021133e+000 7.893263e-001 1.116780e+000 1.238014e+000 1.937321e+000 1.922451e+000 1.345429e+000 1.813078e+000 1.919269e+000 1.718879e+000 1.351100e+000 2.934922e-001 1.025653e-001 1.228312e-001 1.469712e-001 2.302983e-001 2.151875e-001 3.742414e-001 3.537679e-001 2.719125e-001 3.565142e-001 3.937775e-001 3.684878e-001 2.734898e-001 5.360461e-002
<GCONST> 9.418354e+001
<TRANSP> 10
 0.000000e+000 1.000000e+000 0.000000e+000 0.000000e+000 0.000000e+000 0.000000e+000 0.000000e+000 0.000000e+000 0.000000e+000 0.000000e+000
 0.000000e+000 5.934160e-001 4.065840e-001 0.000000e+000 0.000000e+000 0.000000e+000 0.000000e+000 0.000000e+000 0.000000e+000 0.000000e+000
 0.000000e+000 0.000000e+000 3.625764e-001 6.374237e-001 0.000000e+000 0.000000e+000 0.000000e+000 0.000000e+000 0.000000e+000 0.000000e+000
 0.000000e+000 0.000000e+000 0.000000e+000 3.070983e-001 6.929017e-001 0.000000e+000 0.000000e+000 0.000000e+000 0.000000e+000 0.000000e+000
 0.000000e+000 0.000000e+000 0.000000e+000 0.000000e+000 5.939891e-001 4.060109e-001 0.000000e+000 0.000000e+000 0.000000e+000 0.000000e+000
 0.000000e+000 0.000000e+000 0.000000e+000 0.000000e+000 0.000000e+000 8.412129e-001 1.587872e-001 0.000000e+000 0.000000e+000 0.000000e+000
 0.000000e+000 0.000000e+000 0.000000e+000 0.000000e+000 0.000000e+000 0.000000e+000 7.984953e-001 2.015047e-001 0.000000e+000 0.000000e+000
 0.000000e+000 0.000000e+000 0.000000e+000 0.000000e+000 0.000000e+000 0.000000e+000 0.000000e+000 9.501320e-001 4.986802e-002 0.000000e+000
 0.000000e+000 0.000000e+000 0.000000e+000 0.000000e+000 0.000000e+000 0.000000e+000 0.000000e+000 0.000000e+000 9.495328e-001 5.046717e-002
 0.000000e+000 0.000000e+000 0.000000e+000 0.000000e+000 0.000000e+000 0.000000e+000 0.000000e+000 0.000000e+000 0.000000e+000 0.000000e+000
<ENDHMM>
~h "dva"
<BEGINHMM>
<NUMSTATES> 10
<STATE> 2
<MEAN> 39
 -8.985305e+000 5.304254e-001 -4.024529e+000 -3.468822e+000 -4.175100e+000 -5.089725e+000 -5.909174e+000 -4.127355e+000 -3.913113e+000 -1.944530e+000 -2.627153e+000 -2.966595e+000 4.147844e+001 7.193742e-002 1.917266e-002 4.656987e-002 -9.823982e-002 -5.837506e-002 -1.115838e-001 -5.810974e-002 -1.119388e-002 -8.857100e-002 4.629369e-002 -1.050746e-002 -1.624718e-002 3.737352e-002 1.355264e-002 1.308898e-002 1.375308e-002 -2.387160e-002 -3.794139e-003 -5.855450e-002 -5.735523e-003 -5.788696e-003 1.933359e-002 2.559446e-002 2.669007e-003 -5.826365e-003 3.859762e-002
<VARIANCE> 39
 3.141949e+000 4.554204e+000 7.828614e+000 9.835744e+000 1.300058e+001 1.615387e+001 2.047317e+001 2.694425e+001 2.197677e+001 2.005033e+001 1.508440e+001 1.228817e+001 5.293941e+000 3.329722e-001 4.767844e-001 5.929248e-001 1.045365e+000 1.384294e+000 1.157240e+000 2.042504e+000 2.030248e+000 2.065190e+000 1.831840e+000 1.339111e+000 7.451895e-001 8.409990e-002 8.298139e-002 1.149817e-001 1.322537e-001 2.344126e-001 2.759339e-001 2.248135e-001 4.151358e-001 4.791886e-001 4.691925e-001 3.806321e-001 2.951350e-001 1.547358e-001 2.847644e-002
<GCONST> 8.085818e+001
<STATE> 3
<MEAN> 39
 -7.563650e+000 1.327927e+000 -1.261069e+000 -1.583642e+000 -3.648381e+000 -4.870486e+000 -4.358987e+000 -1.058705e+000 -3.782884e+000 -8.253095e-001 3.040519e-001 4.113964e-001 4.718148e+001 4.438394e-001 4.123281e-001 1.368110e-001 -4.000086e-001 -7.881603e-001 -9.640253e-001 -2.194636e-001 -3.220026e-001 -6.458679e-003 1.278395e-001 -1.713683e-001 -5.722303e-002 3.249874e-001 -7.514829e-002 -2.357994e-001 1.681990e-002 -1.207279e-001 1.801550e-001 -7.721565e-002 1.508653e-001 1.989041e-001 1.307919e-001 1.367283e-001 -3.869589e-002 5.137647e-003 1.486974e-001
<VARIANCE> 39
 6.328377e+000 4.131006e+000 6.726440e+000 1.516416e+001 3.142761e+001 1.862437e+001 1.597306e+001 9.932046e+000 1.966384e+001 1.861853e+001 1.479895e+001 1.084280e+001 2.711930e+000 8.109796e-001 5.780556e-001 1.080294e+000 2.104170e+000 2.062721e+000 1.411213e+000 2.126972e+000 1.346350e+000 1.280921e+000 1.496835e+000 1.565009e+000 1.261917e+000 3.004084e-001 1.555541e-001 2.080438e-001 2.177786e-001 5.559052e-001 3.299568e-001 3.862237e-001 4.992130e-001 1.748902e-001 3.660036e-001 3.618794e-001 3.968178e-001 2.463251e-001 1.193008e-001
<GCONST> 8.878250e+001
<STATE> 4
<MEAN> 39
 -7.564805e+000 1.919039e+000 -1.501419e+000 -1.448172e+000 -2.953604e+000 -6.463875e+000 -2.325863e+000 -3.217930e-001 -2.258781e+000 5.168369e-001 -1.267450e+000 -8.852828e-004 4.746773e+001 -8.217108e-002 -1.126888e+000 5.954230e-001 -1.753073e+000 5.616461e-002 -1.096827e+000 -2.048848e-001 5.626042e-001 -1.982408e-002 6.516239e-001 3.769679e-002 1.576458e-001 1.250106e+000 -8.331035e-002 -7.652298e-001 1.474800e-001 -6.165656e-001 -2.182198e-001 -2.792564e-001 -3.547023e-001 2.994364e-001 3.327256e-002 2.592145e-001 1.474364e-002 3.481467e-002 4.263366e-001
<VARIANCE> 39
 1.091438e+001 7.289171e+000 8.776216e+000 1.064895e+001 4.222178e+001 2.169461e+001 2.100908e+001 1.040178e+001 1.310459e+001 1.188216e+001 1.388888e+001 1.033261e+001 4.042198e+000 9.617143e-001 2.665620e+000 2.808014e+000 3.125905e+000 3.126358e+000 3.154181e+000 1.829071e+000 1.430616e+000 2.528516e+000 2.287262e+000 1.502245e+000 1.207718e+000 1.371256e+000 1.552027e-001 3.083069e-001 5.074604e-001 3.746264e-001 5.283699e-001 3.764474e-001 3.768825e-001 2.635747e-001 3.454039e-001 2.745173e-001 3.721082e-001 3.850740e-001 2.330988e-001
<GCONST> 9.886083e+001
<STATE> 5
<MEAN> 39
 -8.321220e+000 -1.676124e+000 1.992621e-001 -5.716905e+000 -3.437040e+000 -7.384615e+000 -5.132338e+000 -5.711769e-001 -3.255152e+000 1.512109e+000 -1.357773e+000 -1.389605e+000 5.012857e+001 2.464935e-001 -1.668653e+000 3.485432e-001 -2.052676e+000 -7.312498e-001 -1.536009e+000 -1.350032e+000 2.945173e-001 -2.611874e-002 1.345743e+000 -5.624953e-001 -2.635435e-001 2.149700e+000 2.224402e-001 -7.249546e-002 -3.466468e-001 5.212140e-002 3.489846e-002 1.087653e-001 -3.493039e-001 -1.628574e-001 1.559854e-001 1.650588e-001 -4.514213e-001 -2.287578e-001 1.315680e-001
<VARIANCE> 39
 1.235715e+001 2.462435e+001 3.415209e+001 3.059315e+001 6.427501e+001 3.290856e+001 1.748626e+001 3.601738e+001 2.247008e+001 2.756835e+001 2.650369e+001 3.095797e+001 2.952552e+001 1.537504e+000 4.627359e+000 5.060008e+000 5.770699e+000 3.279584e+000 3.359112e+000 4.521998e+000 3.464499e+000 3.160599e+000 4.337364e+000 1.640742e+000 2.732282e+000 2.590983e+000 2.499004e-001 6.304253e-001 3.138366e-001 1.027272e+000 9.030547e-001 5.350661e-001 5.048469e-001 4.878351e-001 3.263099e-001 5.452727e-001 4.212944e-001 4.801781e-001 2.998137e-001
<GCONST> 1.208931e+002
<STATE> 6
<MEAN> 39
 -6.709499e+000 -8.386490e+000 1.601813e+000 -1.244797e+001 -6.720399e+000 -1.406278e+001 -1.082988e+001 2.941688e+000 -1.415333e+000 5.528894e+000 -2.759119e+000 -5.448663e-001 5.744925e+001 8.196844e-001 -1.072803e+000 -9.223671e-001 -6.412302e-001 3.317778e-001 1.028922e-001 -1.476198e+000 -6.593462e-001 4.989919e-001 7.664436e-001 -1.485924e+000 -1.309902e+000 7.864209e-001 1.167558e-001 9.375939e-001 -5.136226e-001 9.371755e-001 5.906809e-001 9.648902e-001 5.959832e-001 -6.468284e-001 -1.639654e-001 -4.040912e-001 -4.539604e-002 -3.316343e-001 -7.907106e-001
<VARIANCE> 39
 7.956686e+000 1.440184e+001 6.678629e+001 2.979622e+001 5.503044e+001 2.637383e+001 7.522533e+001 3.279237e+001 4.719405e+001 5.124021e+001 4.676707e+001 1.990054e+001 1.755864e+001 4.981938e-001 4.526062e+000 2.753746e+000 6.444674e+000 2.800341e+000 5.005512e+000 5.582764e+000 3.706959e+000 3.489027e+000 4.226360e+000 4.189739e+000 2.499702e+000 2.998015e+000 1.848473e-001 5.040225e-001 6.051415e-001 5.489646e-001 3.269255e-001 5.151756e-001 5.938271e-001 5.634806e-001 9.230596e-001 6.374836e-001 6.611695e-001 3.646069e-001 2.763767e-001
<GCONST> 1.225045e+002
<STATE> 7
<MEAN> 39
 -3.309326e+000 -8.892155e+000 -1.012946e+001 -1.185600e+001 -6.336648e-001 -8.666706e+000 -7.557424e-001 -1.191516e+000 -4.644512e+000 8.324040e+000 -4.703107e+000 -7.665930e+000 5.802146e+001 -5.625219e-002 -2.849528e-001 -2.854696e-001 -4.344760e-001 6.876743e-001 6.572041e-001 3.014394e-001 -2.041653e-002 -1.454059e-002 1.689633e-001 -2.196100e-001 -2.493355e-001 1.832618e-001 -8.282534e-002 -2.922400e-001 4.536846e-002 -3.247109e-001 -4.395314e-002 5.569437e-002 8.872630e-002 2.436035e-001 1.824383e-002 -3.695657e-003 1.475609e-002 1.177361e-001 1.841495e-001
<VARIANCE> 39
 7.029323e+000 2.611091e+001 7.521781e+001 2.483195e+001 2.166330e+001 1.813620e+001 1.224370e+002 1.604873e+001 1.751413e+001 2.838235e+001 2.403795e+001 1.884469e+001 2.226489e+001 2.368342e-001 2.918678e+000 1.154167e+000 3.288838e+000 1.222952e+000 1.577558e+000 1.628678e+000 1.472670e+000 1.474420e+000 1.812079e+000 1.586326e+000 1.142344e+000 1.549083e+000 5.785658e-002 4.428917e-001 1.534898e-001 5.402421e-001 1.674904e-001 3.397401e-001 3.216063e-001 2.715239e-001 1.796867e-001 3.702461e-001 3.084590e-001 2.577162e-001 2.294897e-001
<GCONST> 9.974541e+001
<STATE> 8
<MEAN> 39
 -7.395840e+000 -1.769442e+001 -6.438329e+000 -2.307810e+001 9.065114e+000 -3.842849e-001 -7.442774e+000 2.325011e+000 -5.122801e+000 4.804710e+000 -6.659584e+000 -5.526430e+000 6.227360e+001 -1.311610e-001 -5.686896e-001 -1.598794e-001 -2.670591e-001 5.905560e-001 3.941801e-001 3.565139e-001 2.893359e-001 -3.982042e-001 -2.536898e-001 -3.597666e-001 7.550206e-002 2.243301e-001 -1.904152e-002 2.584945e-001 9.670974e-002 3.426303e-001 -1.319331e-002 -8.308671e-002 -8.105725e-002 -9.227173e-002 -2.605796e-002 -7.893357e-002 1.039778e-001 2.871672e-002 -2.022239e-001
<VARIANCE> 39
 1.343794e+001 7.388858e+001 1.899209e+001 8.294823e+001 1.162764e+002 6.021831e+001 3.213951e+001 4.492013e+001 3.113655e+001 6.560104e+001 1.016252e+002 2.560639e+001 9.904990e+001 6.264157e-001 3.769530e+000 1.186547e+000 5.564528e+000 2.623495e+000 3.099216e+000 2.956313e+000 2.557869e+000 1.892384e+000 2.484598e+000 3.036906e+000 1.898402e+000 2.342976e+000 1.113868e-001 2.479343e-001 2.025614e-001 5.808557e-001 3.006550e-001 5.275055e-001 5.281498e-001 3.755693e-001 4.468847e-001 5.204082e-001 4.585301e-001 2.932219e-001 1.247342e-001
<GCONST> 1.184323e+002
<STATE> 9
<MEAN> 39
 -8.242982e+000 -1.811756e+001 -7.384293e+000 -1.644236e+001 1.204416e+001 2.173803e+000 -5.035951e+000 3.815353e+000 -4.675742e+000 3.712139e+000 -1.025689e+001 -2.858760e+000 5.989248e+001 -7.261516e-002 6.567222e-001 1.107909e-002 7.472210e-001 -2.233141e-001 1.466191e-001 3.730580e-002 -6.264914e-002 1.133395e-001 -2.579343e-001 4.450980e-001 1.267512e-001 -6.704943e-001 2.071701e-002 2.962229e-002 1.028025e-002 3.034413e-004 -8.374694e-002 -3.356363e-002 2.401671e-002 -1.115827e-002 4.082965e-002 3.653815e-002 4.184355e-002 2.246758e-002 -9.292078e-004
<VARIANCE> 39
 5.003646e+000 7.249482e+001 1.380447e+001 6.419962e+001 4.082906e+001 4.711028e+001 4.663251e+001 3.218590e+001 2.421122e+001 3.223294e+001 4.696441e+001 3.796083e+001 5.720430e+001 1.842187e-001 7.317280e-001 6.100778e-001 8.371485e-001 1.032326e+000 1.507441e+000 1.355684e+000 1.533310e+000 1.514039e+000 1.925881e+000 1.556849e+000 1.135387e+000 2.960395e-001 2.872698e-002 9.103094e-002 1.170596e-001 1.412117e-001 1.969565e-001 2.735364e-001 2.413588e-001 2.876066e-001 2.991711e-001 3.148713e-001 2.918597e-001 2.280097e-001 2.037079e-002
<GCONST> 9.174297e+001
<TRANSP> 10
 0.000000e+000 1.000000e+000 0.000000e+000 0.000000e+000 0.000000e+000 0.000000e+000 0.000000e+000 0.000000e+000 0.000000e+000 0.000000e+000
 0.000000e+000 8.320395e-001 1.679605e-001 0.000000e+000 0.000000e+000 0.000000e+000 0.000000e+000 0.000000e+000 0.000000e+000 0.000000e+000
 0.000000e+000 0.000000e+000 6.906109e-001 3.093890e-001 0.000000e+000 0.000000e+000 0.000000e+000 0.000000e+000 0.000000e+000 0.000000e+000
 0.000000e+000 0.000000e+000 0.000000e+000 5.797635e-001 4.202365e-001 0.000000e+000 0.000000e+000 0.000000e+000 0.000000e+000 0.000000e+000
 0.000000e+000 0.000000e+000 0.000000e+000 0.000000e+000 4.628058e-001 5.371942e-001 0.000000e+000 0.000000e+000 0.000000e+000 0.000000e+000
 0.000000e+000 0.000000e+000 0.000000e+000 0.000000e+000 0.000000e+000 6.212603e-001 3.787397e-001 0.000000e+000 0.000000e+000 0.000000e+000
 0.000000e+000 0.000000e+000 0.000000e+000 0.000000e+000 0.000000e+000 0.000000e+000 8.966812e-001 1.033188e-001 0.000000e+000 0.000000e+000
 0.000000e+000 0.000000e+000 0.000000e+000 0.000000e+000 0.000000e+000 0.000000e+000 0.000000e+000 9.154231e-001 8.457695e-002 0.000000e+000
 0.000000e+000 0.000000e+000 0.000000e+000 0.000000e+000 0.000000e+000 0.000000e+000 0.000000e+000 0.000000e+000 9.426748e-001 5.732520e-002
 0.000000e+000 0.000000e+000 0.000000e+000 0.000000e+000 0.000000e+000 0.000000e+000 0.000000e+000 0.000000e+000 0.000000e+000 0.000000e+000
<ENDHMM>
~h "osm"
<BEGINHMM>
<NUMSTATES> 10
<STATE> 2
<MEAN> 39
 -9.705274e+000 -5.051454e-001 -2.138888e+000 1.285752e+000 -6.768810e-001 -3.557244e-001 -4.048034e-001 2.035879e+000 -2.415566e+000 -1.024844e+000 3.619331e-002 7.380546e-001 4.539160e+001 1.110475e-001 -7.885444e-002 2.773759e-002 5.860414e-002 -7.523260e-002 1.416390e-001 -3.178589e-001 -3.464267e-001 -1.597183e-001 -9.069102e-002 1.955028e-002 -2.504167e-002 -2.820161e-002 2.458612e-001 -2.843190e-001 -4.859198e-001 -1.247638e+000 -7.252195e-002 8.891094e-002 1.052519e-001 2.265089e-001 -1.404331e-001 2.311370e-001 5.090957e-002 -1.851164e-001 4.675142e-001
<VARIANCE> 39
 7.811997e-001 2.652237e+000 3.889906e+000 7.982936e+000 8.537642e+000 1.028175e+001 1.535469e+001 1.506087e+001 1.016928e+001 1.665811e+001 1.386580e+001 7.772159e+000 2.218557e+000 8.250404e-002 2.219961e-001 2.211520e-001 5.984189e-001 7.028058e-001 6.634639e-001 5.648888e-001 9.145681e-001 1.613524e+000 9.221988e-001 1.034353e+000 8.269268e-001 2.092279e-002 3.880418e-002 5.559035e-002 1.246049e-001 2.807901e-001 5.976750e-001 2.023647e-001 3.023772e-001 2.684260e-001 2.712229e-001 3.772560e-001 2.794460e-001 1.506919e-001 4.566288e-002
<GCONST> 6.264837e+001
<STATE> 3
<MEAN> 39
 -9.444435e+000 -6.330740e-002 -2.345912e+000 1.034288e+000 -6.672460e-001 -2.738529e-001 -1.312938e+000 5.695094e-001 -1.440618e+000 7.493473e-001 1.785315e+000 1.376562e+000 4.550916e+001 4.358143e-001 -2.956311e-001 -8.407193e-001 -1.450008e+000 -2.040946e-001 4.494406e-001 7.123007e-001 2.114003e-001 -4.012651e-001 5.533115e-002 -2.094680e-002 6.123529e-002 4.509092e-001 3.309636e-001 -6.376417e-001 -6.895114e-001 -2.239447e+000 8.022863e-002 1.231116e-001 -8.513589e-003 4.490958e-001 -2.314386e-001 4.533523e-001 -5.807688e-002 -3.848012e-001 9.242849e-001
<VARIANCE> 39
 9.851469e-001 2.202956e+000 2.990663e+000 4.861981e+000 5.850739e+000 8.788735e+000 3.376234e+000 7.979367e+000 8.658827e+000 1.076876e+001 8.036412e+000 7.995622e+000 1.430022e+000 2.058871e-001 3.362764e-001 9.299669e-001 1.780542e+000 1.467003e+000 7.476277e-001 8.499598e-001 1.081551e+000 1.198871e+000 1.103513e+000 9.188709e-001 8.693343e-001 1.347887e-001 6.586345e-002 2.126009e-001 2.046411e-001 6.350307e-001 9.029388e-001 3.132133e-001 2.261880e-001 4.562014e-001 4.320050e-001 4.658294e-001 3.376262e-001 2.057626e-001 1.411506e-001
<GCONST> 7.124060e+001
<STATE> 4
<MEAN> 39
 -9.417647e+000 -7.027690e-001 -2.549569e+000 7.075716e-001 -1.413867e+000 -2.982870e-001 -8.269690e-001 4.397283e-002 -2.374917e+000 -1.321783e+000 -3.119711e-002 8.655134e-001 4.535284e+001 1.029217e+000 -1.561292e+000 -2.368030e+000 -5.654256e+000 1.182859e-001 4.947116e-001 2.991628e-001 8.574408e-001 -8.097405e-001 1.112658e+000 -1.549610e-001 -6.339222e-001 2.160469e+000 3.033553e-001 -7.604275e-001 -5.169370e-001 -2.319777e+000 2.807362e-001 7.694965e-002 -2.274301e-001 4.303397e-001 -1.707978e-001 6.611335e-001 -5.340053e-002 -3.662306e-001 1.125337e+000
<VARIANCE> 39
 8.005947e-001 2.677903e+000 4.554796e+000 7.518485e+000 4.997946e+000 9.497725e+000 1.028267e+001 1.250440e+001 1.701330e+001 1.367624e+001 1.267290e+001 1.143967e+001 2.257854e+000 5.167838e-001 8.999029e-001 2.056971e+000 4.392015e+000 5.315533e+000 2.495224e+000 1.555381e+000 2.888196e+000 2.452672e+000 2.700434e+000 1.932254e+000 1.910250e+000 8.518671e-001 9.445184e-002 4.074180e-001 3.768910e-001 1.104584e+000 8.103364e-001 5.308155e-001 2.254056e-001 6.266820e-001 5.266986e-001 2.003417e-001 2.376733e-001 3.004289e-001 2.075939e-001
<GCONST> 9.109443e+001
<STATE> 5
<MEAN> 39
 -7.511863e+000 -2.319655e+000 -7.593947e+000 -8.088897e+000 -1.563028e+000 1.331384e+000 3.301356e+000 3.499154e+000 -4.621538e+000 7.890499e-001 4.755958e-001 4.545268e-001 4.821747e+001 1.211730e+000 -2.705383e+000 -2.271222e+000 -8.417838e+000 5.463385e-001 6.802166e-001 -4.599059e-001 1.535604e+000 -8.760014e-001 1.919530e+000 -1.638851e-001 -1.373155e+000 3.640136e+000 3.162397e-002 -4.502525e-001 2.820745e-001 -9.164322e-001 2.420498e-001 -3.172464e-002 -5.839444e-001 1.363640e-001 7.629110e-002 4.447816e-001 -1.742866e-002 -2.374332e-001 6.996170e-001
<VARIANCE> 39
 4.475433e+000 3.898051e+000 2.218254e+001 2.517343e+001 1.571943e+001 8.765589e+000 1.343485e+001 2.246056e+001 1.510400e+001 2.642532e+001 1.543126e+001 7.456945e+000 7.361279e+000 7.778357e-001 3.268598e+000 3.439460e+000 9.266546e+000 9.246948e+000 5.136147e+000 2.124727e+000 4.419391e+000 3.537661e+000 2.568545e+000 2.794565e+000 2.596929e+000 2.197210e+000 6.701481e-002 3.351049e-001 1.359585e-001 9.745268e-001 3.343251e-001 2.660350e-001 1.545521e-001 3.788022e-001 3.079193e-001 3.137504e-001 1.921533e-001 2.506578e-001 1.668232e-001
<GCONST> 1.014628e+002
<STATE> 6
<MEAN> 39
 -3.754107e+000 -5.538526e+000 -1.130120e+001 -2.175557e+001 -4.755481e+000 -8.787292e-001 -1.524171e+000 3.781333e+000 -6.419506e+000 8.294630e+000 3.582830e+000 -3.549526e+000 5.576316e+001 9.624954e-001 -1.667452e+000 -5.316229e-001 -4.518364e+000 4.848704e-001 3.536350e-002 -1.203508e+000 4.212157e-001 -6.522784e-001 1.579602e+000 1.056272e-001 -7.643964e-001 2.712302e+000 -3.447881e-001 1.606357e-001 6.271191e-001 1.207295e+000 3.845459e-001 -9.365172e-002 -2.224052e-001 -2.725700e-001 1.439498e-001 -2.050777e-001 -1.624448e-001 3.122899e-001 -2.825520e-001
<VARIANCE> 39
 8.357050e+000 2.324162e+001 2.794571e+001 9.075832e+001 8.405021e+001 4.205619e+001 2.035734e+001 4.758292e+001 2.155492e+001 4.790127e+001 3.098510e+001 1.331368e+001 1.565442e+001 7.754911e-001 3.397446e+000 2.349312e+000 2.022664e+001 5.613315e+000 3.135652e+000 2.558985e+000 4.276058e+000 2.676317e+000 2.065331e+000 1.412661e+000 2.003717e+000 3.265351e+000 6.260770e-002 1.633511e-001 2.193813e-001 7.480968e-001 6.087554e-001 2.738426e-001 2.436070e-001 4.650680e-001 3.884960e-001 3.477924e-001 2.543174e-001 2.879528e-001 7.879003e-002
<GCONST> 1.120520e+002
<STATE> 7
<MEAN> 39
 -5.895870e+000 -1.396483e+001 -8.547013e+000 -3.519718e+001 6.888642e+000 2.716074e-001 -5.292184e+000 6.191914e+000 -3.642713e+000 8.897632e+000 -3.147452e+000 -1.623970e+000 6.455477e+001 -2.040979e-001 1.653295e-001 3.654891e-002 -1.231504e-001 4.362436e-001 -7.178500e-001 -6.532934e-001 -4.694619e-001 1.753754e-001 2.940090e-001 -4.944329e-001 2.372244e-002 3.154813e-001 -2.408102e-001 5.306054e-001 4.929835e-002 9.674453e-001 -1.145226e-001 8.877318e-003 3.159060e-001 -2.227093e-001 1.888733e-001 -4.301775e-001 7.278822e-002 2.979857e-002 -4.900746e-001
<VARIANCE> 39
 1.060845e+001 2.414049e+001 2.916688e+001 5.824950e+001 7.386205e+001 5.755146e+001 4.568519e+001 2.894451e+001 7.592482e+001 1.852342e+001 3.998546e+001 3.562815e+001 1.428115e+001 3.018171e-001 2.230335e+000 1.146023e+000 6.049429e+000 1.505527e+000 2.700622e+000 2.183372e+000 1.492965e+000 2.065424e+000 2.293447e+000 1.941304e+000 1.904684e+000 1.812535e+000 1.259783e-001 2.376423e-001 3.928550e-001 9.993883e-001 4.096141e-001 6.746559e-001 6.038000e-001 2.810126e-001 4.348863e-001 4.206378e-001 4.023486e-001 4.076874e-001 1.718659e-001
<GCONST> 1.121836e+002
<STATE> 8
<MEAN> 39
 -1.551014e+001 -1.041906e+000 -5.993698e+000 -1.402228e+001 2.660619e+000 -4.862895e+000 -2.481477e+000 1.657908e+000 -6.777008e-001 2.303481e+000 -1.933604e-001 -6.779892e-001 5.778455e+001 6.177098e-003 2.358032e-002 4.194018e-001 4.060864e-001 -4.060507e-001 -3.529800e-001 -2.789848e-001 -1.583965e-001 -9.161676e-002 -1.334848e-001 2.563016e-001 3.319724e-002 -3.086194e-002 7.321456e-002 -1.247169e-001 2.461500e-002 -1.261769e-001 -8.839648e-003 -2.661945e-002 -5.935629e-002 5.828146e-002 -9.160174e-002 1.167443e-001 2.107454e-002 -4.882449e-003 5.167317e-002
<VARIANCE> 39
 4.506403e+001 2.180808e+001 4.638446e+001 6.009187e+001 5.676318e+001 5.710414e+001 6.538683e+001 5.375075e+001 3.568599e+001 2.710617e+001 3.157355e+001 2.239978e+001 2.595347e+001 4.324172e+000 2.185678e+000 1.679819e+000 4.132586e+000 2.812259e+000 2.745434e+000 5.094566e+000 4.228683e+000 2.841447e+000 3.003910e+000 3.136310e+000 1.904064e+000 7.414606e-001 4.527397e-001 1.786068e-001 1.861763e-001 3.948337e-001 4.913357e-001 4.298529e-001 7.109694e-001 7.973118e-001 4.076567e-001 5.004810e-001 5.428270e-001 3.659163e-001 8.137088e-002
<GCONST> 1.194084e+002
<STATE> 9
<MEAN> 39
 -5.923062e+000 -7.117853e+000 1.687394e+000 -1.528818e+001 -1.513831e+000 -1.165493e+001 -1.338524e+001 -1.005176e+000 -1.012437e+001 6.119019e+000 1.599444e+000 -2.485216e+000 5.742609e+001 -4.247864e-002 2.288064e-001 -2.750064e-002 3.873979e-001 2.215232e-001 2.169782e-001 2.568013e-001 1.811756e-002 -1.486919e-001 -1.865884e-001 -1.795582e-001 -3.485404e-002 -3.468437e-001 -2.682192e-002 5.226971e-002 -3.579517e-002 6.630147e-002 -9.541304e-003 6.379619e-002 6.037108e-002 1.121724e-002 8.068264e-002 -4.593702e-002 -1.951959e-002 2.496271e-002 -5.405438e-002
<VARIANCE> 39
 9.029980e+000 4.185425e+001 3.188444e+001 4.125951e+001 4.711939e+001 2.806540e+001 3.992637e+001 5.088246e+001 2.251549e+001 3.989082e+001 5.836360e+001 3.965312e+001 2.092639e+001 1.666940e-001 5.634473e-001 6.318951e-001 1.027738e+000 7.867247e-001 1.208925e+000 1.177648e+000 1.155267e+000 1.147591e+000 1.647941e+000 1.112455e+000 1.125742e+000 2.447930e-001 2.741691e-002 6.819433e-002 9.162336e-002 1.460714e-001 1.310074e-001 2.036609e-001 1.660500e-001 2.093831e-001 2.148137e-001 2.628226e-001 1.989046e-001 1.892031e-001 1.626449e-002
<GCONST> 8.625009e+001
<TRANSP> 10
 0.000000e+000 1.000000e+000 0.000000e+000 0.000000e+000 0.000000e+000 0.000000e+000 0.000000e+000 0.000000e+000 0.000000e+000 0.000000e+000
 0.000000e+000 6.904542e-003 9.930955e-001 0.000000e+000 0.000000e+000 0.000000e+000 0.000000e+000 0.000000e+000 0.000000e+000 0.000000e+000
 0.000000e+000 0.000000e+000 3.095825e-002 9.690418e-001 0.000000e+000 0.000000e+000 0.000000e+000 0.000000e+000 0.000000e+000 0.000000e+000
 0.000000e+000 0.000000e+000 0.000000e+000 4.801971e-002 9.519803e-001 0.000000e+000 0.000000e+000 0.000000e+000 0.000000e+000 0.000000e+000
 0.000000e+000 0.000000e+000 0.000000e+000 0.000000e+000 2.460910e-002 9.753909e-001 0.000000e+000 0.000000e+000 0.000000e+000 0.000000e+000
 0.000000e+000 0.000000e+000 0.000000e+000 0.000000e+000 0.000000e+000 5.454301e-001 4.545699e-001 0.000000e+000 0.000000e+000 0.000000e+000
 0.000000e+000 0.000000e+000 0.000000e+000 0.000000e+000 0.000000e+000 0.000000e+000 8.638509e-001 1.361490e-001 0.000000e+000 0.000000e+000
 0.000000e+000 0.000000e+000 0.000000e+000 0.000000e+000 0.000000e+000 0.000000e+000 0.000000e+000 9.555598e-001 4.444013e-002 0.000000e+000
 0.000000e+000 0.000000e+000 0.000000e+000 0.000000e+000 0.000000e+000 0.000000e+000 0.000000e+000 0.000000e+000 9.629132e-001 3.708681e-002
 0.000000e+000 0.000000e+000 0.000000e+000 0.000000e+000 0.000000e+000 0.000000e+000 0.000000e+000 0.000000e+000 0.000000e+000 0.000000e+000
<ENDHMM>
~h "pet"
<BEGINHMM>
<NUMSTATES> 10
<STATE> 2
<MEAN> 39
 -9.011870e+000 1.914417e-001 -2.241219e+000 5.733464e-002 -1.100245e+000 -5.960366e-001 4.308373e-001 3.133903e+000 -1.582116e+000 -9.432530e-002 1.121916e+000 1.196063e+000 4.624538e+001 -3.016605e-002 -1.097381e-001 3.722527e-004 8.993411e-002 1.668354e-001 -2.934658e-001 4.561326e-002 -1.679837e-001 -1.461754e-001 -2.455595e-001 -3.229240e-001 -5.360582e-002 8.110233e-002 -1.013806e-001 -1.537557e-001 1.942253e-001 7.446256e-003 -1.576352e-001 -3.212323e-001 -4.825427e-002 -1.620080e-001 -3.677379e-002 1.275315e-001 -4.856230e-003 4.014077e-002 9.433834e-002
<VARIANCE> 39
 1.327582e+000 5.060640e+000 5.783237e+000 1.810472e+000 4.692771e+000 1.280331e+001 6.989233e+000 5.942783e+000 8.489614e+000 7.693346e+000 1.012473e+001 9.411296e+000 9.133337e-001 1.174662e-001 3.766339e-001 3.519317e-001 4.363461e-001 7.627280e-001 8.551120e-001 9.933590e-001 8.298721e-001 7.854555e-001 7.884749e-001 5.913622e-001 8.960660e-001 4.915416e-002 4.059057e-002 1.153748e-001 1.277725e-001 5.732911e-002 1.796863e-001 2.406175e-001 1.567898e-001 2.546845e-001 2.421849e-001 2.940131e-001 2.084297e-001 2.068460e-001 1.914443e-002
<GCONST> 5.627531e+001
<STATE> 3
<MEAN> 39
 -9.379314e+000 1.679815e-001 -1.762367e+000 1.527978e+000 -1.007907e+000 -2.622751e+000 -1.409408e+000 9.192398e-001 -1.535192e+000 -5.374478e-001 1.244187e-001 1.081728e+000 4.604305e+001 -6.833722e-002 -1.457563e-001 2.358836e-001 1.669166e-001 -1.552043e-001 -4.450001e-001 -1.194702e-001 -1.397927e-001 -2.243860e-002 -1.214744e-001 -3.270642e-001 -2.370275e-001 8.799660e-002 -4.769271e-002 -3.474416e-001 5.636882e-001 -4.916030e-001 -6.638712e-001 -7.470477e-001 -9.334329e-002 1.340488e-002 -2.131746e-001 3.294965e-001 1.542821e-001 2.174739e-003 4.842738e-001
<VARIANCE> 39
 2.259928e+000 4.128215e+000 5.443439e+000 4.845433e+000 6.127961e+000 1.745711e+001 8.819859e+000 1.204856e+001 1.061030e+001 7.081167e+000 7.695141e+000 1.082327e+001 1.413199e+000 1.643927e-001 4.079252e-001 4.141939e-001 3.582283e-001 4.532402e-001 1.493096e+000 9.513881e-001 1.677122e+000 1.747411e+000 1.315671e+000 8.938566e-001 1.368030e+000 6.854871e-002 7.635522e-002 1.875049e-001 1.468941e-001 1.432778e-001 3.602306e-001 3.017075e-001 2.275734e-001 2.437606e-001 2.412380e-001 2.486604e-001 1.279292e-001 1.683466e-001 2.010795e-002
<GCONST> 6.565201e+001
<STATE> 4
<MEAN> 39
 -9.598703e+000 -2.670818e-001 -1.049549e+000 1.545227e+000 -8.729293e-001 -1.532290e+000 -1.180068e-001 2.423208e+000 -1.556600e+000 -1.648430e-001 3.859415e-001 9.291518e-001 4.620313e+001 -2.717971e-001 -5.456687e-001 1.088302e+000 -2.411266e-001 -6.724913e-001 -1.764344e+000 -2.980332e-001 -3.857982e-001 -4.650783e-001 2.455693e-001 -8.882026e-002 5.850702e-002 7.474594e-001 8.539181e-002 -6.145563e-001 9.661104e-001 -1.095233e+000 -1.167935e+000 -1.247663e+000 -2.099195e-001 -2.437924e-002 -4.780763e-001 7.163905e-001 2.179551e-001 -5.186643e-002 9.234999e-001
<VARIANCE> 39
 2.544817e+000 6.679975e+000 4.529788e+000 7.058781e+000 3.285129e+000 1.007831e+001 1.797381e+001 1.573742e+001 9.546664e+000 1.680553e+001 6.713016e+000 1.179403e+001 1.889739e+000 6.342880e-001 8.529137e-001 9.417709e-001 5.380743e-001 1.566432e+000 2.683078e+000 8.110557e-001 2.044769e+000 2.601140e+000 1.447435e+000 1.285925e+000 1.049748e+000 2.648975e-001 6.896017e-002 3.104224e-001 2.971299e-001 3.183233e-001 3.787712e-001 1.856691e-001 5.475723e-001 3.897197e-001 2.554490e-001 3.559501e-001 2.760352e-001 2.545554e-001 7.931625e-002
<GCONST> 8.016194e+001
<STATE> 5
<MEAN> 39
 -9.725829e+000 -6.223031e-001 -8.970928e-001 5.400330e-001 -1.305864e+000 -2.635894e+000 -1.143531e+000 2.025754e+000 -1.381962e+000 2.895077e-001 6.909840e-001 3.472578e-001 4.659091e+001 4.019786e-002 -1.709016e+000 2.796959e+000 -2.686146e+000 -3.229244e+000 -3.904222e+000 -6.588933e-001 -5.735393e-002 -1.400046e+000 1.285346e+000 5.619661e-001 -3.393783e-001 2.570787e+000 1.614287e-001 -7.502382e-001 1.146808e+000 -1.523579e+000 -1.224983e+000 -9.400041e-001 -7.597513e-002 4.165301e-002 -4.631687e-001 9.522095e-001 2.458924e-001 3.631250e-003 1.079515e+000
<VARIANCE> 39
 3.766487e+000 4.892870e+000 9.226362e+000 9.760275e+000 5.892677e+000 1.949496e+001 1.469524e+001 1.802852e+001 2.197046e+001 7.284395e+000 5.488749e+000 6.977804e+000 2.250374e+000 7.151563e-001 1.615369e+000 2.259886e+000 3.046790e+000 3.696750e+000 2.760291e+000 2.185878e+000 2.397312e+000 2.562148e+000 3.373940e+000 1.036380e+000 1.267837e+000 8.284925e-001 7.293389e-002 2.502223e-001 5.229322e-001 7.538788e-001 4.385597e-001 3.393451e-001 5.163721e-001 3.974802e-001 4.967546e-001 7.576737e-001 3.679305e-001 1.982958e-001 1.652098e-001
<GCONST> 9.342300e+001
<STATE> 6
<MEAN> 39
 -8.736462e+000 -3.520557e+000 5.432180e+000 -3.485508e+000 -1.098331e+001 -1.666717e+001 -2.306826e+000 4.202519e-001 -6.593036e+000 3.379363e+000 1.659466e+000 1.435762e+000 5.337585e+001 4.148251e-001 -2.424706e+000 3.259480e+000 -3.807889e+000 -3.944768e+000 -3.884667e+000 -1.897610e-001 2.270318e-001 -1.434341e+000 2.881333e+000 3.576483e-001 -2.784972e-001 3.265699e+000 2.050461e-002 -2.179148e-001 -8.381668e-002 -4.704364e-001 1.358614e-001 8.297883e-001 3.924618e-001 3.466052e-001 2.183481e-001 3.381130e-001 -9.598296e-002 -8.870509e-003 7.615824e-002
<VARIANCE> 39
 1.051188e+001 2.220768e+001 1.883991e+001 2.973773e+001 5.737873e+001 4.788652e+001 1.361288e+001 2.375021e+001 3.269192e+001 2.233576e+001 1.979617e+001 1.358147e+001 9.550169e+000 4.682851e-001 3.175275e+000 6.217870e+000 9.687449e+000 5.104653e+000 2.866384e+000 5.373074e+000 2.843688e+000 2.710798e+000 6.253277e+000 3.633191e+000 1.040800e+000 2.322070e+000 1.021881e-001 2.740079e-001 3.355336e-001 6.256285e-001 7.720539e-001 4.733370e-001 3.620202e-001 4.849289e-001 4.490658e-001 7.928416e-001 3.162224e-001 2.117398e-001 1.552292e-001
<GCONST> 1.130250e+002
<STATE> 7
<MEAN> 39
 -6.691917e+000 -1.054983e+001 4.931279e+000 -1.166740e+001 -1.656287e+001 -2.291195e+001 7.272884e-001 8.237726e+000 -4.928071e+000 1.147468e+001 -1.221353e+000 -2.373292e-001 6.180347e+001 -1.277706e-001 -6.607829e-001 4.464016e-001 -1.514027e+000 -2.180140e-001 4.194974e-002 6.263873e-002 2.877905e-001 3.144420e-001 7.083792e-001 -2.382088e-001 9.762092e-003 8.371388e-001 -7.436270e-002 2.600943e-001 -4.687764e-001 4.195832e-001 4.453728e-001 4.248545e-001 2.557312e-002 -1.403958e-002 1.941913e-001 -4.567423e-001 -1.232775e-001 4.814592e-003 -3.871188e-001
<VARIANCE> 39
 1.434037e+001 1.189082e+001 1.135003e+002 9.829198e+001 2.933734e+001 4.233261e+001 3.277221e+001 4.506522e+001 1.797221e+001 5.319137e+001 3.188241e+001 8.606636e+000 8.301890e+000 3.045358e-001 1.264077e+000 2.884890e+000 4.859588e+000 2.808862e+000 1.840859e+000 2.196869e+000 1.599969e+000 1.232146e+000 3.649426e+000 1.762369e+000 6.888633e-001 1.649906e+000 3.940121e-002 1.362271e-001 5.575102e-001 5.352123e-001 5.209367e-001 5.539088e-001 3.348765e-001 2.003217e-001 3.207335e-001 6.957718e-001 2.209711e-001 1.359219e-001 1.829055e-001
<GCONST> 1.048500e+002
<STATE> 8
<MEAN> 39
 -1.036226e+001 -2.030070e+001 7.334956e+000 -2.509053e+001 -9.758520e+000 -1.123993e+001 4.620967e+000 1.202072e+001 -4.706075e+000 4.243925e+000 -5.511457e+000 -1.139500e+000 6.530833e+001 1.129933e-001 3.317037e-002 -6.610911e-001 4.289125e-001 4.830587e-001 2.370816e-001 -6.811409e-002 4.700336e-001 1.817085e-001 -6.969066e-001 -3.290114e-001 6.452528e-002 -3.025116e-001 1.498592e-002 1.462691e-001 2.141419e-002 1.777372e-001 1.646645e-003 6.547589e-002 -1.866051e-004 -6.351872e-002 -2.161443e-002 2.790835e-002 8.504292e-002 -3.305464e-003 -1.382238e-001
<VARIANCE> 39
 1.008693e+001 1.687336e+001 3.705281e+001 2.780904e+001 6.368101e+001 1.760523e+001 8.313322e+001 4.913704e+001 4.024537e+001 5.531112e+001 8.893480e+001 1.716839e+001 8.394640e+000 1.777001e-001 1.631193e+000 5.943298e-001 1.050526e+000 1.186093e+000 1.770905e+000 2.033846e+000 2.318110e+000 1.232334e+000 1.605198e+000 1.554488e+000 1.160313e+000 7.341003e-001 3.306592e-002 9.007192e-002 8.615962e-002 1.598178e-001 2.209690e-001 3.560553e-001 3.597311e-001 3.279763e-001 2.087756e-001 2.538978e-001 2.081289e-001 2.216839e-001 4.908536e-002
<GCONST> 9.399298e+001
<STATE> 9
<MEAN> 39
 -9.731837e+000 -5.315567e+000 -3.172128e-001 -6.559090e+000 -4.783629e+000 -4.419521e+000 1.435689e+000 8.934804e+000 -4.559141e-001 6.399708e-001 -9.771139e-001 4.172052e-001 5.056223e+001 -1.770898e-001 5.028160e-001 -1.631585e-001 5.958913e-001 3.731387e-001 4.621687e-001 2.007039e-001 -2.790520e-001 2.625974e-002 -5.346422e-003 2.370919e-001 -1.944333e-002 -5.347200e-001 2.227465e-002 -8.458377e-002 1.220317e-002 -4.488750e-002 -9.303343e-003 -7.791670e-002 -4.992979e-002 -1.655264e-002 -1.286732e-002 9.001951e-003 -5.002958e-002 -3.448643e-003 8.443472e-002
<VARIANCE> 39
 5.014244e+000 1.971588e+001 1.022607e+001 2.861068e+001 3.339736e+001 3.858839e+001 3.219570e+001 2.243607e+001 2.554934e+001 2.052321e+001 1.938503e+001 2.091123e+001 9.532385e+000 3.604048e-001 9.174231e-001 8.741109e-001 2.139403e+000 1.731974e+000 2.845741e+000 2.400621e+000 1.851097e+000 1.541927e+000 1.626588e+000 2.065542e+000 1.765323e+000 1.016471e+000 7.511372e-002 1.291046e-001 1.791024e-001 3.483644e-001 3.183969e-001 4.669669e-001 4.789800e-001 3.820545e-001 3.136106e-001 3.432478e-001 3.965308e-001 3.264512e-001 1.251244e-001
<GCONST> 9.768439e+001
<TRANSP> 10
 0.000000e+000 1.000000e+000 0.000000e+000 0.000000e+000 0.000000e+000 0.000000e+000 0.000000e+000 0.000000e+000 0.000000e+000 0.000000e+000
 0.000000e+000 1.804904e-001 8.195096e-001 0.000000e+000 0.000000e+000 0.000000e+000 0.000000e+000 0.000000e+000 0.000000e+000 0.000000e+000
 0.000000e+000 0.000000e+000 2.886099e-002 9.711390e-001 0.000000e+000 0.000000e+000 0.000000e+000 0.000000e+000 0.000000e+000 0.000000e+000
 0.000000e+000 0.000000e+000 0.000000e+000 4.748806e-004 9.995251e-001 0.000000e+000 0.000000e+000 0.000000e+000 0.000000e+000 0.000000e+000
 0.000000e+000 0.000000e+000 0.000000e+000 0.000000e+000 2.031164e-001 7.968836e-001 0.000000e+000 0.000000e+000 0.000000e+000 0.000000e+000
 0.000000e+000 0.000000e+000 0.000000e+000 0.000000e+000 0.000000e+000 5.108461e-001 4.891539e-001 0.000000e+000 0.000000e+000 0.000000e+000
 0.000000e+000 0.000000e+000 0.000000e+000 0.000000e+000 0.000000e+000 0.000000e+000 8.703476e-001 1.296524e-001 0.000000e+000 0.000000e+000
 0.000000e+000 0.000000e+000 0.000000e+000 0.000000e+000 0.000000e+000 0.000000e+000 0.000000e+000 9.398270e-001 6.017298e-002 0.000000e+000
 0.000000e+000 0.000000e+000 0.000000e+000 0.000000e+000 0.000000e+000 0.000000e+000 0.000000e+000 0.000000e+000 9.427317e-001 5.726830e-002
 0.000000e+000 0.000000e+000 0.000000e+000 0.000000e+000 0.000000e+000 0.000000e+000 0.000000e+000 0.000000e+000 0.000000e+000 0.000000e+000
<ENDHMM>
~h "sil"
<BEGINHMM>
<NUMSTATES> 5
<STATE> 2
<MEAN> 39
 -9.945919e+000 -1.698895e+000 -1.850494e+000 -2.047843e+000 -3.003308e-001 -1.778439e+000 -6.603955e-001 2.805130e+000 -2.391727e+000 1.078397e+000 4.413757e-002 3.931276e-001 4.760748e+001 -1.978713e-002 1.297301e-001 -8.810662e-002 4.336454e-001 4.431834e-003 2.047055e-001 9.259060e-002 -2.378706e-002 2.144183e-001 -1.278720e-001 1.661953e-001 1.171449e-001 -2.680376e-001 1.605594e-002 -1.231089e-002 2.856937e-003 -5.474592e-002 -2.899541e-002 -4.417090e-002 -1.613026e-002 -7.685162e-003 -4.985897e-003 2.862190e-003 -2.404264e-002 -9.741814e-003 4.582696e-002
<VARIANCE> 39
 3.139913e+000 6.800670e+000 1.263056e+001 1.583418e+001 1.958093e+001 2.048794e+001 1.716402e+001 1.933743e+001 2.096938e+001 1.848298e+001 1.649928e+001 1.545461e+001 2.954055e+000 2.601917e-001 4.319789e-001 6.896119e-001 1.212935e+000 1.371970e+000 1.862648e+000 1.498681e+000 1.634389e+000 1.780107e+000 1.714114e+000 1.676224e+000 1.349649e+000 2.915580e-001 4.394777e-002 7.729857e-002 1.180125e-001 2.112596e-001 2.441060e-001 3.497390e-001 2.789159e-001 2.994311e-001 3.322305e-001 3.383072e-001 3.040181e-001 2.487877e-001 4.620856e-002
<GCONST> 8.242746e+001
<STATE> 3
<MEAN> 39
 -9.777986e+000 -4.765340e-001 -2.456156e+000 9.395621e-001 -1.112459e+000 -2.627181e-001 -1.424806e-001 1.935589e+000 -1.316908e+000 5.491350e-003 1.027169e+000 8.582046e-001 4.573025e+001 3.699187e-003 3.562417e-003 -2.606220e-003 1.711399e-002 -1.427231e-002 1.618747e-003 3.332411e-003 -9.444657e-003 1.374206e-002 -5.189676e-003 2.172549e-003 6.211788e-003 -9.956252e-003 -1.976727e-003 -1.648902e-003 1.295073e-003 -5.875705e-003 3.175657e-003 -4.386574e-003 -1.952759e-003 1.854344e-003 -4.111391e-003 4.538155e-003 -8.151749e-004 -6.605012e-005 3.496142e-003
<VARIANCE> 39
 9.753183e-001 2.119555e+000 3.715732e+000 5.315214e+000 7.281199e+000 8.797436e+000 1.011470e+001 1.079497e+001 1.118469e+001 1.155314e+001 1.091260e+001 1.005265e+001 2.784045e-001 9.866379e-002 2.180916e-001 3.737308e-001 5.554843e-001 7.630034e-001 9.462370e-001 1.142905e+000 1.224662e+000 1.282178e+000 1.314507e+000 1.261071e+000 1.140450e+000 2.679681e-002 2.051844e-002 4.524947e-002 7.717147e-002 1.144251e-001 1.572337e-001 1.949110e-001 2.365277e-001 2.532037e-001 2.676746e-001 2.741268e-001 2.646299e-001 2.371614e-001 5.505593e-003
<GCONST> 5.579077e+001
<STATE> 4
<MEAN> 39
 -9.859357e+000 -4.152941e-001 -2.024005e+000 -1.050884e-001 -6.830810e-001 -1.528498e+000 -9.512661e-001 1.122990e+000 -1.688574e+000 3.797101e-001 6.086172e-001 6.319024e-001 4.558979e+001 1.749036e-002 1.062567e-002 3.784061e-002 -2.927535e-002 1.564928e-002 -3.852962e-002 -3.643837e-002 -5.015118e-003 -3.512524e-002 3.204028e-002 2.926874e-002 1.906508e-002 2.827495e-002 1.125128e-004 5.945733e-003 1.865385e-002 -1.930639e-002 -1.931353e-002 -1.352604e-002 2.786927e-003 -6.635502e-003 -1.142299e-002 -4.493326e-004 1.073828e-002 -1.815159e-003 1.660193e-002
<VARIANCE> 39
 2.294628e+000 3.628389e+000 7.225599e+000 1.032118e+001 1.193464e+001 1.375642e+001 1.440961e+001 1.650684e+001 1.268157e+001 1.387470e+001 1.346541e+001 1.314986e+001 3.431351e+000 2.313833e-001 3.759139e-001 6.340218e-001 9.022554e-001 1.258212e+000 1.345039e+000 1.292761e+000 1.275377e+000 1.531895e+000 1.620252e+000 1.439511e+000 1.209631e+000 9.102298e-002 4.962517e-002 7.866359e-002 1.313863e-001 1.864272e-001 2.576647e-001 2.734734e-001 2.655863e-001 2.466458e-001 3.018893e-001 3.164966e-001 2.747614e-001 2.266756e-001 1.893393e-002
<GCONST> 7.362885e+001
<TRANSP> 5
 0.000000e+000 1.000000e+000 0.000000e+000 0.000000e+000 0.000000e+000
 0.000000e+000 8.580561e-001 1.419439e-001 0.000000e+000 0.000000e+000
 0.000000e+000 0.000000e+000 9.829336e-001 1.706634e-002 0.000000e+000
 0.000000e+000 0.000000e+000 0.000000e+000 7.719862e-001 2.280138e-001
 0.000000e+000 0.000000e+000 0.000000e+000 0.000000e+000 0.000000e+000
<ENDHMM>
~h "tri"
<BEGINHMM>
<NUMSTATES> 10
<STATE> 2
<MEAN> 39
 -9.638678e+000 -5.442429e-001 -2.163591e+000 1.119879e+000 4.067132e-001 6.211587e-001 2.564878e-002 1.552934e+000 -1.183529e+000 5.058268e-001 1.611918e+000 1.641763e+000 4.581640e+001 -2.417955e-001 -1.935413e-001 6.043526e-001 -5.192830e-001 6.243866e-001 -6.645691e-001 -1.485185e-001 3.840155e-001 -3.392459e-001 -3.197550e-001 1.605853e-001 1.086569e-001 3.389155e-001 -4.398635e-001 -3.237655e-001 4.403104e-001 -7.280500e-001 2.560149e-001 -5.652333e-001 5.032964e-002 2.169889e-001 -1.954108e-001 9.633210e-002 -1.415241e-001 -1.091334e-001 5.068926e-001
<VARIANCE> 39
 9.110209e-001 1.993239e+000 1.758927e+000 3.365560e+000 5.417306e+000 8.453876e+000 1.010029e+001 9.718522e+000 1.064352e+001 1.546425e+001 6.771641e+000 9.071225e+000 2.823740e-001 1.892110e-001 2.811788e-001 5.318626e-001 1.130323e+000 1.349947e+000 1.131129e+000 1.481979e+000 1.503311e+000 1.191247e+000 1.602492e+000 1.366041e+000 7.326071e-001 1.191738e-001 2.898407e-002 1.160116e-001 1.472646e-001 3.076521e-001 2.568450e-001 2.266041e-001 3.829853e-001 3.593558e-001 1.268799e-001 5.047871e-001 2.194456e-001 1.668848e-001 5.019423e-002
<GCONST> 6.405817e+001
<STATE> 3
<MEAN> 39
 -9.825099e+000 -1.236700e-002 -1.923288e+000 3.961068e-001 7.054951e-001 -8.256730e-001 -7.521794e-001 1.875085e+000 -2.747394e+000 -6.807157e-001 5.291578e-001 3.837263e-001 4.612979e+001 -1.383517e+000 -1.278754e+000 1.611830e+000 -1.980199e+000 1.249870e+000 -1.720557e+000 2.749655e-001 1.122146e+000 -4.355693e-001 3.133980e-001 -4.815619e-001 -3.409347e-001 1.555141e+000 -5.912364e-001 -2.366060e-001 3.122520e-001 -5.795427e-001 1.702940e-001 -5.199746e-001 2.422434e-001 6.712599e-002 4.850978e-002 4.043640e-001 3.441617e-002 1.265531e-001 6.033448e-001
<VARIANCE> 39
 1.054174e+000 2.765543e+000 2.651370e+000 6.614809e+000 1.109833e+001 7.222229e+000 1.037311e+001 1.034962e+001 1.113184e+001 1.084409e+001 1.409577e+001 8.345359e+000 3.502827e-001 2.496035e-001 8.373438e-001 1.288279e+000 2.864612e+000 2.003074e+000 1.464381e+000 2.622172e+000 2.374954e+000 1.139601e+000 3.018711e+000 1.100892e+000 6.489288e-001 3.673388e-001 3.245773e-002 1.775134e-001 1.756751e-001 2.186854e-001 2.848425e-001 3.528797e-001 3.614823e-001 3.141719e-001 2.157594e-001 1.899556e-001 3.307447e-001 1.995751e-001 6.311717e-002
<GCONST> 7.416301e+001
<STATE> 4
<MEAN> 39
 -1.428265e+001 -2.664853e+000 2.249384e+000 -3.849244e+000 1.648454e+000 -4.265395e+000 1.167488e-001 6.110122e+000 -3.026515e+000 -4.482452e-001 1.112817e+000 9.540033e-001 5.052139e+001 -2.057433e+000 -5.907748e-001 1.324335e+000 -2.180966e+000 1.194886e+000 -2.097150e+000 3.915606e-002 4.298709e-001 -4.476190e-001 7.714347e-001 -2.459287e-001 4.396286e-001 1.828921e+000 -2.846603e-001 3.063860e-001 5.044533e-002 -2.615206e-001 2.930409e-001 -5.692716e-002 2.101946e-001 -3.296271e-001 2.515323e-001 2.752299e-001 3.158244e-002 3.034824e-001 4.832535e-002
<VARIANCE> 39
 7.374610e+000 6.635216e+000 1.316814e+001 2.793851e+001 3.006043e+001 1.999353e+001 2.284624e+001 2.640737e+001 1.678431e+001 1.703153e+001 1.448054e+001 5.093152e+000 6.086722e+000 6.922842e-001 1.462328e+000 1.379168e+000 2.751709e+000 2.787178e+000 2.586675e+000 2.299618e+000 2.262557e+000 1.112598e+000 2.521180e+000 1.521996e+000 8.389657e-001 8.850150e-001 1.137007e-001 1.476686e-001 2.560821e-001 1.802704e-001 6.088203e-001 2.832170e-001 4.481694e-001 3.814948e-001 3.847188e-001 4.528911e-001 3.172486e-001 1.298209e-001 9.983356e-002
<GCONST> 9.423531e+001
<STATE> 5
<MEAN> 39
 -1.656931e+001 -4.485547e+000 4.128460e+000 -8.661352e+000 5.112687e+000 -7.868573e+000 1.932144e+000 3.682003e+000 -3.201173e+000 3.826738e+000 9.544665e-001 2.595150e+000 5.388122e+001 -1.723423e+000 2.757991e-001 1.172614e+000 -1.688811e+000 1.138290e+000 -7.911394e-001 1.294994e+000 2.981866e-001 3.324379e-001 3.596708e-001 3.800505e-001 5.257043e-001 1.278535e+000 -1.853541e-002 4.794805e-001 3.261748e-002 2.240934e-001 6.857096e-002 3.639012e-001 3.631176e-002 -1.762262e-001 2.704091e-001 -5.409324e-001 6.247566e-002 -1.158421e-001 -2.864815e-001
<VARIANCE> 39
 1.272781e+001 2.142770e+001 1.241301e+001 3.410791e+001 1.946766e+001 3.594809e+001 3.830450e+001 3.094317e+001 1.969949e+001 2.355298e+001 1.545241e+001 8.766061e+000 1.331085e+001 1.665964e+000 2.782240e+000 1.947273e+000 3.080340e+000 2.550396e+000 3.798774e+000 2.894484e+000 2.091398e+000 1.809848e+000 2.408876e+000 2.512581e+000 1.077135e+000 1.551826e+000 1.987665e-001 5.179894e-001 3.725024e-001 5.300849e-001 2.919843e-001 7.545804e-001 6.431845e-001 4.758329e-001 3.643158e-001 5.344481e-001 4.633868e-001 2.290864e-001 2.414612e-001
<GCONST> 1.090113e+002
<STATE> 6
<MEAN> 39
 -2.542352e+001 -1.954218e-001 9.850382e+000 -1.396496e+001 1.072321e+001 -9.913247e+000 5.418688e+000 3.114684e+000 1.521996e+000 -6.051225e-001 1.639053e+000 3.566890e+000 5.731078e+001 -1.150559e+000 6.701517e-001 6.545208e-001 -2.950996e-001 4.026414e-001 -2.180785e-001 1.650607e-001 -7.107483e-001 9.606706e-001 -1.415002e+000 1.584625e-001 -1.344680e-001 4.007519e-001 3.925501e-001 -1.287459e-001 -3.634730e-001 4.917889e-001 -5.068371e-001 3.429533e-002 -2.494479e-001 6.417714e-002 -2.724828e-001 -7.016171e-002 4.922007e-002 -1.596183e-001 -1.667466e-001
<VARIANCE> 39
 9.342639e+000 9.909847e+000 2.869597e+001 5.367830e+001 2.834432e+001 1.987105e+001 3.916632e+001 2.445257e+001 2.411647e+001 2.340716e+001 2.667417e+001 1.466856e+001 6.084933e+000 1.235961e+000 9.051178e-001 1.933796e+000 1.881470e+000 2.171828e+000 1.777693e+000 2.210438e+000 2.560896e+000 2.235733e+000 2.298584e+000 2.139816e+000 1.518229e+000 2.174355e-001 1.363929e-001 9.103061e-002 2.479562e-001 2.494171e-001 3.278955e-001 3.738108e-001 3.726518e-001 4.731888e-001 5.442823e-001 5.250168e-001 3.974236e-001 2.843338e-001 2.834102e-002
<GCONST> 9.862911e+001
<STATE> 7
<MEAN> 39
 -2.465438e+001 7.071927e-001 8.541409e+000 -1.146238e+001 5.497424e+000 -1.407660e+001 3.991283e+000 1.478882e+000 -1.072892e+000 -4.548036e+000 3.447468e+000 1.091587e+000 5.797567e+001 1.965018e+000 -1.237960e+000 -2.636412e-001 2.455564e-002 -2.875838e+000 -1.844420e+000 -7.534407e-001 -1.423338e-001 -1.125722e+000 4.203222e-001 2.497278e-002 -5.327486e-001 4.508857e-001 5.284424e-001 -6.003007e-001 1.497081e-001 -3.516500e-001 -6.596518e-001 -2.292852e-001 -9.637710e-002 3.061043e-002 -4.788276e-002 5.161516e-001 -8.267412e-002 -3.001732e-002 2.560289e-001
<VARIANCE> 39
 3.959123e+001 2.471385e+001 2.317074e+001 3.320680e+001 6.113634e+001 3.447459e+001 3.723666e+001 1.483320e+001 2.986153e+001 1.874725e+001 2.184765e+001 1.874477e+001 6.083692e+000 3.816857e+000 3.411991e+000 1.107696e+000 2.052081e+000 5.447222e+000 3.145759e+000 3.200606e+000 1.601825e+000 1.898152e+000 2.909180e+000 2.202532e+000 1.470049e+000 8.753222e-001 4.264205e-001 2.709799e-001 2.315488e-001 2.668319e-001 6.512763e-001 5.343617e-001 5.926516e-001 4.185930e-001 4.209783e-001 4.540995e-001 2.986278e-001 2.980295e-001 1.385823e-001
<GCONST> 1.104969e+002
<STATE> 8
<MEAN> 39
 -1.306917e+001 -1.241111e+001 1.488494e+001 -2.390105e+001 -1.262531e+001 -1.663410e+001 9.241118e-002 2.487596e+000 -2.555659e+000 1.132704e+001 -4.211509e+000 -2.742441e+000 6.310184e+001 5.301655e-001 -3.994833e-001 1.841460e-001 -4.628072e-001 -5.153536e-001 6.605468e-001 -1.366523e-001 -1.021011e-001 -3.533108e-001 9.235011e-001 1.052823e-001 2.434706e-002 3.173589e-002 -3.622542e-001 3.843621e-001 -5.254899e-002 2.139440e-001 5.616154e-001 2.979307e-001 1.408488e-001 6.148291e-003 3.424039e-002 -8.116145e-002 5.070743e-002 2.612197e-002 -2.452416e-001
<VARIANCE> 39
 1.747912e+001 2.213685e+001 4.550663e+001 4.481703e+001 2.701109e+001 4.400035e+001 2.210464e+001 5.382612e+001 5.325712e+001 1.021968e+002 8.412148e+001 4.073114e+001 1.215275e+001 1.685032e+000 3.857444e+000 2.817042e+000 3.178906e+000 6.000076e+000 2.078995e+000 1.693877e+000 1.897407e+000 2.461188e+000 6.291833e+000 2.692416e+000 1.415846e+000 1.423471e+000 3.539301e-001 3.703327e-001 3.120074e-001 1.652190e-001 7.886094e-001 5.159869e-001 3.062961e-001 3.320301e-001 3.298717e-001 6.016409e-001 3.300709e-001 2.466102e-001 8.983778e-002
<GCONST> 1.161257e+002
<STATE> 9
<MEAN> 39
 -1.022342e+001 -8.228642e+000 1.126634e+001 -1.539236e+001 -1.550297e+001 -1.503543e+001 -1.171743e-001 -4.991258e-001 -9.078241e+000 9.850086e+000 2.201163e+000 -1.489961e+000 5.886007e+001 6.423825e-003 4.227152e-001 -2.620158e-001 4.995140e-001 3.280847e-001 7.291145e-001 3.461426e-002 -3.162445e-002 -1.455732e-002 -1.927703e-002 -1.522448e-001 -4.155402e-002 -5.842916e-001 -4.858707e-003 5.708429e-004 -6.317497e-002 5.789890e-002 3.937759e-002 1.607490e-002 7.151791e-003 3.391119e-002 7.942273e-002 -9.756611e-002 -2.259427e-003 2.626699e-002 -1.929818e-002
<VARIANCE> 39
 7.754112e+000 2.861064e+001 2.389240e+001 1.940074e+002 4.888224e+001 7.626254e+001 3.161648e+001 1.632780e+001 3.857980e+001 7.067445e+001 6.149713e+001 1.285637e+001 2.787412e+001 1.909259e-001 3.726661e-001 8.883559e-001 1.163601e+000 1.267143e+000 1.409445e+000 1.068081e+000 1.130180e+000 1.506455e+000 1.865239e+000 1.431991e+000 7.610644e-001 3.024409e-001 3.764326e-002 7.210451e-002 1.204280e-001 1.014300e-001 1.658581e-001 2.693774e-001 2.029978e-001 2.231876e-001 2.673542e-001 2.989556e-001 2.227665e-001 1.325201e-001 2.715095e-002
<GCONST> 8.981131e+001
<TRANSP> 10
 0.000000e+000 1.000000e+000 0.000000e+000 0.000000e+000 0.000000e+000 0.000000e+000 0.000000e+000 0.000000e+000 0.000000e+000 0.000000e+000
 0.000000e+000 3.814844e-001 6.185156e-001 0.000000e+000 0.000000e+000 0.000000e+000 0.000000e+000 0.000000e+000 0.000000e+000 0.000000e+000
 0.000000e+000 0.000000e+000 1.526202e-001 8.473799e-001 0.000000e+000 0.000000e+000 0.000000e+000 0.000000e+000 0.000000e+000 0.000000e+000
 0.000000e+000 0.000000e+000 0.000000e+000 4.776176e-001 5.223825e-001 0.000000e+000 0.000000e+000 0.000000e+000 0.000000e+000 0.000000e+000
 0.000000e+000 0.000000e+000 0.000000e+000 0.000000e+000 6.767102e-001 3.232898e-001 0.000000e+000 0.000000e+000 0.000000e+000 0.000000e+000
 0.000000e+000 0.000000e+000 0.000000e+000 0.000000e+000 0.000000e+000 8.103811e-001 1.896188e-001 0.000000e+000 0.000000e+000 0.000000e+000
 0.000000e+000 0.000000e+000 0.000000e+000 0.000000e+000 0.000000e+000 0.000000e+000 8.380421e-001 1.619579e-001 0.000000e+000 0.000000e+000
 0.000000e+000 0.000000e+000 0.000000e+000 0.000000e+000 0.000000e+000 0.000000e+000 0.000000e+000 8.861566e-001 1.138435e-001 0.000000e+000
 0.000000e+000 0.000000e+000 0.000000e+000 0.000000e+000 0.000000e+000 0.000000e+000 0.000000e+000 0.000000e+000 9.454734e-001 5.452665e-002
 0.000000e+000 0.000000e+000 0.000000e+000 0.000000e+000 0.000000e+000 0.000000e+000 0.000000e+000 0.000000e+000 0.000000e+000 0.000000e+000
<ENDHMM>
~h "nula"
<BEGINHMM>
<NUMSTATES> 10
<STATE> 2
<MEAN> 39
 -9.487264e+000 3.921269e-002 -3.715906e+000 -3.611882e+000 -3.671587e+000 -4.969803e+000 -5.150291e+000 -3.425534e+000 -3.339685e+000 -5.327331e-001 -1.239606e+000 -1.566144e+000 4.242678e+001 2.334901e-002 3.068013e-002 9.118629e-002 -1.049942e-001 -2.510109e-002 -1.891534e-001 -1.173054e-001 -1.037726e-001 -7.515730e-002 -4.007133e-002 -1.382187e-001 -8.933330e-002 7.215518e-002 4.191519e-002 3.597361e-003 -3.477665e-002 -3.418159e-002 -7.989050e-002 -5.725293e-002 4.874745e-002 -2.033882e-002 -5.430926e-002 -2.480433e-002 -4.712763e-002 -7.269771e-002 3.387977e-002
<VARIANCE> 39
 1.748174e+000 3.313261e+000 1.124088e+001 1.304291e+001 1.288424e+001 1.147087e+001 1.024187e+001 1.415163e+001 1.112614e+001 1.345043e+001 1.090519e+001 1.038257e+001 1.047676e+001 1.467379e-001 4.522032e-001 6.682969e-001 1.110716e+000 9.798692e-001 1.767689e+000 1.266314e+000 1.347620e+000 1.466636e+000 1.465337e+000 1.570689e+000 1.038366e+000 1.039015e-001 3.112875e-002 8.274859e-002 1.352399e-001 2.438336e-001 2.540016e-001 3.880667e-001 2.778586e-001 2.976692e-001 2.722417e-001 3.173091e-001 3.243042e-001 1.744442e-001 2.319654e-002
<GCONST> 7.427556e+001
<STATE> 3
<MEAN> 39
 -9.923744e+000 -1.570182e-001 -5.925620e-001 7.775286e-001 -7.845260e-001 -9.933540e-001 -7.055990e-001 1.169972e+000 -7.072607e-001 3.806801e-001 4.144104e-001 4.827404e-001 4.638470e+001 5.192274e-001 3.646704e-001 -2.831690e-001 -4.354416e-001 -3.391761e-001 -1.083138e+000 -2.343113e-001 -3.627100e-001 -7.289980e-001 -1.684266e-002 -7.269205e-001 -6.389219e-001 2.826883e-001 2.884526e-001 -5.787151e-003 1.531009e-002 -5.180783e-001 -5.332440e-001 -5.166233e-001 -3.089146e-001 -2.654580e-001 -4.213793e-001 -6.383302e-002 -3.074970e-001 -4.612953e-002 3.105227e-001
<VARIANCE> 39
 3.940063e+000 9.180056e+000 1.376567e+001 1.259188e+001 1.240329e+001 2.335526e+001 1.321856e+001 9.026525e+000 1.495040e+001 7.857851e+000 1.791750e+001 9.991938e+000 3.164828e+000 4.113255e-001 4.476463e-001 1.328629e+000 1.402324e+000 2.187110e+000 1.930652e+000 2.038688e+000 1.469135e+000 1.706873e+000 1.954622e+000 1.088157e+000 7.444134e-001 2.961540e-001 9.894687e-002 1.852184e-001 4.664992e-001 4.700717e-001 6.262401e-001 5.568690e-001 3.855644e-001 4.024774e-001 2.594824e-001 3.195194e-001 3.489365e-001 1.961733e-001 9.530610e-002
<GCONST> 8.726638e+001
<STATE> 4
<MEAN> 39
 -8.857079e+000 5.080047e-001 -1.675293e+000 -1.277647e+000 -1.518934e+000 -5.304670e+000 -2.968785e+000 -8.167641e-001 -4.008475e+000 6.306410e-001 -1.179484e+000 -8.462448e-001 4.694536e+001 1.224922e+000 -1.119592e-002 4.267643e-001 -1.690384e+000 -2.481251e+000 -2.104488e+000 -1.285616e+000 -1.178306e+000 -1.602725e+000 -1.563739e-001 -1.600718e+000 -7.397959e-001 1.273515e+000 2.249605e-001 -1.464949e-001 2.618164e-001 -5.450874e-001 -5.606590e-001 -2.254326e-001 -1.417103e-001 -1.201294e-001 -8.008409e-002 1.588432e-001 -1.956406e-001 1.370412e-001 4.495755e-001
<VARIANCE> 39
 2.484259e+000 3.464733e+000 7.542361e+000 8.034002e+000 1.589635e+001 2.806425e+001 1.641728e+001 1.330337e+001 1.948627e+001 2.660188e+001 1.082178e+001 5.570972e+000 3.710987e+000 5.278271e-001 8.990766e-001 2.083660e+000 2.159482e+000 4.146332e+000 5.180517e+000 2.712659e+000 1.858186e+000 2.440475e+000 3.600251e+000 2.034698e+000 8.657291e-001 3.951084e-001 1.898779e-001 1.557897e-001 2.958654e-001 1.426102e-001 2.961553e-001 5.959378e-001 5.247182e-001 5.629364e-001 3.343036e-001 2.982915e-001 3.220082e-001 3.034487e-001 7.754046e-002
<GCONST> 9.150800e+001
<STATE> 5
<MEAN> 39
 -5.269874e+000 1.391547e+000 -1.875495e+000 -5.280060e+000 -7.184059e+000 -9.887021e+000 -4.279994e+000 -2.569878e+000 -7.522971e+000 9.293631e-001 -3.896945e+000 -1.028631e+000 5.026406e+001 1.189446e+000 -8.963469e-002 3.191881e-001 -2.655149e+000 -2.167004e+000 -1.498098e+000 -2.883123e-001 -1.026789e+000 -1.184091e+000 -7.213385e-003 -8.256820e-001 6.763728e-002 1.584625e+000 -1.739771e-001 -1.593943e-001 1.037773e-001 2.877075e-002 3.226358e-001 4.257482e-001 1.302740e-001 2.480775e-001 4.583671e-001 9.051999e-002 1.811671e-001 1.509046e-001 1.073795e-002
<VARIANCE> 39
 4.783686e+000 3.101989e+000 2.173424e+001 1.246301e+001 3.260040e+001 2.084342e+001 1.965842e+001 1.691957e+001 1.729910e+001 3.102675e+001 1.419721e+001 1.046315e+001 4.557137e+000 9.670618e-001 9.709319e-001 3.152215e+000 1.228282e+000 2.597986e+000 5.336954e+000 3.141414e+000 3.697006e+000 2.020204e+000 1.550191e+000 2.842598e+000 1.754256e+000 5.061557e-001 8.632336e-002 1.725535e-001 1.540291e-001 3.107620e-001 3.677073e-001 3.195371e-001 3.556647e-001 3.153294e-001 3.593339e-001 4.304050e-001 1.873997e-001 2.409504e-001 7.705186e-002
<GCONST> 9.444452e+001
<STATE> 6
<MEAN> 39
 -3.088731e+000 1.141281e-001 -8.874281e-001 -1.077090e+001 -1.116219e+001 -1.138596e+001 -4.388188e+000 -4.489737e+000 -8.342018e+000 1.417985e+000 -3.955709e+000 -1.264342e+000 5.369348e+001 3.598771e-001 -7.827677e-001 -1.300539e-002 -6.058325e-001 -4.478714e-001 -5.104849e-001 -7.173834e-001 3.915361e-002 4.974879e-001 -1.245861e-002 -7.666652e-003 -1.810480e-002 8.684357e-001 -1.492912e-001 -3.354439e-001 -3.423645e-001 4.099218e-001 4.391220e-001 2.819096e-001 -1.137566e-001 2.589520e-001 4.932347e-001 2.758214e-002 3.353957e-001 2.558258e-002 -6.010613e-002
<VARIANCE> 39
 1.038135e+001 1.034131e+001 5.545702e+001 1.171042e+001 3.393010e+001 2.354059e+001 2.862310e+001 3.468032e+001 3.633680e+001 2.832602e+001 3.415159e+001 2.900990e+001 2.993252e+000 7.997333e-001 1.210970e+000 1.255619e+000 2.908791e+000 1.571728e+000 1.149222e+000 1.454376e+000 2.189754e+000 2.622058e+000 1.625138e+000 2.371430e+000 1.526964e+000 5.080345e-001 5.869428e-002 2.042955e-001 3.115770e-001 3.534534e-001 3.962359e-001 5.091683e-001 2.196816e-001 3.062462e-001 4.859284e-001 4.270092e-001 3.011854e-001 3.741916e-001 6.991442e-002
<GCONST> 9.907084e+001
<STATE> 7
<MEAN> 39
 -1.996437e+000 -5.770010e+000 -3.948389e+000 -1.317884e+001 -1.326762e+001 -8.516335e+000 -8.265883e+000 -4.355614e+000 -5.003814e+000 1.715460e+000 7.376861e-002 -8.579909e-001 5.799679e+001 1.007433e-001 -1.158005e+000 -6.380274e-001 -1.342840e+000 4.306643e-001 4.011096e-001 -4.664297e-001 8.098638e-001 5.726597e-001 4.455303e-001 3.823954e-001 -3.114715e-001 8.867730e-001 -7.327389e-002 6.730293e-002 -8.290344e-002 -3.869888e-001 3.323502e-001 1.774551e-001 1.569388e-001 7.509130e-002 -1.139567e-001 1.606859e-001 -1.352069e-002 -1.439842e-001 -3.791590e-002
<VARIANCE> 39
 2.530464e+001 2.713799e+001 4.176204e+001 4.498642e+001 3.115767e+001 3.714478e+001 4.463620e+001 5.385578e+001 3.036927e+001 3.649008e+001 8.578491e+001 3.599866e+001 1.078616e+001 1.299862e+000 2.421789e+000 1.756167e+000 3.548520e+000 3.511107e+000 3.517810e+000 3.561300e+000 2.100745e+000 3.352488e+000 2.918911e+000 4.571940e+000 3.477106e+000 8.141369e-001 2.649707e-001 3.464005e-001 2.535935e-001 6.658671e-001 5.602127e-001 5.812666e-001 5.598521e-001 5.144446e-001 3.942565e-001 5.283416e-001 9.038501e-001 3.918410e-001 1.149612e-001
<GCONST> 1.190507e+002
<STATE> 8
<MEAN> 39
 -3.379928e+000 -1.317026e+001 -8.576840e+000 -2.524277e+001 -1.901710e+000 -2.604667e+000 -6.473035e+000 1.676601e-001 -2.475684e+000 7.276227e+000 -1.432166e-001 -4.882768e+000 6.269120e+001 -1.904289e-001 -4.140345e-001 -3.070743e-001 -5.117075e-001 8.814759e-001 5.839056e-001 4.550849e-001 6.347047e-002 3.991024e-003 3.056900e-001 -2.130232e-001 -1.450865e-001 2.860435e-001 -6.234544e-003 4.537231e-002 6.926272e-002 2.181939e-001 -5.111476e-002 -3.929695e-002 4.657340e-002 -1.410123e-002 -7.914077e-002 -7.370929e-002 -1.134949e-001 8.205964e-002 -6.347059e-002
<VARIANCE> 39
 1.103434e+001 1.716165e+001 4.486480e+001 7.886126e+001 5.535407e+001 7.121087e+001 1.001775e+002 5.248510e+001 7.883599e+001 5.179646e+001 4.938653e+001 4.383967e+001 2.030204e+001 2.622092e-001 9.566075e-001 1.115526e+000 2.556367e+000 5.086854e+000 2.864917e+000 2.609806e+000 3.598585e+000 3.297236e+000 3.441687e+000 3.392369e+000 1.974157e+000 3.490496e-001 4.721434e-002 1.865645e-001 1.882567e-001 3.861589e-001 8.063402e-001 4.812615e-001 4.821330e-001 6.937467e-001 6.308388e-001 6.048992e-001 4.718384e-001 3.591991e-001 5.570852e-002
<GCONST> 1.137856e+002
<STATE> 9
<MEAN> 39
 -7.317177e+000 -1.658397e+001 -8.374629e+000 -1.849104e+001 9.613270e+000 1.269564e+000 -3.665713e+000 2.708186e+000 -2.475717e+000 5.382344e+000 -1.120431e+001 -3.917880e+000 6.044719e+001 -7.171913e-002 5.808566e-001 1.093622e-001 1.037188e+000 -2.073236e-001 6.577002e-002 1.365708e-001 -4.852382e-002 -4.725319e-002 -3.715720e-001 7.234760e-002 6.831119e-002 -7.653124e-001 2.365733e-003 4.400979e-002 2.401057e-002 1.677477e-002 -9.659933e-002 -4.305663e-002 -4.292008e-002 -9.956559e-003 6.034245e-002 -1.162359e-003 1.381884e-001 1.519320e-003 -2.955894e-002
<VARIANCE> 39
 7.142035e+000 6.594829e+001 1.444003e+001 7.251044e+001 4.145250e+001 3.970687e+001 5.667018e+001 3.644813e+001 3.948090e+001 4.220189e+001 5.248665e+001 2.640466e+001 5.773752e+001 3.108262e-001 1.271920e+000 8.292872e-001 1.270179e+000 1.366837e+000 2.105884e+000 1.716164e+000 1.550261e+000 2.118012e+000 2.053961e+000 2.212573e+000 1.716145e+000 4.317628e-001 4.323072e-002 1.395763e-001 1.629891e-001 2.083065e-001 2.984415e-001 3.425315e-001 2.895637e-001 2.903750e-001 4.324586e-001 3.846652e-001 3.447782e-001 3.472397e-001 3.318153e-002
<GCONST> 1.010859e+002
<TRANSP> 10
 0.000000e+000 1.000000e+000 0.000000e+000 0.000000e+000 0.000000e+000 0.000000e+000 0.000000e+000 0.000000e+000 0.000000e+000 0.000000e+000
 0.000000e+000 7.991512e-001 2.008488e-001 0.000000e+000 0.000000e+000 0.000000e+000 0.000000e+000 0.000000e+000 0.000000e+000 0.000000e+000
 0.000000e+000 0.000000e+000 4.337227e-001 5.662773e-001 0.000000e+000 0.000000e+000 0.000000e+000 0.000000e+000 0.000000e+000 0.000000e+000
 0.000000e+000 0.000000e+000 0.000000e+000 1.976421e-001 8.023579e-001 0.000000e+000 0.000000e+000 0.000000e+000 0.000000e+000 0.000000e+000
 0.000000e+000 0.000000e+000 0.000000e+000 0.000000e+000 4.483412e-001 5.516589e-001 0.000000e+000 0.000000e+000 0.000000e+000 0.000000e+000
 0.000000e+000 0.000000e+000 0.000000e+000 0.000000e+000 0.000000e+000 7.380726e-001 2.619275e-001 0.000000e+000 0.000000e+000 0.000000e+000
 0.000000e+000 0.000000e+000 0.000000e+000 0.000000e+000 0.000000e+000 0.000000e+000 8.448488e-001 1.551511e-001 0.000000e+000 0.000000e+000
 0.000000e+000 0.000000e+000 0.000000e+000 0.000000e+000 0.000000e+000 0.000000e+000 0.000000e+000 9.419236e-001 5.807643e-002 0.000000e+000
 0.000000e+000 0.000000e+000 0.000000e+000 0.000000e+000 0.000000e+000 0.000000e+000 0.000000e+000 0.000000e+000 9.518634e-001 4.813664e-002
 0.000000e+000 0.000000e+000 0.000000e+000 0.000000e+000 0.000000e+000 0.000000e+000 0.000000e+000 0.000000e+000 0.000000e+000 0.000000e+000
<ENDHMM>
~h "devet"
<BEGINHMM>
<NUMSTATES> 10
<STATE> 2
<MEAN> 39
 -7.437826e+000 1.989793e+000 -7.932391e-001 3.003368e-001 -2.048829e+000 -2.995748e+000 -2.771420e+000 -9.649143e-001 -2.706042e+000 1.207643e+000 9.959628e-001 2.770879e-001 4.686333e+001 4.332335e-001 4.595576e-001 2.070030e-001 -1.761387e-001 -6.947722e-001 -4.070845e-001 -1.669633e-001 -1.531513e-001 -1.116820e-001 -2.914692e-002 -1.358047e-002 -2.419469e-001 2.210950e-001 -6.554258e-002 -1.448172e-001 3.642245e-002 -1.777523e-001 -6.775805e-002 -2.521830e-001 1.114303e-001 1.565222e-001 4.562263e-003 -7.527646e-003 2.622338e-003 1.375784e-001 8.326084e-002
<VARIANCE> 39
 3.069612e+000 4.553064e+000 5.184710e+000 5.738735e+000 1.962083e+001 1.141915e+001 1.141450e+001 1.346739e+001 1.220910e+001 1.346765e+001 1.002643e+001 6.376512e+000 1.473256e+000 3.286759e-001 5.593365e-001 5.241280e-001 8.318993e-001 1.520779e+000 1.479066e+000 1.387388e+000 1.566352e+000 1.608922e+000 1.259730e+000 1.205724e+000 9.844795e-001 1.080893e-001 8.174856e-002 7.975507e-002 1.072205e-001 1.637605e-001 3.244100e-001 3.354011e-001 3.169560e-001 3.933854e-001 4.526968e-001 3.412831e-001 3.706813e-001 2.003816e-001 3.551428e-002
<GCONST> 7.433790e+001
<STATE> 3
<MEAN> 39
 -7.004109e+000 1.769661e+000 -1.939822e+000 -2.082694e+000 -5.508131e+000 -4.703264e+000 -3.327942e+000 -1.018599e+000 -2.464893e+000 5.958253e-001 1.398653e+000 1.104191e+000 4.721384e+001 2.497338e-001 -1.831560e-001 5.084839e-002 -4.550087e-001 -8.940978e-001 -1.402998e+000 -1.947966e-001 -2.421741e-001 -2.944905e-001 -3.335365e-001 -2.755853e-001 1.517778e-001 4.445547e-001 -2.210986e-001 -3.062219e-001 3.693568e-001 -2.336062e-001 2.551954e-001 -3.045592e-001 6.726582e-002 2.848305e-001 -3.220525e-002 6.092918e-002 -1.476322e-001 4.118035e-002 2.755212e-001
<VARIANCE> 39
 3.475798e+000 3.456336e+000 5.477726e+000 1.043554e+001 2.123731e+001 2.442531e+001 2.167298e+001 1.194699e+001 9.530743e+000 9.348516e+000 1.153898e+001 8.241282e+000 1.120336e+000 4.087763e-001 7.303078e-001 4.912833e-001 1.294155e+000 1.216776e+000 1.929365e+000 1.575493e+000 1.510181e+000 2.233195e+000 1.622512e+000 1.713306e+000 7.205988e-001 2.261612e-001 1.289811e-001 9.568649e-002 1.874308e-001 2.938232e-001 8.264303e-001 1.316151e+000 5.124393e-001 3.667549e-001 2.593764e-001 2.638253e-001 2.647418e-001 2.083697e-001 8.978418e-002
<GCONST> 8.237424e+001
<STATE> 4
<MEAN> 39
 -8.013839e+000 7.528430e-001 -1.128052e+000 2.491135e-001 -4.056889e+000 -4.067550e+000 -1.360420e+000 5.654214e-001 -2.644835e+000 -1.651223e+000 3.912767e-001 1.404484e-001 4.690804e+001 1.223627e-001 -2.191307e-001 5.699776e-001 -1.046906e+000 -3.020232e-001 -1.338922e+000 -5.710883e-001 2.174428e-001 -4.860081e-001 -7.041527e-002 -3.820244e-001 -6.073496e-002 6.429226e-001 -8.716882e-002 -3.706579e-001 3.953347e-001 -7.046551e-001 -2.784117e-001 -6.815403e-001 -2.897611e-001 1.750897e-001 -6.783348e-002 3.109280e-001 -3.741772e-002 -4.187800e-002 5.077165e-001
<VARIANCE> 39
 4.895599e+000 1.017685e+001 7.492097e+000 1.440549e+001 2.027449e+001 2.296917e+001 1.861683e+001 1.236965e+001 7.672357e+000 8.134068e+000 1.529881e+001 1.263645e+001 1.395865e+000 9.897156e-001 9.211755e-001 8.918697e-001 1.622476e+000 3.893691e+000 6.103500e+000 3.060510e+000 2.300321e+000 1.682172e+000 1.513669e+000 2.153580e+000 1.796937e+000 5.267175e-001 1.850701e-001 3.615705e-001 3.379804e-001 2.933595e-001 7.285231e-001 8.380689e-001 5.067374e-001 4.490445e-001 2.941179e-001 2.309436e-001 1.700354e-001 2.761114e-001 1.761446e-001
<GCONST> 9.415141e+001
<STATE> 5
<MEAN> 39
 -6.256711e+000 2.116987e-001 -8.991817e-001 -2.656047e+000 -5.625410e+000 -7.330884e+000 -3.245574e+000 -1.148608e+000 -5.175247e+000 -1.199454e+000 -1.877653e+000 3.545002e-001 4.923262e+001 -4.973549e-001 -1.281538e+000 1.797363e+000 -1.820388e+000 -5.001423e-001 -2.749554e+000 -7.270715e-001 4.364469e-001 -3.782440e-001 5.190854e-001 -6.575594e-001 -1.748795e-001 1.716501e+000 -2.139870e-001 -7.327908e-001 5.693470e-001 -6.543465e-001 -3.357690e-001 -4.898991e-001 2.183537e-001 6.343243e-001 3.349164e-001 4.790436e-001 3.035686e-001 -2.732895e-002 6.724909e-001
<VARIANCE> 39
 7.500297e+000 1.472050e+001 3.146380e+000 2.616026e+001 1.141086e+001 2.098555e+001 1.356650e+001 1.872355e+001 2.387745e+001 1.154694e+001 2.476738e+001 9.184902e+000 6.161599e+000 1.438173e+000 4.915958e-001 2.161621e+000 2.896916e+000 5.482427e+000 8.439319e+000 1.847966e+000 3.030013e+000 1.898704e+000 2.272936e+000 2.453682e+000 8.781429e-001 6.750841e-001 1.440864e-001 5.455058e-001 3.347985e-001 9.976377e-001 3.378848e-001 5.014824e-001 2.694938e-001 4.921950e-001 4.626430e-001 4.033709e-001 4.162538e-001 2.657954e-001 3.658347e-001
<GCONST> 1.012332e+002
<STATE> 6
<MEAN> 39
 -7.948504e+000 -1.511046e-001 4.257166e+000 -5.153184e+000 -3.983758e+000 -9.580234e+000 -3.810085e+000 1.223829e+000 -3.849075e+000 6.954091e-001 -2.964116e+000 4.195760e-001 5.088728e+001 -1.594275e-001 -1.948252e+000 1.463713e+000 -1.971041e+000 -1.488331e+000 -2.532985e+000 2.851592e-002 9.796581e-001 2.875286e-002 5.453629e-001 -1.687332e-001 1.646172e-001 2.211303e+000 1.619834e-002 -7.171519e-001 -7.560147e-003 -5.543502e-001 -5.029938e-001 3.146962e-002 2.509275e-001 3.772326e-001 7.037807e-002 2.375800e-001 1.233756e-001 -9.062528e-003 4.962884e-001
<VARIANCE> 39
 1.454144e+001 7.025568e+000 2.136008e+001 2.561560e+001 5.132721e+001 4.313642e+001 2.386293e+001 2.809507e+001 2.241895e+001 2.286496e+001 2.519333e+001 1.830670e+001 8.261040e+000 1.632382e+000 3.806672e+000 3.024768e+000 8.157913e+000 4.276294e+000 6.761871e+000 1.554558e+000 2.993136e+000 2.807457e+000 3.321439e+000 1.688910e+000 1.699466e+000 2.849735e+000 3.217508e-001 5.304392e-001 3.963128e-001 1.153241e+000 8.505456e-001 8.749009e-001 3.812661e-001 5.702953e-001 7.992726e-001 6.115488e-001 3.546299e-001 5.406983e-001 2.945559e-001
<GCONST> 1.176107e+002
<STATE> 7
<MEAN> 39
 -6.198643e+000 -6.583026e+000 -1.691143e+000 -1.439788e+000 -1.400803e+001 -3.016874e+001 -1.779511e+000 5.709631e+000 -4.534251e+000 7.767979e+000 -1.639483e+000 4.452785e+000 5.773490e+001 -1.309610e-001 -4.431325e-001 3.176686e-001 -7.070525e-001 -1.580668e-001 -2.997045e-001 8.710673e-002 2.323707e-001 9.694289e-002 3.608563e-001 -1.255988e-001 1.810338e-001 3.808509e-001 -1.072699e-002 1.985174e-002 -2.652379e-002 1.063237e-002 6.369033e-002 3.257488e-001 1.735957e-002 4.234351e-002 2.831453e-002 -8.757652e-002 2.451593e-002 -1.524869e-002 -1.070435e-001
<VARIANCE> 39
 5.135059e+000 6.279626e+000 1.911173e+001 3.209384e+001 2.673027e+001 5.427679e+001 1.837562e+001 2.761668e+001 2.837907e+001 2.490593e+001 1.669272e+001 3.287317e+001 6.582407e+000 2.363068e-001 3.111757e+000 1.522007e+000 4.591775e+000 2.818926e+000 3.835924e+000 1.519577e+000 3.156145e+000 2.293951e+000 2.464877e+000 1.997103e+000 1.833006e+000 2.639888e+000 4.505561e-002 1.031653e-001 1.087315e-001 2.061470e-001 3.725009e-001 5.228668e-001 2.731377e-001 4.127896e-001 3.624414e-001 3.291166e-001 4.184543e-001 2.867124e-001 7.903129e-002
<GCONST> 9.964544e+001
<STATE> 8
<MEAN> 39
 -9.462332e+000 -1.556281e+001 1.070362e+001 -2.202001e+001 -1.392352e+001 -1.635920e+001 -2.022131e+000 1.082971e+001 -2.967412e+000 4.552453e+000 -1.046349e+000 2.729487e-001 6.352161e+001 -2.630307e-001 -2.555551e+000 3.907950e-001 -2.189520e+000 -7.448934e-001 9.792252e-001 1.221389e+000 2.568625e+000 1.055837e-001 1.141953e-001 -3.777084e-001 -9.653180e-001 1.704659e+000 6.860388e-002 8.396192e-001 -7.537584e-001 1.088521e+000 8.190795e-001 7.528202e-001 2.549808e-001 -5.425972e-001 -1.320152e-001 -3.692055e-001 -1.892191e-001 -2.304100e-001 -7.689372e-001
<VARIANCE> 39
 5.172441e+000 2.815633e+001 2.496231e+001 5.843150e+001 4.292531e+001 2.287330e+001 6.211150e+001 5.552575e+001 3.580671e+001 3.468112e+001 4.619117e+001 2.100525e+001 1.920519e+001 4.792445e-001 3.236645e+000 1.994516e+000 4.352106e+000 3.544111e+000 2.792639e+000 2.609169e+000 2.938653e+000 2.670604e+000 2.661822e+000 2.443865e+000 2.020564e+000 2.418750e+000 8.009088e-002 2.877156e-001 1.892012e-001 4.827230e-001 3.727097e-001 7.533117e-001 3.248917e-001 6.977214e-001 3.744413e-001 4.600649e-001 3.477755e-001 2.968044e-001 1.594489e-001
<GCONST> 1.125230e+002
<STATE> 9
<MEAN> 39
 -1.032249e+001 -1.653555e+001 8.923784e+000 -2.222717e+001 -1.010334e+001 -1.256035e+001 3.801160e-001 1.051309e+001 -4.853134e+000 4.710025e+000 -4.720222e+000 -1.178984e+000 6.293843e+001 1.568599e-002 2.911633e-001 -1.921249e-001 3.242636e-001 1.284316e-001 2.164338e-001 1.077710e-002 -4.232845e-002 9.655867e-002 -8.021712e-002 4.275202e-002 7.482740e-002 -3.337904e-001 7.939986e-005 4.013195e-002 -1.801786e-003 4.451180e-002 -2.826520e-003 3.676153e-003 -1.515118e-002 -3.262742e-002 6.972223e-003 -3.207867e-003 2.384473e-002 1.749347e-002 -3.777279e-002
<VARIANCE> 39
