~o
<STREAMINFO> 1 16
<VECSIZE> 16<NULLD><FBANK><DIAGC>
~h "ctyri"
<BEGINHMM>
<NUMSTATES> 10
<STATE> 2
<MEAN> 16
 5.766137e+000 5.782771e+000 5.996456e+000 6.177588e+000 6.318329e+000 6.474708e+000 6.638949e+000 6.882985e+000 7.295478e+000 7.413360e+000 7.570305e+000 7.872320e+000 8.153205e+000 8.242380e+000 8.151896e+000 8.252273e+000
<VARIANCE> 16
 1.403699e-001 1.155862e-001 1.309675e-001 7.608467e-002 5.707565e-002 4.667614e-002 5.246216e-002 7.787354e-002 1.623494e-001 3.286571e-001 3.244146e-001 4.219941e-001 4.705939e-001 4.272390e-001 2.149423e-001 1.523272e-001
<GCONST> -6.946512e-001
<STATE> 3
<MEAN> 16
 5.633145e+000 5.794498e+000 6.019017e+000 6.221223e+000 6.345068e+000 6.540540e+000 6.846068e+000 7.059424e+000 7.510270e+000 8.108764e+000 9.235048e+000 1.027830e+001 1.088168e+001 1.087042e+001 1.019263e+001 9.480542e+000
<VARIANCE> 16
 1.129652e-001 7.611693e-002 1.124685e-001 8.009566e-002 5.925719e-002 5.459471e-002 8.112063e-002 7.722913e-002 9.536000e-002 2.874458e-001 6.876053e-001 6.687901e-001 9.361017e-001 8.018505e-001 6.207820e-001 4.405604e-001
<GCONST> 3.176785e+000
<STATE> 4
<MEAN> 16
 5.785495e+000 5.903071e+000 6.088985e+000 6.299656e+000 6.403172e+000 6.599288e+000 6.809021e+000 7.456943e+000 8.496082e+000 9.412638e+000 1.006771e+001 1.076766e+001 1.108099e+001 1.099389e+001 1.046359e+001 9.617794e+000
<VARIANCE> 16
 1.763561e-001 1.074974e-001 1.116768e-001 9.128472e-002 5.229662e-002 7.320710e-002 6.570084e-002 2.469999e-001 6.004217e-001 1.109329e+000 1.062597e+000 9.935408e-001 7.246639e-001 6.246358e-001 6.031646e-001 3.896485e-001
<GCONST> 8.575436e+000
<STATE> 5
<MEAN> 16
 5.718973e+000 5.772027e+000 5.943643e+000 6.095004e+000 6.268351e+000 6.447271e+000 6.622391e+000 6.826584e+000 7.235769e+000 7.349707e+000 7.831861e+000 8.458691e+000 8.956882e+000 8.830406e+000 8.411073e+000 8.197684e+000
<VARIANCE> 16
 1.132459e-001 9.800683e-002 1.126288e-001 6.455965e-002 6.138328e-002 5.927388e-002 6.066272e-002 6.257789e-002 6.342748e-002 1.812119e-001 2.743782e-001 4.079043e-001 5.246534e-001 4.217718e-001 2.141210e-001 6.260391e-002
<GCONST> -3.685043e+000
<STATE> 6
<MEAN> 16
 5.798295e+000 6.213017e+000 6.708953e+000 6.848218e+000 6.928380e+000 6.982085e+000 7.253154e+000 7.698308e+000 8.303134e+000 8.542761e+000 8.724461e+000 9.286711e+000 9.698997e+000 9.472895e+000 8.750496e+000 8.539662e+000
<VARIANCE> 16
 9.966987e-002 2.432752e-001 3.302601e-001 2.749313e-001 1.326673e-001 1.589702e-001 2.631062e-001 1.605414e-001 2.352536e-001 2.527147e-001 3.237159e-001 5.083756e-001 4.973255e-001 4.704318e-001 1.023312e-001 1.052754e-001
<GCONST> 5.653778e+000
<STATE> 7
<MEAN> 16
 5.988504e+000 7.510970e+000 8.203483e+000 9.030107e+000 7.433074e+000 7.325746e+000 7.702592e+000 8.675000e+000 9.654721e+000 1.034512e+001 1.076002e+001 1.112752e+001 1.158002e+001 1.092356e+001 9.313228e+000 8.759790e+000
<VARIANCE> 16
 1.325444e-001 4.606860e-001 6.954886e-001 9.762082e-001 3.670398e-001 1.934913e-001 2.487349e-001 4.493857e-001 4.928020e-001 6.531865e-001 7.513070e-001 5.724741e-001 6.607466e-001 1.006346e+000 1.010348e+000 4.699212e-001
<GCONST> 1.825667e+001
<STATE> 8
<MEAN> 16
 6.515869e+000 7.735215e+000 9.599499e+000 9.569457e+000 8.601685e+000 8.294271e+000 8.367653e+000 8.915447e+000 1.026576e+001 1.083217e+001 1.075797e+001 1.091300e+001 1.155858e+001 1.093833e+001 9.331540e+000 8.581100e+000
<VARIANCE> 16
 1.429614e-001 2.944233e-001 6.434625e-001 6.909288e-001 5.650074e-001 5.129904e-001 4.210682e-001 3.102455e-001 4.783473e-001 4.123317e-001 3.777652e-001 5.476957e-001 5.289172e-001 6.738300e-001 9.232275e-001 3.517409e-001
<GCONST> 1.679844e+001
<STATE> 9
<MEAN> 16
 6.550775e+000 7.868055e+000 9.129980e+000 8.463922e+000 7.598496e+000 7.248662e+000 7.491150e+000 8.492659e+000 9.747147e+000 9.846377e+000 8.872044e+000 8.924644e+000 9.291563e+000 8.860391e+000 8.530803e+000 8.556198e+000
<VARIANCE> 16
 1.797549e-001 4.186493e-001 5.901576e-001 2.698952e-001 1.463653e-001 1.820017e-001 1.606008e-001 7.128653e-001 1.065096e+000 3.461500e-001 4.535381e-001 4.510091e-001 6.360047e-001 4.255470e-001 2.244481e-001 1.777363e-001
<GCONST> 1.207612e+001
<TRANSP> 10
 0.000000e+000 1.000000e+000 0.000000e+000 0.000000e+000 0.000000e+000 0.000000e+000 0.000000e+000 0.000000e+000 0.000000e+000 0.000000e+000
 0.000000e+000 8.509824e-001 1.490176e-001 0.000000e+000 0.000000e+000 0.000000e+000 0.000000e+000 0.000000e+000 0.000000e+000 0.000000e+000
 0.000000e+000 0.000000e+000 7.536505e-001 2.463495e-001 0.000000e+000 0.000000e+000 0.000000e+000 0.000000e+000 0.000000e+000 0.000000e+000
 0.000000e+000 0.000000e+000 0.000000e+000 7.858026e-001 2.141974e-001 0.000000e+000 0.000000e+000 0.000000e+000 0.000000e+000 0.000000e+000
 0.000000e+000 0.000000e+000 0.000000e+000 0.000000e+000 8.437085e-001 1.562915e-001 0.000000e+000 0.000000e+000 0.000000e+000 0.000000e+000
 0.000000e+000 0.000000e+000 0.000000e+000 0.000000e+000 0.000000e+000 3.821101e-001 6.178899e-001 0.000000e+000 0.000000e+000 0.000000e+000
 0.000000e+000 0.000000e+000 0.000000e+000 0.000000e+000 0.000000e+000 0.000000e+000 9.110602e-001 8.893985e-002 0.000000e+000 0.000000e+000
 0.000000e+000 0.000000e+000 0.000000e+000 0.000000e+000 0.000000e+000 0.000000e+000 0.000000e+000 9.472828e-001 5.271723e-002 0.000000e+000
 0.000000e+000 0.000000e+000 0.000000e+000 0.000000e+000 0.000000e+000 0.000000e+000 0.000000e+000 0.000000e+000 9.228684e-001 7.713159e-002
 0.000000e+000 0.000000e+000 0.000000e+000 0.000000e+000 0.000000e+000 0.000000e+000 0.000000e+000 0.000000e+000 0.000000e+000 0.000000e+000
<ENDHMM>
~h "sedm"
<BEGINHMM>
<NUMSTATES> 10
<STATE> 2
<MEAN> 16
 5.616306e+000 5.744272e+000 5.985051e+000 6.174668e+000 6.280808e+000 6.497131e+000 6.620930e+000 6.894559e+000 7.308691e+000 7.347401e+000 7.490274e+000 7.857919e+000 8.694688e+000 9.015800e+000 9.278198e+000 9.102326e+000
<VARIANCE> 16
 1.127597e-001 8.482311e-002 7.504945e-002 7.894626e-002 5.556998e-002 4.634829e-002 3.996895e-002 5.749375e-002 6.208662e-002 4.174406e-002 8.777405e-002 9.232362e-002 1.321734e-001 1.989954e-001 3.052886e-001 3.641071e-001
<GCONST> -9.015449e+000
<STATE> 3
<MEAN> 16
 5.730271e+000 5.792994e+000 5.893982e+000 6.154146e+000 6.268643e+000 6.476084e+000 6.683300e+000 7.121329e+000 7.497955e+000 7.572146e+000 7.814145e+000 8.390921e+000 9.452389e+000 9.694036e+000 9.939231e+000 9.930171e+000
<VARIANCE> 16
 1.511322e-001 9.542158e-002 1.334101e-001 1.164163e-001 9.842212e-002 5.016350e-002 4.769314e-002 6.014894e-002 7.129294e-002 6.469219e-002 1.682747e-001 9.372928e-002 1.780174e-001 1.607243e-001 2.553898e-001 3.994465e-001
<GCONST> -5.527940e+000
<STATE> 4
<MEAN> 16
 5.767976e+000 5.819984e+000 5.918037e+000 6.195819e+000 6.490004e+000 6.566312e+000 6.786987e+000 7.297899e+000 7.720950e+000 7.768784e+000 8.104454e+000 8.708424e+000 9.867691e+000 1.017997e+001 1.035688e+001 1.020005e+001
<VARIANCE> 16
 2.155745e-001 8.832899e-002 7.600637e-002 7.830884e-002 4.668237e-002 5.880633e-002 5.022768e-002 6.565456e-002 8.763882e-002 6.532549e-002 1.694971e-001 1.022842e-001 2.320396e-001 3.233662e-001 5.801148e-001 5.186858e-001
<GCONST> -4.300194e+000
<STATE> 5
<MEAN> 16
 5.699847e+000 5.739926e+000 5.979337e+000 6.306978e+000 6.473568e+000 6.776388e+000 7.003384e+000 7.545038e+000 8.054705e+000 8.130041e+000 8.458116e+000 9.156758e+000 1.023783e+001 1.050629e+001 1.026910e+001 1.000728e+001
<VARIANCE> 16
 1.371247e-001 9.253647e-002 1.132321e-001 7.707429e-002 5.532778e-002 8.671717e-002 8.360169e-002 1.180784e-001 2.116834e-001 1.213459e-001 3.016834e-001 2.905802e-001 5.028399e-001 6.446846e-001 6.211217e-001 4.452802e-001
<GCONST> 1.832248e+000
<STATE> 6
<MEAN> 16
 5.979253e+000 6.132476e+000 6.457533e+000 6.813692e+000 6.895183e+000 7.172103e+000 7.434036e+000 8.098236e+000 8.727499e+000 8.692833e+000 9.028067e+000 9.553147e+000 1.054547e+001 1.085234e+001 1.031989e+001 1.005024e+001
<VARIANCE> 16
 2.087313e-001 2.345672e-001 3.156702e-001 2.543200e-001 1.193218e-001 1.258278e-001 1.557436e-001 1.420230e-001 2.473356e-001 2.805243e-001 3.965988e-001 4.475000e-001 6.596481e-001 9.143636e-001 7.001839e-001 4.735132e-001
<GCONST> 9.850432e+000
<STATE> 7
<MEAN> 16
 6.504037e+000 7.829812e+000 9.045244e+000 9.343210e+000 8.405149e+000 7.939405e+000 8.684727e+000 9.870255e+000 9.299607e+000 9.142826e+000 8.721791e+000 8.981247e+000 9.465882e+000 9.286947e+000 8.897890e+000 8.824447e+000
<VARIANCE> 16
 1.560339e-001 1.147250e-001 2.030242e-001 2.324817e-001 3.194987e-001 2.918260e-001 1.622198e-001 2.324042e-001 2.922867e-001 3.066299e-001 9.075930e-001 5.751168e-001 5.174692e-001 3.939723e-001 2.365544e-001 8.674052e-002
<GCONST> 8.140111e+000
<STATE> 8
<MEAN> 16
 6.662304e+000 7.915069e+000 9.163070e+000 9.966281e+000 9.784440e+000 9.175472e+000 9.408235e+000 1.033165e+001 1.079322e+001 1.057942e+001 1.093281e+001 1.084967e+001 1.127967e+001 1.073236e+001 9.053665e+000 8.617719e+000
<VARIANCE> 16
 2.433370e-001 4.162992e-001 5.029954e-001 6.298922e-001 1.066154e+000 5.355896e-001 4.641835e-001 7.118499e-001 7.005770e-001 5.595966e-001 8.968484e-001 1.093302e+000 1.060850e+000 1.326511e+000 7.853769e-001 2.535575e-001
<GCONST> 2.207112e+001
<STATE> 9
<MEAN> 16
 6.559589e+000 8.044070e+000 8.617320e+000 8.650999e+000 8.060025e+000 8.011696e+000 8.282368e+000 8.583160e+000 8.727435e+000 8.849554e+000 8.872927e+000 9.304679e+000 9.678794e+000 9.037220e+000 8.110843e+000 8.092044e+000
<VARIANCE> 16
 2.248848e-001 1.948498e-001 4.608939e-001 4.145294e-001 3.075500e-001 3.807435e-001 5.227910e-001 6.508041e-001 6.302961e-001 5.959183e-001 8.361903e-001 1.309232e+000 1.221602e+000 4.762637e-001 7.409349e-002 4.781104e-002
<GCONST> 1.432705e+001
<TRANSP> 10
 0.000000e+000 1.000000e+000 0.000000e+000 0.000000e+000 0.000000e+000 0.000000e+000 0.000000e+000 0.000000e+000 0.000000e+000 0.000000e+000
 0.000000e+000 7.515499e-001 2.484502e-001 0.000000e+000 0.000000e+000 0.000000e+000 0.000000e+000 0.000000e+000 0.000000e+000 0.000000e+000
 0.000000e+000 0.000000e+000 6.567925e-001 3.432075e-001 0.000000e+000 0.000000e+000 0.000000e+000 0.000000e+000 0.000000e+000 0.000000e+000
 0.000000e+000 0.000000e+000 0.000000e+000 4.552552e-001 5.447448e-001 0.000000e+000 0.000000e+000 0.000000e+000 0.000000e+000 0.000000e+000
 0.000000e+000 0.000000e+000 0.000000e+000 0.000000e+000 5.055909e-001 4.944091e-001 0.000000e+000 0.000000e+000 0.000000e+000 0.000000e+000
 0.000000e+000 0.000000e+000 0.000000e+000 0.000000e+000 0.000000e+000 7.038584e-001 2.961416e-001 0.000000e+000 0.000000e+000 0.000000e+000
 0.000000e+000 0.000000e+000 0.000000e+000 0.000000e+000 0.000000e+000 0.000000e+000 5.604587e-001 4.395413e-001 0.000000e+000 0.000000e+000
 0.000000e+000 0.000000e+000 0.000000e+000 0.000000e+000 0.000000e+000 0.000000e+000 0.000000e+000 9.123011e-001 8.769899e-002 0.000000e+000
 0.000000e+000 0.000000e+000 0.000000e+000 0.000000e+000 0.000000e+000 0.000000e+000 0.000000e+000 0.000000e+000 9.695172e-001 3.048271e-002
 0.000000e+000 0.000000e+000 0.000000e+000 0.000000e+000 0.000000e+000 0.000000e+000 0.000000e+000 0.000000e+000 0.000000e+000 0.000000e+000
<ENDHMM>
~h "sest"
<BEGINHMM>
<NUMSTATES> 10
<STATE> 2
<MEAN> 16
 5.671514e+000 5.718316e+000 5.892717e+000 6.082672e+000 6.317301e+000 6.477911e+000 6.645073e+000 7.057574e+000 7.708796e+000 7.986740e+000 8.332160e+000 8.867537e+000 9.163883e+000 9.249990e+000 8.827139e+000 8.295085e+000
<VARIANCE> 16
 8.471360e-002 1.029729e-001 9.220399e-002 5.445426e-002 4.056245e-002 5.008626e-002 4.588426e-002 7.106464e-002 2.086030e-001 3.840970e-001 3.893563e-001 3.609410e-001 2.806235e-001 3.637495e-001 4.099366e-001 5.894807e-002
<GCONST> -3.045966e+000
<STATE> 3
<MEAN> 16
 5.696073e+000 5.781830e+000 5.889793e+000 6.079197e+000 6.317762e+000 6.461793e+000 6.627098e+000 7.209067e+000 8.053076e+000 8.685281e+000 9.249881e+000 9.936986e+000 1.013467e+001 1.016409e+001 9.591453e+000 8.826781e+000
<VARIANCE> 16
 1.310896e-001 1.001994e-001 6.837540e-002 9.224679e-002 6.000848e-002 4.145543e-002 6.188365e-002 1.352598e-001 4.230570e-001 5.916047e-001 3.389843e-001 2.703162e-001 1.396397e-001 1.897705e-001 1.996036e-001 1.450996e-001
<GCONST> -1.719442e+000
<STATE> 4
<MEAN> 16
 5.756730e+000 5.742501e+000 5.996937e+000 6.226304e+000 6.393282e+000 6.490893e+000 6.779355e+000 7.444870e+000 8.454644e+000 9.327427e+000 9.705497e+000 1.028458e+001 1.056831e+001 1.058103e+001 1.011820e+001 9.296474e+000
<VARIANCE> 16
 1.374608e-001 1.023163e-001 5.467225e-002 6.887502e-002 3.901076e-002 7.536836e-002 5.435238e-002 1.633617e-001 3.980347e-001 5.397259e-001 2.515478e-001 2.508724e-001 2.210747e-001 2.029418e-001 1.456869e-001 1.964767e-001
<GCONST> -1.951711e+000
<STATE> 5
<MEAN> 16
 5.755348e+000 5.852314e+000 6.017067e+000 6.221243e+000 6.295447e+000 6.528222e+000 6.842584e+000 7.444607e+000 8.321256e+000 9.176622e+000 1.009461e+001 1.111317e+001 1.143508e+001 1.133434e+001 1.071975e+001 9.804445e+000
<VARIANCE> 16
 6.351710e-002 7.221831e-002 7.565436e-002 6.758949e-002 5.515102e-002 5.904735e-002 1.264109e-001 1.204128e-001 3.118437e-001 4.110071e-001 2.024760e-001 3.301378e-001 3.124435e-001 3.946510e-001 3.348227e-001 2.681155e-001
<GCONST> -4.298564e-001
<STATE> 6
<MEAN> 16
 5.799714e+000 5.924786e+000 6.276322e+000 6.465042e+000 6.584172e+000 6.844090e+000 7.081007e+000 8.094268e+000 9.117087e+000 9.800924e+000 1.025701e+001 1.079617e+001 1.119748e+001 1.106429e+001 1.053540e+001 9.823958e+000
<VARIANCE> 16
 8.159769e-002 8.995064e-002 1.203550e-001 1.327045e-001 8.943729e-002 1.090225e-001 8.462287e-002 1.995515e-001 4.199327e-001 6.115888e-001 2.178595e-001 2.905379e-001 5.164412e-001 5.130640e-001 4.311382e-001 2.230247e-001
<GCONST> 3.853760e+000
<STATE> 7
<MEAN> 16
 6.276110e+000 7.355016e+000 8.309490e+000 8.650306e+000 7.872488e+000 7.425584e+000 7.788763e+000 8.960530e+000 9.351028e+000 9.380607e+000 9.182655e+000 9.272138e+000 9.509289e+000 9.125498e+000 8.653081e+000 8.603318e+000
<VARIANCE> 16
 1.489150e-001 6.336173e-001 1.537263e+000 1.626196e+000 8.565869e-001 3.691863e-001 3.758768e-001 9.818912e-001 5.548468e-001 3.494800e-001 4.063863e-001 5.406975e-001 5.271552e-001 5.860757e-001 3.636654e-001 9.405299e-002
<GCONST> 1.810787e+001
<STATE> 8
<MEAN> 16
 6.445043e+000 7.538662e+000 8.980515e+000 1.002646e+001 9.974912e+000 9.302867e+000 9.469477e+000 1.052560e+001 1.091241e+001 1.066050e+001 1.078997e+001 1.090049e+001 1.127622e+001 1.063359e+001 9.153595e+000 8.630661e+000
<VARIANCE> 16
 1.997041e-001 2.271818e-001 3.338696e-001 4.023917e-001 1.123559e+000 9.520313e-001 5.331441e-001 4.783555e-001 1.012948e+000 8.622389e-001 1.538109e+000 1.267211e+000 1.318706e+000 1.457495e+000 5.314918e-001 1.236840e-001
<GCONST> 2.147005e+001
<STATE> 9
<MEAN> 16
 5.743084e+000 5.951164e+000 6.521224e+000 7.185545e+000 7.289887e+000 7.086681e+000 7.208244e+000 7.847591e+000 8.224746e+000 8.184643e+000 8.598899e+000 9.110778e+000 9.977854e+000 1.044502e+001 1.036402e+001 1.006879e+001
<VARIANCE> 16
 1.247381e-001 1.638958e-001 3.583048e-001 5.632500e-001 5.608681e-001 3.665378e-001 2.002072e-001 2.712961e-001 4.591924e-001 3.787639e-001 4.283124e-001 3.507882e-001 4.748208e-001 5.145890e-001 2.781011e-001 2.359763e-001
<GCONST> 1.164309e+001
<TRANSP> 10
 0.000000e+000 1.000000e+000 0.000000e+000 0.000000e+000 0.000000e+000 0.000000e+000 0.000000e+000 0.000000e+000 0.000000e+000 0.000000e+000
 0.000000e+000 4.755851e-001 5.244149e-001 0.000000e+000 0.000000e+000 0.000000e+000 0.000000e+000 0.000000e+000 0.000000e+000 0.000000e+000
 0.000000e+000 0.000000e+000 3.723585e-001 6.276414e-001 0.000000e+000 0.000000e+000 0.000000e+000 0.000000e+000 0.000000e+000 0.000000e+000
 0.000000e+000 0.000000e+000 0.000000e+000 3.727859e-001 6.272140e-001 0.000000e+000 0.000000e+000 0.000000e+000 0.000000e+000 0.000000e+000
 0.000000e+000 0.000000e+000 0.000000e+000 0.000000e+000 7.203348e-001 2.796652e-001 0.000000e+000 0.000000e+000 0.000000e+000 0.000000e+000
 0.000000e+000 0.000000e+000 0.000000e+000 0.000000e+000 0.000000e+000 7.300376e-001 2.699624e-001 0.000000e+000 0.000000e+000 0.000000e+000
 0.000000e+000 0.000000e+000 0.000000e+000 0.000000e+000 0.000000e+000 0.000000e+000 6.772284e-001 3.227716e-001 0.000000e+000 0.000000e+000
 0.000000e+000 0.000000e+000 0.000000e+000 0.000000e+000 0.000000e+000 0.000000e+000 0.000000e+000 9.480178e-001 5.198217e-002 0.000000e+000
 0.000000e+000 0.000000e+000 0.000000e+000 0.000000e+000 0.000000e+000 0.000000e+000 0.000000e+000 0.000000e+000 9.397785e-001 6.022151e-002
 0.000000e+000 0.000000e+000 0.000000e+000 0.000000e+000 0.000000e+000 0.000000e+000 0.000000e+000 0.000000e+000 0.000000e+000 0.000000e+000
<ENDHMM>
~h "dva"
<BEGINHMM>
<NUMSTATES> 10
<STATE> 2
<MEAN> 16
 5.970684e+000 6.575995e+000 6.788001e+000 6.649547e+000 6.467191e+000 6.548211e+000 6.715348e+000 6.901746e+000 7.214832e+000 7.095539e+000 7.206228e+000 7.402482e+000 7.622912e+000 7.723847e+000 7.818489e+000 8.007337e+000
<VARIANCE> 16
 1.438702e-001 3.646335e-001 5.214908e-001 4.085883e-001 1.325753e-001 8.453422e-002 8.478472e-002 1.038421e-001 7.916524e-002 5.942023e-002 4.394081e-002 4.085514e-002 4.804962e-002 3.994934e-002 2.167271e-002 3.675098e-002
<GCONST> -9.384438e+000
<STATE> 3
<MEAN> 16
 6.140242e+000 6.834848e+000 7.066013e+000 7.138373e+000 6.834286e+000 7.027805e+000 7.561427e+000 7.844203e+000 8.032011e+000 8.092793e+000 8.313332e+000 8.602926e+000 8.960380e+000 8.531600e+000 8.020916e+000 8.047566e+000
<VARIANCE> 16
 1.128653e-001 3.858506e-001 4.180754e-001 3.318539e-001 1.611224e-001 1.661410e-001 2.455445e-001 4.357528e-001 3.392965e-001 3.384352e-001 5.373538e-001 5.932800e-001 6.674641e-001 4.074328e-001 7.529784e-002 1.862054e-002
<GCONST> 7.262113e+000
<STATE> 4
<MEAN> 16
 6.215343e+000 7.246275e+000 8.035661e+000 7.994446e+000 7.369443e+000 7.416700e+000 7.797254e+000 8.114120e+000 8.160786e+000 8.325491e+000 8.487088e+000 8.889735e+000 8.785795e+000 8.389117e+000 8.021545e+000 8.047605e+000
<VARIANCE> 16
 1.981054e-001 1.407509e-001 5.497860e-001 4.942417e-001 2.511714e-001 1.758943e-001 2.343747e-001 7.218660e-001 7.013835e-001 6.021240e-001 7.254013e-001 7.843161e-001 8.693207e-001 5.118939e-001 8.577081e-002 3.799282e-002
<GCONST> 1.166503e+001
<STATE> 5
<MEAN> 16
 6.708184e+000 7.564390e+000 8.184752e+000 8.187041e+000 7.764221e+000 8.070261e+000 8.420596e+000 8.120214e+000 7.998033e+000 8.175171e+000 8.325203e+000 8.447033e+000 8.986462e+000 8.660677e+000 8.091562e+000 8.101428e+000
<VARIANCE> 16
 4.382199e-001 2.619642e-001 4.973229e-001 6.316256e-001 2.743764e-001 2.477449e-001 2.084560e-001 4.879856e-001 4.702016e-001 3.791442e-001 5.441979e-001 7.017819e-001 5.900515e-001 3.381025e-001 8.779234e-002 6.062443e-002
<GCONST> 1.157457e+001
<STATE> 6
<MEAN> 16
 6.722818e+000 7.560286e+000 8.447566e+000 8.864586e+000 8.485686e+000 8.747619e+000 9.155730e+000 8.774611e+000 8.472371e+000 8.799787e+000 8.924940e+000 9.246116e+000 9.599952e+000 9.017731e+000 8.091347e+000 8.122728e+000
<VARIANCE> 16
 2.559704e-001 1.276489e-001 2.001217e-001 4.000823e-001 5.275285e-001 5.151826e-001 5.174338e-001 5.081882e-001 3.310121e-001 3.871105e-001 5.833717e-001 9.244508e-001 7.115473e-001 3.278227e-001 3.818317e-002 6.190422e-002
<GCONST> 1.064613e+001
<STATE> 7
<MEAN> 16
 6.496307e+000 7.434224e+000 8.617934e+000 1.003341e+001 1.066797e+001 1.018476e+001 1.034900e+001 9.368319e+000 9.267735e+000 9.803951e+000 8.978098e+000 9.746930e+000 9.871827e+000 9.420321e+000 8.511639e+000 8.311297e+000
<VARIANCE> 16
 1.484893e-001 9.680862e-002 7.172990e-002 1.310029e-001 2.910243e-001 2.176887e-001 1.663807e-001 2.071968e-001 1.953392e-001 2.364594e-001 9.993701e-001 1.710152e+000 6.985444e-001 4.009765e-001 2.666129e-001 9.351498e-002
<GCONST> 6.866544e+000
<STATE> 8
<MEAN> 16
 6.704391e+000 7.587822e+000 8.542777e+000 9.652415e+000 1.063497e+001 1.111915e+001 1.159777e+001 1.134957e+001 1.011078e+001 1.044551e+001 1.102673e+001 1.124760e+001 1.206102e+001 1.097516e+001 9.000615e+000 8.588224e+000
<VARIANCE> 16
 5.226716e-001 4.543178e-001 7.677724e-001 6.047695e-001 7.015882e-001 6.610841e-001 5.621094e-001 6.412466e-001 3.979583e-001 5.095238e-001 6.204163e-001 8.009561e-001 7.803848e-001 6.151295e-001 5.360698e-001 3.632424e-001
<GCONST> 2.074735e+001
<STATE> 9
<MEAN> 16
 5.883315e+000 6.446140e+000 6.647707e+000 7.527527e+000 8.477149e+000 8.799837e+000 8.814789e+000 8.487313e+000 7.894308e+000 8.013743e+000 8.364347e+000 8.681494e+000 9.229156e+000 8.580638e+000 7.911559e+000 7.963736e+000
<VARIANCE> 16
 2.554474e-001 4.740224e-001 3.208038e-001 5.554594e-001 5.745161e-001 4.291539e-001 4.783137e-001 6.414776e-001 2.772527e-001 3.111116e-001 4.921572e-001 3.669018e-001 4.147611e-001 2.900099e-001 5.047052e-002 5.585191e-002
<GCONST> 1.083691e+001
<TRANSP> 10
 0.000000e+000 1.000000e+000 0.000000e+000 0.000000e+000 0.000000e+000 0.000000e+000 0.000000e+000 0.000000e+000 0.000000e+000 0.000000e+000
 0.000000e+000 8.174037e-001 1.825963e-001 0.000000e+000 0.000000e+000 0.000000e+000 0.000000e+000 0.000000e+000 0.000000e+000 0.000000e+000
 0.000000e+000 0.000000e+000 4.728614e-001 5.271386e-001 0.000000e+000 0.000000e+000 0.000000e+000 0.000000e+000 0.000000e+000 0.000000e+000
 0.000000e+000 0.000000e+000 0.000000e+000 7.144649e-001 2.855351e-001 0.000000e+000 0.000000e+000 0.000000e+000 0.000000e+000 0.000000e+000
 0.000000e+000 0.000000e+000 0.000000e+000 0.000000e+000 3.788692e-001 6.211308e-001 0.000000e+000 0.000000e+000 0.000000e+000 0.000000e+000
 0.000000e+000 0.000000e+000 0.000000e+000 0.000000e+000 0.000000e+000 4.728285e-001 5.271715e-001 0.000000e+000 0.000000e+000 0.000000e+000
 0.000000e+000 0.000000e+000 0.000000e+000 0.000000e+000 0.000000e+000 0.000000e+000 8.831840e-001 1.168160e-001 0.000000e+000 0.000000e+000
 0.000000e+000 0.000000e+000 0.000000e+000 0.000000e+000 0.000000e+000 0.000000e+000 0.000000e+000 9.298519e-001 7.014807e-002 0.000000e+000
 0.000000e+000 0.000000e+000 0.000000e+000 0.000000e+000 0.000000e+000 0.000000e+000 0.000000e+000 0.000000e+000 8.901517e-001 1.098483e-001
 0.000000e+000 0.000000e+000 0.000000e+000 0.000000e+000 0.000000e+000 0.000000e+000 0.000000e+000 0.000000e+000 0.000000e+000 0.000000e+000
<ENDHMM>
~h "osm"
<BEGINHMM>
<NUMSTATES> 10
<STATE> 2
<MEAN> 16
 5.323855e+000 5.649258e+000 5.896941e+000 6.181590e+000 6.355464e+000 6.515860e+000 6.585356e+000 6.638887e+000 6.970959e+000 6.901415e+000 7.199261e+000 7.637607e+000 8.124174e+000 8.285357e+000 8.315434e+000 8.413463e+000
<VARIANCE> 16
 3.292699e-001 1.643060e-001 1.383009e-001 2.812495e-001 3.233414e-001 3.155345e-001 1.493594e-001 8.144119e-002 1.406010e-001 1.531646e-001 3.522979e-002 1.359233e-001 5.658356e-001 6.392015e-001 7.111068e-001 5.578044e-001
<GCONST> 5.429219e+000
<STATE> 3
<MEAN> 16
 5.847005e+000 6.539456e+000 7.499987e+000 8.332373e+000 8.230952e+000 8.243134e+000 7.659284e+000 7.171749e+000 7.457525e+000 7.684520e+000 7.569722e+000 7.956841e+000 8.558643e+000 8.135977e+000 8.057416e+000 8.301744e+000
<VARIANCE> 16
 2.292699e-001 5.189691e-001 1.132275e+000 1.135715e+000 5.776895e-001 5.831077e-001 5.097717e-001 1.512542e-001 9.982631e-002 2.272986e-001 2.312944e-001 5.758549e-001 3.533381e-001 1.402912e-001 1.413210e-001 1.752964e-001
<GCONST> 1.137393e+001
<STATE> 4
<MEAN> 16
 6.359812e+000 7.411578e+000 8.740812e+000 9.644909e+000 9.458801e+000 9.658944e+000 8.997320e+000 8.214504e+000 8.150180e+000 8.673894e+000 8.621805e+000 9.135880e+000 9.687910e+000 8.935274e+000 8.337079e+000 8.437138e+000
<VARIANCE> 16
 2.504933e-001 1.911529e-001 3.830747e-001 2.782106e-001 5.340259e-001 2.559095e-001 5.449426e-001 1.937648e-001 1.177486e-001 2.723069e-001 6.653727e-001 1.527914e+000 7.383530e-001 5.511087e-001 4.237697e-001 2.133891e-001
<GCONST> 1.316381e+001
<STATE> 5
<MEAN> 16
 6.428689e+000 7.542157e+000 8.832156e+000 9.894034e+000 1.014425e+001 1.021485e+001 9.615111e+000 8.749607e+000 8.532381e+000 9.008516e+000 9.464163e+000 1.022540e+001 1.070748e+001 9.807957e+000 8.618526e+000 8.477467e+000
<VARIANCE> 16
 2.051548e-001 3.980870e-001 2.064547e-001 4.959514e-001 8.938308e-001 4.809757e-001 9.553374e-001 3.421468e-001 1.900427e-001 4.379180e-001 1.065185e+000 1.944262e+000 9.583248e-001 7.208558e-001 7.657911e-001 2.481091e-001
<GCONST> 1.887081e+001
<STATE> 6
<MEAN> 16
 6.558463e+000 7.707741e+000 9.084299e+000 1.008905e+001 1.030479e+001 1.034102e+001 9.701553e+000 8.872707e+000 8.576592e+000 9.050067e+000 9.664565e+000 1.044251e+001 1.092912e+001 9.876150e+000 8.325215e+000 8.463617e+000
<VARIANCE> 16
 2.053524e-001 2.842146e-001 4.497041e-001 4.926408e-001 8.079961e-001 4.287860e-001 6.905280e-001 2.648081e-001 1.300718e-001 4.887630e-001 7.496576e-001 1.320000e+000 6.450177e-001 4.440809e-001 1.950320e-001 1.413881e-001
<GCONST> 1.469168e+001
<STATE> 7
<MEAN> 16
 6.715511e+000 7.748875e+000 9.426237e+000 1.057352e+001 1.088763e+001 1.089650e+001 1.065756e+001 9.627385e+000 9.162419e+000 9.383842e+000 1.047017e+001 1.117856e+001 1.180867e+001 1.111215e+001 9.303451e+000 8.636902e+000
<VARIANCE> 16
 2.841009e-001 5.499003e-001 7.718927e-001 6.993079e-001 9.432148e-001 7.678278e-001 8.637920e-001 3.987309e-001 3.293613e-001 3.213682e-001 5.505401e-001 9.845999e-001 5.301867e-001 5.375974e-001 5.675251e-001 1.946947e-001
<GCONST> 1.922836e+001
<STATE> 8
<MEAN> 16
 6.092827e+000 6.642079e+000 7.463727e+000 8.069299e+000 8.142333e+000 8.336394e+000 8.380406e+000 8.409888e+000 8.521857e+000 8.716468e+000 9.326978e+000 9.937510e+000 1.061714e+001 1.062316e+001 1.016621e+001 9.979648e+000
<VARIANCE> 16
 5.666450e-001 1.356082e+000 2.168365e+000 1.629513e+000 1.291108e+000 1.418451e+000 1.274589e+000 1.196360e+000 1.083706e+000 1.181180e+000 1.061828e+000 8.142679e-001 6.695694e-001 5.902818e-001 1.054855e+000 1.347578e+000
<GCONST> 3.095670e+001
<STATE> 9
<MEAN> 16
 6.442139e+000 7.924652e+000 8.697100e+000 8.629542e+000 7.864175e+000 8.316391e+000 8.499969e+000 8.383135e+000 8.489773e+000 8.720264e+000 8.817751e+000 9.609905e+000 9.962588e+000 9.069909e+000 8.102627e+000 8.113913e+000
<VARIANCE> 16
 1.710992e-001 8.846551e-002 3.466293e-001 4.519661e-001 2.554920e-001 4.649830e-001 5.837821e-001 6.763766e-001 4.873433e-001 4.887028e-001 5.951596e-001 8.639165e-001 9.382320e-001 3.927006e-001 8.638799e-002 5.245034e-002
<GCONST> 1.180693e+001
<TRANSP> 10
 0.000000e+000 1.000000e+000 0.000000e+000 0.000000e+000 0.000000e+000 0.000000e+000 0.000000e+000 0.000000e+000 0.000000e+000 0.000000e+000
 0.000000e+000 3.111303e-001 6.888698e-001 0.000000e+000 0.000000e+000 0.000000e+000 0.000000e+000 0.000000e+000 0.000000e+000 0.000000e+000
 0.000000e+000 0.000000e+000 4.011851e-001 5.988149e-001 0.000000e+000 0.000000e+000 0.000000e+000 0.000000e+000 0.000000e+000 0.000000e+000
 0.000000e+000 0.000000e+000 0.000000e+000 4.108135e-001 5.891866e-001 0.000000e+000 0.000000e+000 0.000000e+000 0.000000e+000 0.000000e+000
 0.000000e+000 0.000000e+000 0.000000e+000 0.000000e+000 6.540605e-002 9.345940e-001 0.000000e+000 0.000000e+000 0.000000e+000 0.000000e+000
 0.000000e+000 0.000000e+000 0.000000e+000 0.000000e+000 0.000000e+000 6.260036e-001 3.739964e-001 0.000000e+000 0.000000e+000 0.000000e+000
 0.000000e+000 0.000000e+000 0.000000e+000 0.000000e+000 0.000000e+000 0.000000e+000 8.025672e-001 1.974328e-001 0.000000e+000 0.000000e+000
 0.000000e+000 0.000000e+000 0.000000e+000 0.000000e+000 0.000000e+000 0.000000e+000 0.000000e+000 9.485936e-001 5.140637e-002 0.000000e+000
 0.000000e+000 0.000000e+000 0.000000e+000 0.000000e+000 0.000000e+000 0.000000e+000 0.000000e+000 0.000000e+000 9.606376e-001 3.936242e-002
 0.000000e+000 0.000000e+000 0.000000e+000 0.000000e+000 0.000000e+000 0.000000e+000 0.000000e+000 0.000000e+000 0.000000e+000 0.000000e+000
<ENDHMM>
~h "pet"
<BEGINHMM>
<NUMSTATES> 10
<STATE> 2
<MEAN> 16
 5.884454e+000 5.945770e+000 6.166924e+000 6.163342e+000 6.255576e+000 6.440873e+000 6.657977e+000 6.835343e+000 7.148353e+000 7.027185e+000 7.191320e+000 7.410896e+000 7.693027e+000 7.737998e+000 7.805430e+000 7.955606e+000
<VARIANCE> 16
 1.900651e-001 1.542545e-001 2.382083e-001 9.138007e-002 5.041102e-002 6.292768e-002 4.135039e-002 4.413227e-002 4.900316e-002 2.944975e-002 2.608608e-002 2.581584e-002 5.969743e-002 4.391244e-002 1.397802e-002 1.533221e-002
<GCONST> -1.824656e+001
<STATE> 3
<MEAN> 16
 5.992962e+000 6.479749e+000 6.932240e+000 6.656281e+000 6.412602e+000 6.430370e+000 6.840820e+000 7.297605e+000 7.822432e+000 7.764974e+000 7.758708e+000 7.931672e+000 8.309432e+000 8.325351e+000 8.119505e+000 8.124974e+000
<VARIANCE> 16
 3.730817e-001 5.542293e-001 6.848503e-001 2.245294e-001 7.656483e-002 6.077729e-002 1.014261e-001 2.884192e-001 4.329590e-001 3.985637e-001 3.651891e-001 2.742604e-001 2.274663e-001 2.044556e-001 7.175820e-002 4.504763e-002
<GCONST> 4.195010e+000
<STATE> 4
<MEAN> 16
 6.353721e+000 7.561232e+000 8.485784e+000 8.154469e+000 7.233928e+000 6.962146e+000 7.279961e+000 8.207485e+000 9.290581e+000 9.323745e+000 8.802021e+000 8.782623e+000 9.233617e+000 9.001979e+000 8.327632e+000 8.336480e+000
<VARIANCE> 16
 1.693121e-001 1.944029e-001 4.102620e-001 3.206369e-001 1.216492e-001 1.246166e-001 7.211348e-002 2.645403e-001 2.789418e-001 5.312829e-001 8.608739e-001 1.092695e+000 6.370139e-001 4.175630e-001 7.762780e-002 9.345204e-002
<GCONST> 7.594598e+000
<STATE> 5
<MEAN> 16
 6.594869e+000 7.941115e+000 9.274652e+000 9.286619e+000 8.075542e+000 7.683923e+000 7.964378e+000 8.872956e+000 1.016411e+001 1.066705e+001 1.024454e+001 1.013131e+001 1.033155e+001 9.573278e+000 8.296481e+000 8.147923e+000
<VARIANCE> 16
 2.690634e-001 1.648579e-001 1.398292e-001 9.917323e-002 2.600920e-001 1.641337e-001 2.212462e-001 3.824336e-001 2.684202e-001 3.489579e-001 9.108234e-001 1.560569e+000 1.148960e+000 1.038460e+000 8.652237e-002 8.440290e-002
<GCONST> 9.629588e+000
<STATE> 6
<MEAN> 16
 6.389763e+000 7.468135e+000 9.372459e+000 9.461102e+000 8.425062e+000 7.853772e+000 8.181238e+000 8.976714e+000 1.036289e+001 1.127561e+001 1.129686e+001 1.143867e+001 1.130012e+001 1.028241e+001 8.682617e+000 8.263894e+000
<VARIANCE> 16
 2.023599e-001 2.031494e-001 4.672761e-001 3.430686e-001 3.475493e-001 1.882729e-001 7.112870e-002 1.891515e-001 2.634536e-001 2.247687e-001 5.056653e-001 9.010791e-001 8.717379e-001 1.671919e+000 2.070197e-001 5.072241e-002
<GCONST> 9.556442e+000
<STATE> 7
<MEAN> 16
 6.839925e+000 7.854107e+000 9.462876e+000 1.020293e+001 9.005488e+000 8.328785e+000 8.570128e+000 9.933352e+000 1.044817e+001 1.019620e+001 9.470273e+000 9.397996e+000 1.005563e+001 9.729318e+000 8.714872e+000 8.777324e+000
<VARIANCE> 16
 1.411832e-001 1.063959e-001 1.601278e-001 1.133900e-001 1.325978e-001 8.624087e-002 6.653965e-002 2.154829e-001 2.317429e-001 7.012992e-001 1.183060e+000 1.367754e+000 8.143477e-001 5.373535e-001 7.899607e-002 1.099226e-001
<GCONST> 5.574688e+000
<STATE> 8
<MEAN> 16
 6.438056e+000 7.436138e+000 8.985003e+000 1.010778e+001 1.018148e+001 9.279149e+000 9.360991e+000 1.017602e+001 1.108787e+001 1.111831e+001 1.121996e+001 1.122065e+001 1.156203e+001 1.070566e+001 8.817978e+000 8.413333e+000
<VARIANCE> 16
 1.520227e-001 2.042498e-001 4.573620e-001 3.078168e-001 6.032407e-001 5.973812e-001 2.950771e-001 2.569432e-001 3.204307e-001 5.288346e-001 4.245868e-001 4.935388e-001 5.086125e-001 7.909039e-001 2.740293e-001 1.352955e-001
<GCONST> 1.282988e+001
<STATE> 9
<MEAN> 16
 5.912724e+000 6.351022e+000 7.315910e+000 8.185636e+000 8.100975e+000 7.529486e+000 7.532129e+000 8.252358e+000 8.819961e+000 8.733508e+000 9.005704e+000 9.054217e+000 9.219361e+000 8.472278e+000 7.923230e+000 8.027306e+000
<VARIANCE> 16
 1.376306e-001 3.442543e-001 5.807991e-001 4.410139e-001 4.269896e-001 3.287742e-001 2.209665e-001 4.083438e-001 3.606736e-001 3.768373e-001 5.543494e-001 4.238488e-001 3.876114e-001 3.750869e-001 4.432401e-002 4.195379e-002
<GCONST> 8.965853e+000
<TRANSP> 10
 0.000000e+000 1.000000e+000 0.000000e+000 0.000000e+000 0.000000e+000 0.000000e+000 0.000000e+000 0.000000e+000 0.000000e+000 0.000000e+000
 0.000000e+000 8.242435e-001 1.757564e-001 0.000000e+000 0.000000e+000 0.000000e+000 0.000000e+000 0.000000e+000 0.000000e+000 0.000000e+000
 0.000000e+000 0.000000e+000 2.934337e-001 7.065663e-001 0.000000e+000 0.000000e+000 0.000000e+000 0.000000e+000 0.000000e+000 0.000000e+000
 0.000000e+000 0.000000e+000 0.000000e+000 4.767573e-001 5.232427e-001 0.000000e+000 0.000000e+000 0.000000e+000 0.000000e+000 0.000000e+000
 0.000000e+000 0.000000e+000 0.000000e+000 0.000000e+000 1.792874e-001 8.207126e-001 0.000000e+000 0.000000e+000 0.000000e+000 0.000000e+000
 0.000000e+000 0.000000e+000 0.000000e+000 0.000000e+000 0.000000e+000 7.144693e-001 2.855307e-001 0.000000e+000 0.000000e+000 0.000000e+000
 0.000000e+000 0.000000e+000 0.000000e+000 0.000000e+000 0.000000e+000 0.000000e+000 7.598025e-001 2.401975e-001 0.000000e+000 0.000000e+000
 0.000000e+000 0.000000e+000 0.000000e+000 0.000000e+000 0.000000e+000 0.000000e+000 0.000000e+000 9.304704e-001 6.952959e-002 0.000000e+000
 0.000000e+000 0.000000e+000 0.000000e+000 0.000000e+000 0.000000e+000 0.000000e+000 0.000000e+000 0.000000e+000 8.390125e-001 1.609875e-001
 0.000000e+000 0.000000e+000 0.000000e+000 0.000000e+000 0.000000e+000 0.000000e+000 0.000000e+000 0.000000e+000 0.000000e+000 0.000000e+000
<ENDHMM>
~h "sil"
<BEGINHMM>
<NUMSTATES> 5
<STATE> 2
<MEAN> 16
 5.728675e+000 5.974917e+000 6.262863e+000 6.565386e+000 6.681571e+000 6.777831e+000 6.911496e+000 7.158199e+000 7.438871e+000 7.411182e+000 7.584110e+000 7.814432e+000 8.187745e+000 8.050256e+000 7.957384e+000 8.085274e+000
<VARIANCE> 16
 1.573685e-001 2.694720e-001 2.641295e-001 2.873037e-001 2.651424e-001 2.136268e-001 1.959608e-001 2.362221e-001 1.793696e-001 1.896340e-001 2.193139e-001 2.070816e-001 2.941668e-001 2.213184e-001 1.027576e-001 6.894682e-002
<GCONST> 3.568784e+000
<STATE> 3
<MEAN> 16
 5.633142e+000 5.737201e+000 5.904122e+000 6.094128e+000 6.259635e+000 6.435499e+000 6.591745e+000 6.756673e+000 7.110291e+000 7.017478e+000 7.170470e+000 7.346459e+000 7.544848e+000 7.642464e+000 7.811657e+000 8.015599e+000
<VARIANCE> 16
 1.140265e-001 1.002222e-001 8.630993e-002 7.061268e-002 6.261408e-002 5.480782e-002 4.788435e-002 3.973702e-002 3.037144e-002 2.972440e-002 2.625732e-002 2.396447e-002 2.661902e-002 1.975234e-002 1.743936e-002 3.426380e-002
<GCONST> -2.145947e+001
<STATE> 4
<MEAN> 16
 5.359478e+000 5.722627e+000 5.903375e+000 5.998837e+000 6.069274e+000 6.259144e+000 6.429600e+000 6.545417e+000 6.816057e+000 6.838698e+000 7.023171e+000 7.240145e+000 7.533401e+000 7.610858e+000 7.656863e+000 7.770040e+000
<VARIANCE> 16
 4.229592e-001 2.369831e-001 1.589608e-001 1.161281e-001 1.611297e-001 1.598737e-001 1.634407e-001 2.464724e-001 3.521028e-001 2.629382e-001 2.978844e-001 3.178805e-001 3.977824e-001 3.440590e-001 1.889003e-001 1.826932e-001
<GCONST> 6.150827e+000
<TRANSP> 5
 0.000000e+000 1.000000e+000 0.000000e+000 0.000000e+000 0.000000e+000
 0.000000e+000 8.653920e-001 1.346080e-001 0.000000e+000 0.000000e+000
 0.000000e+000 0.000000e+000 9.839624e-001 1.603768e-002 0.000000e+000
 0.000000e+000 0.000000e+000 0.000000e+000 6.786888e-001 3.213112e-001
 0.000000e+000 0.000000e+000 0.000000e+000 0.000000e+000 0.000000e+000
<ENDHMM>
~h "tri"
<BEGINHMM>
<NUMSTATES> 10
<STATE> 2
<MEAN> 16
 5.846663e+000 5.938882e+000 6.151403e+000 6.331682e+000 6.458601e+000 6.668674e+000 6.909887e+000 7.264566e+000 7.627866e+000 7.667308e+000 7.880147e+000 8.430260e+000 8.892411e+000 8.830248e+000 8.331567e+000 8.183142e+000
<VARIANCE> 16
 1.098932e-001 1.520968e-001 2.657273e-001 1.268988e-001 6.921215e-002 7.372820e-002 1.272335e-001 1.851880e-001 2.150455e-001 2.225814e-001 3.049611e-001 4.667801e-001 5.354000e-001 5.923449e-001 3.002524e-001 1.707641e-001
<GCONST> 3.790986e+000
<STATE> 3
<MEAN> 16
 5.595668e+000 5.930791e+000 6.368981e+000 6.569577e+000 6.744990e+000 6.953056e+000 7.325265e+000 7.980224e+000 8.324664e+000 8.514809e+000 8.730023e+000 9.520325e+000 9.911126e+000 9.797962e+000 9.111294e+000 8.898111e+000
<VARIANCE> 16
 1.426387e-001 1.248140e-001 1.506223e-001 1.624852e-001 1.639525e-001 2.146729e-001 3.143868e-001 2.416108e-001 2.245268e-001 1.695825e-001 3.040596e-001 2.948655e-001 2.489648e-001 2.755049e-001 2.458259e-001 2.752459e-001
<GCONST> 4.690376e+000
<STATE> 4
<MEAN> 16
 5.994141e+000 5.860102e+000 6.519938e+000 6.994562e+000 7.140388e+000 7.408761e+000 7.651679e+000 8.151962e+000 8.921289e+000 9.008772e+000 9.284033e+000 1.001020e+001 1.069345e+001 1.067642e+001 9.635715e+000 9.167156e+000
<VARIANCE> 16
 2.626442e-001 1.082231e-001 1.767765e-001 3.885342e-001 3.713002e-001 4.852735e-001 3.887951e-001 2.546700e-001 4.329978e-001 3.521346e-001 2.349641e-001 1.779538e-001 1.747509e-001 1.593244e-001 2.553354e-001 3.778453e-001
<GCONST> 8.166029e+000
<STATE> 5
<MEAN> 16
 5.828935e+000 5.877252e+000 6.281880e+000 6.577693e+000 6.766160e+000 7.044134e+000 7.300006e+000 7.709085e+000 8.460594e+000 8.565409e+000 9.180261e+000 1.058278e+001 1.143108e+001 1.159530e+001 1.041456e+001 9.380782e+000
<VARIANCE> 16
 1.399632e-001 6.645983e-002 8.788838e-002 2.588570e-001 2.026158e-001 2.091338e-001 1.148288e-001 1.785457e-001 2.489233e-001 3.060199e-001 4.406514e-001 3.376931e-001 3.308109e-001 2.600718e-001 2.153096e-001 1.949835e-001
<GCONST> 3.793525e+000
<STATE> 6
<MEAN> 16
 5.699361e+000 5.831302e+000 6.098055e+000 6.410141e+000 6.524662e+000 6.666471e+000 6.974375e+000 7.827481e+000 8.466744e+000 8.857121e+000 9.855839e+000 1.097518e+001 1.173458e+001 1.188335e+001 1.117811e+001 1.033633e+001
<VARIANCE> 16
 1.170442e-001 1.075936e-001 9.048724e-002 1.056104e-001 7.038518e-002 6.724934e-002 7.851702e-002 3.011849e-001 2.608928e-001 2.226716e-001 4.334759e-001 6.081102e-001 4.283332e-001 2.555740e-001 3.270471e-001 3.726800e-001
<GCONST> 2.787494e+000
<STATE> 7
<MEAN> 16
 6.104964e+000 6.430387e+000 6.706993e+000 6.896200e+000 6.905153e+000 7.134799e+000 7.407429e+000 8.471046e+000 9.643974e+000 9.694958e+000 1.050990e+001 1.125141e+001 1.185965e+001 1.187680e+001 1.112100e+001 9.769477e+000
<VARIANCE> 16
 1.949768e-001 3.044671e-001 4.694601e-001 3.771387e-001 1.890896e-001 1.625516e-001 9.178921e-002 1.807170e-001 2.549287e-001 2.871492e-001 7.984022e-001 9.328734e-001 8.915741e-001 9.331585e-001 7.083417e-001 2.728902e-001
<GCONST> 1.253266e+001
<STATE> 8
<MEAN> 16
 6.398994e+000 7.881441e+000 9.284149e+000 9.393573e+000 8.235588e+000 7.870603e+000 8.130850e+000 8.903465e+000 1.027558e+001 1.101692e+001 1.073364e+001 1.070885e+001 1.106371e+001 1.041609e+001 8.971250e+000 8.531874e+000
<VARIANCE> 16
 1.693300e-001 2.729368e-001 5.898435e-001 7.172610e-001 8.313497e-001 7.116045e-001 4.336369e-001 3.457978e-001 5.378247e-001 5.185230e-001 1.498745e+000 1.606885e+000 1.465814e+000 1.304653e+000 2.874284e-001 1.100575e-001
<GCONST> 1.984576e+001
<STATE> 9
<MEAN> 16
 6.029998e+000 6.903012e+000 7.631346e+000 7.676027e+000 7.270883e+000 7.149185e+000 7.019104e+000 7.221826e+000 8.200818e+000 9.089402e+000 9.132803e+000 9.131185e+000 9.597422e+000 9.040741e+000 8.088991e+000 8.076180e+000
<VARIANCE> 16
 2.084363e-001 5.170816e-001 4.549585e-001 5.439641e-001 4.044244e-001 4.404072e-001 1.482765e-001 1.273052e-001 4.132595e-001 3.519352e-001 4.866614e-001 3.086278e-001 4.279398e-001 4.227433e-001 1.081364e-001 5.303488e-002
<GCONST> 9.392022e+000
<TRANSP> 10
 0.000000e+000 1.000000e+000 0.000000e+000 0.000000e+000 0.000000e+000 0.000000e+000 0.000000e+000 0.000000e+000 0.000000e+000 0.000000e+000
 0.000000e+000 4.975324e-001 5.024676e-001 0.000000e+000 0.000000e+000 0.000000e+000 0.000000e+000 0.000000e+000 0.000000e+000 0.000000e+000
 0.000000e+000 0.000000e+000 4.541868e-001 5.458133e-001 0.000000e+000 0.000000e+000 0.000000e+000 0.000000e+000 0.000000e+000 0.000000e+000
 0.000000e+000 0.000000e+000 0.000000e+000 3.111944e-001 6.888055e-001 0.000000e+000 0.000000e+000 0.000000e+000 0.000000e+000 0.000000e+000
 0.000000e+000 0.000000e+000 0.000000e+000 0.000000e+000 4.056611e-001 5.943389e-001 0.000000e+000 0.000000e+000 0.000000e+000 0.000000e+000
 0.000000e+000 0.000000e+000 0.000000e+000 0.000000e+000 0.000000e+000 8.318704e-001 1.681296e-001 0.000000e+000 0.000000e+000 0.000000e+000
 0.000000e+000 0.000000e+000 0.000000e+000 0.000000e+000 0.000000e+000 0.000000e+000 6.600972e-001 3.399028e-001 0.000000e+000 0.000000e+000
 0.000000e+000 0.000000e+000 0.000000e+000 0.000000e+000 0.000000e+000 0.000000e+000 0.000000e+000 9.528427e-001 4.715733e-002 0.000000e+000
 0.000000e+000 0.000000e+000 0.000000e+000 0.000000e+000 0.000000e+000 0.000000e+000 0.000000e+000 0.000000e+000 8.334243e-001 1.665757e-001
 0.000000e+000 0.000000e+000 0.000000e+000 0.000000e+000 0.000000e+000 0.000000e+000 0.000000e+000 0.000000e+000 0.000000e+000 0.000000e+000
<ENDHMM>
~h "nula"
<BEGINHMM>
<NUMSTATES> 10
<STATE> 2
<MEAN> 16
 6.130271e+000 6.859202e+000 6.939465e+000 6.790775e+000 6.387381e+000 6.584157e+000 6.825995e+000 6.976259e+000 7.272214e+000 7.267312e+000 7.424839e+000 7.621051e+000 8.208189e+000 8.176561e+000 7.935319e+000 8.118420e+000
<VARIANCE> 16
 3.259013e-001 2.917137e-001 2.552666e-001 2.028800e-001 1.083202e-001 9.439404e-002 1.153758e-001 8.789644e-002 9.360044e-002 8.626587e-002 1.106467e-001 1.888393e-001 3.675963e-001 2.452086e-001 5.912223e-002 6.632474e-002
<GCONST> -1.716865e+000
<STATE> 3
<MEAN> 16
 6.469777e+000 7.808929e+000 8.111365e+000 8.170090e+000 7.683585e+000 7.671177e+000 7.159863e+000 7.263453e+000 7.634946e+000 7.663345e+000 7.543110e+000 7.603709e+000 8.185105e+000 8.287071e+000 7.957400e+000 8.158807e+000
<VARIANCE> 16
 1.899417e-001 3.049978e-001 5.006933e-001 3.280285e-001 4.089718e-001 5.562868e-001 1.604864e-001 1.786902e-001 1.386867e-001 2.498493e-001 2.615803e-001 1.168118e-001 2.695678e-001 1.326929e-001 1.789201e-002 3.780844e-002
<GCONST> 2.238982e+000
<STATE> 4
<MEAN> 16
 6.529166e+000 7.987113e+000 8.386003e+000 8.294338e+000 7.484739e+000 7.296505e+000 7.258010e+000 7.784962e+000 8.018815e+000 8.394876e+000 8.441234e+000 8.372934e+000 8.857675e+000 8.471330e+000 7.959110e+000 7.999075e+000
<VARIANCE> 16
 3.822874e-001 2.149165e-001 4.640842e-001 3.161114e-001 2.296100e-001 4.149753e-001 2.159360e-001 1.838808e-001 2.435944e-001 4.828615e-001 2.843987e-001 2.473861e-001 5.618889e-001 2.334788e-001 3.812296e-002 4.033057e-002
<GCONST> 6.107286e+000
<STATE> 5
<MEAN> 16
 6.791313e+000 8.263716e+000 8.562731e+000 8.576461e+000 7.921104e+000 7.704803e+000 7.607997e+000 7.956504e+000 8.004324e+000 8.641356e+000 8.594978e+000 8.340706e+000 8.804744e+000 8.603869e+000 8.431488e+000 8.427668e+000
<VARIANCE> 16
 6.394451e-001 6.985620e-001 8.713062e-001 7.656296e-001 5.366557e-001 8.243629e-001 4.151568e-001 4.715472e-001 3.847145e-001 6.637723e-001 7.229274e-001 4.292730e-001 5.845358e-001 5.158733e-001 7.868173e-001 1.031553e+000
<GCONST> 2.180624e+001
<STATE> 6
<MEAN> 16
 6.595775e+000 8.183103e+000 9.196320e+000 9.472864e+000 8.771453e+000 8.901938e+000 8.383730e+000 8.328084e+000 8.537936e+000 8.747751e+000 8.686954e+000 8.725159e+000 8.668783e+000 8.284565e+000 8.139758e+000 8.208246e+000
<VARIANCE> 16
 3.371084e-001 2.102156e-001 3.091957e-001 1.589510e-001 2.094937e-001 3.138300e-001 1.754069e-001 2.896832e-001 1.713248e-001 2.306906e-001 5.382037e-001 6.897070e-001 7.081349e-001 3.247465e-001 3.577327e-001 2.554393e-001
<GCONST> 9.960093e+000
<STATE> 7
<MEAN> 16
 6.585119e+000 7.947003e+000 9.168188e+000 1.005396e+001 9.833056e+000 9.856021e+000 9.716104e+000 8.989861e+000 8.934493e+000 9.295362e+000 9.331116e+000 9.702037e+000 9.729985e+000 9.041337e+000 8.306402e+000 8.228157e+000
<VARIANCE> 16
 2.494569e-001 3.397736e-001 7.233270e-001 1.177802e-001 4.387357e-001 3.964874e-001 3.021246e-001 2.594897e-001 2.402712e-001 3.578465e-001 1.137692e+000 1.128335e+000 7.192568e-001 3.130772e-001 1.776717e-001 8.014207e-002
<GCONST> 1.223383e+001
<STATE> 8
<MEAN> 16
 6.679580e+000 7.696861e+000 8.924704e+000 1.017492e+001 1.072971e+001 1.092387e+001 1.125861e+001 1.065615e+001 9.755763e+000 1.021100e+001 1.095396e+001 1.107190e+001 1.175793e+001 1.076832e+001 9.034357e+000 8.657083e+000
<VARIANCE> 16
 4.109513e-001 5.687615e-001 1.285255e+000 5.291502e-001 6.450437e-001 4.565992e-001 5.842678e-001 9.010067e-001 3.430936e-001 4.914848e-001 7.001032e-001 6.284657e-001 8.088938e-001 1.018026e+000 1.003700e+000 6.683275e-001
<GCONST> 2.250833e+001
<STATE> 9
<MEAN> 16
 5.982001e+000 6.666239e+000 6.949610e+000 8.036046e+000 8.731846e+000 8.909986e+000 8.967083e+000 8.493586e+000 7.917074e+000 8.157319e+000 8.430874e+000 8.590937e+000 9.081817e+000 8.649548e+000 7.992129e+000 8.014180e+000
<VARIANCE> 16
 3.066765e-001 7.652647e-001 3.999810e-001 4.846271e-001 3.988024e-001 3.795232e-001 4.800935e-001 7.077415e-001 2.874818e-001 3.490055e-001 6.012397e-001 4.506223e-001 4.291709e-001 2.984761e-001 1.101163e-001 7.067151e-002
<GCONST> 1.283220e+001
<TRANSP> 10
 0.000000e+000 1.000000e+000 0.000000e+000 0.000000e+000 0.000000e+000 0.000000e+000 0.000000e+000 0.000000e+000 0.000000e+000 0.000000e+000
 0.000000e+000 5.388588e-001 4.611413e-001 0.000000e+000 0.000000e+000 0.000000e+000 0.000000e+000 0.000000e+000 0.000000e+000 0.000000e+000
 0.000000e+000 0.000000e+000 5.534987e-001 4.465013e-001 0.000000e+000 0.000000e+000 0.000000e+000 0.000000e+000 0.000000e+000 0.000000e+000
 0.000000e+000 0.000000e+000 0.000000e+000 5.253950e-001 4.746050e-001 0.000000e+000 0.000000e+000 0.000000e+000 0.000000e+000 0.000000e+000
 0.000000e+000 0.000000e+000 0.000000e+000 0.000000e+000 4.621910e-001 5.378090e-001 0.000000e+000 0.000000e+000 0.000000e+000 0.000000e+000
 0.000000e+000 0.000000e+000 0.000000e+000 0.000000e+000 0.000000e+000 7.637399e-001 2.362601e-001 0.000000e+000 0.000000e+000 0.000000e+000
 0.000000e+000 0.000000e+000 0.000000e+000 0.000000e+000 0.000000e+000 0.000000e+000 9.270431e-001 7.295694e-002 0.000000e+000 0.000000e+000
 0.000000e+000 0.000000e+000 0.000000e+000 0.000000e+000 0.000000e+000 0.000000e+000 0.000000e+000 9.348600e-001 6.514007e-002 0.000000e+000
 0.000000e+000 0.000000e+000 0.000000e+000 0.000000e+000 0.000000e+000 0.000000e+000 0.000000e+000 0.000000e+000 8.747872e-001 1.252128e-001
 0.000000e+000 0.000000e+000 0.000000e+000 0.000000e+000 0.000000e+000 0.000000e+000 0.000000e+000 0.000000e+000 0.000000e+000 0.000000e+000
<ENDHMM>
~h "devet"
<BEGINHMM>
<NUMSTATES> 10
<STATE> 2
<MEAN> 16
 6.189686e+000 6.620639e+000 6.862084e+000 6.718829e+000 6.419631e+000 6.555178e+000 6.654488e+000 6.767743e+000 7.155744e+000 7.109166e+000 7.240014e+000 7.437496e+000 7.724972e+000 7.783846e+000 7.823781e+000 7.977294e+000
<VARIANCE> 16
 2.440367e-001 1.894640e-001 3.608635e-001 2.513771e-001 7.825011e-002 7.012034e-002 7.672400e-002 3.827393e-002 3.231321e-002 2.795846e-002 3.938255e-002 5.185816e-002 1.515377e-001 9.411586e-002 1.933168e-002 1.783965e-002
<GCONST> -1.252941e+001
<STATE> 3
<MEAN> 16
 6.198023e+000 6.981388e+000 7.151773e+000 7.110234e+000 6.833121e+000 6.669899e+000 6.842730e+000 7.154699e+000 7.606826e+000 7.518137e+000 7.643326e+000 7.838691e+000 8.099326e+000 8.039263e+000 7.881872e+000 8.024585e+000
<VARIANCE> 16
 1.869254e-001 3.742942e-001 3.168371e-001 3.781066e-001 2.207056e-001 2.193307e-001 1.446939e-001 3.215173e-001 3.615181e-001 2.371058e-001 2.129979e-001 3.303417e-001 3.133385e-001 1.653600e-001 4.394848e-002 6.767242e-002
<GCONST> 4.639679e+000
<STATE> 4
<MEAN> 16
 6.480193e+000 7.449242e+000 7.714747e+000 7.615530e+000 7.036788e+000 6.908044e+000 7.096807e+000 7.757948e+000 8.297015e+000 8.171044e+000 8.347470e+000 8.394909e+000 8.757259e+000 8.623342e+000 8.063990e+000 8.050394e+000
<VARIANCE> 16
 4.181381e-001 6.723314e-001 3.948934e-001 3.239447e-001 1.323244e-001 9.706073e-002 1.097878e-001 3.930535e-001 3.192914e-001 1.455868e-001 2.708982e-001 3.939796e-001 3.041866e-001 2.232739e-001 5.403202e-002 5.457356e-002
<GCONST> 4.760874e+000
<STATE> 5
<MEAN> 16
 6.343645e+000 7.469134e+000 8.564242e+000 8.798266e+000 7.848003e+000 7.449679e+000 7.926421e+000 9.068679e+000 9.684366e+000 9.503689e+000 9.321549e+000 9.483363e+000 9.923188e+000 9.407217e+000 8.532098e+000 8.391902e+000
<VARIANCE> 16
 2.774432e-001 2.628758e-001 5.811595e-001 4.412802e-001 1.756249e-001 9.441491e-002 7.265975e-002 4.001891e-001 2.536393e-001 2.482888e-001 9.584449e-001 1.253277e+000 9.516774e-001 7.045407e-001 3.395874e-001 1.487073e-001
<GCONST> 1.182255e+001
<STATE> 6
<MEAN> 16
 6.545176e+000 7.650957e+000 9.182143e+000 9.620122e+000 8.756327e+000 8.158465e+000 8.594387e+000 9.720280e+000 1.053488e+001 1.044894e+001 1.034893e+001 1.045214e+001 1.074030e+001 9.956690e+000 8.808082e+000 8.530306e+000
<VARIANCE> 16
 1.845982e-001 2.508049e-001 3.865854e-001 1.623283e-001 1.003973e-001 1.054526e-001 3.771055e-002 3.866341e-001 1.649896e-001 1.704715e-001 1.303088e+000 1.418521e+000 8.832824e-001 1.137334e+000 2.666139e-001 1.932676e-001
<GCONST> 8.870871e+000
<STATE> 7
<MEAN> 16
 6.642177e+000 7.764620e+000 9.508771e+000 1.013963e+001 9.285960e+000 8.641996e+000 8.894323e+000 1.029279e+001 1.087357e+001 1.083832e+001 1.063648e+001 1.096487e+001 1.083886e+001 9.585854e+000 8.811957e+000 8.568474e+000
<VARIANCE> 16
 1.575511e-001 1.668888e-001 1.597146e-001 1.192674e-001 2.811467e-001 1.357153e-001 5.454946e-002 4.287217e-001 1.600220e-001 1.692355e-001 9.339957e-001 1.489000e+000 6.256425e-001 7.397907e-001 1.435225e-001 1.871252e-001
<GCONST> 7.118484e+000
<STATE> 8
<MEAN> 16
 6.354226e+000 7.680350e+000 8.995843e+000 8.897164e+000 7.873571e+000 7.528046e+000 8.039082e+000 9.331069e+000 9.725630e+000 9.610828e+000 8.718727e+000 9.008708e+000 9.549356e+000 9.321593e+000 8.375769e+000 8.434927e+000
<VARIANCE> 16
 1.449056e-001 1.701504e-001 3.668149e-001 3.627729e-001 4.567588e-001 2.253792e-001 1.837775e-001 2.860309e-001 4.342400e-001 4.062102e-001 1.056942e+000 1.567922e+000 7.121373e-001 7.455772e-001 1.355784e-001 1.215923e-001
<GCONST> 1.249888e+001
<STATE> 9
<MEAN> 16
 6.450283e+000 7.486121e+000 8.940667e+000 9.694674e+000 9.512197e+000 8.666278e+000 8.891160e+000 9.653507e+000 1.069909e+001 1.089372e+001 1.116044e+001 1.122126e+001 1.149202e+001 1.064587e+001 8.710188e+000 8.348660e+000
<VARIANCE> 16
 2.012093e-001 3.345161e-001 6.119081e-001 6.655245e-001 1.058556e+000 5.969852e-001 4.259422e-001 4.295348e-001 5.820518e-001 7.064291e-001 6.717413e-001 7.145059e-001 7.292301e-001 1.130838e+000 3.234018e-001 1.032729e-001
<GCONST> 1.843692e+001
<TRANSP> 10
 0.000000e+000 1.000000e+000 0.000000e+000 0.000000e+000 0.000000e+000 0.000000e+000 0.000000e+000 0.000000e+000 0.000000e+000 0.000000e+000
 0.000000e+000 7.829708e-001 2.170292e-001 0.000000e+000 0.000000e+000 0.000000e+000 0.000000e+000 0.000000e+000 0.000000e+000 0.000000e+000
 0.000000e+000 0.000000e+000 1.901150e-001 8.098850e-001 0.000000e+000 0.000000e+000 0.000000e+000 0.000000e+000 0.000000e+000 0.000000e+000
 0.000000e+000 0.000000e+000 0.000000e+000 2.782426e-001 7.217574e-001 0.000000e+000 0.000000e+000 0.000000e+000 0.000000e+000 0.000000e+000
 0.000000e+000 0.000000e+000 0.000000e+000 0.000000e+000 3.247952e-001 6.752049e-001 0.000000e+000 0.000000e+000 0.000000e+000 0.000000e+000
 0.000000e+000 0.000000e+000 0.000000e+000 0.000000e+000 0.000000e+000 2.586754e-001 7.413246e-001 0.000000e+000 0.000000e+000 0.000000e+000
 0.000000e+000 0.000000e+000 0.000000e+000 0.000000e+000 0.000000e+000 0.000000e+000 7.024948e-001 2.975052e-001 0.000000e+000 0.000000e+000
 0.000000e+000 0.000000e+000 0.000000e+000 0.000000e+000 0.000000e+000 0.000000e+000 0.000000e+000 8.759237e-001 1.240763e-001 0.000000e+000
 0.000000e+000 0.000000e+000 0.000000e+000 0.000000e+000 0.000000e+000 0.000000e+000 0.000000e+000 0.000000e+000 9.657542e-001 3.424586e-002
 0.000000e+000 0.000000e+000 0.000000e+000 0.000000e+000 0.000000e+000 0.000000e+000 0.000000e+000 0.000000e+000 0.000000e+000 0.000000e+000
<ENDHMM>
~h "jedna"
<BEGINHMM>
<NUMSTATES> 10
<STATE> 2
<MEAN> 16
 6.068408e+000 6.759293e+000 6.893235e+000 6.776868e+000 6.517756e+000 6.534966e+000 6.673679e+000 6.895738e+000 7.474010e+000 7.754030e+000 7.767760e+000 8.067900e+000 8.469262e+000 8.265853e+000 7.897405e+000 8.054748e+000
<VARIANCE> 16
 1.985741e-001 3.900689e-001 4.132796e-001 2.331412e-001 1.013210e-001 7.605932e-002 3.853415e-002 2.385213e-002 1.786641e-001 2.899438e-001 2.445897e-001 4.708905e-001 6.614240e-001 3.147486e-001 8.301743e-002 6.932957e-002
<GCONST> 8.019233e-001
<STATE> 3
<MEAN> 16
 6.341264e+000 7.609648e+000 8.016475e+000 7.720809e+000 7.086508e+000 6.778121e+000 6.729677e+000 7.015299e+000 7.961328e+000 8.945753e+000 9.148239e+000 9.472816e+000 9.531994e+000 8.893115e+000 8.066199e+000 8.062800e+000
<VARIANCE> 16
 1.611955e-001 2.284528e-001 2.508412e-001 2.117800e-001 1.654357e-001 1.888818e-001 5.782405e-002 7.807670e-002 3.457233e-001 4.060864e-001 5.193429e-001 1.117397e+000 1.145652e+000 5.062066e-001 6.413829e-002 3.891438e-002
<GCONST> 5.257669e+000
<STATE> 4
<MEAN> 16
 6.416053e+000 7.472939e+000 8.120452e+000 7.790959e+000 7.022551e+000 6.827466e+000 7.137238e+000 7.964314e+000 8.520191e+000 8.610008e+000 8.348422e+000 8.299543e+000 8.889815e+000 8.571887e+000 8.400364e+000 8.486240e+000
<VARIANCE> 16
 1.045732e-001 3.094608e-001 9.695400e-001 8.160043e-001 3.152308e-001 1.460830e-001 1.967175e-001 7.133601e-001 1.113275e+000 9.449677e-001 8.978369e-001 1.208035e+000 9.932596e-001 4.800010e-001 1.905512e-001 1.181677e-001
<GCONST> 1.629690e+001
<STATE> 5
<MEAN> 16
 6.367799e+000 7.765958e+000 8.882202e+000 8.856330e+000 7.841472e+000 7.400079e+000 7.694058e+000 8.554444e+000 8.997127e+000 9.596318e+000 9.489279e+000 1.009242e+001 9.943644e+000 8.728756e+000 8.244924e+000 8.168100e+000
<VARIANCE> 16
 8.440005e-002 1.420535e-001 4.574381e-001 5.051196e-001 3.032591e-001 2.306439e-001 2.118802e-001 8.256767e-001 9.899126e-001 9.050078e-001 1.205207e+000 1.450902e+000 1.005954e+000 7.425156e-001 2.281995e-001 7.144223e-002
<GCONST> 1.515459e+001
<STATE> 6
<MEAN> 16
 6.415903e+000 7.547726e+000 8.214521e+000 8.333217e+000 7.790229e+000 7.514243e+000 7.544584e+000 8.234626e+000 8.886649e+000 9.459008e+000 9.912135e+000 9.997350e+000 1.029589e+001 9.564775e+000 8.210313e+000 8.075011e+000
<VARIANCE> 16
 1.923688e-001 3.847367e-001 6.727161e-001 6.902949e-001 3.302443e-001 3.393999e-001 6.029499e-001 6.941988e-001 1.042969e+000 1.354190e+000 1.419784e+000 1.698045e+000 1.708664e+000 1.383329e+000 3.036757e-001 5.485846e-002
<GCONST> 2.096668e+001
<STATE> 7
<MEAN> 16
 6.675349e+000 7.812486e+000 9.006175e+000 9.191677e+000 8.960726e+000 8.382017e+000 8.377476e+000 8.924605e+000 9.747210e+000 1.018648e+001 1.026739e+001 1.022603e+001 1.083703e+001 1.004116e+001 8.461109e+000 8.254072e+000
<VARIANCE> 16
 1.683257e-001 4.134391e-001 6.749016e-001 8.914158e-001 1.052465e+000 7.195730e-001 7.884669e-001 9.205617e-001 8.218223e-001 1.471019e+000 1.469466e+000 1.523813e+000 1.304028e+000 1.284835e+000 5.504361e-001 1.373175e-001
<GCONST> 2.456382e+001
<STATE> 8
<MEAN> 16
 6.556246e+000 7.622132e+000 8.507194e+000 9.428219e+000 1.007545e+001 1.029410e+001 1.074707e+001 1.111029e+001 1.037176e+001 1.012178e+001 1.034267e+001 1.061542e+001 1.111601e+001 1.039675e+001 8.531882e+000 8.307479e+000
<VARIANCE> 16
 1.078033e-001 2.196577e-001 3.475655e-001 4.128702e-001 4.502081e-001 5.089760e-001 3.120112e-001 6.254673e-001 3.598369e-001 2.169536e-001 1.318512e+000 1.065717e+000 1.155519e+000 8.302727e-001 2.316042e-001 9.081223e-002
<GCONST> 1.450094e+001
<STATE> 9
<MEAN> 16
 6.233425e+000 7.061568e+000 7.491058e+000 8.294185e+000 9.111959e+000 9.104425e+000 9.310819e+000 9.028411e+000 8.530780e+000 8.549744e+000 8.695605e+000 9.038977e+000 9.369464e+000 8.810002e+000 7.988604e+000 8.103271e+000
<VARIANCE> 16
 1.714237e-001 3.858756e-001 5.160565e-001 7.994303e-001 9.215600e-001 4.524102e-001 4.759000e-001 4.208085e-001 3.105769e-001 3.638788e-001 7.437605e-001 8.105869e-001 4.589269e-001 1.983769e-001 3.255009e-002 3.919577e-002
<GCONST> 1.157490e+001
<TRANSP> 10
 0.000000e+000 1.000000e+000 0.000000e+000 0.000000e+000 0.000000e+000 0.000000e+000 0.000000e+000 0.000000e+000 0.000000e+000 0.000000e+000
 0.000000e+000 5.454734e-001 4.545266e-001 0.000000e+000 0.000000e+000 0.000000e+000 0.000000e+000 0.000000e+000 0.000000e+000 0.000000e+000
 0.000000e+000 0.000000e+000 5.010126e-001 4.989874e-001 0.000000e+000 0.000000e+000 0.000000e+000 0.000000e+000 0.000000e+000 0.000000e+000
 0.000000e+000 0.000000e+000 0.000000e+000 7.880704e-001 2.119296e-001 0.000000e+000 0.000000e+000 0.000000e+000 0.000000e+000 0.000000e+000
 0.000000e+000 0.000000e+000 0.000000e+000 0.000000e+000 8.293828e-001 1.706172e-001 0.000000e+000 0.000000e+000 0.000000e+000 0.000000e+000
 0.000000e+000 0.000000e+000 0.000000e+000 0.000000e+000 0.000000e+000 8.238493e-001 1.761508e-001 0.000000e+000 0.000000e+000 0.000000e+000
 0.000000e+000 0.000000e+000 0.000000e+000 0.000000e+000 0.000000e+000 0.000000e+000 9.151652e-001 8.483481e-002 0.000000e+000 0.000000e+000
 0.000000e+000 0.000000e+000 0.000000e+000 0.000000e+000 0.000000e+000 0.000000e+000 0.000000e+000 9.323280e-001 6.767199e-002 0.000000e+000
 0.000000e+000 0.000000e+000 0.000000e+000 0.000000e+000 0.000000e+000 0.000000e+000 0.000000e+000 0.000000e+000 8.981860e-001 1.018140e-001
 0.000000e+000 0.000000e+000 0.000000e+000 0.000000e+000 0.000000e+000 0.000000e+000 0.000000e+000 0.000000e+000 0.000000e+000 0.000000e+000
<ENDHMM>
