~o
<STREAMINFO> 1 39
<VECSIZE> 39<NULLD><MFCC_D_A_0><DIAGC>
~h "ctyri"
<BEGINHMM>
<NUMSTATES> 10
<STATE> 2
<MEAN> 39
 -1.120893e+001 1.375070e-001 -6.711100e-001 -6.091021e-002 -7.744870e-001 -1.357622e+000 1.146507e+000 1.301450e+000 -1.697194e+000 1.360798e+000 7.721375e-001 1.696194e+000 4.716626e+001 -1.092436e-002 3.262918e-002 -4.543031e-002 -4.671113e-002 -3.230535e-003 7.931478e-003 2.973652e-002 4.384519e-002 9.198169e-003 3.924164e-003 -4.572132e-002 -5.059555e-002 2.660191e-002 -2.549617e-002 -1.267217e-002 3.878145e-002 -6.406930e-003 -1.340037e-002 1.995919e-002 -8.601944e-002 -4.999667e-004 3.921174e-002 -5.045205e-002 3.947786e-002 -1.937540e-002 2.586390e-002
<VARIANCE> 39
 9.422832e+000 4.679634e+000 1.087776e+001 9.569853e+000 1.472783e+001 1.626028e+001 2.425997e+001 2.030754e+001 1.854399e+001 1.713589e+001 1.081497e+001 1.132581e+001 2.775062e+000 6.369507e-001 4.036791e-001 9.528640e-001 1.140372e+000 1.417778e+000 1.993679e+000 2.463868e+000 1.794537e+000 2.168781e+000 1.607054e+000 1.351564e+000 1.079416e+000 2.787422e-001 1.297570e-001 8.533651e-002 2.205261e-001 2.893157e-001 3.204896e-001 3.874013e-001 4.635476e-001 3.154918e-001 4.472020e-001 3.359929e-001 3.183343e-001 2.055296e-001 5.893965e-002
<GCONST> 8.625903e+001
<STATE> 3
<MEAN> 39
 -1.009873e+001 -4.447749e-001 -1.864252e+000 1.028654e-001 -6.797585e-001 -3.809178e-001 -2.398807e-001 1.693854e+000 -1.914305e+000 1.687021e-001 5.966635e-001 1.318127e+000 4.610620e+001 -1.195880e+000 -4.225183e-001 1.613460e+000 -1.840002e+000 6.894235e-001 -3.304137e-002 -2.360943e-001 7.414690e-002 5.112245e-001 -1.386932e-001 4.883141e-001 3.418098e-002 9.321157e-001 -7.403750e-001 9.954198e-002 7.581246e-001 -9.410817e-001 4.970413e-001 -4.526136e-001 8.702904e-002 -1.688873e-001 2.998881e-001 2.429521e-002 2.277557e-001 -1.677839e-002 5.348881e-001
<VARIANCE> 39
 1.852888e+000 3.343870e+000 5.701003e+000 6.271076e+000 1.051145e+001 8.447774e+000 7.041369e+000 9.896707e+000 8.603581e+000 9.177255e+000 8.061838e+000 1.192081e+001 5.918151e-001 9.756918e-001 6.479191e-001 1.292516e+000 3.471128e+000 3.633402e+000 1.880601e+000 1.899603e+000 1.711794e+000 2.067065e+000 1.686650e+000 1.085856e+000 1.103171e+000 3.808912e-001 1.942601e-001 1.533697e-001 1.985577e-001 3.189959e-001 5.747010e-001 2.502265e-001 3.078964e-001 3.933969e-001 2.865708e-001 2.769268e-001 1.839134e-001 3.054363e-001 3.213844e-002
<GCONST> 7.965170e+001
<STATE> 4
<MEAN> 39
 -1.367853e+001 -4.354930e-001 2.952409e+000 -6.018896e+000 4.122525e+000 -2.627522e+000 -3.516846e-001 2.742639e+000 -3.834836e-001 2.117703e+000 2.284422e+000 1.131994e+000 4.934684e+001 -2.311404e+000 1.584211e-001 2.520045e+000 -2.941808e+000 1.690547e+000 -9.879944e-001 2.526625e-001 -3.452580e-001 8.701885e-001 -1.576092e-001 2.446510e-001 -5.649742e-002 1.586508e+000 -2.705689e-001 1.648775e-001 2.446966e-001 7.516035e-002 -3.261756e-001 -2.580347e-001 2.972928e-001 -3.597944e-001 -1.039249e-001 -2.437149e-001 -3.727158e-002 -2.718405e-002 2.079436e-001
<VARIANCE> 39
 5.822747e+000 1.232277e+001 1.420183e+001 3.852925e+001 5.837019e+001 3.178884e+001 2.609913e+001 2.620139e+001 1.593377e+001 1.472375e+001 1.767434e+001 1.013264e+001 3.638905e+000 2.270843e+000 1.252060e+000 2.889154e+000 2.548338e+000 5.397568e+000 1.856181e+000 2.417714e+000 3.366720e+000 1.899247e+000 1.747567e+000 1.691107e+000 2.598634e+000 8.908234e-001 3.296660e-001 1.267521e-001 2.017467e-001 3.981261e-001 9.637193e-001 5.558790e-001 7.543440e-001 4.871238e-001 3.059500e-001 3.233579e-001 3.469345e-001 3.606316e-001 9.001823e-002
<GCONST> 1.041315e+002
<STATE> 5
<MEAN> 39
 -2.300079e+001 4.548211e-001 1.135533e+001 -1.371296e+001 5.227754e+000 -4.112744e+000 2.655503e+000 -1.176925e+000 2.110552e+000 -8.296871e-001 2.537157e+000 2.841062e-001 5.463062e+001 -2.071909e+000 2.961147e-001 1.687714e+000 -9.412988e-001 2.163259e-002 -9.460505e-001 1.238163e+000 -7.016693e-001 -7.787044e-002 -4.123033e-001 8.721805e-002 -5.650221e-001 1.347528e+000 6.177204e-001 -8.665058e-002 -7.495798e-001 8.179080e-001 -3.880968e-001 4.623162e-002 -1.773671e-001 2.597309e-001 -3.466532e-001 8.686019e-002 -1.041245e-001 -8.290120e-002 -3.663929e-001
<VARIANCE> 39
 1.728977e+001 1.776862e+001 3.177777e+001 2.060796e+001 6.185740e+001 2.864515e+001 2.649139e+001 2.226532e+001 1.853604e+001 1.591554e+001 1.356204e+001 1.305881e+001 5.923766e+000 2.154482e+000 1.035013e+000 2.040470e+000 2.600251e+000 3.214226e+000 2.864954e+000 2.702557e+000 2.132761e+000 1.667775e+000 2.312784e+000 1.686270e+000 1.451690e+000 5.698556e-001 1.537692e-001 1.446644e-001 2.175003e-001 2.164984e-001 5.401636e-001 5.395197e-001 5.724385e-001 4.800907e-001 2.746025e-001 4.429354e-001 3.292317e-001 3.230489e-001 4.804288e-002
<GCONST> 1.017476e+002
<STATE> 6
<MEAN> 39
 -2.070905e+001 1.208962e+000 8.201440e+000 -1.141031e+001 6.418087e+000 -4.735791e+000 1.816794e+000 7.529672e-001 -1.299376e+000 -3.224759e-002 1.574982e+000 -9.068115e-001 5.269530e+001 1.074944e+000 -3.560349e-002 -8.310487e-001 6.343299e-001 -8.729491e-002 8.675150e-002 -5.081213e-001 4.512897e-001 -3.052184e-001 1.947478e-001 -1.324920e-001 2.446694e-001 -6.702629e-001 1.204826e-001 -7.733221e-002 -4.872832e-002 2.408399e-002 -7.640090e-002 -6.474523e-003 -4.455909e-002 -7.899711e-003 -3.533828e-003 7.927943e-002 1.541169e-002 6.180498e-002 -1.917339e-002
<VARIANCE> 39
 3.606301e+001 1.164432e+001 3.007579e+001 2.184780e+001 3.177493e+001 1.589106e+001 2.666110e+001 2.217930e+001 1.976660e+001 1.345214e+001 1.466018e+001 1.345690e+001 1.573545e+001 1.598973e+000 8.285101e-001 8.535997e-001 1.178426e+000 2.098742e+000 2.339353e+000 1.709306e+000 1.609572e+000 1.396558e+000 1.154032e+000 1.414729e+000 1.375344e+000 7.273924e-001 3.583787e-001 1.786764e-001 1.861491e-001 2.683291e-001 3.086246e-001 3.428093e-001 3.988692e-001 3.112001e-001 3.133652e-001 2.352858e-001 2.583441e-001 3.004354e-001 1.783517e-001
<GCONST> 9.718553e+001
<STATE> 7
<MEAN> 39
 -1.375948e+001 -2.113620e+000 3.229417e+000 -7.524979e+000 3.003698e+000 -5.806813e+000 -4.705979e-002 2.938953e+000 -3.527016e+000 2.801479e+000 3.677504e-001 1.438282e+000 5.078182e+001 3.268251e-001 -1.615731e+000 1.363454e+000 -1.636533e+000 -2.801227e+000 -2.855045e+000 -4.580408e-001 -4.187505e-001 -1.255610e+000 9.745495e-001 3.295539e-002 -3.016231e-001 2.123185e+000 1.145403e-001 -3.355413e-001 7.136616e-001 -8.339954e-001 -8.635929e-001 -7.838182e-001 -2.008323e-001 -1.152416e-001 -1.905300e-001 2.892750e-001 1.801462e-001 -2.028973e-001 6.476061e-001
<VARIANCE> 39
 8.984884e+000 1.341757e+001 1.219282e+001 3.279548e+001 5.172837e+001 3.624596e+001 2.377785e+001 1.454605e+001 1.687461e+001 2.028618e+001 1.686413e+001 1.281807e+001 1.184000e+001 1.055403e+000 1.611483e+000 3.161035e+000 4.600391e+000 6.840849e+000 5.605747e+000 3.232932e+000 1.822701e+000 3.073891e+000 2.865563e+000 2.225989e+000 1.637811e+000 1.925575e+000 1.664435e-001 2.962969e-001 3.476083e-001 4.250422e-001 5.850093e-001 7.231190e-001 4.837731e-001 4.211725e-001 5.287821e-001 6.699290e-001 4.553412e-001 3.836035e-001 2.209366e-001
<GCONST> 1.106138e+002
<STATE> 8
<MEAN> 39
 -1.389789e+001 -8.698167e+000 1.176089e+001 -2.167927e+001 -8.838662e+000 -1.963790e+001 8.002265e-001 6.862915e-001 -4.576447e+000 8.566765e+000 1.520259e+000 -4.762552e-001 6.272021e+001 8.059573e-002 -1.811509e-001 9.560727e-002 -2.110781e-001 -2.963489e-001 -1.826318e-001 2.577522e-002 7.430943e-003 9.176175e-002 4.593058e-002 1.653820e-001 1.962115e-002 1.782553e-001 -2.985172e-002 6.788434e-002 -9.559169e-002 9.965646e-002 1.718448e-001 1.880498e-001 3.380208e-002 5.206934e-002 2.975856e-002 -1.767980e-002 -2.529612e-002 1.556064e-002 -1.293856e-001
<VARIANCE> 39
 3.028178e+001 3.754720e+001 2.585477e+001 4.078449e+001 6.334013e+001 2.784862e+001 3.659258e+001 3.185544e+001 3.141019e+001 1.238089e+002 7.867328e+001 2.868992e+001 1.090130e+001 3.013055e+000 3.771894e+000 2.374083e+000 3.279559e+000 6.101236e+000 3.033845e+000 2.085228e+000 2.554383e+000 2.351519e+000 5.841509e+000 4.287427e+000 2.184193e+000 1.312629e+000 5.313748e-001 4.852455e-001 3.924921e-001 4.012843e-001 8.860543e-001 6.425565e-001 3.497360e-001 5.174633e-001 4.871492e-001 7.342948e-001 6.932855e-001 3.643077e-001 1.499544e-001
<GCONST> 1.230121e+002
<STATE> 9
<MEAN> 39
 -9.087270e+000 -7.967281e+000 9.771452e+000 -1.302001e+001 -1.709421e+001 -1.898205e+001 -1.477361e+000 2.627091e+000 -8.800587e+000 8.338064e+000 3.238647e+000 -1.059368e+000 5.858046e+001 1.193053e-002 3.211897e-001 -2.575894e-001 3.469397e-001 2.731017e-001 6.171139e-001 8.074965e-002 -6.027987e-002 -1.127655e-001 2.778124e-003 -1.694559e-001 -5.123099e-002 -4.533491e-001 -1.992342e-002 3.588808e-002 -6.520124e-002 8.614597e-002 8.637974e-002 6.188418e-002 4.418724e-003 -2.909932e-002 4.349820e-002 -8.285949e-002 -3.649921e-003 1.636145e-002 -5.124148e-002
<VARIANCE> 39
 1.301003e+001 1.656527e+001 3.420727e+001 1.980700e+002 4.507462e+001 6.081329e+001 2.289642e+001 2.049140e+001 3.524217e+001 8.112012e+001 6.147137e+001 1.441669e+001 1.509807e+001 1.705672e-001 4.078782e-001 8.624235e-001 1.112895e+000 1.542314e+000 2.003324e+000 9.983552e-001 1.160375e+000 1.301866e+000 2.162292e+000 1.405642e+000 8.784963e-001 4.193898e-001 3.028261e-002 6.482404e-002 9.829783e-002 1.141875e-001 2.878797e-001 3.459479e-001 2.052218e-001 2.292353e-001 2.119325e-001 2.850067e-001 2.469021e-001 1.680577e-001 3.507427e-002
<GCONST> 9.091827e+001
<TRANSP> 10
 0.000000e+000 1.000000e+000 0.000000e+000 0.000000e+000 0.000000e+000 0.000000e+000 0.000000e+000 0.000000e+000 0.000000e+000 0.000000e+000
 0.000000e+000 8.602352e-001 1.397648e-001 0.000000e+000 0.000000e+000 0.000000e+000 0.000000e+000 0.000000e+000 0.000000e+000 0.000000e+000
 0.000000e+000 0.000000e+000 4.833683e-001 5.166317e-001 0.000000e+000 0.000000e+000 0.000000e+000 0.000000e+000 0.000000e+000 0.000000e+000
 0.000000e+000 0.000000e+000 0.000000e+000 4.156356e-001 5.843645e-001 0.000000e+000 0.000000e+000 0.000000e+000 0.000000e+000 0.000000e+000
 0.000000e+000 0.000000e+000 0.000000e+000 0.000000e+000 6.738117e-001 3.261882e-001 0.000000e+000 0.000000e+000 0.000000e+000 0.000000e+000
 0.000000e+000 0.000000e+000 0.000000e+000 0.000000e+000 0.000000e+000 8.868622e-001 1.131379e-001 0.000000e+000 0.000000e+000 0.000000e+000
 0.000000e+000 0.000000e+000 0.000000e+000 0.000000e+000 0.000000e+000 0.000000e+000 7.359748e-001 2.640252e-001 0.000000e+000 0.000000e+000
 0.000000e+000 0.000000e+000 0.000000e+000 0.000000e+000 0.000000e+000 0.000000e+000 0.000000e+000 9.536369e-001 4.636315e-002 0.000000e+000
 0.000000e+000 0.000000e+000 0.000000e+000 0.000000e+000 0.000000e+000 0.000000e+000 0.000000e+000 0.000000e+000 9.562293e-001 4.377077e-002
 0.000000e+000 0.000000e+000 0.000000e+000 0.000000e+000 0.000000e+000 0.000000e+000 0.000000e+000 0.000000e+000 0.000000e+000 0.000000e+000
<ENDHMM>
~h "sedm"
<BEGINHMM>
<NUMSTATES> 10
<STATE> 2
<MEAN> 39
 -1.181372e+001 8.319885e-003 -1.739067e+000 -5.387662e-001 1.068000e+000 -2.744695e+000 1.752497e+000 1.064723e+000 -1.712765e+000 -1.606126e-001 1.572651e+000 8.466801e-001 4.717981e+001 -1.351493e+000 8.495123e-001 7.732297e-002 -6.568498e-001 7.474681e-001 -1.435001e+000 1.087919e+000 -6.347128e-001 1.102520e-001 6.707806e-002 1.987627e-001 -2.793253e-001 7.547609e-001 -3.031919e-001 3.422400e-001 -1.215119e-001 4.594252e-002 9.880213e-002 -1.226911e-001 1.462427e-001 4.557048e-004 2.800780e-002 9.800667e-002 -6.681525e-002 -9.452352e-002 1.462232e-001
<VARIANCE> 39
 5.450669e+000 2.739728e+000 4.112979e+000 6.967816e+000 1.005549e+001 1.412854e+001 9.672688e+000 1.383281e+001 1.757142e+001 1.635750e+001 1.483351e+001 8.435907e+000 1.287400e+000 4.912861e-001 5.134695e-001 8.630184e-001 9.707718e-001 1.430967e+000 1.651063e+000 1.647083e+000 1.876369e+000 1.832265e+000 1.910485e+000 1.691934e+000 1.311906e+000 1.406852e-001 1.087698e-001 6.008599e-002 1.858156e-001 2.041048e-001 2.995124e-001 4.031305e-001 3.713980e-001 3.176309e-001 3.970871e-001 4.039545e-001 2.319886e-001 2.220956e-001 4.107719e-002
<GCONST> 7.831264e+001
<STATE> 3
<MEAN> 39
 -1.715346e+001 5.333982e+000 -3.894156e+000 -4.172863e-001 2.057183e+000 -5.842020e+000 3.635103e+000 -5.654339e-001 -1.354045e-001 -1.822993e-001 2.067443e+000 -7.652217e-001 4.976345e+001 -1.001353e+000 7.967779e-001 -3.154576e-001 2.421748e-001 3.558632e-001 -8.916968e-002 3.782450e-002 4.744603e-001 -2.897918e-001 1.876971e-001 -1.738418e-001 -1.681161e-001 5.031055e-001 1.461173e-001 -2.802565e-001 1.122013e-001 4.649740e-002 -1.526525e-002 2.571177e-001 -1.092670e-001 2.512718e-001 -1.190066e-001 4.645205e-002 -1.123566e-001 1.543189e-001 -6.118590e-002
<VARIANCE> 39
 5.594205e+000 6.166226e+000 9.578887e+000 1.085669e+001 1.195613e+001 1.387138e+001 1.573097e+001 1.847643e+001 1.753170e+001 1.593190e+001 2.212173e+001 1.233900e+001 1.246722e+000 5.161026e-001 7.635090e-001 1.230662e+000 1.088021e+000 1.599455e+000 1.727043e+000 1.981682e+000 1.317337e+000 1.487283e+000 1.717448e+000 1.273865e+000 1.104210e+000 2.113103e-001 5.987623e-002 8.945908e-002 1.552799e-001 2.233407e-001 1.967755e-001 2.736207e-001 3.637684e-001 2.965221e-001 3.290283e-001 3.119548e-001 3.085821e-001 1.962925e-001 1.585344e-002
<GCONST> 8.020415e+001
<STATE> 4
<MEAN> 39
 -2.150000e+001 4.655926e+000 -2.477868e+000 -2.066151e+000 4.957293e+000 -7.373451e+000 5.836877e+000 3.100750e+000 -2.745053e+000 1.154823e+000 1.222685e+000 -4.227697e-001 5.325402e+001 -5.601641e-001 -1.740767e-001 1.385196e-001 -5.408362e-002 -7.125280e-002 -6.362601e-002 -1.876115e-002 2.858523e-001 7.317601e-002 -7.940398e-003 -1.715250e-001 5.317001e-001 4.674157e-001 2.631755e-001 -2.642916e-001 9.821998e-002 -9.337016e-002 -2.197114e-001 -4.159116e-002 -2.286352e-001 -1.880770e-001 1.463347e-001 -9.825740e-002 3.051399e-002 8.954336e-002 -5.410734e-002
<VARIANCE> 39
 6.730789e+000 1.018826e+001 1.668026e+001 1.122263e+001 1.500517e+001 1.123389e+001 2.371007e+001 2.384861e+001 2.155197e+001 1.795723e+001 1.851621e+001 2.361973e+001 5.678947e+000 5.656323e-001 4.324837e-001 6.622441e-001 5.481412e-001 1.400802e+000 1.162259e+000 1.730027e+000 1.864580e+000 1.784398e+000 1.108578e+000 1.580233e+000 1.875368e+000 2.414030e-001 6.983723e-002 9.976368e-002 2.073383e-001 1.818689e-001 3.195626e-001 2.265393e-001 3.816507e-001 3.662916e-001 3.849518e-001 2.890131e-001 2.429471e-001 3.943819e-001 2.197921e-002
<GCONST> 8.476612e+001
<STATE> 5
<MEAN> 39
 -2.230810e+001 2.387894e+000 3.884124e-001 -2.761885e+000 6.984449e+000 -7.708901e+000 6.100299e+000 2.523771e+000 -3.783714e+000 1.781863e+000 5.608488e-001 2.819039e+000 5.495861e+001 2.558233e-001 -5.840279e-001 3.703852e-001 -4.036662e-001 -1.981157e-001 2.659576e-003 2.423033e-002 -8.923189e-002 2.169810e-001 -7.035758e-002 -1.164867e-001 -8.797148e-002 2.187420e-001 6.758118e-001 -4.125172e-001 -2.844311e-002 -3.840833e-001 -4.906992e-001 -4.850199e-001 -4.351630e-001 1.484821e-001 1.946408e-001 -6.197106e-002 -2.978272e-001 -1.597193e-001 1.069511e-001
<VARIANCE> 39
 8.511145e+000 1.010415e+001 1.735658e+001 2.065893e+001 2.514751e+001 2.296773e+001 3.106914e+001 2.160321e+001 1.584246e+001 1.692114e+001 1.598899e+001 1.735527e+001 1.001119e+001 1.429115e+000 7.254226e-001 1.176805e+000 1.190919e+000 1.620526e+000 1.218074e+000 2.265406e+000 1.571034e+000 2.069828e+000 1.156516e+000 1.478435e+000 1.150626e+000 2.921799e-001 1.255423e-001 3.632583e-001 2.322196e-001 4.995375e-001 5.900168e-001 6.540372e-001 5.257341e-001 4.366031e-001 4.710108e-001 3.072813e-001 3.802099e-001 2.499671e-001 1.400276e-001
<GCONST> 9.698118e+001
<STATE> 6
<MEAN> 39
 -1.761748e+001 1.310891e+000 -1.340783e+000 -3.882981e+000 7.377701e-001 -7.946289e+000 2.344381e+000 3.467907e+000 -3.381203e-001 1.094471e-001 -7.369669e-001 7.972637e-001 5.300939e+001 3.103706e+000 -3.340720e+000 4.551741e-002 -2.823854e+000 -2.924287e+000 -3.520445e+000 -2.844544e+000 8.825332e-001 1.129154e+000 -2.578536e-002 -1.736316e+000 1.829090e-001 1.828246e+000 3.979702e-001 -9.902402e-001 -1.674712e-001 -7.975514e-001 -5.063687e-001 -6.719286e-001 -2.410288e-001 5.981677e-001 2.664970e-001 1.038574e-001 -3.734121e-001 1.824184e-002 8.752702e-001
<VARIANCE> 39
 1.597030e+001 6.966124e+000 1.946818e+001 1.188115e+001 3.018275e+001 2.333685e+001 4.417172e+001 1.031661e+001 2.655042e+001 1.354515e+001 1.347465e+001 2.396840e+001 7.733093e+000 1.162579e+000 3.050922e+000 1.045950e+000 4.606273e+000 2.773864e+000 2.892527e+000 1.874010e+000 2.944918e+000 2.553586e+000 1.917324e+000 2.273491e+000 2.297181e+000 1.705998e+000 3.470159e-001 3.243324e-001 1.583408e-001 6.488413e-001 5.645834e-001 7.312347e-001 6.482692e-001 4.227108e-001 3.941746e-001 2.706462e-001 3.409019e-001 7.948321e-001 1.127052e-001
<GCONST> 1.062587e+002
<STATE> 7
<MEAN> 39
 -8.376418e+000 -1.323823e+001 -1.440921e+000 -1.558992e+001 -7.813967e+000 -1.947576e+001 -4.542491e+000 9.454850e+000 3.332348e+000 7.072693e-001 -7.529301e+000 1.151345e+000 6.348663e+001 1.005032e+000 -3.650859e+000 4.719251e-001 -3.050712e+000 -1.049104e+000 -1.193717e+000 3.673349e-001 2.585454e+000 9.274822e-001 2.124572e-001 -1.304266e+000 -3.512152e-001 2.611880e+000 -9.156710e-001 8.239902e-001 1.831456e-001 6.646203e-001 7.976864e-001 1.103356e+000 1.000244e+000 -1.768299e-001 -3.934348e-001 3.184146e-002 5.373250e-001 -2.603064e-001 -5.337326e-001
<VARIANCE> 39
 7.007731e+000 4.099646e+001 1.871429e+001 7.407689e+001 3.564693e+001 3.125621e+001 7.476397e+001 3.420855e+001 5.355967e+001 3.657481e+001 2.868491e+001 3.729724e+001 2.225590e+001 2.871465e+000 4.096726e+000 9.833614e-001 5.252201e+000 4.198520e+000 5.647063e+000 7.392060e+000 3.167682e+000 2.908834e+000 1.837846e+000 2.810596e+000 4.671254e+000 1.703971e+000 1.434548e-001 3.752352e-001 1.167555e-001 5.675749e-001 4.482213e-001 4.395031e-001 6.745905e-001 7.847587e-001 4.580807e-001 3.196710e-001 3.379870e-001 6.087666e-001 2.385955e-001
<GCONST> 1.194713e+002
<STATE> 8
<MEAN> 39
 -7.536354e+000 -1.187099e+001 3.091170e+000 -1.496113e+001 -8.496779e+000 -1.470586e+001 -3.346863e+000 6.234678e+000 -1.852140e+000 3.772636e-001 -6.428473e+000 -5.437949e-001 6.079496e+001 2.430618e-001 4.945405e-001 9.482115e-002 2.506538e-001 1.128565e-002 1.994301e-001 -3.899852e-001 -8.593423e-001 -6.486425e-001 2.379055e-001 3.582798e-001 -1.450888e-001 -3.888007e-001 5.195342e-003 9.153747e-002 -2.557541e-002 2.470939e-002 4.363663e-002 -2.882018e-002 -7.986672e-002 -7.874745e-002 -3.916583e-002 2.537888e-002 3.563297e-002 4.000248e-002 -4.924831e-002
<VARIANCE> 39
 1.348187e+001 5.031569e+001 2.378703e+001 9.363500e+001 2.653761e+001 3.668054e+001 9.849440e+001 5.918573e+001 4.969268e+001 3.456677e+001 4.584831e+001 3.970366e+001 3.580646e+001 5.143769e-001 2.118838e+000 1.315630e+000 2.336857e+000 1.838095e+000 3.810801e+000 3.308640e+000 2.845949e+000 2.500160e+000 2.896463e+000 2.599048e+000 2.962686e+000 1.597196e+000 9.848679e-002 4.127596e-001 2.069504e-001 4.122805e-001 3.815933e-001 8.350446e-001 6.624132e-001 6.210070e-001 5.142727e-001 5.195705e-001 5.163649e-001 5.906481e-001 2.686791e-001
<GCONST> 1.183606e+002
<STATE> 9
<MEAN> 39
 -5.409635e+000 -6.972044e+000 1.971058e+000 -1.442368e+001 -3.806165e+000 -1.396737e+001 -9.979843e+000 3.042785e-001 -9.268345e+000 4.318057e+000 -2.846634e+000 -3.171508e+000 5.745930e+001 -8.268863e-002 2.517717e-001 -4.597491e-002 2.631440e-001 2.455751e-001 2.591951e-001 9.554183e-002 4.029389e-002 -1.698394e-001 -1.872051e-001 -4.386535e-002 -7.103635e-002 -2.855501e-001 -1.843756e-002 2.344567e-002 -1.891324e-002 1.009372e-001 -1.274496e-003 7.764633e-002 5.679701e-002 1.414320e-002 5.923377e-002 -3.820651e-002 9.834337e-003 2.045881e-002 -5.488665e-002
<VARIANCE> 39
 1.073647e+001 4.226071e+001 5.158875e+001 3.238982e+001 3.133644e+001 2.373442e+001 6.289008e+001 7.923594e+001 3.029044e+001 3.319722e+001 6.137946e+001 4.473465e+001 9.316773e+000 1.419079e-001 4.123111e-001 5.474787e-001 9.205402e-001 7.618341e-001 1.026216e+000 1.540280e+000 1.166983e+000 1.129250e+000 1.482725e+000 1.156716e+000 1.021582e+000 1.760748e-001 2.110324e-002 4.766606e-002 8.866231e-002 1.103462e-001 1.217304e-001 1.520658e-001 1.807760e-001 2.277260e-001 2.290306e-001 2.534995e-001 2.187704e-001 1.718400e-001 1.347548e-002
<GCONST> 8.402380e+001
<TRANSP> 10
 0.000000e+000 1.000000e+000 0.000000e+000 0.000000e+000 0.000000e+000 0.000000e+000 0.000000e+000 0.000000e+000 0.000000e+000 0.000000e+000
 0.000000e+000 6.842440e-001 3.157559e-001 0.000000e+000 0.000000e+000 0.000000e+000 0.000000e+000 0.000000e+000 0.000000e+000 0.000000e+000
 0.000000e+000 0.000000e+000 7.531548e-001 2.468452e-001 0.000000e+000 0.000000e+000 0.000000e+000 0.000000e+000 0.000000e+000 0.000000e+000
 0.000000e+000 0.000000e+000 0.000000e+000 7.160603e-001 2.839398e-001 0.000000e+000 0.000000e+000 0.000000e+000 0.000000e+000 0.000000e+000
 0.000000e+000 0.000000e+000 0.000000e+000 0.000000e+000 6.410107e-001 3.589893e-001 0.000000e+000 0.000000e+000 0.000000e+000 0.000000e+000
 0.000000e+000 0.000000e+000 0.000000e+000 0.000000e+000 0.000000e+000 5.797576e-001 4.202424e-001 0.000000e+000 0.000000e+000 0.000000e+000
 0.000000e+000 0.000000e+000 0.000000e+000 0.000000e+000 0.000000e+000 0.000000e+000 6.907087e-001 3.092912e-001 0.000000e+000 0.000000e+000
 0.000000e+000 0.000000e+000 0.000000e+000 0.000000e+000 0.000000e+000 0.000000e+000 0.000000e+000 9.438280e-001 5.617204e-002 0.000000e+000
 0.000000e+000 0.000000e+000 0.000000e+000 0.000000e+000 0.000000e+000 0.000000e+000 0.000000e+000 0.000000e+000 9.612069e-001 3.879311e-002
 0.000000e+000 0.000000e+000 0.000000e+000 0.000000e+000 0.000000e+000 0.000000e+000 0.000000e+000 0.000000e+000 0.000000e+000 0.000000e+000
<ENDHMM>
~h "sest"
<BEGINHMM>
<NUMSTATES> 10
<STATE> 2
<MEAN> 39
 -9.923470e+000 -5.018807e-001 -1.921206e+000 4.516166e-002 -1.724202e-001 -1.126319e+000 6.475499e-001 1.984797e+000 -2.288604e+000 4.065969e-001 -3.185492e-001 5.112377e-001 4.605363e+001 -2.704591e-001 -2.316737e-001 1.619885e-001 -3.708696e-001 1.100466e-001 8.630178e-002 1.920397e-001 -7.126874e-002 -3.628382e-001 2.173324e-002 1.039628e-001 2.705016e-001 1.012229e-001 -3.417896e-001 -5.283489e-002 4.575873e-001 -4.159816e-001 1.784087e-001 -2.003588e-001 1.837438e-001 -5.221774e-002 -4.544846e-002 -2.610019e-003 -3.128305e-003 2.322805e-002 2.063751e-001
<VARIANCE> 39
 2.898062e+000 2.164060e+000 4.069720e+000 1.820776e+001 1.168866e+001 1.197915e+001 1.278702e+001 1.018293e+001 1.159810e+001 1.228127e+001 1.080786e+001 9.725611e+000 7.740246e-001 4.506226e-001 5.023623e-001 6.285187e-001 2.785746e+000 1.617018e+000 1.871469e+000 2.100960e+000 1.395719e+000 1.121411e+000 1.489941e+000 1.209572e+000 1.400097e+000 1.145074e-001 1.417398e-001 1.042962e-001 2.683584e-001 7.549093e-001 3.311327e-001 5.113729e-001 5.750306e-001 3.463259e-001 2.821482e-001 3.579105e-001 3.152901e-001 3.616015e-001 5.508350e-002
<GCONST> 8.055447e+001
<STATE> 3
<MEAN> 39
 -1.067389e+001 -1.153188e+000 -9.658666e-001 -8.086734e-001 -8.603984e-001 -6.343424e-001 -2.272977e-001 1.629346e+000 -3.212611e+000 -3.392011e-003 1.166722e+000 2.003851e+000 4.620422e+001 -1.739773e+000 -3.089309e-001 2.317750e+000 -2.236682e+000 1.262117e+000 -9.135351e-001 9.237176e-001 -2.091980e-001 -9.327297e-002 -1.160144e-001 -5.534071e-002 1.930154e-001 1.122827e+000 -6.574730e-001 3.885088e-002 7.650215e-001 -4.691560e-001 3.693287e-001 -4.049590e-001 5.221287e-001 -1.419315e-001 4.902381e-001 -8.175690e-002 1.973649e-001 -1.811140e-001 4.527371e-001
<VARIANCE> 39
 2.356698e+000 2.964773e+000 7.091654e+000 7.460890e+000 8.722813e+000 9.755844e+000 1.335165e+001 1.177183e+001 1.100260e+001 1.127619e+001 1.326399e+001 1.271317e+001 7.592676e-001 2.296399e-001 7.656959e-001 1.117125e+000 9.186633e-001 1.916033e+000 3.049015e+000 3.538068e+000 2.653824e+000 2.105945e+000 1.377134e+000 1.776027e+000 1.501744e+000 1.882811e-001 6.162675e-002 9.137775e-002 1.786154e-001 2.949203e-001 2.171299e-001 2.811784e-001 3.160476e-001 5.243602e-001 2.062535e-001 2.766101e-001 3.328985e-001 1.851659e-001 3.487046e-002
<GCONST> 7.770966e+001
<STATE> 4
<MEAN> 39
 -1.468858e+001 -1.301905e+000 4.235439e+000 -6.211641e+000 4.005747e+000 -3.804836e+000 2.301369e+000 2.864450e+000 -2.694459e+000 4.994709e-001 8.650697e-001 1.954264e+000 4.903069e+001 -2.501306e+000 -1.195565e-001 3.044873e+000 -2.423112e+000 1.236981e+000 -1.188494e+000 1.708647e+000 -5.978921e-001 1.193013e+000 -3.908283e-001 2.303070e-001 -4.283438e-001 1.615147e+000 -2.315736e-001 1.417043e-001 6.256030e-002 8.155481e-002 -2.933237e-001 2.134263e-001 4.129006e-002 -2.894711e-001 1.788460e-001 -1.298861e-001 1.467334e-001 -2.896780e-001 1.588389e-001
<VARIANCE> 39
 4.133827e+000 9.176655e+000 1.043388e+001 1.230567e+001 3.127308e+001 1.992484e+001 2.959082e+001 1.134549e+001 1.488431e+001 1.519763e+001 1.415754e+001 1.079456e+001 1.558164e+000 5.608912e-001 6.805080e-001 1.597481e+000 2.013534e+000 4.012399e+000 2.349291e+000 3.337024e+000 3.332469e+000 1.974172e+000 1.621983e+000 1.508310e+000 1.155986e+000 2.882437e-001 9.631256e-002 9.753829e-002 1.242441e-001 2.371082e-001 3.509850e-001 4.494961e-001 3.624431e-001 3.090154e-001 2.962502e-001 2.819917e-001 3.501700e-001 1.814439e-001 2.648424e-002
<GCONST> 8.754861e+001
<STATE> 5
<MEAN> 39
 -2.014660e+001 -1.554058e+000 9.977858e+000 -9.054591e+000 3.105830e+000 -4.479888e+000 6.190344e+000 -1.044783e+000 2.386908e-001 -1.566797e+000 2.128444e+000 1.704230e-001 5.239919e+001 -2.141406e+000 1.419718e-001 2.004772e+000 -1.340936e+000 4.961827e-002 -2.367583e-001 7.794631e-001 -5.166430e-001 3.386238e-001 -3.176983e-002 5.557198e-001 -6.988879e-001 1.435528e+000 3.485355e-001 4.177471e-002 -5.988837e-001 5.374674e-001 -3.257843e-001 2.395793e-001 -5.624034e-001 1.835899e-001 -2.161990e-001 1.885574e-001 -7.116294e-002 1.446934e-001 -2.048143e-001
<VARIANCE> 39
 3.703734e+000 1.144147e+001 2.379299e+001 2.587193e+001 4.217423e+001 3.135800e+001 3.581301e+001 2.567491e+001 2.433166e+001 1.558791e+001 1.243382e+001 1.995119e+001 2.620527e+000 7.105874e-001 7.091621e-001 1.196627e+000 2.122480e+000 2.173919e+000 2.156008e+000 2.601812e+000 2.663448e+000 1.490241e+000 1.820917e+000 2.350151e+000 1.378914e+000 2.530117e-001 5.096236e-002 1.422300e-001 2.392778e-001 2.295800e-001 3.781545e-001 3.700783e-001 3.010804e-001 6.266671e-001 3.438336e-001 3.104098e-001 3.997449e-001 2.905851e-001 2.870711e-002
<GCONST> 9.339625e+001
<STATE> 6
<MEAN> 39
 -2.545790e+001 -9.296958e-001 1.282542e+001 -1.124180e+001 3.890966e+000 -5.658440e+000 5.464559e+000 -1.090744e+000 2.785380e-001 -8.730857e-001 2.647174e+000 -9.198798e-001 5.644650e+001 -4.077378e-001 -2.520033e-001 1.341703e-001 1.332208e-001 -2.567868e-001 -1.413643e-001 -2.899037e-001 1.731769e-001 3.504997e-003 -2.304659e-002 -8.013806e-002 2.118847e-001 4.672783e-001 5.113635e-001 -1.598310e-001 -3.142183e-001 9.253972e-002 -1.866082e-001 -1.052983e-001 -1.338492e-001 1.785970e-001 -1.048647e-001 -4.313154e-002 -5.058593e-002 8.512399e-002 -1.728021e-001
<VARIANCE> 39
 5.960650e+000 1.371964e+001 1.548508e+001 3.704820e+001 7.477748e+001 2.797619e+001 4.042966e+001 2.077740e+001 2.485141e+001 1.741890e+001 1.747016e+001 1.577863e+001 3.497978e+000 7.927150e-001 5.926742e-001 6.509545e-001 7.493076e-001 1.341509e+000 1.145239e+000 1.205997e+000 1.797807e+000 1.580340e+000 1.347341e+000 1.356005e+000 1.400618e+000 2.050261e-001 1.683378e-001 1.158248e-001 1.286329e-001 2.253135e-001 4.094668e-001 3.072973e-001 3.130270e-001 3.628850e-001 2.772204e-001 3.151980e-001 3.233264e-001 2.813083e-001 3.983045e-002
<GCONST> 8.951249e+001
<STATE> 7
<MEAN> 39
 -1.643933e+001 -7.074998e+000 8.614091e+000 -1.192804e+001 -5.502365e+000 -1.060311e+001 3.593676e-001 3.722514e+000 -1.988447e+000 -1.058324e+000 3.434766e-001 7.280318e-001 5.808812e+001 3.096615e+000 -2.487293e+000 -1.547413e+000 -1.612900e+000 -2.765999e+000 -2.319436e+000 -1.042535e+000 1.993707e+000 -3.844714e-001 1.657173e-001 -9.497651e-001 -2.165614e-001 1.304894e+000 -3.811434e-002 -4.409745e-001 -5.426254e-002 -3.552185e-001 3.712498e-002 -9.320468e-003 2.653773e-001 3.852578e-001 1.742859e-001 1.455901e-001 -2.405957e-001 -1.530849e-001 3.836640e-001
<VARIANCE> 39
 5.123378e+001 3.599734e+001 1.953326e+001 5.807474e+001 8.272717e+001 5.239045e+001 3.579176e+001 3.471466e+001 3.284813e+001 1.987416e+001 2.549110e+001 1.372927e+001 2.052093e+001 1.890593e+000 4.320922e+000 6.409369e-001 3.151043e+000 4.201522e+000 4.057796e+000 3.779160e+000 2.991196e+000 2.958977e+000 3.230309e+000 2.989141e+000 1.203043e+000 2.405488e+000 9.617261e-001 5.085587e-001 2.066261e-001 5.650586e-001 1.463100e+000 1.200230e+000 7.053531e-001 4.645646e-001 5.849777e-001 4.546261e-001 4.515024e-001 2.375642e-001 2.934852e-001
<GCONST> 1.213718e+002
<STATE> 8
<MEAN> 39
 -9.217816e+000 -1.858855e+001 1.150092e+000 -1.944140e+001 -6.342422e+000 -1.580307e+001 2.735804e+000 1.236864e+001 -1.524595e+000 2.011761e+000 -6.621023e+000 9.888633e-001 6.526212e+001 -1.622881e-001 5.066155e-001 -3.638341e-001 3.374720e-001 4.001786e-001 3.164751e-001 1.930011e-001 -2.544478e-001 2.418889e-001 -3.887677e-002 -1.415990e-002 3.064180e-002 -2.632139e-001 -1.932121e-001 3.139281e-001 1.067247e-002 1.859565e-001 9.998275e-002 1.427464e-001 7.211877e-002 -1.814617e-001 3.059562e-002 -5.559399e-002 1.377490e-001 1.305221e-002 -1.514428e-001
<VARIANCE> 39
 1.598338e+001 5.032280e+001 1.847757e+001 7.976620e+001 5.311781e+001 3.782319e+001 8.200143e+001 3.395113e+001 4.014431e+001 3.455185e+001 5.162785e+001 4.416031e+001 2.118180e+001 6.576278e-001 3.072311e+000 7.630399e-001 1.816803e+000 1.551128e+000 1.932103e+000 2.411181e+000 2.526410e+000 1.562048e+000 1.870704e+000 2.037128e+000 1.634591e+000 8.705541e-001 1.623406e-001 1.865264e-001 1.164207e-001 2.354518e-001 3.423582e-001 3.353120e-001 3.564043e-001 3.707592e-001 2.648048e-001 3.511506e-001 2.655758e-001 2.380803e-001 7.633740e-002
<GCONST> 1.062996e+002
<STATE> 9
<MEAN> 39
 -1.850981e+001 1.954057e+000 -4.554898e+000 -6.038647e+000 5.892172e-001 -8.028004e+000 6.178456e+000 4.398979e+000 2.081451e+000 -1.053816e+000 -7.120990e-001 9.895118e-001 5.416082e+001 -4.580161e-002 3.343027e-001 -3.681492e-002 4.641092e-001 2.971974e-001 3.617113e-001 3.303127e-002 -1.538747e-001 -2.026212e-001 4.231099e-002 1.410425e-001 2.860555e-002 -5.448466e-001 1.744892e-001 -1.867606e-001 7.393379e-002 -6.534199e-002 -7.054999e-002 -5.482642e-002 -1.411466e-001 3.083589e-002 -6.916697e-002 2.966391e-002 -6.613297e-002 5.880294e-003 1.678281e-002
<VARIANCE> 39
 1.075224e+001 1.883830e+001 1.388507e+001 1.912003e+001 3.366429e+001 3.449597e+001 3.835907e+001 1.646178e+001 3.017298e+001 2.137051e+001 2.107924e+001 1.950973e+001 1.197747e+001 1.602169e+000 1.155077e+000 8.370278e-001 1.128838e+000 1.221145e+000 1.885643e+000 2.014629e+000 1.362770e+000 1.887336e+000 1.964105e+000 1.803155e+000 1.365961e+000 2.165150e-001 9.594173e-002 1.156711e-001 1.356746e-001 2.316598e-001 2.111956e-001 3.667410e-001 3.467962e-001 2.775550e-001 3.690831e-001 4.069194e-001 3.856227e-001 2.818348e-001 4.208571e-002
<GCONST> 9.398750e+001
<TRANSP> 10
 0.000000e+000 1.000000e+000 0.000000e+000 0.000000e+000 0.000000e+000 0.000000e+000 0.000000e+000 0.000000e+000 0.000000e+000 0.000000e+000
 0.000000e+000 5.958486e-001 4.041514e-001 0.000000e+000 0.000000e+000 0.000000e+000 0.000000e+000 0.000000e+000 0.000000e+000 0.000000e+000
 0.000000e+000 0.000000e+000 3.695897e-001 6.304103e-001 0.000000e+000 0.000000e+000 0.000000e+000 0.000000e+000 0.000000e+000 0.000000e+000
 0.000000e+000 0.000000e+000 0.000000e+000 3.088343e-001 6.911658e-001 0.000000e+000 0.000000e+000 0.000000e+000 0.000000e+000 0.000000e+000
 0.000000e+000 0.000000e+000 0.000000e+000 0.000000e+000 6.173981e-001 3.826019e-001 0.000000e+000 0.000000e+000 0.000000e+000 0.000000e+000
 0.000000e+000 0.000000e+000 0.000000e+000 0.000000e+000 0.000000e+000 8.426418e-001 1.573582e-001 0.000000e+000 0.000000e+000 0.000000e+000
 0.000000e+000 0.000000e+000 0.000000e+000 0.000000e+000 0.000000e+000 0.000000e+000 8.016834e-001 1.983166e-001 0.000000e+000 0.000000e+000
 0.000000e+000 0.000000e+000 0.000000e+000 0.000000e+000 0.000000e+000 0.000000e+000 0.000000e+000 9.481878e-001 5.181222e-002 0.000000e+000
 0.000000e+000 0.000000e+000 0.000000e+000 0.000000e+000 0.000000e+000 0.000000e+000 0.000000e+000 0.000000e+000 9.471381e-001 5.286185e-002
 0.000000e+000 0.000000e+000 0.000000e+000 0.000000e+000 0.000000e+000 0.000000e+000 0.000000e+000 0.000000e+000 0.000000e+000 0.000000e+000
<ENDHMM>
~h "dva"
<BEGINHMM>
<NUMSTATES> 10
<STATE> 2
<MEAN> 39
 -9.002408e+000 5.201492e-001 -4.042144e+000 -3.463035e+000 -4.141962e+000 -5.049487e+000 -5.847703e+000 -4.125625e+000 -3.894946e+000 -1.930316e+000 -2.649589e+000 -2.955713e+000 4.146910e+001 6.954865e-002 1.976767e-002 4.776518e-002 -1.043489e-001 -6.328903e-002 -1.131508e-001 -6.110260e-002 -9.764696e-003 -7.793655e-002 4.801751e-002 -2.223441e-002 -2.404639e-002 3.807944e-002 1.518199e-002 1.732806e-002 1.321432e-002 -2.284903e-002 -7.316113e-003 -5.800736e-002 -9.853498e-003 -1.079080e-002 1.750141e-002 2.420336e-002 4.599731e-004 -1.256594e-002 3.643687e-002
<VARIANCE> 39
 3.122202e+000 4.560847e+000 7.690745e+000 9.872111e+000 1.301901e+001 1.622967e+001 2.079692e+001 2.675116e+001 2.178434e+001 2.006137e+001 1.491622e+001 1.229332e+001 5.209615e+000 3.279020e-001 4.717888e-001 5.981552e-001 1.056891e+000 1.382214e+000 1.161226e+000 2.063112e+000 2.046458e+000 2.093340e+000 1.824429e+000 1.338296e+000 7.567456e-001 8.447389e-002 8.340792e-002 1.133864e-001 1.305103e-001 2.324383e-001 2.743641e-001 2.217469e-001 4.121548e-001 4.799866e-001 4.650136e-001 3.777507e-001 2.928473e-001 1.571816e-001 2.728316e-002
<GCONST> 8.075423e+001
<STATE> 3
<MEAN> 39
 -7.471490e+000 1.378967e+000 -1.250806e+000 -1.663294e+000 -3.919441e+000 -5.078726e+000 -4.563038e+000 -1.042037e+000 -3.693626e+000 -8.155745e-001 3.558980e-001 4.513008e-001 4.722499e+001 4.576615e-001 4.385144e-001 1.338359e-001 -3.810077e-001 -8.069150e-001 -9.604574e-001 -2.479703e-001 -3.259918e-001 5.726750e-003 1.059915e-001 -1.677355e-001 -6.234713e-002 3.062805e-001 -8.932147e-002 -2.407661e-001 2.448786e-002 -1.068288e-001 1.882738e-001 -5.018136e-002 1.702332e-001 1.980955e-001 1.169486e-001 1.212602e-001 -2.882924e-002 1.379244e-002 1.387782e-001
<VARIANCE> 39
 6.509657e+000 4.283952e+000 6.601465e+000 1.566689e+001 3.244719e+001 1.949889e+001 1.565108e+001 1.032364e+001 1.907722e+001 1.796093e+001 1.457795e+001 1.068211e+001 2.639002e+000 7.837012e-001 5.121986e-001 1.022385e+000 2.013861e+000 2.005221e+000 1.389480e+000 2.171656e+000 1.383343e+000 1.310584e+000 1.479107e+000 1.497644e+000 1.221257e+000 2.856003e-001 1.551149e-001 2.106836e-001 2.108887e-001 5.407087e-001 3.440714e-001 3.811570e-001 4.620535e-001 1.739498e-001 3.596554e-001 3.499486e-001 3.804755e-001 2.414728e-001 1.114124e-001
<GCONST> 8.818172e+001
<STATE> 4
<MEAN> 39
 -7.708006e+000 1.866275e+000 -1.400908e+000 -1.260082e+000 -2.661665e+000 -6.093317e+000 -2.109462e+000 -6.449579e-002 -2.060610e+000 3.673357e-001 -1.387097e+000 -1.074451e-001 4.731609e+001 -1.696510e-001 -1.209357e+000 7.254999e-001 -1.818113e+000 1.046968e-001 -1.106972e+000 -2.760386e-001 6.103441e-001 -1.467846e-001 5.575885e-001 5.498765e-002 2.023275e-001 1.264942e+000 -7.090065e-002 -7.591528e-001 1.685956e-001 -6.590157e-001 -2.439032e-001 -3.292337e-001 -4.215318e-001 2.827820e-001 2.891662e-002 2.711322e-001 3.951181e-002 4.065159e-002 4.393522e-001
<VARIANCE> 39
 1.074888e+001 7.119044e+000 8.571580e+000 9.682656e+000 4.005793e+001 2.163936e+001 2.131968e+001 9.225756e+000 1.331538e+001 1.195329e+001 1.371951e+001 1.007572e+001 4.099178e+000 9.087836e-001 2.773247e+000 2.554650e+000 3.097907e+000 3.171203e+000 3.308279e+000 1.894826e+000 1.554066e+000 2.433325e+000 2.002062e+000 1.567797e+000 1.250622e+000 1.396339e+000 1.477561e-001 3.144452e-001 4.894688e-001 3.421015e-001 4.914743e-001 3.575560e-001 3.662470e-001 2.587766e-001 3.717653e-001 2.855171e-001 3.884417e-001 3.670624e-001 2.361646e-001
<GCONST> 9.831859e+001
<STATE> 5
<MEAN> 39
 -8.377575e+000 -1.833643e+000 2.290446e-001 -5.825484e+000 -3.362841e+000 -7.608512e+000 -5.105272e+000 -5.911563e-001 -3.603786e+000 1.665647e+000 -1.124278e+000 -1.183216e+000 5.034285e+001 3.126712e-001 -1.675422e+000 2.314794e-001 -2.048899e+000 -7.623605e-001 -1.531319e+000 -1.294697e+000 2.960923e-001 7.777102e-002 1.457801e+000 -5.517451e-001 -3.296405e-001 2.155787e+000 2.408146e-001 -6.423564e-002 -3.946232e-001 8.299345e-002 3.922470e-002 1.317370e-001 -3.029579e-001 -1.629179e-001 1.665976e-001 1.865962e-001 -4.692163e-001 -2.742819e-001 1.217108e-001
<VARIANCE> 39
 1.176162e+001 2.392524e+001 3.556181e+001 3.095426e+001 6.308514e+001 3.326140e+001 1.700200e+001 3.701706e+001 2.285304e+001 2.769981e+001 2.656772e+001 3.094211e+001 2.856333e+001 1.502427e+000 4.545374e+000 5.218159e+000 5.589008e+000 3.174614e+000 3.184380e+000 4.623673e+000 3.512548e+000 3.169449e+000 4.465494e+000 1.767515e+000 2.595748e+000 2.442767e+000 2.438636e-001 6.174425e-001 3.152688e-001 1.007913e+000 8.833441e-001 5.385430e-001 5.229577e-001 5.093572e-001 3.126860e-001 5.476237e-001 4.046109e-001 4.988469e-001 3.022860e-001
<GCONST> 1.207235e+002
<STATE> 6
<MEAN> 39
 -6.660914e+000 -8.417299e+000 1.591884e+000 -1.239559e+001 -6.732331e+000 -1.381048e+001 -1.100579e+001 2.781145e+000 -1.266577e+000 5.553332e+000 -2.883554e+000 -7.372563e-001 5.744169e+001 8.294238e-001 -9.269531e-001 -9.914151e-001 -5.402302e-001 4.388864e-001 2.102599e-001 -1.403174e+000 -8.207047e-001 4.304648e-001 7.737888e-001 -1.444563e+000 -1.316929e+000 6.933667e-001 1.006990e-001 9.415691e-001 -5.012824e-001 9.283398e-001 6.008944e-001 9.420549e-001 6.081252e-001 -6.230150e-001 -1.773210e-001 -4.030443e-001 -2.281399e-002 -2.944702e-001 -7.897941e-001
<VARIANCE> 39
 7.858874e+000 1.431149e+001 6.478290e+001 3.019781e+001 5.548395e+001 2.816961e+001 7.427375e+001 3.319970e+001 4.626345e+001 4.894006e+001 4.867591e+001 2.070751e+001 1.764418e+001 4.703074e-001 4.546408e+000 2.583967e+000 6.397402e+000 2.861641e+000 5.006333e+000 5.493773e+000 3.399278e+000 3.572445e+000 4.187107e+000 4.177448e+000 2.459798e+000 3.011833e+000 1.811889e-001 4.980322e-001 5.995078e-001 5.482088e-001 3.109248e-001 5.446314e-001 5.763780e-001 5.713019e-001 9.111468e-001 6.169764e-001 6.887240e-001 3.818095e-001 2.748696e-001
<GCONST> 1.223385e+002
<STATE> 7
<MEAN> 39
 -3.283571e+000 -8.877810e+000 -1.028137e+001 -1.187082e+001 -5.765504e-001 -8.665349e+000 -6.077577e-001 -1.201957e+000 -4.691698e+000 8.390045e+000 -4.716975e+000 -7.679143e+000 5.803707e+001 -6.658138e-002 -2.859161e-001 -2.610041e-001 -4.249845e-001 6.720219e-001 6.552943e-001 2.933210e-001 1.943701e-003 -4.439909e-003 1.567115e-001 -2.205967e-001 -2.416739e-001 1.772045e-001 -8.206026e-002 -2.991538e-001 4.720380e-002 -3.278075e-001 -4.903314e-002 5.207282e-002 8.427878e-002 2.430907e-001 2.206165e-002 -3.899136e-003 9.198704e-003 1.128749e-001 1.883576e-001
<VARIANCE> 39
 6.909263e+000 2.608375e+001 7.383337e+001 2.474250e+001 2.075272e+001 1.841192e+001 1.213985e+002 1.626284e+001 1.726551e+001 2.825940e+001 2.348484e+001 1.881717e+001 2.240596e+001 2.427009e-001 2.831103e+000 1.137147e+000 3.214623e+000 1.188835e+000 1.581812e+000 1.621202e+000 1.393659e+000 1.452845e+000 1.810651e+000 1.560693e+000 1.155482e+000 1.525539e+000 5.720792e-002 4.366902e-001 1.529574e-001 5.354640e-001 1.666855e-001 3.407106e-001 3.183075e-001 2.729275e-001 1.793463e-001 3.708783e-001 2.967726e-001 2.541023e-001 2.266724e-001
<GCONST> 9.936993e+001
<STATE> 8
<MEAN> 39
 -7.397104e+000 -1.768428e+001 -6.420892e+000 -2.304255e+001 9.046835e+000 -3.803113e-001 -7.461980e+000 2.331111e+000 -5.108925e+000 4.799285e+000 -6.641774e+000 -5.517544e+000 6.224922e+001 -1.291039e-001 -5.811457e-001 -1.696006e-001 -2.828769e-001 5.911363e-001 3.900818e-001 3.602044e-001 2.929271e-001 -3.965592e-001 -2.466101e-001 -3.665247e-001 7.360768e-002 2.339775e-001 -1.863053e-002 2.582338e-001 9.633593e-002 3.400331e-001 -1.272734e-002 -8.424702e-002 -7.932372e-002 -9.107555e-002 -2.689518e-002 -7.900526e-002 1.022430e-001 2.854725e-002 -2.010462e-001
<VARIANCE> 39
 1.339680e+001 7.383644e+001 1.899426e+001 8.341598e+001 1.162979e+002 6.016552e+001 3.190589e+001 4.458717e+001 3.120873e+001 6.551607e+001 1.015704e+002 2.557904e+001 9.897694e+001 6.241383e-001 3.803438e+000 1.198672e+000 5.621998e+000 2.624515e+000 3.078629e+000 2.972872e+000 2.559325e+000 1.892024e+000 2.493983e+000 3.044970e+000 1.895910e+000 2.358634e+000 1.118497e-001 2.479495e-001 2.024641e-001 5.829588e-001 3.005607e-001 5.277292e-001 5.306430e-001 3.754021e-001 4.466890e-001 5.212486e-001 4.597336e-001 2.937981e-001 1.252517e-001
<GCONST> 1.184763e+002
<STATE> 9
<MEAN> 39
 -8.251516e+000 -1.819448e+001 -7.375237e+000 -1.648428e+001 1.208660e+001 2.190372e+000 -5.051661e+000 3.825652e+000 -4.669612e+000 3.716571e+000 -1.027700e+001 -2.845188e+000 5.993692e+001 -6.772815e-002 6.594635e-001 6.885023e-003 7.465881e-001 -2.310387e-001 1.441443e-001 4.158714e-002 -6.655132e-002 1.133496e-001 -2.615598e-001 4.424792e-001 1.250683e-001 -6.705975e-001 1.960295e-002 3.037775e-002 1.122737e-002 -6.403456e-004 -8.284856e-002 -3.152007e-002 2.325699e-002 -1.011923e-002 4.025739e-002 3.440800e-002 4.170918e-002 2.312056e-002 -1.573135e-003
<VARIANCE> 39
 4.988425e+000 7.188751e+001 1.380050e+001 6.425536e+001 4.063544e+001 4.719296e+001 4.675237e+001 3.226916e+001 2.425550e+001 3.218948e+001 4.702703e+001 3.810938e+001 5.719848e+001 1.787737e-001 7.351097e-001 6.090919e-001 8.331853e-001 1.020733e+000 1.503815e+000 1.353625e+000 1.535177e+000 1.523023e+000 1.918883e+000 1.551540e+000 1.134636e+000 2.970451e-001 2.813300e-002 9.133300e-002 1.172577e-001 1.405640e-001 1.947153e-001 2.722665e-001 2.413751e-001 2.864046e-001 3.001151e-001 3.141092e-001 2.917126e-001 2.278208e-001 2.028652e-002
<GCONST> 9.165023e+001
<TRANSP> 10
 0.000000e+000 1.000000e+000 0.000000e+000 0.000000e+000 0.000000e+000 0.000000e+000 0.000000e+000 0.000000e+000 0.000000e+000 0.000000e+000
 0.000000e+000 8.320906e-001 1.679094e-001 0.000000e+000 0.000000e+000 0.000000e+000 0.000000e+000 0.000000e+000 0.000000e+000 0.000000e+000
 0.000000e+000 0.000000e+000 7.023819e-001 2.976181e-001 0.000000e+000 0.000000e+000 0.000000e+000 0.000000e+000 0.000000e+000 0.000000e+000
 0.000000e+000 0.000000e+000 0.000000e+000 5.743311e-001 4.256689e-001 0.000000e+000 0.000000e+000 0.000000e+000 0.000000e+000 0.000000e+000
 0.000000e+000 0.000000e+000 0.000000e+000 0.000000e+000 4.850894e-001 5.149106e-001 0.000000e+000 0.000000e+000 0.000000e+000 0.000000e+000
 0.000000e+000 0.000000e+000 0.000000e+000 0.000000e+000 0.000000e+000 6.229022e-001 3.770978e-001 0.000000e+000 0.000000e+000 0.000000e+000
 0.000000e+000 0.000000e+000 0.000000e+000 0.000000e+000 0.000000e+000 0.000000e+000 8.962529e-001 1.037472e-001 0.000000e+000 0.000000e+000
 0.000000e+000 0.000000e+000 0.000000e+000 0.000000e+000 0.000000e+000 0.000000e+000 0.000000e+000 9.155672e-001 8.443277e-002 0.000000e+000
 0.000000e+000 0.000000e+000 0.000000e+000 0.000000e+000 0.000000e+000 0.000000e+000 0.000000e+000 0.000000e+000 9.423531e-001 5.764688e-002
 0.000000e+000 0.000000e+000 0.000000e+000 0.000000e+000 0.000000e+000 0.000000e+000 0.000000e+000 0.000000e+000 0.000000e+000 0.000000e+000
<ENDHMM>
~h "osm"
<BEGINHMM>
<NUMSTATES> 10
<STATE> 2
<MEAN> 39
 -9.665444e+000 -5.339344e-001 -2.158667e+000 1.436633e+000 -6.893892e-001 -4.631146e-001 -4.994322e-001 2.012301e+000 -2.562887e+000 -1.066006e+000 3.445346e-002 7.624983e-001 4.538796e+001 1.107280e-001 -8.698706e-002 2.682494e-002 4.103355e-002 -9.357249e-002 1.582751e-001 -3.054354e-001 -3.325584e-001 -1.670744e-001 -1.187839e-001 -3.469381e-002 -3.051562e-002 -3.329723e-002 2.500006e-001 -2.956131e-001 -5.028451e-001 -1.318740e+000 -6.179381e-002 1.029000e-001 1.060194e-001 2.353371e-001 -1.274850e-001 2.512741e-001 4.212474e-002 -1.923210e-001 4.908072e-001
<VARIANCE> 39
 8.674657e-001 2.652559e+000 3.841405e+000 7.823538e+000 8.439758e+000 9.328838e+000 1.452986e+001 1.473216e+001 9.887163e+000 1.661202e+001 1.380428e+001 7.699726e+000 2.224422e+000 8.538329e-002 2.304685e-001 2.234977e-001 5.570424e-001 6.921951e-001 7.107751e-001 5.654620e-001 9.267891e-001 1.671588e+000 9.380195e-001 1.055815e+000 8.307281e-001 2.287069e-002 4.144637e-002 5.964227e-002 1.207513e-001 2.653388e-001 5.946147e-001 1.861418e-001 2.985206e-001 2.626424e-001 2.600884e-001 3.518901e-001 2.809778e-001 1.545423e-001 3.662074e-002
<GCONST> 6.236090e+001
<STATE> 3
<MEAN> 39
 -9.476865e+000 -2.116690e-002 -2.356369e+000 9.498906e-001 -7.299072e-001 -3.367776e-001 -1.346450e+000 4.472075e-001 -1.483389e+000 7.057373e-001 1.829229e+000 1.394896e+000 4.547345e+001 4.452300e-001 -2.916966e-001 -8.606241e-001 -1.531210e+000 -2.311089e-001 4.170638e-001 7.165360e-001 2.416691e-001 -3.800587e-001 5.115683e-002 -2.210131e-002 4.072232e-002 4.732740e-001 3.304321e-001 -6.623670e-001 -6.850560e-001 -2.265099e+000 9.089241e-002 1.408336e-001 -1.684712e-002 4.750400e-001 -2.076184e-001 4.911317e-001 -4.264258e-002 -3.914031e-001 9.475970e-001
<VARIANCE> 39
 9.085853e-001 2.172185e+000 2.939151e+000 4.665063e+000 5.844195e+000 9.422653e+000 3.807400e+000 8.222800e+000 9.378655e+000 1.113207e+001 7.991564e+000 8.149175e+000 1.417493e+000 2.017246e-001 3.379588e-001 9.220117e-001 1.636111e+000 1.475630e+000 7.686932e-001 8.859740e-001 1.060873e+000 1.162433e+000 1.112685e+000 9.431239e-001 9.198360e-001 1.220761e-001 6.565063e-002 2.267848e-001 2.053711e-001 6.607007e-001 9.202071e-001 3.447856e-001 2.276480e-001 4.683577e-001 4.568315e-001 4.706393e-001 3.366112e-001 2.063512e-001 1.394792e-001
<GCONST> 7.163774e+001
<STATE> 4
<MEAN> 39
 -9.405639e+000 -6.988581e-001 -2.538041e+000 6.555630e-001 -1.466109e+000 -1.811981e-001 -6.806196e-001 1.264410e-001 -2.354768e+000 -1.370674e+000 -1.863303e-001 8.315943e-001 4.536484e+001 1.021748e+000 -1.626419e+000 -2.388303e+000 -5.775707e+000 1.397441e-001 5.692695e-001 3.010277e-001 8.840521e-001 -7.853338e-001 1.166554e+000 -1.367398e-001 -6.553273e-001 2.205833e+000 3.044668e-001 -7.632834e-001 -5.134826e-001 -2.313637e+000 2.889705e-001 7.930871e-002 -2.322347e-001 4.258449e-001 -1.699782e-001 6.701562e-001 -4.099685e-002 -3.526403e-001 1.129958e+000
<VARIANCE> 39
 8.275290e-001 2.683091e+000 4.573668e+000 7.647932e+000 5.045908e+000 9.101878e+000 9.835196e+000 1.245186e+001 1.688473e+001 1.393192e+001 1.312849e+001 1.135722e+001 2.273753e+000 5.384297e-001 9.488850e-001 1.988587e+000 4.133777e+000 5.308454e+000 2.560585e+000 1.542283e+000 2.892564e+000 2.460434e+000 2.596141e+000 1.902190e+000 1.960234e+000 7.908448e-001 9.337295e-002 4.126665e-001 3.786495e-001 1.097709e+000 8.136612e-001 5.390130e-001 2.266166e-001 6.228748e-001 5.288703e-001 2.137846e-001 2.410890e-001 2.972408e-001 2.103390e-001
<GCONST> 9.113599e+001
<STATE> 5
<MEAN> 39
 -7.503742e+000 -2.413173e+000 -7.692857e+000 -8.489399e+000 -1.580306e+000 1.378590e+000 3.311906e+000 3.669509e+000 -4.610835e+000 8.774926e-001 5.835284e-001 4.212336e-001 4.833158e+001 1.244060e+000 -2.702647e+000 -2.242535e+000 -8.462556e+000 5.091966e-001 6.577920e-001 -4.723948e-001 1.569938e+000 -9.214134e-001 1.911525e+000 -1.461266e-001 -1.357886e+000 3.676267e+000 3.466444e-002 -4.210633e-001 2.932233e-001 -8.485401e-001 2.368208e-001 -6.513762e-002 -5.938961e-001 1.085826e-001 6.065476e-002 4.223007e-001 -3.335662e-002 -2.335040e-001 6.749418e-001
<VARIANCE> 39
 4.468146e+000 3.958834e+000 2.148012e+001 2.899512e+001 1.593927e+001 9.147304e+000 1.349739e+001 2.433016e+001 1.519546e+001 2.579991e+001 1.474730e+001 7.445546e+000 7.557590e+000 7.222459e-001 3.275992e+000 3.540736e+000 9.350596e+000 9.335242e+000 5.063782e+000 2.136789e+000 4.511018e+000 3.598260e+000 2.573486e+000 2.836091e+000 2.567148e+000 2.191271e+000 6.659276e-002 3.060708e-001 1.325791e-001 9.497611e-001 3.297810e-001 2.266484e-001 1.625216e-001 3.905958e-001 2.983495e-001 2.885335e-001 1.916286e-001 2.566568e-001 1.574478e-001
<GCONST> 1.013024e+002
<STATE> 6
<MEAN> 39
 -3.487296e+000 -5.696699e+000 -1.111649e+001 -2.185663e+001 -5.196514e+000 -1.037812e+000 -2.057087e+000 3.473558e+000 -6.663616e+000 8.581792e+000 3.970379e+000 -3.495008e+000 5.622929e+001 8.405078e-001 -1.540105e+000 -3.589934e-001 -4.008282e+000 5.998520e-001 3.313665e-002 -1.215363e+000 2.990229e-001 -6.264674e-001 1.439322e+000 1.018336e-001 -6.036074e-001 2.499581e+000 -3.460202e-001 2.081164e-001 5.743694e-001 1.132455e+000 3.550156e-001 -7.747072e-002 -1.672631e-001 -2.698883e-001 1.505930e-001 -2.333359e-001 -1.800043e-001 2.839591e-001 -3.147396e-001
<VARIANCE> 39
 8.307069e+000 2.302080e+001 2.914206e+001 9.393861e+001 8.223528e+001 4.171470e+001 2.192636e+001 5.372794e+001 2.021115e+001 4.392987e+001 2.987221e+001 1.217788e+001 1.531716e+001 7.957513e-001 3.206903e+000 2.301342e+000 1.962401e+001 5.041398e+000 2.758215e+000 2.508385e+000 3.994107e+000 2.800170e+000 2.086173e+000 1.285018e+000 2.057239e+000 3.249800e+000 6.159140e-002 1.730836e-001 2.255558e-001 8.826674e-001 5.932338e-001 2.884853e-001 3.013078e-001 4.533788e-001 3.632953e-001 3.157800e-001 2.344349e-001 2.728207e-001 8.550008e-002
<GCONST> 1.117863e+002
<STATE> 7
<MEAN> 39
 -6.028877e+000 -1.412583e+001 -8.544697e+000 -3.532726e+001 7.383141e+000 1.667074e-001 -5.438612e+000 6.100174e+000 -3.395668e+000 8.835093e+000 -3.502829e+000 -1.641356e+000 6.468068e+001 -2.416029e-001 2.713742e-001 -1.350679e-002 -5.466518e-003 4.274026e-001 -6.839927e-001 -5.523844e-001 -5.268873e-001 2.128978e-001 2.113522e-001 -5.279348e-001 1.085226e-002 2.347220e-001 -2.485516e-001 5.313091e-001 3.960689e-002 9.488581e-001 -1.274658e-001 2.363401e-002 3.479621e-001 -2.115015e-001 1.971718e-001 -4.254445e-001 1.025985e-001 4.369007e-002 -4.775392e-001
<VARIANCE> 39
 1.029465e+001 2.297678e+001 2.850608e+001 5.529631e+001 6.586910e+001 5.795011e+001 4.623014e+001 2.784311e+001 7.691139e+001 1.852447e+001 3.871284e+001 3.654746e+001 1.372355e+001 3.477213e-001 2.311968e+000 1.130078e+000 5.935253e+000 1.499453e+000 3.038202e+000 2.368006e+000 1.521652e+000 1.929273e+000 2.568894e+000 1.970111e+000 1.892858e+000 1.772720e+000 1.326874e-001 2.357188e-001 3.943853e-001 9.791439e-001 3.994303e-001 6.768696e-001 6.055740e-001 2.674473e-001 4.377461e-001 4.271292e-001 4.447309e-001 4.206016e-001 1.747431e-001
<GCONST> 1.123793e+002
<STATE> 8
<MEAN> 39
 -1.563671e+001 -9.539589e-001 -5.945257e+000 -1.394019e+001 2.691778e+000 -4.845155e+000 -2.403911e+000 1.701905e+000 -6.494466e-001 2.234586e+000 -1.846117e-001 -6.361604e-001 5.775094e+001 1.649067e-002 5.380749e-003 4.273938e-001 3.915217e-001 -4.257236e-001 -3.726367e-001 -2.968220e-001 -1.382125e-001 -9.478168e-002 -1.183276e-001 2.660048e-001 3.402888e-002 -2.470523e-002 8.045962e-002 -1.318676e-001 2.425672e-002 -1.277080e-001 -7.881843e-003 -3.187951e-002 -7.057056e-002 5.871344e-002 -9.763063e-002 1.202216e-001 1.640836e-002 -1.088594e-002 5.366811e-002
<VARIANCE> 39
 4.402026e+001 2.109029e+001 4.654734e+001 5.941825e+001 5.621259e+001 5.745422e+001 6.552219e+001 5.379860e+001 3.556769e+001 2.675187e+001 3.089893e+001 2.233453e+001 2.596625e+001 4.351389e+000 2.142031e+000 1.687291e+000 4.116241e+000 2.801968e+000 2.676735e+000 5.076482e+000 4.219961e+000 2.859004e+000 2.949923e+000 3.148399e+000 1.914124e+000 7.351185e-001 4.519455e-001 1.756789e-001 1.869632e-001 3.967986e-001 4.943355e-001 4.309281e-001 7.039092e-001 8.063585e-001 4.078318e-001 5.038760e-001 5.327712e-001 3.651505e-001 8.165968e-002
<GCONST> 1.192338e+002
<STATE> 9
<MEAN> 39
 -5.928578e+000 -7.202128e+000 1.711161e+000 -1.539167e+001 -1.510387e+000 -1.172353e+001 -1.344992e+001 -9.598740e-001 -1.011159e+001 6.186132e+000 1.624386e+000 -2.493755e+000 5.749952e+001 -3.804039e-002 2.274752e-001 -2.844270e-002 3.809817e-001 2.236981e-001 2.100508e-001 2.499657e-001 9.408574e-003 -1.607099e-001 -1.845348e-001 -1.836869e-001 -3.741115e-002 -3.416068e-001 -2.589224e-002 5.616294e-002 -3.448778e-002 6.770858e-002 -1.017588e-002 6.442345e-002 6.133946e-002 9.518282e-003 8.119929e-002 -4.734910e-002 -2.179118e-002 2.471446e-002 -5.510155e-002
<VARIANCE> 39
 9.076465e+000 4.141541e+001 3.195985e+001 4.037340e+001 4.736017e+001 2.781913e+001 3.952840e+001 5.083315e+001 2.255483e+001 3.947729e+001 5.866555e+001 3.979669e+001 2.063647e+001 1.630819e-001 5.673268e-001 6.266224e-001 1.019146e+000 7.889120e-001 1.195921e+000 1.174332e+000 1.154359e+000 1.117969e+000 1.642864e+000 1.103899e+000 1.126529e+000 2.427216e-001 2.692347e-002 6.558626e-002 9.099064e-002 1.457777e-001 1.312796e-001 2.040105e-001 1.647035e-001 2.076684e-001 2.144664e-001 2.626567e-001 1.987481e-001 1.882315e-001 1.614293e-002
<GCONST> 8.601421e+001
<TRANSP> 10
 0.000000e+000 1.000000e+000 0.000000e+000 0.000000e+000 0.000000e+000 0.000000e+000 0.000000e+000 0.000000e+000 0.000000e+000 0.000000e+000
 0.000000e+000 3.557029e-003 9.964430e-001 0.000000e+000 0.000000e+000 0.000000e+000 0.000000e+000 0.000000e+000 0.000000e+000 0.000000e+000
 0.000000e+000 0.000000e+000 1.002710e-002 9.899729e-001 0.000000e+000 0.000000e+000 0.000000e+000 0.000000e+000 0.000000e+000 0.000000e+000
 0.000000e+000 0.000000e+000 0.000000e+000 4.675248e-002 9.532475e-001 0.000000e+000 0.000000e+000 0.000000e+000 0.000000e+000 0.000000e+000
 0.000000e+000 0.000000e+000 0.000000e+000 0.000000e+000 2.572535e-002 9.742746e-001 0.000000e+000 0.000000e+000 0.000000e+000 0.000000e+000
 0.000000e+000 0.000000e+000 0.000000e+000 0.000000e+000 0.000000e+000 6.058868e-001 3.941132e-001 0.000000e+000 0.000000e+000 0.000000e+000
 0.000000e+000 0.000000e+000 0.000000e+000 0.000000e+000 0.000000e+000 0.000000e+000 8.618338e-001 1.381662e-001 0.000000e+000 0.000000e+000
 0.000000e+000 0.000000e+000 0.000000e+000 0.000000e+000 0.000000e+000 0.000000e+000 0.000000e+000 9.550415e-001 4.495848e-002 0.000000e+000
 0.000000e+000 0.000000e+000 0.000000e+000 0.000000e+000 0.000000e+000 0.000000e+000 0.000000e+000 0.000000e+000 9.626001e-001 3.739990e-002
 0.000000e+000 0.000000e+000 0.000000e+000 0.000000e+000 0.000000e+000 0.000000e+000 0.000000e+000 0.000000e+000 0.000000e+000 0.000000e+000
<ENDHMM>
~h "pet"
<BEGINHMM>
<NUMSTATES> 10
<STATE> 2
<MEAN> 39
 -8.995993e+000 2.308713e-001 -2.132545e+000 8.035443e-002 -1.156879e+000 -5.232602e-001 5.823821e-001 3.272270e+000 -1.557780e+000 -8.175890e-002 1.173666e+000 1.299159e+000 4.624187e+001 -2.070909e-002 -9.636980e-002 -3.695580e-002 6.384999e-002 1.844065e-001 -2.524857e-001 2.201935e-002 -1.133140e-001 -1.486110e-001 -3.067724e-001 -3.392372e-001 -6.382959e-002 7.769070e-002 -9.807569e-002 -1.560887e-001 1.670947e-001 2.023472e-002 -1.204068e-001 -3.166239e-001 -6.787281e-002 -1.756049e-001 -3.092885e-002 1.417406e-001 -1.346171e-002 4.025641e-002 8.474305e-002
<VARIANCE> 39
 1.254967e+000 4.985435e+000 5.680517e+000 1.786865e+000 4.210171e+000 1.262130e+001 6.461560e+000 5.566561e+000 8.494540e+000 7.551951e+000 1.039420e+001 8.500806e+000 8.594211e-001 1.148698e-001 3.653544e-001 3.443105e-001 4.664369e-001 7.918094e-001 7.918065e-001 9.167311e-001 8.757535e-001 7.879779e-001 8.332005e-001 5.869380e-001 8.917759e-001 5.130189e-002 4.038436e-002 1.096729e-001 1.320247e-001 5.289961e-002 1.851617e-001 2.347535e-001 1.573149e-001 2.473713e-001 2.402247e-001 2.910473e-001 2.069085e-001 1.988601e-001 1.864496e-002
<GCONST> 5.555161e+001
<STATE> 3
<MEAN> 39
 -9.379940e+000 1.586856e-001 -1.856267e+000 1.488516e+000 -9.801959e-001 -2.609826e+000 -1.452512e+000 8.883039e-001 -1.520720e+000 -6.064295e-001 1.485240e-001 9.343783e-001 4.601710e+001 -7.431495e-002 -1.528569e-001 2.292711e-001 1.830546e-001 -1.434976e-001 -4.584393e-001 -1.349984e-001 -1.292479e-001 -7.508984e-003 -9.674215e-002 -3.383606e-001 -2.414865e-001 8.142525e-002 -5.079393e-002 -3.414203e-001 5.638535e-001 -4.884205e-001 -6.547852e-001 -7.315912e-001 -8.112174e-002 1.654896e-002 -2.148570e-001 3.320054e-001 1.614849e-001 1.141056e-002 4.787464e-001
<VARIANCE> 39
 2.210397e+000 4.051530e+000 5.722239e+000 4.681908e+000 6.499173e+000 1.717180e+001 8.912198e+000 1.197752e+001 1.040195e+001 7.153527e+000 7.390208e+000 1.158491e+001 1.421317e+000 1.652315e-001 4.005268e-001 3.871885e-001 3.650184e-001 4.539602e-001 1.465907e+000 1.001064e+000 1.653598e+000 1.636511e+000 1.291268e+000 8.822975e-001 1.305430e+000 6.607885e-002 7.337075e-002 1.860687e-001 1.443289e-001 1.426464e-001 3.460059e-001 3.017181e-001 2.230922e-001 2.337266e-001 2.376235e-001 2.466765e-001 1.301960e-001 1.724370e-001 2.113583e-002
<GCONST> 6.537107e+001
<STATE> 4
<MEAN> 39
 -9.583429e+000 -2.303060e-001 -1.065995e+000 1.536178e+000 -8.600060e-001 -1.481363e+000 -2.296154e-001 2.360256e+000 -1.544222e+000 -2.054948e-001 3.468353e-001 8.553141e-001 4.618385e+001 -2.806433e-001 -5.468745e-001 1.085698e+000 -2.273230e-001 -6.392065e-001 -1.745414e+000 -2.821856e-001 -3.576911e-001 -4.683075e-001 2.369344e-001 -9.168174e-002 6.391860e-002 7.405747e-001 8.239724e-002 -6.170368e-001 9.703842e-001 -1.095065e+000 -1.167650e+000 -1.249871e+000 -2.018757e-001 -2.816745e-002 -4.842229e-001 7.142899e-001 2.200056e-001 -4.311760e-002 9.241000e-001
<VARIANCE> 39
 2.474714e+000 6.625734e+000 4.517088e+000 7.006093e+000 3.300759e+000 9.708027e+000 1.658744e+001 1.533555e+001 9.491312e+000 1.664220e+001 6.931659e+000 1.145057e+001 1.846552e+000 6.284810e-001 8.516268e-001 9.383058e-001 5.403427e-001 1.512764e+000 2.605682e+000 8.339673e-001 1.885000e+000 2.620653e+000 1.463860e+000 1.285383e+000 1.070960e+000 2.617287e-001 6.648953e-002 3.067642e-001 2.908823e-001 3.186097e-001 3.786876e-001 1.852174e-001 5.355185e-001 3.975441e-001 2.489705e-001 3.584243e-001 2.758674e-001 2.494075e-001 7.884685e-002
<GCONST> 7.971957e+001
<STATE> 5
<MEAN> 39
 -9.832253e+000 -8.261648e-001 -7.691366e-001 4.930179e-001 -1.192134e+000 -3.004287e+000 -1.103929e+000 2.188830e+000 -1.218569e+000 2.392334e-001 4.605331e-001 4.061419e-001 4.668771e+001 -6.396639e-005 -1.864498e+000 2.939290e+000 -2.988094e+000 -3.346638e+000 -3.971454e+000 -6.930062e-001 -1.038881e-001 -1.386734e+000 1.541767e+000 6.343622e-001 -4.032999e-001 2.676206e+000 1.478683e-001 -7.398042e-001 1.127082e+000 -1.549410e+000 -1.195168e+000 -8.795034e-001 -6.726306e-002 2.276455e-002 -4.708260e-001 9.596188e-001 2.452412e-001 8.196003e-003 1.059130e+000
<VARIANCE> 39
 3.701213e+000 5.310850e+000 9.151402e+000 9.419413e+000 6.146751e+000 1.984681e+001 1.504068e+001 1.657388e+001 1.952218e+001 7.280918e+000 6.131925e+000 6.827096e+000 2.428182e+000 6.736622e-001 1.811952e+000 2.353152e+000 4.436161e+000 3.716935e+000 2.710828e+000 2.266620e+000 2.325177e+000 2.404401e+000 4.192852e+000 1.049882e+000 1.297902e+000 9.500213e-001 7.375878e-002 2.439579e-001 4.874282e-001 7.068976e-001 4.363549e-001 3.716785e-001 4.993060e-001 3.677050e-001 4.755381e-001 7.132927e-001 3.620065e-001 1.887544e-001 1.605804e-001
<GCONST> 9.390847e+001
<STATE> 6
<MEAN> 39
 -8.609960e+000 -4.300965e+000 6.553833e+000 -4.907051e+000 -1.235101e+001 -1.706062e+001 -2.730750e+000 3.756639e-001 -7.203274e+000 3.767742e+000 2.177853e+000 1.143075e+000 5.423916e+001 4.525496e-001 -2.463982e+000 3.339514e+000 -3.831901e+000 -3.972593e+000 -3.762852e+000 -2.104129e-001 2.696407e-001 -1.399318e+000 2.782003e+000 4.177622e-001 -1.356563e-001 3.323207e+000 1.806166e-003 -1.320868e-001 -2.305094e-001 -3.063154e-001 2.903004e-001 9.113949e-001 4.102150e-001 3.268107e-001 3.282526e-001 2.659975e-001 -1.289946e-001 1.622942e-002 -2.873038e-002
<VARIANCE> 39
 1.028681e+001 2.780840e+001 2.676784e+001 4.839459e+001 5.979514e+001 4.507775e+001 1.674119e+001 2.368139e+001 3.211516e+001 2.989852e+001 2.177668e+001 1.445743e+001 1.183689e+001 5.219945e-001 3.313536e+000 6.390045e+000 9.689331e+000 5.378750e+000 2.946385e+000 5.335226e+000 2.855824e+000 2.750568e+000 7.013911e+000 3.724665e+000 1.068571e+000 2.362467e+000 1.034861e-001 2.959725e-001 4.064574e-001 6.007381e-001 8.463692e-001 4.633620e-001 3.613383e-001 4.760357e-001 4.548818e-001 7.964457e-001 2.971952e-001 2.197258e-001 1.765239e-001
<GCONST> 1.157631e+002
<STATE> 7
<MEAN> 39
 -6.952590e+000 -1.067510e+001 5.369368e+000 -1.232645e+001 -1.642400e+001 -2.256074e+001 8.544726e-001 8.087498e+000 -4.755002e+000 1.180020e+001 -1.315451e+000 -1.139638e-001 6.196283e+001 -1.578128e-001 -6.034998e-001 2.468280e-001 -1.391256e+000 -8.235829e-002 1.231052e-001 1.315325e-001 3.102118e-001 3.303534e-001 5.712686e-001 -3.021223e-001 -2.129638e-002 7.363349e-001 -5.769197e-002 2.417127e-001 -4.543725e-001 4.346799e-001 4.038776e-001 3.767025e-001 1.930085e-002 3.666806e-003 1.529748e-001 -4.809132e-001 -1.299938e-001 -2.450997e-002 -3.780315e-001
<VARIANCE> 39
 1.616940e+001 1.218684e+001 1.178635e+002 1.072538e+002 3.035056e+001 4.426106e+001 3.294818e+001 4.578147e+001 1.684625e+001 5.392381e+001 3.350404e+001 8.525937e+000 8.334896e+000 2.731139e-001 9.452693e-001 2.331603e+000 4.082522e+000 2.067565e+000 1.465725e+000 2.195608e+000 1.570004e+000 1.202444e+000 3.303572e+000 1.692464e+000 6.567726e-001 1.245268e+000 4.124746e-002 1.380245e-001 5.309793e-001 5.375909e-001 4.957300e-001 5.257105e-001 3.198216e-001 2.025542e-001 3.003554e-001 6.758778e-001 2.212834e-001 1.388324e-001 1.762088e-001
<GCONST> 1.031469e+002
<STATE> 8
<MEAN> 39
 -1.036566e+001 -2.061868e+001 7.161817e+000 -2.521354e+001 -9.643304e+000 -1.119765e+001 4.947484e+000 1.223459e+001 -4.827376e+000 4.040955e+000 -5.692138e+000 -1.238764e+000 6.548310e+001 1.352269e-001 1.322165e-002 -6.633028e-001 4.262753e-001 4.869354e-001 2.000743e-001 -1.094002e-001 4.901963e-001 1.921522e-001 -7.044587e-001 -3.421255e-001 8.360478e-002 -2.786978e-001 1.520742e-002 1.572424e-001 3.628174e-002 1.663806e-001 2.740306e-004 5.470426e-002 -2.342956e-002 -8.377858e-002 -1.415913e-002 4.981493e-002 8.957111e-002 1.418711e-002 -1.350037e-001
<VARIANCE> 39
 9.789466e+000 1.487345e+001 3.420904e+001 2.657464e+001 6.307038e+001 1.631524e+001 8.018529e+001 4.789299e+001 4.091535e+001 5.211547e+001 8.928860e+001 1.690598e+001 7.667014e+000 1.644451e-001 1.551796e+000 5.766132e-001 9.030447e-001 1.197877e+000 1.728956e+000 1.977762e+000 2.286607e+000 1.229834e+000 1.566245e+000 1.482101e+000 1.182736e+000 6.558188e-001 3.128399e-002 8.685720e-002 7.588691e-002 1.465358e-001 2.157997e-001 3.298864e-001 3.377095e-001 3.223787e-001 2.093796e-001 2.333424e-001 1.993006e-001 2.137421e-001 4.759718e-002
<GCONST> 9.220850e+001
<STATE> 9
<MEAN> 39
 -9.677300e+000 -5.499007e+000 -2.647899e-001 -6.777617e+000 -4.875398e+000 -4.572126e+000 1.317781e+000 9.053883e+000 -4.504416e-001 6.512874e-001 -1.029008e+000 4.172337e-001 5.074604e+001 -1.813636e-001 5.358267e-001 -1.586331e-001 6.290158e-001 3.787461e-001 4.942552e-001 2.144681e-001 -2.855279e-001 2.690951e-002 -7.521132e-003 2.468114e-001 -2.443580e-002 -5.711290e-001 1.795203e-002 -8.671657e-002 1.242739e-002 -4.555171e-002 -8.727347e-003 -6.308618e-002 -3.080250e-002 -8.079945e-003 -1.515282e-002 8.660343e-003 -4.322893e-002 -1.132628e-002 8.249432e-002
<VARIANCE> 39
 5.142944e+000 2.100776e+001 1.039694e+001 3.047195e+001 3.396206e+001 4.099714e+001 3.488903e+001 2.267787e+001 2.549058e+001 2.045122e+001 1.993666e+001 2.121444e+001 1.079343e+001 3.560424e-001 9.817138e-001 8.767195e-001 2.198504e+000 1.723700e+000 2.894437e+000 2.400160e+000 1.892369e+000 1.528357e+000 1.636835e+000 2.092445e+000 1.747775e+000 1.073893e+000 7.570077e-002 1.286710e-001 1.772728e-001 3.459869e-001 3.193295e-001 4.975644e-001 5.048877e-001 3.866442e-001 3.138241e-001 3.459350e-001 3.996646e-001 3.313394e-001 1.247396e-001
<GCONST> 9.850369e+001
<TRANSP> 10
 0.000000e+000 1.000000e+000 0.000000e+000 0.000000e+000 0.000000e+000 0.000000e+000 0.000000e+000 0.000000e+000 0.000000e+000 0.000000e+000
 0.000000e+000 2.194967e-001 7.805033e-001 0.000000e+000 0.000000e+000 0.000000e+000 0.000000e+000 0.000000e+000 0.000000e+000 0.000000e+000
 0.000000e+000 0.000000e+000 4.640541e-002 9.535946e-001 0.000000e+000 0.000000e+000 0.000000e+000 0.000000e+000 0.000000e+000 0.000000e+000
 0.000000e+000 0.000000e+000 0.000000e+000 5.022351e-006 9.999950e-001 0.000000e+000 0.000000e+000 0.000000e+000 0.000000e+000 0.000000e+000
 0.000000e+000 0.000000e+000 0.000000e+000 0.000000e+000 2.594709e-001 7.405291e-001 0.000000e+000 0.000000e+000 0.000000e+000 0.000000e+000
 0.000000e+000 0.000000e+000 0.000000e+000 0.000000e+000 0.000000e+000 5.371662e-001 4.628339e-001 0.000000e+000 0.000000e+000 0.000000e+000
 0.000000e+000 0.000000e+000 0.000000e+000 0.000000e+000 0.000000e+000 0.000000e+000 8.733207e-001 1.266793e-001 0.000000e+000 0.000000e+000
 0.000000e+000 0.000000e+000 0.000000e+000 0.000000e+000 0.000000e+000 0.000000e+000 0.000000e+000 9.369861e-001 6.301388e-002 0.000000e+000
 0.000000e+000 0.000000e+000 0.000000e+000 0.000000e+000 0.000000e+000 0.000000e+000 0.000000e+000 0.000000e+000 9.434117e-001 5.658829e-002
 0.000000e+000 0.000000e+000 0.000000e+000 0.000000e+000 0.000000e+000 0.000000e+000 0.000000e+000 0.000000e+000 0.000000e+000 0.000000e+000
<ENDHMM>
~h "sil"
<BEGINHMM>
<NUMSTATES> 5
<STATE> 2
<MEAN> 39
 -9.955414e+000 -1.703218e+000 -1.831142e+000 -2.101526e+000 -2.821061e-001 -1.813254e+000 -6.546219e-001 2.786216e+000 -2.411565e+000 1.077548e+000 8.157097e-003 3.856512e-001 4.763529e+001 -2.139208e-002 1.274039e-001 -8.159222e-002 4.357266e-001 8.348566e-003 2.066227e-001 9.254755e-002 -2.002668e-002 2.138687e-001 -1.247322e-001 1.656552e-001 1.144377e-001 -2.698404e-001 1.489872e-002 -1.207865e-002 1.030722e-003 -5.299396e-002 -2.818023e-002 -4.411478e-002 -1.527442e-002 -6.063873e-003 -3.042653e-003 4.121638e-003 -2.258519e-002 -8.457736e-003 4.590613e-002
<VARIANCE> 39
 3.291217e+000 6.912608e+000 1.277234e+001 1.620368e+001 1.969279e+001 2.068325e+001 1.741871e+001 1.971367e+001 2.131367e+001 1.849891e+001 1.660820e+001 1.547477e+001 3.069613e+000 2.690569e-001 4.405258e-001 6.953472e-001 1.228937e+000 1.380309e+000 1.887256e+000 1.506451e+000 1.638493e+000 1.784686e+000 1.726130e+000 1.679751e+000 1.351686e+000 3.027556e-001 4.552012e-002 7.924765e-002 1.201125e-001 2.126343e-001 2.453473e-001 3.523450e-001 2.818190e-001 3.033236e-001 3.349413e-001 3.401820e-001 3.042172e-001 2.493696e-001 4.815041e-002
<GCONST> 8.296764e+001
<STATE> 3
<MEAN> 39
 -9.777771e+000 -4.767187e-001 -2.457406e+000 9.410636e-001 -1.114039e+000 -2.593459e-001 -1.417854e-001 1.935602e+000 -1.317892e+000 4.849142e-003 1.028419e+000 8.574498e-001 4.572992e+001 3.688367e-003 3.579284e-003 -2.658369e-003 1.741957e-002 -1.423920e-002 2.054617e-003 3.681642e-003 -9.291902e-003 1.398001e-002 -5.283948e-003 2.431780e-003 6.358629e-003 -1.009689e-002 -1.991201e-003 -1.677706e-003 1.273018e-003 -5.906099e-003 3.140823e-003 -4.437557e-003 -1.935829e-003 1.884321e-003 -4.071622e-003 4.608293e-003 -8.069554e-004 -6.148763e-005 3.501636e-003
<VARIANCE> 39
 9.735548e-001 2.117237e+000 3.715327e+000 5.311404e+000 7.276904e+000 8.788949e+000 1.011430e+001 1.079420e+001 1.118147e+001 1.155140e+001 1.091540e+001 1.005247e+001 2.778518e-001 9.853988e-002 2.176952e-001 3.736082e-001 5.550391e-001 7.623241e-001 9.451205e-001 1.142925e+000 1.224735e+000 1.281949e+000 1.314593e+000 1.261727e+000 1.140376e+000 2.671451e-002 2.048884e-002 4.513512e-002 7.712492e-002 1.142852e-001 1.570966e-001 1.947331e-001 2.364791e-001 2.531640e-001 2.676082e-001 2.741618e-001 2.647996e-001 2.371062e-001 5.484729e-003
<GCONST> 5.576279e+001
<STATE> 4
<MEAN> 39
 -9.857614e+000 -4.231339e-001 -2.040717e+000 -8.553378e-002 -6.914797e-001 -1.503933e+000 -9.223668e-001 1.159907e+000 -1.656386e+000 3.727454e-001 6.030178e-001 6.427304e-001 4.559310e+001 1.715964e-002 9.786132e-003 3.569486e-002 -3.071784e-002 1.456644e-002 -4.048778e-002 -3.896375e-002 -4.260089e-003 -3.846607e-002 3.024957e-002 2.495485e-002 1.752245e-002 2.627440e-002 4.983281e-004 5.106620e-003 1.940404e-002 -1.912212e-002 -1.798583e-002 -1.362188e-002 7.862882e-004 -6.219410e-003 -1.259950e-002 -1.999936e-003 1.030723e-002 -1.049854e-003 1.598770e-002
<VARIANCE> 39
 2.267285e+000 3.588867e+000 7.033727e+000 1.019105e+001 1.168063e+001 1.364722e+001 1.427041e+001 1.632408e+001 1.266492e+001 1.380125e+001 1.336898e+001 1.308290e+001 3.311482e+000 2.257599e-001 3.759966e-001 6.243478e-001 8.928062e-001 1.245325e+000 1.345745e+000 1.281120e+000 1.268520e+000 1.518733e+000 1.606954e+000 1.429378e+000 1.209462e+000 8.934298e-002 4.802007e-002 7.869110e-002 1.284022e-001 1.854136e-001 2.541649e-001 2.733775e-001 2.638756e-001 2.462180e-001 2.999164e-001 3.145669e-001 2.724893e-001 2.280189e-001 1.842190e-002
<GCONST> 7.321867e+001
<TRANSP> 5
 0.000000e+000 1.000000e+000 0.000000e+000 0.000000e+000 0.000000e+000
 0.000000e+000 8.599756e-001 1.400244e-001 0.000000e+000 0.000000e+000
 0.000000e+000 0.000000e+000 9.828854e-001 1.711457e-002 0.000000e+000
 0.000000e+000 0.000000e+000 0.000000e+000 7.792169e-001 2.207832e-001
 0.000000e+000 0.000000e+000 0.000000e+000 0.000000e+000 0.000000e+000
<ENDHMM>
~h "tri"
<BEGINHMM>
<NUMSTATES> 10
<STATE> 2
<MEAN> 39
 -9.642048e+000 -5.143638e-001 -2.132879e+000 1.156517e+000 4.459578e-001 5.976145e-001 3.869446e-002 1.486193e+000 -1.261119e+000 5.034258e-001 1.585432e+000 1.693367e+000 4.581292e+001 -2.264113e-001 -1.670730e-001 6.055880e-001 -4.924332e-001 6.073617e-001 -6.323149e-001 -1.707636e-001 3.515330e-001 -3.218819e-001 -3.429178e-001 1.701824e-001 1.213509e-001 3.201293e-001 -4.347736e-001 -3.259006e-001 4.228028e-001 -7.259771e-001 2.425074e-001 -5.577903e-001 6.433314e-002 2.175391e-001 -1.979559e-001 8.703403e-002 -1.491746e-001 -1.155158e-001 5.027619e-001
<VARIANCE> 39
 9.054685e-001 2.023336e+000 1.782608e+000 3.355810e+000 5.381875e+000 8.429065e+000 1.034628e+001 1.006361e+001 1.043598e+001 1.552704e+001 6.861203e+000 9.176445e+000 2.869100e-001 1.820863e-001 2.671876e-001 5.304610e-001 1.130843e+000 1.349824e+000 1.099597e+000 1.480259e+000 1.505733e+000 1.191009e+000 1.532653e+000 1.387120e+000 7.385226e-001 1.105998e-001 2.927521e-002 1.160426e-001 1.429422e-001 3.147924e-001 2.431125e-001 2.232396e-001 3.916652e-001 3.629302e-001 1.291020e-001 5.101106e-001 2.201385e-001 1.671261e-001 5.194247e-002
<GCONST> 6.396886e+001
<STATE> 3
<MEAN> 39
 -9.771504e+000 3.595734e-002 -1.845560e+000 4.641019e-001 6.769930e-001 -6.876668e-001 -8.373065e-001 1.836411e+000 -2.634860e+000 -7.167245e-001 5.771182e-001 2.944629e-001 4.614342e+001 -1.364324e+000 -1.278594e+000 1.574896e+000 -1.964116e+000 1.210965e+000 -1.675443e+000 3.082134e-001 1.101878e+000 -4.547514e-001 2.588521e-001 -5.222045e-001 -3.679299e-001 1.542048e+000 -5.913749e-001 -2.537161e-001 3.102646e-001 -5.803792e-001 1.633530e-001 -5.333596e-001 2.371746e-001 8.888000e-002 3.731063e-002 4.202751e-001 3.450798e-002 1.323845e-001 6.056549e-001
<VARIANCE> 39
 9.934003e-001 2.527011e+000 2.059451e+000 6.258919e+000 1.111965e+001 7.254374e+000 1.035273e+001 1.022481e+001 1.186462e+001 1.079325e+001 1.423429e+001 8.167885e+000 3.328211e-001 2.583824e-001 8.365153e-001 1.321274e+000 2.849519e+000 1.933306e+000 1.402189e+000 2.600537e+000 2.328828e+000 1.152165e+000 2.907913e+000 1.011330e+000 6.068826e-001 3.730064e-001 3.250811e-002 1.630614e-001 1.664260e-001 2.184992e-001 2.698575e-001 3.592961e-001 3.666743e-001 3.152744e-001 2.092452e-001 1.793008e-001 3.332367e-001 1.992073e-001 6.209284e-002
<GCONST> 7.322220e+001
<STATE> 4
<MEAN> 39
 -1.429582e+001 -2.735961e+000 2.163295e+000 -3.651942e+000 1.353765e+000 -4.359756e+000 5.197743e-002 6.183276e+000 -2.969214e+000 -5.671309e-001 1.262521e+000 9.301381e-001 5.052197e+001 -2.073149e+000 -5.649531e-001 1.297441e+000 -2.179724e+000 1.217540e+000 -2.101568e+000 2.409036e-002 4.471810e-001 -4.426270e-001 8.162281e-001 -2.070478e-001 4.706690e-001 1.823658e+000 -2.827844e-001 3.195657e-001 6.104550e-002 -2.742484e-001 3.395163e-001 -5.023066e-002 2.097464e-001 -3.425262e-001 2.489073e-001 2.802278e-001 2.096830e-002 3.039728e-001 4.257946e-002
<VARIANCE> 39
 7.422787e+000 6.698268e+000 1.404095e+001 2.933636e+001 3.003857e+001 2.110956e+001 2.256739e+001 2.617966e+001 1.629034e+001 1.690260e+001 1.501391e+001 5.218844e+000 6.724862e+000 6.939026e-001 1.505175e+000 1.349161e+000 2.703265e+000 2.675618e+000 2.557261e+000 2.269567e+000 2.276040e+000 1.089268e+000 2.552531e+000 1.555906e+000 8.599133e-001 8.682441e-001 1.132946e-001 1.522436e-001 2.754439e-001 1.830641e-001 6.457962e-001 2.915280e-001 4.384593e-001 3.798526e-001 3.708171e-001 4.268639e-001 3.196911e-001 1.254733e-001 1.057334e-001
<GCONST> 9.458233e+001
<STATE> 5
<MEAN> 39
 -1.675467e+001 -4.454899e+000 4.294483e+000 -8.877651e+000 5.321280e+000 -7.884163e+000 2.777018e+000 3.809020e+000 -3.394241e+000 3.882884e+000 1.100354e+000 2.535299e+000 5.408929e+001 -1.668718e+000 2.660684e-001 1.250248e+000 -1.600715e+000 1.135832e+000 -8.127171e-001 1.336612e+000 2.988337e-001 3.625990e-001 1.771776e-001 3.935501e-001 4.665671e-001 1.248916e+000 -3.872729e-002 4.451349e-001 5.775471e-002 2.283259e-001 7.523308e-002 3.545779e-001 -4.258521e-002 -2.148671e-001 3.320165e-001 -5.485576e-001 3.749545e-002 -1.010351e-001 -2.701976e-001
<VARIANCE> 39
 1.282606e+001 2.030685e+001 1.296137e+001 3.086934e+001 1.761474e+001 3.437001e+001 4.621478e+001 2.988776e+001 1.986099e+001 2.229298e+001 1.508449e+001 8.580675e+000 1.363207e+001 1.627587e+000 2.647863e+000 1.917064e+000 3.057433e+000 2.601696e+000 3.643269e+000 2.889360e+000 2.167744e+000 1.850722e+000 2.869892e+000 2.458549e+000 1.041637e+000 1.474519e+000 2.020355e-001 5.002080e-001 3.629283e-001 4.970860e-001 2.770751e-001 7.215463e-001 7.124613e-001 5.106282e-001 4.235926e-001 5.343661e-001 4.556938e-001 2.398953e-001 2.322290e-001
<GCONST> 1.089635e+002
<STATE> 6
<MEAN> 39
 -2.610216e+001 8.943460e-002 1.024683e+001 -1.419377e+001 1.107550e+001 -1.007300e+001 5.278376e+000 2.744858e+000 1.863397e+000 -1.255773e+000 2.024568e+000 3.633493e+000 5.755205e+001 -1.049152e+000 6.534988e-001 4.235693e-001 -1.811601e-001 2.413009e-001 -2.385696e-001 9.075323e-002 -6.150930e-001 6.636358e-001 -1.317456e+000 1.296070e-001 -2.539517e-001 3.506674e-001 4.324286e-001 -1.430631e-001 -3.858478e-001 4.455675e-001 -5.222166e-001 -5.662663e-003 -1.585864e-001 1.169632e-001 -3.469392e-001 1.989691e-002 5.164108e-002 -1.861797e-001 -1.611839e-001
<VARIANCE> 39
 9.038758e+000 1.205604e+001 3.097118e+001 5.054922e+001 2.687374e+001 2.050588e+001 3.421101e+001 2.430887e+001 2.337651e+001 2.385633e+001 2.615172e+001 1.569683e+001 6.756854e+000 1.194823e+000 9.114711e-001 1.923748e+000 1.941056e+000 2.084365e+000 1.736621e+000 1.967915e+000 2.485437e+000 2.823184e+000 2.213115e+000 1.957464e+000 1.557026e+000 2.092714e-001 1.130998e-001 9.724907e-002 2.311274e-001 2.621740e-001 2.766797e-001 3.688809e-001 3.591405e-001 4.400115e-001 4.627944e-001 5.451385e-001 3.714459e-001 2.741698e-001 2.643757e-002
<GCONST> 9.793530e+001
<STATE> 7
<MEAN> 39
 -2.391258e+001 6.009517e-001 7.962361e+000 -1.114342e+001 4.475433e+000 -1.464496e+001 3.599350e+000 1.452345e+000 -1.580679e+000 -4.440901e+000 3.071784e+000 5.919241e-001 5.785184e+001 2.322486e+000 -1.558198e+000 -1.695774e-001 -1.107277e-001 -3.269057e+000 -2.032328e+000 -8.852046e-001 -2.064788e-001 -1.051072e+000 6.430876e-001 7.064021e-005 -4.829809e-001 5.426022e-001 5.077156e-001 -6.473098e-001 2.185569e-001 -4.237313e-001 -6.761290e-001 -2.063169e-001 -1.282132e-001 1.645506e-002 1.761033e-002 5.292526e-001 -6.872706e-002 1.806115e-002 3.060817e-001
<VARIANCE> 39
 4.124301e+001 2.417038e+001 1.900438e+001 3.285265e+001 5.893355e+001 3.471622e+001 3.779067e+001 1.411547e+001 2.799802e+001 1.975386e+001 2.410862e+001 1.828954e+001 5.850311e+000 3.489599e+000 3.595948e+000 1.224396e+000 2.203742e+000 5.586739e+000 3.151253e+000 3.267970e+000 1.576720e+000 1.900036e+000 2.810401e+000 2.389382e+000 1.552406e+000 1.056906e+000 4.986053e-001 2.707587e-001 1.925406e-001 2.542472e-001 7.312889e-001 5.998415e-001 6.083719e-001 3.993100e-001 3.834049e-001 4.632258e-001 3.227716e-001 3.009834e-001 1.323579e-001
<GCONST> 1.108233e+002
<STATE> 8
<MEAN> 39
 -1.316435e+001 -1.258385e+001 1.491082e+001 -2.429640e+001 -1.257169e+001 -1.648655e+001 3.608569e-001 2.598024e+000 -1.851523e+000 1.201884e+001 -4.968744e+000 -2.567416e+000 6.314185e+001 5.266858e-001 -3.965931e-001 1.925275e-001 -4.972060e-001 -4.919756e-001 6.986437e-001 -1.576437e-001 -1.192023e-001 -3.046431e-001 8.241053e-001 1.492748e-001 9.479889e-002 4.684708e-002 -3.743368e-001 4.047854e-001 -4.229289e-002 2.303123e-001 5.833465e-001 3.032309e-001 1.344132e-001 3.282300e-003 7.514853e-004 -9.630814e-002 6.334022e-002 1.281176e-002 -2.520021e-001
<VARIANCE> 39
 1.836469e+001 2.162940e+001 4.571122e+001 4.416830e+001 2.371654e+001 4.467333e+001 2.158220e+001 5.683991e+001 4.660252e+001 9.965981e+001 7.916505e+001 4.286822e+001 1.237981e+001 1.583416e+000 3.633204e+000 2.931180e+000 3.207604e+000 5.581590e+000 2.033872e+000 1.711034e+000 1.900782e+000 2.375489e+000 6.534385e+000 2.727356e+000 1.407284e+000 1.328214e+000 3.673008e-001 3.772289e-001 3.217724e-001 1.535726e-001 7.952493e-001 5.269879e-001 3.119987e-001 3.452489e-001 3.234028e-001 5.917953e-001 3.096040e-001 2.511420e-001 8.901010e-002
<GCONST> 1.157008e+002
<STATE> 9
<MEAN> 39
 -1.024807e+001 -8.396101e+000 1.150643e+001 -1.550999e+001 -1.571014e+001 -1.526382e+001 -2.178725e-001 -3.813450e-001 -9.154641e+000 9.707984e+000 2.416793e+000 -1.578439e+000 5.906397e+001 1.132272e-002 4.299742e-001 -2.618285e-001 4.865469e-001 3.319326e-001 7.508710e-001 4.204380e-002 -4.724706e-002 -7.414991e-002 2.555690e-002 -1.858070e-001 -5.784789e-002 -5.843980e-001 -7.825825e-003 8.443043e-003 -6.961471e-002 6.309514e-002 5.400446e-002 1.615692e-002 1.039737e-002 2.778699e-002 7.793490e-002 -1.026883e-001 -9.671967e-003 2.715592e-002 -2.685113e-002
<VARIANCE> 39
 7.653076e+000 2.822929e+001 2.405820e+001 1.920494e+002 4.591951e+001 7.434634e+001 3.174705e+001 1.589474e+001 3.935287e+001 7.182993e+001 6.135791e+001 1.299005e+001 2.737011e+001 1.811385e-001 3.827388e-001 8.785929e-001 1.137032e+000 1.282754e+000 1.320517e+000 1.077035e+000 1.101939e+000 1.538904e+000 1.944594e+000 1.378175e+000 7.659506e-001 3.162791e-001 3.661600e-002 7.252467e-002 1.197921e-001 1.002533e-001 1.641041e-001 2.583451e-001 2.037764e-001 2.074004e-001 2.549678e-001 2.924107e-001 2.272530e-001 1.321525e-001 2.931741e-002
<GCONST> 8.950609e+001
<TRANSP> 10
 0.000000e+000 1.000000e+000 0.000000e+000 0.000000e+000 0.000000e+000 0.000000e+000 0.000000e+000 0.000000e+000 0.000000e+000 0.000000e+000
 0.000000e+000 3.739989e-001 6.260011e-001 0.000000e+000 0.000000e+000 0.000000e+000 0.000000e+000 0.000000e+000 0.000000e+000 0.000000e+000
 0.000000e+000 0.000000e+000 1.595353e-001 8.404647e-001 0.000000e+000 0.000000e+000 0.000000e+000 0.000000e+000 0.000000e+000 0.000000e+000
 0.000000e+000 0.000000e+000 0.000000e+000 4.867531e-001 5.132468e-001 0.000000e+000 0.000000e+000 0.000000e+000 0.000000e+000 0.000000e+000
 0.000000e+000 0.000000e+000 0.000000e+000 0.000000e+000 6.963121e-001 3.036879e-001 0.000000e+000 0.000000e+000 0.000000e+000 0.000000e+000
 0.000000e+000 0.000000e+000 0.000000e+000 0.000000e+000 0.000000e+000 8.278755e-001 1.721245e-001 0.000000e+000 0.000000e+000 0.000000e+000
 0.000000e+000 0.000000e+000 0.000000e+000 0.000000e+000 0.000000e+000 0.000000e+000 8.189256e-001 1.810743e-001 0.000000e+000 0.000000e+000
 0.000000e+000 0.000000e+000 0.000000e+000 0.000000e+000 0.000000e+000 0.000000e+000 0.000000e+000 8.778597e-001 1.221403e-001 0.000000e+000
 0.000000e+000 0.000000e+000 0.000000e+000 0.000000e+000 0.000000e+000 0.000000e+000 0.000000e+000 0.000000e+000 9.462289e-001 5.377117e-002
 0.000000e+000 0.000000e+000 0.000000e+000 0.000000e+000 0.000000e+000 0.000000e+000 0.000000e+000 0.000000e+000 0.000000e+000 0.000000e+000
<ENDHMM>
~h "nula"
<BEGINHMM>
<NUMSTATES> 10
<STATE> 2
<MEAN> 39
 -9.497349e+000 5.954395e-003 -3.768186e+000 -3.676119e+000 -3.707208e+000 -4.931321e+000 -5.149290e+000 -3.430962e+000 -3.325736e+000 -5.718945e-001 -1.222343e+000 -1.606432e+000 4.237250e+001 1.329667e-002 2.368511e-002 1.275550e-001 -1.011892e-001 -4.363987e-002 -1.598890e-001 -1.154342e-001 -1.203845e-001 -4.110804e-002 -4.798049e-002 -1.194671e-001 -5.903900e-002 7.407676e-002 3.841072e-002 4.978953e-003 -2.829740e-002 -2.202285e-002 -7.335079e-002 -5.223645e-002 4.898693e-002 -1.846190e-002 -3.966722e-002 -1.777068e-002 -4.076710e-002 -7.256768e-002 3.110603e-002
<VARIANCE> 39
 1.717567e+000 3.194804e+000 1.092274e+001 1.234296e+001 1.284440e+001 1.136921e+001 1.009251e+001 1.448242e+001 1.118285e+001 1.346503e+001 1.076373e+001 1.009581e+001 1.020595e+001 1.473594e-001 4.549563e-001 6.476015e-001 1.113165e+000 9.759284e-001 1.716509e+000 1.243712e+000 1.339943e+000 1.486890e+000 1.446881e+000 1.605305e+000 1.053670e+000 9.943034e-002 2.968679e-002 8.107445e-002 1.317387e-001 2.373300e-001 2.448681e-001 3.883716e-001 2.752621e-001 3.011590e-001 2.747701e-001 3.211132e-001 3.158091e-001 1.744376e-001 2.217074e-002
<GCONST> 7.378498e+001
<STATE> 3
<MEAN> 39
 -1.005754e+001 -2.015429e-001 -1.323510e-001 5.748387e-001 -6.341427e-001 -1.323913e+000 -6.539415e-001 9.459398e-001 -7.523214e-001 6.182179e-001 6.379069e-001 7.079779e-001 4.654101e+001 4.249533e-001 2.951699e-001 -3.494501e-001 -2.850657e-001 -1.897911e-001 -9.117005e-001 -1.498363e-001 -2.540690e-001 -6.337572e-001 2.383977e-002 -7.453153e-001 -6.669266e-001 2.059281e-001 3.057937e-001 -3.085081e-003 -1.929697e-002 -4.683821e-001 -5.267535e-001 -4.774066e-001 -3.403268e-001 -2.514382e-001 -4.393441e-001 -8.507787e-002 -3.496241e-001 -9.508467e-002 2.913489e-001
<VARIANCE> 39
 4.018822e+000 9.564437e+000 1.460489e+001 1.557007e+001 1.720646e+001 2.569553e+001 1.275193e+001 9.438215e+000 1.536665e+001 9.962650e+000 1.696170e+001 9.971096e+000 3.646748e+000 4.302956e-001 5.181826e-001 1.401456e+000 1.510699e+000 2.090917e+000 2.092451e+000 1.986532e+000 1.442207e+000 1.787515e+000 1.882967e+000 1.071613e+000 7.291312e-001 3.081714e-001 1.051170e-001 1.869342e-001 4.973075e-001 4.772533e-001 7.268491e-001 5.360232e-001 4.278002e-001 4.285233e-001 2.526022e-001 3.393120e-001 3.458063e-001 1.678040e-001 1.022225e-001
<GCONST> 8.906699e+001
<STATE> 4
<MEAN> 39
 -8.705091e+000 6.982217e-001 -1.637167e+000 -9.051312e-001 -2.123073e+000 -4.589876e+000 -3.059348e+000 -8.743152e-001 -3.814745e+000 -4.265018e-001 -1.542717e+000 -9.563384e-001 4.663131e+001 1.335158e+000 -1.063856e-002 6.253427e-001 -1.754056e+000 -2.605855e+000 -2.310038e+000 -1.443796e+000 -1.379523e+000 -1.598046e+000 -2.373954e-001 -1.657456e+000 -7.502156e-001 1.384932e+000 2.022498e-001 -1.821113e-001 2.289975e-001 -5.712434e-001 -5.088702e-001 -3.027615e-001 -1.119420e-001 -7.469319e-002 -8.619916e-002 2.583694e-001 -1.410164e-001 1.267359e-001 4.764137e-001
<VARIANCE> 39
 1.851482e+000 3.347543e+000 6.487154e+000 5.447519e+000 8.456306e+000 2.257963e+001 1.646001e+001 1.365130e+001 1.824480e+001 2.248999e+001 1.145798e+001 5.560069e+000 2.323729e+000 4.814979e-001 9.859260e-001 1.729873e+000 1.846073e+000 3.991840e+000 4.319824e+000 2.263307e+000 1.909502e+000 2.408594e+000 3.780843e+000 1.881248e+000 8.726605e-001 2.734066e-001 1.653360e-001 1.342528e-001 3.157032e-001 9.726655e-002 2.033740e-001 4.953727e-001 3.981903e-001 5.454899e-001 3.531759e-001 2.703577e-001 3.015476e-001 2.756184e-001 6.603678e-002
<GCONST> 8.621568e+001
<STATE> 5
<MEAN> 39
 -5.214213e+000 1.080400e+000 -1.857816e+000 -5.218437e+000 -7.261721e+000 -1.025390e+001 -4.652469e+000 -2.642097e+000 -7.520051e+000 9.410205e-001 -4.182778e+000 -1.192643e+000 5.049199e+001 1.159810e+000 -1.315871e-001 2.507250e-001 -2.638185e+000 -2.068642e+000 -1.495567e+000 -2.497717e-001 -8.212044e-001 -1.163275e+000 7.558914e-002 -8.085951e-001 6.994696e-002 1.585296e+000 -1.879783e-001 -1.226049e-001 7.870990e-002 1.062847e-002 3.452713e-001 4.863579e-001 1.971929e-001 2.812224e-001 4.525651e-001 9.085984e-002 2.024757e-001 1.825348e-001 -2.108817e-002
<VARIANCE> 39
 5.007253e+000 3.631257e+000 2.120691e+001 1.357342e+001 3.502134e+001 2.085776e+001 1.923452e+001 1.983525e+001 1.722415e+001 3.329507e+001 1.548916e+001 9.675697e+000 4.469793e+000 8.961231e-001 9.214343e-001 3.172476e+000 1.359852e+000 2.498378e+000 5.104102e+000 3.143646e+000 3.803437e+000 2.013405e+000 1.355849e+000 2.930936e+000 1.651231e+000 5.075347e-001 8.713672e-002 1.841396e-001 1.674357e-001 3.257801e-001 3.692670e-001 3.397543e-001 3.343039e-001 3.185075e-001 3.610720e-001 4.540748e-001 1.883707e-001 2.663180e-001 6.266002e-002
<GCONST> 9.490982e+001
<STATE> 6
<MEAN> 39
 -3.013286e+000 9.300117e-003 -7.882518e-001 -1.080435e+001 -1.130223e+001 -1.144747e+001 -4.408780e+000 -4.595045e+000 -8.292599e+000 1.696830e+000 -3.905795e+000 -1.376620e+000 5.383236e+001 3.381358e-001 -8.169206e-001 -1.186769e-001 -5.101759e-001 -3.581480e-001 -4.718665e-001 -7.481424e-001 4.073269e-002 5.846167e-001 -1.245277e-002 7.181130e-002 4.872784e-003 8.333530e-001 -1.440835e-001 -3.348448e-001 -3.489345e-001 3.667445e-001 4.285764e-001 2.774081e-001 -1.299482e-001 2.429084e-001 4.820891e-001 -8.438827e-003 3.495343e-001 3.413625e-002 -5.130747e-002
<VARIANCE> 39
 1.026207e+001 1.060458e+001 5.606037e+001 1.157317e+001 3.425295e+001 2.318465e+001 2.949349e+001 3.520396e+001 3.618418e+001 2.629172e+001 3.539980e+001 3.071406e+001 3.067372e+000 7.377645e-001 1.264200e+000 1.306276e+000 2.756177e+000 1.589047e+000 1.076160e+000 1.466470e+000 2.092564e+000 2.676296e+000 1.730964e+000 2.281250e+000 1.594932e+000 4.520091e-001 5.916623e-002 2.072058e-001 3.090754e-001 3.916659e-001 4.078246e-001 4.968722e-001 2.175697e-001 2.950550e-001 4.709536e-001 4.058773e-001 3.300542e-001 3.852469e-001 7.655251e-002
<GCONST> 9.919251e+001
<STATE> 7
<MEAN> 39
 -2.103118e+000 -6.101182e+000 -4.093276e+000 -1.370604e+001 -1.292313e+001 -8.544515e+000 -8.466404e+000 -3.915185e+000 -4.811783e+000 1.769536e+000 5.932194e-002 -7.174539e-001 5.829315e+001 7.062472e-002 -1.143885e+000 -6.443092e-001 -1.510609e+000 5.657988e-001 4.260454e-001 -4.378378e-001 7.958219e-001 5.323476e-001 5.326795e-001 3.901243e-001 -3.636981e-001 9.075579e-001 -5.650414e-002 9.467170e-002 -7.345869e-002 -3.683383e-001 3.206278e-001 1.864242e-001 1.806504e-001 3.084443e-002 -1.508498e-001 1.746271e-001 -1.552108e-002 -1.512342e-001 -5.407688e-002
<VARIANCE> 39
 2.575206e+001 2.785779e+001 3.972127e+001 4.815959e+001 3.572745e+001 4.085203e+001 4.540176e+001 5.709153e+001 3.226683e+001 3.797215e+001 8.834656e+001 3.524561e+001 1.249721e+001 1.301174e+000 2.423183e+000 1.838127e+000 3.827607e+000 4.078244e+000 3.763145e+000 3.596048e+000 2.182502e+000 3.350523e+000 3.085194e+000 4.509762e+000 3.478766e+000 8.408998e-001 2.724200e-001 3.541971e-001 2.497374e-001 6.753105e-001 5.700897e-001 6.045012e-001 5.750385e-001 5.711485e-001 4.278497e-001 5.202394e-001 9.188452e-001 3.756873e-001 1.151772e-001
<GCONST> 1.204169e+002
<STATE> 8
<MEAN> 39
 -3.366952e+000 -1.328792e+001 -8.648900e+000 -2.540823e+001 -1.937840e+000 -2.230674e+000 -6.401524e+000 2.420470e-001 -2.581293e+000 7.238377e+000 1.480920e-003 -5.053586e+000 6.270798e+001 -1.901510e-001 -4.029840e-001 -2.841771e-001 -4.407061e-001 8.328492e-001 5.666327e-001 4.610148e-001 5.905217e-002 -1.106518e-002 2.938289e-001 -2.367310e-001 -1.240705e-001 2.685795e-001 -1.210196e-002 4.402169e-002 6.850623e-002 2.188014e-001 -4.585239e-002 -5.755654e-002 4.427889e-002 -5.601487e-003 -6.829300e-002 -7.366783e-002 -1.229689e-001 8.942380e-002 -6.065739e-002
<VARIANCE> 39
 1.083440e+001 1.737084e+001 4.405666e+001 7.771064e+001 5.353857e+001 7.033414e+001 9.914119e+001 5.287838e+001 7.842310e+001 5.138766e+001 4.722967e+001 4.448252e+001 1.983962e+001 2.591212e-001 9.200557e-001 1.060853e+000 2.317826e+000 4.898187e+000 2.732414e+000 2.561244e+000 3.548946e+000 3.245301e+000 3.364132e+000 3.394637e+000 1.943671e+000 3.095901e-001 4.332205e-002 1.795926e-001 1.849051e-001 3.822944e-001 7.944286e-001 4.553990e-001 4.720541e-001 6.729538e-001 6.144091e-001 6.035145e-001 4.485710e-001 3.640922e-001 5.400940e-002
<GCONST> 1.127707e+002
<STATE> 9
<MEAN> 39
 -7.342574e+000 -1.655189e+001 -8.392249e+000 -1.834548e+001 9.801024e+000 1.109498e+000 -3.643621e+000 2.606491e+000 -2.401667e+000 5.444905e+000 -1.135867e+001 -3.823454e+000 6.042221e+001 -6.878903e-002 5.900842e-001 1.065348e-001 1.037673e+000 -2.148484e-001 7.809763e-002 1.445207e-001 -4.451078e-002 -3.928888e-002 -3.916356e-001 8.672746e-002 6.558429e-002 -7.743940e-001 4.428321e-003 3.913430e-002 2.720064e-002 1.709618e-002 -1.057243e-001 -3.816151e-002 -4.795724e-002 -6.440936e-003 5.958829e-002 -4.607373e-003 1.402695e-001 -4.880603e-003 -2.779718e-002
<VARIANCE> 39
 7.183485e+000 6.659399e+001 1.470758e+001 7.190457e+001 3.941137e+001 3.959924e+001 5.730297e+001 3.619732e+001 3.970700e+001 4.254808e+001 5.078775e+001 2.543195e+001 5.811800e+001 3.119046e-001 1.279178e+000 8.350159e-001 1.282761e+000 1.372508e+000 2.164822e+000 1.730195e+000 1.574467e+000 2.147448e+000 2.026604e+000 2.202975e+000 1.724893e+000 4.323842e-001 4.359645e-002 1.403928e-001 1.647570e-001 2.111072e-001 3.025557e-001 3.538637e-001 2.917072e-001 2.938713e-001 4.363721e-001 3.849733e-001 3.481461e-001 3.435851e-001 3.318939e-002
<GCONST> 1.012095e+002
<TRANSP> 10
 0.000000e+000 1.000000e+000 0.000000e+000 0.000000e+000 0.000000e+000 0.000000e+000 0.000000e+000 0.000000e+000 0.000000e+000 0.000000e+000
 0.000000e+000 7.975411e-001 2.024589e-001 0.000000e+000 0.000000e+000 0.000000e+000 0.000000e+000 0.000000e+000 0.000000e+000 0.000000e+000
 0.000000e+000 0.000000e+000 4.646416e-001 5.353584e-001 0.000000e+000 0.000000e+000 0.000000e+000 0.000000e+000 0.000000e+000 0.000000e+000
 0.000000e+000 0.000000e+000 0.000000e+000 2.189636e-001 7.810364e-001 0.000000e+000 0.000000e+000 0.000000e+000 0.000000e+000 0.000000e+000
 0.000000e+000 0.000000e+000 0.000000e+000 0.000000e+000 4.831260e-001 5.168740e-001 0.000000e+000 0.000000e+000 0.000000e+000 0.000000e+000
 0.000000e+000 0.000000e+000 0.000000e+000 0.000000e+000 0.000000e+000 7.457389e-001 2.542612e-001 0.000000e+000 0.000000e+000 0.000000e+000
 0.000000e+000 0.000000e+000 0.000000e+000 0.000000e+000 0.000000e+000 0.000000e+000 8.455605e-001 1.544395e-001 0.000000e+000 0.000000e+000
 0.000000e+000 0.000000e+000 0.000000e+000 0.000000e+000 0.000000e+000 0.000000e+000 0.000000e+000 9.416376e-001 5.836235e-002 0.000000e+000
 0.000000e+000 0.000000e+000 0.000000e+000 0.000000e+000 0.000000e+000 0.000000e+000 0.000000e+000 0.000000e+000 9.513962e-001 4.860373e-002
 0.000000e+000 0.000000e+000 0.000000e+000 0.000000e+000 0.000000e+000 0.000000e+000 0.000000e+000 0.000000e+000 0.000000e+000 0.000000e+000
<ENDHMM>
~h "devet"
<BEGINHMM>
<NUMSTATES> 10
<STATE> 2
<MEAN> 39
 -7.566610e+000 2.016262e+000 -5.792621e-001 1.457304e-001 -1.478856e+000 -3.155799e+000 -2.812675e+000 -9.017272e-001 -2.936618e+000 1.446565e+000 1.132252e+000 3.893621e-001 4.695282e+001 4.598850e-001 4.647711e-001 2.174369e-001 -9.604715e-002 -6.509848e-001 -3.527704e-001 -2.192408e-001 -2.318377e-001 -3.462772e-002 -1.983713e-002 7.379277e-003 -2.073502e-001 2.195847e-001 -4.022305e-002 -1.322759e-001 2.694493e-002 -1.468343e-001 -1.055003e-001 -2.224046e-001 1.034146e-001 1.364271e-001 2.900474e-002 -1.937900e-002 -2.925404e-002 1.266125e-001 7.650394e-002
<VARIANCE> 39
 3.087813e+000 4.682103e+000 6.338887e+000 6.370479e+000 2.300738e+001 1.220125e+001 1.093278e+001 1.344670e+001 1.207821e+001 1.398717e+001 1.003652e+001 6.750436e+000 1.697749e+000 3.417661e-001 5.390388e-001 5.087020e-001 8.768419e-001 1.525637e+000 1.528211e+000 1.405666e+000 1.645385e+000 1.696055e+000 1.268611e+000 1.226379e+000 9.847330e-001 1.065491e-001 8.890583e-002 7.935425e-002 1.087793e-001 1.843881e-001 3.279908e-001 3.541527e-001 3.100582e-001 4.071444e-001 4.376123e-001 3.376530e-001 3.820193e-001 1.991745e-001 3.606309e-002
<GCONST> 7.555511e+001
<STATE> 3
<MEAN> 39
 -6.943906e+000 1.810319e+000 -1.878004e+000 -2.107246e+000 -5.630773e+000 -4.794461e+000 -3.476082e+000 -1.028498e+000 -2.302473e+000 5.818220e-001 1.351954e+000 1.002842e+000 4.723540e+001 2.503945e-001 -1.855139e-001 1.638896e-002 -4.835478e-001 -9.106528e-001 -1.392746e+000 -1.707579e-001 -2.319793e-001 -2.781351e-001 -3.449764e-001 -2.822330e-001 1.742711e-001 4.406602e-001 -2.269073e-001 -3.063630e-001 3.521597e-001 -2.273393e-001 2.655037e-001 -2.893332e-001 7.673925e-002 2.643929e-001 -5.939253e-002 5.355808e-002 -1.480498e-001 4.993675e-002 2.661623e-001
<VARIANCE> 39
 3.564178e+000 3.500672e+000 5.474943e+000 1.020441e+001 2.131532e+001 2.409778e+001 2.187433e+001 1.170806e+001 1.046685e+001 9.112653e+000 1.123032e+001 8.544288e+000 1.113613e+000 3.949941e-001 7.117848e-001 5.253752e-001 1.303952e+000 1.183788e+000 1.846836e+000 1.508666e+000 1.470245e+000 2.223131e+000 1.565823e+000 1.653063e+000 7.194109e-001 2.203365e-001 1.261750e-001 9.414483e-002 1.995821e-001 2.873937e-001 8.075184e-001 1.291778e+000 5.025076e-001 3.816702e-001 2.777410e-001 2.593240e-001 2.598065e-001 2.078304e-001 9.105816e-002
<GCONST> 8.223398e+001
<STATE> 4
<MEAN> 39
 -8.013482e+000 7.529386e-001 -1.128970e+000 2.499211e-001 -4.060418e+000 -4.068590e+000 -1.357688e+000 5.636464e-001 -2.646607e+000 -1.652571e+000 3.898919e-001 1.401183e-001 4.690731e+001 1.222492e-001 -2.188748e-001 5.697230e-001 -1.046358e+000 -3.017145e-001 -1.338728e+000 -5.709009e-001 2.179023e-001 -4.862622e-001 -6.991717e-002 -3.810646e-001 -6.040433e-002 6.427973e-001 -8.745617e-002 -3.705164e-001 3.955358e-001 -7.044871e-001 -2.777191e-001 -6.807084e-001 -2.894405e-001 1.755603e-001 -6.743286e-002 3.110998e-001 -3.739302e-002 -4.211750e-002 5.075033e-001
<VARIANCE> 39
 4.897690e+000 1.017587e+001 7.489614e+000 1.440381e+001 2.029889e+001 2.297936e+001 1.857211e+001 1.237787e+001 7.674620e+000 8.132309e+000 1.532091e+001 1.262602e+001 1.394532e+000 9.897486e-001 9.209024e-001 8.915380e-001 1.623541e+000 3.894494e+000 6.107780e+000 3.062012e+000 2.299332e+000 1.681992e+000 1.512244e+000 2.151507e+000 1.798821e+000 5.270627e-001 1.850870e-001 3.615823e-001 3.380970e-001 2.934438e-001 7.298367e-001 8.386873e-001 5.070590e-001 4.491410e-001 2.942289e-001 2.308611e-001 1.701173e-001 2.758483e-001 1.762222e-001
<GCONST> 9.415581e+001
<STATE> 5
<MEAN> 39
 -6.255984e+000 2.031492e-001 -9.113400e-001 -2.645805e+000 -5.629532e+000 -7.339895e+000 -3.234130e+000 -1.146194e+000 -5.180521e+000 -1.190524e+000 -1.866111e+000 3.433871e-001 4.922867e+001 -4.948316e-001 -1.280508e+000 1.793059e+000 -1.822966e+000 -5.035554e-001 -2.754029e+000 -7.292398e-001 4.359693e-001 -3.811993e-001 5.163974e-001 -6.625034e-001 -1.759500e-001 1.716953e+000 -2.146211e-001 -7.313918e-001 5.704262e-001 -6.522997e-001 -3.347680e-001 -4.876218e-001 2.157557e-001 6.345857e-001 3.355636e-001 4.780366e-001 3.029729e-001 -2.621920e-002 6.713525e-001
<VARIANCE> 39
 7.505299e+000 1.474375e+001 3.094582e+000 2.614262e+001 1.142559e+001 2.100402e+001 1.350569e+001 1.877400e+001 2.392040e+001 1.157056e+001 2.470632e+001 9.154535e+000 6.161639e+000 1.439232e+000 4.920100e-001 2.160396e+000 2.891969e+000 5.489258e+000 8.451867e+000 1.850215e+000 3.032817e+000 1.895249e+000 2.277424e+000 2.448941e+000 8.802795e-001 6.744038e-001 1.441198e-001 5.465627e-001 3.349906e-001 9.984558e-001 3.384679e-001 5.015714e-001 2.673601e-001 4.943779e-001 4.636688e-001 4.040839e-001 4.166052e-001 2.657900e-001 3.670244e-001
<GCONST> 1.012304e+002
<STATE> 6
<MEAN> 39
 -7.999178e+000 -9.623427e-002 4.372307e+000 -5.252779e+000 -3.795153e+000 -9.290507e+000 -3.727623e+000 1.161355e+000 -3.913762e+000 6.874849e-001 -3.000388e+000 4.010212e-001 5.084144e+001 -1.891104e-001 -1.969530e+000 1.510295e+000 -2.003248e+000 -1.448807e+000 -2.488940e+000 1.859634e-002 9.688544e-001 2.584848e-002 5.201188e-001 -1.434344e-001 1.969223e-001 2.219297e+000 2.293961e-002 -7.265376e-001 -3.849465e-003 -5.645516e-001 -5.229074e-001 6.704293e-003 2.373696e-001 3.754594e-001 7.721724e-002 2.366220e-001 1.240215e-001 -2.018528e-003 5.075328e-001
<VARIANCE> 39
 1.451712e+001 6.965250e+000 2.064802e+001 2.523666e+001 4.935501e+001 3.825947e+001 2.363037e+001 2.821300e+001 2.238808e+001 2.315092e+001 2.545682e+001 1.850372e+001 8.218513e+000 1.600528e+000 3.815355e+000 2.931220e+000 8.159048e+000 4.253750e+000 6.736927e+000 1.565513e+000 3.025557e+000 2.842224e+000 3.317421e+000 1.676061e+000 1.648206e+000 2.878580e+000 3.223957e-001 5.326841e-001 4.007142e-001 1.164429e+000 8.331197e-001 8.525180e-001 3.720741e-001 5.766455e-001 8.064198e-001 6.190814e-001 3.589052e-001 5.444110e-001 2.911957e-001
<GCONST> 1.173523e+002
<STATE> 7
<MEAN> 39
 -6.193155e+000 -6.556824e+000 -1.695778e+000 -1.415545e+000 -1.400933e+001 -3.013880e+001 -1.818379e+000 5.703673e+000 -4.504725e+000 7.742229e+000 -1.641857e+000 4.438170e+000 5.770511e+001 -1.239117e-001 -4.403534e-001 3.091017e-001 -7.006840e-001 -1.751920e-001 -3.158687e-001 8.933727e-002 2.382632e-001 9.998066e-002 3.642235e-001 -1.282636e-001 1.732187e-001 3.810023e-001 -1.280351e-002 1.842165e-002 -2.801451e-002 9.096116e-003 6.578632e-002 3.293654e-001 2.343118e-002 4.501271e-002 2.518580e-002 -8.619838e-002 2.622117e-002 -1.623227e-002 -1.068824e-001
<VARIANCE> 39
 5.130124e+000 6.345570e+000 1.903020e+001 3.192512e+001 2.670110e+001 5.422769e+001 1.856195e+001 2.746328e+001 2.835214e+001 2.496101e+001 1.664993e+001 3.270352e+001 6.681268e+000 2.499547e-001 3.094718e+000 1.528997e+000 4.572712e+000 2.860336e+000 3.922784e+000 1.511903e+000 3.143887e+000 2.282443e+000 2.477106e+000 2.003193e+000 1.843765e+000 2.637903e+000 4.575300e-002 1.028142e-001 1.086875e-001 2.061514e-001 3.740862e-001 5.265271e-001 2.783783e-001 4.114590e-001 3.622195e-001 3.279128e-001 4.172810e-001 2.865399e-001 7.858536e-002
<GCONST> 9.976874e+001
<STATE> 8
<MEAN> 39
 -9.497725e+000 -1.558557e+001 1.082498e+001 -2.185688e+001 -1.406509e+001 -1.638312e+001 -2.365358e+000 1.086283e+001 -2.852703e+000 4.529325e+000 -9.386094e-001 4.664905e-001 6.346738e+001 -2.660685e-001 -2.564265e+000 4.165190e-001 -2.225331e+000 -7.620069e-001 9.535415e-001 1.219754e+000 2.602810e+000 8.679295e-002 1.173188e-001 -3.528106e-001 -9.619094e-001 1.717086e+000 7.825343e-002 8.528852e-001 -7.727479e-001 1.094366e+000 8.227869e-001 7.733160e-001 2.749721e-001 -5.329716e-001 -1.347006e-001 -3.812048e-001 -2.035460e-001 -2.515222e-001 -7.782052e-001
<VARIANCE> 39
 5.137394e+000 2.859546e+001 2.508341e+001 5.800788e+001 4.322419e+001 2.302229e+001 5.949215e+001 5.683411e+001 3.637321e+001 3.516870e+001 4.667580e+001 2.005867e+001 1.960802e+001 4.826728e-001 3.280540e+000 1.984207e+000 4.358079e+000 3.558911e+000 2.823031e+000 2.604895e+000 2.924966e+000 2.709138e+000 2.715248e+000 2.466207e+000 2.037478e+000 2.447864e+000 7.793759e-002 2.830425e-001 1.750151e-001 4.821213e-001 3.680830e-001 7.452490e-001 3.051401e-001 6.897478e-001 3.768523e-001 4.606463e-001 3.395216e-001 2.828081e-001 1.556991e-001
<GCONST> 1.123179e+002
<STATE> 9
<MEAN> 39
 -1.032242e+001 -1.655840e+001 8.933213e+000 -2.227178e+001 -1.010360e+001 -1.258914e+001 3.968996e-001 1.049826e+001 -4.881485e+000 4.719189e+000 -4.729098e+000 -1.190760e+000 6.297083e+001 1.626004e-002 2.866474e-001 -1.928301e-001 3.211649e-001 1.283092e-001 2.178050e-001 1.183516e-002 -4.077755e-002 9.629800e-002 -7.914513e-002 4.128202e-002 7.352043e-002 -3.298783e-001 -3.014899e-004 4.135433e-002 -1.152042e-003 4.635074e-002 -2.044207e-003 4.152924e-003 -1.539886e-002 -3.279394e-002 8.867171e-003 -2.091714e-003 2.479831e-002 1.849978e-002 -3.861036e-002
<VARIANCE> 39
