~o
<STREAMINFO> 1 39
<VECSIZE> 39<NULLD><MFCC_D_A_0><DIAGC>
~h "ctyri"
<BEGINHMM>
<NUMSTATES> 10
<STATE> 2
<MEAN> 39
 -1.890369e+001 -1.425578e+001 5.357767e+000 3.532799e+000 -3.810247e+000 -3.812225e-001 6.844346e+000 -8.173990e+000 3.181138e+000 3.288008e+000 2.494746e-001 -4.098232e+000 6.198803e+001 4.526262e-001 -1.936852e-001 -1.594076e-001 2.927133e-003 4.470631e-001 -1.908163e-001 -1.420377e-001 4.347926e-002 -1.594328e-001 -1.345751e-002 5.534775e-002 8.577635e-002 -1.793566e-001 -7.204553e-003 1.090661e-004 -3.377558e-002 -5.261387e-002 6.893831e-002 -2.795321e-001 -2.223457e-001 5.349999e-002 -2.746590e-001 -2.546498e-001 -9.982233e-002 1.609413e-001 2.823447e-001
<VARIANCE> 39
 4.239696e+001 2.951708e+001 1.922820e+001 3.999295e+001 3.690822e+001 7.427083e+001 4.675073e+001 4.374768e+001 1.583509e+001 2.353174e+001 1.984911e+001 2.273903e+001 8.243283e+001 2.690411e+000 2.007350e+000 1.340811e+000 3.162722e+000 4.755752e+000 5.463835e+000 5.155417e+000 5.098718e+000 3.996019e+000 3.187288e+000 3.138088e+000 2.318432e+000 4.841249e+000 3.579371e-001 2.620579e-001 3.256589e-001 5.516384e-001 7.309489e-001 1.156672e+000 7.227985e-001 1.066507e+000 7.406929e-001 6.479617e-001 4.568324e-001 3.523052e-001 7.548580e-001
<GCONST> 1.258490e+002
<STATE> 3
<MEAN> 39
 -9.002301e+000 -1.235466e+001 4.772002e+000 1.185948e+000 4.800015e+000 -6.291780e+000 -7.606180e+000 -4.476409e+000 -1.216855e+001 -7.685989e+000 -2.195972e+000 2.828550e+000 6.773777e+001 2.005130e+000 5.776101e-001 2.345398e+000 -3.437487e-001 -2.964560e+000 -2.054872e+000 -3.907786e+000 9.547675e-001 -2.834467e+000 -1.663421e+000 9.067251e-001 -4.752025e-001 3.611431e+000 1.639159e-001 1.405714e-001 5.499633e-001 1.318357e-001 -1.542514e+000 8.247759e-001 -4.333432e-001 2.074464e-001 6.287040e-001 6.111342e-001 9.711730e-001 -1.015032e+000 -3.800410e-001
<VARIANCE> 39
 1.879492e+001 2.894442e+001 3.889193e+001 3.169091e+001 9.561150e+001 6.107155e+001 9.268395e+001 6.496786e+001 4.537948e+001 4.379528e+001 8.069057e+001 5.044714e+001 3.211636e+001 1.385275e+000 2.523990e+000 5.222418e+000 4.033126e+000 1.313799e+001 1.066909e+001 7.885439e+000 6.905205e+000 5.118166e+000 4.326847e+000 8.609541e+000 8.147600e+000 2.937019e+000 2.515205e-001 6.723214e-001 9.655117e-001 6.794903e-001 1.806572e+000 1.248701e+000 1.299932e+000 1.185800e+000 6.232316e-001 5.531803e-001 1.358038e+000 8.649204e-001 5.952073e-001
<GCONST> 1.411337e+002
<STATE> 4
<MEAN> 39
 -2.837936e+000 -9.101467e+000 1.534982e+001 2.295727e-001 -1.612246e+001 -4.717117e+000 -2.140675e+001 7.577621e+000 -1.832612e+001 -6.038436e+000 9.300358e+000 -7.424385e+000 7.900581e+001 -3.329656e-001 7.068760e-001 4.791077e-001 -4.482878e-001 -7.884482e-001 -3.290266e-001 6.532961e-001 6.676287e-001 7.994808e-001 4.371034e-001 1.318477e-001 5.862439e-002 9.871044e-001 -5.596244e-001 3.256881e-001 -4.164075e-001 -1.177663e-001 1.107914e+000 -2.454817e-001 9.441833e-001 -7.379367e-001 6.572015e-001 -2.461513e-001 -6.222551e-001 7.393360e-001 -2.999802e-001
<VARIANCE> 39
 1.155044e+001 1.977035e+001 3.241307e+001 1.138825e+001 3.125021e+001 6.175232e+001 7.848994e+001 4.521551e+001 4.461769e+001 3.141806e+001 4.976213e+001 3.126881e+001 1.258776e+001 1.918078e+000 2.956330e+000 2.713124e+000 2.087327e+000 1.331211e+001 4.591331e+000 1.188792e+001 1.003168e+001 6.382526e+000 3.285601e+000 6.902561e+000 8.425132e+000 1.747416e+000 2.132622e-001 4.717563e-001 4.968907e-001 4.080853e-001 8.214333e-001 5.394495e-001 1.252918e+000 1.053602e+000 8.930216e-001 7.894302e-001 7.659312e-001 6.098629e-001 1.445123e-001
<GCONST> 1.284411e+002
<STATE> 5
<MEAN> 39
 -1.806800e+001 3.809282e+000 1.137147e+001 -6.497148e+000 -3.539573e+000 -1.359695e+001 -9.435049e+000 -6.649463e+000 -8.066622e-002 -1.297220e+001 3.906903e+000 5.606463e+000 7.890883e+001 -2.365543e+000 1.067925e+000 -4.188815e-001 -3.167766e-001 1.255726e+000 -2.157735e-001 1.062358e-001 -1.879585e+000 1.957398e+000 -1.783048e+000 -1.042486e-001 1.167515e+000 1.104512e-002 8.998405e-001 -8.795744e-001 3.306421e-001 7.520744e-001 -4.692186e-001 4.990225e-001 -4.740810e-001 1.002380e+000 -9.947307e-001 4.200896e-001 2.878813e-001 -7.963300e-001 1.046701e-001
<VARIANCE> 39
 6.554394e+001 5.824093e+001 3.689578e+001 2.441831e+001 3.917506e+001 7.640840e+001 4.856915e+001 1.065293e+002 5.113065e+001 8.447667e+001 5.017826e+001 3.393244e+001 4.111917e+000 8.312239e+000 7.487395e+000 3.508221e+000 5.301650e+000 4.559534e+000 2.948256e+000 4.936777e+000 9.777683e+000 7.812261e+000 5.343226e+000 5.040030e+000 5.819095e+000 7.430753e-001 1.756339e+000 9.935336e-001 7.212958e-001 7.854177e-001 1.215261e+000 4.885469e-001 1.590992e+000 9.945089e-001 6.401956e-001 9.965265e-001 1.167367e+000 1.049988e+000 1.296204e-001
<GCONST> 1.384875e+002
<STATE> 6
<MEAN> 39
 -1.156067e+001 -4.566526e+000 1.515780e+001 1.450574e-001 -6.921823e+000 -1.125757e+001 -1.327969e+001 -5.647694e+000 -3.943487e+000 -1.299017e+001 7.173036e+000 1.995369e+000 8.107476e+001 3.141537e+000 -2.662092e+000 7.114280e-001 1.590994e+000 -9.020544e-001 3.221807e-001 -5.837925e-001 2.055836e+000 -1.362090e+000 1.621164e+000 1.317407e+000 -1.531672e+000 9.247921e-001 1.355205e-001 1.629359e-001 -4.078580e-001 -3.907682e-002 -1.702543e-001 7.664996e-002 -1.160697e-001 1.363908e-001 -1.727285e-001 2.219424e-001 -6.846575e-003 2.310972e-002 -1.600623e-001
<VARIANCE> 39
 8.079018e+001 3.810558e+001 6.812664e+001 2.973460e+001 6.884397e+001 5.761748e+001 7.208621e+001 8.194086e+001 9.631968e+001 6.026032e+001 4.260252e+001 2.568532e+001 4.000931e+000 6.587188e+000 4.629685e+000 9.130340e-001 3.847888e+000 7.827363e+000 1.862548e+000 3.859021e+000 2.680519e+000 4.030927e+000 3.355463e+000 4.372728e+000 2.329525e+000 4.326252e-001 1.380193e+000 5.059257e-001 5.409526e-001 1.013305e+000 1.328623e+000 4.216845e-001 9.384215e-001 4.416440e-001 1.071894e+000 9.115555e-001 5.530582e-001 3.779552e-001 2.798291e-001
<GCONST> 1.298387e+002
<STATE> 7
<MEAN> 39
 -1.127217e+001 -3.797325e+000 1.224565e+001 1.416096e+000 -2.981704e+000 -6.032890e+000 -7.872632e+000 2.752541e+000 -2.778613e+000 -8.938900e+000 -1.780709e+000 1.334947e+000 8.027434e+001 1.764986e+000 -7.088330e-001 -4.376539e-001 7.017115e-001 -6.558478e-001 -3.565446e-001 2.008209e-001 -1.234684e-001 -3.297056e-001 3.819614e-001 1.368517e-001 7.288174e-002 -8.480541e-002 -2.024321e-001 7.267424e-002 6.438944e-002 -2.118391e-001 -5.316435e-001 -8.589367e-002 -6.231772e-002 1.272276e-002 -2.233688e-002 4.135493e-002 4.986924e-002 -1.050934e-001 -1.333563e-001
<VARIANCE> 39
 1.275970e+002 3.593250e+001 3.384074e+001 6.075782e+001 3.018149e+001 3.368615e+001 6.622878e+001 6.576543e+001 9.136683e+001 3.420609e+001 4.767375e+001 2.768762e+001 5.654632e+000 1.631279e+001 4.239474e+000 3.650187e+000 9.122475e+000 7.746162e+000 2.810987e+000 7.805463e+000 6.860462e+000 1.286948e+001 4.002837e+000 1.964154e+000 3.704388e+000 6.459897e-001 2.596636e+000 4.547431e-001 8.221104e-001 1.653010e+000 5.573406e-001 5.573440e-001 1.103896e+000 1.442279e+000 2.096878e+000 8.349041e-001 2.728083e-001 8.518732e-001 1.733326e-001
<GCONST> 1.374147e+002
<STATE> 8
<MEAN> 39
 -1.667342e+000 -1.046406e+001 1.380623e+001 1.346895e+000 -2.125418e+001 -5.364562e+000 -2.134464e+001 1.628815e+000 -1.276124e+001 -8.212618e+000 1.453205e+001 -6.050531e+000 8.084087e+001 1.357303e-001 3.347586e-001 1.376464e-001 5.002284e-002 -9.035364e-001 1.379596e+000 6.653734e-002 7.143779e-001 -6.224753e-001 6.794311e-001 -5.180511e-002 -6.303816e-001 -7.015308e-001 -1.157328e-001 2.636439e-001 -3.293783e-002 -3.467061e-002 4.084400e-001 3.650474e-002 3.268141e-001 -2.728561e-001 2.373229e-001 -4.326474e-002 -2.598768e-001 2.218599e-001 -1.974041e-001
<VARIANCE> 39
 7.565017e+000 1.060376e+001 1.500480e+001 1.712596e+001 2.763544e+001 5.446968e+001 5.925457e+001 2.709235e+001 2.965548e+001 1.687452e+001 8.658447e+001 4.186713e+001 8.522261e+000 4.121160e-001 7.461700e-001 8.764229e-001 8.795245e-001 3.318545e+000 1.176446e+000 3.229726e+000 1.850778e+000 1.445579e+000 1.580326e+000 1.419915e+000 1.323012e+000 4.406862e-001 1.648311e-001 1.369005e-001 1.496744e-001 9.615753e-002 2.363161e-001 2.728342e-001 4.374076e-001 2.651547e-001 2.998452e-001 2.375989e-001 2.724507e-001 1.949093e-001 3.080631e-002
<GCONST> 9.322482e+001
<STATE> 9
<MEAN> 39
 1.193018e+000 -5.901947e+000 8.845400e+000 3.435928e+000 -1.193029e+001 -6.313313e+000 -8.901341e+000 -9.017434e-001 -4.793003e+000 -4.096534e+000 7.149280e-001 -2.852910e-001 6.494785e+001 -8.235373e-002 2.273192e-001 -7.478110e-001 4.780185e-002 1.222571e+000 -1.032047e-001 2.701636e-001 -5.595867e-001 5.873230e-001 -2.834990e-003 -5.157981e-001 1.240288e-001 -1.441619e+000 -6.394324e-002 -3.426538e-002 -4.516535e-002 1.483115e-002 1.090832e-001 8.472466e-002 -1.080132e-001 -9.562036e-002 -8.971307e-002 7.120477e-003 8.493585e-002 -9.148765e-002 5.947314e-002
<VARIANCE> 39
 8.992799e+000 9.546636e+000 4.249526e+001 5.850122e+001 7.521828e+001 6.449166e+001 5.473959e+001 6.943435e+001 6.380234e+001 4.271850e+001 5.664833e+001 4.220112e+001 4.860872e+001 5.091860e-001 6.318967e-001 1.360084e+000 1.391190e+000 2.790784e+000 4.494104e+000 3.801940e+000 3.461259e+000 3.794511e+000 4.960281e+000 5.367993e+000 3.641641e+000 5.622957e-001 6.294487e-002 1.302933e-001 2.139291e-001 2.501992e-001 4.646227e-001 6.476135e-001 6.858745e-001 6.514021e-001 7.515838e-001 1.024215e+000 9.825155e-001 6.208804e-001 6.231974e-002
<GCONST> 1.169247e+002
<TRANSP> 10
 0.000000e+000 1.000000e+000 0.000000e+000 0.000000e+000 0.000000e+000 0.000000e+000 0.000000e+000 0.000000e+000 0.000000e+000 0.000000e+000
 0.000000e+000 9.287193e-001 7.128075e-002 0.000000e+000 0.000000e+000 0.000000e+000 0.000000e+000 0.000000e+000 0.000000e+000 0.000000e+000
 0.000000e+000 0.000000e+000 7.484447e-001 2.515553e-001 0.000000e+000 0.000000e+000 0.000000e+000 0.000000e+000 0.000000e+000 0.000000e+000
 0.000000e+000 0.000000e+000 0.000000e+000 8.468974e-001 1.531026e-001 0.000000e+000 0.000000e+000 0.000000e+000 0.000000e+000 0.000000e+000
 0.000000e+000 0.000000e+000 0.000000e+000 0.000000e+000 7.691121e-001 2.308880e-001 0.000000e+000 0.000000e+000 0.000000e+000 0.000000e+000
 0.000000e+000 0.000000e+000 0.000000e+000 0.000000e+000 0.000000e+000 5.108384e-001 4.891616e-001 0.000000e+000 0.000000e+000 0.000000e+000
 0.000000e+000 0.000000e+000 0.000000e+000 0.000000e+000 0.000000e+000 0.000000e+000 8.127282e-001 1.872718e-001 0.000000e+000 0.000000e+000
 0.000000e+000 0.000000e+000 0.000000e+000 0.000000e+000 0.000000e+000 0.000000e+000 0.000000e+000 8.497780e-001 1.502220e-001 0.000000e+000
 0.000000e+000 0.000000e+000 0.000000e+000 0.000000e+000 0.000000e+000 0.000000e+000 0.000000e+000 0.000000e+000 9.228060e-001 7.719396e-002
 0.000000e+000 0.000000e+000 0.000000e+000 0.000000e+000 0.000000e+000 0.000000e+000 0.000000e+000 0.000000e+000 0.000000e+000 0.000000e+000
<ENDHMM>
~h "sedm"
<BEGINHMM>
<NUMSTATES> 10
<STATE> 2
<MEAN> 39
 -2.685027e+001 -1.084811e+000 -9.997301e+000 9.191114e+000 2.376545e+000 -3.269622e+000 -1.670132e+000 -3.827405e+000 4.935712e+000 -4.026992e+000 2.326719e-001 2.667751e+000 7.157104e+001 1.745647e+000 -1.112078e+000 9.530793e-001 -3.737339e-001 -5.810584e-001 1.074562e-001 -1.334458e+000 1.033693e-001 2.346214e-001 -2.487426e-001 -3.616771e-001 -3.967765e-003 7.164840e-001 5.366073e-001 -3.983170e-001 2.858514e-001 -3.058610e-001 -7.448189e-002 5.359655e-002 -4.125344e-001 1.774816e-001 -1.494470e-001 -7.241664e-002 -1.010634e-001 -2.679820e-001 -8.060777e-002
<VARIANCE> 39
 3.803430e+001 3.174997e+001 3.592586e+001 2.940331e+001 3.276351e+001 5.540881e+001 6.218219e+001 5.271473e+001 7.933287e+001 5.469881e+001 4.207547e+001 3.123936e+001 8.535732e+000 6.484528e+000 2.635841e+000 3.530454e+000 3.050626e+000 2.988623e+000 4.882406e+000 6.222614e+000 3.439071e+000 3.860980e+000 3.653699e+000 3.384553e+000 4.715334e+000 2.176549e+000 5.498099e-001 3.752002e-001 4.525612e-001 4.306456e-001 5.461842e-001 1.043391e+000 1.062001e+000 9.682274e-001 8.007191e-001 6.190127e-001 5.473123e-001 8.592232e-001 6.991748e-001
<GCONST> 1.306273e+002
<STATE> 3
<MEAN> 39
 -4.609394e+000 -1.447770e+001 1.581922e+000 -7.310330e-001 -2.666882e+000 -3.039198e+000 -2.351069e+001 1.505830e+000 3.596757e+000 -7.555969e+000 -4.626431e+000 -4.783720e+000 8.041476e+001 2.104764e+000 -7.086409e-001 1.173370e+000 -1.829871e+000 -1.188136e+000 1.341927e-001 -2.973982e+000 1.317298e+000 -9.479614e-001 -9.394163e-001 4.429495e-001 -9.669051e-001 7.127304e-001 -5.242536e-001 8.835562e-001 -6.217322e-002 2.086273e-001 -7.871638e-002 -1.346982e-001 9.425498e-001 -6.112277e-001 4.990174e-002 5.247766e-002 8.297452e-002 4.638771e-001 -6.401950e-001
<VARIANCE> 39
 1.064674e+001 3.719254e+001 2.250045e+001 5.327365e+001 5.002327e+001 5.175026e+001 1.173153e+002 5.673645e+001 8.205032e+001 7.103436e+001 6.744288e+001 2.168250e+001 9.438107e+000 2.760737e+000 4.918649e+000 1.799014e+000 1.920017e+000 2.148466e+000 3.141457e+000 6.297451e+000 6.757566e+000 3.182262e+000 2.115823e+000 3.707578e+000 3.583355e+000 2.077981e+000 5.053610e-001 4.530929e-001 4.630734e-001 6.420339e-001 5.067619e-001 5.467941e-001 1.086880e+000 1.077389e+000 7.440023e-001 4.014225e-001 8.905532e-001 5.597909e-001 1.651429e-001
<GCONST> 1.268281e+002
<STATE> 4
<MEAN> 39
 2.808514e+000 -7.715329e+000 6.133107e+000 -3.833800e+000 -6.189570e+000 -3.888043e+000 -2.082468e+001 -2.905188e-001 1.710138e+000 -9.543772e+000 -5.045333e+000 -5.599986e+000 7.441229e+001 7.395769e-001 1.408852e+000 -4.500807e-001 1.878796e+000 4.853396e-001 5.629871e-001 3.609477e+000 -9.799460e-001 -4.909668e-002 1.975571e-001 -1.349749e+000 -1.897973e-001 -1.967296e+000 -4.542254e-001 -6.613237e-001 -3.177883e-001 8.488504e-001 1.149064e-001 6.899221e-002 2.786791e-001 7.560260e-002 -1.161037e-001 1.637470e-001 -1.810668e-002 2.294973e-001 2.194851e-001
<VARIANCE> 39
 1.243105e+001 2.081560e+001 1.666608e+001 2.393714e+001 4.248259e+001 6.320026e+001 8.838126e+001 4.687626e+001 4.729305e+001 5.223313e+001 1.186484e+002 3.987508e+001 2.053545e+001 1.208597e+000 4.237754e+000 2.688210e+000 3.924637e+000 2.227189e+000 4.003456e+000 6.769566e+000 4.701673e+000 4.030819e+000 2.526206e+000 5.240256e+000 4.516737e+000 1.558035e+000 1.067151e-001 5.693409e-001 8.444068e-001 5.800217e-001 5.561986e-001 8.337832e-001 3.340502e+000 8.898346e-001 6.082015e-001 6.252854e-001 1.446916e+000 1.110820e+000 6.158204e-001
<GCONST> 1.301380e+002
<STATE> 5
<MEAN> 39
 1.926708e+000 -9.453014e+000 4.075516e+000 9.162457e+000 -5.107374e+000 -4.147414e+000 -1.053504e+001 -3.088104e+000 -4.775428e-001 -5.714331e+000 -4.560161e+000 -3.052474e+000 7.080964e+001 4.134224e-001 -4.241868e-001 9.745545e-001 2.097999e+000 -6.174558e-001 7.764847e-002 -1.804095e+000 -2.054961e+000 -3.940337e-001 9.636653e-001 1.264541e+000 1.008846e+000 2.480738e-001 4.304491e-001 4.075117e-001 2.761302e-001 -6.937970e-001 -5.283966e-002 5.694086e-002 -1.102198e+000 -5.730570e-001 -2.677598e-001 1.156990e-001 5.344611e-001 -1.135600e-001 1.800863e-001
<VARIANCE> 39
 1.249728e+001 2.794773e+001 3.524448e+001 3.287725e+001 2.635381e+001 4.367016e+001 2.351181e+002 5.380291e+001 3.522079e+001 5.502804e+001 6.800049e+001 6.872136e+001 1.444815e+001 1.775691e+000 4.520834e+000 3.171781e+000 4.402996e+000 3.851025e+000 8.263894e+000 1.569224e+001 6.916214e+000 1.997413e+000 2.364908e+000 6.455275e+000 5.184510e+000 1.323319e+000 2.027982e-001 7.997636e-001 7.602634e-001 1.089723e+000 7.623771e-001 1.725084e+000 2.769097e+000 1.234623e+000 6.464319e-001 5.865992e-001 8.909665e-001 7.411523e-001 2.261935e-001
<GCONST> 1.346065e+002
<STATE> 6
<MEAN> 39
 6.764638e+000 -7.867031e+000 9.323379e+000 1.220453e+001 -7.882647e+000 -8.753818e-001 -2.073830e+001 -1.548424e+001 -5.217134e+000 -4.519000e+000 9.047956e-001 -1.824117e+000 7.260148e+001 1.266382e+000 1.198107e+000 4.079839e-001 -2.924864e-001 -1.726166e-001 -1.230821e-001 -1.696408e+000 -2.826790e+000 -2.086926e+000 8.791400e-001 2.652652e+000 1.073841e+000 1.609885e-001 -1.237867e-001 1.241998e-001 -3.514774e-001 -3.485515e-001 2.976812e-002 -3.538924e-001 7.866832e-001 5.495938e-001 4.944363e-002 -3.815305e-001 -1.744749e-001 2.286804e-001 -1.053113e-001
<VARIANCE> 39
 5.363252e+000 3.466399e+001 1.398330e+001 3.551918e+001 2.775947e+001 9.180100e+001 2.688581e+002 5.363348e+001 6.421324e+001 6.278519e+001 6.417086e+001 4.516512e+001 8.272896e+000 7.689956e-001 3.286716e+000 2.370721e+000 8.958599e+000 1.122617e+000 5.525433e+000 9.349429e+000 3.675550e+000 7.088439e+000 4.238918e+000 3.616764e+000 3.805912e+000 4.394686e-001 1.028235e-001 7.035890e-001 4.113192e-001 7.437991e-001 5.143716e-001 6.957619e-001 2.599460e+000 7.314368e-001 1.742289e+000 8.199751e-001 1.421368e+000 4.771442e-001 1.507748e-001
<GCONST> 1.273453e+002
<STATE> 7
<MEAN> 39
 9.874850e+000 -1.620355e+000 8.171221e+000 7.233797e+000 -6.044502e+000 1.152416e+000 -2.480027e+001 -1.893089e+001 -1.018276e+001 -5.295644e+000 5.220220e+000 4.825035e+000 7.145470e+001 5.635931e-001 7.213072e-001 -1.670694e-001 4.430310e-001 5.088953e-001 -1.376074e+000 2.041860e+000 3.035645e-001 -8.831344e-002 -1.180179e+000 -6.553152e-001 -9.002029e-001 -6.191903e-001 -3.011443e-001 -5.104613e-001 3.530670e-002 5.514393e-001 2.608612e-001 -1.830180e-001 5.553946e-001 5.677527e-001 8.095465e-001 1.279514e-002 -8.642813e-001 -9.384454e-001 -9.909857e-002
<VARIANCE> 39
 3.619152e+000 1.812844e+001 7.995745e+000 7.130809e+001 2.397914e+001 1.425121e+002 1.128453e+002 6.515692e+001 2.331721e+001 4.252920e+001 2.914024e+001 7.294352e+001 6.754664e+000 2.457593e-001 2.261177e+000 1.111966e+000 3.134758e+000 2.382932e+000 2.213561e+000 9.527342e+000 3.039496e+000 4.702496e+000 4.928848e+000 3.771208e+000 1.041354e+001 9.322972e-001 2.907602e-002 1.550904e-001 1.732985e-001 6.429892e-001 2.879787e-001 6.755791e-001 6.083984e-001 7.472697e-001 5.654039e-001 1.200310e+000 3.798073e-001 1.087765e+000 4.751709e-002
<GCONST> 1.138118e+002
<STATE> 8
<MEAN> 39
 8.145870e+000 -7.673831e+000 1.447040e+001 1.797220e+001 -5.664464e+000 -1.212520e+001 -1.957566e+001 -1.832756e+001 -9.750040e+000 -9.482445e+000 1.991677e+000 3.706813e+000 7.240274e+001 -1.507902e-001 -5.894852e-003 2.383175e-001 -3.204130e-002 5.268279e-001 5.514163e-001 2.409989e-001 2.422361e-001 6.667668e-002 -1.330901e-001 -6.467737e-001 -1.147982e-001 -2.611463e-001 -5.871658e-002 3.419819e-002 -8.008360e-002 -9.687013e-002 3.668231e-002 1.575866e-001 1.497677e-001 -2.580199e-002 -7.743654e-002 1.031972e-001 -1.251827e-001 -1.824261e-001 -8.021343e-002
<VARIANCE> 39
 3.052569e+000 1.619569e+001 2.547809e+001 1.993089e+001 2.115971e+001 2.716963e+001 2.629956e+001 2.369599e+001 3.673069e+001 2.160984e+001 2.279068e+001 2.347093e+001 6.912369e+000 1.942478e-001 1.227539e+000 1.783815e+000 1.128706e+000 1.374805e+000 1.570594e+000 3.692801e+000 1.513957e+000 2.409497e+000 2.141883e+000 1.968822e+000 3.410299e+000 4.533447e-001 4.784770e-002 1.684027e-001 2.351277e-001 2.173455e-001 2.276459e-001 3.377206e-001 4.006320e-001 2.821521e-001 4.389296e-001 3.977975e-001 4.072405e-001 4.925006e-001 4.482529e-002
<GCONST> 9.500324e+001
<STATE> 9
<MEAN> 39
 3.496432e+000 -5.081323e+000 7.440939e+000 1.137522e+001 4.384236e+000 4.528372e+000 -1.042617e+001 -1.552763e+001 -9.934928e+000 -5.801263e+000 -1.064106e+001 -6.875627e+000 6.343109e+001 -7.510843e-001 -6.209324e-001 -3.611784e-001 -2.846421e-001 2.925716e-001 3.481800e-001 6.348667e-001 1.994481e-001 -1.744253e-001 1.618324e-001 -2.704887e-001 -2.257070e-001 -3.841876e-001 -1.381990e-002 -3.774028e-002 1.562105e-002 -4.448882e-002 -7.270143e-002 -4.145675e-002 -8.720354e-002 1.029749e-001 2.119998e-003 5.367001e-003 1.778082e-001 1.612329e-001 5.499815e-002
<VARIANCE> 39
 3.755999e+001 4.784562e+001 1.956923e+001 3.694774e+001 2.902863e+001 6.314108e+001 4.446615e+001 3.640943e+001 7.942164e+001 4.952447e+001 3.779236e+001 6.120665e+001 1.042779e+001 4.338058e-001 1.016739e+000 1.590357e+000 2.672521e+000 1.873340e+000 3.598067e+000 3.326324e+000 3.212660e+000 2.911032e+000 3.807430e+000 4.037739e+000 5.447774e+000 3.373991e-001 5.301332e-002 1.394437e-001 2.602263e-001 3.891091e-001 3.764479e-001 5.549397e-001 6.703740e-001 6.276380e-001 6.246008e-001 7.647695e-001 6.582367e-001 8.761057e-001 4.202747e-002
<GCONST> 1.142536e+002
<TRANSP> 10
 0.000000e+000 1.000000e+000 0.000000e+000 0.000000e+000 0.000000e+000 0.000000e+000 0.000000e+000 0.000000e+000 0.000000e+000 0.000000e+000
 0.000000e+000 9.016995e-001 9.830045e-002 0.000000e+000 0.000000e+000 0.000000e+000 0.000000e+000 0.000000e+000 0.000000e+000 0.000000e+000
 0.000000e+000 0.000000e+000 8.089731e-001 1.910269e-001 0.000000e+000 0.000000e+000 0.000000e+000 0.000000e+000 0.000000e+000 0.000000e+000
 0.000000e+000 0.000000e+000 0.000000e+000 7.725859e-001 2.274141e-001 0.000000e+000 0.000000e+000 0.000000e+000 0.000000e+000 0.000000e+000
 0.000000e+000 0.000000e+000 0.000000e+000 0.000000e+000 7.545802e-001 2.454197e-001 0.000000e+000 0.000000e+000 0.000000e+000 0.000000e+000
 0.000000e+000 0.000000e+000 0.000000e+000 0.000000e+000 0.000000e+000 6.681387e-001 3.318613e-001 0.000000e+000 0.000000e+000 0.000000e+000
 0.000000e+000 0.000000e+000 0.000000e+000 0.000000e+000 0.000000e+000 0.000000e+000 6.785845e-001 3.214156e-001 0.000000e+000 0.000000e+000
 0.000000e+000 0.000000e+000 0.000000e+000 0.000000e+000 0.000000e+000 0.000000e+000 0.000000e+000 8.955530e-001 1.044471e-001 0.000000e+000
 0.000000e+000 0.000000e+000 0.000000e+000 0.000000e+000 0.000000e+000 0.000000e+000 0.000000e+000 0.000000e+000 9.459598e-001 5.404021e-002
 0.000000e+000 0.000000e+000 0.000000e+000 0.000000e+000 0.000000e+000 0.000000e+000 0.000000e+000 0.000000e+000 0.000000e+000 0.000000e+000
<ENDHMM>
~h "sest"
<BEGINHMM>
<NUMSTATES> 10
<STATE> 2
<MEAN> 39
 -2.693700e+001 -1.182944e+001 -1.986190e-001 5.445407e+000 -4.316955e+000 -3.811520e+000 -1.234767e+000 -3.411654e+000 9.793004e-001 -2.662356e+000 7.894621e-001 8.312588e-001 6.455965e+001 -1.552800e-001 -5.121272e-001 1.170806e+000 4.003431e-001 1.481760e-002 -2.135488e-001 -3.820570e-001 -1.062703e-001 4.697967e-002 -5.926741e-001 5.188497e-001 3.374335e-001 3.787492e+000 6.316316e-001 -3.220547e-002 1.319105e-001 3.167189e-002 2.087741e-001 -2.725942e-002 -5.188763e-001 7.883607e-003 -1.141709e-001 -2.519126e-002 -7.166148e-002 6.689038e-002 2.548681e-002
<VARIANCE> 39
 1.348910e+001 3.304601e+001 8.655666e+001 3.562572e+001 3.782400e+001 2.523245e+001 2.797112e+001 1.060809e+002 2.866934e+001 5.540051e+001 2.785544e+001 1.677031e+001 2.859815e+002 4.525272e+000 1.727294e+000 4.092525e+000 1.801556e+000 4.002070e+000 2.977994e+000 3.373255e+000 6.012832e+000 2.821388e+000 4.716778e+000 2.828536e+000 1.726793e+000 2.585054e+001 7.847691e-001 4.582914e-001 8.070894e-001 4.691862e-001 8.030728e-001 9.822363e-001 9.642557e-001 8.029448e-001 6.503705e-001 8.890768e-001 6.681014e-001 3.472947e-001 4.520970e+000
<GCONST> 1.338221e+002
<STATE> 3
<MEAN> 39
 -2.156977e+001 -1.215160e+001 4.741009e+000 6.697984e+000 -1.937826e+000 -7.308478e+000 -5.948843e+000 -5.187474e-001 1.278975e-001 -6.538034e+000 3.829779e+000 3.215412e+000 7.309232e+001 5.106178e+000 7.015995e-002 1.805128e+000 -3.560368e-001 1.900348e-001 -1.945768e+000 -4.955258e+000 -1.415221e+000 -1.778123e+000 -1.967800e+000 -5.612542e-001 1.651790e-001 3.034885e+000 1.072311e+000 -3.259653e-001 -2.053692e-001 -6.590190e-001 -2.095157e-001 3.983727e-001 -1.160781e+000 4.366796e-001 -9.728324e-001 -4.563420e-001 -7.728606e-001 -2.948937e-001 -3.134511e-001
<VARIANCE> 39
 6.628207e+001 2.420060e+001 3.021622e+001 1.699236e+001 3.335141e+001 3.800060e+001 3.321194e+001 8.808967e+001 4.741690e+001 5.295104e+001 3.972703e+001 2.079699e+001 2.696388e+001 3.050876e+000 3.172913e+000 5.983663e+000 2.179559e+000 5.284394e+000 9.937704e+000 3.504730e+000 6.568088e+000 4.879255e+000 3.413214e+000 1.925981e+000 2.700724e+000 3.194259e+001 1.033675e+000 3.335664e-001 3.709487e-001 2.488845e-001 9.984675e-001 1.216256e+000 8.542103e-001 1.401899e+000 5.656427e-001 1.237483e+000 1.205874e-001 6.764281e-001 2.302680e+000
<GCONST> 1.330238e+002
<STATE> 4
<MEAN> 39
 -5.996053e+000 -1.228114e+001 5.991533e+000 3.109396e+000 -2.502165e+000 -1.055863e+001 -2.167680e+001 -8.383861e+000 -6.130517e+000 -1.239846e+001 -2.721130e+000 3.577894e+000 7.820817e+001 5.033780e+000 -2.422549e+000 1.032885e+000 -1.579978e+000 -8.952690e-002 1.382284e+000 -5.804505e+000 2.233026e+000 -2.568870e+000 -2.666053e+000 -2.859944e+000 -1.377046e+000 2.985341e+000 -1.217656e+000 -4.177705e-001 -4.990357e-001 -3.172218e-001 2.203383e-002 1.096223e+000 8.724759e-001 1.562203e+000 6.271638e-001 7.180079e-001 -2.409497e-001 -7.469983e-001 -9.492333e-001
<VARIANCE> 39
 2.328668e+001 2.652749e+001 2.575968e+001 1.609005e+001 5.420278e+001 7.493102e+001 5.324445e+001 2.152985e+002 5.343279e+001 4.261964e+001 4.824056e+001 1.250636e+001 3.250054e+001 4.215725e+000 2.644428e+000 2.178145e+000 1.926120e+000 4.261981e+000 6.052009e+000 6.171258e+000 7.005496e+000 6.496337e+000 9.368085e+000 1.688709e+000 5.350167e+000 9.271445e+000 5.864676e-001 6.819032e-001 7.690734e-001 3.777350e-001 8.883848e-001 1.092042e+000 5.864127e-001 1.261297e+000 7.730480e-001 9.385949e-001 2.428111e-001 6.640037e-001 3.689046e+000
<GCONST> 1.354746e+002
<STATE> 5
<MEAN> 39
 -1.518096e+000 -1.976945e+001 7.422531e+000 -1.952337e+000 -4.449204e+000 -4.326035e+000 -2.927065e+001 5.048252e+000 -9.446180e+000 -1.578693e+001 -7.876797e+000 -4.242681e+000 8.126718e+001 1.392052e+000 -1.037974e+000 -1.722578e-001 -2.220175e+000 -7.501730e-001 1.193765e+000 -1.643715e+000 3.484274e+000 5.002463e-001 8.309188e-001 -1.501694e+000 -1.781058e+000 8.423247e-001 -9.750134e-001 8.824412e-001 -4.421916e-001 2.733444e-001 5.626959e-002 -5.772648e-001 1.388281e+000 -6.687974e-001 8.167970e-001 9.984996e-001 6.444752e-001 6.408395e-001 -8.059597e-001
<VARIANCE> 39
 8.864754e+000 1.906338e+001 2.312608e+001 2.556861e+001 3.753350e+001 1.076580e+002 4.871643e+001 1.536456e+002 1.677920e+002 7.341939e+001 9.414559e+001 1.923985e+001 9.571367e+000 2.847278e+000 1.648668e+000 2.546184e+000 2.987028e+000 3.878403e+000 4.798828e+000 5.038386e+000 3.600912e+000 5.035347e+000 4.955958e+000 2.668347e+000 3.832816e+000 1.409913e+000 6.497855e-001 2.334673e-001 3.750217e-001 6.671399e-001 5.925325e-001 8.156826e-001 1.045881e+000 8.317353e-001 1.115607e+000 1.088481e+000 3.574475e-001 5.511053e-001 9.490350e-001
<GCONST> 1.292562e+002
<STATE> 6
<MEAN> 39
 7.631729e-001 -1.591048e+001 4.664551e+000 -5.449050e+000 -6.682056e+000 -5.108377e+000 -2.823183e+001 1.390482e+001 -9.531970e+000 -7.518167e+000 -7.180515e+000 -4.894379e+000 8.136504e+001 6.615722e-002 1.367986e+000 -2.020513e-001 -1.944095e-001 3.384096e-001 2.714851e-001 7.383907e-002 6.343593e-001 -1.580341e-001 1.967127e+000 -6.578310e-001 5.379170e-001 -5.388482e-001 -3.471746e-001 3.606593e-001 -9.729192e-002 2.605276e-001 3.591573e-001 -1.275735e-001 6.567037e-001 -5.651057e-001 -1.029649e-001 -3.638755e-002 1.183482e-002 2.733684e-001 -3.368644e-001
<VARIANCE> 39
 1.487510e+001 1.652286e+001 1.624054e+001 2.157481e+001 3.165614e+001 4.644297e+001 4.445056e+001 1.014650e+002 9.930180e+001 4.005142e+001 8.503933e+001 2.434710e+001 5.417526e+000 7.518352e-001 5.294788e-001 9.486802e-001 1.518066e+000 2.101486e+000 2.221895e+000 2.742983e+000 2.287501e+000 3.109515e+000 2.771508e+000 1.765351e+000 1.623884e+000 1.249480e+000 3.197294e-001 1.455929e-001 3.528420e-001 3.090222e-001 4.757322e-001 5.275183e-001 1.101325e+000 6.943298e-001 6.394581e-001 6.865789e-001 6.342143e-001 4.240127e-001 1.942139e-001
<GCONST> 1.119030e+002
<STATE> 7
<MEAN> 39
 -2.324602e+000 -7.414343e+000 4.405725e+000 -3.085069e+000 2.710299e+000 -2.362849e+000 -2.253579e+001 8.164461e+000 -6.231805e+000 -1.281020e-003 -1.338066e+001 1.934364e+000 7.566344e+001 -2.650661e+000 3.181021e+000 -2.420404e+000 7.328618e-001 2.441185e+000 -2.686957e+000 5.712373e+000 -3.101193e+000 1.576035e+000 -9.223003e-001 1.734899e-001 1.396675e+000 -1.079716e+000 -9.820402e-001 4.697211e-001 -8.830928e-001 5.346629e-002 -1.074075e-001 -8.494995e-001 8.406082e-001 -3.551596e-001 4.727667e-001 -1.012473e+000 4.125697e-001 -4.137059e-001 3.220276e-001
<VARIANCE> 39
 1.380249e+001 2.466437e+001 3.276860e+001 2.972800e+001 6.250412e+001 6.797050e+001 2.057198e+002 8.903214e+001 1.176197e+002 3.386894e+001 9.761872e+001 5.022754e+001 1.386623e+001 3.111317e+000 1.504285e+000 3.104884e+000 1.329483e+000 4.042177e+000 5.203481e+000 7.224185e+000 9.004986e+000 7.263823e+000 6.753860e+000 7.723408e+000 4.312811e+000 7.175130e-001 1.442797e-001 1.856826e-001 3.535532e-001 2.618310e-001 4.185401e-001 8.998461e-001 2.025445e+000 1.058091e+000 1.336349e+000 1.022831e+000 1.207292e+000 8.363958e-001 1.043440e-001
<GCONST> 1.310736e+002
<STATE> 8
<MEAN> 39
 -1.893653e+001 8.524639e+000 -1.143794e+001 -1.565717e+000 9.185635e+000 -1.665653e+001 -3.010638e+000 -1.339786e+000 -1.656997e-001 -6.687450e+000 -1.177089e+001 1.107703e-002 7.597987e+001 -2.801842e+000 2.126508e+000 -2.139508e+000 4.192477e-001 5.272036e-001 -1.518321e+000 1.806616e+000 -6.498656e-001 8.137679e-001 -2.523036e-001 3.860712e-001 -1.339244e+000 -1.826247e-001 6.783261e-001 -6.851093e-001 8.174239e-001 7.073227e-002 -3.961990e-001 5.631149e-001 -1.004392e+000 5.486763e-001 -1.333754e-001 6.527911e-001 1.110167e-001 3.118329e-003 -9.091857e-002
<VARIANCE> 39
 3.283885e+001 3.770752e+001 4.020771e+001 4.926438e+001 5.484967e+001 8.135702e+001 6.334477e+001 5.965685e+001 9.505351e+001 5.208852e+001 4.809872e+001 5.150478e+001 1.195077e+001 3.026663e+000 3.100993e+000 4.960052e+000 1.739355e+000 1.956266e+000 3.751475e+000 7.225004e+000 4.968404e+000 3.701956e+000 5.423212e+000 5.835649e+000 1.814747e+000 6.888113e-001 2.454931e-001 2.067703e-001 3.563398e-001 3.913798e-001 3.853616e-001 6.350576e-001 1.054733e+000 1.068757e+000 8.901462e-001 1.080089e+000 1.378650e+000 9.817878e-001 5.458629e-002
<GCONST> 1.279054e+002
<STATE> 9
<MEAN> 39
 -2.081819e+001 5.141612e+000 -1.081457e+001 5.773992e+000 6.406088e+000 -1.303321e+001 1.140214e+000 -6.684978e+000 3.125081e+000 6.133658e-001 -3.113008e+000 -1.756517e+000 6.823727e+001 5.680123e-001 -9.839315e-001 2.982991e-001 5.411557e-001 -1.951419e-001 7.168142e-001 1.735798e-001 -6.118273e-001 1.323736e-001 2.654009e-001 4.210992e-001 3.931184e-002 -9.519281e-001 1.267956e-001 -1.265890e-001 -6.484000e-004 -2.244584e-002 -9.972950e-003 1.054116e-001 -9.788997e-003 -1.062056e-002 -1.072036e-001 -8.885209e-002 -6.646065e-002 2.573939e-003 -3.320229e-002
<VARIANCE> 39
 4.571910e+001 8.127186e+001 2.658519e+001 3.771579e+001 7.242061e+001 8.239954e+001 4.148327e+001 6.450143e+001 4.698884e+001 7.964374e+001 6.699917e+001 5.287328e+001 4.781841e+001 1.573890e+000 1.552261e+000 1.459514e+000 2.203748e+000 1.408744e+000 6.085588e+000 3.182751e+000 4.664115e+000 6.066349e+000 5.458383e+000 4.076320e+000 4.257988e+000 1.369131e+000 1.728513e-001 2.074953e-001 3.201854e-001 3.849552e-001 2.983592e-001 1.128933e+000 5.945525e-001 9.205249e-001 1.306809e+000 1.045449e+000 7.643133e-001 7.875257e-001 2.282010e-001
<GCONST> 1.284518e+002
<TRANSP> 10
 0.000000e+000 1.000000e+000 0.000000e+000 0.000000e+000 0.000000e+000 0.000000e+000 0.000000e+000 0.000000e+000 0.000000e+000 0.000000e+000
 0.000000e+000 8.168424e-001 1.831576e-001 0.000000e+000 0.000000e+000 0.000000e+000 0.000000e+000 0.000000e+000 0.000000e+000 0.000000e+000
 0.000000e+000 0.000000e+000 5.387819e-001 4.612182e-001 0.000000e+000 0.000000e+000 0.000000e+000 0.000000e+000 0.000000e+000 0.000000e+000
 0.000000e+000 0.000000e+000 0.000000e+000 4.596551e-001 5.403449e-001 0.000000e+000 0.000000e+000 0.000000e+000 0.000000e+000 0.000000e+000
 0.000000e+000 0.000000e+000 0.000000e+000 0.000000e+000 5.740076e-001 4.259925e-001 0.000000e+000 0.000000e+000 0.000000e+000 0.000000e+000
 0.000000e+000 0.000000e+000 0.000000e+000 0.000000e+000 0.000000e+000 8.115909e-001 1.884091e-001 0.000000e+000 0.000000e+000 0.000000e+000
 0.000000e+000 0.000000e+000 0.000000e+000 0.000000e+000 0.000000e+000 0.000000e+000 6.790525e-001 3.209475e-001 0.000000e+000 0.000000e+000
 0.000000e+000 0.000000e+000 0.000000e+000 0.000000e+000 0.000000e+000 0.000000e+000 0.000000e+000 7.746428e-001 2.253571e-001 0.000000e+000
 0.000000e+000 0.000000e+000 0.000000e+000 0.000000e+000 0.000000e+000 0.000000e+000 0.000000e+000 0.000000e+000 9.169645e-001 8.303557e-002
 0.000000e+000 0.000000e+000 0.000000e+000 0.000000e+000 0.000000e+000 0.000000e+000 0.000000e+000 0.000000e+000 0.000000e+000 0.000000e+000
<ENDHMM>
~h "vymazat"
<BEGINHMM>
<NUMSTATES> 10
<STATE> 2
<MEAN> 39
 -1.950373e+000 -2.302595e+000 5.358110e+000 1.129465e+001 -3.624610e+000 -3.723146e+000 -1.674523e+001 -1.054094e+001 -4.401260e+000 -3.041554e+000 1.971522e-001 -1.016803e+000 6.587208e+001 -1.852108e-001 -3.442323e-001 6.119128e-001 -6.320939e-001 -1.227765e+000 -1.223385e+000 -1.198995e+000 9.131590e-001 3.775020e-001 -8.214440e-001 8.603982e-001 8.502815e-001 1.813363e+000 -9.912106e-002 -3.889310e-001 8.422799e-002 -3.095884e-001 -2.300385e-001 1.774952e-001 1.358770e-001 3.619065e-001 6.824131e-002 -1.010304e-001 2.009895e-001 -4.773693e-002 -2.618511e-002
<VARIANCE> 39
 5.255663e+001 3.615119e+001 2.482405e+001 3.547726e+001 5.733460e+001 8.238074e+001 5.374690e+001 7.313500e+001 6.415605e+001 3.707830e+001 8.160262e+001 5.675256e+001 4.232833e+001 5.695021e+000 4.464106e+000 5.199359e+000 3.220615e+000 4.978261e+000 4.262904e+000 6.094296e+000 5.619020e+000 4.401981e+000 4.253806e+000 6.041977e+000 3.943942e+000 2.146259e+000 1.212660e+000 5.750215e-001 8.476677e-001 7.000777e-001 6.769108e-001 9.385120e-001 8.060821e-001 8.738380e-001 9.266969e-001 8.217975e-001 1.009565e+000 8.724070e-001 4.364366e-001
<GCONST> 1.392966e+002
<STATE> 3
<MEAN> 39
 -1.784548e+000 -1.163350e+001 1.659309e+001 1.174763e+000 -1.912228e+001 -8.600237e+000 -2.258612e+001 3.766942e+000 -5.198946e+000 -1.047737e+001 9.660764e+000 2.352069e+000 8.124712e+001 1.281502e+000 4.771138e-002 1.548844e-001 -9.581229e-002 8.951225e-002 1.170501e+000 2.433407e-001 3.782026e-001 -5.778435e-001 -1.071771e-001 -5.955033e-001 -1.149316e+000 -2.662502e-001 9.626538e-003 4.440010e-001 -7.473127e-001 5.158665e-001 1.018759e+000 2.990294e-002 3.736134e-001 -6.993546e-001 1.567968e-001 4.381985e-001 -5.590087e-001 -1.407788e-001 -6.619130e-001
<VARIANCE> 39
 1.251899e+001 7.404545e+000 3.027636e+001 1.137921e+001 5.645181e+001 5.215457e+001 2.256630e+001 1.711226e+001 1.020764e+002 2.488217e+001 6.649754e+001 2.856907e+001 4.274989e+000 7.213137e-001 1.729013e+000 4.121360e+000 2.689999e+000 6.447053e+000 1.052700e+000 1.931628e+000 3.386654e+000 2.556185e+000 2.453910e+000 3.153611e+000 1.397993e+000 2.233199e+000 1.526610e-001 2.247118e-001 2.177243e-001 2.656622e-001 3.380115e-001 4.531190e-001 5.418395e-001 3.311223e-001 5.419861e-001 4.662534e-001 6.138211e-001 3.749763e-001 8.274356e-002
<GCONST> 1.082243e+002
<STATE> 4
<MEAN> 39
 5.331748e+000 -7.301523e+000 8.072505e+000 9.023781e+000 -6.216679e+000 -7.069886e+000 -1.820163e+001 -8.774204e+000 -6.501032e+000 -5.427595e+000 5.579769e+000 -3.193016e+000 7.301347e+001 5.358854e-001 4.484184e-001 -1.541741e+000 3.783989e-001 1.705729e+000 3.533403e-001 2.355990e-001 -1.897284e+000 3.350109e-002 8.386521e-002 -2.781807e-001 4.567465e-002 -4.043093e-001 -2.068760e-001 -2.903781e-001 -8.314383e-002 -7.506581e-001 -3.228960e-001 4.157049e-001 -1.887020e-001 6.697630e-001 2.036823e-002 -4.134337e-001 7.266795e-002 1.511602e-001 5.125218e-001
<VARIANCE> 39
 7.820883e+000 1.909292e+001 1.670071e+001 3.901978e+001 4.368347e+001 8.157957e+001 5.847326e+001 8.141236e+001 7.371772e+001 2.677853e+001 7.460887e+001 4.502031e+001 4.572001e+000 7.286599e-001 1.140686e+000 1.491906e+000 6.329943e+000 2.574381e+000 2.838259e+000 3.117124e+000 6.226094e+000 2.148811e+000 4.150395e+000 2.598129e+000 5.132752e+000 1.811875e+000 1.134129e-001 1.733465e-001 2.819790e-001 1.087872e+000 2.870300e-001 6.464079e-001 5.437050e-001 1.258463e+000 4.999413e-001 5.727410e-001 6.305698e-001 9.671317e-001 7.112556e-002
<GCONST> 1.178612e+002
<STATE> 5
<MEAN> 39
 6.277059e+000 -9.337188e+000 -2.030019e+000 -2.593903e+000 -5.882792e-001 4.492753e+000 -2.027327e+001 -5.276050e+000 -2.960817e+000 -1.150176e+001 2.403018e+000 -4.069096e+000 7.777796e+001 -4.522320e-001 -1.605278e+000 -1.541849e+000 -4.636863e+000 1.126117e+000 3.685575e+000 -1.604517e+000 3.366449e+000 1.092856e+000 -6.574512e-001 -2.669934e-001 -1.334334e+000 1.829184e+000 -2.490270e-001 2.909904e-002 6.435719e-001 3.288271e-001 2.470942e-001 -4.220664e-001 -3.714164e-001 3.369589e-002 -5.277023e-002 7.382656e-001 9.952223e-002 -1.081468e-001 -9.728564e-002
<VARIANCE> 39
 4.615276e+000 2.454319e+001 1.671601e+001 4.648247e+001 5.295422e+001 1.493183e+002 8.046292e+001 4.655901e+001 1.233319e+002 2.046593e+001 9.885912e+001 3.578939e+001 1.019201e+001 6.491529e-001 7.032525e-001 2.287893e+000 3.755514e+000 1.025236e+000 1.693116e+000 3.405014e+000 6.556601e+000 7.576405e+000 3.884176e+000 1.622061e+000 5.152108e+000 3.317800e-001 1.145021e-001 3.325452e-001 2.781668e-001 1.260158e+000 2.555509e-001 8.507552e-001 5.416576e-001 1.180429e+000 9.342391e-001 5.869879e-001 3.818775e-001 5.729853e-001 1.541753e-001
<GCONST> 1.177392e+002
<STATE> 6
<MEAN> 39
 2.838417e+000 -1.119752e+001 -2.352476e+000 -1.150290e+001 6.839527e+000 8.943575e+000 -2.538878e+001 1.762035e+000 -1.591478e+000 -6.410466e+000 -7.548670e-001 -6.619289e+000 8.196458e+001 -6.349670e-001 9.610891e-001 -2.880139e-001 -3.130025e-001 9.764746e-001 -8.108879e-001 8.862646e-001 9.673933e-002 -5.380201e-001 1.429454e+000 -6.210697e-001 -3.011123e-001 5.789581e-002 -7.746515e-002 7.444854e-001 -3.650373e-001 6.299055e-001 -1.993683e-001 -5.374398e-001 9.240506e-001 -8.198298e-001 5.105758e-002 -3.014297e-002 -5.988105e-002 2.485537e-001 -4.205036e-001
<VARIANCE> 39
 5.677478e+000 1.129145e+001 9.980166e+000 9.555348e+000 8.457404e+001 7.871811e+001 5.412492e+001 2.075898e+001 1.949223e+002 2.291784e+001 7.454818e+001 5.153478e+001 3.298853e+000 5.280573e-001 2.194838e+000 1.418415e+000 1.300195e+000 1.543266e+000 1.632038e+000 3.556185e+000 2.159289e+000 1.905980e+000 1.173101e+000 1.709490e+000 1.642158e+000 7.044641e-001 1.006963e-001 2.218718e-001 4.932019e-001 2.944147e-001 3.348915e-001 4.512185e-001 3.085096e-001 5.729568e-001 8.420959e-001 3.091867e-001 3.347639e-001 4.157934e-001 3.342362e-002
<GCONST> 1.032137e+002
<STATE> 7
<MEAN> 39
 -2.736150e+000 2.651188e+000 -1.178940e+001 -8.243871e+000 7.312774e+000 8.970539e-001 -8.592307e+000 -7.039497e+000 -2.543500e+000 -1.967607e+000 -3.068351e+000 -6.109277e+000 7.795348e+001 -2.477845e+000 4.567354e+000 -3.460377e+000 1.706701e+000 3.082025e-001 -2.309239e+000 4.647889e+000 -3.211508e+000 1.417475e+000 -8.439760e-002 -8.464736e-001 1.180122e+000 -1.141499e+000 -1.913256e-001 -1.559095e-001 2.548592e-001 1.244039e-001 7.389428e-002 -3.046322e-001 -5.054083e-001 4.337137e-001 9.761914e-002 -1.327347e-001 -4.282561e-003 8.526260e-002 1.580196e-001
<VARIANCE> 39
 2.511530e+001 4.747176e+001 3.968569e+001 2.151944e+001 4.083801e+001 9.481703e+001 6.925349e+001 6.048293e+001 1.408964e+002 3.053303e+001 2.851358e+001 2.838246e+001 5.114974e+000 7.639789e-001 1.129381e+000 1.913625e+000 1.925135e+000 4.340005e+000 2.569880e+000 3.740810e+000 8.442074e+000 1.613987e+000 2.639735e+000 5.886902e+000 3.963151e+000 1.920451e-001 4.002210e-001 7.785435e-001 1.020221e+000 4.331369e-001 2.714566e-001 4.875542e-001 1.430991e+000 1.778470e+000 4.564062e-001 6.457976e-001 7.358571e-001 5.335694e-001 4.104266e-002
<GCONST> 1.203569e+002
<STATE> 8
<MEAN> 39
 -6.824340e+000 1.018908e+001 -1.277432e+001 -2.988878e+000 8.470583e+000 -9.852382e+000 -8.313671e+000 -1.046822e+001 2.404130e+000 1.598651e+000 -5.547818e+000 -9.621231e-001 7.638899e+001 1.183352e+000 -1.784528e+000 1.869859e+000 -3.921686e-001 -6.118625e-001 -1.943481e-001 -2.937620e+000 1.068155e+000 3.447099e-001 1.412902e+000 -6.909682e-002 1.403954e-001 4.984831e-001 5.084160e-001 -9.396855e-001 4.289301e-001 -5.066654e-001 -3.058409e-001 8.417751e-001 -6.268501e-001 6.138800e-001 -2.000096e-001 1.216617e-001 1.616761e-001 -3.837864e-001 2.255712e-001
<VARIANCE> 39
 2.982455e+001 3.614537e+001 5.281055e+001 1.852735e+001 2.099190e+001 5.622397e+001 1.149006e+002 7.611395e+001 1.141363e+002 5.388735e+001 4.440972e+001 3.440194e+001 6.763997e+000 3.241149e+000 7.433547e+000 3.970276e+000 2.545900e+000 4.105873e+000 7.757055e+000 7.772985e+000 8.974209e+000 1.630426e+000 4.124447e+000 5.070519e+000 4.778631e+000 8.873131e-001 6.593814e-001 9.793435e-001 1.349162e+000 2.314684e-001 6.764402e-001 8.555110e-001 2.390946e+000 1.554933e+000 3.253488e-001 8.443227e-001 9.386111e-001 6.575211e-001 1.214420e-001
<GCONST> 1.331203e+002
<STATE> 9
<MEAN> 39
 3.829309e+000 -6.860469e+000 -2.724378e+000 -1.231360e+001 9.210451e-001 1.867813e+000 -1.864843e+001 1.579363e+000 -4.096914e+000 6.436516e+000 -2.772921e+000 -6.109624e+000 7.508129e+001 4.941274e-001 -2.675772e-001 6.808151e-002 -2.508542e-002 -4.225677e-001 3.691074e-001 1.140398e+000 2.127780e-001 -4.734566e-001 -3.260030e-001 1.459137e-001 -3.310630e-001 -1.205705e+000 -1.109668e-001 2.262520e-001 -6.842545e-002 2.621685e-001 6.334031e-002 -2.395157e-001 2.880842e-001 -2.302218e-001 1.106443e-002 -1.950361e-001 -8.974782e-002 5.717348e-002 -1.580933e-001
<VARIANCE> 39
 9.639830e+000 2.664199e+001 1.166965e+001 1.641785e+001 3.221170e+001 2.868131e+001 6.099722e+001 2.806761e+001 9.064186e+001 2.029132e+002 1.217118e+002 5.105209e+001 5.476724e+001 6.132765e-001 2.153037e+000 1.542362e+000 2.355792e+000 1.927093e+000 4.009896e+000 4.302839e+000 3.994307e+000 3.110076e+000 4.200991e+000 3.879694e+000 3.073888e+000 1.360618e+000 1.349612e-001 3.238466e-001 2.910708e-001 1.881792e-001 4.394598e-001 4.271701e-001 6.846823e-001 4.727595e-001 6.081473e-001 5.411253e-001 5.758885e-001 5.619054e-001 1.482171e-001
<GCONST> 1.181416e+002
<TRANSP> 10
 0.000000e+000 1.000000e+000 0.000000e+000 0.000000e+000 0.000000e+000 0.000000e+000 0.000000e+000 0.000000e+000 0.000000e+000 0.000000e+000
 0.000000e+000 9.085343e-001 9.146567e-002 0.000000e+000 0.000000e+000 0.000000e+000 0.000000e+000 0.000000e+000 0.000000e+000 0.000000e+000
 0.000000e+000 0.000000e+000 8.460870e-001 1.539131e-001 0.000000e+000 0.000000e+000 0.000000e+000 0.000000e+000 0.000000e+000 0.000000e+000
 0.000000e+000 0.000000e+000 0.000000e+000 8.558004e-001 1.441996e-001 0.000000e+000 0.000000e+000 0.000000e+000 0.000000e+000 0.000000e+000
 0.000000e+000 0.000000e+000 0.000000e+000 0.000000e+000 6.975805e-001 3.024195e-001 0.000000e+000 0.000000e+000 0.000000e+000 0.000000e+000
 0.000000e+000 0.000000e+000 0.000000e+000 0.000000e+000 0.000000e+000 8.301983e-001 1.698017e-001 0.000000e+000 0.000000e+000 0.000000e+000
 0.000000e+000 0.000000e+000 0.000000e+000 0.000000e+000 0.000000e+000 0.000000e+000 7.363051e-001 2.636949e-001 0.000000e+000 0.000000e+000
 0.000000e+000 0.000000e+000 0.000000e+000 0.000000e+000 0.000000e+000 0.000000e+000 0.000000e+000 8.530869e-001 1.469131e-001 0.000000e+000
 0.000000e+000 0.000000e+000 0.000000e+000 0.000000e+000 0.000000e+000 0.000000e+000 0.000000e+000 0.000000e+000 9.300738e-001 6.992619e-002
 0.000000e+000 0.000000e+000 0.000000e+000 0.000000e+000 0.000000e+000 0.000000e+000 0.000000e+000 0.000000e+000 0.000000e+000 0.000000e+000
<ENDHMM>
~h "krat"
<BEGINHMM>
<NUMSTATES> 10
<STATE> 2
<MEAN> 39
 -1.199026e+001 -1.256889e+001 -3.126455e+000 2.674158e+000 -7.472616e-001 -1.488320e+001 -6.856049e+000 2.155147e+000 -6.011337e+000 2.912285e+000 -7.448174e+000 5.477100e+000 7.428197e+001 1.424966e+000 8.985140e-001 1.100415e+000 -1.065400e-001 -1.138797e+000 -2.912644e+000 -1.488700e+000 1.539348e+000 -8.903731e-001 -9.528843e-001 4.879359e-001 -9.438057e-002 3.371812e+000 9.338951e-001 -1.383218e-001 3.517812e-001 3.674331e-002 -3.142665e-001 1.401110e+000 1.172219e-001 3.924578e-002 5.330835e-001 -6.039103e-001 6.009418e-001 -7.968960e-001 -9.389889e-001
<VARIANCE> 39
 3.392838e+001 2.239951e+001 3.776646e+001 2.472764e+001 3.405582e+001 7.048264e+001 2.661251e+001 3.568303e+001 4.543874e+001 6.363250e+001 4.783584e+001 2.517641e+001 4.241697e+001 6.869648e+000 2.605293e+000 3.857704e+000 4.005087e+000 5.396442e+000 1.698917e+001 5.735537e+000 4.841273e+000 6.874045e+000 8.583395e+000 5.878206e+000 7.094097e+000 7.325626e+000 8.097734e-001 8.946475e-001 7.197606e-001 8.296270e-001 1.048882e+000 1.929072e+000 9.244134e-001 6.645511e-001 1.526352e+000 1.185851e+000 6.528939e-001 1.109960e+000 8.977070e-001
<GCONST> 1.414069e+002
<STATE> 3
<MEAN> 39
 -5.541928e-001 -1.634620e+001 2.368018e+000 3.326330e-001 -8.915072e+000 -1.243574e+001 -1.452529e+001 5.858134e+000 -1.870110e-001 -3.145465e+000 -3.082537e+000 2.154303e+000 7.918246e+001 1.138309e+000 -2.473348e+000 -1.987520e-001 -7.981068e-001 -9.782125e-001 1.320802e+000 -1.420146e+000 3.162048e-001 1.308482e+000 -8.267725e-001 -3.978103e-001 5.170804e-002 -1.650168e-001 -4.518749e-001 -3.486451e-001 -5.279850e-001 -4.078564e-002 5.855966e-001 2.943348e-001 4.907067e-001 -2.172814e-001 -2.586187e-001 1.265729e-001 -3.865634e-001 7.227673e-002 -1.794987e-001
<VARIANCE> 39
 1.083063e+001 3.591616e+001 2.150234e+001 3.519123e+001 5.291329e+001 7.618179e+001 5.912732e+001 4.988251e+001 8.736284e+001 4.368346e+001 4.437959e+001 3.012327e+001 9.448545e+000 2.101640e+000 1.445078e+000 2.429334e+000 3.382122e+000 4.995055e+000 3.603432e+000 6.465981e+000 5.697424e+000 4.666054e+000 5.450184e+000 4.459394e+000 4.403154e+000 1.459947e+000 5.034043e-001 4.479721e-001 6.256531e-001 9.514505e-001 9.070708e-001 7.911720e-001 1.433488e+000 1.537842e+000 7.645625e-001 1.038949e+000 8.892030e-001 1.189728e+000 4.272417e-001
<GCONST> 1.319837e+002
<STATE> 4
<MEAN> 39
 1.559440e+000 -2.753521e+001 -2.711596e+000 -1.744256e+000 -9.448977e+000 -6.334693e+000 -1.519139e+001 6.864373e+000 -1.165307e+000 -8.010965e+000 -4.044077e+000 -2.800350e-002 7.770647e+001 1.671591e-001 -1.523008e+000 -1.398601e+000 -6.706634e-001 1.135784e+000 2.140014e+000 9.719241e-001 6.529373e-001 -1.321740e+000 -1.473131e+000 -1.538504e-002 -2.470624e+000 6.201205e-001 -3.033788e-001 6.777633e-001 -3.143733e-002 -2.434889e-001 1.279996e-001 1.758025e-001 2.634173e-001 2.277754e-001 -2.734413e-001 1.384160e-001 8.764578e-002 -5.729139e-001 1.578924e-001
<VARIANCE> 39
 7.349211e+000 4.995450e+001 2.074508e+001 1.872903e+001 5.315712e+001 1.094805e+002 4.949033e+001 6.033714e+001 9.300317e+001 8.946477e+001 6.790311e+001 3.731192e+001 1.487110e+001 6.394448e-001 2.169422e+000 2.952482e+000 2.081666e+000 1.489090e+000 2.405453e+000 3.431966e+000 6.090976e+000 2.097569e+000 2.906343e+000 3.644720e+000 4.024280e+000 1.627815e+000 9.358376e-002 3.825384e-001 1.880035e-001 3.173299e-001 2.643145e-001 2.578836e-001 6.658305e-001 6.028301e-001 4.923075e-001 6.647182e-001 5.377581e-001 6.284388e-001 3.600018e-001
<GCONST> 1.182476e+002
<STATE> 5
<MEAN> 39
 6.543169e-002 -2.753528e+001 -7.413051e+000 -7.174119e+000 -4.833349e+000 4.327194e+000 -1.410104e+001 1.139896e+001 -3.412101e+000 -9.988134e+000 -6.288145e+000 -1.130631e+001 7.877532e+001 -1.620185e-001 1.085103e+000 -1.219545e+000 -6.196826e-001 9.313869e-001 1.851976e+000 8.097360e-001 4.357511e-001 5.063795e-001 4.218217e-001 1.528867e-003 -1.364484e+000 -2.239752e-001 7.468939e-002 3.815635e-001 1.725900e-001 2.896754e-001 2.028330e-002 -2.588521e-001 -9.702159e-002 -3.771913e-001 3.593203e-001 3.330057e-001 3.541039e-002 5.162999e-001 -1.004960e-001
<VARIANCE> 39
 5.971251e+000 5.897575e+001 5.947541e+001 4.724992e+001 1.767590e+001 1.756996e+002 6.554262e+001 1.147016e+002 1.129670e+002 8.228874e+001 9.566521e+001 5.495997e+001 1.145647e+001 4.672550e-001 1.518717e+000 1.045724e+000 2.754674e+000 1.089410e+000 1.838546e+000 2.457342e+000 2.575219e+000 3.170071e+000 3.225982e+000 3.990452e+000 3.425670e+000 9.506840e-001 8.252944e-002 2.016333e-001 2.918039e-001 3.893682e-001 3.116143e-001 3.977039e-001 5.202730e-001 4.907610e-001 3.317499e-001 6.473847e-001 7.102687e-001 5.852780e-001 9.735575e-002
<GCONST> 1.162665e+002
<STATE> 6
<MEAN> 39
 1.350664e+000 -1.951741e+001 -6.721711e+000 -7.873298e+000 8.100753e+000 2.026474e+001 -1.355704e+001 1.314032e+001 4.892425e+000 -4.998926e+000 -8.277092e+000 -1.787785e+001 7.734369e+001 2.376362e-001 1.020239e+000 2.061757e-001 1.774288e-001 8.652716e-001 4.881116e-001 9.147296e-003 -1.119840e+000 -3.657178e-001 1.383168e-001 -7.069255e-002 -1.142542e-001 1.064497e-001 2.845996e-002 -6.385511e-002 1.591242e-001 -6.275407e-003 -1.087000e-001 -1.339035e-001 -2.309145e-001 -1.735452e-001 -1.165097e-001 4.214867e-002 1.631261e-002 2.204987e-001 3.401919e-002
<VARIANCE> 39
 7.790352e+000 3.841424e+001 4.749195e+001 2.945386e+001 4.145517e+001 7.819820e+001 3.079447e+001 1.417680e+002 5.684518e+001 2.063769e+001 3.908934e+001 3.475471e+001 2.985299e+001 4.546747e-001 1.617599e+000 8.894922e-001 2.096433e+000 3.087473e+000 1.727432e+000 2.996691e+000 2.835352e+000 2.184266e+000 1.577424e+000 2.783639e+000 1.983875e+000 6.434694e-001 8.061775e-002 1.952573e-001 9.702160e-002 4.237761e-001 4.513867e-001 2.814779e-001 5.443727e-001 3.250506e-001 4.542366e-001 3.442879e-001 7.596468e-001 3.078943e-001 8.004098e-002
<GCONST> 1.084284e+002
<STATE> 7
<MEAN> 39
 1.975968e+000 -1.254334e+001 -1.204222e+001 -3.019053e+000 -6.725419e-001 -7.780154e-001 -9.100181e+000 -1.294767e+000 -1.223657e+001 -9.674321e+000 4.694434e+000 -7.588015e+000 8.268964e+001 4.835743e-002 5.410451e-001 2.197133e-001 -2.259077e-001 -1.984404e-001 1.346180e-002 -6.000791e-001 -2.858482e-001 -4.909961e-002 3.778670e-001 1.482030e-001 2.192316e-001 7.276542e-002 1.923589e-002 -1.683953e-002 -3.111405e-002 -5.986824e-002 -1.943285e-002 -1.136485e-001 3.410382e-002 6.997143e-002 4.330195e-002 -1.605600e-002 -9.845080e-002 -7.008804e-002 -1.112409e-001
<VARIANCE> 39
 6.412793e+000 2.680950e+001 2.846547e+001 2.274768e+001 2.378405e+001 5.554890e+001 5.060135e+001 1.959906e+001 2.856521e+001 1.865947e+001 3.476881e+001 1.970779e+001 6.196190e+000 4.596846e-001 6.166616e-001 4.412482e-001 7.685136e-001 1.168426e+000 1.721209e+000 2.112878e+000 2.273250e+000 1.561637e+000 1.612390e+000 1.695547e+000 1.354152e+000 2.927342e-001 5.242163e-002 1.157900e-001 1.167454e-001 1.247460e-001 2.224883e-001 2.046247e-001 3.593279e-001 3.369935e-001 3.428958e-001 2.285396e-001 2.743802e-001 1.798735e-001 5.220795e-002
<GCONST> 8.942542e+001
<STATE> 8
<MEAN> 39
 4.763463e+000 -6.988916e+000 -4.618149e+000 -9.633961e+000 9.835234e+000 1.282437e+001 -1.790538e+001 -3.573039e+000 2.253237e+000 -5.152936e+000 -9.007443e+000 -1.012905e+001 7.774253e+001 2.552483e-001 9.902787e-001 -5.025136e-001 -2.473479e-001 7.857196e-001 -1.017555e+000 1.172972e+000 -6.596832e-001 -2.353286e-001 1.075524e-001 -9.597050e-001 6.972089e-001 -8.963200e-001 -8.853703e-002 -1.982028e-002 -1.426195e-001 1.638570e-001 1.251314e-001 1.356144e-001 4.991909e-001 3.954977e-002 -1.655900e-001 -6.149467e-002 -1.524037e-001 9.283733e-003 -2.244059e-001
<VARIANCE> 39
 5.322249e+000 2.330717e+001 3.320204e+001 1.829964e+001 7.540990e+001 1.234000e+002 5.891240e+001 3.433221e+001 9.394154e+001 4.807248e+001 6.141371e+001 2.038145e+001 1.559982e+001 4.965908e-001 7.690660e-001 1.472136e+000 1.937878e+000 3.238082e+000 3.260567e+000 4.301374e+000 3.850066e+000 4.817205e+000 3.400188e+000 4.119496e+000 3.370970e+000 1.163393e+000 1.114540e-001 1.386495e-001 2.980728e-001 3.488092e-001 5.945256e-001 5.241288e-001 7.596746e-001 7.455828e-001 8.081452e-001 5.950798e-001 6.324632e-001 7.606698e-001 7.178660e-002
<GCONST> 1.165148e+002
<STATE> 9
<MEAN> 39
 2.852716e+000 -2.447747e+000 -1.095339e+001 -3.247275e+000 8.583410e+000 6.575053e+000 2.100618e+000 -3.534996e+000 -6.635241e+000 -4.405344e+000 -1.118862e+001 -7.595235e+000 6.464461e+001 -4.866568e-001 -2.609678e-001 6.887684e-002 1.045083e+000 -8.280732e-001 6.058525e-001 1.397659e+000 1.193239e-002 -1.027588e-001 -2.773543e-001 -1.106390e-001 -4.132435e-001 -1.749781e+000 -9.051633e-002 -1.155489e-001 2.210979e-001 -4.829636e-003 -2.872914e-001 -9.585170e-002 -2.898676e-001 2.576684e-001 2.701052e-001 -7.669678e-002 1.385633e-001 -5.735814e-002 1.918579e-001
<VARIANCE> 39
 9.057251e+000 2.732216e+001 2.430192e+001 2.490503e+001 8.831835e+001 6.102934e+001 5.393575e+001 5.740300e+001 9.907188e+001 4.176508e+001 7.097276e+001 2.408327e+001 2.992299e+001 5.641171e-001 6.250992e-001 2.159733e+000 1.237436e+000 3.763263e+000 3.987493e+000 6.143005e+000 5.192395e+000 4.502564e+000 2.804512e+000 5.059710e+000 2.580018e+000 6.001032e-001 9.882013e-002 1.431160e-001 2.389334e-001 2.945744e-001 6.652190e-001 8.265711e-001 9.862830e-001 1.010809e+000 1.058091e+000 5.714306e-001 6.357298e-001 6.483808e-001 8.338623e-002
<GCONST> 1.187134e+002
<TRANSP> 10
 0.000000e+000 1.000000e+000 0.000000e+000 0.000000e+000 0.000000e+000 0.000000e+000 0.000000e+000 0.000000e+000 0.000000e+000 0.000000e+000
 0.000000e+000 7.825409e-001 2.174591e-001 0.000000e+000 0.000000e+000 0.000000e+000 0.000000e+000 0.000000e+000 0.000000e+000 0.000000e+000
 0.000000e+000 0.000000e+000 7.972993e-001 2.027007e-001 0.000000e+000 0.000000e+000 0.000000e+000 0.000000e+000 0.000000e+000 0.000000e+000
 0.000000e+000 0.000000e+000 0.000000e+000 6.930092e-001 3.069908e-001 0.000000e+000 0.000000e+000 0.000000e+000 0.000000e+000 0.000000e+000
 0.000000e+000 0.000000e+000 0.000000e+000 0.000000e+000 7.701260e-001 2.298740e-001 0.000000e+000 0.000000e+000 0.000000e+000 0.000000e+000
 0.000000e+000 0.000000e+000 0.000000e+000 0.000000e+000 0.000000e+000 8.694735e-001 1.305265e-001 0.000000e+000 0.000000e+000 0.000000e+000
 0.000000e+000 0.000000e+000 0.000000e+000 0.000000e+000 0.000000e+000 0.000000e+000 8.907989e-001 1.092011e-001 0.000000e+000 0.000000e+000
 0.000000e+000 0.000000e+000 0.000000e+000 0.000000e+000 0.000000e+000 0.000000e+000 0.000000e+000 8.613158e-001 1.386843e-001 0.000000e+000
 0.000000e+000 0.000000e+000 0.000000e+000 0.000000e+000 0.000000e+000 0.000000e+000 0.000000e+000 0.000000e+000 8.743715e-001 1.256285e-001
 0.000000e+000 0.000000e+000 0.000000e+000 0.000000e+000 0.000000e+000 0.000000e+000 0.000000e+000 0.000000e+000 0.000000e+000 0.000000e+000
<ENDHMM>
~h "procent"
<BEGINHMM>
<NUMSTATES> 10
<STATE> 2
<MEAN> 39
 -3.163547e+000 -1.050359e+001 -2.847580e+000 7.333680e+000 -4.546785e+000 -5.453875e-001 -1.733241e+001 -5.623667e+000 -1.741945e+000 -2.723309e+000 -1.343293e+000 -3.670091e+000 7.241429e+001 1.142006e+000 -3.188324e-001 3.634731e-001 -8.736619e-001 -1.106272e+000 1.052948e+000 -2.334106e+000 -2.556418e-001 -4.504766e-001 -7.973498e-002 -3.919020e-001 -7.957640e-001 1.726396e+000 -1.589197e-001 -2.101912e-002 1.167338e-001 -5.688193e-001 -7.021022e-003 2.385622e-001 9.593482e-002 2.520983e-001 -1.357003e-001 2.752957e-001 1.890832e-001 3.223867e-002 -4.637064e-001
<VARIANCE> 39
 2.599585e+001 4.307412e+001 2.866228e+001 6.827406e+001 5.123230e+001 1.194840e+002 1.258504e+002 1.062603e+002 8.944930e+001 6.766493e+001 8.621060e+001 5.703787e+001 8.880665e+001 2.492638e+000 5.406965e+000 2.745342e+000 8.238585e+000 3.268499e+000 1.479609e+001 1.615360e+001 9.217265e+000 5.852220e+000 5.982229e+000 6.976875e+000 4.625951e+000 1.020584e+001 4.450318e-001 1.159023e+000 5.885954e-001 1.200550e+000 7.226393e-001 3.220907e+000 3.576613e+000 1.805223e+000 9.582925e-001 7.821509e-001 1.382336e+000 9.524435e-001 1.937690e+000
<GCONST> 1.524963e+002
<STATE> 3
<MEAN> 39
 2.096844e+000 -8.497128e+000 1.812966e+000 -1.369684e+001 -7.213552e+000 5.556509e+000 -2.734910e+001 -6.664785e+000 -1.103197e+001 2.808776e+000 -4.073455e-001 -7.483006e+000 7.656560e+001 3.420877e-001 1.012807e+000 -1.847534e-001 -1.518348e+000 8.316762e-001 -9.859446e-001 2.057141e+000 -5.848013e-001 -1.508970e-001 1.931263e-001 -1.860478e-002 -3.788650e-001 -1.390964e+000 -6.849945e-002 -9.404536e-002 -4.034172e-001 6.889286e-001 9.707290e-002 -3.491804e-001 7.945009e-001 -2.104302e-001 3.466298e-001 -2.416739e-001 -2.588420e-001 2.171525e-002 -4.764121e-001
<VARIANCE> 39
 7.735530e+000 3.234940e+001 1.838653e+001 3.651991e+001 3.682323e+001 9.809357e+001 1.147759e+002 6.377822e+001 5.266442e+001 8.174002e+001 8.921148e+001 9.495520e+001 2.365828e+001 6.443838e-001 2.453126e+000 2.776825e+000 7.089656e+000 3.481386e+000 2.725224e+000 9.359092e+000 5.690852e+000 3.979083e+000 5.940517e+000 6.811530e+000 4.247695e+000 3.454284e+000 1.922450e-001 6.275333e-001 3.098116e-001 4.609973e-001 6.973692e-001 7.258872e-001 1.508974e+000 9.392462e-001 7.421737e-001 9.334406e-001 9.489908e-001 8.247067e-001 3.700254e-001
<GCONST> 1.328062e+002
<STATE> 4
<MEAN> 39
 2.097077e+000 -6.794907e+000 -5.137320e+000 -1.295358e+001 -2.721068e+000 -3.070027e+000 -9.947072e+000 -1.015620e+001 -6.737750e+000 9.814368e-001 -4.832780e+000 -9.252056e+000 6.464977e+001 -2.700417e+000 1.377273e+000 -2.089442e+000 1.518111e+000 1.648508e+000 -3.151766e+000 2.853895e+000 7.866926e-001 7.891225e-001 -6.026323e-001 -8.019794e-001 1.228494e+000 9.755664e-002 -1.290609e+000 1.025318e+000 -2.038859e-001 4.844190e-001 4.688382e-001 -5.081458e-001 -1.169900e-001 5.112524e-001 -3.269883e-002 5.428116e-002 3.061897e-002 4.979204e-001 1.007145e+000
<VARIANCE> 39
 2.235411e+001 1.076624e+001 2.108189e+001 5.245163e+001 4.414146e+001 6.851814e+001 4.309332e+001 5.834528e+001 4.788414e+001 2.909922e+001 5.603429e+001 5.033310e+001 4.806592e+000 5.736156e+000 3.827646e+000 1.683070e+000 3.919889e+000 7.036206e+000 5.522657e+000 3.790307e+000 4.480221e+000 3.579444e+000 5.580962e+000 4.805400e+000 5.460482e+000 3.091894e+000 2.904049e-001 2.806525e-001 2.498160e-001 7.514526e-001 8.502389e-001 8.237831e-001 1.055105e+000 1.009909e+000 6.835659e-001 9.450210e-001 1.116102e+000 8.050928e-001 1.100871e-001
<GCONST> 1.284028e+002
<STATE> 5
<MEAN> 39
 -1.933715e+001 8.454925e+000 -1.410237e+001 -2.180176e+000 6.179492e+000 -1.613819e+001 6.327108e-001 -2.950641e+000 -5.055226e+000 -1.908599e-002 -5.124631e+000 -1.789786e+000 7.226749e+001 -4.784635e+000 2.749527e+000 -4.914395e-001 1.916230e+000 1.139017e+000 -1.749561e+000 3.169624e-001 1.940650e+000 3.200659e-001 -3.557956e-001 1.851114e-001 1.410992e+000 1.849583e+000 9.222856e-001 -1.367754e+000 1.021748e+000 -4.262852e-001 -6.663503e-001 7.484369e-001 -1.015209e+000 -1.851283e-001 1.041859e-001 -2.351124e-001 -1.373815e-002 -5.795574e-002 -2.682753e-001
<VARIANCE> 39
 4.345203e+001 3.298149e+001 5.472966e+001 2.324750e+001 8.722131e+001 5.229964e+001 5.430885e+001 4.970348e+001 3.758964e+001 6.603397e+001 6.589320e+001 3.183331e+001 5.255027e+000 3.203709e+000 6.552663e+000 6.494232e+000 4.576055e+000 4.377734e+000 3.481857e+000 5.782170e+000 4.642212e+000 3.176676e+000 5.199773e+000 4.178913e+000 3.938807e+000 3.156523e-001 5.866044e-001 1.155772e+000 5.654007e-001 5.883561e-001 6.886136e-001 7.289851e-001 6.932083e-001 5.340437e-001 7.885439e-001 1.936038e+000 8.977280e-001 6.275612e-001 8.239625e-002
<GCONST> 1.306274e+002
<STATE> 6
<MEAN> 39
 -2.615807e+001 1.313838e+000 -7.389071e+000 2.199678e+000 5.373339e+000 -1.875904e+001 -5.208386e+000 9.921005e-001 -1.710614e+000 -5.432665e+000 -7.992498e+000 3.547254e+000 7.548846e+001 1.581502e+000 -2.658726e+000 1.406061e+000 1.003122e+000 -1.609048e-001 8.186615e-001 -1.215794e+000 2.106432e-001 6.171091e-001 -5.174787e-001 -1.155839e+000 2.132205e-001 -3.327126e-001 1.304449e+000 7.433439e-002 1.518477e-002 -1.652595e-001 2.958436e-002 5.918207e-001 -1.258910e-001 -1.977615e-001 -2.795952e-001 3.883713e-001 -1.319237e-001 -6.443221e-001 -1.123425e-001
<VARIANCE> 39
 1.256683e+001 4.209972e+001 4.214871e+001 3.863160e+001 6.762691e+001 6.524432e+001 5.935734e+001 7.156135e+001 6.868422e+001 3.370134e+001 5.676600e+001 4.587832e+001 7.470687e+000 5.119787e+000 2.387239e+000 2.739282e+000 1.789282e+000 1.587947e+000 3.485821e+000 2.287361e+000 1.818791e+000 4.143402e+000 7.042427e+000 3.893778e+000 3.546062e+000 8.959010e-001 2.628020e-001 1.138988e+000 4.630121e-001 3.810784e-001 3.343159e-001 6.086192e-001 5.763436e-001 4.253370e-001 7.254188e-001 1.126311e+000 9.210976e-001 6.790621e-001 3.875194e-001
<GCONST> 1.252727e+002
<STATE> 7
<MEAN> 39
 -7.598600e+000 -4.585375e+000 -1.166834e+000 4.981263e+000 5.709437e+000 -8.292154e+000 -1.273864e+001 1.451199e+000 -1.285940e+000 -2.110805e+000 -1.436973e+001 -3.289153e+000 7.580672e+001 4.962656e+000 -1.047763e+000 1.919223e+000 -1.581619e+000 -1.812620e+000 2.947244e+000 -3.775882e+000 1.127861e+000 -4.025142e-001 6.606845e-001 -1.591667e-001 -2.921043e+000 2.234354e+000 -6.835374e-001 -2.656567e-001 -1.466003e-001 -6.141563e-001 -7.467138e-001 -2.656820e-003 -3.151395e-001 5.027774e-001 6.734890e-002 -3.643788e-001 6.117163e-001 5.424739e-002 4.868703e-001
<VARIANCE> 39
 5.761984e+001 2.205499e+001 3.636388e+001 3.582122e+001 3.295153e+001 7.654114e+001 6.316962e+001 1.083918e+002 6.310270e+001 5.714713e+001 7.664888e+001 2.664855e+001 2.135318e+001 3.157936e+000 2.735079e+000 2.202382e+000 2.707403e+000 2.462481e+000 2.239786e+000 7.252944e+000 5.574250e+000 6.652497e+000 6.002820e+000 6.160063e+000 3.232577e+000 1.491276e+000 8.550122e-001 3.788370e-001 7.815057e-001 3.421918e-001 3.203016e-001 4.761561e-001 1.460357e+000 7.434191e-001 1.237876e+000 1.067962e+000 3.146159e-001 8.292585e-001 5.567306e-001
<GCONST> 1.320670e+002
<STATE> 8
<MEAN> 39
 1.246378e+000 -1.063927e+001 2.060327e+000 -2.411563e+000 -5.178792e+000 1.954443e-001 -2.384409e+001 1.038569e+001 -3.997669e+000 -7.468439e+000 -6.649799e+000 -1.261513e+001 8.219524e+001 4.855002e-001 6.760070e-002 -3.562584e-002 -3.727689e-002 -5.696880e-001 4.900762e-001 3.839748e-001 -5.777247e-002 -2.864682e-001 -4.304716e-001 3.213625e-001 -6.512684e-001 -4.576944e-001 -2.292513e-001 3.482828e-001 -6.334928e-002 3.900051e-001 2.561296e-001 -3.899828e-001 6.966287e-001 -5.628888e-001 -3.418731e-002 1.159431e-001 -1.544331e-001 2.696636e-001 -4.736171e-001
<VARIANCE> 39
 7.731082e+000 2.096245e+001 2.359501e+001 1.793479e+001 6.347204e+001 5.001246e+001 4.010054e+001 8.318232e+001 1.706367e+002 7.408884e+001 1.922174e+002 3.833089e+001 1.785375e+001 6.446859e-001 2.117857e+000 2.104290e+000 2.574117e+000 2.839428e+000 3.621784e+000 3.406026e+000 4.559572e+000 2.680156e+000 3.285341e+000 2.867720e+000 1.302180e+000 1.523385e+000 3.037386e-001 2.549164e-001 4.007882e-001 4.295609e-001 5.611979e-001 4.232806e-001 3.532472e-001 5.814081e-001 5.894358e-001 6.353353e-001 5.485421e-001 3.861805e-001 1.240576e-001
<GCONST> 1.192491e+002
<STATE> 9
<MEAN> 39
 5.731404e+000 -2.611537e+000 6.068809e+000 7.293752e+000 -3.925382e+000 -3.210804e+000 -7.795601e+000 -8.584081e+000 -5.234772e+000 -2.913144e+000 -9.630079e+000 -9.330167e+000 6.709354e+001 1.519665e-002 2.785280e-001 1.616995e-001 7.122267e-001 1.296845e-001 -2.150292e-001 1.031744e+000 -1.003807e+000 -2.122965e-001 2.560615e-001 3.250495e-001 4.321047e-001 -1.019942e+000 -1.160393e-001 -1.119585e-001 -8.787177e-002 -1.163893e-001 8.275346e-002 4.994148e-002 -1.549572e-001 1.826832e-001 2.755987e-002 -7.541873e-002 2.960683e-002 1.349233e-002 6.188893e-002
<VARIANCE> 39
 1.114607e+001 2.037549e+001 1.634300e+001 2.693757e+001 7.986072e+001 6.257912e+001 6.963807e+001 8.695213e+001 5.704898e+001 7.563536e+001 8.993250e+001 3.776260e+001 4.669305e+001 8.493773e-001 1.490650e+000 9.404472e-001 1.151789e+000 2.165316e+000 2.603965e+000 4.197215e+000 5.328969e+000 3.860152e+000 4.266136e+000 3.154641e+000 3.338364e+000 3.772597e-001 8.344482e-002 1.724798e-001 1.358732e-001 2.220268e-001 3.944168e-001 3.977228e-001 7.228121e-001 7.182186e-001 7.055112e-001 8.114889e-001 4.541029e-001 6.189145e-001 4.548886e-002
<GCONST> 1.149260e+002
<TRANSP> 10
 0.000000e+000 1.000000e+000 0.000000e+000 0.000000e+000 0.000000e+000 0.000000e+000 0.000000e+000 0.000000e+000 0.000000e+000 0.000000e+000
 0.000000e+000 8.998497e-001 1.001503e-001 0.000000e+000 0.000000e+000 0.000000e+000 0.000000e+000 0.000000e+000 0.000000e+000 0.000000e+000
 0.000000e+000 0.000000e+000 8.653011e-001 1.346989e-001 0.000000e+000 0.000000e+000 0.000000e+000 0.000000e+000 0.000000e+000 0.000000e+000
 0.000000e+000 0.000000e+000 0.000000e+000 7.715861e-001 2.284139e-001 0.000000e+000 0.000000e+000 0.000000e+000 0.000000e+000 0.000000e+000
 0.000000e+000 0.000000e+000 0.000000e+000 0.000000e+000 7.420750e-001 2.579250e-001 0.000000e+000 0.000000e+000 0.000000e+000 0.000000e+000
 0.000000e+000 0.000000e+000 0.000000e+000 0.000000e+000 0.000000e+000 8.157950e-001 1.842050e-001 0.000000e+000 0.000000e+000 0.000000e+000
 0.000000e+000 0.000000e+000 0.000000e+000 0.000000e+000 0.000000e+000 0.000000e+000 7.051806e-001 2.948194e-001 0.000000e+000 0.000000e+000
 0.000000e+000 0.000000e+000 0.000000e+000 0.000000e+000 0.000000e+000 0.000000e+000 0.000000e+000 8.796526e-001 1.203475e-001 0.000000e+000
 0.000000e+000 0.000000e+000 0.000000e+000 0.000000e+000 0.000000e+000 0.000000e+000 0.000000e+000 0.000000e+000 9.343522e-001 6.564784e-002
 0.000000e+000 0.000000e+000 0.000000e+000 0.000000e+000 0.000000e+000 0.000000e+000 0.000000e+000 0.000000e+000 0.000000e+000 0.000000e+000
<ENDHMM>
~h "dva"
<BEGINHMM>
<NUMSTATES> 10
<STATE> 2
<MEAN> 39
 -1.909274e-001 -1.228649e+000 7.191919e+000 9.678553e+000 -2.923579e+000 -4.984883e+000 -9.338274e+000 -3.114869e+000 -3.513288e-001 -3.060100e+000 -4.739795e+000 -1.636378e+000 6.392113e+001 -3.489587e-001 -8.695121e-001 -3.874461e-001 -1.712184e-001 3.411430e-001 -1.787603e-001 -5.157991e-001 6.112437e-002 -8.246226e-002 -2.673652e-001 4.002451e-002 2.847040e-001 1.465296e+000 -1.606851e-001 -5.685023e-002 -1.228171e-001 -9.586135e-002 8.828793e-002 1.900313e-001 -3.155190e-002 -7.986584e-002 -5.283831e-002 5.158043e-003 -6.329646e-002 -1.551332e-001 -2.357542e-001
<VARIANCE> 39
 6.405906e+001 6.264616e+001 2.937381e+001 2.614152e+001 5.542141e+001 2.825515e+001 4.087855e+001 1.079739e+002 7.542017e+001 3.236832e+001 3.996751e+001 3.972387e+001 7.179014e+001 8.561887e+000 4.049431e+000 3.373039e+000 4.329937e+000 7.099936e+000 4.273713e+000 6.603344e+000 9.376247e+000 6.178940e+000 4.519712e+000 2.721051e+000 5.580135e+000 7.894627e+000 1.732544e+000 8.574683e-001 5.424923e-001 7.805531e-001 1.296491e+000 9.626538e-001 1.362856e+000 1.668183e+000 1.051417e+000 8.795395e-001 6.093411e-001 1.512192e+000 2.137462e+000
<GCONST> 1.448715e+002
<STATE> 3
<MEAN> 39
 -7.623362e+000 -7.322170e+000 -1.108297e+000 5.211896e+000 7.882234e-002 -4.291721e+000 -1.453414e+001 -8.182929e+000 -6.128133e+000 -7.277137e+000 -2.368526e+000 -3.805068e+000 7.347599e+001 1.302873e+000 -4.668063e-002 -6.928161e-001 -4.535771e-001 -3.098274e-001 7.434375e-001 -6.556129e-001 -5.173091e-001 -3.346206e-001 1.601371e+000 1.312075e+000 -1.582965e+000 -2.838750e-001 3.533297e-001 -6.360026e-002 -9.311977e-002 -3.184366e-001 1.104604e-001 7.212288e-002 3.636266e-001 7.566770e-002 -2.931560e-001 5.526386e-001 5.491312e-001 -1.427497e-001 -3.697574e-001
<VARIANCE> 39
 5.596636e+001 3.215508e+001 4.056139e+001 3.530119e+001 3.887903e+001 3.733352e+001 9.865234e+001 3.756563e+001 2.209249e+002 6.055267e+001 4.230859e+001 3.686303e+001 1.350886e+001 3.461627e+000 2.398882e+000 9.355580e-001 4.038807e+000 5.062726e+000 3.310323e+000 3.857920e+000 1.981215e+000 4.357007e+000 6.176157e+000 2.252969e+000 6.503678e+000 2.358305e+000 6.865901e-001 5.869769e-001 1.824836e-001 7.895309e-001 1.383437e+000 4.673660e-001 1.077770e+000 5.157271e-001 8.902260e-001 9.058890e-001 3.440465e-001 1.638696e+000 9.195714e-001
<GCONST> 1.317865e+002
<STATE> 4
<MEAN> 39
 3.261180e+000 -7.226103e+000 1.576087e-001 6.222203e+000 2.760688e+000 2.273521e+000 -1.668008e+001 -1.204532e+001 -3.032856e+000 5.875249e+000 -7.576097e-001 -7.405274e+000 6.961823e+001 9.832652e-001 2.129112e-001 -9.887971e-001 -1.117140e+000 6.689625e-001 1.249315e+000 -5.288896e-002 -2.896748e-001 -1.385449e+000 6.868209e-001 1.783326e+000 -8.352968e-001 -1.413741e-001 -1.724064e-001 -2.546417e-001 7.596975e-003 -5.285250e-001 -2.855918e-001 1.813630e-001 -2.729531e-001 1.725049e-001 2.686217e-001 -6.034210e-001 1.670191e-002 -1.567445e-001 6.170651e-001
<VARIANCE> 39
 2.568822e+001 2.373678e+001 4.114790e+001 4.437773e+001 3.371106e+001 4.756787e+001 4.138942e+001 5.966654e+001 1.358007e+002 1.953379e+001 4.966648e+001 3.783272e+001 2.656026e+001 1.995138e+000 2.441602e+000 7.416042e-001 5.042213e+000 5.010729e+000 2.166696e+000 3.889462e+000 3.102054e+000 2.972985e+000 2.845089e+000 2.721461e+000 3.733885e+000 4.270247e+000 1.082961e-001 3.733029e-001 1.681142e-001 5.362661e-001 5.300339e-001 4.876246e-001 3.473074e-001 8.000996e-001 6.294671e-001 6.230842e-001 3.655726e-001 7.549578e-001 2.590113e-001
<GCONST> 1.213537e+002
<STATE> 5
<MEAN> 39
 4.085883e+000 -9.030402e+000 -3.957842e+000 -5.326136e+000 2.787817e+000 5.502612e+000 -1.696841e+001 -9.017373e+000 -9.092349e+000 1.262920e+000 8.437886e+000 -1.286580e+001 7.510779e+001 1.038555e+000 -1.135972e+000 -5.993118e-001 -2.871294e+000 -1.003484e+000 1.636159e+000 -8.151696e-001 5.460887e-001 -4.710508e-001 -5.424523e-001 1.297791e+000 -2.884119e+000 2.162460e+000 -4.873491e-001 -1.063523e-002 1.956069e-001 3.720975e-001 -6.754664e-003 -1.533861e-001 3.525647e-001 2.209513e-001 7.676684e-002 4.829332e-003 -7.994542e-001 2.421225e-001 8.481757e-002
<VARIANCE> 39
 1.072572e+001 1.957887e+001 4.268812e+001 5.824269e+001 7.542138e+001 9.353851e+001 5.760540e+001 4.152145e+001 1.255431e+002 2.345876e+001 9.488383e+001 3.553006e+001 1.344754e+001 2.078342e+000 1.143748e+000 1.566154e+000 2.774446e+000 4.032201e+000 2.038907e+000 3.168902e+000 2.950193e+000 3.707995e+000 3.276147e+000 3.740844e+000 3.275114e+000 8.736643e-001 2.614527e-001 2.203397e-001 2.732804e-001 8.260288e-001 9.543542e-001 3.383514e-001 7.809963e-001 4.841366e-001 5.695879e-001 8.198397e-001 8.080848e-001 1.290085e+000 2.598583e-001
<GCONST> 1.232256e+002
<STATE> 6
<MEAN> 39
 4.643394e+000 -1.264491e+001 -4.687926e+000 -9.056486e+000 -6.541879e-001 1.417725e+001 -1.948371e+001 -8.297339e+000 -4.729962e+000 3.463602e+000 4.009871e+000 -2.099739e+001 8.127101e+001 -2.399799e-001 -7.259268e-001 -3.912411e-001 -2.155909e+000 -2.311092e-001 1.128413e+000 2.326489e-001 1.714532e+000 3.408208e-001 -1.170333e+000 -1.108328e+000 -1.965609e+000 1.362153e+000 -1.740846e-001 1.482860e-001 2.021810e-001 3.313902e-001 4.246634e-001 -1.676646e-001 3.001705e-001 8.410899e-002 -1.064899e-002 -2.343970e-001 -5.542964e-001 6.968116e-001 -5.073320e-001
<VARIANCE> 39
 4.387103e+000 1.723372e+001 2.478401e+001 2.016352e+001 3.609287e+001 1.046337e+002 3.827357e+001 4.568597e+001 7.503293e+001 4.916417e+001 9.205142e+001 2.485652e+001 3.943412e+000 5.182287e-001 4.792938e-001 1.060101e+000 1.760936e+000 2.815120e+000 5.825577e-001 2.166513e+000 2.146266e+000 1.297866e+000 2.596430e+000 3.160277e+000 3.480521e+000 7.638236e-001 1.101841e-001 1.027556e-001 1.916606e-001 1.947711e-001 4.856625e-001 1.567747e-001 3.138066e-001 3.180098e-001 3.545634e-001 5.499207e-001 5.415820e-001 5.589852e-001 2.674555e-002
<GCONST> 1.007468e+002
<STATE> 7
<MEAN> 39
 3.351138e+000 -1.248602e+001 -6.863037e+000 -1.457851e+001 -2.992589e+000 7.440641e+000 -1.308660e+001 -5.810459e-002 -1.390398e+001 -2.252676e+000 8.822059e+000 -1.626811e+001 8.237838e+001 -1.721782e-001 -2.233191e-001 5.267434e-001 -1.876936e-002 1.233796e-001 8.645630e-001 3.168419e-001 9.019929e-001 -2.587695e-001 -1.511772e-001 -9.452576e-001 8.774089e-001 -2.219428e-002 -2.632902e-002 1.915752e-001 5.909003e-003 3.309393e-001 6.833200e-003 -4.408327e-002 -3.275418e-002 -7.122178e-002 -1.183337e-001 1.070205e-001 1.005205e-002 1.716838e-001 -1.634904e-001
<VARIANCE> 39
 2.022692e+000 6.644234e+000 1.582146e+001 8.184654e+000 1.346826e+001 8.253102e+001 2.933597e+001 2.603340e+001 7.294674e+001 2.081546e+001 9.108587e+001 3.853638e+001 3.333303e+000 2.935019e-001 4.850881e-001 4.526967e-001 9.869017e-001 7.817804e-001 9.021256e-001 1.610209e+000 1.531334e+000 7.109304e-001 1.317637e+000 1.432730e+000 7.985291e-001 3.534999e-001 4.803235e-002 9.102052e-002 1.135189e-001 1.041964e-001 1.574346e-001 1.463800e-001 2.453455e-001 2.958563e-001 1.130103e-001 2.307831e-001 2.124077e-001 2.226637e-001 6.350520e-002
<GCONST> 8.059362e+001
<STATE> 8
<MEAN> 39
 4.203956e+000 -1.168139e+001 -3.951867e+000 -1.198110e+001 4.230852e+000 2.011200e+001 -1.550536e+001 3.313222e-001 -4.286026e+000 -7.502928e+000 -5.640397e+000 -1.618389e+001 7.969506e+001 4.171184e-001 9.667494e-001 -2.104510e-001 8.757514e-001 9.012097e-001 1.003807e-002 7.275510e-001 -9.609335e-003 3.249759e-001 -8.987026e-001 -6.855308e-001 8.161659e-001 -1.169601e+000 1.015425e-001 3.583618e-002 -1.574326e-001 1.061099e-001 5.865423e-002 -1.156453e-001 4.232413e-001 -2.055610e-001 1.424641e-001 6.768395e-002 -1.613882e-001 -1.080322e-002 -2.992556e-001
<VARIANCE> 39
 7.453237e+000 1.295307e+001 9.274345e+000 1.599384e+001 3.840496e+001 5.525914e+001 3.161734e+001 3.734587e+001 1.164059e+002 6.531781e+001 1.052136e+002 4.011143e+001 1.182229e+001 4.357174e-001 5.134828e-001 9.276326e-001 1.069804e+000 2.405448e+000 1.071617e+000 4.706677e+000 2.087069e+000 1.646562e+000 2.934738e+000 3.294149e+000 1.586147e+000 9.985195e-001 6.156214e-002 1.353477e-001 2.292898e-001 2.467241e-001 5.530922e-001 2.018824e-001 8.521054e-001 4.643582e-001 3.459857e-001 4.573307e-001 6.939985e-001 4.333674e-001 1.030526e-001
<GCONST> 1.045918e+002
<STATE> 9
<MEAN> 39
 4.025408e+000 -6.455349e+000 -9.080514e+000 -4.352468e+000 6.026512e+000 1.071756e+001 1.828809e+000 -1.318426e+000 -5.546072e+000 -7.138676e+000 -1.076773e+001 -7.805479e+000 6.235584e+001 -5.580854e-001 -5.841757e-002 -3.287935e-001 5.658810e-001 -2.423472e-001 -8.940299e-001 1.227633e+000 -4.129204e-001 2.097480e-001 1.061555e-001 -4.130089e-001 3.127660e-001 -1.475364e+000 -1.056524e-001 -6.897210e-002 1.149925e-001 -3.360444e-002 -9.622974e-002 -2.663662e-002 -2.759764e-001 -2.361169e-002 -1.756950e-002 -4.574698e-003 2.094551e-001 -4.097483e-002 1.530700e-001
<VARIANCE> 39
 2.013001e+001 2.497676e+001 1.496777e+001 2.282687e+001 4.486858e+001 7.213447e+001 4.386813e+001 3.704557e+001 1.039276e+002 4.389206e+001 8.143929e+001 5.565094e+001 3.702389e+001 5.745027e-001 1.044452e+000 1.646538e+000 1.810958e+000 3.392404e+000 2.147478e+000 3.945470e+000 4.294734e+000 2.827461e+000 3.543417e+000 4.980946e+000 2.516990e+000 4.871892e-001 7.954066e-002 2.183264e-001 2.888429e-001 4.109759e-001 6.379944e-001 4.592485e-001 7.288665e-001 8.842885e-001 4.811442e-001 6.296865e-001 7.314234e-001 4.704668e-001 2.610598e-002
<GCONST> 1.154167e+002
<TRANSP> 10
 0.000000e+000 1.000000e+000 0.000000e+000 0.000000e+000 0.000000e+000 0.000000e+000 0.000000e+000 0.000000e+000 0.000000e+000 0.000000e+000
 0.000000e+000 8.923531e-001 1.076470e-001 0.000000e+000 0.000000e+000 0.000000e+000 0.000000e+000 0.000000e+000 0.000000e+000 0.000000e+000
 0.000000e+000 0.000000e+000 7.522496e-001 2.477504e-001 0.000000e+000 0.000000e+000 0.000000e+000 0.000000e+000 0.000000e+000 0.000000e+000
 0.000000e+000 0.000000e+000 0.000000e+000 7.315832e-001 2.684168e-001 0.000000e+000 0.000000e+000 0.000000e+000 0.000000e+000 0.000000e+000
 0.000000e+000 0.000000e+000 0.000000e+000 0.000000e+000 5.667132e-001 4.332869e-001 0.000000e+000 0.000000e+000 0.000000e+000 0.000000e+000
 0.000000e+000 0.000000e+000 0.000000e+000 0.000000e+000 0.000000e+000 6.785637e-001 3.214363e-001 0.000000e+000 0.000000e+000 0.000000e+000
 0.000000e+000 0.000000e+000 0.000000e+000 0.000000e+000 0.000000e+000 0.000000e+000 8.387185e-001 1.612815e-001 0.000000e+000 0.000000e+000
 0.000000e+000 0.000000e+000 0.000000e+000 0.000000e+000 0.000000e+000 0.000000e+000 0.000000e+000 8.581854e-001 1.418146e-001 0.000000e+000
 0.000000e+000 0.000000e+000 0.000000e+000 0.000000e+000 0.000000e+000 0.000000e+000 0.000000e+000 0.000000e+000 9.185646e-001 8.143539e-002
 0.000000e+000 0.000000e+000 0.000000e+000 0.000000e+000 0.000000e+000 0.000000e+000 0.000000e+000 0.000000e+000 0.000000e+000 0.000000e+000
<ENDHMM>
~h "rovnase"
<BEGINHMM>
<NUMSTATES> 10
<STATE> 2
<MEAN> 39
 -6.549276e-001 -1.592425e+001 -6.894374e+000 1.416757e+000 -5.805664e+000 2.737287e+000 -2.087085e+001 -7.972952e+000 -7.520105e-001 3.876550e+000 1.412262e+000 -3.520287e-001 7.424213e+001 5.801057e-001 -8.126807e-002 -4.255405e-001 -5.182471e-001 -5.965641e-001 -1.268281e-001 -3.592236e-002 -7.270432e-001 -6.392581e-001 3.818199e-001 2.712351e-001 8.751712e-001 5.589270e-001 -1.914053e-001 2.655859e-001 -9.678284e-003 1.363201e-001 1.344504e-001 -1.250816e-001 5.165947e-001 -7.265197e-002 -8.251239e-002 -5.014138e-002 -1.099499e-001 7.861486e-002 -3.186426e-001
<VARIANCE> 39
 3.574535e+001 3.075445e+001 3.974875e+001 7.059674e+001 7.408481e+001 7.982145e+001 6.340740e+001 8.443159e+001 1.435743e+002 8.997930e+001 8.653516e+001 8.489537e+001 1.642311e+001 2.974971e+000 4.169529e+000 2.427631e+000 7.012309e+000 5.723076e+000 7.227576e+000 8.935472e+000 6.229851e+000 6.834960e+000 5.968516e+000 6.487420e+000 3.780585e+000 1.561193e+000 6.329562e-001 4.418831e-001 4.708631e-001 1.207082e+000 1.318956e+000 1.617654e+000 1.821324e+000 1.434457e+000 1.271371e+000 9.777120e-001 1.074190e+000 8.228108e-001 4.099322e-001
<GCONST> 1.445864e+002
<STATE> 3
<MEAN> 39
 1.380023e+000 -2.891535e+000 -4.983285e+000 3.339904e+000 -1.636430e+000 -3.301174e+000 -1.062526e+001 -1.185315e+001 -4.145457e+000 1.240462e+000 -3.184983e-001 3.314200e+000 7.268019e+001 6.060462e-002 4.804102e-001 1.067302e+000 1.415215e+000 4.506663e-001 -3.953037e-001 -4.251187e-001 -5.032388e-001 8.459483e-001 -4.091738e-001 -9.101011e-001 -4.766333e-001 -1.749177e-001 4.682538e-002 -4.603345e-001 1.878149e-001 -1.286366e-001 -2.673255e-001 3.854896e-001 -5.505474e-001 2.277214e-001 -3.020549e-003 1.239452e-002 3.642355e-002 -1.260153e-001 2.277782e-001
<VARIANCE> 39
 2.378918e+001 1.496606e+001 2.968840e+001 4.806612e+001 7.113674e+001 2.690208e+001 7.329097e+001 4.960383e+001 8.456477e+001 7.095439e+001 4.755539e+001 3.552990e+001 1.110298e+001 3.447463e+000 3.212727e+000 3.541774e+000 2.922703e+000 4.999036e+000 4.240842e+000 1.380047e+001 1.122608e+001 6.033140e+000 5.658032e+000 2.556943e+000 3.222175e+000 1.191147e+000 6.430597e-001 2.794017e-001 4.966331e-001 7.803125e-001 7.012731e-001 8.007865e-001 1.597398e+000 2.384313e+000 1.511392e+000 1.104038e+000 6.162425e-001 4.847580e-001 2.126465e-001
<GCONST> 1.336142e+002
<STATE> 4
<MEAN> 39
 4.143620e+000 -1.075961e+001 8.002097e+000 5.125140e+000 -3.140021e+000 7.819259e+000 -2.735180e+001 -9.204786e+000 4.360147e+000 -2.173788e+000 -8.664257e+000 -3.527620e+000 7.862789e+001 -7.111181e-001 -1.867609e+000 -3.894886e-001 -3.495082e+000 6.316167e-002 2.517537e+000 -1.898129e+000 5.871020e+000 1.114249e+000 -1.834828e+000 2.855820e-001 -1.533978e+000 2.509768e+000 -1.523733e-001 3.167135e-001 -8.235298e-001 -1.864512e-001 4.661840e-001 -4.191866e-001 5.410431e-001 5.333123e-001 -2.340711e-001 -6.086098e-002 4.416186e-001 4.322262e-002 -9.040055e-002
<VARIANCE> 39
 7.914131e+000 2.494221e+001 2.599070e+001 8.572683e+001 2.343739e+001 9.019319e+001 2.483161e+001 2.442493e+002 1.024846e+002 3.460646e+001 5.005696e+001 3.616776e+001 2.229025e+001 4.501937e-001 2.267065e+000 3.428645e+000 4.184535e+000 4.073814e+000 3.448893e+000 1.759967e+000 1.363951e+001 9.590444e+000 2.089823e+000 3.637367e+000 3.524687e+000 8.474362e-001 1.415657e-001 5.013497e-001 3.317990e-001 1.781457e+000 4.990906e-001 6.605526e-001 6.859498e-001 6.853873e+000 8.927495e-001 5.387669e-001 4.813249e-001 5.486307e-001 3.968341e-001
<GCONST> 1.279847e+002
<STATE> 5
<MEAN> 39
 4.203490e-001 -1.172534e+001 -1.570689e+000 -6.881590e+000 -3.906919e+000 5.868088e+000 -2.404441e+001 9.133858e+000 -9.764631e+000 -8.278825e+000 3.403585e+000 -8.584082e+000 8.540570e+001 -4.166318e-002 1.466234e-001 -5.157238e-001 -3.502466e-001 1.475439e-001 5.318680e-001 5.619577e-001 1.848963e-001 -4.390897e-001 -2.704365e-001 4.443709e-001 -3.057045e-001 1.330731e-001 6.712175e-002 2.099820e-001 1.390925e-001 4.304635e-001 -7.547668e-002 -2.242259e-001 2.994679e-001 -7.035240e-001 1.032521e-001 1.487477e-001 -2.001931e-001 1.257009e-001 -3.098069e-001
<VARIANCE> 39
 4.235150e+000 7.648650e+000 1.595029e+001 1.371740e+001 1.326066e+001 4.856625e+001 3.176084e+001 7.845433e+000 1.792103e+002 1.227171e+001 5.616730e+001 1.462720e+001 2.383992e+000 3.362560e-001 7.326140e-001 9.899302e-001 7.949286e-001 4.853726e-001 1.532838e+000 9.796561e-001 1.703691e+000 1.314442e+000 2.562118e+000 1.859399e+000 1.581096e+000 3.352590e-001 5.586265e-002 1.704170e-001 1.185302e-001 3.100586e-001 1.513873e-001 2.102094e-001 2.976330e-001 1.160229e+000 2.600661e-001 2.402750e-001 1.739314e-001 3.392796e-001 1.167033e-001
<GCONST> 8.736098e+001
<STATE> 6
<MEAN> 39
 1.404830e+000 -9.926183e+000 -1.531293e+000 -3.260347e+000 3.101883e+000 1.153101e+001 -2.416550e+001 6.258251e+000 4.884459e+000 -1.103728e+001 -3.440452e+000 -1.069431e+001 8.320692e+001 -4.233523e-002 4.475138e-001 -5.208568e-001 1.578832e-001 1.032751e+000 -1.816058e-001 1.062929e+000 -1.405492e-001 -8.495478e-001 4.860452e-001 -6.026494e-001 -1.933006e-001 -4.155229e-001 -5.039072e-004 5.495574e-002 7.651821e-002 -6.942065e-003 1.781726e-001 -1.452746e-001 2.160743e-001 -3.480230e-002 -7.352696e-002 3.792231e-001 -3.266279e-001 1.463337e-001 -1.316339e-001
<VARIANCE> 39
 3.395703e+000 8.607641e+000 1.254273e+001 1.280207e+001 4.451774e+001 6.665316e+001 2.999766e+001 4.244967e+001 2.400789e+002 2.227443e+001 3.901686e+001 1.283948e+001 3.735170e+000 1.559178e-001 4.663089e-001 1.130571e+000 1.011416e+000 9.351495e-001 1.921271e+000 1.963110e+000 1.634166e+000 2.291046e+000 3.672349e+000 3.774722e+000 1.198989e+000 1.954660e-001 4.205634e-002 6.677819e-002 1.880822e-001 1.553544e-001 1.458368e-001 3.577088e-001 4.039921e-001 4.231291e-001 3.757645e-001 5.322763e-001 4.507177e-001 1.868329e-001 4.373457e-002
<GCONST> 9.132505e+001
<STATE> 7
<MEAN> 39
 3.688662e-003 -4.268309e+000 -5.631160e+000 -3.966399e+000 1.051358e+001 4.552638e+000 -8.740981e+000 6.057231e+000 -3.337756e+000 -1.392625e+000 -1.160224e+001 -8.156981e+000 7.881377e+001 -1.504303e+000 2.120325e+000 -1.410105e+000 1.252761e+000 1.080801e+000 -3.174326e+000 4.668007e+000 -1.076373e+000 1.466287e-001 5.171506e-001 -6.399474e-001 3.153204e-001 -1.128578e+000 -8.186761e-001 3.246354e-001 -5.840157e-001 3.067874e-001 -4.725137e-001 -5.859497e-001 4.057639e-001 -3.764421e-001 4.294141e-002 -6.705109e-001 5.313877e-001 -2.618051e-001 1.875411e-001
<VARIANCE> 39
 7.559291e+000 1.868547e+001 2.057419e+001 1.666235e+001 5.914359e+001 3.976881e+001 8.807563e+001 2.433609e+001 1.263054e+002 2.908764e+001 6.237564e+001 2.928305e+001 6.547331e+000 2.733955e+000 9.051946e-001 2.197348e+000 1.942812e+000 3.761105e+000 4.374271e+000 3.852908e+000 7.278412e+000 2.638645e+000 3.265330e+000 5.707280e+000 3.063014e+000 4.862199e-001 2.656758e-001 1.638947e-001 2.670197e-001 3.105328e-001 4.463551e-001 4.734269e-001 1.138181e+000 8.315281e-001 6.580460e-001 5.061629e-001 8.711689e-001 5.934476e-001 1.441330e-001
<GCONST> 1.173523e+002
<STATE> 8
<MEAN> 39
 -2.090136e+001 6.112501e+000 -1.296853e+001 4.364326e+000 6.309302e+000 -1.522387e+001 4.278737e+000 -4.215506e+000 -8.096905e+000 -5.251875e+000 -8.551275e+000 -6.512400e+000 7.603870e+001 -1.414075e+000 -1.853519e-001 1.735859e-001 6.141777e-001 -1.283051e-001 -7.607718e-001 -3.393077e-003 -4.570802e-001 1.474180e-001 -3.490864e-001 2.134802e-001 7.417058e-001 -2.466971e-001 4.411288e-001 -3.299565e-001 2.852243e-001 -1.052785e-001 -1.708935e-002 3.083815e-001 -4.013800e-001 1.766427e-001 1.926414e-001 1.526998e-001 -5.162688e-002 1.238937e-001 -3.426220e-002
<VARIANCE> 39
 4.064357e+001 2.571901e+001 4.009093e+001 3.244992e+001 3.283131e+001 3.709647e+001 5.108208e+001 6.228133e+001 1.015074e+002 2.912004e+001 4.915544e+001 5.707949e+001 5.241724e+000 2.875796e+000 3.894417e+000 2.940910e+000 1.804459e+000 3.018244e+000 3.245934e+000 4.907069e+000 5.580212e+000 4.964048e+000 3.435448e+000 3.672465e+000 3.032282e+000 3.265064e-001 2.932986e-001 3.246123e-001 3.444370e-001 3.382428e-001 6.027763e-001 4.508873e-001 1.130574e+000 1.047917e+000 9.708973e-001 7.251992e-001 7.599764e-001 4.308766e-001 5.728885e-002
<GCONST> 1.224002e+002
<STATE> 9
<MEAN> 39
 -6.446680e-001 -5.715377e+000 1.921568e+000 -4.849729e-001 2.768636e-001 -5.227871e+000 -1.314148e+001 8.136115e+000 -2.657201e+000 -8.084890e-001 -7.718789e+000 -2.850291e+000 7.533517e+001 1.483051e+000 -3.265203e-001 5.342728e-001 -2.673345e-001 -4.203976e-001 6.992315e-001 -2.166111e-001 4.714860e-001 2.126108e-001 1.904463e-001 4.655645e-002 -2.334708e-001 -5.039207e-001 -1.308099e-001 6.943978e-002 -8.576935e-002 1.744411e-002 2.777681e-002 -3.173272e-003 1.614932e-001 -9.532303e-002 -1.122688e-001 -7.258690e-002 7.341792e-002 -7.565308e-002 -3.953598e-002
<VARIANCE> 39
 8.714359e+001 2.325177e+001 3.532373e+001 5.367960e+001 6.157175e+001 5.962675e+001 1.025879e+002 9.652427e+001 1.912208e+002 9.963042e+001 4.668513e+001 5.921054e+001 3.119283e+001 5.463626e+000 1.522131e+000 2.278221e+000 4.008682e+000 2.863413e+000 3.187099e+000 8.511367e+000 6.083613e+000 2.793071e+000 4.937332e+000 2.936337e+000 3.560723e+000 2.378935e+000 7.375368e-001 3.645803e-001 2.642547e-001 5.272956e-001 4.615282e-001 5.010104e-001 9.335323e-001 7.756959e-001 4.170788e-001 7.016937e-001 3.958428e-001 6.355842e-001 2.903365e-001
<GCONST> 1.328763e+002
<TRANSP> 10
 0.000000e+000 1.000000e+000 0.000000e+000 0.000000e+000 0.000000e+000 0.000000e+000 0.000000e+000 0.000000e+000 0.000000e+000 0.000000e+000
 0.000000e+000 9.198002e-001 8.019984e-002 0.000000e+000 0.000000e+000 0.000000e+000 0.000000e+000 0.000000e+000 0.000000e+000 0.000000e+000
 0.000000e+000 0.000000e+000 8.976925e-001 1.023075e-001 0.000000e+000 0.000000e+000 0.000000e+000 0.000000e+000 0.000000e+000 0.000000e+000
 0.000000e+000 0.000000e+000 0.000000e+000 7.401697e-001 2.598303e-001 0.000000e+000 0.000000e+000 0.000000e+000 0.000000e+000 0.000000e+000
 0.000000e+000 0.000000e+000 0.000000e+000 0.000000e+000 8.120779e-001 1.879221e-001 0.000000e+000 0.000000e+000 0.000000e+000 0.000000e+000
 0.000000e+000 0.000000e+000 0.000000e+000 0.000000e+000 0.000000e+000 8.664024e-001 1.335976e-001 0.000000e+000 0.000000e+000 0.000000e+000
 0.000000e+000 0.000000e+000 0.000000e+000 0.000000e+000 0.000000e+000 0.000000e+000 7.430041e-001 2.569959e-001 0.000000e+000 0.000000e+000
 0.000000e+000 0.000000e+000 0.000000e+000 0.000000e+000 0.000000e+000 0.000000e+000 0.000000e+000 9.178181e-001 8.218188e-002 0.000000e+000
 0.000000e+000 0.000000e+000 0.000000e+000 0.000000e+000 0.000000e+000 0.000000e+000 0.000000e+000 0.000000e+000 9.446500e-001 5.535001e-002
 0.000000e+000 0.000000e+000 0.000000e+000 0.000000e+000 0.000000e+000 0.000000e+000 0.000000e+000 0.000000e+000 0.000000e+000 0.000000e+000
<ENDHMM>
~h "osm"
<BEGINHMM>
<NUMSTATES> 10
<STATE> 2
<MEAN> 39
 -2.863574e+000 -6.228877e+000 -2.363440e-001 -7.366491e+000 -8.148406e-001 7.703862e+000 -1.314911e+001 -3.348814e+000 -6.050165e+000 9.876922e-001 -4.860781e+000 9.878897e+000 7.060725e+001 1.669691e+000 5.564389e-001 2.411429e-001 -3.171768e+000 1.537293e-001 1.237432e+000 -1.374439e+000 1.019375e+000 -9.050294e-001 2.756543e-001 3.467818e-002 1.495481e+000 3.354151e+000 -3.385428e-001 -1.246619e-001 -9.412914e-002 2.056126e-001 3.077279e-001 -6.198720e-002 4.994326e-001 1.374617e-001 1.777407e-001 -2.026766e-002 1.676881e-001 -5.106589e-001 -6.173927e-001
<VARIANCE> 39
 6.059678e+001 2.707853e+001 1.321798e+001 1.881025e+002 8.349577e+001 7.966729e+001 6.861323e+001 4.353650e+001 1.328770e+002 2.340173e+001 6.872438e+001 6.302663e+001 8.864758e+001 4.376367e+000 3.337053e+000 1.642925e+000 1.195542e+001 6.061390e+000 7.826208e+000 7.393021e+000 3.979645e+000 1.064220e+001 3.628958e+000 6.029987e+000 5.641377e+000 5.228472e+000 1.035059e+000 7.313877e-001 4.986307e-001 3.378239e+000 1.010983e+000 1.298654e+000 1.423076e+000 8.685301e-001 2.006810e+000 7.104240e-001 9.222860e-001 7.034784e-001 1.479062e+000
<GCONST> 1.473796e+002
<STATE> 3
<MEAN> 39
 -5.075912e+000 -3.478419e+000 -2.478436e+000 -1.104342e+001 2.792013e+000 5.597438e+000 -1.077687e+001 2.159265e-002 -7.529406e+000 -2.564676e-001 -1.905144e+000 4.957422e+000 7.769858e+001 -2.929161e+000 7.932955e-001 -1.108598e+000 2.052211e+000 5.064259e-001 -1.878770e+000 1.161811e+000 8.204153e-002 8.056473e-001 -6.418099e-001 8.436432e-002 -1.624051e+000 -1.581351e-002 -4.696723e-001 8.931124e-002 -7.681695e-002 1.842549e-001 -6.749714e-002 -1.423237e-001 -2.990609e-002 1.313171e-002 2.049911e-002 -5.873879e-002 -1.110493e-001 1.329854e-001 -5.147796e-002
<VARIANCE> 39
 9.448772e+001 4.197904e+001 3.148745e+001 5.834739e+001 7.799605e+001 1.067167e+002 3.269600e+001 5.329237e+001 1.240131e+002 3.250987e+001 3.340454e+001 5.715654e+001 8.249841e+000 4.330433e+000 1.576967e+000 1.684112e+000 5.641825e+000 4.793180e+000 4.665815e+000 3.853585e+000 2.373591e+000 5.472384e+000 2.991775e+000 1.753276e+000 3.621292e+000 7.330255e-001 8.048643e-001 3.816282e-001 3.948902e-001 1.246468e+000 6.381750e-001 1.531404e+000 6.937023e-001 4.835005e-001 1.452873e+000 6.126540e-001 2.859984e-001 7.873355e-001 2.376775e-001
<GCONST> 1.297134e+002
<STATE> 4
<MEAN> 39
 -2.419969e+001 1.829482e+000 -5.495164e+000 -2.700963e+000 7.804875e+000 -2.989534e+000 -6.699432e+000 3.913719e+000 -3.033012e+000 -1.027278e+000 -1.876476e-001 2.847888e+000 7.676083e+001 -7.802801e-001 -1.921989e-001 4.375478e-001 2.829975e-001 5.442911e-001 -2.582325e-001 -2.538325e-001 2.078916e-001 3.948317e-001 3.903002e-001 2.406740e-001 4.317518e-001 -3.281706e-001 3.938648e-001 -3.148814e-001 2.311278e-001 -7.781249e-004 -1.262671e-001 4.444344e-002 -2.153796e-001 -1.939709e-001 -6.217993e-003 4.145230e-002 2.756231e-002 3.438975e-002 -4.771354e-002
<VARIANCE> 39
 3.328881e+001 1.566548e+001 2.439665e+001 5.364350e+001 7.087144e+001 9.272852e+001 3.753558e+001 6.681475e+001 1.351119e+002 4.999558e+001 8.397359e+001 2.912661e+001 4.840933e+000 8.342434e-001 1.870301e+000 1.356693e+000 1.717662e+000 1.337920e+000 1.565135e+000 2.398175e+000 3.872903e+000 3.142489e+000 2.505975e+000 2.253426e+000 1.755563e+000 2.455052e-001 2.231105e-001 1.508411e-001 3.712606e-001 4.804106e-001 3.649594e-001 3.162455e-001 4.503072e-001 7.358474e-001 6.898602e-001 5.624120e-001 5.372296e-001 3.419271e-001 5.529742e-002
<GCONST> 1.123033e+002
<STATE> 5
<MEAN> 39
 -2.301039e+001 -8.387882e+000 8.864300e-001 1.382922e+000 7.825138e+000 -5.591955e+000 -1.114687e+001 1.205329e+000 -4.091558e-001 7.429484e-001 1.202691e+000 5.884335e+000 7.241766e+001 2.947081e+000 -1.388759e+000 1.718769e+000 1.264658e+000 -7.189199e-001 5.777731e-002 -1.506268e+000 -2.470954e+000 -1.011343e-001 2.604297e-001 -9.685974e-002 -1.273092e-001 -8.888327e-001 9.979373e-001 5.559053e-001 -3.776177e-002 4.553374e-002 -1.557013e-001 -5.879596e-003 -1.986743e-001 -7.198412e-001 -2.574831e-001 2.656949e-001 1.308411e-001 4.764006e-002 6.850959e-002
<VARIANCE> 39
 2.775122e+001 2.903457e+001 1.573666e+001 3.600290e+001 5.363857e+001 1.046050e+002 2.740013e+001 6.523296e+001 1.189144e+002 3.459525e+001 5.946094e+001 1.531096e+001 1.267035e+001 4.136858e+000 3.369867e+000 1.842713e+000 3.958679e+000 3.108630e+000 1.748595e+000 3.388064e+000 4.882686e+000 4.891867e+000 1.739157e+000 3.710955e+000 1.679468e+000 6.935207e-001 3.265176e-001 4.720315e-001 4.025794e-001 6.832501e-001 6.117153e-001 3.697977e-001 3.122076e-001 4.911444e-001 6.629273e-001 3.094459e-001 7.679507e-001 4.304014e-001 2.535595e-001
<GCONST> 1.206451e+002
<STATE> 6
<MEAN> 39
 -4.024620e+000 -5.212914e+000 7.218202e+000 5.085663e+000 7.110218e+000 -6.972479e-001 -2.272830e+001 -1.323065e+001 -3.129389e+000 5.337942e+000 6.917119e-001 5.117722e+000 7.267464e+001 4.143154e+000 -6.315619e-002 3.496915e-001 8.411264e-001 -1.243019e+000 9.028478e-001 -1.267424e+000 -2.797232e+000 -1.128356e+000 1.273123e+000 1.006794e+000 5.518682e-001 3.484363e-001 -5.897300e-001 -1.560157e-001 -4.424263e-001 -3.067611e-002 -4.096095e-001 -1.810505e-001 8.327935e-001 5.224833e-001 1.832084e-001 -5.034007e-001 -1.329934e-001 4.465365e-002 1.359761e-001
<VARIANCE> 39
 6.112772e+001 5.809093e+001 1.435469e+001 6.553326e+001 2.546674e+001 1.546457e+002 8.084142e+001 9.470637e+001 1.057995e+002 2.540960e+001 5.430649e+001 2.152057e+001 1.406856e+001 4.384212e+000 2.877120e+000 2.904864e+000 7.697871e+000 6.504413e+000 5.679816e+000 7.028600e+000 1.214851e+001 5.669325e+000 3.534792e+000 4.475893e+000 3.683987e+000 5.477161e-001 6.323983e-001 5.562839e-001 3.828053e-001 6.857999e-001 1.029678e+000 1.125842e+000 1.030787e+000 1.644918e+000 6.628061e-001 7.183220e-001 9.014727e-001 7.335292e-001 1.667453e-001
<GCONST> 1.357687e+002
<STATE> 7
<MEAN> 39
 2.129748e+000 -1.229455e+001 5.420157e+000 1.070189e+001 -2.206395e+000 -6.262056e+000 -1.720858e+001 -1.989396e+001 -5.894605e+000 1.514986e+000 2.022402e+000 8.491866e+000 7.280170e+001 2.299390e+000 4.362689e-001 5.974155e-001 7.403742e-001 -1.930151e+000 -1.119601e+000 7.966717e-001 -7.538487e-001 -1.365535e-001 -1.461265e+000 -4.246234e-001 3.687736e-001 4.076532e-001 -4.993075e-001 2.340267e-001 8.203227e-002 -2.151738e-001 4.253122e-001 7.857978e-002 2.942773e-001 8.543935e-001 1.863605e-001 -2.048064e-001 -1.784195e-001 -2.714038e-001 -1.154031e-001
<VARIANCE> 39
 4.559765e+001 7.930772e+001 2.272589e+001 5.364840e+001 1.960124e+001 1.351225e+002 3.715685e+001 9.952848e+001 8.046851e+001 9.475956e+001 4.725914e+001 3.437717e+001 7.277325e+000 9.469754e-001 2.565214e+000 1.901750e+000 2.339122e+000 2.081383e+000 3.287301e+000 4.735106e+000 4.389565e+000 3.800269e+000 4.957572e+000 4.353003e+000 4.752741e+000 7.730908e-001 2.746745e-001 3.216910e-001 3.692968e-001 4.238465e-001 4.951460e-001 4.434134e-001 4.791157e-001 9.371226e-001 9.847850e-001 1.438846e+000 1.231301e+000 6.232560e-001 4.543111e-002
<GCONST> 1.248308e+002
<STATE> 8
<MEAN> 39
 8.177881e+000 -8.705571e+000 8.472906e+000 1.424669e+001 -1.047504e+001 -1.015279e+001 -1.485673e+001 -1.604214e+001 7.133945e-001 -6.435927e+000 5.532232e+000 5.073151e+000 7.541106e+001 1.544900e-001 3.231746e-001 1.740489e-001 4.750929e-002 -3.272609e-001 1.232870e-001 1.875845e-001 4.740267e-001 5.035251e-001 -9.183897e-001 4.791816e-003 -7.298041e-001 -5.228921e-002 -1.222295e-001 2.555802e-002 1.542780e-002 -4.953595e-003 1.827345e-001 9.264830e-002 -3.438314e-002 -4.114333e-003 -1.054679e-001 4.508517e-002 -2.457894e-002 -3.288510e-002 -6.715522e-002
<VARIANCE> 39
 5.375766e+000 1.906891e+001 2.089855e+001 3.951204e+001 5.675731e+001 1.014771e+002 2.168238e+001 5.842684e+001 3.079397e+001 8.657832e+001 7.455190e+001 3.603330e+001 1.256616e+001 3.211948e-001 7.333455e-001 1.471817e+000 1.056095e+000 1.598457e+000 2.066821e+000 2.935462e+000 3.774185e+000 2.675085e+000 2.149374e+000 1.997205e+000 2.363332e+000 2.697425e-001 7.440490e-002 1.477974e-001 2.976703e-001 2.406522e-001 2.530794e-001 4.686114e-001 5.868075e-001 5.167449e-001 3.473699e-001 4.389207e-001 3.220959e-001 4.735877e-001 2.924491e-002
<GCONST> 1.039629e+002
<STATE> 9
<MEAN> 39
 4.997222e+000 -3.759890e+000 8.742477e+000 1.241088e+001 1.948286e+000 3.885268e+000 -6.957861e+000 -1.330466e+001 -6.190986e+000 -4.744313e+000 -5.577179e+000 -3.780534e+000 6.484944e+001 -5.553651e-001 -3.091871e-001 -3.563986e-001 -7.895228e-002 4.498018e-001 4.626371e-001 7.396557e-001 1.389035e-001 -3.470516e-001 2.125691e-001 -3.909245e-001 -2.930479e-001 -6.149316e-001 -4.579203e-002 -7.346980e-002 -6.896421e-002 -6.643779e-002 -7.706729e-002 6.773619e-003 2.757629e-003 6.210347e-002 1.267847e-001 1.098744e-001 5.543379e-002 2.823026e-002 2.317604e-002
<VARIANCE> 39
 2.455795e+001 2.779834e+001 2.588255e+001 3.773557e+001 6.247408e+001 9.316876e+001 6.951756e+001 3.152324e+001 4.501894e+001 4.128108e+001 6.744107e+001 4.471888e+001 2.659668e+001 3.319126e-001 1.014497e+000 1.790119e+000 2.553750e+000 2.390612e+000 3.138786e+000 3.568692e+000 2.737396e+000 4.369810e+000 3.979916e+000 3.992015e+000 3.002094e+000 5.010645e-001 5.201018e-002 1.604928e-001 2.714188e-001 3.896937e-001 4.077791e-001 6.004301e-001 7.292128e-001 5.100344e-001 8.257158e-001 7.267751e-001 7.912403e-001 5.479968e-001 6.775249e-002
<GCONST> 1.161766e+002
<TRANSP> 10
 0.000000e+000 1.000000e+000 0.000000e+000 0.000000e+000 0.000000e+000 0.000000e+000 0.000000e+000 0.000000e+000 0.000000e+000 0.000000e+000
 0.000000e+000 8.186760e-001 1.813240e-001 0.000000e+000 0.000000e+000 0.000000e+000 0.000000e+000 0.000000e+000 0.000000e+000 0.000000e+000
 0.000000e+000 0.000000e+000 8.333885e-001 1.666115e-001 0.000000e+000 0.000000e+000 0.000000e+000 0.000000e+000 0.000000e+000 0.000000e+000
 0.000000e+000 0.000000e+000 0.000000e+000 8.911856e-001 1.088144e-001 0.000000e+000 0.000000e+000 0.000000e+000 0.000000e+000 0.000000e+000
 0.000000e+000 0.000000e+000 0.000000e+000 0.000000e+000 7.594473e-001 2.405527e-001 0.000000e+000 0.000000e+000 0.000000e+000 0.000000e+000
 0.000000e+000 0.000000e+000 0.000000e+000 0.000000e+000 0.000000e+000 7.002733e-001 2.997267e-001 0.000000e+000 0.000000e+000 0.000000e+000
 0.000000e+000 0.000000e+000 0.000000e+000 0.000000e+000 0.000000e+000 0.000000e+000 6.938459e-001 3.061541e-001 0.000000e+000 0.000000e+000
 0.000000e+000 0.000000e+000 0.000000e+000 0.000000e+000 0.000000e+000 0.000000e+000 0.000000e+000 9.061055e-001 9.389450e-002 0.000000e+000
 0.000000e+000 0.000000e+000 0.000000e+000 0.000000e+000 0.000000e+000 0.000000e+000 0.000000e+000 0.000000e+000 9.533395e-001 4.666047e-002
 0.000000e+000 0.000000e+000 0.000000e+000 0.000000e+000 0.000000e+000 0.000000e+000 0.000000e+000 0.000000e+000 0.000000e+000 0.000000e+000
<ENDHMM>
~h "nadruhou"
<BEGINHMM>
<NUMSTATES> 10
<STATE> 2
<MEAN> 39
 1.986128e+000 -6.668465e+000 1.974971e+000 -2.329269e-001 -2.034296e+000 -3.542295e+000 -2.110758e+001 -1.024998e+001 -3.829867e+000 -6.396994e+000 -4.015639e+000 -4.927282e+000 7.025349e+001 5.711006e-001 -4.657521e-001 -1.513889e-001 -1.237847e+000 4.216201e-001 3.496780e-001 -5.229169e-001 3.968629e-001 3.436289e-001 -4.595306e-001 -3.796241e-001 -4.958091e-001 1.330467e+000 -3.475733e-001 -1.731661e-001 -2.968050e-001 -2.382547e-001 9.046011e-002 4.118405e-002 3.957945e-001 3.855727e-001 2.032147e-001 4.912468e-002 -1.987178e-002 2.247206e-002 -2.845338e-001
<VARIANCE> 39
 2.651720e+001 9.028857e+001 9.967909e+001 1.388432e+002 3.929523e+001 7.051555e+001 7.236665e+001 7.231786e+001 6.436712e+001 4.606292e+001 7.389840e+001 3.866198e+001 5.420411e+001 3.480403e+000 4.532956e+000 4.508245e+000 7.584365e+000 4.317500e+000 4.328962e+000 7.381731e+000 8.283677e+000 4.865482e+000 4.370074e+000 5.350094e+000 3.634824e+000 6.653760e+000 4.870042e-001 7.734818e-001 7.261067e-001 1.234632e+000 5.906461e-001 9.036413e-001 7.633409e-001 1.352441e+000 9.992396e-001 9.353544e-001 1.031744e+000 7.189488e-001 1.181527e+000
<GCONST> 1.447985e+002
<STATE> 3
<MEAN> 39
 1.925990e+000 -6.226402e+000 -2.705995e+000 -4.886040e+000 3.706784e+000 -2.449257e+000 -1.328567e+001 -5.440772e+000 6.491601e+000 -8.558311e+000 -1.102622e+001 -3.092261e+000 7.436638e+001 -4.848188e-001 4.366476e-001 6.167142e-001 1.018965e+000 -6.908183e-001 -1.173647e+000 2.427647e-001 -3.450793e-001 -3.764924e-002 4.098064e-001 2.615295e-001 1.260707e+000 1.453726e-001 6.253727e-002 -3.056901e-002 3.400891e-001 4.014260e-001 -4.594043e-001 -4.077318e-002 -5.182804e-001 -2.530371e-001 -7.591031e-002 4.418851e-002 2.084406e-001 1.186292e-001 1.132242e-001
<VARIANCE> 39
