~o
<STREAMINFO> 1 16
<VECSIZE> 16<NULLD><FBANK><DIAGC>
~h "ctyri"
<BEGINHMM>
<NUMSTATES> 10
<STATE> 2
<MEAN> 16
 5.666108e+000 5.752645e+000 5.990524e+000 6.226095e+000 6.306207e+000 6.491923e+000 6.666324e+000 6.929112e+000 7.345951e+000 7.572904e+000 7.944469e+000 8.494044e+000 8.797937e+000 8.862134e+000 8.705770e+000 8.578255e+000
<VARIANCE> 16
 1.637710e-001 1.010310e-001 1.536977e-001 7.621692e-002 6.451308e-002 4.730355e-002 6.670279e-002 8.987345e-002 1.819708e-001 3.541173e-001 5.217348e-001 1.057754e+000 1.271888e+000 1.099926e+000 6.197139e-001 2.748814e-001
<GCONST> 5.177910e+000
<STATE> 3
<MEAN> 16
 5.666160e+000 5.809649e+000 6.029086e+000 6.172004e+000 6.318363e+000 6.519493e+000 6.781647e+000 7.031250e+000 7.560117e+000 8.090222e+000 9.168092e+000 1.010585e+001 1.070264e+001 1.061428e+001 9.997935e+000 9.362418e+000
<VARIANCE> 16
 9.881241e-002 6.924765e-002 1.035267e-001 7.986971e-002 6.516775e-002 5.958413e-002 8.153659e-002 9.287521e-002 1.763617e-001 5.736787e-001 9.383516e-001 1.085130e+000 1.141471e+000 1.170157e+000 9.886315e-001 6.078565e-001
<GCONST> 6.699162e+000
<STATE> 4
<MEAN> 16
 5.782489e+000 5.858710e+000 6.051218e+000 6.210228e+000 6.338993e+000 6.506390e+000 6.709001e+000 7.200640e+000 8.047403e+000 8.680144e+000 9.159348e+000 9.746655e+000 1.013503e+001 1.000220e+001 9.529082e+000 8.927988e+000
<VARIANCE> 16
 1.446660e-001 1.114872e-001 1.129973e-001 8.938462e-002 5.607050e-002 6.352350e-002 5.532783e-002 3.031791e-001 8.613842e-001 1.912275e+000 2.147365e+000 2.101094e+000 1.682486e+000 1.817402e+000 1.678110e+000 8.165787e-001
<GCONST> 1.439676e+001
<STATE> 5
<MEAN> 16
 5.795659e+000 5.845716e+000 5.978370e+000 6.195780e+000 6.419933e+000 6.608834e+000 6.845532e+000 7.175197e+000 7.627399e+000 7.912579e+000 8.460625e+000 9.154306e+000 9.630806e+000 9.466208e+000 8.815094e+000 8.472419e+000
<VARIANCE> 16
 1.601126e-001 1.412656e-001 1.501233e-001 1.153024e-001 8.084864e-002 1.136781e-001 1.246205e-001 2.368853e-001 3.941195e-001 8.320172e-001 1.091388e+000 1.358111e+000 1.252793e+000 1.211862e+000 7.327361e-001 4.190299e-001
<GCONST> 1.186361e+001
<STATE> 6
<MEAN> 16
 5.844790e+000 6.338261e+000 6.823165e+000 6.873099e+000 6.917731e+000 6.942858e+000 7.247826e+000 7.717978e+000 8.309362e+000 8.504676e+000 8.677699e+000 9.259332e+000 9.696645e+000 9.460423e+000 8.733842e+000 8.521010e+000
<VARIANCE> 16
 1.077312e-001 3.232506e-001 4.550138e-001 2.705599e-001 9.072585e-002 1.331564e-001 2.334622e-001 2.124716e-001 2.916404e-001 2.286440e-001 3.236851e-001 5.048099e-001 5.257328e-001 5.164843e-001 9.982033e-002 1.029018e-001
<GCONST> 6.132656e+000
<STATE> 7
<MEAN> 16
 5.988465e+000 7.457032e+000 8.156433e+000 8.785125e+000 7.318015e+000 7.261099e+000 7.595242e+000 8.492545e+000 9.548654e+000 1.000961e+001 1.029289e+001 1.066069e+001 1.120098e+001 1.067487e+001 9.296782e+000 8.768485e+000
<VARIANCE> 16
 1.514612e-001 5.664362e-001 8.459982e-001 1.027453e+000 2.854667e-001 2.297230e-001 2.804118e-001 4.308000e-001 4.706551e-001 6.836582e-001 1.049935e+000 1.020771e+000 1.459546e+000 1.489493e+000 9.205986e-001 4.459975e-001
<GCONST> 2.079369e+001
<STATE> 8
<MEAN> 16
 6.468672e+000 7.752447e+000 9.426117e+000 9.508326e+000 8.458796e+000 8.162566e+000 8.330141e+000 9.034444e+000 1.034865e+001 1.079331e+001 1.076157e+001 1.103532e+001 1.158587e+001 1.097735e+001 9.534836e+000 8.742164e+000
<VARIANCE> 16
 1.727569e-001 3.653302e-001 9.871892e-001 8.425819e-001 6.741637e-001 5.966396e-001 4.294268e-001 3.194680e-001 4.380351e-001 4.645049e-001 5.003089e-001 6.020016e-001 6.335410e-001 8.454635e-001 8.676857e-001 3.952667e-001
<GCONST> 1.907522e+001
<STATE> 9
<MEAN> 16
 6.440182e+000 7.792152e+000 9.027914e+000 8.709752e+000 7.651772e+000 7.348079e+000 7.555108e+000 8.438730e+000 9.609599e+000 1.008662e+001 9.444308e+000 9.438451e+000 9.889269e+000 9.345905e+000 8.448030e+000 8.421951e+000
<VARIANCE> 16
 2.035444e-001 3.045884e-001 4.773168e-001 3.530217e-001 2.515896e-001 2.051335e-001 1.332459e-001 4.846607e-001 7.910331e-001 4.205230e-001 1.271213e+000 1.145260e+000 1.421138e+000 9.949037e-001 1.492883e-001 1.548760e-001
<GCONST> 1.499493e+001
<TRANSP> 10
 0.000000e+000 1.000000e+000 0.000000e+000 0.000000e+000 0.000000e+000 0.000000e+000 0.000000e+000 0.000000e+000 0.000000e+000 0.000000e+000
 0.000000e+000 8.043435e-001 1.956565e-001 0.000000e+000 0.000000e+000 0.000000e+000 0.000000e+000 0.000000e+000 0.000000e+000 0.000000e+000
 0.000000e+000 0.000000e+000 8.002182e-001 1.997818e-001 0.000000e+000 0.000000e+000 0.000000e+000 0.000000e+000 0.000000e+000 0.000000e+000
 0.000000e+000 0.000000e+000 0.000000e+000 8.280028e-001 1.719972e-001 0.000000e+000 0.000000e+000 0.000000e+000 0.000000e+000 0.000000e+000
 0.000000e+000 0.000000e+000 0.000000e+000 0.000000e+000 5.420596e-001 4.579405e-001 0.000000e+000 0.000000e+000 0.000000e+000 0.000000e+000
 0.000000e+000 0.000000e+000 0.000000e+000 0.000000e+000 0.000000e+000 2.994064e-001 7.005937e-001 0.000000e+000 0.000000e+000 0.000000e+000
 0.000000e+000 0.000000e+000 0.000000e+000 0.000000e+000 0.000000e+000 0.000000e+000 8.247646e-001 1.752354e-001 0.000000e+000 0.000000e+000
 0.000000e+000 0.000000e+000 0.000000e+000 0.000000e+000 0.000000e+000 0.000000e+000 0.000000e+000 9.526382e-001 4.736181e-002 0.000000e+000
 0.000000e+000 0.000000e+000 0.000000e+000 0.000000e+000 0.000000e+000 0.000000e+000 0.000000e+000 0.000000e+000 9.371701e-001 6.282992e-002
 0.000000e+000 0.000000e+000 0.000000e+000 0.000000e+000 0.000000e+000 0.000000e+000 0.000000e+000 0.000000e+000 0.000000e+000 0.000000e+000
<ENDHMM>
~h "sedm"
<BEGINHMM>
<NUMSTATES> 10
<STATE> 2
<MEAN> 16
 5.639921e+000 5.752565e+000 5.992760e+000 6.167574e+000 6.261312e+000 6.475725e+000 6.623185e+000 6.911035e+000 7.320083e+000 7.362028e+000 7.527933e+000 7.923659e+000 8.795247e+000 9.098520e+000 9.394346e+000 9.212019e+000
<VARIANCE> 16
 1.142030e-001 8.627095e-002 7.005417e-002 7.809649e-002 5.616230e-002 4.292177e-002 4.164169e-002 5.983939e-002 6.424364e-002 4.277907e-002 9.192220e-002 1.190132e-001 1.546393e-001 1.879604e-001 2.776569e-001 3.628606e-001
<GCONST> -8.690336e+000
<STATE> 3
<MEAN> 16
 5.727954e+000 5.803901e+000 5.871546e+000 6.140296e+000 6.296917e+000 6.501921e+000 6.701917e+000 7.156103e+000 7.520805e+000 7.599741e+000 7.829243e+000 8.426437e+000 9.510775e+000 9.779194e+000 9.989834e+000 9.995626e+000
<VARIANCE> 16
 1.580783e-001 9.600422e-002 1.395492e-001 1.276132e-001 1.003585e-001 5.542889e-002 4.806984e-002 5.738305e-002 7.503495e-002 6.413688e-002 1.822216e-001 8.397133e-002 1.822612e-001 1.492296e-001 2.914645e-001 4.131324e-001
<GCONST> -5.132610e+000
<STATE> 4
<MEAN> 16
 5.762504e+000 5.783714e+000 5.902397e+000 6.206328e+000 6.498968e+000 6.559712e+000 6.794731e+000 7.325006e+000 7.748172e+000 7.801580e+000 8.148026e+000 8.737620e+000 9.923588e+000 1.021140e+001 1.033982e+001 1.018544e+001
<VARIANCE> 16
 2.154939e-001 9.143044e-002 7.999014e-002 6.881164e-002 4.735739e-002 5.353484e-002 5.290512e-002 8.168737e-002 8.443873e-002 6.501760e-002 1.865987e-001 1.347809e-001 2.621048e-001 3.521244e-001 6.311532e-001 5.557023e-001
<GCONST> -3.463005e+000
<STATE> 5
<MEAN> 16
 5.719608e+000 5.756430e+000 6.015479e+000 6.358387e+000 6.524390e+000 6.819763e+000 7.043614e+000 7.566102e+000 8.103414e+000 8.172622e+000 8.494136e+000 9.186402e+000 1.022896e+001 1.053980e+001 1.028649e+001 1.001696e+001
<VARIANCE> 16
 1.421959e-001 1.252161e-001 1.364705e-001 9.825575e-002 7.042214e-002 9.072125e-002 8.116660e-002 1.182231e-001 2.188323e-001 1.496619e-001 3.307110e-001 3.090734e-001 5.282982e-001 7.230365e-001 6.688768e-001 4.395680e-001
<GCONST> 3.480276e+000
<STATE> 6
<MEAN> 16
 5.967187e+000 6.178939e+000 6.542629e+000 6.891491e+000 6.923211e+000 7.217156e+000 7.512809e+000 8.189421e+000 8.807319e+000 8.757528e+000 9.072651e+000 9.585132e+000 1.057959e+001 1.086228e+001 1.033520e+001 1.008158e+001
<VARIANCE> 16
 2.048139e-001 2.723909e-001 4.473043e-001 3.329420e-001 1.468903e-001 1.221751e-001 1.365286e-001 1.231946e-001 2.056612e-001 2.342877e-001 3.575887e-001 4.554057e-001 7.045097e-001 1.008856e+000 6.718741e-001 4.156488e-001
<GCONST> 1.004528e+001
<STATE> 7
<MEAN> 16
 6.411605e+000 7.687027e+000 8.784830e+000 9.099076e+000 8.311251e+000 7.922857e+000 8.616961e+000 9.678257e+000 9.263948e+000 9.135621e+000 8.955439e+000 9.144330e+000 9.797277e+000 9.598239e+000 9.054698e+000 8.883344e+000
<VARIANCE> 16
 1.764405e-001 2.069772e-001 6.660365e-001 6.847987e-001 4.886649e-001 4.561509e-001 5.425398e-001 6.097754e-001 4.866351e-001 3.506028e-001 8.580074e-001 5.661076e-001 3.513708e-001 2.985158e-001 2.524320e-001 9.751248e-002
<GCONST> 1.425421e+001
<STATE> 8
<MEAN> 16
 6.738369e+000 8.014234e+000 9.088264e+000 9.629728e+000 9.403134e+000 8.953634e+000 9.207608e+000 9.996874e+000 1.043275e+001 1.027013e+001 1.047406e+001 1.038663e+001 1.092965e+001 1.039364e+001 8.766859e+000 8.439564e+000
<VARIANCE> 16
 2.517653e-001 4.261436e-001 4.845631e-001 7.599071e-001 1.132602e+000 6.680936e-001 5.727332e-001 8.335848e-001 8.002222e-001 7.199743e-001 1.243828e+000 1.387263e+000 1.114168e+000 1.234570e+000 7.420224e-001 2.563968e-001
<GCONST> 2.381011e+001
<STATE> 9
<MEAN> 16
 6.501925e+000 8.010164e+000 8.585132e+000 8.637256e+000 7.978925e+000 7.923824e+000 8.201907e+000 8.499306e+000 8.574296e+000 8.720808e+000 8.748290e+000 9.278819e+000 9.569159e+000 8.919040e+000 8.120940e+000 8.116261e+000
<VARIANCE> 16
 1.942713e-001 1.472542e-001 4.384128e-001 4.280083e-001 2.496011e-001 2.798884e-001 4.560718e-001 6.519880e-001 5.253986e-001 4.955299e-001 8.028199e-001 1.430840e+000 1.308879e+000 4.225918e-001 8.087964e-002 5.693004e-002
<GCONST> 1.312465e+001
<TRANSP> 10
 0.000000e+000 1.000000e+000 0.000000e+000 0.000000e+000 0.000000e+000 0.000000e+000 0.000000e+000 0.000000e+000 0.000000e+000 0.000000e+000
 0.000000e+000 7.676793e-001 2.323206e-001 0.000000e+000 0.000000e+000 0.000000e+000 0.000000e+000 0.000000e+000 0.000000e+000 0.000000e+000
 0.000000e+000 0.000000e+000 6.246794e-001 3.753206e-001 0.000000e+000 0.000000e+000 0.000000e+000 0.000000e+000 0.000000e+000 0.000000e+000
 0.000000e+000 0.000000e+000 0.000000e+000 4.542697e-001 5.457303e-001 0.000000e+000 0.000000e+000 0.000000e+000 0.000000e+000 0.000000e+000
 0.000000e+000 0.000000e+000 0.000000e+000 0.000000e+000 5.111616e-001 4.888385e-001 0.000000e+000 0.000000e+000 0.000000e+000 0.000000e+000
 0.000000e+000 0.000000e+000 0.000000e+000 0.000000e+000 0.000000e+000 6.716917e-001 3.283083e-001 0.000000e+000 0.000000e+000 0.000000e+000
 0.000000e+000 0.000000e+000 0.000000e+000 0.000000e+000 0.000000e+000 0.000000e+000 3.271985e-001 6.728015e-001 0.000000e+000 0.000000e+000
 0.000000e+000 0.000000e+000 0.000000e+000 0.000000e+000 0.000000e+000 0.000000e+000 0.000000e+000 9.401352e-001 5.986483e-002 0.000000e+000
 0.000000e+000 0.000000e+000 0.000000e+000 0.000000e+000 0.000000e+000 0.000000e+000 0.000000e+000 0.000000e+000 9.644637e-001 3.553633e-002
 0.000000e+000 0.000000e+000 0.000000e+000 0.000000e+000 0.000000e+000 0.000000e+000 0.000000e+000 0.000000e+000 0.000000e+000 0.000000e+000
<ENDHMM>
~h "sest"
<BEGINHMM>
<NUMSTATES> 10
<STATE> 2
<MEAN> 16
 5.660410e+000 5.711276e+000 5.879429e+000 6.076206e+000 6.324122e+000 6.480625e+000 6.650429e+000 7.045349e+000 7.722120e+000 8.015592e+000 8.403248e+000 8.960709e+000 9.286085e+000 9.359051e+000 8.921322e+000 8.331905e+000
<VARIANCE> 16
 7.849649e-002 8.840759e-002 9.309769e-002 5.883135e-002 4.255027e-002 4.649859e-002 4.509322e-002 7.005594e-002 2.085161e-001 4.165127e-001 4.056092e-001 3.463974e-001 2.959579e-001 3.499983e-001 3.791010e-001 6.207679e-002
<GCONST> -3.177349e+000
<STATE> 3
<MEAN> 16
 5.684191e+000 5.770771e+000 5.921824e+000 6.121103e+000 6.309641e+000 6.431043e+000 6.634368e+000 7.244639e+000 8.124907e+000 8.768692e+000 9.285272e+000 9.983075e+000 1.018997e+001 1.023883e+001 9.672515e+000 8.868273e+000
<VARIANCE> 16
 1.222020e-001 1.046736e-001 7.012720e-002 9.683255e-002 5.391896e-002 4.281225e-002 6.237863e-002 1.285889e-001 4.452896e-001 5.961781e-001 3.080781e-001 2.582384e-001 1.795191e-001 2.134209e-001 2.216812e-001 1.382383e-001
<GCONST> -1.446816e+000
<STATE> 4
<MEAN> 16
 5.770989e+000 5.728496e+000 5.994656e+000 6.202310e+000 6.377980e+000 6.522481e+000 6.783323e+000 7.426641e+000 8.370542e+000 9.277679e+000 9.735536e+000 1.033231e+001 1.058610e+001 1.059851e+001 1.009923e+001 9.261521e+000
<VARIANCE> 16
 1.293096e-001 9.840461e-002 5.945843e-002 7.672431e-002 4.462881e-002 7.305504e-002 6.581516e-002 1.628342e-001 3.785949e-001 5.758849e-001 2.393882e-001 2.540223e-001 2.796445e-001 2.654045e-001 1.702656e-001 1.486669e-001
<GCONST> -1.210358e+000
<STATE> 5
<MEAN> 16
 5.744177e+000 5.846273e+000 6.027260e+000 6.201437e+000 6.286108e+000 6.540937e+000 6.812644e+000 7.472674e+000 8.396598e+000 9.228884e+000 1.012139e+001 1.108624e+001 1.134054e+001 1.119301e+001 1.059889e+001 9.774590e+000
<VARIANCE> 16
 6.569637e-002 7.204119e-002 7.677848e-002 7.063003e-002 5.205924e-002 5.484740e-002 1.048813e-001 1.364577e-001 3.491954e-001 4.400646e-001 2.180559e-001 3.920898e-001 3.296751e-001 3.745540e-001 2.782084e-001 2.306760e-001
<GCONST> -4.395859e-001
<STATE> 6
<MEAN> 16
 5.803118e+000 5.927534e+000 6.235931e+000 6.460330e+000 6.568467e+000 6.796182e+000 7.092811e+000 8.052421e+000 9.041336e+000 9.742694e+000 1.020162e+001 1.077374e+001 1.122056e+001 1.111587e+001 1.059218e+001 9.846591e+000
<VARIANCE> 16
 8.152121e-002 9.214114e-002 1.286702e-001 1.083023e-001 8.718739e-002 1.268179e-001 8.958622e-002 2.239383e-001 4.763711e-001 6.145415e-001 2.509283e-001 3.428050e-001 6.425376e-001 7.161825e-001 6.063550e-001 2.945524e-001
<GCONST> 5.647384e+000
<STATE> 7
<MEAN> 16
 5.994192e+000 6.897298e+000 7.500708e+000 7.708068e+000 7.307122e+000 7.158362e+000 7.354436e+000 8.334424e+000 8.971210e+000 9.208212e+000 9.525674e+000 9.774327e+000 9.963230e+000 9.663463e+000 9.099539e+000 8.734777e+000
<VARIANCE> 16
 9.764325e-002 6.555269e-001 1.106792e+000 9.439804e-001 5.696107e-001 3.092800e-001 2.528574e-001 6.232511e-001 5.274043e-001 4.556088e-001 2.849117e-001 4.988331e-001 6.527121e-001 7.580184e-001 6.443152e-001 2.253080e-001
<GCONST> 1.710656e+001
<STATE> 8
<MEAN> 16
 6.434269e+000 7.509158e+000 8.941952e+000 9.935182e+000 9.812135e+000 9.146566e+000 9.320292e+000 1.037986e+001 1.076357e+001 1.052464e+001 1.061718e+001 1.071185e+001 1.108004e+001 1.047848e+001 9.135917e+000 8.674958e+000
<VARIANCE> 16
 1.984610e-001 2.893303e-001 3.900102e-001 4.793495e-001 1.238228e+000 1.065081e+000 6.554182e-001 6.482980e-001 1.098628e+000 9.271833e-001 1.656215e+000 1.455758e+000 1.519757e+000 1.563414e+000 5.744504e-001 1.819717e-001
<GCONST> 2.379832e+001
<STATE> 9
<MEAN> 16
 5.729675e+000 5.935092e+000 6.455907e+000 7.107347e+000 7.206720e+000 7.016943e+000 7.157746e+000 7.799460e+000 8.158181e+000 8.120483e+000 8.523575e+000 9.063977e+000 9.956784e+000 1.044493e+001 1.036145e+001 1.006774e+001
<VARIANCE> 16
 1.149590e-001 1.552759e-001 2.931898e-001 4.762465e-001 4.554102e-001 2.840414e-001 1.648809e-001 2.516046e-001 4.047759e-001 3.305426e-001 3.483380e-001 3.430414e-001 5.040992e-001 5.449167e-001 2.961183e-001 2.451930e-001
<GCONST> 1.013319e+001
<TRANSP> 10
 0.000000e+000 1.000000e+000 0.000000e+000 0.000000e+000 0.000000e+000 0.000000e+000 0.000000e+000 0.000000e+000 0.000000e+000 0.000000e+000
 0.000000e+000 4.942522e-001 5.057478e-001 0.000000e+000 0.000000e+000 0.000000e+000 0.000000e+000 0.000000e+000 0.000000e+000 0.000000e+000
 0.000000e+000 0.000000e+000 3.421705e-001 6.578295e-001 0.000000e+000 0.000000e+000 0.000000e+000 0.000000e+000 0.000000e+000 0.000000e+000
 0.000000e+000 0.000000e+000 0.000000e+000 3.754326e-001 6.245674e-001 0.000000e+000 0.000000e+000 0.000000e+000 0.000000e+000 0.000000e+000
 0.000000e+000 0.000000e+000 0.000000e+000 0.000000e+000 7.078350e-001 2.921650e-001 0.000000e+000 0.000000e+000 0.000000e+000 0.000000e+000
 0.000000e+000 0.000000e+000 0.000000e+000 0.000000e+000 0.000000e+000 7.367983e-001 2.632017e-001 0.000000e+000 0.000000e+000 0.000000e+000
 0.000000e+000 0.000000e+000 0.000000e+000 0.000000e+000 0.000000e+000 0.000000e+000 2.763945e-001 7.236055e-001 0.000000e+000 0.000000e+000
 0.000000e+000 0.000000e+000 0.000000e+000 0.000000e+000 0.000000e+000 0.000000e+000 0.000000e+000 9.539676e-001 4.603240e-002 0.000000e+000
 0.000000e+000 0.000000e+000 0.000000e+000 0.000000e+000 0.000000e+000 0.000000e+000 0.000000e+000 0.000000e+000 9.371310e-001 6.286898e-002
 0.000000e+000 0.000000e+000 0.000000e+000 0.000000e+000 0.000000e+000 0.000000e+000 0.000000e+000 0.000000e+000 0.000000e+000 0.000000e+000
<ENDHMM>
~h "dva"
<BEGINHMM>
<NUMSTATES> 10
<STATE> 2
<MEAN> 16
 6.040894e+000 6.662476e+000 6.886927e+000 6.717133e+000 6.508463e+000 6.593729e+000 6.786031e+000 6.971912e+000 7.283357e+000 7.175864e+000 7.296620e+000 7.524728e+000 7.726144e+000 7.797313e+000 7.842271e+000 8.026269e+000
<VARIANCE> 16
 1.439201e-001 3.361610e-001 4.898591e-001 4.031371e-001 1.359133e-001 9.206308e-002 1.150217e-001 1.502565e-001 1.275629e-001 1.278762e-001 1.382630e-001 1.932748e-001 1.764409e-001 9.938961e-002 2.693530e-002 3.811795e-002
<GCONST> -2.346752e+000
<STATE> 3
<MEAN> 16
 6.099257e+000 6.992853e+000 7.465436e+000 7.498725e+000 7.024550e+000 7.148693e+000 7.582528e+000 7.874103e+000 8.035784e+000 8.182714e+000 8.346521e+000 8.709349e+000 8.848973e+000 8.413845e+000 7.987205e+000 8.035375e+000
<VARIANCE> 16
 1.209488e-001 3.191063e-001 5.925987e-001 5.145265e-001 2.298333e-001 1.821797e-001 2.128797e-001 4.711807e-001 3.857090e-001 4.070606e-001 5.335454e-001 5.475432e-001 6.082191e-001 3.937526e-001 7.023926e-002 1.969466e-002
<GCONST> 8.396461e+000
<STATE> 4
<MEAN> 16
 6.274095e+000 7.250499e+000 8.031946e+000 7.991346e+000 7.401059e+000 7.474203e+000 7.881398e+000 8.198817e+000 8.207442e+000 8.323696e+000 8.538516e+000 8.890757e+000 8.860098e+000 8.475456e+000 8.060260e+000 8.064137e+000
<VARIANCE> 16
 2.052882e-001 1.428434e-001 6.220217e-001 5.608783e-001 2.869765e-001 2.323178e-001 2.763500e-001 7.621434e-001 7.735125e-001 6.456134e-001 7.929875e-001 9.193877e-001 1.008427e+000 5.876094e-001 9.510329e-002 4.421173e-002
<GCONST> 1.355273e+001
<STATE> 5
<MEAN> 16
 6.624971e+000 7.475588e+000 8.132933e+000 8.199380e+000 7.783418e+000 8.010399e+000 8.352592e+000 8.143744e+000 8.032713e+000 8.246378e+000 8.393947e+000 8.586268e+000 9.033803e+000 8.732644e+000 8.138115e+000 8.116009e+000
<VARIANCE> 16
 4.339134e-001 2.655002e-001 6.467106e-001 7.751777e-001 3.721352e-001 3.965598e-001 2.376811e-001 4.735762e-001 5.264183e-001 3.868962e-001 6.036545e-001 8.043467e-001 7.432082e-001 4.305452e-001 9.304725e-002 6.471802e-002
<GCONST> 1.389119e+001
<STATE> 6
<MEAN> 16
 6.826482e+000 7.641547e+000 8.390370e+000 8.665012e+000 8.245418e+000 8.557988e+000 8.978662e+000 8.568870e+000 8.309826e+000 8.572523e+000 8.729997e+000 8.961995e+000 9.424148e+000 8.867638e+000 8.064165e+000 8.090789e+000
<VARIANCE> 16
 2.648411e-001 1.448495e-001 2.697699e-001 5.666763e-001 5.720350e-001 5.078102e-001 4.395016e-001 5.125648e-001 3.508901e-001 3.951013e-001 5.835428e-001 9.874729e-001 6.529890e-001 3.120668e-001 3.578269e-002 5.474752e-002
<GCONST> 1.118737e+001
<STATE> 7
<MEAN> 16
 6.548576e+000 7.476165e+000 8.592175e+000 9.861981e+000 1.038179e+001 9.965033e+000 1.022204e+001 9.210328e+000 9.130857e+000 9.552155e+000 8.536279e+000 9.203212e+000 9.429363e+000 9.342148e+000 8.432565e+000 8.349179e+000
<VARIANCE> 16
 1.485536e-001 7.908414e-002 7.415693e-002 1.542606e-001 3.427618e-001 2.042034e-001 1.843903e-001 2.041843e-001 1.509407e-001 1.680631e-001 7.522511e-001 1.094600e+000 3.903206e-001 3.062202e-001 1.173028e-001 1.206024e-001
<GCONST> 4.301436e+000
<STATE> 8
<MEAN> 16
 6.640978e+000 7.537264e+000 8.534734e+000 9.733519e+000 1.068325e+001 1.098136e+001 1.137220e+001 1.100828e+001 9.969375e+000 1.036463e+001 1.076070e+001 1.110811e+001 1.176146e+001 1.068343e+001 8.915029e+000 8.512940e+000
<VARIANCE> 16
 4.595178e-001 3.960622e-001 6.654482e-001 5.960955e-001 6.442917e-001 6.314774e-001 6.709033e-001 9.940860e-001 4.433796e-001 4.957536e-001 8.693597e-001 9.843675e-001 1.042222e+000 9.240845e-001 5.499058e-001 3.217508e-001
<GCONST> 2.203292e+001
<STATE> 9
<MEAN> 16
 5.877357e+000 6.435703e+000 6.641643e+000 7.525915e+000 8.493685e+000 8.809907e+000 8.819547e+000 8.486037e+000 7.887249e+000 8.026931e+000 8.368121e+000 8.679460e+000 9.226645e+000 8.569145e+000 7.902415e+000 7.961036e+000
<VARIANCE> 16
 2.577275e-001 4.837541e-001 3.191003e-001 5.688168e-001 5.169206e-001 3.510263e-001 4.013647e-001 5.577781e-001 2.460617e-001 3.169549e-001 4.415814e-001 3.233237e-001 3.523814e-001 2.551311e-001 4.832110e-002 5.623875e-002
<GCONST> 9.599400e+000
<TRANSP> 10
 0.000000e+000 1.000000e+000 0.000000e+000 0.000000e+000 0.000000e+000 0.000000e+000 0.000000e+000 0.000000e+000 0.000000e+000 0.000000e+000
 0.000000e+000 8.042450e-001 1.957550e-001 0.000000e+000 0.000000e+000 0.000000e+000 0.000000e+000 0.000000e+000 0.000000e+000 0.000000e+000
 0.000000e+000 0.000000e+000 5.979229e-001 4.020771e-001 0.000000e+000 0.000000e+000 0.000000e+000 0.000000e+000 0.000000e+000 0.000000e+000
 0.000000e+000 0.000000e+000 0.000000e+000 6.297079e-001 3.702921e-001 0.000000e+000 0.000000e+000 0.000000e+000 0.000000e+000 0.000000e+000
 0.000000e+000 0.000000e+000 0.000000e+000 0.000000e+000 2.074137e-001 7.925863e-001 0.000000e+000 0.000000e+000 0.000000e+000 0.000000e+000
 0.000000e+000 0.000000e+000 0.000000e+000 0.000000e+000 0.000000e+000 4.973588e-001 5.026412e-001 0.000000e+000 0.000000e+000 0.000000e+000
 0.000000e+000 0.000000e+000 0.000000e+000 0.000000e+000 0.000000e+000 0.000000e+000 8.184138e-001 1.815862e-001 0.000000e+000 0.000000e+000
 0.000000e+000 0.000000e+000 0.000000e+000 0.000000e+000 0.000000e+000 0.000000e+000 0.000000e+000 9.440872e-001 5.591282e-002 0.000000e+000
 0.000000e+000 0.000000e+000 0.000000e+000 0.000000e+000 0.000000e+000 0.000000e+000 0.000000e+000 0.000000e+000 8.779616e-001 1.220384e-001
 0.000000e+000 0.000000e+000 0.000000e+000 0.000000e+000 0.000000e+000 0.000000e+000 0.000000e+000 0.000000e+000 0.000000e+000 0.000000e+000
<ENDHMM>
~h "osm"
<BEGINHMM>
<NUMSTATES> 10
<STATE> 2
<MEAN> 16
 5.354241e+000 5.701173e+000 6.040049e+000 6.410697e+000 6.573846e+000 6.694028e+000 6.696232e+000 6.678247e+000 6.985954e+000 6.941087e+000 7.205597e+000 7.645116e+000 8.197864e+000 8.329934e+000 8.341410e+000 8.442026e+000
<VARIANCE> 16
 3.656361e-001 2.098743e-001 2.904829e-001 6.359944e-001 6.916797e-001 5.858517e-001 2.517527e-001 1.084602e-001 1.504066e-001 1.809300e-001 3.545293e-002 1.356101e-001 5.341342e-001 6.023624e-001 6.895840e-001 5.472943e-001
<GCONST> 9.595872e+000
<STATE> 3
<MEAN> 16
 5.835998e+000 6.601252e+000 7.572107e+000 8.403329e+000 8.282513e+000 8.313138e+000 7.699581e+000 7.194165e+000 7.484196e+000 7.713212e+000 7.612345e+000 8.015466e+000 8.629626e+000 8.189221e+000 8.071681e+000 8.299388e+000
<VARIANCE> 16
 2.353761e-001 5.686159e-001 1.209373e+000 1.220821e+000 7.026806e-001 7.110292e-001 5.631761e-001 1.744473e-001 1.129503e-001 2.369541e-001 2.301908e-001 5.730958e-001 3.511620e-001 1.984522e-001 1.509250e-001 1.817041e-001
<GCONST> 1.286404e+001
<STATE> 4
<MEAN> 16
 6.355163e+000 7.387248e+000 8.712867e+000 9.647174e+000 9.508420e+000 9.681652e+000 9.019714e+000 8.242254e+000 8.157176e+000 8.670198e+000 8.669528e+000 9.195272e+000 9.745153e+000 8.972363e+000 8.355223e+000 8.430660e+000
<VARIANCE> 16
 2.539961e-001 1.950119e-001 3.908933e-001 2.962595e-001 5.692961e-001 3.004891e-001 5.467964e-001 2.069133e-001 1.166528e-001 2.586313e-001 6.696054e-001 1.531765e+000 7.670962e-001 6.512414e-001 4.628291e-001 2.220464e-001
<GCONST> 1.385539e+001
<STATE> 5
<MEAN> 16
 6.437724e+000 7.463380e+000 8.807788e+000 9.942011e+000 1.017914e+001 1.024854e+001 9.628957e+000 8.751987e+000 8.517868e+000 9.011870e+000 9.469337e+000 1.018601e+001 1.064240e+001 9.702456e+000 8.489264e+000 8.400922e+000
<VARIANCE> 16
 2.130796e-001 2.714366e-001 2.064607e-001 4.495124e-001 8.626575e-001 4.731355e-001 9.761253e-001 3.317876e-001 1.618063e-001 4.386405e-001 1.102605e+000 2.108069e+000 1.015442e+000 7.025012e-001 6.128442e-001 1.882733e-001
<GCONST> 1.785587e+001
<STATE> 6
<MEAN> 16
 6.563136e+000 7.753806e+000 9.151149e+000 1.010710e+001 1.027879e+001 1.029923e+001 9.673221e+000 8.822786e+000 8.559985e+000 9.030048e+000 9.569415e+000 1.032401e+001 1.086830e+001 9.849318e+000 8.359287e+000 8.471299e+000
<VARIANCE> 16
 2.147618e-001 2.779530e-001 4.342370e-001 4.997162e-001 8.769970e-001 4.463608e-001 7.214850e-001 2.468098e-001 1.336734e-001 4.645794e-001 7.741071e-001 1.393273e+000 7.053239e-001 4.984376e-001 2.447667e-001 1.567840e-001
<GCONST> 1.538708e+001
<STATE> 7
<MEAN> 16
 6.598005e+000 7.593997e+000 9.220181e+000 1.039029e+001 1.068477e+001 1.071497e+001 1.047171e+001 9.510138e+000 9.011169e+000 9.280934e+000 1.034612e+001 1.108668e+001 1.167105e+001 1.088617e+001 9.139464e+000 8.575056e+000
<VARIANCE> 16
 1.737612e-001 2.482934e-001 5.249694e-001 6.403829e-001 9.488727e-001 7.659464e-001 9.428670e-001 4.427712e-001 2.819384e-001 2.982408e-001 6.542339e-001 1.077110e+000 6.817580e-001 5.879026e-001 5.508273e-001 1.142174e-001
<GCONST> 1.747387e+001
<STATE> 8
<MEAN> 16
 6.149856e+000 6.738347e+000 7.604992e+000 8.196039e+000 8.269919e+000 8.510779e+000 8.531773e+000 8.520768e+000 8.648562e+000 8.814281e+000 9.384824e+000 9.993834e+000 1.065780e+001 1.062961e+001 1.011618e+001 9.932650e+000
<VARIANCE> 16
 6.180660e-001 1.564262e+000 2.541716e+000 1.902819e+000 1.529489e+000 1.732963e+000 1.519593e+000 1.279084e+000 1.174043e+000 1.219598e+000 1.040845e+000 7.862192e-001 6.553288e-001 6.803252e-001 1.194183e+000 1.421948e+000
<GCONST> 3.246799e+001
<STATE> 9
<MEAN> 16
 6.426932e+000 7.902731e+000 8.656025e+000 8.587809e+000 7.805941e+000 8.223548e+000 8.427766e+000 8.326552e+000 8.426238e+000 8.677161e+000 8.803757e+000 9.602336e+000 9.963701e+000 9.090129e+000 8.135110e+000 8.134264e+000
<VARIANCE> 16
 1.816311e-001 1.084740e-001 3.384620e-001 4.341921e-001 2.005410e-001 3.416478e-001 4.967254e-001 6.177647e-001 4.157472e-001 4.589451e-001 5.926635e-001 8.646408e-001 9.394685e-001 3.906213e-001 1.096161e-001 7.457473e-002
<GCONST> 1.156507e+001
<TRANSP> 10
 0.000000e+000 1.000000e+000 0.000000e+000 0.000000e+000 0.000000e+000 0.000000e+000 0.000000e+000 0.000000e+000 0.000000e+000 0.000000e+000
 0.000000e+000 3.103690e-001 6.896310e-001 0.000000e+000 0.000000e+000 0.000000e+000 0.000000e+000 0.000000e+000 0.000000e+000 0.000000e+000
 0.000000e+000 0.000000e+000 3.625687e-001 6.374313e-001 0.000000e+000 0.000000e+000 0.000000e+000 0.000000e+000 0.000000e+000 0.000000e+000
 0.000000e+000 0.000000e+000 0.000000e+000 3.495724e-001 6.504276e-001 0.000000e+000 0.000000e+000 0.000000e+000 0.000000e+000 0.000000e+000
 0.000000e+000 0.000000e+000 0.000000e+000 0.000000e+000 9.335715e-002 9.066429e-001 0.000000e+000 0.000000e+000 0.000000e+000 0.000000e+000
 0.000000e+000 0.000000e+000 0.000000e+000 0.000000e+000 0.000000e+000 5.803733e-001 4.196268e-001 0.000000e+000 0.000000e+000 0.000000e+000
 0.000000e+000 0.000000e+000 0.000000e+000 0.000000e+000 0.000000e+000 0.000000e+000 8.105770e-001 1.894230e-001 0.000000e+000 0.000000e+000
 0.000000e+000 0.000000e+000 0.000000e+000 0.000000e+000 0.000000e+000 0.000000e+000 0.000000e+000 9.497982e-001 5.020183e-002 0.000000e+000
 0.000000e+000 0.000000e+000 0.000000e+000 0.000000e+000 0.000000e+000 0.000000e+000 0.000000e+000 0.000000e+000 9.597368e-001 4.026319e-002
 0.000000e+000 0.000000e+000 0.000000e+000 0.000000e+000 0.000000e+000 0.000000e+000 0.000000e+000 0.000000e+000 0.000000e+000 0.000000e+000
<ENDHMM>
~h "pet"
<BEGINHMM>
<NUMSTATES> 10
<STATE> 2
<MEAN> 16
 6.006062e+000 6.165150e+000 6.536811e+000 6.417655e+000 6.271373e+000 6.425834e+000 6.658809e+000 6.890998e+000 7.229197e+000 7.096079e+000 7.274170e+000 7.490593e+000 7.792036e+000 7.884504e+000 7.871186e+000 8.006012e+000
<VARIANCE> 16
 3.069581e-001 3.434708e-001 6.462511e-001 1.495163e-001 4.053668e-002 7.701669e-002 4.091042e-002 5.042915e-002 1.476849e-001 9.205133e-002 3.108365e-002 3.313064e-002 8.295508e-002 7.218711e-002 2.381361e-002 1.968350e-002
<GCONST> -1.109330e+001
<STATE> 3
<MEAN> 16
 5.904795e+000 6.541804e+000 7.021290e+000 6.733098e+000 6.448139e+000 6.479606e+000 6.893805e+000 7.362233e+000 7.959033e+000 7.903535e+000 7.879765e+000 7.987647e+000 8.377957e+000 8.351523e+000 8.149313e+000 8.163144e+000
<VARIANCE> 16
 3.365756e-001 6.774840e-001 8.659809e-001 2.965342e-001 1.108289e-001 7.168388e-002 9.512240e-002 3.296894e-001 5.130955e-001 4.649380e-001 4.150872e-001 3.357939e-001 2.902774e-001 2.526186e-001 9.052765e-002 6.218181e-002
<GCONST> 7.074539e+000
<STATE> 4
<MEAN> 16
 6.338812e+000 7.524455e+000 8.433899e+000 8.135738e+000 7.205468e+000 6.948145e+000 7.289508e+000 8.173929e+000 9.224054e+000 9.346003e+000 8.882255e+000 8.902463e+000 9.303918e+000 9.046409e+000 8.328124e+000 8.301060e+000
<VARIANCE> 16
 1.792863e-001 1.969925e-001 4.212527e-001 2.976779e-001 1.257820e-001 1.253801e-001 6.351143e-002 2.489786e-001 3.069090e-001 6.028758e-001 9.145575e-001 1.113677e+000 6.757265e-001 4.394154e-001 8.239239e-002 9.319920e-002
<GCONST> 7.937421e+000
<STATE> 5
<MEAN> 16
 6.578494e+000 7.908922e+000 9.239590e+000 9.180420e+000 7.987333e+000 7.614273e+000 7.892611e+000 8.749581e+000 1.010255e+001 1.062937e+001 1.023143e+001 1.015626e+001 1.036672e+001 9.616134e+000 8.288835e+000 8.123820e+000
<VARIANCE> 16
 2.865283e-001 1.992231e-001 2.044549e-001 1.989818e-001 2.962208e-001 2.071099e-001 2.387794e-001 2.968657e-001 2.719902e-001 5.190954e-001 1.050713e+000 1.552103e+000 1.160604e+000 1.017959e+000 8.207500e-002 8.048233e-002
<GCONST> 1.158131e+001
<STATE> 6
<MEAN> 16
 6.453103e+000 7.545419e+000 9.333970e+000 9.316402e+000 8.147784e+000 7.701111e+000 8.092091e+000 8.888436e+000 1.021609e+001 1.115032e+001 1.108479e+001 1.108863e+001 1.112078e+001 1.023004e+001 8.607052e+000 8.271196e+000
<VARIANCE> 16
 2.044507e-001 2.206513e-001 2.985110e-001 2.941943e-001 2.726706e-001 1.707605e-001 8.385508e-002 2.103143e-001 2.769603e-001 3.899562e-001 9.932833e-001 1.596462e+000 1.257301e+000 1.666591e+000 2.274837e-001 5.743737e-002
<GCONST> 1.140763e+001
<STATE> 7
<MEAN> 16
 6.776712e+000 7.826542e+000 9.545499e+000 1.014891e+001 8.908881e+000 8.267006e+000 8.488099e+000 9.781266e+000 1.044995e+001 1.032385e+001 9.697162e+000 9.703377e+000 1.013286e+001 9.624937e+000 8.681351e+000 8.686416e+000
<VARIANCE> 16
 1.770790e-001 1.066127e-001 1.656322e-001 1.327246e-001 1.218939e-001 8.786287e-002 7.474976e-002 2.803009e-001 2.198234e-001 7.440988e-001 1.416625e+000 1.948720e+000 8.279547e-001 6.099793e-001 7.431570e-002 1.247062e-001
<GCONST> 7.057355e+000
<STATE> 8
<MEAN> 16
 6.424639e+000 7.411048e+000 8.952257e+000 1.005524e+001 1.011703e+001 9.213249e+000 9.303718e+000 1.012662e+001 1.104446e+001 1.110244e+001 1.121174e+001 1.121562e+001 1.154935e+001 1.070304e+001 8.814184e+000 8.406785e+000
<VARIANCE> 16
 1.533115e-001 2.181896e-001 4.997790e-001 3.560238e-001 6.441950e-001 6.364456e-001 3.290230e-001 2.999949e-001 3.469535e-001 5.516655e-001 4.373290e-001 5.047114e-001 5.390784e-001 8.208858e-001 2.742237e-001 1.383616e-001
<GCONST> 1.382360e+001
<STATE> 9
<MEAN> 16
 5.903549e+000 6.334071e+000 7.289935e+000 8.163489e+000 8.080913e+000 7.503989e+000 7.507518e+000 8.210486e+000 8.794040e+000 8.712786e+000 8.971811e+000 9.023993e+000 9.183956e+000 8.427838e+000 7.906778e+000 8.020303e+000
<VARIANCE> 16
 1.364302e-001 3.413914e-001 5.582076e-001 4.295252e-001 3.795768e-001 2.941207e-001 1.964001e-001 3.588190e-001 3.166901e-001 3.267547e-001 4.767810e-001 3.533616e-001 3.266953e-001 3.336872e-001 4.109982e-002 3.994177e-002
<GCONST> 7.388560e+000
<TRANSP> 10
 0.000000e+000 1.000000e+000 0.000000e+000 0.000000e+000 0.000000e+000 0.000000e+000 0.000000e+000 0.000000e+000 0.000000e+000 0.000000e+000
 0.000000e+000 3.844722e-001 6.155278e-001 0.000000e+000 0.000000e+000 0.000000e+000 0.000000e+000 0.000000e+000 0.000000e+000 0.000000e+000
 0.000000e+000 0.000000e+000 1.632155e-001 8.367845e-001 0.000000e+000 0.000000e+000 0.000000e+000 0.000000e+000 0.000000e+000 0.000000e+000
 0.000000e+000 0.000000e+000 0.000000e+000 3.970617e-001 6.029384e-001 0.000000e+000 0.000000e+000 0.000000e+000 0.000000e+000 0.000000e+000
 0.000000e+000 0.000000e+000 0.000000e+000 0.000000e+000 1.145286e-001 8.854714e-001 0.000000e+000 0.000000e+000 0.000000e+000 0.000000e+000
 0.000000e+000 0.000000e+000 0.000000e+000 0.000000e+000 0.000000e+000 5.727782e-001 4.272218e-001 0.000000e+000 0.000000e+000 0.000000e+000
 0.000000e+000 0.000000e+000 0.000000e+000 0.000000e+000 0.000000e+000 0.000000e+000 7.951241e-001 2.048759e-001 0.000000e+000 0.000000e+000
 0.000000e+000 0.000000e+000 0.000000e+000 0.000000e+000 0.000000e+000 0.000000e+000 0.000000e+000 9.350090e-001 6.499105e-002 0.000000e+000
 0.000000e+000 0.000000e+000 0.000000e+000 0.000000e+000 0.000000e+000 0.000000e+000 0.000000e+000 0.000000e+000 8.253572e-001 1.746428e-001
 0.000000e+000 0.000000e+000 0.000000e+000 0.000000e+000 0.000000e+000 0.000000e+000 0.000000e+000 0.000000e+000 0.000000e+000 0.000000e+000
<ENDHMM>
~h "sil"
<BEGINHMM>
<NUMSTATES> 5
<STATE> 2
<MEAN> 16
 5.735138e+000 6.001133e+000 6.296859e+000 6.612744e+000 6.728575e+000 6.815812e+000 6.948984e+000 7.193756e+000 7.465073e+000 7.446535e+000 7.619237e+000 7.850018e+000 8.231092e+000 8.076138e+000 7.960855e+000 8.082678e+000
<VARIANCE> 16
 1.609271e-001 2.926834e-001 2.834449e-001 3.087317e-001 2.982813e-001 2.452812e-001 2.238287e-001 2.506766e-001 1.874964e-001 2.016443e-001 2.328150e-001 2.140286e-001 2.983976e-001 2.266630e-001 1.055709e-001 6.892128e-002
<GCONST> 4.527825e+000
<STATE> 3
<MEAN> 16
 5.635041e+000 5.739327e+000 5.906997e+000 6.095575e+000 6.260913e+000 6.437202e+000 6.593385e+000 6.758409e+000 7.111450e+000 7.018900e+000 7.171911e+000 7.348632e+000 7.549003e+000 7.645206e+000 7.812560e+000 8.015901e+000
<VARIANCE> 16
 1.147662e-001 1.008942e-001 8.743923e-002 7.113225e-002 6.307597e-002 5.534407e-002 4.828576e-002 4.037958e-002 3.064917e-002 3.025829e-002 2.686116e-002 2.506090e-002 2.939294e-002 2.141165e-002 1.780587e-002 3.439757e-002
<GCONST> -2.108566e+001
<STATE> 4
<MEAN> 16
 5.350706e+000 5.724435e+000 5.898013e+000 6.002727e+000 6.069680e+000 6.252261e+000 6.416826e+000 6.535463e+000 6.809896e+000 6.844964e+000 7.020613e+000 7.241179e+000 7.532451e+000 7.622108e+000 7.656920e+000 7.769729e+000
<VARIANCE> 16
 4.271810e-001 2.482843e-001 1.645889e-001 1.226115e-001 1.652934e-001 1.613984e-001 1.631848e-001 2.487912e-001 3.700661e-001 2.874222e-001 3.085626e-001 3.330853e-001 4.186230e-001 3.783125e-001 2.002597e-001 1.954637e-001
<GCONST> 6.831935e+000
<TRANSP> 5
 0.000000e+000 1.000000e+000 0.000000e+000 0.000000e+000 0.000000e+000
 0.000000e+000 8.583187e-001 1.416812e-001 0.000000e+000 0.000000e+000
 0.000000e+000 0.000000e+000 9.842698e-001 1.573021e-002 0.000000e+000
 0.000000e+000 0.000000e+000 0.000000e+000 6.655036e-001 3.344964e-001
 0.000000e+000 0.000000e+000 0.000000e+000 0.000000e+000 0.000000e+000
<ENDHMM>
~h "tri"
<BEGINHMM>
<NUMSTATES> 10
<STATE> 2
<MEAN> 16
 5.823305e+000 5.945033e+000 6.190512e+000 6.369124e+000 6.483682e+000 6.687741e+000 6.950626e+000 7.345468e+000 7.707152e+000 7.753220e+000 7.933011e+000 8.503353e+000 8.966922e+000 8.918050e+000 8.429228e+000 8.256980e+000
<VARIANCE> 16
 1.219570e-001 1.513170e-001 2.465944e-001 1.288755e-001 6.864236e-002 8.178157e-002 1.622305e-001 2.286320e-001 2.437743e-001 2.483436e-001 3.092560e-001 4.414051e-001 5.321141e-001 5.973930e-001 3.491297e-001 2.388296e-001
<GCONST> 5.061496e+000
<STATE> 3
<MEAN> 16
 5.612045e+000 5.942913e+000 6.370843e+000 6.579296e+000 6.767927e+000 6.986285e+000 7.351596e+000 7.988035e+000 8.334778e+000 8.541964e+000 8.801653e+000 9.609144e+000 9.988730e+000 9.850441e+000 9.113905e+000 8.893104e+000
<VARIANCE> 16
 1.513766e-001 1.160697e-001 1.509352e-001 1.609721e-001 1.699100e-001 2.204782e-001 3.273656e-001 2.321778e-001 2.181614e-001 1.709725e-001 2.857798e-001 2.557809e-001 2.245862e-001 2.947956e-001 2.421446e-001 2.478742e-001
<GCONST> 4.352917e+000
<STATE> 4
<MEAN> 16
 5.906224e+000 5.842836e+000 6.510142e+000 6.942436e+000 7.067980e+000 7.338143e+000 7.630970e+000 8.085965e+000 8.804053e+000 8.917164e+000 9.205409e+000 9.967558e+000 1.063174e+001 1.063563e+001 9.624046e+000 9.135784e+000
<VARIANCE> 16
 1.961264e-001 1.357227e-001 1.776081e-001 4.206740e-001 4.241709e-001 5.296916e-001 4.037888e-001 2.610286e-001 4.152192e-001 3.655442e-001 2.725616e-001 2.006955e-001 2.197251e-001 2.223326e-001 2.731693e-001 3.351199e-001
<GCONST> 9.241692e+000
<STATE> 5
<MEAN> 16
 5.866604e+000 5.853926e+000 6.311551e+000 6.614672e+000 6.799638e+000 7.068208e+000 7.301247e+000 7.808012e+000 8.559846e+000 8.658465e+000 9.180604e+000 1.042342e+001 1.126305e+001 1.142307e+001 1.028245e+001 9.380607e+000
<VARIANCE> 16
 2.015961e-001 6.471030e-002 1.069934e-001 2.833227e-001 2.177302e-001 2.740582e-001 1.358177e-001 2.484261e-001 3.656348e-001 3.523681e-001 3.876221e-001 3.240083e-001 3.149904e-001 2.946988e-001 2.546904e-001 2.501194e-001
<GCONST> 6.108139e+000
<STATE> 6
<MEAN> 16
 5.718115e+000 5.841444e+000 6.100642e+000 6.411657e+000 6.536121e+000 6.684911e+000 6.983283e+000 7.795080e+000 8.432678e+000 8.814805e+000 9.814680e+000 1.095671e+001 1.172967e+001 1.187835e+001 1.113836e+001 1.029131e+001
<VARIANCE> 16
 1.272004e-001 1.047787e-001 8.911011e-002 1.089614e-001 8.324640e-002 8.002599e-002 8.446479e-002 2.877244e-001 2.171676e-001 2.077002e-001 4.201292e-001 5.562118e-001 3.919117e-001 2.375626e-001 3.346348e-001 4.045061e-001
<GCONST> 2.798573e+000
<STATE> 7
<MEAN> 16
 6.069307e+000 6.335689e+000 6.617987e+000 6.841689e+000 6.869985e+000 7.111949e+000 7.390917e+000 8.462850e+000 9.632544e+000 9.687873e+000 1.052743e+001 1.131175e+001 1.191292e+001 1.192520e+001 1.116647e+001 9.813461e+000
<VARIANCE> 16
 2.091163e-001 2.603903e-001 3.712425e-001 2.923549e-001 1.495050e-001 1.547896e-001 9.114225e-002 1.781115e-001 2.716275e-001 2.962555e-001 7.706578e-001 8.947795e-001 8.570224e-001 8.801882e-001 6.769169e-001 2.930191e-001
<GCONST> 1.159693e+001
<STATE> 8
<MEAN> 16
 6.399417e+000 7.882950e+000 9.277390e+000 9.386950e+000 8.235652e+000 7.872797e+000 8.126721e+000 8.893173e+000 1.025795e+001 1.099948e+001 1.072325e+001 1.070001e+001 1.105839e+001 1.041642e+001 8.974630e+000 8.535382e+000
<VARIANCE> 16
 1.700803e-001 2.719800e-001 5.897084e-001 7.158496e-001 8.246183e-001 7.110429e-001 4.318106e-001 3.560829e-001 5.682361e-001 5.441838e-001 1.496588e+000 1.599725e+000 1.454843e+000 1.292836e+000 2.960566e-001 1.162810e-001
<GCONST> 2.002601e+001
<STATE> 9
<MEAN> 16
 6.021374e+000 6.900620e+000 7.645300e+000 7.681786e+000 7.269136e+000 7.135372e+000 7.016427e+000 7.236238e+000 8.231902e+000 9.120421e+000 9.148458e+000 9.151524e+000 9.617656e+000 9.050966e+000 8.091837e+000 8.074669e+000
<VARIANCE> 16
 1.989215e-001 4.857349e-001 4.125699e-001 5.104281e-001 3.774430e-001 4.026653e-001 1.334732e-001 1.252689e-001 4.203350e-001 3.434643e-001 4.658276e-001 3.018061e-001 4.132163e-001 3.989537e-001 1.092817e-001 5.402460e-002
<GCONST> 8.703985e+000
<TRANSP> 10
 0.000000e+000 1.000000e+000 0.000000e+000 0.000000e+000 0.000000e+000 0.000000e+000 0.000000e+000 0.000000e+000 0.000000e+000 0.000000e+000
 0.000000e+000 5.088743e-001 4.911257e-001 0.000000e+000 0.000000e+000 0.000000e+000 0.000000e+000 0.000000e+000 0.000000e+000 0.000000e+000
 0.000000e+000 0.000000e+000 3.792600e-001 6.207400e-001 0.000000e+000 0.000000e+000 0.000000e+000 0.000000e+000 0.000000e+000 0.000000e+000
 0.000000e+000 0.000000e+000 0.000000e+000 2.375474e-001 7.624526e-001 0.000000e+000 0.000000e+000 0.000000e+000 0.000000e+000 0.000000e+000
 0.000000e+000 0.000000e+000 0.000000e+000 0.000000e+000 3.397045e-001 6.602955e-001 0.000000e+000 0.000000e+000 0.000000e+000 0.000000e+000
 0.000000e+000 0.000000e+000 0.000000e+000 0.000000e+000 0.000000e+000 8.336551e-001 1.663448e-001 0.000000e+000 0.000000e+000 0.000000e+000
 0.000000e+000 0.000000e+000 0.000000e+000 0.000000e+000 0.000000e+000 0.000000e+000 6.790195e-001 3.209805e-001 0.000000e+000 0.000000e+000
 0.000000e+000 0.000000e+000 0.000000e+000 0.000000e+000 0.000000e+000 0.000000e+000 0.000000e+000 9.533339e-001 4.666613e-002 0.000000e+000
 0.000000e+000 0.000000e+000 0.000000e+000 0.000000e+000 0.000000e+000 0.000000e+000 0.000000e+000 0.000000e+000 8.210946e-001 1.789054e-001
 0.000000e+000 0.000000e+000 0.000000e+000 0.000000e+000 0.000000e+000 0.000000e+000 0.000000e+000 0.000000e+000 0.000000e+000 0.000000e+000
<ENDHMM>
~h "nula"
<BEGINHMM>
<NUMSTATES> 10
<STATE> 2
<MEAN> 16
 6.215908e+000 7.118856e+000 7.188441e+000 7.111695e+000 6.637427e+000 6.765208e+000 6.916269e+000 7.102774e+000 7.400331e+000 7.384948e+000 7.497592e+000 7.666638e+000 8.288328e+000 8.249848e+000 7.944127e+000 8.098045e+000
<VARIANCE> 16
 3.098737e-001 3.127478e-001 3.888069e-001 3.872843e-001 2.459267e-001 2.403487e-001 1.531798e-001 1.415943e-001 1.481543e-001 1.998581e-001 1.379246e-001 2.027580e-001 3.944820e-001 2.470026e-001 5.006307e-002 4.268224e-002
<GCONST> 2.946075e+000
<STATE> 3
<MEAN> 16
 6.485079e+000 7.889050e+000 8.222949e+000 8.254977e+000 7.695190e+000 7.626073e+000 7.155314e+000 7.345510e+000 7.676828e+000 7.808775e+000 7.720905e+000 7.742182e+000 8.359940e+000 8.353709e+000 7.950181e+000 8.114094e+000
<VARIANCE> 16
 3.196914e-001 3.226770e-001 3.595249e-001 3.199582e-001 4.355906e-001 5.232486e-001 1.438931e-001 2.437845e-001 1.791449e-001 4.241388e-001 4.308764e-001 2.334261e-001 4.181311e-001 1.506614e-001 2.102615e-002 4.404164e-002
<GCONST> 5.519718e+000
<STATE> 4
<MEAN> 16
 6.597439e+000 8.006765e+000 8.431993e+000 8.335637e+000 7.554983e+000 7.353947e+000 7.287482e+000 7.730861e+000 7.992877e+000 8.333200e+000 8.371897e+000 8.313066e+000 8.772708e+000 8.427600e+000 7.939955e+000 7.982378e+000
<VARIANCE> 16
 3.288562e-001 3.301909e-001 4.895176e-001 2.824188e-001 2.980121e-001 5.362691e-001 2.368630e-001 2.472730e-001 2.712514e-001 5.891144e-001 4.268641e-001 3.082452e-001 6.070710e-001 2.561001e-001 3.873676e-002 2.432414e-002
<GCONST> 7.845299e+000
<STATE> 5
<MEAN> 16
 6.786294e+000 8.295897e+000 8.728509e+000 8.716150e+000 8.049212e+000 7.916124e+000 7.655035e+000 7.989332e+000 8.078646e+000 8.585506e+000 8.426081e+000 8.167743e+000 8.562069e+000 8.384246e+000 8.162627e+000 8.121806e+000
<VARIANCE> 16
 4.367660e-001 3.172272e-001 4.940333e-001 3.733216e-001 3.465398e-001 6.238537e-001 2.847858e-001 3.112026e-001 2.652203e-001 6.913533e-001 7.833933e-001 3.380334e-001 4.352528e-001 1.475828e-001 9.566592e-002 4.879887e-002
<GCONST> 1.064698e+001
<STATE> 6
<MEAN> 16
 6.611314e+000 8.152580e+000 9.118736e+000 9.239910e+000 8.554373e+000 8.697089e+000 8.276799e+000 8.321354e+000 8.534599e+000 8.690099e+000 8.611141e+000 8.529202e+000 8.500883e+000 8.232056e+000 8.058797e+000 8.168566e+000
<VARIANCE> 16
 3.371330e-001 3.090667e-001 4.226705e-001 3.229594e-001 2.803444e-001 4.317289e-001 2.699510e-001 3.548547e-001 2.367107e-001 2.191928e-001 5.587149e-001 6.045738e-001 5.592268e-001 2.205743e-001 1.648482e-001 1.687862e-001
<GCONST> 1.097727e+001
<STATE> 7
<MEAN> 16
 6.503019e+000 7.920865e+000 8.978726e+000 9.931559e+000 9.561028e+000 9.565457e+000 9.411510e+000 8.787106e+000 8.727243e+000 9.051247e+000 9.107779e+000 9.535639e+000 9.564630e+000 8.890303e+000 8.261825e+000 8.225219e+000
<VARIANCE> 16
 3.157733e-001 3.223553e-001 8.057454e-001 2.891124e-001 6.270613e-001 6.392888e-001 5.008679e-001 3.601454e-001 2.671424e-001 2.882382e-001 9.175265e-001 1.044829e+000 7.265749e-001 3.643923e-001 2.468853e-001 1.983316e-001
<GCONST> 1.608575e+001
<STATE> 8
<MEAN> 16
 6.698202e+000 7.792359e+000 9.077877e+000 1.017988e+001 1.059080e+001 1.075234e+001 1.095454e+001 1.031062e+001 9.625836e+000 1.008965e+001 1.067493e+001 1.081682e+001 1.134844e+001 1.042392e+001 8.915026e+000 8.593995e+000
<VARIANCE> 16
 3.647944e-001 5.662133e-001 1.158817e+000 4.233763e-001 6.163948e-001 4.944754e-001 8.312256e-001 1.138231e+000 3.684437e-001 4.972397e-001 1.055797e+000 9.358783e-001 1.334903e+000 1.254822e+000 9.136813e-001 5.969153e-001
<GCONST> 2.407370e+001
<STATE> 9
<MEAN> 16
 6.033535e+000 6.731116e+000 7.047819e+000 8.153537e+000 8.865506e+000 9.061073e+000 9.118338e+000 8.629642e+000 8.018663e+000 8.270144e+000 8.526098e+000 8.694205e+000 9.189786e+000 8.730063e+000 8.012828e+000 8.023518e+000
<VARIANCE> 16
 2.843603e-001 7.435989e-001 4.386086e-001 5.062979e-001 3.752097e-001 3.152692e-001 4.225435e-001 6.766762e-001 3.145080e-001 3.644146e-001 6.035254e-001 4.516456e-001 3.844375e-001 2.781980e-001 1.083823e-001 6.827531e-002
<GCONST> 1.235314e+001
<TRANSP> 10
 0.000000e+000 1.000000e+000 0.000000e+000 0.000000e+000 0.000000e+000 0.000000e+000 0.000000e+000 0.000000e+000 0.000000e+000 0.000000e+000
 0.000000e+000 5.837335e-001 4.162665e-001 0.000000e+000 0.000000e+000 0.000000e+000 0.000000e+000 0.000000e+000 0.000000e+000 0.000000e+000
 0.000000e+000 0.000000e+000 4.565188e-001 5.434812e-001 0.000000e+000 0.000000e+000 0.000000e+000 0.000000e+000 0.000000e+000 0.000000e+000
 0.000000e+000 0.000000e+000 0.000000e+000 3.853385e-001 6.146615e-001 0.000000e+000 0.000000e+000 0.000000e+000 0.000000e+000 0.000000e+000
 0.000000e+000 0.000000e+000 0.000000e+000 0.000000e+000 4.400980e-001 5.599020e-001 0.000000e+000 0.000000e+000 0.000000e+000 0.000000e+000
 0.000000e+000 0.000000e+000 0.000000e+000 0.000000e+000 0.000000e+000 6.797551e-001 3.202450e-001 0.000000e+000 0.000000e+000 0.000000e+000
 0.000000e+000 0.000000e+000 0.000000e+000 0.000000e+000 0.000000e+000 0.000000e+000 9.027906e-001 9.720942e-002 0.000000e+000 0.000000e+000
 0.000000e+000 0.000000e+000 0.000000e+000 0.000000e+000 0.000000e+000 0.000000e+000 0.000000e+000 9.499078e-001 5.009217e-002 0.000000e+000
 0.000000e+000 0.000000e+000 0.000000e+000 0.000000e+000 0.000000e+000 0.000000e+000 0.000000e+000 0.000000e+000 8.613535e-001 1.386465e-001
 0.000000e+000 0.000000e+000 0.000000e+000 0.000000e+000 0.000000e+000 0.000000e+000 0.000000e+000 0.000000e+000 0.000000e+000 0.000000e+000
<ENDHMM>
~h "devet"
<BEGINHMM>
<NUMSTATES> 10
<STATE> 2
<MEAN> 16
 6.241619e+000 6.684014e+000 6.951207e+000 6.770556e+000 6.429659e+000 6.563359e+000 6.663725e+000 6.768894e+000 7.155620e+000 7.116923e+000 7.252134e+000 7.454688e+000 7.756220e+000 7.805088e+000 7.827114e+000 7.980599e+000
<VARIANCE> 16
 2.323674e-001 1.552090e-001 2.793387e-001 2.297471e-001 8.203767e-002 7.224730e-002 7.715217e-002 3.772551e-002 3.479511e-002 2.962582e-002 4.278381e-002 5.349214e-002 1.572944e-001 9.930300e-002 1.996545e-002 1.815300e-002
<GCONST> -1.266921e+001
<STATE> 3
<MEAN> 16
 6.300237e+000 7.093474e+000 7.253458e+000 7.188550e+000 6.908003e+000 6.730299e+000 6.900548e+000 7.209859e+000 7.674197e+000 7.585374e+000 7.737741e+000 7.881929e+000 8.183044e+000 8.110581e+000 7.888947e+000 8.015955e+000
<VARIANCE> 16
 2.597151e-001 4.954882e-001 3.349915e-001 3.711391e-001 2.328800e-001 2.309619e-001 1.472754e-001 3.103670e-001 3.491420e-001 2.271201e-001 2.267191e-001 3.074717e-001 3.093017e-001 1.793198e-001 3.984230e-002 6.478909e-002
<GCONST> 5.213202e+000
<STATE> 4
<MEAN> 16
 6.402975e+000 7.390348e+000 7.712040e+000 7.653056e+000 7.010136e+000 6.887455e+000 7.098954e+000 7.834919e+000 8.389968e+000 8.251115e+000 8.414913e+000 8.501557e+000 8.843505e+000 8.680315e+000 8.098594e+000 8.073471e+000
<VARIANCE> 16
 4.050725e-001 6.421232e-001 4.001044e-001 3.538775e-001 1.229005e-001 9.088297e-002 1.273914e-001 4.219073e-001 3.308041e-001 1.664787e-001 3.682728e-001 4.776158e-001 3.916599e-001 2.593803e-001 5.649681e-002 5.439105e-002
<GCONST> 5.977563e+000
<STATE> 5
<MEAN> 16
 6.280498e+000 7.402596e+000 8.486691e+000 8.726537e+000 7.806127e+000 7.413727e+000 7.915914e+000 8.993814e+000 9.661235e+000 9.532705e+000 9.527402e+000 9.714342e+000 1.009497e+001 9.553244e+000 8.483680e+000 8.309011e+000
<VARIANCE> 16
 2.799509e-001 2.639618e-001 5.678955e-001 4.498139e-001 1.652937e-001 7.913966e-002 8.158860e-002 3.862585e-001 2.946521e-001 3.092355e-001 9.783982e-001 1.239553e+000 1.014344e+000 7.676322e-001 3.698778e-001 1.108802e-001
<GCONST> 1.199552e+001
<STATE> 6
<MEAN> 16
 6.590539e+000 7.711168e+000 9.299864e+000 9.592861e+000 8.671147e+000 8.135994e+000 8.502178e+000 9.648721e+000 1.047187e+001 1.039470e+001 1.029895e+001 1.037626e+001 1.063153e+001 9.807018e+000 8.850183e+000 8.514924e+000
<VARIANCE> 16
 1.748830e-001 2.128752e-001 2.583165e-001 1.588158e-001 9.249020e-002 1.353323e-001 4.830093e-002 3.861432e-001 1.652527e-001 1.565751e-001 1.237380e+000 1.411557e+000 9.481941e-001 1.182909e+000 2.883430e-001 1.920588e-001
<GCONST> 8.683653e+000
<STATE> 7
<MEAN> 16
 6.596251e+000 7.722732e+000 9.496649e+000 1.012107e+001 9.188366e+000 8.590440e+000 8.824266e+000 1.034345e+001 1.090525e+001 1.084288e+001 1.065175e+001 1.104919e+001 1.083952e+001 9.494115e+000 8.817837e+000 8.587279e+000
<VARIANCE> 16
 1.581804e-001 1.500797e-001 1.691974e-001 1.420666e-001 2.005702e-001 1.182350e-001 5.660476e-002 4.145177e-001 1.595531e-001 2.028874e-001 1.003856e+000 1.471935e+000 6.319030e-001 7.550770e-001 1.343730e-001 1.860532e-001
<GCONST> 6.974430e+000
<STATE> 8
<MEAN> 16
 6.417534e+000 7.738356e+000 9.098680e+000 9.024226e+000 8.004978e+000 7.614797e+000 8.120771e+000 9.390772e+000 9.778461e+000 9.637096e+000 8.698664e+000 8.955005e+000 9.540220e+000 9.330196e+000 8.423858e+000 8.477541e+000
<VARIANCE> 16
 1.580732e-001 1.570566e-001 2.611306e-001 3.857126e-001 6.617190e-001 3.177444e-001 2.583758e-001 3.056840e-001 4.385098e-001 4.125486e-001 1.057605e+000 1.493544e+000 7.224808e-001 7.555284e-001 1.472823e-001 1.265838e-001
<GCONST> 1.347655e+001
<STATE> 9
<MEAN> 16
 6.444438e+000 7.484725e+000 8.925270e+000 9.673738e+000 9.484084e+000 8.648127e+000 8.880435e+000 9.649838e+000 1.069150e+001 1.088859e+001 1.114997e+001 1.121571e+001 1.148419e+001 1.064029e+001 8.701561e+000 8.344728e+000
<VARIANCE> 16
 1.995661e-001 3.266123e-001 6.249117e-001 6.885308e-001 1.092033e+000 6.079443e-001 4.249756e-001 4.191797e-001 5.760597e-001 6.905891e-001 6.682369e-001 7.080417e-001 7.190178e-001 1.116295e+000 3.240838e-001 1.030747e-001
<GCONST> 1.840826e+001
<TRANSP> 10
 0.000000e+000 1.000000e+000 0.000000e+000 0.000000e+000 0.000000e+000 0.000000e+000 0.000000e+000 0.000000e+000 0.000000e+000 0.000000e+000
 0.000000e+000 7.600522e-001 2.399478e-001 0.000000e+000 0.000000e+000 0.000000e+000 0.000000e+000 0.000000e+000 0.000000e+000 0.000000e+000
 0.000000e+000 0.000000e+000 2.517431e-001 7.482569e-001 0.000000e+000 0.000000e+000 0.000000e+000 0.000000e+000 0.000000e+000 0.000000e+000
 0.000000e+000 0.000000e+000 0.000000e+000 1.903193e-001 8.096807e-001 0.000000e+000 0.000000e+000 0.000000e+000 0.000000e+000 0.000000e+000
 0.000000e+000 0.000000e+000 0.000000e+000 0.000000e+000 2.138851e-001 7.861149e-001 0.000000e+000 0.000000e+000 0.000000e+000 0.000000e+000
 0.000000e+000 0.000000e+000 0.000000e+000 0.000000e+000 0.000000e+000 7.472113e-002 9.252789e-001 0.000000e+000 0.000000e+000 0.000000e+000
 0.000000e+000 0.000000e+000 0.000000e+000 0.000000e+000 0.000000e+000 0.000000e+000 6.757169e-001 3.242832e-001 0.000000e+000 0.000000e+000
 0.000000e+000 0.000000e+000 0.000000e+000 0.000000e+000 0.000000e+000 0.000000e+000 0.000000e+000 8.767472e-001 1.232528e-001 0.000000e+000
 0.000000e+000 0.000000e+000 0.000000e+000 0.000000e+000 0.000000e+000 0.000000e+000 0.000000e+000 0.000000e+000 9.663513e-001 3.364874e-002
 0.000000e+000 0.000000e+000 0.000000e+000 0.000000e+000 0.000000e+000 0.000000e+000 0.000000e+000 0.000000e+000 0.000000e+000 0.000000e+000
<ENDHMM>
~h "jedna"
<BEGINHMM>
<NUMSTATES> 10
<STATE> 2
<MEAN> 16
 6.132665e+000 6.942158e+000 7.080125e+000 6.949138e+000 6.597411e+000 6.590091e+000 6.697794e+000 6.935189e+000 7.582835e+000 7.949158e+000 7.960971e+000 8.268372e+000 8.711691e+000 8.403099e+000 7.955682e+000 8.080056e+000
<VARIANCE> 16
 1.873653e-001 3.673423e-001 4.209359e-001 2.305096e-001 1.088708e-001 9.013242e-002 4.780725e-002 5.044597e-002 2.279018e-001 3.363727e-001 3.041642e-001 5.439451e-001 6.300445e-001 2.952569e-001 1.037043e-001 7.181610e-002
<GCONST> 2.796435e+000
<STATE> 3
<MEAN> 16
 6.383111e+000 7.658779e+000 8.128871e+000 7.785822e+000 7.118690e+000 6.791578e+000 6.774428e+000 7.073917e+000 8.040305e+000 9.063741e+000 9.248510e+000 9.548856e+000 9.610476e+000 8.934804e+000 8.101897e+000 8.085385e+000
<VARIANCE> 16
 1.565586e-001 1.879893e-001 2.334201e-001 1.908741e-001 1.691432e-001 1.923285e-001 6.654350e-002 1.304485e-001 3.986981e-001 4.024987e-001 4.880574e-001 1.108047e+000 1.158743e+000 5.094483e-001 9.166295e-002 5.547875e-002
<GCONST> 6.344223e+000
<STATE> 4
<MEAN> 16
 6.415823e+000 7.468663e+000 8.159722e+000 7.842716e+000 7.055210e+000 6.847696e+000 7.142538e+000 7.979835e+000 8.528014e+000 8.625066e+000 8.393905e+000 8.355873e+000 8.918550e+000 8.589473e+000 8.403954e+000 8.482021e+000
<VARIANCE> 16
 1.012361e-001 2.983063e-001 9.949324e-001 8.209986e-001 3.316477e-001 1.522905e-001 2.097687e-001 7.401246e-001 1.142220e+000 1.018638e+000 9.670386e-001 1.300459e+000 1.083324e+000 5.237678e-001 2.030437e-001 1.221284e-001
<GCONST> 1.697240e+001
<STATE> 5
<MEAN> 16
 6.322013e+000 7.648321e+000 8.810495e+000 8.760479e+000 7.787320e+000 7.284389e+000 7.560556e+000 8.387312e+000 8.742396e+000 9.430534e+000 9.382673e+000 9.929732e+000 9.968666e+000 8.960872e+000 8.308124e+000 8.183388e+000
<VARIANCE> 16
 1.006501e-001 1.755167e-001 4.839944e-001 5.535877e-001 3.707990e-001 2.123903e-001 1.712327e-001 7.258372e-001 7.506964e-001 8.806248e-001 1.264918e+000 1.388924e+000 1.293163e+000 9.876289e-001 2.714694e-001 5.803223e-002
<GCONST> 1.566995e+001
<STATE> 6
<MEAN> 16
 6.379486e+000 7.434893e+000 8.203831e+000 8.202415e+000 7.728978e+000 7.418240e+000 7.490323e+000 8.118692e+000 8.872579e+000 9.553151e+000 1.000252e+001 1.008525e+001 1.034274e+001 9.684293e+000 8.266023e+000 8.093102e+000
<VARIANCE> 16
 1.853286e-001 3.587801e-001 7.806544e-001 5.958502e-001 3.151285e-001 2.646825e-001 5.049337e-001 6.323181e-001 1.076717e+000 1.402792e+000 1.505576e+000 1.883878e+000 1.781900e+000 1.395837e+000 3.536215e-001 6.107730e-002
<GCONST> 2.083521e+001
<STATE> 7
<MEAN> 16
 6.586699e+000 7.783489e+000 8.864837e+000 9.054401e+000 8.591265e+000 8.040566e+000 8.109638e+000 8.748899e+000 9.536180e+000 1.002615e+001 1.012288e+001 1.023678e+001 1.058807e+001 9.600668e+000 8.335059e+000 8.201855e+000
<VARIANCE> 16
 1.485909e-001 3.196509e-001 6.888281e-001 8.944838e-001 1.100080e+000 6.098891e-001 7.052517e-001 8.630520e-001 1.018071e+000 1.541300e+000 1.496898e+000 1.552472e+000 1.478520e+000 1.571656e+000 4.242547e-001 1.214488e-001
<GCONST> 2.415036e+001
<STATE> 8
<MEAN> 16
 6.606190e+000 7.713611e+000 8.637012e+000 9.441281e+000 9.952494e+000 1.007983e+001 1.044101e+001 1.084866e+001 1.032801e+001 1.012859e+001 1.029421e+001 1.050158e+001 1.106970e+001 1.037552e+001 8.536265e+000 8.305203e+000
<VARIANCE> 16
 1.263270e-001 2.829892e-001 4.353249e-001 4.325164e-001 5.504186e-001 7.512138e-001 8.368861e-001 9.933847e-001 3.711843e-001 3.611303e-001 1.360372e+000 1.194723e+000 1.117518e+000 8.296211e-001 3.021583e-001 1.001262e-001
<GCONST> 1.823946e+001
<STATE> 9
<MEAN> 16
 6.249711e+000 7.094650e+000 7.552586e+000 8.374288e+000 9.207708e+000 9.180948e+000 9.396866e+000 9.097300e+000 8.601431e+000 8.621199e+000 8.774304e+000 9.136187e+000 9.446202e+000 8.847502e+000 8.001687e+000 8.111953e+000
<VARIANCE> 16
 1.682734e-001 3.625578e-001 4.882842e-001 7.178604e-001 8.369072e-001 4.052510e-001 4.123258e-001 3.992946e-001 2.785012e-001 3.405882e-001 7.504165e-001 8.208696e-001 4.480967e-001 1.861963e-001 3.401409e-002 4.151575e-002
<GCONST> 1.078937e+001
<TRANSP> 10
 0.000000e+000 1.000000e+000 0.000000e+000 0.000000e+000 0.000000e+000 0.000000e+000 0.000000e+000 0.000000e+000 0.000000e+000 0.000000e+000
 0.000000e+000 5.319194e-001 4.680807e-001 0.000000e+000 0.000000e+000 0.000000e+000 0.000000e+000 0.000000e+000 0.000000e+000 0.000000e+000
 0.000000e+000 0.000000e+000 4.549861e-001 5.450139e-001 0.000000e+000 0.000000e+000 0.000000e+000 0.000000e+000 0.000000e+000 0.000000e+000
 0.000000e+000 0.000000e+000 0.000000e+000 7.766947e-001 2.233053e-001 0.000000e+000 0.000000e+000 0.000000e+000 0.000000e+000 0.000000e+000
 0.000000e+000 0.000000e+000 0.000000e+000 0.000000e+000 7.277934e-001 2.722067e-001 0.000000e+000 0.000000e+000 0.000000e+000 0.000000e+000
 0.000000e+000 0.000000e+000 0.000000e+000 0.000000e+000 0.000000e+000 7.837203e-001 2.162797e-001 0.000000e+000 0.000000e+000 0.000000e+000
 0.000000e+000 0.000000e+000 0.000000e+000 0.000000e+000 0.000000e+000 0.000000e+000 9.173595e-001 8.264054e-002 0.000000e+000 0.000000e+000
 0.000000e+000 0.000000e+000 0.000000e+000 0.000000e+000 0.000000e+000 0.000000e+000 0.000000e+000 9.430685e-001 5.693149e-002 0.000000e+000
 0.000000e+000 0.000000e+000 0.000000e+000 0.000000e+000 0.000000e+000 0.000000e+000 0.000000e+000 0.000000e+000 8.930153e-001 1.069847e-001
 0.000000e+000 0.000000e+000 0.000000e+000 0.000000e+000 0.000000e+000 0.000000e+000 0.000000e+000 0.000000e+000 0.000000e+000 0.000000e+000
<ENDHMM>
