~o
<STREAMINFO> 1 39
<VECSIZE> 39<NULLD><MFCC_D_A_0><DIAGC>
~h "ctyri"
<BEGINHMM>
<NUMSTATES> 10
<STATE> 2
<MEAN> 39
 -1.181568e+001 8.783549e-002 -1.106017e+000 -4.974048e-001 -1.642912e+000 -1.205928e+000 1.103620e+000 2.674911e+000 -1.724834e+000 9.593945e-001 4.330375e-001 1.246266e+000 4.716087e+001 -2.293534e-001 -4.494281e-002 2.348897e-001 -3.165362e-001 1.110315e-001 -1.271078e-001 1.497441e-001 1.682219e-001 1.052240e-001 7.611172e-002 -5.664897e-002 5.557152e-002 1.581628e-001 -1.289949e-001 -6.585918e-002 2.397171e-001 -8.354615e-002 5.198931e-002 -2.443125e-003 -1.748271e-001 -8.932952e-002 7.435905e-002 -1.061563e-001 8.551382e-002 -6.518962e-003 1.233241e-001
<VARIANCE> 39
 1.139925e+001 4.461192e+000 1.242196e+001 9.189182e+000 1.745873e+001 1.435083e+001 2.160999e+001 1.564782e+001 1.599176e+001 1.335966e+001 1.250163e+001 1.094686e+001 4.140660e+000 9.607939e-001 5.244855e-001 1.057909e+000 1.548094e+000 1.827882e+000 2.052244e+000 2.311764e+000 1.449471e+000 1.243434e+000 1.498759e+000 1.463295e+000 1.169520e+000 3.815264e-001 2.151200e-001 1.192405e-001 2.912090e-001 4.629426e-001 3.855906e-001 3.606764e-001 4.041018e-001 2.291213e-001 3.252379e-001 2.549057e-001 3.227715e-001 2.100025e-001 8.930968e-002
<GCONST> 8.831386e+001
<STATE> 3
<MEAN> 39
 -1.242864e+001 6.088328e-001 -6.958467e-001 -2.911454e+000 2.220098e+000 -3.097092e+000 7.550851e-001 2.487915e+000 -1.390445e+000 1.550106e+000 1.463983e+000 1.463727e+000 4.739379e+001 -8.475637e-001 -3.909716e-001 1.334222e+000 -9.411687e-001 3.154728e-001 -6.345809e-002 -6.184501e-001 -7.604460e-002 3.106220e-001 -3.472291e-001 2.368271e-001 6.473406e-002 7.081198e-001 -2.923842e-001 -4.460752e-002 5.135881e-001 -3.453361e-001 3.681375e-002 -1.493728e-001 -6.624848e-002 -1.819842e-001 1.048999e-001 -1.734971e-001 8.723699e-002 -4.382339e-002 3.128177e-001
<VARIANCE> 39
 1.840895e+001 6.455501e+000 1.140308e+001 3.356578e+001 3.449116e+001 2.022433e+001 1.227197e+001 1.310393e+001 1.263089e+001 1.344573e+001 1.272593e+001 1.474822e+001 5.046209e+000 1.388405e+000 5.531788e-001 1.447295e+000 3.990039e+000 3.585370e+000 2.798871e+000 1.731721e+000 1.717178e+000 2.000743e+000 1.467883e+000 1.312513e+000 1.135489e+000 4.878968e-001 4.608940e-001 1.274870e-001 2.841125e-001 7.534240e-001 1.068070e+000 5.235460e-001 4.071836e-001 3.506930e-001 3.954817e-001 2.571180e-001 2.653477e-001 2.608459e-001 1.256797e-001
<GCONST> 9.772867e+001
<STATE> 4
<MEAN> 39
 -1.409723e+001 -1.841073e-001 2.597747e+000 -5.083066e+000 2.242748e+000 -2.368588e+000 -1.106481e+000 2.128938e+000 -8.561818e-001 2.771857e-001 1.657046e+000 1.125100e+000 4.907516e+001 -1.310100e+000 -2.832326e-001 1.931833e+000 -1.580132e+000 5.745046e-001 -5.166627e-001 -1.761023e-001 -3.167778e-001 2.977217e-001 -4.304626e-001 1.077968e-001 -1.278289e-001 1.139196e+000 -2.402443e-001 1.240756e-001 2.108781e-001 -2.055813e-001 -3.338030e-002 -3.304280e-001 2.753784e-001 -1.778958e-001 1.434589e-002 -2.654758e-002 8.334890e-002 -7.383008e-002 2.244817e-001
<VARIANCE> 39
 2.400840e+001 1.007622e+001 1.969758e+001 5.102286e+001 4.942365e+001 3.045430e+001 1.988889e+001 1.997647e+001 1.522434e+001 1.455418e+001 1.358548e+001 1.314531e+001 8.017458e+000 3.291513e+000 1.161339e+000 2.701894e+000 5.531971e+000 6.389501e+000 3.265078e+000 2.525216e+000 2.242020e+000 2.469685e+000 1.223538e+000 1.567317e+000 1.563831e+000 1.087680e+000 4.755122e-001 1.537289e-001 3.026631e-001 6.786628e-001 9.978361e-001 5.214451e-001 5.586550e-001 5.080903e-001 2.951146e-001 3.929883e-001 3.314848e-001 2.920296e-001 1.486884e-001
<GCONST> 1.084441e+002
<STATE> 5
<MEAN> 39
 -1.897480e+001 2.396413e-001 7.280871e+000 -9.893888e+000 4.833216e+000 -4.360307e+000 3.417925e-001 6.399908e-001 -6.778767e-001 -1.605679e-001 2.035202e+000 -1.696800e-001 5.232401e+001 -8.286413e-001 1.075378e-001 9.288785e-001 -7.928745e-001 1.482016e-001 -6.855040e-001 3.256066e-001 -2.553774e-001 5.010966e-002 -1.684523e-001 1.117207e-001 -1.058849e-001 7.027147e-001 1.492957e-001 2.129937e-002 -2.059282e-001 2.244102e-001 -2.211275e-001 -9.208599e-002 7.678144e-002 1.927047e-002 -1.155166e-001 8.901924e-002 2.459393e-002 -3.512307e-003 -7.587349e-002
<VARIANCE> 39
 4.123772e+001 1.427945e+001 3.051376e+001 4.633397e+001 6.943777e+001 4.106115e+001 2.930309e+001 2.296162e+001 2.323854e+001 1.591835e+001 1.634739e+001 1.403597e+001 1.227187e+001 4.607012e+000 1.190064e+000 3.706811e+000 4.341911e+000 5.334033e+000 3.283114e+000 2.692101e+000 2.772776e+000 1.943851e+000 1.793496e+000 1.582092e+000 1.746993e+000 1.722025e+000 4.003963e-001 1.637599e-001 3.331193e-001 5.224151e-001 5.490226e-001 5.517390e-001 6.103233e-001 5.308412e-001 2.937608e-001 3.616470e-001 2.999479e-001 3.537424e-001 1.554364e-001
<GCONST> 1.126534e+002
<STATE> 6
<MEAN> 39
 -1.982409e+001 5.855125e-001 8.250590e+000 -1.052189e+001 4.600191e+000 -5.775592e+000 1.522788e+000 4.657704e-001 -1.158774e+000 1.330161e-001 2.081372e+000 -1.106711e-001 5.309880e+001 1.207278e-001 -6.361496e-002 3.729177e-003 5.704547e-002 -2.581457e-001 -4.487007e-001 5.471022e-002 9.847698e-002 -3.107799e-001 1.664825e-001 5.588200e-002 -2.986906e-002 9.597987e-002 2.014371e-001 -7.533956e-002 -1.678915e-001 9.641828e-002 -1.195190e-001 -7.188475e-003 -7.453791e-002 5.625211e-002 -9.166880e-002 9.747301e-002 -3.485696e-002 -1.227401e-002 -6.294444e-002
<VARIANCE> 39
 4.869990e+001 1.549415e+001 3.531620e+001 4.353787e+001 8.267381e+001 4.120987e+001 2.696190e+001 2.143659e+001 2.609277e+001 1.428363e+001 1.702229e+001 1.385331e+001 1.492548e+001 3.516121e+000 1.072352e+000 2.497265e+000 2.486053e+000 3.301754e+000 3.180188e+000 2.616050e+000 2.083390e+000 1.606532e+000 1.633949e+000 1.474317e+000 1.574299e+000 1.632982e+000 3.778391e-001 1.879898e-001 3.874007e-001 4.918063e-001 5.008584e-001 5.396191e-001 4.557013e-001 3.887212e-001 3.325771e-001 2.843900e-001 2.526041e-001 3.077498e-001 2.217595e-001
<GCONST> 1.099583e+002
<STATE> 7
<MEAN> 39
 -1.711786e+001 -1.097194e+000 7.605096e+000 -9.444523e+000 1.459815e+000 -7.494840e+000 1.148972e+000 1.160951e+000 -2.799382e+000 1.111469e+000 1.991598e+000 -1.180794e-001 5.315195e+001 6.161001e-001 -5.596292e-001 3.846325e-002 -3.793912e-001 -9.023305e-001 -8.809310e-001 -3.477865e-001 1.136125e-001 -5.277234e-001 4.968394e-001 -6.254765e-002 -1.238266e-001 4.145848e-001 7.386599e-002 -1.356598e-001 1.147322e-001 -2.221802e-001 -2.025157e-001 -1.487592e-001 -7.685805e-002 2.946697e-003 -3.529486e-002 1.223037e-001 1.208455e-002 -2.412257e-002 1.621537e-001
<VARIANCE> 39
 5.261876e+001 1.892526e+001 3.381474e+001 4.961396e+001 1.197524e+002 6.647547e+001 3.136730e+001 2.187954e+001 2.716352e+001 2.255907e+001 2.215028e+001 1.348545e+001 1.945470e+001 1.892980e+000 1.657640e+000 2.841200e+000 3.428002e+000 5.270130e+000 5.133667e+000 2.537368e+000 1.648540e+000 2.025884e+000 2.150162e+000 1.850634e+000 1.660477e+000 2.875865e+000 3.000804e-001 2.325883e-001 4.503095e-001 5.367008e-001 7.846957e-001 7.922345e-001 4.759796e-001 2.971607e-001 4.196285e-001 3.778115e-001 3.463949e-001 3.320567e-001 3.392434e-001
<GCONST> 1.168053e+002
<STATE> 8
<MEAN> 39
 -1.444243e+001 -7.309936e+000 1.200225e+001 -1.850495e+001 -7.884276e+000 -1.843408e+001 -3.243416e-001 1.750451e+000 -4.704249e+000 6.327895e+000 6.020095e-001 -6.760854e-001 6.106868e+001 9.991328e-002 -4.104672e-001 2.591339e-001 -5.214463e-001 -5.697326e-001 -6.127931e-001 2.669489e-002 -2.533571e-002 8.119589e-002 2.631126e-001 2.093399e-001 -1.422320e-002 4.894987e-001 4.601842e-003 2.292360e-002 -4.137640e-002 5.515619e-002 7.990613e-002 1.491787e-001 6.864741e-003 1.555551e-002 2.616694e-002 3.516616e-002 4.503735e-004 1.705722e-002 -8.292778e-002
<VARIANCE> 39
 3.755039e+001 3.957191e+001 2.915975e+001 6.669280e+001 9.482134e+001 4.439750e+001 3.502605e+001 2.872947e+001 3.419197e+001 1.217704e+002 5.885955e+001 3.064496e+001 2.042426e+001 3.438189e+000 4.110168e+000 2.900532e+000 3.503269e+000 7.685847e+000 4.013625e+000 2.191519e+000 2.567430e+000 2.879955e+000 6.150660e+000 4.514824e+000 2.370171e+000 1.870619e+000 5.955685e-001 5.393075e-001 4.871689e-001 4.907915e-001 1.070877e+000 7.846766e-001 3.323620e-001 5.446297e-001 5.595540e-001 7.740965e-001 7.692880e-001 3.821742e-001 2.280338e-001
<GCONST> 1.286672e+002
<STATE> 9
<MEAN> 39
 -1.014586e+001 -8.173645e+000 9.427284e+000 -1.616027e+001 -1.414070e+001 -1.798394e+001 -1.611553e-001 1.535977e+000 -7.620844e+000 9.279276e+000 2.970125e+000 -7.666690e-001 5.928341e+001 3.329058e-002 2.835060e-001 -2.736538e-001 3.945141e-001 2.635244e-001 6.077235e-001 1.039876e-002 -2.024319e-002 -1.185996e-001 -1.045070e-001 -1.394591e-001 -7.630736e-003 -4.642101e-001 -1.804258e-002 3.513405e-002 -4.143500e-002 6.306414e-002 5.004950e-002 1.313366e-002 -7.092950e-004 5.532674e-003 4.796825e-002 -6.317432e-002 -5.746395e-003 1.124185e-002 -3.367904e-002
<VARIANCE> 39
 1.354952e+001 2.336261e+001 3.225609e+001 1.640884e+002 5.922094e+001 6.238569e+001 2.685567e+001 2.650957e+001 3.659432e+001 8.232686e+001 7.084875e+001 1.566528e+001 2.437162e+001 4.549206e-001 8.528854e-001 1.001144e+000 1.580971e+000 1.929371e+000 1.834056e+000 1.267332e+000 1.518741e+000 1.484026e+000 2.598311e+000 1.762992e+000 1.032569e+000 4.132313e-001 8.237899e-002 1.261662e-001 1.350693e-001 1.655338e-001 3.293572e-001 3.392647e-001 2.504659e-001 2.878108e-001 2.651438e-001 4.046895e-001 3.021175e-001 2.144802e-001 4.277208e-002
<GCONST> 1.001942e+002
<TRANSP> 10
 0.000000e+000 1.000000e+000 0.000000e+000 0.000000e+000 0.000000e+000 0.000000e+000 0.000000e+000 0.000000e+000 0.000000e+000 0.000000e+000
 0.000000e+000 6.393835e-001 3.606165e-001 0.000000e+000 0.000000e+000 0.000000e+000 0.000000e+000 0.000000e+000 0.000000e+000 0.000000e+000
 0.000000e+000 0.000000e+000 3.352450e-001 6.647550e-001 0.000000e+000 0.000000e+000 0.000000e+000 0.000000e+000 0.000000e+000 0.000000e+000
 0.000000e+000 0.000000e+000 0.000000e+000 3.914357e-001 6.085643e-001 0.000000e+000 0.000000e+000 0.000000e+000 0.000000e+000 0.000000e+000
 0.000000e+000 0.000000e+000 0.000000e+000 0.000000e+000 7.165003e-001 2.834996e-001 0.000000e+000 0.000000e+000 0.000000e+000 0.000000e+000
 0.000000e+000 0.000000e+000 0.000000e+000 0.000000e+000 0.000000e+000 8.280209e-001 1.719792e-001 0.000000e+000 0.000000e+000 0.000000e+000
 0.000000e+000 0.000000e+000 0.000000e+000 0.000000e+000 0.000000e+000 0.000000e+000 8.210278e-001 1.789722e-001 0.000000e+000 0.000000e+000
 0.000000e+000 0.000000e+000 0.000000e+000 0.000000e+000 0.000000e+000 0.000000e+000 0.000000e+000 9.412287e-001 5.877129e-002 0.000000e+000
 0.000000e+000 0.000000e+000 0.000000e+000 0.000000e+000 0.000000e+000 0.000000e+000 0.000000e+000 0.000000e+000 9.663502e-001 3.364980e-002
 0.000000e+000 0.000000e+000 0.000000e+000 0.000000e+000 0.000000e+000 0.000000e+000 0.000000e+000 0.000000e+000 0.000000e+000 0.000000e+000
<ENDHMM>
~h "sedm"
<BEGINHMM>
<NUMSTATES> 10
<STATE> 2
<MEAN> 39
 -1.446981e+001 2.607538e+000 -2.861272e+000 -4.071106e-001 1.443563e+000 -4.499875e+000 2.936839e+000 -1.775260e-002 -9.137912e-001 1.141329e-002 2.063268e+000 3.372014e-001 4.843530e+001 -1.060399e+000 8.013253e-001 -1.909940e-001 -1.748815e-001 2.254234e-001 -7.244189e-001 5.308284e-001 -1.966830e-001 4.874673e-002 -1.483364e-001 -1.339414e-001 -1.638499e-001 5.652674e-001 -5.595269e-002 5.305203e-002 -1.017102e-003 7.082053e-002 4.023404e-002 1.273715e-001 -2.319998e-002 1.823331e-001 -6.397820e-002 1.117278e-002 -1.290165e-001 -8.723717e-003 2.944539e-002
<VARIANCE> 39
 1.126479e+001 1.129840e+001 6.216360e+000 8.305624e+000 1.130181e+001 1.419975e+001 1.453588e+001 1.813005e+001 1.761415e+001 1.439970e+001 1.790425e+001 1.132194e+001 2.793869e+000 4.647473e-001 7.302166e-001 8.848104e-001 1.150898e+000 1.175704e+000 2.109161e+000 1.810443e+000 1.871094e+000 1.673337e+000 1.653017e+000 1.429798e+000 1.091738e+000 1.339388e-001 1.216904e-001 1.622230e-001 1.852659e-001 2.049717e-001 2.551765e-001 3.589921e-001 3.583968e-001 3.341337e-001 3.903086e-001 3.477450e-001 2.839883e-001 1.915543e-001 3.401013e-002
<GCONST> 8.351516e+001
<STATE> 3
<MEAN> 39
 -1.773364e+001 4.385739e+000 -3.192230e+000 -1.030716e+000 2.705578e+000 -5.811134e+000 4.353156e+000 5.023775e-001 -9.640076e-001 -4.471360e-001 1.338795e+000 -4.548128e-001 5.031081e+001 -1.062135e+000 5.704274e-001 -1.661568e-001 3.146379e-003 4.203989e-001 -3.637700e-001 2.445526e-001 4.184585e-001 -1.719682e-001 1.321822e-001 -1.841069e-001 -1.242610e-001 5.862077e-001 1.113744e-001 -1.590405e-001 8.653610e-002 8.005981e-003 1.460542e-002 9.617276e-002 -1.579990e-001 1.069011e-001 -1.586122e-002 1.122753e-001 -2.335887e-002 1.022672e-001 -1.563213e-002
<VARIANCE> 39
 1.474790e+001 1.027976e+001 1.022708e+001 1.084021e+001 1.608228e+001 1.558419e+001 1.781958e+001 2.089195e+001 1.990977e+001 1.640428e+001 1.946325e+001 1.465760e+001 4.127607e+000 7.243932e-001 8.751789e-001 1.057793e+000 1.129636e+000 1.668211e+000 1.805116e+000 2.160558e+000 1.681309e+000 1.457650e+000 1.656700e+000 1.199455e+000 1.284610e+000 2.124787e-001 1.277233e-001 1.442434e-001 2.070815e-001 2.291321e-001 3.223700e-001 3.712480e-001 4.067357e-001 3.097231e-001 3.274638e-001 3.289796e-001 2.257142e-001 2.723519e-001 4.081834e-002
<GCONST> 8.813730e+001
<STATE> 4
<MEAN> 39
 -2.014220e+001 4.361736e+000 -2.494553e+000 -1.758873e+000 4.295632e+000 -6.884797e+000 4.570268e+000 2.545234e+000 -2.447528e+000 8.655847e-001 1.033159e+000 -2.805056e-001 5.223878e+001 -6.716293e-001 2.594428e-002 1.345061e-001 -1.089826e-001 2.732481e-001 -1.602757e-001 -3.393976e-002 3.326066e-001 -1.046360e-001 2.187088e-001 -2.057950e-001 3.206421e-001 5.239816e-001 2.640378e-001 -2.681527e-001 8.407190e-002 -9.289788e-002 -1.955331e-001 -7.012181e-002 -1.443713e-001 -9.259555e-002 1.474304e-001 -1.721624e-002 -2.299438e-002 9.042974e-002 -6.391034e-004
<VARIANCE> 39
 1.292473e+001 1.187183e+001 1.714593e+001 1.296502e+001 1.600293e+001 1.607118e+001 2.116407e+001 2.432697e+001 2.225023e+001 1.786368e+001 1.728753e+001 2.075575e+001 7.223866e+000 9.937274e-001 7.305965e-001 1.121056e+000 8.598323e-001 1.950130e+000 1.600378e+000 2.692075e+000 1.708436e+000 1.780640e+000 1.556535e+000 1.449069e+000 1.813821e+000 3.316530e-001 1.372058e-001 1.338101e-001 1.931269e-001 2.421286e-001 3.749227e-001 3.906004e-001 4.307288e-001 3.567892e-001 3.818172e-001 3.167521e-001 2.673511e-001 4.199789e-001 4.748823e-002
<GCONST> 9.274199e+001
<STATE> 5
<MEAN> 39
 -2.113246e+001 3.358643e+000 -1.181748e+000 -2.343289e+000 5.497051e+000 -7.778381e+000 4.810588e+000 3.125775e+000 -2.970415e+000 1.392266e+000 2.453500e-001 1.114286e+000 5.370684e+001 -2.954005e-002 -5.978330e-001 2.625960e-001 -3.641913e-001 -3.498859e-001 -3.969275e-001 -3.026064e-001 -4.823692e-003 3.276848e-001 8.301146e-002 -1.663042e-001 2.797878e-001 5.053322e-001 4.600356e-001 -4.018195e-001 -1.401356e-002 -2.574415e-001 -4.586965e-001 -3.452975e-001 -2.773446e-001 1.454223e-002 1.939772e-001 -1.721709e-002 -1.050283e-001 -1.034453e-001 1.076658e-001
<VARIANCE> 39
 1.428291e+001 1.118183e+001 1.924088e+001 1.641681e+001 2.464029e+001 2.139939e+001 3.754276e+001 2.270546e+001 1.960923e+001 1.873985e+001 1.747713e+001 2.291086e+001 8.995212e+000 1.911962e+000 9.207134e-001 1.109618e+000 1.288663e+000 2.867050e+000 2.605520e+000 3.106707e+000 1.877593e+000 2.029058e+000 1.228532e+000 1.728664e+000 1.576707e+000 3.833754e-001 1.757395e-001 2.769644e-001 2.358990e-001 3.907544e-001 5.477654e-001 6.074572e-001 5.446689e-001 4.852032e-001 4.064989e-001 3.000396e-001 3.601949e-001 3.390129e-001 1.362963e-001
<GCONST> 1.012350e+002
<STATE> 6
<MEAN> 39
 -1.856090e+001 9.544496e-001 -1.378093e+000 -3.340708e+000 1.909918e+000 -1.011641e+001 2.395831e+000 3.228789e+000 -1.095295e+000 1.549154e+000 -5.778071e-001 7.316239e-001 5.479654e+001 1.489786e+000 -1.654237e+000 1.611649e-001 -1.149609e+000 -1.582823e+000 -1.633261e+000 -1.060852e+000 3.849431e-001 6.378907e-001 1.250098e-001 -7.153632e-001 -4.274151e-002 9.282230e-001 4.221206e-001 -5.201268e-001 -3.184099e-002 -4.579276e-001 -2.944800e-001 -3.726155e-001 -1.997207e-001 3.104291e-001 7.198749e-002 -6.089905e-002 -2.189661e-001 -4.335633e-002 3.288264e-001
<VARIANCE> 39
 4.409814e+001 1.662265e+001 1.649284e+001 1.761084e+001 5.440802e+001 5.026295e+001 6.329719e+001 1.880673e+001 2.214599e+001 1.675489e+001 1.483468e+001 2.525076e+001 1.114992e+001 2.724765e+000 3.090752e+000 1.047755e+000 3.424060e+000 4.190217e+000 4.927961e+000 3.701678e+000 2.225581e+000 2.436454e+000 1.357505e+000 1.932956e+000 1.555603e+000 1.253347e+000 3.828726e-001 5.255343e-001 1.878877e-001 5.585466e-001 7.334707e-001 9.037908e-001 7.102591e-001 4.975696e-001 4.014049e-001 2.794783e-001 3.800019e-001 4.444015e-001 2.976533e-001
<GCONST> 1.137759e+002
<STATE> 7
<MEAN> 39
 -1.055329e+001 -7.593724e+000 -1.343109e+000 -9.259315e+000 -5.327684e+000 -1.665130e+001 -2.144189e+000 6.835536e+000 7.378742e-001 1.516632e+000 -4.464454e+000 8.320928e-001 5.944074e+001 1.395688e+000 -2.491184e+000 3.459735e-001 -2.110892e+000 -1.193069e+000 -1.298891e+000 -5.689627e-001 1.136977e+000 3.904900e-001 -7.542458e-002 -9.771795e-001 7.284854e-002 1.587459e+000 -2.805703e-001 9.289782e-002 4.638411e-002 1.031529e-002 2.614998e-001 3.465483e-001 2.851924e-001 1.174608e-002 -9.310900e-002 4.632443e-003 1.003114e-001 -4.628193e-002 -1.128786e-002
<VARIANCE> 39
 3.902893e+001 6.964909e+001 2.326226e+001 9.017036e+001 5.831524e+001 5.797188e+001 8.078183e+001 3.856585e+001 4.174359e+001 2.531179e+001 3.259315e+001 2.628779e+001 3.471642e+001 3.211227e+000 6.917106e+000 9.989736e-001 6.900443e+000 4.136351e+000 7.513299e+000 6.042057e+000 5.370538e+000 3.029832e+000 1.898606e+000 3.188384e+000 3.190363e+000 3.511010e+000 5.066706e-001 8.747593e-001 1.726302e-001 8.714880e-001 7.182190e-001 1.271238e+000 1.106247e+000 7.978671e-001 5.003929e-001 3.345466e-001 4.756970e-001 5.310792e-001 5.188635e-001
<GCONST> 1.311963e+002
<STATE> 8
<MEAN> 39
 -7.775490e+000 -1.257563e+001 2.530362e+000 -1.541923e+001 -8.044385e+000 -1.507783e+001 -3.451750e+000 6.025433e+000 -1.454120e+000 7.214121e-001 -6.408830e+000 3.904257e-001 6.157989e+001 2.856293e-001 2.512753e-001 1.161997e-001 -8.789419e-002 -5.299388e-002 2.501980e-001 -1.899725e-001 -6.430426e-001 -5.649626e-001 9.267804e-002 2.103001e-001 -1.413616e-001 -2.182286e-001 -5.638589e-002 1.816699e-001 -1.216142e-002 1.115311e-001 7.607841e-002 7.412411e-002 1.743232e-002 -6.258457e-002 -6.431851e-002 3.459444e-003 5.046732e-002 -2.242742e-002 -1.153421e-001
<VARIANCE> 39
 1.513311e+001 5.648531e+001 2.868354e+001 9.128228e+001 2.797028e+001 3.317757e+001 9.923820e+001 7.935997e+001 6.030177e+001 3.915645e+001 5.333716e+001 4.258689e+001 3.865231e+001 7.362205e-001 3.637921e+000 1.397962e+000 3.715466e+000 1.930528e+000 3.780108e+000 3.993248e+000 3.813313e+000 2.924965e+000 3.143691e+000 2.911643e+000 3.117414e+000 2.369266e+000 1.694556e-001 5.029123e-001 2.131795e-001 5.255383e-001 4.133454e-001 8.688670e-001 7.676198e-001 6.836867e-001 5.715833e-001 5.666796e-001 5.589749e-001 6.302337e-001 3.202018e-001
<GCONST> 1.242533e+002
<STATE> 9
<MEAN> 39
 -5.772168e+000 -6.741507e+000 2.327602e+000 -1.404698e+001 -3.956709e+000 -1.299692e+001 -8.874872e+000 9.211624e-001 -8.948414e+000 3.302275e+000 -3.236248e+000 -3.367043e+000 5.695186e+001 -9.592289e-002 2.368917e-001 -5.962333e-002 3.877439e-001 2.469201e-001 2.856170e-001 4.789018e-002 4.191406e-002 -4.894176e-002 -5.846555e-002 5.830743e-002 -5.186248e-002 -3.334712e-001 -1.729904e-002 -1.041724e-002 -3.094907e-002 4.802319e-002 -1.363270e-002 2.278581e-002 2.496442e-002 1.390158e-002 7.854462e-002 6.468746e-003 2.560835e-002 3.948958e-002 -2.300059e-002
<VARIANCE> 39
 1.013052e+001 4.032048e+001 4.435053e+001 3.901766e+001 3.379106e+001 2.844172e+001 6.949457e+001 6.966475e+001 3.142139e+001 3.661806e+001 5.558748e+001 4.041777e+001 1.318140e+001 1.933407e-001 4.862954e-001 6.435218e-001 1.065827e+000 9.093510e-001 1.372836e+000 1.753810e+000 1.352996e+000 1.496109e+000 1.588002e+000 1.395039e+000 1.360909e+000 2.794308e-001 2.534117e-002 6.462719e-002 1.047205e-001 1.383854e-001 1.547552e-001 2.094007e-001 2.179942e-001 2.380547e-001 2.523305e-001 2.800536e-001 2.456224e-001 2.256828e-001 2.419413e-002
<GCONST> 9.011832e+001
<TRANSP> 10
 0.000000e+000 1.000000e+000 0.000000e+000 0.000000e+000 0.000000e+000 0.000000e+000 0.000000e+000 0.000000e+000 0.000000e+000 0.000000e+000
 0.000000e+000 7.296577e-001 2.703423e-001 0.000000e+000 0.000000e+000 0.000000e+000 0.000000e+000 0.000000e+000 0.000000e+000 0.000000e+000
 0.000000e+000 0.000000e+000 6.275259e-001 3.724741e-001 0.000000e+000 0.000000e+000 0.000000e+000 0.000000e+000 0.000000e+000 0.000000e+000
 0.000000e+000 0.000000e+000 0.000000e+000 5.984857e-001 4.015143e-001 0.000000e+000 0.000000e+000 0.000000e+000 0.000000e+000 0.000000e+000
 0.000000e+000 0.000000e+000 0.000000e+000 0.000000e+000 5.990574e-001 4.009426e-001 0.000000e+000 0.000000e+000 0.000000e+000 0.000000e+000
 0.000000e+000 0.000000e+000 0.000000e+000 0.000000e+000 0.000000e+000 6.135630e-001 3.864370e-001 0.000000e+000 0.000000e+000 0.000000e+000
 0.000000e+000 0.000000e+000 0.000000e+000 0.000000e+000 0.000000e+000 0.000000e+000 7.722802e-001 2.277198e-001 0.000000e+000 0.000000e+000
 0.000000e+000 0.000000e+000 0.000000e+000 0.000000e+000 0.000000e+000 0.000000e+000 0.000000e+000 9.348439e-001 6.515609e-002 0.000000e+000
 0.000000e+000 0.000000e+000 0.000000e+000 0.000000e+000 0.000000e+000 0.000000e+000 0.000000e+000 0.000000e+000 9.671010e-001 3.289896e-002
 0.000000e+000 0.000000e+000 0.000000e+000 0.000000e+000 0.000000e+000 0.000000e+000 0.000000e+000 0.000000e+000 0.000000e+000 0.000000e+000
<ENDHMM>
~h "sest"
<BEGINHMM>
<NUMSTATES> 10
<STATE> 2
<MEAN> 39
 -1.019920e+001 -5.259675e-001 -1.702236e+000 -1.396863e-001 -2.253777e-001 -1.300782e+000 1.002322e+000 2.295643e+000 -2.372507e+000 4.847572e-001 -4.075444e-001 1.151879e+000 4.618398e+001 -4.255359e-001 -2.064059e-001 4.625600e-001 -5.140966e-001 2.300106e-001 -7.317641e-002 2.509997e-001 -1.097382e-001 -5.556564e-002 6.073525e-002 8.740319e-002 2.680218e-001 2.147760e-001 -3.160924e-001 -3.973539e-002 4.305150e-001 -3.189794e-001 1.906499e-001 -1.391273e-001 1.647175e-001 -1.229195e-001 3.137726e-002 -5.680692e-002 2.773095e-002 -2.949312e-002 1.926756e-001
<VARIANCE> 39
 3.789728e+000 2.607516e+000 4.988009e+000 2.041330e+001 1.361176e+001 1.283518e+001 1.299363e+001 1.163853e+001 1.405756e+001 1.154438e+001 1.269543e+001 1.106219e+001 9.285113e-001 6.872886e-001 6.068425e-001 9.583476e-001 3.459257e+000 1.895628e+000 2.357695e+000 2.398258e+000 1.628666e+000 1.405676e+000 1.347780e+000 1.259074e+000 1.265310e+000 2.005419e-001 1.690731e-001 1.072952e-001 2.563443e-001 7.915122e-001 3.510617e-001 5.275455e-001 5.495392e-001 3.895762e-001 2.985818e-001 3.310309e-001 3.306027e-001 3.290496e-001 5.707845e-002
<GCONST> 8.518639e+001
<STATE> 3
<MEAN> 39
 -1.150272e+001 -1.326520e+000 -3.904450e-001 -1.281704e+000 7.429299e-003 -1.080028e+000 5.475599e-001 1.370839e+000 -2.269920e+000 -1.538311e-001 1.335828e+000 1.937269e+000 4.671143e+001 -1.574016e+000 -3.115646e-001 1.958970e+000 -1.889620e+000 1.107759e+000 -6.003093e-001 9.308255e-001 -4.170488e-001 -9.751839e-002 -1.484828e-002 3.580157e-002 1.988946e-001 9.658037e-001 -5.256783e-001 5.952024e-002 6.753365e-001 -4.406315e-001 1.880676e-001 -2.581248e-001 3.050223e-001 -7.674231e-002 2.286830e-001 -8.776132e-002 4.666465e-002 -2.144300e-001 3.739313e-001
<VARIANCE> 39
 6.370127e+000 4.152687e+000 1.100563e+001 1.323115e+001 1.461808e+001 1.155808e+001 2.099405e+001 1.287058e+001 1.376635e+001 1.666553e+001 1.131333e+001 9.963084e+000 2.412243e+000 5.381489e-001 7.220729e-001 1.368482e+000 1.522979e+000 2.460719e+000 2.791598e+000 2.723638e+000 2.670305e+000 2.204478e+000 1.254630e+000 1.597670e+000 1.272830e+000 2.449574e-001 1.024666e-001 9.737776e-002 2.648944e-001 3.356099e-001 3.330224e-001 3.274793e-001 5.701855e-001 4.969109e-001 3.565964e-001 3.887154e-001 3.465225e-001 1.771302e-001 5.238277e-002
<GCONST> 8.750363e+001
<STATE> 4
<MEAN> 39
 -1.515960e+001 -1.666269e+000 4.173830e+000 -5.347343e+000 2.008261e+000 -2.594658e+000 2.757653e+000 1.001471e+000 -1.861730e+000 -2.301894e-001 1.363075e+000 1.956482e+000 4.902169e+001 -2.192279e+000 -8.075915e-002 2.639036e+000 -2.116138e+000 9.903660e-001 -8.218023e-001 1.152628e+000 -5.121003e-001 4.686803e-001 -2.686911e-001 5.420809e-002 -4.103592e-001 1.452615e+000 -1.902879e-001 9.871288e-002 1.444398e-001 5.911027e-002 -1.760613e-001 7.502315e-003 3.839605e-003 -4.118991e-002 1.620228e-001 -5.174470e-002 8.490536e-002 -2.158627e-001 1.697937e-001
<VARIANCE> 39
 1.423742e+001 8.263018e+000 2.387142e+001 2.028913e+001 3.156032e+001 1.965418e+001 3.117145e+001 1.749675e+001 1.553838e+001 1.665830e+001 1.238347e+001 1.384942e+001 5.694943e+000 5.052268e-001 7.436509e-001 1.382268e+000 1.913464e+000 3.088652e+000 2.131604e+000 3.337375e+000 3.007585e+000 2.078747e+000 1.932744e+000 1.887692e+000 1.328096e+000 2.100765e-001 2.027220e-001 1.238512e-001 3.779861e-001 3.787810e-001 3.781236e-001 4.741011e-001 5.002516e-001 5.282549e-001 3.283162e-001 3.164776e-001 3.981614e-001 2.070961e-001 9.184991e-002
<GCONST> 9.690860e+001
<STATE> 5
<MEAN> 39
 -1.983331e+001 -1.390827e+000 9.148057e+000 -8.580777e+000 3.028478e+000 -3.775832e+000 4.862408e+000 -3.039019e-001 -5.036418e-001 -1.052077e+000 1.498141e+000 4.405934e-001 5.228442e+001 -1.865991e+000 3.183556e-002 1.945228e+000 -1.205015e+000 2.666844e-001 -4.506967e-001 6.355967e-001 -4.174454e-001 4.139374e-001 -2.141017e-001 2.300121e-001 -4.186392e-001 1.316213e+000 2.089848e-001 5.752065e-003 -3.546865e-001 3.578229e-001 -2.538224e-001 1.039646e-001 -2.825753e-001 8.334633e-002 -4.404346e-002 5.152832e-002 2.930644e-002 3.970104e-002 -9.994208e-002
<VARIANCE> 39
 1.526521e+001 1.193181e+001 2.542363e+001 2.584241e+001 5.241676e+001 2.674710e+001 3.750151e+001 2.212909e+001 2.044021e+001 1.651438e+001 1.567838e+001 1.552659e+001 5.856972e+000 1.031755e+000 6.718222e-001 2.145069e+000 2.578995e+000 2.398240e+000 2.053618e+000 3.464808e+000 2.582527e+000 1.809483e+000 1.775426e+000 1.872271e+000 1.268070e+000 3.867742e-001 1.633545e-001 1.234422e-001 2.189867e-001 2.569488e-001 3.771990e-001 4.215849e-001 4.037280e-001 5.367455e-001 3.248126e-001 2.791184e-001 4.350129e-001 2.883841e-001 5.128805e-002
<GCONST> 9.903632e+001
<STATE> 6
<MEAN> 39
 -2.271923e+001 -1.687443e+000 1.179496e+001 -9.595090e+000 2.238331e+000 -5.229849e+000 4.874636e+000 -6.070116e-001 2.884127e-003 -9.429213e-001 2.224606e+000 -9.353821e-002 5.495038e+001 -8.293462e-001 -1.324129e-001 6.829613e-001 -4.244224e-001 -1.899584e-001 -4.201860e-001 -1.932965e-001 -1.237198e-003 2.021965e-001 -2.976717e-002 1.518411e-001 -9.838315e-002 8.035390e-001 3.954467e-001 -6.812763e-002 -4.291198e-001 2.172516e-001 -1.709876e-001 -4.875075e-002 -2.492534e-001 1.853375e-001 -6.107522e-002 3.058829e-002 -5.227443e-002 8.777468e-002 -1.692928e-001
<VARIANCE> 39
 1.701292e+001 1.464559e+001 2.113873e+001 4.002591e+001 8.171233e+001 3.480206e+001 4.477268e+001 2.442532e+001 2.367127e+001 1.629263e+001 1.585164e+001 1.674064e+001 4.299221e+000 2.314690e+000 5.852395e-001 1.825663e+000 1.709094e+000 2.060895e+000 2.540997e+000 2.664418e+000 2.329752e+000 1.438170e+000 1.382838e+000 1.867105e+000 1.498417e+000 4.898268e-001 1.519569e-001 1.148567e-001 2.137569e-001 2.621895e-001 4.195860e-001 4.932807e-001 4.526274e-001 4.401623e-001 2.874024e-001 2.955769e-001 3.209612e-001 2.817123e-001 5.536731e-002
<GCONST> 9.992503e+001
<STATE> 7
<MEAN> 39
 -1.827901e+001 -4.566035e+000 8.465380e+000 -9.671093e+000 -3.221804e+000 -1.124560e+001 1.497561e+000 3.267081e+000 4.889051e-002 2.433045e-001 1.208230e+000 -5.536567e-001 5.743299e+001 7.515134e-001 -6.073702e-001 -6.107014e-001 -3.805602e-001 -8.016509e-001 -9.204723e-001 -4.884931e-001 7.906621e-001 -4.341140e-002 1.021906e-001 -1.940679e-001 -1.526954e-001 4.906116e-001 2.792757e-001 -1.661795e-001 -1.963868e-001 -4.171235e-002 -1.459046e-001 -4.740399e-002 -1.762458e-003 1.494403e-001 -4.116888e-002 2.428665e-002 -9.460426e-002 -7.722214e-003 2.007807e-003
<VARIANCE> 39
 9.361514e+001 3.149459e+001 5.263926e+001 4.495668e+001 1.333068e+002 8.204082e+001 5.463945e+001 5.372772e+001 2.295544e+001 2.163059e+001 2.028615e+001 1.841676e+001 8.240859e+000 3.354568e+000 1.579095e+000 1.276809e+000 1.503559e+000 3.780990e+000 3.798787e+000 3.096764e+000 2.504436e+000 1.578740e+000 1.571319e+000 1.551803e+000 1.362812e+000 7.087612e-001 4.263487e-001 2.286052e-001 1.854500e-001 3.144015e-001 7.246794e-001 6.779838e-001 5.709323e-001 3.962166e-001 2.977927e-001 3.198688e-001 2.808422e-001 2.574853e-001 1.540303e-001
<GCONST> 1.130898e+002
<STATE> 8
<MEAN> 39
 -1.212143e+001 -1.469162e+001 2.074715e+000 -1.792862e+001 -4.615467e+000 -1.363168e+001 3.470081e+000 9.921317e+000 -1.147361e+000 1.094505e+000 -4.878705e+000 8.523721e-001 6.350149e+001 4.146031e-002 1.721939e-001 -5.191427e-001 1.321032e-001 -2.556899e-002 6.721469e-002 1.750620e-001 4.784088e-002 1.639212e-001 -3.301414e-002 -9.745649e-002 6.643241e-002 -4.395175e-002 -9.120642e-002 1.017266e-001 1.037560e-002 5.561183e-002 6.699327e-002 5.667080e-002 3.873179e-002 -5.436280e-002 7.989519e-003 -1.349033e-002 3.000830e-002 1.017212e-002 -4.662737e-002
<VARIANCE> 39
 3.757683e+001 9.546182e+001 3.136588e+001 7.444464e+001 5.589951e+001 4.136529e+001 7.243340e+001 4.784777e+001 4.283956e+001 3.344297e+001 5.668736e+001 3.771886e+001 2.956131e+001 2.615089e+000 4.707369e+000 9.005818e-001 2.595932e+000 3.037394e+000 2.759880e+000 2.578390e+000 3.064485e+000 2.023514e+000 2.241656e+000 2.568583e+000 1.675066e+000 1.412728e+000 3.290623e-001 3.610521e-001 1.382386e-001 3.546766e-001 4.823533e-001 4.479099e-001 4.071444e-001 4.347738e-001 3.655537e-001 4.080572e-001 3.889005e-001 2.840661e-001 1.471480e-001
<GCONST> 1.182746e+002
<STATE> 9
<MEAN> 39
 -1.663188e+001 1.452088e+000 -3.853676e+000 -4.616301e+000 9.969798e-001 -6.711947e+000 4.777794e+000 3.580421e+000 1.229614e+000 -7.104972e-001 -7.959275e-001 1.135432e+000 5.183313e+001 2.167287e-001 1.147354e-002 1.372108e-001 2.615802e-001 1.589985e-001 2.557343e-001 -2.241629e-001 -1.461465e-001 -2.446725e-001 3.201642e-002 2.347068e-002 1.965212e-002 -3.845724e-001 9.143844e-002 -6.941167e-002 3.506898e-002 -5.363076e-003 -3.488762e-002 1.776110e-002 -4.701100e-002 3.502930e-003 -9.422527e-003 1.923898e-002 -1.302826e-003 -1.126450e-002 -1.053271e-002
<VARIANCE> 39
 1.864071e+001 1.757666e+001 1.389838e+001 2.047436e+001 2.682801e+001 3.422963e+001 3.349911e+001 1.645008e+001 2.577017e+001 1.860335e+001 1.770683e+001 1.709467e+001 1.726505e+001 8.126621e-001 7.482941e-001 7.140909e-001 1.358942e+000 1.245386e+000 1.910069e+000 1.634360e+000 1.400034e+000 1.771654e+000 1.679702e+000 1.465846e+000 1.237179e+000 4.851747e-001 1.010774e-001 9.612065e-002 1.366724e-001 2.598006e-001 2.276531e-001 3.614333e-001 3.248783e-001 2.591992e-001 3.637066e-001 3.535390e-001 2.982528e-001 2.356825e-001 7.581427e-002
<GCONST> 9.288803e+001
<TRANSP> 10
 0.000000e+000 1.000000e+000 0.000000e+000 0.000000e+000 0.000000e+000 0.000000e+000 0.000000e+000 0.000000e+000 0.000000e+000 0.000000e+000
 0.000000e+000 5.128979e-001 4.871021e-001 0.000000e+000 0.000000e+000 0.000000e+000 0.000000e+000 0.000000e+000 0.000000e+000 0.000000e+000
 0.000000e+000 0.000000e+000 2.428832e-001 7.571169e-001 0.000000e+000 0.000000e+000 0.000000e+000 0.000000e+000 0.000000e+000 0.000000e+000
 0.000000e+000 0.000000e+000 0.000000e+000 3.665126e-001 6.334873e-001 0.000000e+000 0.000000e+000 0.000000e+000 0.000000e+000 0.000000e+000
 0.000000e+000 0.000000e+000 0.000000e+000 0.000000e+000 5.534886e-001 4.465115e-001 0.000000e+000 0.000000e+000 0.000000e+000 0.000000e+000
 0.000000e+000 0.000000e+000 0.000000e+000 0.000000e+000 0.000000e+000 6.904945e-001 3.095055e-001 0.000000e+000 0.000000e+000 0.000000e+000
 0.000000e+000 0.000000e+000 0.000000e+000 0.000000e+000 0.000000e+000 0.000000e+000 8.277938e-001 1.722062e-001 0.000000e+000 0.000000e+000
 0.000000e+000 0.000000e+000 0.000000e+000 0.000000e+000 0.000000e+000 0.000000e+000 0.000000e+000 9.603151e-001 3.968489e-002 0.000000e+000
 0.000000e+000 0.000000e+000 0.000000e+000 0.000000e+000 0.000000e+000 0.000000e+000 0.000000e+000 0.000000e+000 9.542123e-001 4.578773e-002
 0.000000e+000 0.000000e+000 0.000000e+000 0.000000e+000 0.000000e+000 0.000000e+000 0.000000e+000 0.000000e+000 0.000000e+000 0.000000e+000
<ENDHMM>
~h "dva"
<BEGINHMM>
<NUMSTATES> 10
<STATE> 2
<MEAN> 39
 -8.455553e+000 6.015711e-001 -3.396580e+000 -3.409101e+000 -3.915676e+000 -5.620520e+000 -6.012724e+000 -4.090217e+000 -4.361101e+000 -1.974086e+000 -2.562001e+000 -2.933763e+000 4.205995e+001 7.681435e-002 8.738715e-002 2.672301e-002 -1.321063e-001 -1.437197e-001 -2.063260e-001 -7.792246e-002 -9.026726e-002 -8.106040e-002 7.046518e-002 4.498460e-003 6.660700e-003 7.056125e-002 -1.626815e-002 -4.154432e-002 -1.414842e-002 -2.870223e-002 9.638241e-003 -3.897565e-002 3.222047e-002 2.629523e-002 3.663213e-002 5.031147e-002 4.483055e-003 1.412890e-002 2.635826e-002
<VARIANCE> 39
 3.021722e+000 4.285403e+000 7.977711e+000 1.135377e+001 1.726030e+001 1.547432e+001 2.091499e+001 2.698534e+001 2.381063e+001 2.241958e+001 1.804423e+001 1.418270e+001 9.247579e+000 3.888119e-001 5.048389e-001 6.750544e-001 1.276906e+000 1.476232e+000 1.235171e+000 1.995699e+000 2.024731e+000 1.977352e+000 1.899542e+000 1.486092e+000 8.066781e-001 1.350477e-001 8.281553e-002 1.174089e-001 1.448245e-001 2.975314e-001 3.036001e-001 2.317771e-001 4.559642e-001 4.299120e-001 4.891786e-001 4.111426e-001 3.413179e-001 1.791691e-001 4.105921e-002
<GCONST> 8.478789e+001
<STATE> 3
<MEAN> 39
 -8.079181e+000 1.153192e+000 -1.832711e+000 -1.486178e+000 -3.052265e+000 -4.723974e+000 -3.780465e+000 -4.760456e-001 -3.062719e+000 -1.239440e-001 7.883047e-002 4.954263e-001 4.670232e+001 1.373260e-001 1.303222e-002 1.690687e-001 -4.773601e-001 -2.211535e-001 -7.380556e-001 -1.312243e-001 -1.267109e-001 -4.391139e-003 2.608624e-001 -1.507635e-001 -9.848989e-002 4.449867e-001 -2.705848e-002 -3.056150e-001 -5.446144e-003 -2.114437e-001 8.730672e-002 -1.706977e-001 4.469144e-002 2.228428e-001 4.524632e-002 1.874782e-001 -6.029200e-002 -5.744272e-002 1.926140e-001
<VARIANCE> 39
 7.215947e+000 4.997929e+000 1.136775e+001 1.348108e+001 2.322043e+001 1.332294e+001 1.569174e+001 1.173888e+001 2.270519e+001 1.847079e+001 1.422904e+001 9.481484e+000 7.083915e+000 7.776282e-001 9.825634e-001 1.440521e+000 2.693383e+000 1.939296e+000 1.746664e+000 1.952145e+000 1.365392e+000 1.691864e+000 1.884506e+000 1.655128e+000 1.576625e+000 5.063468e-001 1.805084e-001 2.370280e-001 3.670968e-001 5.580027e-001 3.445742e-001 4.117653e-001 6.403548e-001 2.162617e-001 4.223457e-001 3.938006e-001 4.040674e-001 2.585919e-001 1.503463e-001
<GCONST> 9.425750e+001
<STATE> 4
<MEAN> 39
 -8.113345e+000 9.071251e-001 -1.421122e+000 -1.642201e+000 -2.964100e+000 -5.632321e+000 -3.210133e+000 -9.173183e-001 -3.208543e+000 3.405710e-001 -2.842213e-001 5.270909e-001 4.745955e+001 1.968266e-001 -4.167775e-001 1.170289e-001 -1.082445e+000 -8.795207e-002 -1.046470e+000 -1.281081e-001 3.032671e-001 -4.419803e-002 6.745692e-001 -1.059760e-001 -2.495892e-001 7.697061e-001 1.586994e-002 -3.952779e-001 -4.452262e-002 -3.359179e-001 -1.813567e-002 -1.445564e-001 -7.035925e-002 2.671502e-001 3.407118e-002 1.661738e-001 -7.782234e-002 -1.113573e-001 2.407745e-001
<VARIANCE> 39
 9.833499e+000 1.077465e+001 1.593365e+001 1.721468e+001 3.311069e+001 2.481573e+001 1.685093e+001 1.572873e+001 1.541298e+001 2.335160e+001 1.500268e+001 1.054858e+001 7.943456e+000 8.983125e-001 1.783968e+000 2.562998e+000 3.461126e+000 2.524674e+000 2.546726e+000 2.788340e+000 1.437336e+000 2.040432e+000 2.826754e+000 2.074968e+000 1.582637e+000 1.075070e+000 1.740403e-001 3.884285e-001 4.135515e-001 6.084501e-001 4.598098e-001 4.417684e-001 5.237969e-001 2.686271e-001 3.385368e-001 3.637952e-001 4.916035e-001 3.432947e-001 1.998103e-001
<GCONST> 1.030725e+002
<STATE> 5
<MEAN> 39
 -7.534386e+000 -6.819328e-001 -1.930520e+000 -4.755669e+000 -3.029457e+000 -7.748450e+000 -3.932723e+000 3.697008e-001 -3.086336e+000 2.562069e+000 -5.220072e-001 -4.880480e-001 4.934521e+001 3.080430e-001 -1.077005e+000 -5.336577e-003 -1.398624e+000 -2.441316e-001 -1.089353e+000 -2.656043e-001 5.114236e-001 -9.096685e-002 7.696781e-001 -3.879108e-001 -5.063859e-001 1.118382e+000 2.589686e-002 -3.077460e-001 -4.044017e-002 -6.194123e-002 -4.318811e-002 6.697954e-002 -8.007583e-002 1.497726e-002 6.243777e-002 -3.151060e-002 -1.770777e-001 -8.137270e-002 1.481509e-001
<VARIANCE> 39
 1.330655e+001 2.109455e+001 3.960497e+001 2.609670e+001 4.597008e+001 2.939550e+001 2.682975e+001 2.202493e+001 2.010400e+001 3.539644e+001 1.795834e+001 1.275966e+001 1.620771e+001 9.496621e-001 2.570192e+000 3.915331e+000 3.829085e+000 2.794832e+000 3.448835e+000 4.439635e+000 1.703860e+000 1.987328e+000 3.321807e+000 2.300584e+000 1.921061e+000 1.641584e+000 1.600072e-001 5.641638e-001 4.421126e-001 8.370838e-001 5.818782e-001 4.996573e-001 4.393137e-001 4.244522e-001 4.724985e-001 4.042983e-001 4.941782e-001 3.895178e-001 2.830119e-001
<GCONST> 1.135122e+002
<STATE> 6
<MEAN> 39
 -5.281806e+000 -5.458238e+000 -5.511705e+000 -8.976864e+000 -3.510871e+000 -9.628804e+000 -2.100394e+000 8.800233e-001 -4.077105e+000 5.753560e+000 -2.017088e+000 -3.500066e+000 5.415120e+001 2.724180e-001 -1.091787e+000 -1.354728e-001 -9.391392e-001 7.811120e-003 -3.844014e-001 -2.320750e-001 1.234490e-001 8.770044e-002 2.766240e-001 -6.431403e-001 -6.125544e-001 9.852943e-001 -8.322857e-004 5.055235e-002 -2.779908e-002 1.128926e-001 8.304773e-002 2.117028e-001 -8.575847e-002 -1.773982e-001 8.241508e-002 -8.907727e-002 -7.768264e-002 -7.400706e-003 -6.410602e-002
<VARIANCE> 39
 1.366460e+001 3.186443e+001 9.949604e+001 3.291385e+001 3.993450e+001 2.737163e+001 8.254645e+001 1.673670e+001 2.200832e+001 4.810125e+001 2.182395e+001 3.063807e+001 3.361407e+001 6.694862e-001 2.980630e+000 2.832284e+000 3.954412e+000 2.593186e+000 3.252334e+000 4.252049e+000 2.376153e+000 2.378073e+000 2.242482e+000 2.219539e+000 1.936210e+000 1.803255e+000 1.344475e-001 5.809992e-001 4.748382e-001 7.165603e-001 4.884605e-001 5.429344e-001 5.194811e-001 4.319279e-001 3.727735e-001 5.319742e-001 4.621927e-001 3.588877e-001 3.337537e-001
<GCONST> 1.173725e+002
<STATE> 7
<MEAN> 39
 -4.149928e+000 -8.671144e+000 -7.160799e+000 -1.200925e+001 -2.435938e+000 -9.133752e+000 -2.294634e+000 5.623085e-002 -3.897293e+000 6.415085e+000 -3.670815e+000 -6.009336e+000 5.731268e+001 1.436857e-001 -5.267607e-001 -2.880878e-001 -5.741484e-001 3.998023e-001 3.748889e-001 -2.269885e-001 -1.919536e-001 7.959331e-002 2.333235e-001 -3.929207e-001 -3.949104e-001 4.871973e-001 -2.903636e-002 5.353680e-003 -7.713436e-002 -2.316771e-002 1.094610e-001 1.941228e-001 8.320735e-002 1.747732e-002 -1.851765e-002 1.118455e-003 -6.269830e-003 2.245792e-002 -2.460393e-002
<VARIANCE> 39
 1.004671e+001 3.520699e+001 9.661014e+001 4.022993e+001 4.216486e+001 3.353496e+001 1.161139e+002 2.153135e+001 2.868705e+001 4.051880e+001 2.996088e+001 3.088221e+001 2.641320e+001 4.517933e-001 3.711195e+000 1.693534e+000 4.099318e+000 1.922657e+000 2.602309e+000 2.663187e+000 2.498770e+000 2.207205e+000 2.198384e+000 2.296579e+000 1.628168e+000 2.132271e+000 9.784068e-002 7.310931e-001 3.208975e-001 7.687833e-001 3.312877e-001 5.057750e-001 4.236666e-001 4.924662e-001 3.643494e-001 4.041159e-001 3.716952e-001 3.226877e-001 3.824903e-001
<GCONST> 1.152785e+002
<STATE> 8
<MEAN> 39
 -6.697574e+000 -1.557363e+001 -6.372213e+000 -1.962373e+001 7.007761e+000 -2.448196e+000 -6.795292e+000 2.123435e+000 -5.175367e+000 5.560036e+000 -7.756394e+000 -6.090394e+000 6.117412e+001 -9.840992e-002 -3.147192e-001 -1.756193e-001 -2.016902e-001 5.244351e-001 4.195732e-001 1.806686e-001 1.624421e-001 -1.602254e-001 -7.626690e-002 -2.534162e-001 -5.933228e-003 9.710058e-002 -2.074832e-002 8.390772e-002 3.104353e-002 1.211631e-001 -1.196704e-002 -1.134693e-003 1.351160e-002 -5.092549e-003 -8.463115e-003 -3.998387e-002 7.209440e-002 2.973809e-002 -8.464541e-002
<VARIANCE> 39
 1.359151e+001 8.391609e+001 3.395024e+001 9.057051e+001 1.037121e+002 6.140468e+001 5.721301e+001 4.759261e+001 2.817199e+001 5.401643e+001 8.333685e+001 2.381285e+001 7.784681e+001 5.808623e-001 3.700673e+000 1.313861e+000 4.945684e+000 2.229465e+000 2.621244e+000 2.706384e+000 2.197663e+000 1.908340e+000 2.752692e+000 2.581931e+000 1.698048e+000 2.306325e+000 1.072896e-001 4.025553e-001 2.022280e-001 6.734220e-001 2.852147e-001 4.795101e-001 4.690138e-001 3.681989e-001 3.865447e-001 4.872584e-001 3.935552e-001 2.931404e-001 2.087888e-001
<GCONST> 1.185720e+002
<STATE> 9
<MEAN> 39
 -8.442875e+000 -1.754842e+001 -7.557220e+000 -1.562036e+001 1.217968e+001 2.586346e+000 -4.699927e+000 3.012624e+000 -4.017926e+000 3.251002e+000 -9.205421e+000 -1.867058e+000 5.919981e+001 -8.602530e-002 6.306385e-001 3.165822e-002 7.456436e-001 -2.729161e-001 1.588434e-001 5.907212e-002 -7.438785e-002 8.782858e-002 -2.085119e-001 4.698476e-001 1.990243e-001 -6.586251e-001 2.090264e-002 2.699173e-002 1.143074e-002 -5.801965e-003 -8.870210e-002 -4.075373e-002 1.855475e-002 -1.386129e-002 3.213922e-002 2.578710e-002 2.011364e-002 2.198989e-002 2.798664e-003
<VARIANCE> 39
 3.547631e+000 7.522279e+001 1.075415e+001 6.689462e+001 4.415764e+001 4.713530e+001 4.694163e+001 2.775239e+001 2.325125e+001 3.070951e+001 4.432352e+001 3.654831e+001 6.210626e+001 1.549855e-001 6.191530e-001 5.000900e-001 8.510219e-001 1.130762e+000 1.633265e+000 1.432220e+000 1.635735e+000 1.581958e+000 1.835001e+000 1.671201e+000 1.121655e+000 2.782169e-001 2.576685e-002 8.385410e-002 1.050268e-001 1.316262e-001 2.016732e-001 2.962206e-001 2.639976e-001 3.084955e-001 3.015153e-001 3.160209e-001 3.154929e-001 2.201419e-001 2.077075e-002
<GCONST> 9.079020e+001
<TRANSP> 10
 0.000000e+000 1.000000e+000 0.000000e+000 0.000000e+000 0.000000e+000 0.000000e+000 0.000000e+000 0.000000e+000 0.000000e+000 0.000000e+000
 0.000000e+000 8.192390e-001 1.807610e-001 0.000000e+000 0.000000e+000 0.000000e+000 0.000000e+000 0.000000e+000 0.000000e+000 0.000000e+000
 0.000000e+000 0.000000e+000 3.355594e-001 6.644406e-001 0.000000e+000 0.000000e+000 0.000000e+000 0.000000e+000 0.000000e+000 0.000000e+000
 0.000000e+000 0.000000e+000 0.000000e+000 3.310099e-001 6.689901e-001 0.000000e+000 0.000000e+000 0.000000e+000 0.000000e+000 0.000000e+000
 0.000000e+000 0.000000e+000 0.000000e+000 0.000000e+000 4.202202e-001 5.797799e-001 0.000000e+000 0.000000e+000 0.000000e+000 0.000000e+000
 0.000000e+000 0.000000e+000 0.000000e+000 0.000000e+000 0.000000e+000 6.704352e-001 3.295648e-001 0.000000e+000 0.000000e+000 0.000000e+000
 0.000000e+000 0.000000e+000 0.000000e+000 0.000000e+000 0.000000e+000 0.000000e+000 8.493727e-001 1.506273e-001 0.000000e+000 0.000000e+000
 0.000000e+000 0.000000e+000 0.000000e+000 0.000000e+000 0.000000e+000 0.000000e+000 0.000000e+000 9.475669e-001 5.243303e-002 0.000000e+000
 0.000000e+000 0.000000e+000 0.000000e+000 0.000000e+000 0.000000e+000 0.000000e+000 0.000000e+000 0.000000e+000 9.327648e-001 6.723515e-002
 0.000000e+000 0.000000e+000 0.000000e+000 0.000000e+000 0.000000e+000 0.000000e+000 0.000000e+000 0.000000e+000 0.000000e+000 0.000000e+000
<ENDHMM>
~h "osm"
<BEGINHMM>
<NUMSTATES> 10
<STATE> 2
<MEAN> 39
 -9.865455e+000 -6.264704e-001 -2.512388e+000 5.139992e-001 -6.916447e-001 -5.168399e-001 5.548609e-002 1.356178e+000 -2.202665e+000 -6.499352e-001 1.442590e-001 7.749817e-001 4.535419e+001 7.855628e-002 -1.750218e-001 -1.363192e-001 -9.973674e-002 4.249893e-004 1.009562e-001 -1.505516e-001 -2.721842e-001 -8.014360e-002 -2.433973e-002 -3.234423e-002 -1.422220e-001 2.693649e-002 1.953156e-001 -9.551578e-002 -3.509995e-001 -7.376286e-001 -1.540947e-001 2.705541e-002 1.267698e-001 1.483740e-001 -1.381305e-001 2.023432e-001 1.158101e-001 -1.701783e-001 2.906822e-001
<VARIANCE> 39
 6.542400e-001 2.525321e+000 4.629340e+000 1.052245e+001 8.099094e+000 9.686040e+000 1.116163e+001 1.204348e+001 9.038013e+000 1.510344e+001 1.470355e+001 1.071398e+001 2.624883e+000 1.080425e-001 1.936564e-001 3.681272e-001 9.638913e-001 9.567745e-001 5.596263e-001 7.501748e-001 8.479043e-001 1.821974e+000 1.406054e+000 8.623378e-001 7.229821e-001 5.691319e-002 4.574938e-002 8.077806e-002 1.578098e-001 5.333986e-001 4.295165e-001 1.929262e-001 2.818784e-001 2.335979e-001 3.376473e-001 3.573059e-001 2.787009e-001 2.016903e-001 4.738310e-002
<GCONST> 6.656209e+001
<STATE> 3
<MEAN> 39
 -9.534394e+000 -7.695451e-001 -3.010919e+000 3.202994e-001 -1.108911e+000 -8.416044e-001 -1.598350e+000 1.358014e+000 -1.897369e+000 1.839605e-001 7.465522e-001 1.009618e+000 4.540739e+001 3.508870e-001 -2.219483e-001 -6.614580e-001 -1.007864e+000 -1.835572e-001 2.351723e-001 2.975550e-001 9.098884e-002 -1.328628e-002 5.463514e-001 6.428357e-002 -2.060829e-001 3.973349e-001 2.783591e-001 -3.291950e-001 -5.149800e-001 -1.602400e+000 -4.682794e-002 5.914560e-002 1.042706e-001 2.930232e-001 -2.710496e-001 3.307680e-001 8.969587e-002 -2.514166e-001 6.856830e-001
<VARIANCE> 39
 1.091343e+000 2.183871e+000 4.570593e+000 8.949289e+000 9.956263e+000 1.049350e+001 1.234902e+001 1.316224e+001 9.263295e+000 1.264885e+001 1.027650e+001 1.183366e+001 2.366532e+000 3.283480e-001 4.164861e-001 1.323419e+000 2.466624e+000 1.544297e+000 8.116996e-001 1.075817e+000 1.462570e+000 1.658149e+000 1.075423e+000 1.057876e+000 7.880973e-001 2.479272e-001 9.353533e-002 1.556525e-001 2.268587e-001 6.078653e-001 6.943563e-001 3.234659e-001 2.899663e-001 3.504646e-001 4.311909e-001 5.507249e-001 3.205339e-001 2.643859e-001 5.586031e-002
<GCONST> 7.851588e+001
<STATE> 4
<MEAN> 39
 -9.402520e+000 -5.533539e-001 -3.321592e+000 -2.418296e-001 -8.566061e-001 -5.209687e-001 -6.417482e-001 2.275257e-001 -1.707198e+000 6.419641e-001 1.120685e+000 1.801429e-001 4.578633e+001 6.790882e-001 -5.824804e-001 -1.510580e+000 -3.243305e+000 -5.093102e-001 1.096148e-001 5.970914e-001 5.790819e-001 -7.490799e-001 6.857116e-001 2.901057e-001 -4.883649e-001 1.269774e+000 2.791161e-001 -6.000009e-001 -4.399191e-001 -2.031734e+000 1.598260e-001 1.036962e-001 -1.921573e-001 3.712619e-001 -3.016905e-001 3.914333e-001 -4.091888e-002 -2.360881e-001 9.529526e-001
<VARIANCE> 39
 2.684042e+000 3.251917e+000 1.188728e+001 1.779651e+001 9.635513e+000 1.556956e+001 1.083524e+001 1.088151e+001 1.394770e+001 1.863309e+001 1.036375e+001 1.137626e+001 3.272247e+000 8.614688e-001 8.795957e-001 1.773622e+000 6.401851e+000 3.670850e+000 2.449000e+000 1.488552e+000 2.075580e+000 2.382902e+000 3.507535e+000 1.749980e+000 2.007865e+000 6.976516e-001 1.109794e-001 3.576331e-001 4.095418e-001 1.286023e+000 8.030581e-001 4.690456e-001 2.201551e-001 6.846130e-001 4.659391e-001 3.214170e-001 2.515914e-001 2.957090e-001 2.017668e-001
<GCONST> 9.615649e+001
<STATE> 5
<MEAN> 39
 -8.533930e+000 -1.160182e+000 -6.311955e+000 -5.948575e+000 -2.501996e+000 -1.394641e+000 1.151492e+000 1.982142e+000 -3.293624e+000 2.200269e+000 1.221758e+000 -2.924353e-001 4.787458e+001 1.021891e+000 -1.504287e+000 -1.818107e+000 -5.958879e+000 -7.511881e-002 3.449264e-001 -1.095983e-001 8.630205e-001 -1.075213e+000 1.145425e+000 7.948040e-002 -8.223902e-001 2.609308e+000 1.190859e-001 -5.422818e-001 1.309898e-002 -1.223470e+000 4.124710e-001 1.423462e-001 -4.844561e-001 1.773784e-001 -7.980520e-002 2.660584e-001 -1.707382e-001 -1.627179e-001 7.199498e-001
<VARIANCE> 39
 1.298603e+001 6.030914e+000 2.848428e+001 4.658898e+001 2.587727e+001 3.014159e+001 1.671717e+001 2.113992e+001 1.537925e+001 4.219499e+001 2.330073e+001 1.303343e+001 9.637057e+000 1.173204e+000 2.394095e+000 2.605146e+000 9.921590e+000 6.584037e+000 4.493111e+000 1.867340e+000 4.195933e+000 2.534502e+000 2.874989e+000 2.609095e+000 2.499744e+000 1.223144e+000 1.194067e-001 4.770017e-001 4.519308e-001 2.777527e+000 5.806713e-001 4.812834e-001 2.317321e-001 6.237113e-001 3.638756e-001 5.110620e-001 2.404849e-001 3.433297e-001 5.382057e-001
<GCONST> 1.133628e+002
<STATE> 6
<MEAN> 39
 -6.398198e+000 -3.548745e+000 -9.406056e+000 -1.626842e+001 -3.167676e+000 -1.253337e+000 -1.280433e-001 3.211310e+000 -6.058671e+000 4.098334e+000 1.979702e+000 -1.667366e+000 5.284079e+001 8.162317e-001 -1.798219e+000 -1.010231e+000 -5.493305e+000 7.315801e-001 4.477649e-001 -9.996248e-001 8.326401e-001 -7.303799e-001 1.313734e+000 -2.620442e-001 -7.095009e-001 2.847765e+000 -1.941369e-001 -1.115673e-001 4.090606e-001 3.432684e-001 4.012637e-001 1.457810e-003 -2.873383e-001 -7.707258e-002 1.859525e-001 5.922632e-002 -1.611823e-001 7.727992e-002 6.179075e-002
<VARIANCE> 39
 2.569490e+001 2.481819e+001 2.984142e+001 1.044796e+002 5.880429e+001 4.703893e+001 2.506445e+001 4.177220e+001 2.167863e+001 4.923763e+001 2.693418e+001 2.023141e+001 2.383179e+001 1.260366e+000 4.247820e+000 3.909835e+000 2.175984e+001 6.108819e+000 4.075188e+000 2.278757e+000 4.898249e+000 2.716552e+000 2.106982e+000 1.893353e+000 2.761858e+000 3.700516e+000 1.117557e-001 3.560035e-001 2.867512e-001 2.001379e+000 5.168793e-001 3.741131e-001 3.000100e-001 4.989450e-001 4.312093e-001 5.012112e-001 2.597969e-001 3.927040e-001 4.224807e-001
<GCONST> 1.219614e+002
<STATE> 7
<MEAN> 39
 -7.870003e+000 -7.172445e+000 -7.763747e+000 -2.622520e+001 1.436163e+000 -2.345419e-003 -3.559513e+000 5.003435e+000 -4.948750e+000 6.451546e+000 2.469024e-001 -1.463537e+000 5.957221e+001 -3.351018e-001 -6.513305e-001 1.746974e-001 -1.670794e+000 8.833423e-001 -5.348451e-002 -5.406557e-001 1.494036e-001 1.291464e-001 4.548652e-001 -3.300196e-001 9.042626e-003 1.230939e+000 -1.790196e-001 3.041685e-001 2.314853e-001 8.934149e-001 -1.025951e-001 -1.732395e-001 9.800979e-002 -1.882686e-001 1.165393e-001 -2.093725e-001 9.753853e-003 1.713717e-001 -3.965652e-001
<VARIANCE> 39
 4.600026e+001 5.626660e+001 3.668269e+001 1.351994e+002 8.647084e+001 5.365722e+001 3.173666e+001 5.776992e+001 3.859948e+001 3.480204e+001 3.394795e+001 3.271096e+001 2.328719e+001 1.701750e+000 3.516576e+000 1.776218e+000 1.467003e+001 2.791766e+000 2.139151e+000 2.814974e+000 3.110353e+000 2.824660e+000 2.997946e+000 1.651162e+000 2.355637e+000 3.689837e+000 2.063862e-001 3.780383e-001 4.005607e-001 1.460469e+000 5.367379e-001 4.097165e-001 4.774950e-001 6.248549e-001 4.747564e-001 3.759190e-001 3.132934e-001 4.572524e-001 2.776438e-001
<GCONST> 1.244124e+002
<STATE> 8
<MEAN> 39
 -1.362138e+001 -4.012816e+000 -6.948048e+000 -1.876637e+001 4.058967e+000 -3.753048e+000 -2.666140e+000 2.736734e+000 -1.063129e+000 3.728120e+000 -1.090218e+000 -1.031557e+000 5.977744e+001 1.220675e-002 9.456609e-002 3.272711e-001 4.377754e-001 -3.066756e-001 -5.003626e-001 -3.721598e-001 -2.672873e-001 -3.037410e-002 -4.988980e-002 1.322846e-001 1.162478e-002 -4.447148e-002 1.755390e-002 -9.151467e-003 2.619499e-002 5.646269e-002 -2.505247e-002 -8.636030e-003 -8.244111e-004 1.484746e-003 -2.978350e-002 1.656006e-002 3.275406e-002 -1.290413e-002 -3.613085e-002
<VARIANCE> 39
 5.295347e+001 5.290089e+001 4.371189e+001 1.383679e+002 6.359301e+001 6.073265e+001 6.361793e+001 4.804491e+001 4.801389e+001 3.413971e+001 3.569547e+001 2.424777e+001 2.969464e+001 3.591406e+000 2.227066e+000 1.649696e+000 4.425406e+000 2.557440e+000 2.848710e+000 4.745832e+000 3.656041e+000 2.618011e+000 2.972983e+000 3.069818e+000 1.866349e+000 8.321208e-001 4.091778e-001 2.463075e-001 2.239875e-001 6.327463e-001 4.676566e-001 4.831844e-001 7.419244e-001 6.765038e-001 4.136202e-001 5.543867e-001 5.299965e-001 3.628610e-001 1.172998e-001
<GCONST> 1.229937e+002
<STATE> 9
<MEAN> 39
 -6.377021e+000 -6.509078e+000 1.394837e+000 -1.445402e+001 -1.294067e+000 -1.101666e+001 -1.280697e+001 -1.106961e+000 -9.560589e+000 5.621090e+000 1.403840e+000 -2.373416e+000 5.668629e+001 -4.041738e-002 2.081918e-001 -1.404663e-002 4.465369e-001 1.699125e-001 2.669150e-001 2.729684e-001 1.745732e-002 -9.698443e-002 -1.668177e-001 -1.424894e-001 -1.137268e-002 -3.631419e-001 -2.476424e-002 3.686366e-002 -3.928172e-002 4.972287e-002 -8.095589e-003 4.669636e-002 5.408243e-002 2.099114e-002 7.216776e-002 -2.546513e-002 -1.608032e-003 2.695928e-002 -3.963684e-002
<VARIANCE> 39
 1.281131e+001 4.089259e+001 3.105058e+001 4.518700e+001 4.546296e+001 3.162178e+001 4.245485e+001 4.967939e+001 2.710199e+001 4.084732e+001 5.662962e+001 3.801076e+001 2.620654e+001 3.115825e-001 5.969348e-001 6.862985e-001 1.163582e+000 8.954018e-001 1.397648e+000 1.439291e+000 1.347322e+000 1.335539e+000 1.681879e+000 1.241038e+000 1.156087e+000 2.772032e-001 4.636971e-002 7.667318e-002 9.367032e-002 1.560198e-001 1.513673e-001 2.379658e-001 2.027685e-001 2.510511e-001 2.274792e-001 2.860244e-001 2.257310e-001 1.867915e-001 2.239149e-002
<GCONST> 9.106225e+001
<TRANSP> 10
 0.000000e+000 1.000000e+000 0.000000e+000 0.000000e+000 0.000000e+000 0.000000e+000 0.000000e+000 0.000000e+000 0.000000e+000 0.000000e+000
 0.000000e+000 3.777455e-002 9.622254e-001 0.000000e+000 0.000000e+000 0.000000e+000 0.000000e+000 0.000000e+000 0.000000e+000 0.000000e+000
 0.000000e+000 0.000000e+000 3.605308e-002 9.639469e-001 0.000000e+000 0.000000e+000 0.000000e+000 0.000000e+000 0.000000e+000 0.000000e+000
 0.000000e+000 0.000000e+000 0.000000e+000 5.966176e-002 9.403383e-001 0.000000e+000 0.000000e+000 0.000000e+000 0.000000e+000 0.000000e+000
 0.000000e+000 0.000000e+000 0.000000e+000 0.000000e+000 1.661281e-001 8.338720e-001 0.000000e+000 0.000000e+000 0.000000e+000 0.000000e+000
 0.000000e+000 0.000000e+000 0.000000e+000 0.000000e+000 0.000000e+000 4.023200e-001 5.976800e-001 0.000000e+000 0.000000e+000 0.000000e+000
 0.000000e+000 0.000000e+000 0.000000e+000 0.000000e+000 0.000000e+000 0.000000e+000 7.708722e-001 2.291278e-001 0.000000e+000 0.000000e+000
 0.000000e+000 0.000000e+000 0.000000e+000 0.000000e+000 0.000000e+000 0.000000e+000 0.000000e+000 9.595779e-001 4.042209e-002 0.000000e+000
 0.000000e+000 0.000000e+000 0.000000e+000 0.000000e+000 0.000000e+000 0.000000e+000 0.000000e+000 0.000000e+000 9.668491e-001 3.315096e-002
 0.000000e+000 0.000000e+000 0.000000e+000 0.000000e+000 0.000000e+000 0.000000e+000 0.000000e+000 0.000000e+000 0.000000e+000 0.000000e+000
<ENDHMM>
~h "pet"
<BEGINHMM>
<NUMSTATES> 10
<STATE> 2
<MEAN> 39
 -9.238177e+000 1.939731e-001 -2.192055e+000 5.413134e-001 -9.599560e-001 -1.475451e+000 -2.004064e-001 2.635623e+000 -1.132838e+000 9.033628e-001 1.336273e+000 1.667966e+000 4.608257e+001 4.026856e-002 1.412899e-001 2.514128e-001 9.541041e-002 1.358323e-001 -5.988498e-001 1.353267e-001 -9.528653e-002 -1.696831e-001 -2.831314e-001 -2.220875e-001 -3.836132e-002 1.145441e-001 -3.413636e-002 -6.938402e-002 2.235775e-001 4.002621e-002 -1.512884e-001 -2.919846e-001 -2.508699e-002 -1.928784e-001 -4.578402e-002 2.044430e-002 5.428548e-003 -3.923510e-002 1.094669e-001
<VARIANCE> 39
 1.693290e+000 1.927693e+000 4.575134e+000 4.807802e+000 6.263077e+000 9.797848e+000 1.154150e+001 5.969251e+000 8.388368e+000 1.152897e+001 1.122274e+001 1.406720e+001 8.288258e-001 1.663758e-001 5.174242e-001 4.635245e-001 4.706888e-001 9.254270e-001 1.441047e+000 9.655764e-001 1.038764e+000 1.526964e+000 8.032350e-001 7.784446e-001 6.739831e-001 7.008176e-002 5.092853e-002 7.205370e-002 1.055026e-001 1.098972e-001 2.376110e-001 3.508046e-001 1.817616e-001 2.238053e-001 2.738766e-001 2.999595e-001 2.153687e-001 2.378528e-001 3.006971e-002
<GCONST> 6.223682e+001
<STATE> 3
<MEAN> 39
 -9.240172e+000 1.996887e-001 -1.735989e+000 4.706329e-001 -1.228238e+000 -1.915578e+000 -2.816520e-001 2.384062e+000 -1.976364e+000 -2.557571e-001 5.734572e-001 1.354429e+000 4.618956e+001 4.286058e-002 1.726048e-003 4.146888e-001 1.375790e-001 -2.102124e-001 -7.988307e-001 6.679612e-002 -2.856993e-001 -2.287917e-001 -1.374663e-001 -1.845810e-001 -8.902182e-002 2.040913e-001 -4.117840e-002 -2.312023e-001 3.572587e-001 -1.911208e-001 -4.302716e-001 -5.452224e-001 -1.611961e-001 -1.631147e-001 -1.029855e-001 2.753607e-001 7.929236e-002 -8.490452e-003 3.104548e-001
<VARIANCE> 39
 1.900045e+000 5.537365e+000 4.264678e+000 6.389580e+000 5.266333e+000 1.704289e+001 1.341129e+001 1.349411e+001 1.053953e+001 1.106056e+001 9.810424e+000 1.170227e+001 1.104081e+000 2.594651e-001 3.773219e-001 5.132123e-001 4.223123e-001 1.084172e+000 2.865370e+000 9.426980e-001 1.592865e+000 1.887399e+000 1.272039e+000 8.285137e-001 9.585345e-001 1.742750e-001 7.218151e-002 1.395359e-001 1.782164e-001 1.584673e-001 3.777469e-001 4.601288e-001 2.219314e-001 2.990705e-001 2.969056e-001 2.821054e-001 2.422851e-001 2.052557e-001 6.044919e-002
<GCONST> 7.230309e+001
<STATE> 4
<MEAN> 39
 -9.301616e+000 6.552920e-002 -1.062388e+000 1.516572e+000 -1.391859e+000 -3.445240e+000 -4.617026e-001 1.587982e+000 -2.221085e+000 -4.331162e-001 5.811446e-001 1.572777e+000 4.650787e+001 -7.339518e-003 -2.686237e-001 7.509112e-001 -1.341816e-001 -7.764148e-001 -1.653630e+000 -3.498238e-001 -5.729848e-001 -4.804947e-001 2.216213e-001 -3.620624e-002 -8.850339e-002 6.079307e-001 -2.312503e-003 -4.949059e-001 6.272315e-001 -6.989360e-001 -8.215991e-001 -7.871022e-001 -2.014561e-001 2.003225e-002 -2.079077e-001 6.040334e-001 8.481779e-002 -7.980933e-002 6.218419e-001
<VARIANCE> 39
 3.017486e+000 7.208337e+000 5.094251e+000 7.827853e+000 9.771003e+000 2.571751e+001 1.240062e+001 2.134986e+001 1.565854e+001 1.180945e+001 8.099604e+000 8.702175e+000 2.589276e+000 5.971464e-001 5.792893e-001 1.044205e+000 6.026828e-001 2.522480e+000 5.828392e+000 1.044544e+000 1.972871e+000 3.220710e+000 1.494895e+000 1.149350e+000 1.372672e+000 5.190129e-001 7.457945e-002 2.020412e-001 3.483975e-001 3.173044e-001 3.851782e-001 3.897275e-001 2.943654e-001 4.335447e-001 3.146466e-001 3.197323e-001 1.894316e-001 1.647279e-001 1.285696e-001
<GCONST> 8.506532e+001
<STATE> 5
<MEAN> 39
 -8.592996e+000 -1.496048e-001 -2.416193e-001 1.171280e+000 -4.195057e+000 -6.866271e+000 -7.440571e-001 9.006576e-001 -3.704870e+000 8.134474e-001 1.140820e+000 1.292958e+000 4.773886e+001 -1.913685e-002 -9.041108e-001 1.417370e+000 -9.477639e-001 -1.771999e+000 -2.663342e+000 -4.469647e-001 -3.360336e-001 -4.764024e-001 1.110003e+000 3.778668e-002 -1.182954e-001 1.424864e+000 2.461081e-002 -6.652766e-001 7.698728e-001 -1.049705e+000 -8.291293e-001 -5.695934e-001 -3.354314e-002 2.856956e-001 -2.135285e-001 7.048542e-001 7.081052e-002 -9.044513e-002 7.520619e-001
<VARIANCE> 39
 4.822392e+000 6.305127e+000 8.627807e+000 8.600646e+000 4.292450e+001 9.014110e+001 1.352944e+001 1.924238e+001 3.417208e+001 1.215547e+001 8.951392e+000 8.566992e+000 9.453265e+000 7.766973e-001 1.168772e+000 1.814756e+000 1.697678e+000 3.564022e+000 4.994899e+000 1.408977e+000 2.885963e+000 2.216664e+000 2.053304e+000 1.545651e+000 1.583765e+000 7.856186e-001 6.044948e-002 2.207605e-001 6.590165e-001 7.132283e-001 8.620691e-001 1.113976e+000 4.921647e-001 4.656086e-001 5.638760e-001 6.473085e-001 2.568727e-001 1.830894e-001 2.932802e-001
<GCONST> 1.014398e+002
<STATE> 6
<MEAN> 39
 -7.573139e+000 -3.156277e+000 1.269599e+000 -9.796562e-001 -1.055084e+001 -1.576551e+001 -3.496228e-001 2.567622e+000 -5.395834e+000 4.049855e+000 9.985916e-001 1.591804e+000 5.262163e+001 1.268528e-001 -1.616735e+000 1.639508e+000 -2.070866e+000 -2.097842e+000 -2.250749e+000 -3.005681e-002 6.714528e-001 -4.129477e-001 1.592255e+000 -1.646741e-001 -3.463835e-001 1.992803e+000 1.966038e-002 -3.633805e-001 3.626390e-001 -7.330041e-001 -2.992846e-001 5.562074e-002 1.110020e-001 2.373683e-001 -7.946746e-002 3.327136e-001 2.004754e-002 -3.861723e-002 3.758893e-001
<VARIANCE> 39
 1.111155e+001 1.938049e+001 1.700236e+001 1.389542e+001 8.542159e+001 1.293986e+002 1.878003e+001 3.874319e+001 3.760323e+001 2.002267e+001 1.514058e+001 9.292758e+000 2.899605e+001 3.699704e-001 1.592093e+000 4.979946e+000 4.482338e+000 4.474938e+000 4.816794e+000 2.373932e+000 2.432532e+000 2.194462e+000 3.591554e+000 1.660931e+000 9.713371e-001 1.797046e+000 7.467383e-002 3.482219e-001 7.003586e-001 9.144133e-001 1.061157e+000 1.099184e+000 4.758953e-001 4.159119e-001 4.949895e-001 7.834936e-001 3.375210e-001 1.943664e-001 4.014859e-001
<GCONST> 1.137366e+002
<STATE> 7
<MEAN> 39
 -6.667789e+000 -8.396308e+000 2.271908e+000 -7.259228e+000 -1.459445e+001 -2.100384e+001 1.000900e+000 7.645336e+000 -4.584279e+000 8.641929e+000 -1.758992e+000 -3.673183e-002 5.887407e+001 3.065413e-002 -1.159556e+000 1.082421e+000 -1.986098e+000 -1.113721e+000 -9.697827e-001 -9.140169e-003 5.190320e-001 -1.926403e-001 1.149919e+000 -1.627937e-001 -2.553520e-001 1.389522e+000 -1.686619e-002 5.670502e-002 -8.728889e-002 -7.286283e-002 1.313464e-001 2.474456e-001 2.380001e-002 -3.006588e-002 4.916795e-002 -7.590322e-002 3.771692e-002 4.394943e-002 -6.666352e-002
<VARIANCE> 39
 1.220772e+001 1.857789e+001 6.429070e+001 5.218391e+001 4.234439e+001 6.509862e+001 2.225910e+001 4.529723e+001 1.954454e+001 3.772661e+001 2.079550e+001 1.012052e+001 2.411641e+001 2.545729e-001 2.291201e+000 5.969650e+000 7.130455e+000 6.383375e+000 4.564426e+000 2.403475e+000 1.519648e+000 2.200044e+000 5.320035e+000 1.879718e+000 7.574274e-001 3.147448e+000 5.141872e-002 1.810371e-001 4.078473e-001 5.795120e-001 5.274360e-001 4.824150e-001 2.768116e-001 2.156338e-001 2.859755e-001 5.281940e-001 2.435557e-001 1.584737e-001 2.075215e-001
<GCONST> 1.100079e+002
<STATE> 8
<MEAN> 39
 -9.587230e+000 -1.693482e+001 7.089600e+000 -2.133903e+001 -1.086251e+001 -1.338527e+001 2.404534e+000 1.112314e+001 -4.222519e+000 5.935457e+000 -4.536186e+000 -6.848031e-001 6.342718e+001 3.208074e-003 -3.436852e-002 -3.262890e-001 -2.007291e-002 2.387321e-001 3.524502e-001 1.030034e-001 2.895955e-001 1.441051e-001 -3.296264e-001 -1.203266e-001 1.347938e-002 -1.295894e-001 -9.783289e-003 1.300610e-001 -1.348284e-001 2.211980e-001 1.080422e-001 1.543864e-001 4.762474e-002 -2.429481e-002 3.265287e-002 -1.002637e-001 1.718579e-002 -1.102304e-002 -1.719207e-001
<VARIANCE> 39
 1.279525e+001 4.194781e+001 5.800403e+001 7.480050e+001 6.401750e+001 4.030947e+001 7.646363e+001 4.961956e+001 3.790812e+001 6.830645e+001 8.155686e+001 1.726005e+001 2.127144e+001 2.714132e-001 2.164156e+000 1.862164e+000 3.846874e+000 2.303065e+000 2.633778e+000 2.651961e+000 2.298627e+000 1.406380e+000 2.811520e+000 2.067646e+000 1.161927e+000 1.871984e+000 4.292321e-002 1.603941e-001 2.925220e-001 3.530668e-001 3.731467e-001 4.962226e-001 4.291260e-001 3.332105e-001 2.608441e-001 4.903709e-001 2.700471e-001 2.167946e-001 1.370431e-001
<GCONST> 1.107645e+002
<STATE> 9
<MEAN> 39
 -1.006954e+001 -6.240232e+000 -3.110833e-001 -7.465972e+000 -4.306117e+000 -3.880738e+000 2.525144e+000 8.339665e+000 -7.331455e-001 4.119309e-001 -5.210195e-001 -3.964941e-002 5.120002e+001 -1.341415e-001 3.386758e-001 -8.783348e-002 4.861172e-001 3.727039e-001 2.171513e-001 -1.325048e-002 -1.961997e-001 3.381333e-002 -5.701902e-002 1.208585e-001 8.291994e-002 -3.451790e-001 3.142608e-002 -3.048112e-002 2.421249e-002 -4.576884e-003 6.047449e-003 -4.075480e-002 -7.196101e-002 -3.709526e-002 -5.322065e-003 8.205259e-003 -4.386504e-002 1.364599e-002 3.521206e-002
<VARIANCE> 39
 3.906946e+000 3.971140e+001 9.738965e+000 5.855148e+001 3.233699e+001 2.863240e+001 3.497056e+001 2.565319e+001 2.381673e+001 1.615465e+001 1.502482e+001 1.879805e+001 2.762530e+001 3.479528e-001 6.815451e-001 7.866687e-001 1.746072e+000 1.693737e+000 2.196078e+000 2.000208e+000 1.851947e+000 1.485820e+000 1.565035e+000 1.765284e+000 1.667037e+000 7.778572e-001 7.103765e-002 1.041112e-001 1.641224e-001 3.139124e-001 3.202187e-001 4.321362e-001 4.162417e-001 3.648475e-001 3.113545e-001 3.299779e-001 3.430980e-001 3.205840e-001 1.276100e-001
<GCONST> 9.650900e+001
<TRANSP> 10
 0.000000e+000 1.000000e+000 0.000000e+000 0.000000e+000 0.000000e+000 0.000000e+000 0.000000e+000 0.000000e+000 0.000000e+000 0.000000e+000
 0.000000e+000 4.099165e-002 9.590083e-001 0.000000e+000 0.000000e+000 0.000000e+000 0.000000e+000 0.000000e+000 0.000000e+000 0.000000e+000
 0.000000e+000 0.000000e+000 2.686919e-002 9.731308e-001 0.000000e+000 0.000000e+000 0.000000e+000 0.000000e+000 0.000000e+000 0.000000e+000
 0.000000e+000 0.000000e+000 0.000000e+000 3.810503e-002 9.618949e-001 0.000000e+000 0.000000e+000 0.000000e+000 0.000000e+000 0.000000e+000
 0.000000e+000 0.000000e+000 0.000000e+000 0.000000e+000 1.335930e-001 8.664071e-001 0.000000e+000 0.000000e+000 0.000000e+000 0.000000e+000
 0.000000e+000 0.000000e+000 0.000000e+000 0.000000e+000 0.000000e+000 4.566665e-001 5.433335e-001 0.000000e+000 0.000000e+000 0.000000e+000
 0.000000e+000 0.000000e+000 0.000000e+000 0.000000e+000 0.000000e+000 0.000000e+000 7.533634e-001 2.466367e-001 0.000000e+000 0.000000e+000
 0.000000e+000 0.000000e+000 0.000000e+000 0.000000e+000 0.000000e+000 0.000000e+000 0.000000e+000 9.545498e-001 4.545020e-002 0.000000e+000
 0.000000e+000 0.000000e+000 0.000000e+000 0.000000e+000 0.000000e+000 0.000000e+000 0.000000e+000 0.000000e+000 9.406397e-001 5.936025e-002
 0.000000e+000 0.000000e+000 0.000000e+000 0.000000e+000 0.000000e+000 0.000000e+000 0.000000e+000 0.000000e+000 0.000000e+000 0.000000e+000
<ENDHMM>
~h "sil"
<BEGINHMM>
<NUMSTATES> 5
<STATE> 2
<MEAN> 39
 -1.016447e+001 -1.535420e+000 -1.813371e+000 -2.130231e+000 -2.843052e-001 -1.761549e+000 -7.924951e-001 2.925220e+000 -2.662125e+000 1.191706e+000 1.298545e-001 2.530367e-001 4.745034e+001 5.622529e-002 1.016849e-001 -1.282223e-001 4.001987e-001 -2.207546e-002 2.232435e-001 9.787574e-002 -2.059061e-002 2.636510e-001 -1.323341e-001 8.530200e-002 5.739211e-002 -2.845498e-001 9.883695e-003 -7.957283e-003 6.053009e-003 -3.798033e-002 -3.766654e-002 -3.646924e-002 -1.027725e-002 -9.796425e-003 1.003317e-002 -1.026910e-002 -1.198247e-002 8.022550e-003 4.448434e-002
<VARIANCE> 39
 2.863868e+000 7.674576e+000 1.259962e+001 1.521963e+001 2.007725e+001 1.985103e+001 1.655390e+001 1.743442e+001 1.897498e+001 1.836129e+001 1.656514e+001 1.457415e+001 3.553653e+000 2.184496e-001 4.087334e-001 6.136473e-001 9.990951e-001 1.235447e+000 1.606232e+000 1.306859e+000 1.561024e+000 1.744505e+000 1.724963e+000 1.610803e+000 1.297456e+000 1.856843e-001 3.218630e-002 5.829528e-002 9.215907e-002 1.618319e-001 1.936328e-001 2.710983e-001 2.243104e-001 2.536998e-001 2.911230e-001 3.039595e-001 2.615359e-001 2.169776e-001 2.726334e-002
<GCONST> 7.773911e+001
<STATE> 3
<MEAN> 39
 -9.773609e+000 -5.197494e-001 -2.451072e+000 8.176751e-001 -1.086847e+000 -3.313629e-001 -2.035981e-001 1.918322e+000 -1.351916e+000 5.295175e-002 9.767517e-001 8.391639e-001 4.576867e+001 3.674347e-003 1.238992e-002 -1.547185e-003 3.213919e-002 -1.292603e-002 4.963374e-003 6.074176e-003 -1.183641e-002 1.551384e-002 -1.003415e-002 1.019999e-002 1.155556e-002 -1.725689e-002 -1.398463e-003 -1.107936e-003 1.854794e-003 -7.418648e-003 2.418904e-003 -5.696263e-003 -1.882574e-003 1.019637e-003 -6.416067e-003 3.027974e-003 -1.712986e-003 -1.805286e-003 4.991685e-003
<VARIANCE> 39
 1.049841e+000 2.341639e+000 4.124115e+000 5.974233e+000 7.785978e+000 9.417575e+000 1.056999e+001 1.135512e+001 1.143168e+001 1.183950e+001 1.121035e+001 1.030913e+001 5.702885e-001 1.038276e-001 2.296521e-001 3.887243e-001 5.852119e-001 7.890906e-001 9.851925e-001 1.154970e+000 1.234498e+000 1.299059e+000 1.328657e+000 1.279772e+000 1.143036e+000 3.568620e-002 2.157854e-002 4.736631e-002 8.010484e-002 1.196618e-001 1.626316e-001 2.026675e-001 2.398140e-001 2.567843e-001 2.720941e-001 2.775952e-001 2.692181e-001 2.380827e-001 6.827035e-003
<GCONST> 5.838821e+001
<STATE> 4
<MEAN> 39
 -9.925008e+000 -3.652416e-001 -1.745285e+000 2.798457e-002 -5.649030e-001 -1.580209e+000 -5.283635e-001 1.343953e+000 -1.708725e+000 4.632023e-001 8.279955e-001 8.778110e-001 4.601315e+001 1.634533e-002 2.793752e-002 2.014895e-002 -7.740711e-002 -3.317281e-002 -9.882930e-002 -5.494767e-002 -5.332707e-003 -5.796880e-002 3.885958e-002 2.208734e-002 -1.785181e-002 5.008141e-002 -1.043444e-002 4.847677e-003 2.718945e-002 -3.639739e-002 -2.271950e-002 -3.449107e-002 3.547226e-003 -3.223435e-003 -1.047291e-002 7.004032e-003 -1.630534e-003 -7.616028e-003 2.429623e-002
<VARIANCE> 39
 2.980933e+000 4.027052e+000 7.411363e+000 9.699509e+000 1.257282e+001 1.496573e+001 1.491317e+001 1.536688e+001 1.327452e+001 1.446239e+001 1.251333e+001 1.192483e+001 2.861169e+000 2.957342e-001 4.088499e-001 7.138822e-001 9.253682e-001 1.386106e+000 1.587912e+000 1.481397e+000 1.362606e+000 1.629876e+000 1.664294e+000 1.449967e+000 1.265429e+000 1.316291e-001 5.921452e-002 7.706135e-002 1.466159e-001 1.972389e-001 2.734239e-001 3.183779e-001 2.852845e-001 2.530492e-001 3.087709e-001 3.117577e-001 2.634840e-001 2.193302e-001 2.816700e-002
<GCONST> 7.620055e+001
<TRANSP> 5
 0.000000e+000 1.000000e+000 0.000000e+000 0.000000e+000 0.000000e+000
 0.000000e+000 6.939036e-001 3.060964e-001 0.000000e+000 0.000000e+000
 0.000000e+000 0.000000e+000 9.840364e-001 1.596356e-002 0.000000e+000
 0.000000e+000 0.000000e+000 0.000000e+000 7.260801e-001 2.739199e-001
 0.000000e+000 0.000000e+000 0.000000e+000 0.000000e+000 0.000000e+000
<ENDHMM>
~h "tri"
<BEGINHMM>
<NUMSTATES> 10
<STATE> 2
<MEAN> 39
 -1.075364e+001 -2.460952e-001 -1.747571e+000 3.923888e-001 9.866802e-001 -1.039735e+000 -1.696882e-002 2.402680e+000 -1.799217e+000 5.074195e-001 1.406259e+000 1.207198e+000 4.670756e+001 -5.269015e-001 -3.275654e-001 6.815792e-001 -5.773360e-001 6.711036e-001 -6.833546e-001 2.352915e-001 4.544429e-001 -4.008600e-001 -1.638237e-001 -7.823296e-002 -1.882860e-001 5.113239e-001 -2.990932e-001 -1.966912e-001 2.558243e-001 -3.889241e-001 9.183066e-002 -4.174400e-001 3.089808e-002 1.206447e-001 -7.543582e-002 1.971095e-002 -1.302440e-001 -4.134058e-002 3.161984e-001
<VARIANCE> 39
 6.619113e+000 2.390793e+000 3.321254e+000 6.132526e+000 1.434058e+001 1.606199e+001 1.300500e+001 1.271999e+001 1.326941e+001 1.292848e+001 1.099512e+001 1.070895e+001 3.591990e+000 4.697366e-001 3.550965e-001 7.209755e-001 1.179810e+000 1.924483e+000 1.727791e+000 2.507812e+000 1.778185e+000 1.331569e+000 1.853687e+000 1.341636e+000 1.030965e+000 3.521078e-001 1.097357e-001 9.257984e-002 2.165537e-001 3.318104e-001 3.932072e-001 3.665521e-001 4.435350e-001 3.832332e-001 2.584397e-001 4.114469e-001 2.658946e-001 2.077322e-001 9.772421e-002
<GCONST> 8.172626e+001
<STATE> 3
<MEAN> 39
 -1.135386e+001 -6.357589e-001 -9.373524e-001 -1.781166e-001 1.384918e+000 -1.884703e+000 4.428006e-001 2.922091e+000 -2.997323e+000 -3.141297e-001 9.970714e-001 4.250399e-001 4.736765e+001 -9.883151e-001 -6.728750e-001 1.150797e+000 -1.194270e+000 7.087454e-001 -1.428495e+000 1.056881e-001 7.168996e-001 -3.320829e-001 4.399850e-002 -3.584101e-001 -7.472480e-002 9.898950e-001 -4.230379e-001 -1.124263e-001 2.512539e-001 -5.081243e-001 1.416602e-001 -4.227296e-001 3.083131e-002 -1.929378e-002 1.537754e-001 2.017222e-001 -5.376762e-002 1.601041e-001 4.003915e-001
<VARIANCE> 39
 1.145361e+001 3.911301e+000 6.920884e+000 1.146925e+001 1.442230e+001 1.516169e+001 1.310923e+001 1.599939e+001 1.386312e+001 1.394492e+001 1.478598e+001 8.994059e+000 5.623029e+000 5.530550e-001 5.440325e-001 1.212088e+000 2.316443e+000 2.321183e+000 2.495868e+000 2.110363e+000 2.154285e+000 1.957226e+000 2.851745e+000 1.520832e+000 8.904448e-001 5.395162e-001 1.274816e-001 1.725867e-001 2.488582e-001 2.985445e-001 4.320237e-001 3.442084e-001 3.737347e-001 3.530695e-001 3.500258e-001 2.880123e-001 2.930880e-001 2.359062e-001 1.335777e-001
<GCONST> 8.964983e+001
<STATE> 4
<MEAN> 39
 -1.386118e+001 -2.164185e+000 1.414931e+000 -2.459234e+000 2.640600e+000 -5.133902e+000 6.382374e-001 3.975326e+000 -2.240544e+000 3.586693e-001 8.285838e-001 1.365045e+000 4.956930e+001 -1.578502e+000 -6.419700e-001 1.386880e+000 -1.957872e+000 8.845516e-001 -1.867100e+000 5.907420e-002 2.929044e-001 9.825496e-002 4.174289e-001 -2.670980e-001 4.993649e-001 1.512604e+000 -2.803777e-001 1.485459e-001 5.639543e-002 -2.946852e-001 1.109293e-001 -6.159080e-002 1.771579e-001 -1.414840e-001 1.974147e-001 9.056681e-002 9.134361e-002 1.545411e-001 2.046633e-001
<VARIANCE> 39
 1.886162e+001 7.845399e+000 1.383980e+001 2.961636e+001 2.163268e+001 2.999829e+001 1.877294e+001 2.043213e+001 2.042357e+001 1.908769e+001 1.627282e+001 8.211723e+000 1.061870e+001 9.620000e-001 1.223096e+000 1.540987e+000 2.701589e+000 2.786017e+000 2.694293e+000 2.058959e+000 2.665508e+000 1.780139e+000 2.348884e+000 1.576009e+000 9.982556e-001 8.671376e-001 2.027420e-001 2.733346e-001 2.653318e-001 3.773029e-001 4.961911e-001 4.227468e-001 4.070743e-001 2.978302e-001 4.458039e-001 4.345370e-001 3.606063e-001 2.147758e-001 1.947113e-001
<GCONST> 1.006851e+002
<STATE> 5
<MEAN> 39
 -1.745762e+001 -2.334244e+000 4.182458e+000 -5.643446e+000 4.065690e+000 -9.141364e+000 1.391292e+000 3.818171e+000 -1.068304e+000 4.420855e-001 4.472790e-001 3.174356e+000 5.291741e+001 -1.429271e+000 -6.805976e-002 1.055969e+000 -1.579227e+000 7.358277e-001 -1.239969e+000 4.049579e-001 -2.654096e-002 3.053124e-001 9.192684e-002 -5.689419e-002 4.231601e-001 1.271778e+000 3.240757e-002 2.255414e-001 -1.113066e-001 1.024916e-001 -1.252267e-002 2.539358e-001 1.195558e-001 -1.066405e-001 2.832752e-002 -1.353287e-001 1.343036e-001 -6.249589e-002 -8.997701e-002
<VARIANCE> 39
 2.737648e+001 1.062958e+001 1.323903e+001 3.228526e+001 4.049735e+001 4.479331e+001 3.111346e+001 2.958587e+001 2.729765e+001 2.714246e+001 1.792066e+001 1.211344e+001 1.037359e+001 2.386424e+000 1.616766e+000 1.692585e+000 3.022932e+000 3.796103e+000 3.291145e+000 3.002069e+000 1.946152e+000 1.807581e+000 1.868454e+000 2.194102e+000 1.365982e+000 1.317508e+000 2.411706e-001 3.101673e-001 3.047114e-001 4.442945e-001 5.400450e-001 5.963991e-001 5.126850e-001 4.135108e-001 3.603986e-001 5.431814e-001 4.713967e-001 2.582068e-001 1.650919e-001
<GCONST> 1.091127e+002
<STATE> 6
<MEAN> 39
 -1.852794e+001 -1.736044e+000 6.015380e+000 -7.760508e+000 3.060563e+000 -1.248503e+001 1.671288e+000 2.611380e+000 -2.103932e+000 1.435724e-002 1.508093e+000 2.996064e+000 5.514840e+001 -7.236924e-001 2.932384e-001 5.717288e-001 -7.334129e-001 1.516767e-001 -6.345721e-001 3.033460e-001 -6.018446e-002 -1.089228e-001 -2.335294e-001 3.813284e-001 -6.151209e-002 7.132930e-001 1.344258e-001 8.879706e-002 -8.818271e-002 2.249140e-001 -1.423764e-001 1.516465e-001 -3.418349e-002 -3.564015e-002 -4.278239e-002 -8.733920e-002 5.347133e-002 -8.760993e-002 -1.399038e-001
<VARIANCE> 39
 4.955358e+001 1.406288e+001 1.363299e+001 5.963628e+001 1.234924e+002 7.419749e+001 4.075549e+001 2.661976e+001 4.545901e+001 2.482209e+001 2.204011e+001 1.389510e+001 8.690404e+000 3.436207e+000 1.612632e+000 1.535326e+000 3.310292e+000 4.235628e+000 3.522899e+000 3.332759e+000 1.960472e+000 2.643630e+000 2.508502e+000 2.456947e+000 1.335722e+000 9.867775e-001 2.471086e-001 2.820440e-001 2.837573e-001 3.975340e-001 4.844640e-001 6.376647e-001 5.144808e-001 4.262566e-001 4.297487e-001 4.681628e-001 3.949652e-001 2.673747e-001 1.333732e-001
<GCONST> 1.135328e+002
<STATE> 7
<MEAN> 39
 -1.960513e+001 -1.411475e+000 8.421709e+000 -9.257470e+000 6.947697e-001 -1.490326e+001 2.115272e+000 2.096093e+000 -3.973201e+000 -6.810087e-001 3.621018e+000 1.395221e+000 5.749837e+001 -1.376736e-001 -2.066303e-002 3.699728e-001 -1.692261e-001 -6.316106e-001 -5.971429e-001 1.014383e-001 -2.056977e-001 -2.223460e-001 -1.950544e-001 3.241995e-001 -2.823853e-001 4.381995e-001 2.074538e-001 -1.293771e-001 -5.665882e-002 9.675116e-002 -2.535899e-001 -9.943817e-003 -7.165029e-002 -2.336672e-002 -2.935784e-002 3.588808e-002 -3.290420e-002 -4.662803e-002 -5.270290e-002
<VARIANCE> 39
 8.319812e+001 2.769536e+001 2.187966e+001 8.444473e+001 2.116565e+002 9.278858e+001 4.351109e+001 2.140089e+001 6.337343e+001 2.775826e+001 2.401388e+001 1.587331e+001 8.392618e+000 3.154962e+000 2.355550e+000 1.529864e+000 2.231221e+000 4.515328e+000 2.898023e+000 2.526830e+000 1.882121e+000 2.774194e+000 3.084347e+000 1.737598e+000 1.237827e+000 6.847340e-001 3.053087e-001 3.407801e-001 2.278536e-001 3.597974e-001 5.326446e-001 4.815475e-001 4.392076e-001 3.549806e-001 4.439363e-001 5.424974e-001 2.937686e-001 2.361510e-001 1.142427e-001
<GCONST> 1.148598e+002
<STATE> 8
<MEAN> 39
 -1.469723e+001 -7.972902e+000 1.284502e+001 -1.730882e+001 -9.971628e+000 -1.590249e+001 5.266994e-001 9.704088e-001 -5.447892e+000 6.483623e+000 1.024624e+000 -1.943374e+000 6.080761e+001 4.825897e-001 -2.804615e-001 -7.687247e-003 -1.661308e-001 -5.340218e-001 2.154585e-001 -1.192226e-001 -1.457401e-001 -2.540778e-001 4.810310e-001 -6.756908e-002 -1.164536e-001 -7.650682e-002 -2.079366e-002 3.501803e-002 -3.611796e-002 6.053837e-002 8.873375e-002 9.249029e-002 7.362183e-003 3.121168e-002 4.194874e-002 1.805525e-002 -2.016562e-002 2.767461e-002 -7.308942e-002
<VARIANCE> 39
 5.437029e+001 4.646828e+001 4.042908e+001 1.167147e+002 1.428297e+002 4.893830e+001 3.461564e+001 3.783412e+001 6.441888e+001 1.043065e+002 8.622180e+001 2.913135e+001 1.683747e+001 2.454607e+000 3.068217e+000 2.060045e+000 2.358148e+000 5.975846e+000 2.912233e+000 1.924158e+000 1.810696e+000 2.219780e+000 4.593175e+000 2.130016e+000 1.252144e+000 1.152242e+000 3.725875e-001 3.925016e-001 2.798600e-001 2.252899e-001 7.681347e-001 4.477257e-001 3.549990e-001 3.342738e-001 3.520154e-001 5.822071e-001 3.011806e-001 2.115723e-001 1.256668e-001
<GCONST> 1.203176e+002
<STATE> 9
<MEAN> 39
 -1.159940e+001 -8.713983e+000 1.068225e+001 -2.091512e+001 -1.081784e+001 -9.397959e+000 2.081340e+000 4.273553e-002 -5.549776e+000 1.303062e+001 -1.442162e+000 -5.718451e-001 5.781525e+001 6.281023e-002 4.268994e-001 -4.125247e-001 8.322377e-001 3.307256e-001 7.509314e-001 -4.141325e-002 1.299009e-001 2.384549e-001 -2.688703e-001 -1.303799e-001 9.724202e-002 -7.060064e-001 2.010640e-002 -5.126943e-003 -5.687350e-002 2.391979e-002 -4.711548e-003 -5.689770e-002 -3.784517e-003 8.052039e-003 7.677244e-003 -8.072552e-002 1.863817e-002 4.140502e-003 2.344697e-002
<VARIANCE> 39
 4.074674e+000 3.276714e+001 2.654619e+001 1.209562e+002 2.747268e+001 4.686739e+001 3.010841e+001 1.570722e+001 2.282000e+001 5.216765e+001 3.756781e+001 1.146015e+001 4.343177e+001 1.892984e-001 4.766882e-001 8.261938e-001 1.543852e+000 1.208709e+000 1.733081e+000 1.060042e+000 1.323590e+000 1.524285e+000 1.849542e+000 1.678119e+000 7.591585e-001 2.020330e-001 3.958344e-002 9.376621e-002 9.692173e-002 1.577155e-001 1.827514e-001 3.620463e-001 2.010966e-001 2.889154e-001 3.159239e-001 3.511447e-001 2.348230e-001 1.667786e-001 2.335924e-002
<GCONST> 8.894501e+001
<TRANSP> 10
 0.000000e+000 1.000000e+000 0.000000e+000 0.000000e+000 0.000000e+000 0.000000e+000 0.000000e+000 0.000000e+000 0.000000e+000 0.000000e+000
 0.000000e+000 2.766343e-001 7.233657e-001 0.000000e+000 0.000000e+000 0.000000e+000 0.000000e+000 0.000000e+000 0.000000e+000 0.000000e+000
 0.000000e+000 0.000000e+000 2.177180e-001 7.822820e-001 0.000000e+000 0.000000e+000 0.000000e+000 0.000000e+000 0.000000e+000 0.000000e+000
 0.000000e+000 0.000000e+000 0.000000e+000 2.965033e-001 7.034968e-001 0.000000e+000 0.000000e+000 0.000000e+000 0.000000e+000 0.000000e+000
 0.000000e+000 0.000000e+000 0.000000e+000 0.000000e+000 5.284340e-001 4.715659e-001 0.000000e+000 0.000000e+000 0.000000e+000 0.000000e+000
 0.000000e+000 0.000000e+000 0.000000e+000 0.000000e+000 0.000000e+000 7.294809e-001 2.705190e-001 0.000000e+000 0.000000e+000 0.000000e+000
 0.000000e+000 0.000000e+000 0.000000e+000 0.000000e+000 0.000000e+000 0.000000e+000 8.525879e-001 1.474121e-001 0.000000e+000 0.000000e+000
 0.000000e+000 0.000000e+000 0.000000e+000 0.000000e+000 0.000000e+000 0.000000e+000 0.000000e+000 9.496288e-001 5.037120e-002 0.000000e+000
 0.000000e+000 0.000000e+000 0.000000e+000 0.000000e+000 0.000000e+000 0.000000e+000 0.000000e+000 0.000000e+000 9.083657e-001 9.163431e-002
 0.000000e+000 0.000000e+000 0.000000e+000 0.000000e+000 0.000000e+000 0.000000e+000 0.000000e+000 0.000000e+000 0.000000e+000 0.000000e+000
<ENDHMM>
~h "nula"
<BEGINHMM>
<NUMSTATES> 10
<STATE> 2
<MEAN> 39
 -9.176955e+000 1.852804e-001 -2.692377e+000 -2.679684e-001 -1.476152e+000 -3.924742e+000 -3.254162e+000 -1.101447e+000 -2.609282e+000 6.708440e-001 -7.681638e-001 9.483183e-002 4.527512e+001 2.724573e-001 2.181168e-001 -7.943452e-002 -4.370148e-001 -3.102756e-001 -5.175591e-001 -2.378197e-001 -1.858904e-001 -4.261159e-001 5.562721e-002 -1.662565e-001 -3.499991e-001 2.911453e-001 1.192441e-001 -7.524863e-003 -1.801423e-003 -3.644301e-001 -3.352483e-001 -2.213688e-001 -9.944633e-003 -2.844686e-002 -1.564961e-001 5.533376e-004 -3.227319e-002 -1.543686e-002 1.380857e-001
<VARIANCE> 39
 1.856121e+000 5.227610e+000 1.354035e+001 1.180176e+001 1.226620e+001 1.921445e+001 1.497583e+001 1.552961e+001 1.387357e+001 1.322120e+001 1.231011e+001 1.224887e+001 9.534389e+000 3.522800e-001 5.448620e-001 9.491667e-001 1.606823e+000 1.198120e+000 2.513762e+000 1.495370e+000 1.394433e+000 1.655529e+000 1.691902e+000 1.510637e+000 1.205399e+000 2.115830e-001 5.741014e-002 1.181771e-001 2.138870e-001 3.106177e-001 3.622196e-001 5.714954e-001 3.626200e-001 3.236299e-001 3.671547e-001 3.701618e-001 3.690622e-001 3.089781e-001 6.057950e-002
<GCONST> 8.470995e+001
<STATE> 3
<MEAN> 39
 -8.878511e+000 5.320318e-001 -2.393402e+000 -8.475406e-001 -1.682996e+000 -3.525942e+000 -2.430469e+000 -3.636308e-002 -3.292459e+000 8.339422e-001 -3.001327e-001 -1.181806e-001 4.660618e+001 5.242016e-001 1.993979e-001 -8.032671e-002 -1.268744e+000 -1.026724e+000 -1.047564e+000 -2.194176e-001 -3.186390e-001 -7.721743e-001 -7.029431e-002 -2.854127e-001 -3.041540e-001 5.317876e-001 2.039858e-001 -5.631712e-002 9.177725e-002 -3.942963e-001 -4.238431e-001 -3.304961e-001 -8.337247e-002 -1.738849e-001 -1.639400e-001 -3.705329e-002 -2.147797e-001 2.504440e-002 2.359761e-001
<VARIANCE> 39
 5.209390e+000 6.962740e+000 1.424329e+001 1.559384e+001 1.477372e+001 2.840957e+001 1.813698e+001 1.453290e+001 1.856704e+001 1.435327e+001 1.802888e+001 9.554010e+000 7.062191e+000 5.878113e-001 5.597265e-001 1.284911e+000 1.911728e+000 2.239160e+000 2.658411e+000 2.355508e+000 1.252144e+000 2.159663e+000 1.875382e+000 2.230070e+000 1.063275e+000 4.244267e-001 9.225822e-002 1.609827e-001 3.523366e-001 4.691293e-001 5.536361e-001 6.310146e-001 3.972659e-001 4.903409e-001 3.603753e-001 3.011174e-001 3.525501e-001 2.301280e-001 9.888119e-002
<GCONST> 9.328851e+001
<STATE> 4
<MEAN> 39
 -8.016232e+000 5.276658e-001 -2.072108e+000 -2.912432e+000 -3.452111e+000 -4.808374e+000 -2.519739e+000 -4.591913e-001 -4.031597e+000 3.794318e-001 -6.904362e-001 -3.407947e-001 4.777777e+001 9.012162e-001 1.521768e-001 2.637144e-002 -1.571308e+000 -1.449861e+000 -1.588862e+000 -4.144172e-001 -6.146491e-001 -1.004369e+000 -1.220007e-001 -8.555446e-001 -2.380270e-001 8.619468e-001 1.392336e-001 -1.475632e-001 1.543624e-001 -1.913498e-001 -2.476390e-001 -1.717499e-001 -1.608334e-001 -1.387192e-001 -7.419139e-003 4.515514e-002 -2.001442e-001 5.480789e-002 2.268218e-001
<VARIANCE> 39
 9.966902e+000 7.714483e+000 2.044798e+001 2.058468e+001 2.276447e+001 3.901206e+001 2.124787e+001 1.440010e+001 2.991399e+001 2.394511e+001 1.558693e+001 7.313109e+000 8.164060e+000 6.215014e-001 7.351057e-001 2.007727e+000 2.917067e+000 4.080144e+000 3.652201e+000 2.837738e+000 2.111463e+000 2.807916e+000 2.106514e+000 2.222380e+000 1.078790e+000 6.982139e-001 1.387865e-001 1.765857e-001 3.744949e-001 5.709776e-001 5.352172e-001 6.284583e-001 4.448113e-001 4.740761e-001 3.464708e-001 3.388619e-001 3.053984e-001 2.116339e-001 1.204485e-001
<GCONST> 1.008582e+002
<STATE> 5
<MEAN> 39
 -5.646384e+000 1.080488e+000 -2.108411e+000 -6.147260e+000 -6.658771e+000 -8.687348e+000 -3.503648e+000 -2.097625e+000 -6.461609e+000 5.300592e-001 -2.734619e+000 -2.710321e-001 4.993424e+001 9.499595e-001 -2.196113e-001 3.337482e-001 -1.665286e+000 -1.645464e+000 -1.470521e+000 -7.467986e-001 -8.145094e-001 -7.627197e-001 -7.517350e-002 -8.550451e-001 -1.638811e-001 1.141516e+000 -7.588229e-002 -2.403304e-001 1.152264e-001 1.247117e-001 1.085143e-001 2.057480e-001 -1.242871e-001 1.116638e-001 2.638085e-001 8.182174e-002 5.458633e-002 3.342652e-002 9.514020e-002
<VARIANCE> 39
 1.250103e+001 6.174466e+000 2.964094e+001 2.154550e+001 4.295248e+001 3.105410e+001 2.240370e+001 1.804815e+001 3.104296e+001 2.816924e+001 1.829439e+001 1.294955e+001 1.064509e+001 7.780567e-001 9.819454e-001 2.493477e+000 2.818535e+000 3.759870e+000 4.580777e+000 2.618062e+000 3.387467e+000 2.559952e+000 1.847321e+000 2.337602e+000 1.610647e+000 7.625188e-001 1.287281e-001 1.584796e-001 2.381219e-001 4.725436e-001 5.820591e-001 5.026364e-001 4.188743e-001 3.651692e-001 4.256353e-001 3.727609e-001 2.918219e-001 2.724704e-001 1.148931e-001
<GCONST> 1.038851e+002
<STATE> 6
<MEAN> 39
 -3.686459e+000 -2.791354e-001 -1.498018e+000 -8.892580e+000 -9.813018e+000 -1.051406e+001 -5.016215e+000 -3.786456e+000 -7.365946e+000 8.846419e-001 -3.758541e+000 -1.069084e+000 5.264214e+001 5.643153e-001 -7.039654e-001 3.163376e-001 -1.075473e+000 -9.854696e-001 -6.230556e-001 -7.168740e-001 -2.472682e-001 -3.776319e-002 1.440039e-001 -3.242396e-001 -1.671525e-001 1.090353e+000 -1.941439e-001 -2.045446e-001 -1.397058e-001 2.120249e-001 3.655684e-001 3.596754e-001 8.561848e-003 2.838979e-001 3.637643e-001 8.554906e-002 2.293011e-001 -1.821177e-002 -3.653492e-002
<VARIANCE> 39
 1.280052e+001 1.305169e+001 4.445218e+001 2.136196e+001 3.667295e+001 2.489323e+001 2.639408e+001 3.220374e+001 3.447079e+001 2.496012e+001 3.451021e+001 2.305614e+001 9.819121e+000 8.992690e-001 1.084073e+000 1.721435e+000 3.050773e+000 3.030937e+000 3.108776e+000 2.220245e+000 3.086912e+000 2.440873e+000 2.055038e+000 3.097932e+000 1.960803e+000 6.952586e-001 1.035963e-001 2.255494e-001 3.063115e-001 3.705088e-001 4.941897e-001 5.012046e-001 3.176528e-001 4.006609e-001 4.898928e-001 4.613041e-001 3.611898e-001 3.015421e-001 9.755117e-002
<GCONST> 1.063673e+002
<STATE> 7
<MEAN> 39
 -2.800712e+000 -4.285885e+000 -2.730670e+000 -1.229843e+001 -1.065808e+001 -9.288311e+000 -6.812890e+000 -3.266077e+000 -5.693562e+000 1.907261e+000 -2.058337e+000 -1.963003e+000 5.595235e+001 1.161020e-001 -9.115034e-001 -3.888866e-001 -9.737969e-001 8.669521e-002 2.328865e-001 -4.937692e-001 3.454275e-001 5.332014e-001 2.792642e-001 1.954205e-001 -3.587415e-001 8.426910e-001 -6.537320e-002 -4.503459e-002 -1.895465e-001 -4.406659e-002 2.693423e-001 2.017598e-001 3.996847e-002 7.244540e-002 1.330949e-001 5.647718e-002 1.330115e-001 -7.193980e-002 -4.744474e-002
<VARIANCE> 39
 2.324588e+001 2.587300e+001 5.650758e+001 4.472637e+001 3.597589e+001 3.822401e+001 4.929395e+001 4.999369e+001 4.832106e+001 3.137656e+001 6.727841e+001 3.128224e+001 9.945581e+000 9.038675e-001 1.862066e+000 1.522247e+000 2.890170e+000 2.740792e+000 2.678059e+000 2.801985e+000 2.312281e+000 3.092015e+000 2.661749e+000 3.795308e+000 2.284899e+000 6.365550e-001 1.908311e-001 2.836895e-001 2.921888e-001 5.666858e-001 5.255556e-001 5.541520e-001 4.527740e-001 4.665527e-001 5.538738e-001 4.785765e-001 6.852288e-001 3.844606e-001 9.636542e-002
<GCONST> 1.153965e+002
<STATE> 8
<MEAN> 39
 -3.664618e+000 -1.160056e+001 -7.783144e+000 -2.262131e+001 -2.009728e+000 -4.088050e+000 -6.850214e+000 -1.588492e+000 -3.403719e+000 6.194960e+000 -1.853350e+000 -4.026396e+000 6.206284e+001 -1.150640e-001 -4.768288e-001 -3.096905e-001 -4.955848e-001 6.860947e-001 4.964152e-001 2.540293e-001 2.087077e-001 9.294503e-002 2.197979e-001 -9.466532e-002 -1.184314e-001 2.488154e-001 -1.805495e-002 3.258321e-002 2.797648e-002 8.650508e-002 1.104431e-002 -4.102516e-003 5.567649e-002 4.642034e-003 -5.214361e-002 -2.780193e-002 -5.150377e-002 4.646322e-002 -4.696183e-002
<VARIANCE> 39
 1.553743e+001 3.264259e+001 4.651267e+001 9.067139e+001 1.097645e+002 5.880532e+001 8.096377e+001 5.710756e+001 7.375069e+001 5.552203e+001 6.510405e+001 4.051773e+001 3.195529e+001 5.894474e-001 1.595514e+000 1.392419e+000 3.291444e+000 4.767276e+000 3.156818e+000 2.822954e+000 3.275127e+000 3.499380e+000 3.347942e+000 3.625081e+000 2.315328e+000 7.726502e-001 8.981555e-002 2.512603e-001 2.313420e-001 5.126226e-001 7.770125e-001 5.139842e-001 4.822480e-001 6.193040e-001 6.035199e-001 6.070887e-001 5.587997e-001 3.827333e-001 6.918592e-002
<GCONST> 1.205839e+002
<STATE> 9
<MEAN> 39
 -7.147974e+000 -1.614650e+001 -8.128289e+000 -1.759717e+001 7.624664e+000 2.032461e+000 -3.058203e+000 3.669911e+000 -2.126291e+000 5.150378e+000 -9.509190e+000 -4.010914e+000 5.928368e+001 -1.012785e-001 5.466193e-001 8.897435e-002 9.802029e-001 -1.878132e-001 1.429573e-002 1.168864e-001 -1.008140e-002 5.048452e-002 -2.421885e-001 1.538066e-001 1.103694e-001 -6.797438e-001 8.697142e-003 4.706235e-002 1.696734e-002 4.761468e-003 -5.710688e-002 -3.673125e-002 -3.842791e-002 -1.820475e-002 3.021325e-002 8.477378e-003 9.161550e-002 1.357701e-002 -2.097413e-002
<VARIANCE> 39
 7.283114e+000 7.067997e+001 1.344741e+001 8.397625e+001 5.032126e+001 4.302271e+001 5.950502e+001 2.553192e+001 2.962178e+001 3.915886e+001 7.343867e+001 2.993279e+001 5.429554e+001 2.601668e-001 1.095346e+000 7.193553e-001 1.121236e+000 1.392136e+000 1.909603e+000 1.716929e+000 1.571749e+000 2.038383e+000 2.148971e+000 2.265216e+000 1.721361e+000 3.840145e-001 3.997145e-002 1.091087e-001 1.398321e-001 2.136009e-001 2.826267e-001 3.229416e-001 2.850018e-001 2.995975e-001 4.252715e-001 3.806457e-001 3.463345e-001 3.480696e-001 3.101920e-002
<GCONST> 9.987315e+001
<TRANSP> 10
 0.000000e+000 1.000000e+000 0.000000e+000 0.000000e+000 0.000000e+000 0.000000e+000 0.000000e+000 0.000000e+000 0.000000e+000 0.000000e+000
 0.000000e+000 3.446298e-001 6.553702e-001 0.000000e+000 0.000000e+000 0.000000e+000 0.000000e+000 0.000000e+000 0.000000e+000 0.000000e+000
 0.000000e+000 0.000000e+000 2.304847e-001 7.695153e-001 0.000000e+000 0.000000e+000 0.000000e+000 0.000000e+000 0.000000e+000 0.000000e+000
 0.000000e+000 0.000000e+000 0.000000e+000 2.914929e-001 7.085071e-001 0.000000e+000 0.000000e+000 0.000000e+000 0.000000e+000 0.000000e+000
 0.000000e+000 0.000000e+000 0.000000e+000 0.000000e+000 4.044581e-001 5.955419e-001 0.000000e+000 0.000000e+000 0.000000e+000 0.000000e+000
 0.000000e+000 0.000000e+000 0.000000e+000 0.000000e+000 0.000000e+000 5.655651e-001 4.344349e-001 0.000000e+000 0.000000e+000 0.000000e+000
 0.000000e+000 0.000000e+000 0.000000e+000 0.000000e+000 0.000000e+000 0.000000e+000 7.668258e-001 2.331742e-001 0.000000e+000 0.000000e+000
 0.000000e+000 0.000000e+000 0.000000e+000 0.000000e+000 0.000000e+000 0.000000e+000 0.000000e+000 9.560650e-001 4.393504e-002 0.000000e+000
 0.000000e+000 0.000000e+000 0.000000e+000 0.000000e+000 0.000000e+000 0.000000e+000 0.000000e+000 0.000000e+000 9.511769e-001 4.882306e-002
 0.000000e+000 0.000000e+000 0.000000e+000 0.000000e+000 0.000000e+000 0.000000e+000 0.000000e+000 0.000000e+000 0.000000e+000 0.000000e+000
<ENDHMM>
~h "devet"
<BEGINHMM>
<NUMSTATES> 10
<STATE> 2
<MEAN> 39
 -7.862395e+000 1.504753e+000 -1.532001e+000 1.123163e-001 -2.890177e+000 -2.321768e+000 -2.069782e+000 -9.984749e-002 -2.527480e+000 6.612420e-001 8.737769e-001 -1.676992e-001 4.657985e+001 3.014466e-001 1.688471e-001 1.954393e-001 -1.592493e-001 -5.730056e-001 -5.989420e-001 3.368117e-002 -1.056676e-001 -2.855558e-001 -2.359369e-001 -3.447625e-001 -1.580070e-001 2.763264e-001 -6.830145e-002 -2.079828e-001 1.064853e-001 -1.910844e-001 -5.181680e-002 -3.964527e-001 6.165640e-002 1.856262e-001 -6.048876e-002 -3.638227e-002 -1.110489e-001 1.607453e-001 1.488996e-001
<VARIANCE> 39
 3.441137e+000 4.732003e+000 5.743245e+000 6.206525e+000 2.001289e+001 1.680411e+001 1.605448e+001 1.380982e+001 1.265310e+001 1.201620e+001 8.100791e+000 7.838288e+000 1.049510e+000 2.825398e-001 5.538571e-001 5.362321e-001 1.054155e+000 1.555428e+000 1.546620e+000 1.528652e+000 1.330671e+000 1.199464e+000 1.138798e+000 1.221043e+000 1.044288e+000 1.210881e-001 9.858368e-002 6.903251e-002 1.314342e-001 1.669487e-001 5.431216e-001 6.308983e-001 3.862738e-001 3.821014e-001 4.001631e-001 3.063433e-001 3.402919e-001 2.115802e-001 5.488106e-002
<GCONST> 7.666385e+001
<STATE> 3
<MEAN> 39
 -7.615494e+000 1.150354e+000 -1.747703e+000 -1.380844e-001 -4.043674e+000 -3.339405e+000 -2.519115e+000 -7.696090e-001 -2.601502e+000 2.252510e-001 6.754357e-001 9.454221e-001 4.694777e+001 2.086899e-001 -2.339106e-001 2.604477e-001 -3.686277e-001 -5.940657e-001 -1.108298e+000 1.084301e-001 1.212389e-001 -3.528508e-001 -2.594075e-001 -2.995858e-001 -6.275962e-003 4.955785e-001 -1.076319e-001 -2.351188e-001 2.039739e-001 -3.581021e-001 -1.450109e-002 -5.443089e-001 -1.075807e-001 1.847522e-001 -2.478420e-002 1.387918e-001 -6.694081e-002 4.601126e-002 2.420720e-001
<VARIANCE> 39
 3.299731e+000 5.833962e+000 6.181537e+000 1.286645e+001 1.547825e+001 1.482260e+001 1.389971e+001 1.036894e+001 1.032000e+001 9.676804e+000 1.353051e+001 9.006813e+000 1.034314e+000 4.685855e-001 6.872881e-001 5.452665e-001 1.376624e+000 1.956534e+000 2.797847e+000 1.826628e+000 2.111434e+000 2.046667e+000 1.340712e+000 1.679651e+000 1.056534e+000 2.926801e-001 1.347505e-001 1.191168e-001 1.987710e-001 2.029153e-001 7.824067e-001 1.061491e+000 4.056962e-001 3.323356e-001 3.116848e-001 2.627605e-001 2.977241e-001 2.853265e-001 9.264630e-002
<GCONST> 8.396301e+001
<STATE> 4
<MEAN> 39
 -7.623096e+000 9.472084e-001 -9.651486e-001 -4.916465e-001 -4.268455e+000 -4.326376e+000 -1.511477e+000 4.729559e-001 -3.052228e+000 -7.353881e-001 5.204123e-001 4.488578e-001 4.743531e+001 1.476526e-001 -4.009466e-001 5.228197e-001 -9.677719e-001 -6.624321e-001 -1.942642e+000 -5.004299e-001 2.943249e-001 -3.936554e-001 -4.708520e-002 -4.458151e-001 7.415304e-002 7.726844e-001 -1.191263e-001 -3.048411e-001 2.790659e-001 -4.739383e-001 -1.086089e-001 -5.900365e-001 -1.767066e-001 1.574143e-001 4.735292e-002 2.883857e-001 -2.262191e-002 -4.459221e-002 3.778231e-001
<VARIANCE> 39
 5.301511e+000 1.015343e+001 6.844328e+000 1.682718e+001 1.684035e+001 2.534499e+001 1.751851e+001 1.555530e+001 9.441946e+000 8.821158e+000 1.473589e+001 1.192858e+001 2.579242e+000 8.008124e-001 7.392768e-001 1.087359e+000 1.693369e+000 3.483210e+000 6.632871e+000 2.260399e+000 2.516470e+000 1.819595e+000 1.633743e+000 2.239572e+000 1.393171e+000 6.059893e-001 1.761146e-001 2.091307e-001 2.917282e-001 3.830410e-001 7.259855e-001 8.791013e-001 4.682181e-001 3.610515e-001 2.828628e-001 2.566691e-001 2.243906e-001 2.486291e-001 1.439744e-001
<GCONST> 9.413696e+001
<STATE> 5
<MEAN> 39
 -7.035149e+000 -3.062922e-001 -6.482289e-001 -1.640891e+000 -5.862024e+000 -8.218463e+000 -2.692189e+000 1.047360e+000 -4.094243e+000 -3.126069e-001 -1.906391e-001 2.936798e-001 4.919495e+001 2.282766e-002 -6.498766e-001 8.110884e-001 -1.412491e+000 -7.820276e-001 -2.555389e+000 -5.604579e-001 4.453503e-001 -2.194220e-001 4.633637e-001 -4.971155e-001 -2.264202e-001 1.249924e+000 -1.418710e-001 -3.920079e-001 3.158571e-001 -4.750251e-001 -1.642511e-001 -2.652800e-001 3.740128e-002 2.609654e-001 1.406937e-001 2.873505e-001 9.989365e-002 -6.858382e-002 4.174132e-001
<VARIANCE> 39
 7.211192e+000 1.571265e+001 8.697860e+000 2.260776e+001 2.922259e+001 5.817156e+001 2.422482e+001 2.536993e+001 1.902702e+001 1.169077e+001 1.980623e+001 1.100679e+001 1.031766e+001 1.295154e+000 1.108603e+000 1.979029e+000 2.163076e+000 5.766638e+000 8.836793e+000 2.022524e+000 2.236577e+000 1.741910e+000 2.106622e+000 2.129344e+000 1.569641e+000 1.102000e+000 1.662087e-001 3.964398e-001 3.746442e-001 7.625956e-001 5.605238e-001 9.685417e-001 4.907746e-001 5.587215e-001 4.173250e-001 4.054415e-001 3.285745e-001 2.968206e-001 2.850798e-001
<GCONST> 1.072945e+002
<STATE> 6
<MEAN> 39
 -6.362719e+000 -2.680560e+000 -8.297779e-001 -2.351150e+000 -9.494488e+000 -1.600429e+001 -3.586482e+000 3.086552e+000 -3.529415e+000 1.983059e+000 -8.715730e-001 3.740838e-001 5.325234e+001 -7.298499e-002 -9.313669e-001 7.701480e-001 -1.231871e+000 -7.320314e-001 -1.893837e+000 -1.031750e-001 5.195763e-001 1.305730e-001 6.490034e-001 -2.782071e-001 -1.719809e-001 1.342966e+000 -1.096994e-001 -3.791320e-001 2.129674e-001 -3.029709e-001 -6.694143e-002 1.857347e-001 1.751136e-001 2.167505e-001 6.183689e-002 9.227596e-002 9.121141e-002 4.239342e-002 2.233776e-001
<VARIANCE> 39
 1.009895e+001 2.265847e+001 2.004854e+001 3.182622e+001 6.577923e+001 1.089450e+002 2.019668e+001 3.770185e+001 1.901136e+001 1.935452e+001 2.200571e+001 1.760485e+001 2.932451e+001 1.127832e+000 1.910568e+000 2.801440e+000 4.411247e+000 4.013784e+000 5.410487e+000 1.747791e+000 2.643197e+000 1.963882e+000 2.428773e+000 1.452889e+000 1.786637e+000 1.949177e+000 1.604374e-001 5.339153e-001 3.730495e-001 8.736355e-001 7.927467e-001 1.158489e+000 3.544286e-001 5.464212e-001 3.955841e-001 3.978001e-001 3.756825e-001 3.966043e-001 4.349223e-001
<GCONST> 1.155100e+002
<STATE> 7
<MEAN> 39
 -6.418829e+000 -4.985460e+000 2.855211e-001 -3.054820e+000 -1.086635e+001 -2.169647e+001 -2.733695e+000 4.026060e+000 -3.805406e+000 4.706380e+000 -1.524970e+000 1.627217e+000 5.590417e+001 -1.347693e-001 -1.047574e+000 8.378391e-001 -1.233654e+000 -6.965806e-001 -1.165471e+000 1.816367e-001 5.214961e-001 -1.004970e-001 4.651392e-001 -8.229118e-002 1.964210e-001 1.064404e+000 -1.292151e-002 -2.425635e-001 2.761522e-002 -1.616518e-001 -1.048033e-001 1.647191e-001 9.304915e-002 1.766813e-001 -1.125140e-002 -3.513397e-002 2.234402e-002 4.174126e-002 1.071231e-001
<VARIANCE> 39
 1.001838e+001 2.176401e+001 3.091043e+001 5.492617e+001 5.640797e+001 1.299441e+002 1.787953e+001 3.883306e+001 2.683527e+001 2.880593e+001 1.643709e+001 3.018855e+001 2.387408e+001 6.434096e-001 3.892419e+000 2.486288e+000 6.769371e+000 3.109922e+000 3.797013e+000 1.685242e+000 3.771335e+000 2.290092e+000 2.491285e+000 1.752947e+000 1.689670e+000 3.310894e+000 1.288453e-001 4.315040e-001 3.105556e-001 6.719966e-001 6.041452e-001 6.476683e-001 3.082562e-001 5.507147e-001 4.640619e-001 4.260703e-001 3.663507e-001 3.169089e-001 3.076723e-001
<GCONST> 1.159344e+002
<STATE> 8
<MEAN> 39
 -8.377388e+000 -1.085611e+001 5.397669e+000 -1.187798e+001 -1.190879e+001 -2.171376e+001 -1.179086e+000 7.523827e+000 -4.544610e+000 6.859693e+000 -3.009896e+000 2.280989e+000 5.988182e+001 -2.203372e-001 -1.060208e+000 4.229128e-001 -1.122648e+000 -2.747966e-001 7.290138e-002 3.327905e-001 7.674291e-001 9.789519e-003 3.135176e-001 -2.084388e-001 -7.285594e-002 7.995408e-001 1.260503e-002 2.030287e-001 -1.985444e-001 2.489631e-001 2.075540e-001 3.095883e-001 7.125060e-002 -1.087830e-001 3.575841e-003 -9.795877e-002 -2.743583e-002 -8.037987e-002 -2.109388e-001
<VARIANCE> 39
 1.074601e+001 4.017891e+001 5.811806e+001 1.220154e+002 3.891267e+001 1.163810e+002 3.615826e+001 4.316030e+001 2.839392e+001 3.857640e+001 3.242218e+001 3.443524e+001 2.152750e+001 4.025512e-001 4.272303e+000 1.715427e+000 5.953711e+000 3.006502e+000 3.295039e+000 2.331147e+000 4.006118e+000 2.450814e+000 2.551369e+000 2.183690e+000 2.136535e+000 3.038112e+000 7.789176e-002 4.389498e-001 2.758704e-001 8.128416e-001 5.141835e-001 6.193094e-001 3.397545e-001 5.238490e-001 4.321456e-001 4.812002e-001 3.985880e-001 3.462976e-001 3.129405e-001
<GCONST> 1.188928e+002
<STATE> 9
<MEAN> 39
 -1.035993e+001 -1.423960e+001 7.028466e+000 -1.930526e+001 -9.001792e+000 -1.120274e+001 4.023820e-001 9.950865e+000 -3.823626e+000 3.701786e+000 -3.901578e+000 -7.289275e-001 6.054762e+001 -2.041438e-002 2.890487e-001 -2.199596e-001 3.471581e-001 2.071816e-001 2.559103e-001 3.175103e-003 -1.450641e-001 7.689258e-002 -1.330481e-001 7.722768e-002 8.131304e-002 -3.271057e-001 1.017221e-002 2.987719e-002 -9.421048e-005 3.677630e-002 6.872075e-003 -1.193992e-003 -2.038692e-002 -2.658364e-002 -6.922225e-003 5.708552e-003 1.692269e-002 7.999052e-003 -2.821598e-002
<VARIANCE> 39
