~o
<STREAMINFO> 1 39
<VECSIZE> 39<NULLD><MFCC_D_A_0><DIAGC>
~h "ctyri"
<BEGINHMM>
<NUMSTATES> 10
<STATE> 2
<MEAN> 39
 -1.396645e+001 -1.221933e+001 6.038396e+000 3.528112e+000 -3.826271e+000 6.789767e-001 -3.883953e-001 -5.948778e+000 -1.938136e+000 4.431231e-001 1.765064e+000 -1.710389e+000 6.952054e+001 3.916481e-001 4.081433e-002 3.267563e-001 -3.231854e-003 -3.433106e-001 -3.867686e-001 -4.818117e-001 7.062347e-004 -2.806438e-001 -1.365443e-001 2.273204e-001 1.510029e-002 7.604228e-001 -2.457776e-002 5.219395e-002 -2.933708e-002 -3.053503e-002 -2.652811e-002 -1.781298e-002 -2.353293e-002 1.971065e-002 2.873129e-002 -1.275598e-002 -4.484025e-004 6.312867e-003 -6.186258e-002
<VARIANCE> 39
 7.999882e+001 4.176306e+001 4.415014e+001 4.833326e+001 8.479456e+001 1.302421e+002 1.977373e+002 6.880261e+001 9.683980e+001 7.632761e+001 5.259316e+001 4.070578e+001 1.185742e+002 4.421615e+000 3.031142e+000 2.725025e+000 3.166350e+000 8.595856e+000 6.281906e+000 8.888827e+000 6.324691e+000 6.167579e+000 3.682613e+000 4.193002e+000 4.366946e+000 6.217621e+000 6.833649e-001 5.202900e-001 4.914444e-001 5.957435e-001 1.535729e+000 1.106303e+000 1.384377e+000 1.127550e+000 1.040735e+000 6.984335e-001 8.010573e-001 8.122764e-001 6.574854e-001
<GCONST> 1.458087e+002
<STATE> 3
<MEAN> 39
 -1.239417e+001 -1.142235e+001 7.023088e+000 3.301773e+000 -4.980838e+000 -6.155285e-001 -2.415558e+000 -5.697960e+000 -2.887059e+000 -2.490114e-001 2.457482e+000 -1.642440e+000 7.142628e+001 3.441678e-001 2.337574e-001 2.108139e-001 -1.148589e-001 -3.016279e-001 -3.232117e-001 -4.776933e-001 8.077259e-002 -1.505748e-001 -1.794592e-001 1.623378e-001 3.483885e-002 4.656478e-001 -1.327933e-002 3.058852e-002 -2.803422e-002 -2.307451e-002 1.121849e-002 3.023625e-002 2.083318e-002 1.899060e-002 4.192746e-002 5.545098e-005 -1.506842e-002 3.609751e-003 -5.750225e-002
<VARIANCE> 39
 8.289419e+001 4.867173e+001 4.919767e+001 5.552840e+001 8.486910e+001 1.338170e+002 2.164713e+002 7.589524e+001 1.014622e+002 8.958788e+001 6.058622e+001 4.588761e+001 1.022241e+002 4.623126e+000 3.332808e+000 2.858170e+000 3.438972e+000 8.220798e+000 5.252676e+000 8.719959e+000 6.710406e+000 6.409735e+000 3.894316e+000 4.656261e+000 4.938278e+000 4.782195e+000 6.966199e-001 5.732545e-001 5.187248e-001 6.401509e-001 1.385988e+000 9.319682e-001 1.380143e+000 1.169392e+000 1.036616e+000 7.389880e-001 8.681786e-001 8.953152e-001 4.965583e-001
<GCONST> 1.468775e+002
<STATE> 4
<MEAN> 39
 -1.090402e+001 -1.015249e+001 7.693594e+000 2.678301e+000 -5.779522e+000 -1.497649e+000 -4.408660e+000 -5.183483e+000 -3.495389e+000 -1.114896e+000 2.792304e+000 -1.474426e+000 7.270068e+001 3.200691e-001 2.809048e-001 1.397968e-001 -1.769273e-001 -2.309358e-001 -1.829391e-001 -4.183099e-001 1.429174e-001 -6.644918e-002 -1.845635e-001 8.487064e-002 4.492112e-002 3.514093e-001 -2.244105e-003 -1.979128e-003 -1.442952e-002 -3.167737e-003 1.413090e-002 4.322102e-002 2.184259e-002 1.562409e-002 1.255678e-002 6.316316e-003 -1.668553e-002 -2.880415e-003 -2.633283e-002
<VARIANCE> 39
 8.117931e+001 5.430252e+001 5.509398e+001 6.118059e+001 8.533131e+001 1.290019e+002 2.070725e+002 8.235239e+001 1.025697e+002 9.683675e+001 6.799471e+001 4.841019e+001 1.016832e+002 5.236034e+000 3.649567e+000 2.995702e+000 3.856571e+000 7.788405e+000 4.556104e+000 8.272207e+000 6.846549e+000 6.815962e+000 4.125449e+000 4.967503e+000 5.227974e+000 3.839380e+000 7.830229e-001 6.119984e-001 5.580070e-001 7.230579e-001 1.235422e+000 8.263370e-001 1.312459e+000 1.175091e+000 1.065932e+000 7.811610e-001 9.143257e-001 9.462901e-001 4.215266e-001
<GCONST> 1.477267e+002
<STATE> 5
<MEAN> 39
 -9.500284e+000 -8.966059e+000 8.301225e+000 1.919126e+000 -6.548601e+000 -1.960638e+000 -6.399224e+000 -4.396425e+000 -4.068560e+000 -2.009985e+000 2.863747e+000 -1.311318e+000 7.413120e+001 3.190937e-001 2.242569e-001 1.279361e-001 -1.604566e-001 -2.390012e-001 -5.155357e-002 -3.954248e-001 2.069421e-001 -9.276611e-002 -1.644782e-001 2.825997e-002 1.691574e-002 3.470570e-001 3.720751e-003 -1.678825e-002 -1.091258e-003 1.713125e-002 -1.866900e-003 3.554527e-002 8.004142e-003 1.176482e-002 -1.821210e-002 7.581810e-003 -1.703887e-002 -1.174653e-002 -1.826899e-002
<VARIANCE> 39
 8.067052e+001 5.529679e+001 5.896079e+001 6.175331e+001 9.039449e+001 1.167338e+002 1.841645e+002 8.630424e+001 1.051967e+002 9.551208e+001 7.668241e+001 4.880435e+001 9.988567e+001 6.065658e+000 3.814033e+000 3.092235e+000 4.225211e+000 7.466927e+000 4.214050e+000 7.700974e+000 6.628649e+000 7.157136e+000 4.233559e+000 5.034732e+000 5.171126e+000 3.250990e+000 9.089352e-001 6.130437e-001 5.886836e-001 7.996293e-001 1.125124e+000 7.841991e-001 1.207112e+000 1.130908e+000 1.090489e+000 8.027735e-001 9.277166e-001 9.483956e-001 3.730729e-001
<GCONST> 1.478080e+002
<STATE> 6
<MEAN> 39
 -8.175710e+000 -8.076224e+000 8.969814e+000 1.293229e+000 -7.597957e+000 -2.047585e+000 -8.336137e+000 -3.352982e+000 -4.763418e+000 -2.807012e+000 2.782236e+000 -1.299875e+000 7.575212e+001 3.218016e-001 1.525377e-001 1.318324e-001 -9.166647e-002 -2.926493e-001 4.857880e-002 -3.607620e-001 2.435950e-001 -1.475759e-001 -1.283623e-001 -2.673986e-002 -2.963192e-002 2.947202e-001 1.859009e-003 -1.301504e-002 -2.020299e-003 2.277786e-002 -4.716494e-003 1.937502e-002 1.063522e-002 -2.004760e-003 -1.707124e-002 7.618553e-003 -2.303745e-002 -9.467787e-003 -3.645374e-002
<VARIANCE> 39
 8.382679e+001 5.220829e+001 5.872985e+001 5.680883e+001 9.843577e+001 9.968804e+001 1.592073e+002 8.648945e+001 1.082445e+002 8.612976e+001 8.695037e+001 4.848540e+001 8.781689e+001 6.897666e+000 3.686528e+000 3.094576e+000 4.359540e+000 7.131482e+000 4.037628e+000 7.051360e+000 6.161866e+000 7.196750e+000 4.141454e+000 4.839337e+000 4.810037e+000 2.781334e+000 1.036528e+000 5.672401e-001 5.960559e-001 8.283861e-001 1.033761e+000 7.606274e-001 1.091852e+000 1.053617e+000 1.085705e+000 7.903844e-001 9.000190e-001 8.986024e-001 3.124804e-001
<GCONST> 1.465268e+002
<STATE> 7
<MEAN> 39
 -6.920704e+000 -7.433352e+000 9.588185e+000 9.326988e-001 -8.856989e+000 -1.830947e+000 -9.860423e+000 -2.296326e+000 -5.396729e+000 -3.422766e+000 2.511834e+000 -1.414142e+000 7.702513e+001 3.214695e-001 1.070155e-001 9.508416e-002 -1.899008e-002 -2.976494e-001 9.621788e-002 -2.432161e-001 1.997651e-001 -1.351468e-001 -8.623758e-002 -1.092699e-001 -4.297813e-002 1.167842e-001 -1.396086e-003 -6.029933e-003 -1.580351e-002 1.576664e-002 1.482074e-002 -1.419228e-003 2.806385e-002 -2.471150e-002 7.036131e-003 7.135520e-003 -2.804866e-002 3.936412e-003 -5.895981e-002
<VARIANCE> 39
 8.953308e+001 4.696685e+001 5.489377e+001 4.929847e+001 1.040943e+002 8.252164e+001 1.356398e+002 8.251623e+001 1.077570e+002 7.273203e+001 9.622581e+001 4.849805e+001 6.929298e+001 7.544754e+000 3.334704e+000 3.011925e+000 4.223923e+000 6.677100e+000 3.897113e+000 6.383504e+000 5.657500e+000 6.950121e+000 3.924257e+000 4.492376e+000 4.285173e+000 2.374105e+000 1.137299e+000 4.897927e-001 5.800580e-001 8.010737e-001 9.398736e-001 7.284858e-001 9.847593e-001 9.683304e-001 1.053584e+000 7.515733e-001 8.419780e-001 8.142359e-001 2.378490e-001
<GCONST> 1.438765e+002
<STATE> 8
<MEAN> 39
 -5.641046e+000 -6.990324e+000 9.910520e+000 8.567852e-001 -9.980930e+000 -1.497662e+000 -1.054806e+001 -1.606185e+000 -5.698520e+000 -3.838577e+000 1.924238e+000 -1.480085e+000 7.733543e+001 3.269559e-001 6.976000e-002 -7.100875e-003 3.666577e-002 -1.970186e-001 7.296131e-002 -4.802366e-002 6.470525e-002 -4.714458e-002 -5.169474e-002 -2.058676e-001 -6.154734e-003 -1.641616e-001 -4.449656e-003 -5.894010e-003 -3.236706e-002 8.373047e-003 4.282494e-002 -1.896633e-002 3.816857e-002 -4.315945e-002 2.284848e-002 5.012757e-003 -2.032379e-002 1.410888e-002 -6.899615e-002
<VARIANCE> 39
 9.448219e+001 4.106213e+001 5.036253e+001 4.280043e+001 1.033915e+002 6.990493e+001 1.145160e+002 7.643757e+001 1.022143e+002 6.033305e+001 1.003711e+002 4.846610e+001 5.656407e+001 7.745800e+000 2.900247e+000 2.897155e+000 3.876384e+000 6.164051e+000 3.807618e+000 5.761169e+000 5.220103e+000 6.506990e+000 3.714712e+000 4.152538e+000 3.752263e+000 2.014388e+000 1.174502e+000 4.067395e-001 5.492058e-001 7.304894e-001 8.417869e-001 6.869868e-001 8.982539e-001 8.883094e-001 1.005927e+000 7.085786e-001 7.815217e-001 7.201157e-001 1.692755e-001
<GCONST> 1.404378e+002
<STATE> 9
<MEAN> 39
 -4.009601e+000 -6.696545e+000 9.869273e+000 1.402207e+000 -1.025605e+001 -1.205428e+000 -9.694101e+000 -1.590399e+000 -5.293666e+000 -4.377530e+000 8.882796e-002 -1.052955e+000 7.620779e+001 3.450383e-001 -3.321549e-002 -2.104811e-001 1.201494e-001 4.060437e-002 4.784803e-003 2.045392e-001 -1.344383e-001 5.579049e-002 -4.691273e-002 -2.454280e-001 4.330797e-002 -5.435596e-001 -1.466425e-002 -6.504593e-003 -4.274097e-002 9.438515e-003 6.054359e-002 -1.480030e-002 1.152086e-002 -4.040030e-002 1.539254e-003 5.177082e-003 3.192284e-003 9.046042e-005 -5.993624e-002
<VARIANCE> 39
 9.727595e+001 3.565475e+001 4.373953e+001 4.138793e+001 9.483438e+001 6.342691e+001 8.616019e+001 7.266066e+001 8.765808e+001 4.938770e+001 8.467735e+001 4.415489e+001 5.700158e+001 7.556867e+000 2.423116e+000 2.792061e+000 3.398369e+000 5.753915e+000 3.693506e+000 5.034403e+000 4.692773e+000 5.866168e+000 3.713584e+000 3.755973e+000 3.255925e+000 1.500464e+000 1.159586e+000 3.267978e-001 5.219461e-001 6.353438e-001 7.533924e-001 6.315922e-001 8.323206e-001 7.947100e-001 9.405677e-001 7.113801e-001 7.236227e-001 6.292683e-001 1.084297e-001
<GCONST> 1.361436e+002
<TRANSP> 10
 0.000000e+000 1.000000e+000 0.000000e+000 0.000000e+000 0.000000e+000 0.000000e+000 0.000000e+000 0.000000e+000 0.000000e+000 0.000000e+000
 0.000000e+000 7.644543e-001 2.355456e-001 0.000000e+000 0.000000e+000 0.000000e+000 0.000000e+000 0.000000e+000 0.000000e+000 0.000000e+000
 0.000000e+000 0.000000e+000 7.644544e-001 2.355456e-001 0.000000e+000 0.000000e+000 0.000000e+000 0.000000e+000 0.000000e+000 0.000000e+000
 0.000000e+000 0.000000e+000 0.000000e+000 7.644544e-001 2.355456e-001 0.000000e+000 0.000000e+000 0.000000e+000 0.000000e+000 0.000000e+000
 0.000000e+000 0.000000e+000 0.000000e+000 0.000000e+000 7.644545e-001 2.355455e-001 0.000000e+000 0.000000e+000 0.000000e+000 0.000000e+000
 0.000000e+000 0.000000e+000 0.000000e+000 0.000000e+000 0.000000e+000 7.644542e-001 2.355457e-001 0.000000e+000 0.000000e+000 0.000000e+000
 0.000000e+000 0.000000e+000 0.000000e+000 0.000000e+000 0.000000e+000 0.000000e+000 7.644545e-001 2.355456e-001 0.000000e+000 0.000000e+000
 0.000000e+000 0.000000e+000 0.000000e+000 0.000000e+000 0.000000e+000 0.000000e+000 0.000000e+000 7.644543e-001 2.355457e-001 0.000000e+000
 0.000000e+000 0.000000e+000 0.000000e+000 0.000000e+000 0.000000e+000 0.000000e+000 0.000000e+000 0.000000e+000 8.887546e-001 1.112454e-001
 0.000000e+000 0.000000e+000 0.000000e+000 0.000000e+000 0.000000e+000 0.000000e+000 0.000000e+000 0.000000e+000 0.000000e+000 0.000000e+000
<ENDHMM>
~h "sedm"
<BEGINHMM>
<NUMSTATES> 10
<STATE> 2
<MEAN> 39
 -8.930510e+000 -6.741602e+000 -1.864544e+000 4.092520e+000 -2.744315e+000 -3.290908e+000 -9.806778e+000 -5.654872e+000 -2.335917e-001 -3.587312e+000 -2.107600e+000 8.211377e-002 7.180883e+001 1.263472e+000 -6.111379e-002 5.673121e-001 -3.417239e-002 -3.171937e-001 -6.071936e-002 -6.526927e-001 -2.421391e-001 -2.103234e-001 -1.300751e-001 -2.813942e-002 -1.764417e-001 5.686189e-001 9.153640e-003 3.945457e-002 1.733587e-002 2.283590e-002 7.043477e-004 1.153474e-002 3.141166e-002 -1.352677e-002 -3.079186e-002 1.458391e-002 1.355517e-002 4.811596e-003 -7.122599e-002
<VARIANCE> 39
 2.107184e+002 6.465931e+001 7.229246e+001 6.311488e+001 6.576582e+001 6.181027e+001 1.489866e+002 1.020368e+002 1.130541e+002 5.791316e+001 7.425111e+001 4.358022e+001 1.051495e+002 5.038750e+000 4.872136e+000 3.204067e+000 5.430972e+000 3.664317e+000 4.779194e+000 1.119188e+001 6.310758e+000 4.542908e+000 3.296550e+000 5.210153e+000 4.853268e+000 5.924441e+000 7.058907e-001 7.475322e-001 5.549938e-001 8.369539e-001 7.132229e-001 9.556043e-001 1.873028e+000 1.132940e+000 8.298005e-001 6.310014e-001 9.432135e-001 9.960427e-001 8.273046e-001
<GCONST> 1.480434e+002
<STATE> 3
<MEAN> 39
 -3.866947e+000 -6.673731e+000 5.894647e-001 4.383555e+000 -4.148980e+000 -3.240609e+000 -1.204833e+001 -6.813890e+000 -1.445760e+000 -3.924765e+000 -2.012785e+000 -5.354615e-001 7.312933e+001 1.138932e+000 7.912099e-002 5.766249e-001 1.395424e-001 -3.192162e-001 1.437256e-002 -4.529251e-001 -3.059568e-001 -3.304548e-001 -6.995740e-002 4.253002e-002 -1.220161e-001 2.065821e-001 -4.503657e-002 2.772573e-002 -2.711284e-003 4.524010e-002 7.167722e-003 1.445690e-002 4.576285e-002 -1.505761e-002 -2.134888e-002 1.023906e-002 1.241774e-002 1.633145e-002 -7.760946e-002
<VARIANCE> 39
 1.812174e+002 5.940446e+001 6.720571e+001 7.126603e+001 6.517143e+001 6.816792e+001 1.593504e+002 1.095106e+002 1.254962e+002 5.806567e+001 8.260011e+001 4.480030e+001 5.598627e+001 4.426142e+000 4.498505e+000 3.040223e+000 5.598752e+000 3.386536e+000 4.783744e+000 1.226448e+001 6.674533e+000 4.495709e+000 3.306152e+000 5.612548e+000 4.657128e+000 4.346984e+000 6.428965e-001 7.341481e-001 5.610000e-001 8.547918e-001 6.689956e-001 9.461107e-001 2.048672e+000 1.156030e+000 8.394247e-001 6.340260e-001 1.013070e+000 9.236643e-001 6.096346e-001
<GCONST> 1.469114e+002
<STATE> 4
<MEAN> 39
 2.768167e-001 -6.196366e+000 2.857030e+000 5.478980e+000 -5.448879e+000 -3.009449e+000 -1.349934e+001 -8.319757e+000 -3.120719e+000 -4.124453e+000 -1.644603e+000 -8.295082e-001 7.318425e+001 8.807393e-001 1.513899e-001 5.215823e-001 3.249115e-001 -2.516376e-001 4.365615e-002 -2.920848e-001 -3.813042e-001 -4.101336e-001 -5.329712e-002 8.599407e-002 -3.689469e-002 -4.272749e-002 -6.580794e-002 1.001156e-002 -1.509054e-002 3.769406e-002 2.628350e-002 6.321627e-003 3.080506e-002 -1.320283e-002 -1.120181e-002 5.990088e-004 4.456507e-003 1.926496e-002 -4.567355e-002
<VARIANCE> 39
 1.307114e+002 5.319428e+001 5.835768e+001 7.800745e+001 6.051501e+001 7.500314e+001 1.666573e+002 1.100263e+002 1.250228e+002 5.653192e+001 8.472467e+001 4.725406e+001 3.279261e+001 3.542015e+000 3.875110e+000 2.784883e+000 5.380634e+000 3.038088e+000 4.674686e+000 1.217091e+001 6.607089e+000 4.409957e+000 3.395568e+000 5.721933e+000 4.626890e+000 2.858295e+000 5.202495e-001 6.696031e-001 5.302302e-001 8.461095e-001 5.875723e-001 9.174693e-001 2.063967e+000 1.122836e+000 8.457404e-001 6.535545e-001 1.025115e+000 8.769802e-001 4.292250e-001
<GCONST> 1.440541e+002
<STATE> 5
<MEAN> 39
 3.317428e+000 -5.513879e+000 4.810094e+000 7.120224e+000 -6.276583e+000 -2.779381e+000 -1.447234e+001 -1.010404e+001 -5.040845e+000 -4.354202e+000 -1.175905e+000 -7.671102e-001 7.264772e+001 6.114697e-001 1.754903e-001 4.430286e-001 4.156852e-001 -9.510251e-002 5.638012e-002 -1.958361e-001 -4.141611e-001 -4.331225e-001 -6.999310e-002 8.108848e-002 3.342162e-002 -1.414451e-001 -6.279081e-002 -4.463100e-004 -2.112760e-002 1.022581e-002 4.509337e-002 8.534098e-003 2.191107e-002 1.635671e-003 1.596434e-003 -5.192064e-003 -7.695757e-003 1.057844e-002 -1.574581e-002
<VARIANCE> 39
 8.392877e+001 4.850953e+001 5.140100e+001 8.015096e+001 5.515056e+001 8.180943e+001 1.661431e+002 1.039886e+002 1.129683e+002 5.420667e+001 8.154310e+001 5.086923e+001 2.377264e+001 2.641915e+000 3.194072e+000 2.510700e+000 4.929049e+000 2.724687e+000 4.407743e+000 1.111699e+001 6.167929e+000 4.318607e+000 3.498589e+000 5.560592e+000 4.764463e+000 1.882041e+000 3.865738e-001 5.669113e-001 4.764565e-001 8.120751e-001 4.939158e-001 8.571476e-001 1.902912e+000 1.040069e+000 8.421771e-001 6.807272e-001 9.806599e-001 8.682197e-001 3.012912e-001
<GCONST> 1.401283e+002
<STATE> 6
<MEAN> 39
 5.357275e+000 -4.744575e+000 6.444318e+000 8.833939e+000 -6.296607e+000 -2.473448e+000 -1.506523e+001 -1.184545e+001 -6.889001e+000 -4.698865e+000 -8.809980e-001 -5.312920e-001 7.196982e+001 3.734191e-001 1.702013e-001 3.509802e-001 3.899897e-001 1.237502e-001 1.077765e-001 -8.965042e-002 -3.597447e-001 -3.902668e-001 -9.822811e-002 1.186900e-002 4.151679e-002 -1.640397e-001 -5.570452e-002 -8.087494e-003 -2.838642e-002 -1.618261e-002 5.281388e-002 1.949592e-002 3.089256e-002 2.104376e-002 1.215045e-002 -5.789790e-003 -2.097850e-002 -6.443689e-003 -5.406442e-003
<VARIANCE> 39
 5.099812e+001 4.486606e+001 4.785339e+001 7.646790e+001 5.378758e+001 8.710617e+001 1.546699e+002 9.154802e+001 9.492357e+001 5.196029e+001 7.593515e+001 5.460217e+001 2.025278e+001 1.912303e+000 2.543653e+000 2.266928e+000 4.370035e+000 2.467505e+000 4.004768e+000 9.519266e+000 5.515878e+000 4.199461e+000 3.538975e+000 5.141772e+000 4.977942e+000 1.301890e+000 2.714253e-001 4.466170e-001 4.159575e-001 7.422757e-001 4.109937e-001 7.681270e-001 1.610611e+000 9.273127e-001 8.214009e-001 7.004812e-001 8.883751e-001 8.813581e-001 2.090414e-001
<GCONST> 1.354018e+002
<STATE> 7
<MEAN> 39
 6.496171e+000 -4.024358e+000 7.695569e+000 1.025414e+001 -5.352856e+000 -1.863466e+000 -1.510087e+001 -1.316375e+001 -8.415130e+000 -5.159752e+000 -1.022603e+000 -4.383520e-001 7.125454e+001 1.518065e-001 1.244771e-001 2.213698e-001 2.850010e-001 3.447407e-001 2.097456e-001 7.153453e-002 -2.339549e-001 -3.187487e-001 -1.190128e-001 -1.033048e-001 -2.497766e-002 -1.853894e-001 -5.412801e-002 -1.949497e-002 -4.037457e-002 -3.281995e-002 4.353823e-002 2.678681e-002 4.342126e-002 3.062894e-002 1.191518e-002 -2.313308e-003 -2.702124e-002 -2.197978e-002 -9.181825e-003
<VARIANCE> 39
 3.140969e+001 4.072546e+001 4.609636e+001 6.912443e+001 5.834004e+001 9.071198e+001 1.356620e+002 7.552103e+001 7.799720e+001 4.988628e+001 7.113593e+001 5.778694e+001 1.960244e+001 1.410622e+000 1.983791e+000 2.094465e+000 3.790578e+000 2.275830e+000 3.599113e+000 7.772271e+000 4.791687e+000 3.997783e+000 3.498881e+000 4.575409e+000 5.177899e+000 9.398035e-001 1.867779e-001 3.320640e-001 3.614724e-001 6.440231e-001 3.590810e-001 6.746607e-001 1.275420e+000 8.147739e-001 7.800786e-001 7.037233e-001 7.781193e-001 8.970552e-001 1.425277e-001
<GCONST> 1.303077e+002
<STATE> 8
<MEAN> 39
 6.735403e+000 -3.580518e+000 8.354669e+000 1.117705e+001 -3.561218e+000 -7.714099e-001 -1.439194e+001 -1.387338e+001 -9.622098e+000 -5.680144e+000 -1.684508e+000 -7.359669e-001 7.040984e+001 -7.699964e-002 1.752838e-002 3.482219e-002 1.344870e-001 4.978277e-001 3.262591e-001 2.637559e-001 -9.866912e-002 -2.729723e-001 -1.201232e-001 -2.150832e-001 -1.357827e-001 -2.355753e-001 -5.605062e-002 -3.391872e-002 -5.014316e-002 -4.167362e-002 1.917666e-002 2.075477e-002 4.442230e-002 2.631105e-002 5.661648e-003 4.251590e-003 -2.022486e-002 -2.733926e-002 -1.490462e-002
<VARIANCE> 39
 2.268339e+001 3.603234e+001 4.501378e+001 6.091842e+001 6.558105e+001 9.396390e+001 1.162949e+002 6.115655e+001 6.738581e+001 4.773614e+001 6.862151e+001 6.087192e+001 2.112286e+001 1.101634e+000 1.572419e+000 1.984141e+000 3.298131e+000 2.193824e+000 3.341616e+000 6.198924e+000 4.129378e+000 3.720160e+000 3.415169e+000 4.054514e+000 5.307733e+000 7.101396e-001 1.319490e-001 2.422575e-001 3.189754e-001 5.441656e-001 3.465049e-001 6.047149e-001 9.893806e-001 7.323064e-001 7.237723e-001 6.927043e-001 6.894912e-001 9.052171e-001 9.859964e-002
<GCONST> 1.257328e+002
<STATE> 9
<MEAN> 39
 5.669226e+000 -3.734619e+000 7.895282e+000 1.139522e+001 -5.214735e-001 1.653451e+000 -1.219117e+001 -1.413002e+001 -1.104614e+001 -6.143245e+000 -3.043802e+000 -1.660087e+000 6.894169e+001 -3.844298e-001 -2.110868e-001 -2.375763e-001 -8.135167e-002 5.438241e-001 4.120659e-001 4.688204e-001 3.100911e-002 -2.375235e-001 -8.782358e-002 -2.530244e-001 -2.554341e-001 -3.159450e-001 -4.983281e-002 -4.747060e-002 -4.397159e-002 -4.311053e-002 -2.164969e-002 -9.104568e-003 2.387348e-002 1.821706e-002 1.214863e-002 1.535741e-002 6.072324e-003 -1.387274e-002 -1.055788e-002
<VARIANCE> 39
 2.383055e+001 3.180146e+001 4.384195e+001 5.146930e+001 7.207850e+001 9.647823e+001 9.790680e+001 4.917642e+001 6.276641e+001 4.541777e+001 6.576825e+001 6.451083e+001 2.400458e+001 8.413810e-001 1.220600e+000 1.781411e+000 2.879055e+000 2.349549e+000 3.311507e+000 4.678258e+000 3.551489e+000 3.436837e+000 3.283788e+000 3.601065e+000 5.290955e+000 5.101051e-001 9.231608e-002 1.666916e-001 2.774329e-001 4.556330e-001 3.762017e-001 5.621319e-001 7.464886e-001 6.856765e-001 6.645364e-001 6.666374e-001 6.281106e-001 9.005328e-001 6.668560e-002
<GCONST> 1.215059e+002
<TRANSP> 10
 0.000000e+000 1.000000e+000 0.000000e+000 0.000000e+000 0.000000e+000 0.000000e+000 0.000000e+000 0.000000e+000 0.000000e+000 0.000000e+000
 0.000000e+000 7.650054e-001 2.349947e-001 0.000000e+000 0.000000e+000 0.000000e+000 0.000000e+000 0.000000e+000 0.000000e+000 0.000000e+000
 0.000000e+000 0.000000e+000 7.650054e-001 2.349945e-001 0.000000e+000 0.000000e+000 0.000000e+000 0.000000e+000 0.000000e+000 0.000000e+000
 0.000000e+000 0.000000e+000 0.000000e+000 7.650054e-001 2.349946e-001 0.000000e+000 0.000000e+000 0.000000e+000 0.000000e+000 0.000000e+000
 0.000000e+000 0.000000e+000 0.000000e+000 0.000000e+000 7.650056e-001 2.349944e-001 0.000000e+000 0.000000e+000 0.000000e+000 0.000000e+000
 0.000000e+000 0.000000e+000 0.000000e+000 0.000000e+000 0.000000e+000 7.650055e-001 2.349945e-001 0.000000e+000 0.000000e+000 0.000000e+000
 0.000000e+000 0.000000e+000 0.000000e+000 0.000000e+000 0.000000e+000 0.000000e+000 7.650055e-001 2.349945e-001 0.000000e+000 0.000000e+000
 0.000000e+000 0.000000e+000 0.000000e+000 0.000000e+000 0.000000e+000 0.000000e+000 0.000000e+000 7.650054e-001 2.349946e-001 0.000000e+000
 0.000000e+000 0.000000e+000 0.000000e+000 0.000000e+000 0.000000e+000 0.000000e+000 0.000000e+000 0.000000e+000 8.836813e-001 1.163187e-001
 0.000000e+000 0.000000e+000 0.000000e+000 0.000000e+000 0.000000e+000 0.000000e+000 0.000000e+000 0.000000e+000 0.000000e+000 0.000000e+000
<ENDHMM>
~h "sest"
<BEGINHMM>
<NUMSTATES> 10
<STATE> 2
<MEAN> 39
 -1.963322e+001 -1.110853e+001 -1.316167e+000 2.688392e+000 -3.458677e+000 -2.889610e+000 -3.670561e+000 -2.231525e+000 8.116706e-001 -1.954342e+000 -1.308083e+000 8.696984e-001 6.352634e+001 5.020632e-001 -4.164855e-001 6.061570e-001 2.232221e-001 7.652813e-002 -6.882298e-002 -5.959030e-001 -1.622550e-001 2.178675e-002 -1.945464e-001 -3.331591e-001 1.430590e-002 2.001917e+000 8.117356e-002 7.553022e-004 6.704671e-003 -4.511332e-002 3.356607e-003 -2.195950e-002 -7.372604e-002 1.463668e-002 -4.204870e-002 3.420683e-003 -5.170250e-002 -1.327868e-002 3.145726e-002
<VARIANCE> 39
 8.898852e+001 6.070737e+001 6.459856e+001 3.774310e+001 3.615076e+001 7.063623e+001 1.329259e+002 9.373147e+001 6.202274e+001 6.126562e+001 4.634414e+001 2.407771e+001 3.745089e+002 5.912744e+000 2.547901e+000 3.161884e+000 2.086693e+000 2.900816e+000 4.730642e+000 7.664518e+000 6.087521e+000 4.255315e+000 4.722982e+000 2.927608e+000 2.543654e+000 1.688425e+001 8.491338e-001 4.161666e-001 4.932364e-001 3.164107e-001 5.095098e-001 8.584375e-001 1.147895e+000 1.018447e+000 7.906711e-001 9.470817e-001 5.226167e-001 5.015501e-001 2.814299e+000
<GCONST> 1.412659e+002
<STATE> 3
<MEAN> 39
 -1.753287e+001 -1.244238e+001 5.346682e-001 3.160288e+000 -3.128823e+000 -3.165916e+000 -6.070537e+000 -2.686692e+000 6.261162e-001 -2.585817e+000 -2.682289e+000 8.767400e-001 6.988293e+001 7.032596e-001 -2.967550e-001 4.588058e-001 2.734537e-002 9.104263e-002 -1.053225e-001 -7.923250e-001 -2.592588e-002 -1.104435e-001 -1.755174e-001 -4.631200e-001 -3.276996e-002 1.726987e+000 3.587924e-002 4.766330e-002 -5.949847e-002 -5.395707e-002 5.426684e-003 -5.574476e-003 -2.668014e-002 4.194820e-002 -2.633487e-002 1.115117e-002 -3.365838e-002 -1.695739e-002 -1.099835e-001
<VARIANCE> 39
 1.168245e+002 7.170450e+001 6.331804e+001 4.294421e+001 4.943080e+001 8.364658e+001 1.922211e+002 1.212654e+002 8.433945e+001 7.479017e+001 6.052453e+001 3.104441e+001 2.847983e+002 7.197282e+000 3.036336e+000 3.471812e+000 2.339141e+000 3.273334e+000 5.673311e+000 9.110548e+000 6.859105e+000 4.985763e+000 5.437426e+000 3.280125e+000 3.002573e+000 1.576808e+001 1.011746e+000 4.495097e-001 5.154622e-001 3.434305e-001 5.588469e-001 1.031383e+000 1.343814e+000 1.144182e+000 9.358711e-001 1.062390e+000 5.930345e-001 5.764651e-001 2.516145e+000
<GCONST> 1.467262e+002
<STATE> 4
<MEAN> 39
 -1.509692e+001 -1.304318e+001 1.439123e+000 2.954440e+000 -2.671584e+000 -3.387299e+000 -8.711290e+000 -2.423650e+000 1.401935e-001 -3.079969e+000 -4.322420e+000 6.890477e-001 7.429303e+001 6.908731e-001 -3.874547e-002 1.414029e-001 -1.316440e-001 1.378742e-001 -9.054425e-002 -7.206656e-001 1.421172e-001 -1.468575e-001 -1.033876e-001 -5.110389e-001 -8.057611e-002 1.104398e+000 -3.641798e-002 8.247135e-002 -9.848696e-002 -3.063937e-002 1.936250e-002 3.889543e-003 6.186463e-002 3.021308e-002 2.643789e-003 2.872696e-002 -2.896595e-003 -6.297288e-003 -1.910155e-001
<VARIANCE> 39
 1.344438e+002 8.847079e+001 5.961055e+001 4.846023e+001 6.775587e+001 9.094329e+001 2.299338e+002 1.441601e+002 1.045210e+002 8.349512e+001 7.114771e+001 3.873243e+001 1.779176e+002 7.631072e+000 3.478568e+000 3.417708e+000 2.341512e+000 3.654827e+000 5.956504e+000 9.608733e+000 6.957792e+000 5.325024e+000 5.979462e+000 3.629808e+000 3.417396e+000 1.189863e+001 1.021948e+000 4.549286e-001 4.876285e-001 3.537956e-001 5.957210e-001 1.086120e+000 1.372657e+000 1.179268e+000 1.022514e+000 1.158869e+000 6.725279e-001 6.522897e-001 1.779429e+000
<GCONST> 1.488835e+002
<STATE> 5
<MEAN> 39
 -1.311508e+001 -1.258421e+001 1.167517e+000 2.356947e+000 -1.983241e+000 -3.575118e+000 -1.058863e+001 -1.693468e+000 -2.765333e-001 -3.239073e+000 -5.925321e+000 4.218229e-001 7.642154e+001 4.591304e-001 2.792474e-001 -1.986781e-001 -1.858981e-001 2.215263e-001 -9.941767e-002 -3.802320e-001 1.860079e-001 -9.318913e-002 7.007955e-003 -4.615088e-001 -6.953504e-002 4.436876e-001 -8.823859e-002 8.795236e-002 -9.293137e-002 -4.537442e-004 2.952836e-002 -6.539319e-003 1.244719e-001 -1.066965e-002 2.226663e-002 3.097286e-002 2.566162e-002 1.240658e-002 -1.867447e-001
<VARIANCE> 39
 1.401661e+002 1.143675e+002 5.904960e+001 5.108644e+001 8.970966e+001 9.371294e+001 2.377069e+002 1.559430e+002 1.171148e+002 8.358999e+001 7.641926e+001 4.432887e+001 1.059659e+002 7.408128e+000 3.668867e+000 3.087067e+000 2.230068e+000 4.033231e+000 5.729666e+000 9.597270e+000 6.719497e+000 5.409804e+000 6.224201e+000 3.918774e+000 3.600433e+000 7.258263e+000 9.260337e-001 4.365833e-001 4.517234e-001 3.496391e-001 6.297764e-001 1.050577e+000 1.310957e+000 1.152013e+000 1.051844e+000 1.225917e+000 7.432070e-001 6.920681e-001 1.051014e+000
<GCONST> 1.484800e+002
<STATE> 6
<MEAN> 39
 -1.211745e+001 -1.108152e+001 -5.997892e-002 1.704898e+000 -1.023173e+000 -3.949038e+000 -1.113233e+001 -1.064430e+000 -4.433161e-001 -3.073172e+000 -7.240135e+000 2.786139e-001 7.673960e+001 1.329441e-001 5.418580e-001 -4.453655e-001 -1.594608e-001 3.096488e-001 -1.556666e-001 5.544240e-002 8.812713e-002 -1.390603e-002 8.072945e-002 -3.448604e-001 -1.707172e-002 -5.906281e-002 -9.677893e-002 5.955817e-002 -6.049218e-002 1.568718e-002 2.577198e-002 -1.294635e-002 1.306458e-001 -3.848353e-002 2.470934e-002 1.306111e-002 4.456878e-002 1.425290e-002 -1.344782e-001
<VARIANCE> 39
 1.420000e+002 1.443261e+002 6.094571e+001 4.909224e+001 1.105334e+002 9.613482e+001 2.268923e+002 1.543718e+002 1.199500e+002 7.695073e+001 7.776176e+001 4.623409e+001 7.474547e+001 6.820695e+000 3.572476e+000 2.807492e+000 2.115857e+000 4.330009e+000 5.348213e+000 9.465530e+000 6.612386e+000 5.463200e+000 6.227944e+000 4.097411e+000 3.549341e+000 3.812082e+000 8.110888e-001 4.073904e-001 4.370986e-001 3.383281e-001 6.543882e-001 9.800031e-001 1.284739e+000 1.129756e+000 1.048993e+000 1.259734e+000 7.931361e-001 6.891419e-001 5.629740e-001
<GCONST> 1.467814e+002
<STATE> 7
<MEAN> 39
 -1.218515e+001 -8.908115e+000 -1.830515e+000 1.182720e+000 1.424850e-001 -4.582602e+000 -1.037728e+001 -8.920384e-001 -4.209131e-001 -2.785617e+000 -8.122848e+000 2.854570e-001 7.590890e+001 -1.592959e-001 6.632360e-001 -5.649501e-001 -1.017345e-001 3.643906e-001 -1.901270e-001 4.229415e-001 -5.636267e-002 3.858349e-002 9.109959e-002 -1.838268e-001 8.911822e-003 -3.686580e-001 -7.181285e-002 1.340155e-002 -2.246310e-002 1.985620e-002 1.016646e-002 1.247183e-003 9.231231e-002 -3.739341e-002 1.428900e-002 -5.704645e-004 5.844046e-002 -7.995932e-004 -7.642601e-002
<VARIANCE> 39
 1.444147e+002 1.670019e+002 6.174575e+001 4.432901e+001 1.234030e+002 1.004524e+002 2.068358e+002 1.436584e+002 1.131106e+002 6.906376e+001 7.740318e+001 4.576747e+001 6.607413e+001 6.093278e+000 3.395746e+000 2.747023e+000 2.030418e+000 4.391655e+000 5.009448e+000 9.172692e+000 6.686957e+000 5.576578e+000 6.043436e+000 4.205795e+000 3.384563e+000 2.077754e+000 7.131509e-001 3.775704e-001 4.438609e-001 3.296352e-001 6.459782e-001 9.013463e-001 1.299836e+000 1.152578e+000 1.033918e+000 1.249733e+000 8.210621e-001 6.623521e-001 3.136947e-001
<GCONST> 1.447114e+002
<STATE> 8
<MEAN> 39
 -1.306224e+001 -6.590739e+000 -3.746261e+000 8.638400e-001 1.377616e+000 -5.227407e+000 -8.709006e+000 -1.186644e+000 -3.807321e-001 -2.507346e+000 -8.451906e+000 3.056127e-001 7.443511e+001 -3.336086e-001 6.248888e-001 -5.661022e-001 -3.093386e-002 3.635355e-001 -1.388090e-001 6.322659e-001 -1.685412e-001 3.994149e-002 9.391400e-002 1.440586e-002 -1.140546e-002 -5.297561e-001 -2.979914e-002 -3.301553e-002 1.379291e-002 2.410574e-002 -1.071632e-002 1.860514e-002 3.069152e-002 -2.287840e-002 -2.121139e-003 6.009571e-003 6.382626e-002 -9.592974e-003 -3.142453e-002
<VARIANCE> 39
 1.437996e+002 1.726040e+002 5.959833e+001 4.062959e+001 1.239485e+002 1.044989e+002 1.789816e+002 1.308774e+002 9.982375e+001 6.417464e+001 7.658627e+001 4.583900e+001 6.482958e+001 5.369215e+000 3.308327e+000 2.793066e+000 1.989040e+000 4.120919e+000 4.691786e+000 8.363886e+000 6.703295e+000 5.640709e+000 5.660765e+000 4.237231e+000 3.225378e+000 1.451329e+000 6.241723e-001 3.498072e-001 4.522327e-001 3.331652e-001 5.928227e-001 8.141820e-001 1.262228e+000 1.196547e+000 1.017082e+000 1.184415e+000 8.237435e-001 6.379253e-001 2.134590e-001
<GCONST> 1.425190e+002
<STATE> 9
<MEAN> 39
 -1.316426e+001 -5.436358e+000 -4.860207e+000 9.711292e-001 1.519755e+000 -4.763079e+000 -5.893754e+000 -1.368606e+000 -1.722475e+000 -2.109787e+000 -6.171045e+000 1.054389e-001 7.110702e+001 -2.250918e-001 3.686695e-001 -3.456748e-001 5.860757e-002 1.940644e-001 -2.954812e-002 4.858534e-001 -2.254269e-001 -7.918549e-002 1.241754e-001 2.062674e-001 3.282704e-004 -4.489891e-001 1.756698e-002 -6.115897e-002 3.729181e-002 2.784837e-002 -2.894364e-002 9.707712e-003 -2.532873e-002 -1.063933e-002 -3.818393e-003 8.701768e-003 4.000256e-002 4.248989e-003 2.395171e-003
<VARIANCE> 39
 1.314730e+002 1.499729e+002 5.719215e+001 3.850279e+001 1.140897e+002 1.066347e+002 1.301564e+002 1.184286e+002 9.714388e+001 5.501802e+001 8.303880e+001 4.938810e+001 8.315048e+001 4.030665e+000 3.087270e+000 2.629483e+000 1.982627e+000 3.558247e+000 4.044925e+000 6.393835e+000 6.352315e+000 5.737708e+000 4.692480e+000 3.834168e+000 3.378750e+000 1.603868e+000 4.460602e-001 3.129078e-001 4.209824e-001 3.450103e-001 5.151324e-001 6.804885e-001 1.038997e+000 1.159346e+000 1.088572e+000 9.887812e-001 7.447733e-001 6.970407e-001 1.932975e-001
<GCONST> 1.395206e+002
<TRANSP> 10
 0.000000e+000 1.000000e+000 0.000000e+000 0.000000e+000 0.000000e+000 0.000000e+000 0.000000e+000 0.000000e+000 0.000000e+000 0.000000e+000
 0.000000e+000 7.259787e-001 2.740214e-001 0.000000e+000 0.000000e+000 0.000000e+000 0.000000e+000 0.000000e+000 0.000000e+000 0.000000e+000
 0.000000e+000 0.000000e+000 7.259786e-001 2.740214e-001 0.000000e+000 0.000000e+000 0.000000e+000 0.000000e+000 0.000000e+000 0.000000e+000
 0.000000e+000 0.000000e+000 0.000000e+000 7.259789e-001 2.740211e-001 0.000000e+000 0.000000e+000 0.000000e+000 0.000000e+000 0.000000e+000
 0.000000e+000 0.000000e+000 0.000000e+000 0.000000e+000 7.259787e-001 2.740214e-001 0.000000e+000 0.000000e+000 0.000000e+000 0.000000e+000
 0.000000e+000 0.000000e+000 0.000000e+000 0.000000e+000 0.000000e+000 7.259788e-001 2.740212e-001 0.000000e+000 0.000000e+000 0.000000e+000
 0.000000e+000 0.000000e+000 0.000000e+000 0.000000e+000 0.000000e+000 0.000000e+000 7.259787e-001 2.740213e-001 0.000000e+000 0.000000e+000
 0.000000e+000 0.000000e+000 0.000000e+000 0.000000e+000 0.000000e+000 0.000000e+000 0.000000e+000 7.259787e-001 2.740212e-001 0.000000e+000
 0.000000e+000 0.000000e+000 0.000000e+000 0.000000e+000 0.000000e+000 0.000000e+000 0.000000e+000 0.000000e+000 8.597537e-001 1.402463e-001
 0.000000e+000 0.000000e+000 0.000000e+000 0.000000e+000 0.000000e+000 0.000000e+000 0.000000e+000 0.000000e+000 0.000000e+000 0.000000e+000
<ENDHMM>
~h "vymazat"
<BEGINHMM>
<NUMSTATES> 10
<STATE> 2
<MEAN> 39
 -1.895619e-001 -7.006516e+000 6.110424e+000 4.080440e+000 -8.237391e+000 -3.458572e+000 -1.712225e+001 -4.744061e+000 -5.329648e+000 -3.799973e+000 1.557774e+000 -1.028481e+000 7.271748e+001 4.653297e-001 -1.140790e-002 1.602685e-001 -3.619426e-001 -2.380715e-002 2.918461e-002 -2.795081e-001 1.934419e-001 8.854959e-003 -6.215844e-002 1.518675e-001 -7.925699e-002 7.566941e-001 -1.777155e-002 -3.954358e-004 -7.458781e-002 -3.034021e-002 7.855899e-002 5.059914e-002 6.369594e-002 -2.627278e-002 8.509236e-003 2.702546e-002 -2.893808e-002 -4.983454e-002 -7.276422e-002
<VARIANCE> 39
 5.098402e+001 3.801757e+001 6.924249e+001 7.100864e+001 9.573132e+001 9.022721e+001 6.898649e+001 7.096236e+001 7.737605e+001 5.471059e+001 8.911845e+001 4.943679e+001 6.822643e+001 3.354063e+000 2.916974e+000 4.619922e+000 5.212409e+000 5.344848e+000 4.906721e+000 5.332939e+000 6.967299e+000 4.787570e+000 3.723496e+000 4.242823e+000 4.163242e+000 3.362914e+000 5.253841e-001 4.781896e-001 6.300240e-001 8.237579e-001 7.337365e-001 8.733304e-001 8.946599e-001 1.070515e+000 9.685774e-001 7.425388e-001 7.872534e-001 7.033975e-001 4.271767e-001
<GCONST> 1.412838e+002
<STATE> 3
<MEAN> 39
 1.503054e+000 -6.993657e+000 5.662045e+000 2.237864e+000 -7.218257e+000 -2.699312e+000 -1.756649e+001 -4.493464e+000 -5.251877e+000 -3.748377e+000 1.690087e+000 -1.929326e+000 7.503213e+001 3.379858e-001 5.100797e-002 -2.524342e-001 -4.760810e-001 3.669879e-001 2.209055e-001 -3.592652e-002 1.792519e-002 3.518420e-002 5.837626e-002 -4.585648e-002 -2.450794e-001 4.590332e-001 -3.750214e-002 2.000546e-002 -9.093179e-002 -2.355707e-002 8.117441e-002 3.273092e-002 5.115278e-002 -3.339510e-002 9.989019e-003 2.757036e-002 -4.604828e-002 -2.612760e-002 -6.070424e-002
<VARIANCE> 39
 4.103679e+001 3.839541e+001 7.651451e+001 8.357405e+001 1.013329e+002 1.001563e+002 7.224822e+001 7.098133e+001 8.684335e+001 6.032142e+001 8.640286e+001 5.129242e+001 4.104988e+001 2.720409e+000 2.939536e+000 4.264775e+000 5.817591e+000 4.787153e+000 4.862401e+000 5.636067e+000 7.194881e+000 4.607800e+000 3.574749e+000 3.855340e+000 3.912566e+000 2.750684e+000 4.099357e-001 4.384521e-001 5.820479e-001 8.810184e-001 6.404465e-001 8.096035e-001 9.176412e-001 1.076717e+000 9.238979e-001 7.020918e-001 7.017828e-001 6.515411e-001 3.307698e-001
<GCONST> 1.395384e+002
<STATE> 4
<MEAN> 39
 2.427870e+000 -6.520528e+000 3.531414e+000 -8.104783e-002 -4.758008e+000 -1.434746e+000 -1.724358e+001 -4.735229e+000 -4.968355e+000 -3.229736e+000 9.274189e-001 -3.150828e+000 7.637999e+001 1.293625e-001 1.731518e-001 -5.891903e-001 -5.656843e-001 6.303064e-001 2.712719e-001 1.243133e-001 -5.538837e-002 1.008044e-001 1.643068e-001 -2.390669e-001 -2.648929e-001 2.709092e-001 -4.984640e-002 2.749041e-002 -5.940122e-002 -1.274989e-002 3.965399e-002 -3.553780e-003 3.093828e-002 -9.002176e-003 1.663133e-002 2.373309e-002 -3.826085e-002 6.505352e-003 -3.551069e-002
<VARIANCE> 39
 3.562557e+001 4.521745e+001 8.869456e+001 9.568766e+001 1.045205e+002 1.108705e+002 8.560373e+001 7.290501e+001 9.395488e+001 6.549796e+001 8.398162e+001 5.124158e+001 2.697092e+001 2.470748e+000 3.452589e+000 3.738399e+000 6.314370e+000 3.835966e+000 5.255923e+000 6.482547e+000 7.628850e+000 4.426163e+000 3.585875e+000 3.456922e+000 3.750569e+000 2.192239e+000 3.573675e-001 4.703318e-001 5.679390e-001 9.284076e-001 5.326816e-001 8.144934e-001 1.019149e+000 1.159732e+000 8.796804e-001 7.002652e-001 6.311361e-001 6.157945e-001 2.676160e-001
<GCONST> 1.390742e+002
<STATE> 5
<MEAN> 39
 2.388840e+000 -5.448354e+000 4.731761e-001 -2.623903e+000 -1.756458e+000 -4.229348e-001 -1.644870e+001 -4.984864e+000 -4.343716e+000 -2.330853e+000 -4.779331e-001 -4.135056e+000 7.724262e+001 -8.207731e-002 2.938162e-001 -7.164776e-001 -5.695043e-001 6.602375e-001 1.558760e-001 2.108053e-001 -4.169784e-002 1.752862e-001 2.560458e-001 -3.557872e-001 -1.759949e-001 1.758274e-001 -3.912500e-002 1.779831e-002 -8.583673e-003 9.239348e-003 -1.415622e-002 -3.265015e-002 1.186448e-002 5.348513e-003 1.290920e-002 2.155491e-002 -1.808348e-002 2.407609e-002 -1.990820e-002
<VARIANCE> 39
 3.747832e+001 5.921311e+001 9.369534e+001 9.714510e+001 9.756190e+001 1.174303e+002 1.039935e+002 7.281203e+001 9.858524e+001 7.080956e+001 8.275494e+001 4.870658e+001 2.012426e+001 2.655919e+000 4.421864e+000 3.600135e+000 6.408001e+000 3.186258e+000 5.844214e+000 7.866144e+000 7.933449e+000 4.147788e+000 3.782358e+000 3.311525e+000 3.649783e+000 1.787093e+000 3.864918e-001 5.680171e-001 6.026706e-001 9.216941e-001 4.550731e-001 8.439178e-001 1.181864e+000 1.232991e+000 8.196152e-001 7.255245e-001 6.086640e-001 5.882697e-001 2.249458e-001
<GCONST> 1.396935e+002
<STATE> 6
<MEAN> 39
 1.619123e+000 -3.959168e+000 -2.584777e+000 -4.892218e+000 8.300814e-001 -1.904841e-001 -1.544302e+001 -5.105421e+000 -3.463802e+000 -1.047848e+000 -2.144855e+000 -4.616786e+000 7.783008e+001 -1.896761e-001 3.254765e-001 -6.370435e-001 -4.701852e-001 4.868804e-001 -1.796542e-002 2.177364e-001 -9.134680e-003 2.061689e-001 3.500856e-001 -3.798739e-001 -6.026017e-002 1.053676e-001 -7.792123e-003 -9.665539e-003 3.228132e-002 2.667657e-002 -5.252776e-002 -3.120313e-002 -6.491471e-003 8.575808e-003 -1.351269e-003 1.960496e-002 2.452770e-003 2.240373e-002 -2.018673e-002
<VARIANCE> 39
 4.286088e+001 7.434431e+001 8.615253e+001 8.510180e+001 8.183263e+001 1.175930e+002 1.201152e+002 7.153999e+001 1.003618e+002 7.883469e+001 8.201500e+001 4.547946e+001 1.635661e+001 3.151730e+000 5.603931e+000 3.923240e+000 6.006883e+000 2.989351e+000 6.220250e+000 9.404673e+000 7.947668e+000 3.744934e+000 4.106461e+000 3.436175e+000 3.544942e+000 1.522456e+000 4.698372e-001 6.949367e-001 6.672314e-001 8.475733e-001 4.224598e-001 8.624888e-001 1.357259e+000 1.260494e+000 7.375215e-001 7.552539e-001 6.279630e-001 5.702437e-001 1.953943e-001
<GCONST> 1.403840e+002
<STATE> 7
<MEAN> 39
 7.420161e-001 -2.633881e+000 -4.936244e+000 -6.577358e+000 2.363508e+000 -6.079677e-001 -1.461303e+001 -5.086728e+000 -2.594816e+000 6.447912e-001 -3.710787e+000 -4.654329e+000 7.811095e+001 -1.387677e-001 2.085555e-001 -4.311131e-001 -3.371803e-001 2.072591e-001 -1.069538e-001 1.491779e-001 3.304083e-002 1.625935e-001 4.270104e-001 -3.277254e-001 1.421805e-002 6.007137e-003 2.389672e-002 -3.823033e-002 5.016254e-002 2.958082e-002 -6.558248e-002 -7.597654e-003 -1.205215e-002 1.058970e-002 -1.861372e-002 7.157291e-003 1.724187e-002 8.923545e-003 -3.226054e-002
<VARIANCE> 39
 4.565184e+001 8.308405e+001 7.126674e+001 6.788621e+001 6.660822e+001 1.096397e+002 1.272899e+002 7.047678e+001 9.940637e+001 9.239640e+001 8.235423e+001 4.308827e+001 1.509593e+001 3.652395e+000 6.521108e+000 4.283950e+000 5.233615e+000 2.967398e+000 6.216829e+000 1.048401e+001 7.668854e+000 3.324228e+000 4.507168e+000 3.634897e+000 3.431839e+000 1.396353e+000 5.476817e-001 7.907373e-001 7.160179e-001 7.315432e-001 4.231526e-001 8.536280e-001 1.470895e+000 1.235537e+000 6.477703e-001 7.734559e-001 6.548559e-001 5.639489e-001 1.750744e-001
<GCONST> 1.402268e+002
<STATE> 8
<MEAN> 39
 4.048889e-001 -2.115796e+000 -6.268937e+000 -7.749260e+000 2.638421e+000 -1.097058e+000 -1.419633e+001 -4.839790e+000 -2.067801e+000 2.583958e+000 -4.932032e+000 -4.508703e+000 7.789422e+001 1.819883e-002 -5.115120e-003 -2.018448e-001 -2.218825e-001 -7.342874e-002 -7.862660e-002 1.024532e-001 8.683411e-002 4.970347e-002 4.208106e-001 -2.315539e-001 2.036273e-002 -1.612207e-001 3.296132e-002 -4.459705e-002 4.594171e-002 3.114084e-002 -5.655439e-002 7.791746e-003 9.277464e-003 9.128688e-003 -2.823724e-002 -2.104472e-002 2.560989e-002 -5.631091e-003 -4.955555e-002
<VARIANCE> 39
 4.408302e+001 8.377786e+001 5.675447e+001 5.355796e+001 5.941367e+001 9.412086e+001 1.249727e+002 6.905085e+001 9.684379e+001 1.112946e+002 8.482462e+001 4.194454e+001 1.852664e+001 3.746867e+000 6.621607e+000 4.251493e+000 4.347718e+000 2.870910e+000 5.868128e+000 1.064016e+001 7.094795e+000 3.027704e+000 4.979010e+000 3.741291e+000 3.327831e+000 1.420240e+000 5.658082e-001 8.040887e-001 7.046008e-001 6.054637e-001 4.339564e-001 8.130629e-001 1.465269e+000 1.154378e+000 5.775504e-001 7.745891e-001 6.579738e-001 5.650260e-001 1.617039e-001
<GCONST> 1.390749e+002
<STATE> 9
<MEAN> 39
 1.106942e+000 -2.852685e+000 -6.657957e+000 -8.713581e+000 1.529767e+000 -1.156614e+000 -1.384277e+001 -4.077236e+000 -2.155073e+000 4.785294e+000 -5.883739e+000 -4.536121e+000 7.631561e+001 1.963982e-001 -2.354709e-001 2.621260e-002 -3.862021e-002 -3.330047e-001 -1.021766e-002 2.613599e-001 1.296571e-001 -1.271542e-001 2.051907e-001 -7.593588e-002 -4.532801e-002 -5.003189e-001 4.801191e-004 -1.578735e-002 2.388538e-002 5.173536e-002 -2.787579e-002 -1.226277e-002 5.066937e-002 -3.971122e-003 -1.313226e-002 -6.098483e-002 3.087796e-002 -1.024213e-002 -5.571044e-002
<VARIANCE> 39
 3.693480e+001 7.495282e+001 4.304522e+001 4.139693e+001 6.109774e+001 7.020218e+001 1.162604e+002 6.447321e+001 9.281348e+001 1.393834e+002 8.896014e+001 4.228182e+001 3.476245e+001 3.036713e+000 5.358293e+000 3.533469e+000 3.324342e+000 2.603814e+000 5.051892e+000 9.451411e+000 5.925137e+000 2.949624e+000 5.552566e+000 3.762462e+000 3.257827e+000 1.547151e+000 4.734068e-001 6.832803e-001 5.887605e-001 4.493582e-001 4.436763e-001 7.325327e-001 1.276220e+000 9.680787e-001 5.533517e-001 7.524667e-001 6.225670e-001 5.794844e-001 1.557501e-001
<GCONST> 1.360911e+002
<TRANSP> 10
 0.000000e+000 1.000000e+000 0.000000e+000 0.000000e+000 0.000000e+000 0.000000e+000 0.000000e+000 0.000000e+000 0.000000e+000 0.000000e+000
 0.000000e+000 7.705246e-001 2.294754e-001 0.000000e+000 0.000000e+000 0.000000e+000 0.000000e+000 0.000000e+000 0.000000e+000 0.000000e+000
 0.000000e+000 0.000000e+000 7.705246e-001 2.294754e-001 0.000000e+000 0.000000e+000 0.000000e+000 0.000000e+000 0.000000e+000 0.000000e+000
 0.000000e+000 0.000000e+000 0.000000e+000 7.705245e-001 2.294754e-001 0.000000e+000 0.000000e+000 0.000000e+000 0.000000e+000 0.000000e+000
 0.000000e+000 0.000000e+000 0.000000e+000 0.000000e+000 7.705246e-001 2.294753e-001 0.000000e+000 0.000000e+000 0.000000e+000 0.000000e+000
 0.000000e+000 0.000000e+000 0.000000e+000 0.000000e+000 0.000000e+000 7.705247e-001 2.294753e-001 0.000000e+000 0.000000e+000 0.000000e+000
 0.000000e+000 0.000000e+000 0.000000e+000 0.000000e+000 0.000000e+000 0.000000e+000 7.705246e-001 2.294754e-001 0.000000e+000 0.000000e+000
 0.000000e+000 0.000000e+000 0.000000e+000 0.000000e+000 0.000000e+000 0.000000e+000 0.000000e+000 7.705246e-001 2.294754e-001 0.000000e+000
 0.000000e+000 0.000000e+000 0.000000e+000 0.000000e+000 0.000000e+000 0.000000e+000 0.000000e+000 0.000000e+000 8.886090e-001 1.113910e-001
 0.000000e+000 0.000000e+000 0.000000e+000 0.000000e+000 0.000000e+000 0.000000e+000 0.000000e+000 0.000000e+000 0.000000e+000 0.000000e+000
<ENDHMM>
~h "krat"
<BEGINHMM>
<NUMSTATES> 10
<STATE> 2
<MEAN> 39
 -3.411806e+000 -1.601859e+001 -4.434298e+000 -5.174598e-001 -2.309950e+000 1.051322e+000 -7.965580e+000 6.384743e-001 -3.937594e-001 -1.577695e+000 -5.193674e+000 -3.125442e+000 7.348576e+001 5.571350e-001 -2.383903e-001 -1.114320e-001 -2.372611e-001 -2.108566e-001 -4.913110e-002 -5.648633e-001 1.572158e-001 1.121423e-001 -3.380439e-001 -1.729461e-001 -2.328391e-001 9.061546e-001 9.605526e-003 1.253581e-003 -2.179126e-002 -6.511786e-003 2.803477e-002 8.577123e-002 4.062861e-002 -2.068719e-002 3.321007e-003 -2.952429e-002 -9.043350e-004 -4.128582e-002 -7.161950e-002
<VARIANCE> 39
 6.572088e+001 7.228326e+001 3.944946e+001 3.619012e+001 6.130118e+001 2.013678e+002 9.433313e+001 1.187709e+002 9.178962e+001 7.481572e+001 7.769279e+001 7.155471e+001 1.023975e+002 3.548912e+000 3.437766e+000 2.737943e+000 2.655078e+000 3.924058e+000 9.144946e+000 6.176089e+000 4.654065e+000 4.780719e+000 5.987844e+000 5.035139e+000 4.814132e+000 5.142590e+000 7.447661e-001 5.384374e-001 4.951859e-001 5.311139e-001 6.886101e-001 1.362187e+000 1.134691e+000 7.760922e-001 8.546385e-001 1.181243e+000 9.802937e-001 9.005347e-001 7.307689e-001
<GCONST> 1.449730e+002
<STATE> 3
<MEAN> 39
 -1.063604e+000 -1.684138e+001 -5.184037e+000 -1.525638e+000 -2.705019e+000 2.090161e+000 -9.547812e+000 9.042934e-001 1.475229e-001 -3.154616e+000 -5.889335e+000 -4.623988e+000 7.602448e+001 5.144513e-001 -1.536545e-001 -2.159945e-001 -2.289361e-001 -1.293234e-002 3.397402e-001 -2.798927e-001 3.029331e-002 8.912805e-002 -3.539680e-001 -1.205687e-001 -3.825338e-001 5.157238e-001 -1.643267e-002 2.959641e-002 -2.268776e-002 3.221808e-003 4.696326e-002 8.182989e-002 6.601565e-002 -3.396161e-002 -9.341995e-003 9.344880e-003 1.685217e-002 -2.694869e-002 -8.601169e-002
<VARIANCE> 39
 5.736537e+001 8.337058e+001 4.577989e+001 3.624012e+001 6.454787e+001 2.134395e+002 8.272536e+001 1.316619e+002 1.042095e+002 7.521976e+001 8.564716e+001 7.749357e+001 6.067237e+001 2.888573e+000 3.447788e+000 2.625537e+000 2.435775e+000 3.695422e+000 7.045172e+000 5.430022e+000 4.464965e+000 4.286302e+000 5.106441e+000 4.529987e+000 4.501578e+000 3.563187e+000 5.763167e-001 4.962434e-001 4.578322e-001 4.750201e-001 6.281776e-001 1.021093e+000 9.654738e-001 7.258524e-001 7.426310e-001 9.810786e-001 8.629714e-001 8.274843e-001 4.948954e-001
<GCONST> 1.413028e+002
<STATE> 4
<MEAN> 39
 7.520439e-001 -1.692995e+001 -6.269034e+000 -2.334316e+000 -2.187826e+000 4.190619e+000 -9.941499e+000 6.016125e-001 3.598321e-001 -4.390600e+000 -6.163083e+000 -6.396414e+000 7.709945e+001 3.773640e-001 5.635496e-002 -2.722915e-001 -1.802796e-001 1.818300e-001 5.210012e-001 -3.609694e-002 -1.128067e-001 3.638628e-003 -2.348167e-001 -1.381633e-002 -4.070353e-001 2.142189e-001 -3.282011e-002 5.359711e-002 -5.295693e-003 1.157272e-002 3.679632e-002 2.287084e-002 4.591696e-002 -3.235147e-002 -1.989858e-002 3.353605e-002 2.317640e-002 4.713170e-003 -6.045439e-002
<VARIANCE> 39
 4.619011e+001 8.917908e+001 4.929949e+001 3.621342e+001 6.659038e+001 2.065923e+002 7.677808e+001 1.385501e+002 1.124362e+002 6.905299e+001 9.073325e+001 7.683922e+001 4.357896e+001 2.093813e+000 3.057811e+000 2.211503e+000 2.225898e+000 3.265266e+000 4.989808e+000 4.592843e+000 4.112394e+000 3.666109e+000 4.112151e+000 3.887862e+000 3.971484e+000 2.051428e+000 3.825948e-001 4.032825e-001 3.705078e-001 4.190028e-001 5.519837e-001 7.173570e-001 8.151692e-001 6.576638e-001 6.287795e-001 7.635679e-001 7.294858e-001 7.075734e-001 2.960351e-001
<GCONST> 1.353254e+002
<STATE> 5
<MEAN> 39
 1.860888e+000 -1.598212e+001 -7.326725e+000 -2.855421e+000 -1.074597e+000 6.258464e+000 -9.673161e+000 -2.103103e-001 1.201733e-001 -5.019453e+000 -5.946744e+000 -7.900930e+000 7.733936e+001 2.249587e-001 2.992877e-001 -2.321765e-001 -1.183699e-001 2.761181e-001 4.417907e-001 7.320684e-002 -2.191157e-001 -9.504264e-002 -8.941673e-002 8.157417e-002 -3.100935e-001 4.747301e-002 -3.117934e-002 5.153461e-002 1.627711e-002 1.309690e-002 1.130727e-002 -3.258626e-002 1.784245e-002 -1.887773e-002 -2.065494e-002 3.149891e-002 1.393232e-002 2.852553e-002 -3.521173e-002
<VARIANCE> 39
 3.866640e+001 8.960103e+001 4.891824e+001 3.610685e+001 6.749100e+001 1.868745e+002 7.571053e+001 1.363091e+002 1.163156e+002 6.014356e+001 9.182593e+001 7.044927e+001 4.337064e+001 1.437364e+000 2.389537e+000 1.731326e+000 2.028718e+000 2.878040e+000 3.828747e+000 4.000972e+000 3.744848e+000 3.175951e+000 3.304017e+000 3.363931e+000 3.413412e+000 1.167434e+000 2.376176e-001 3.008723e-001 2.777009e-001 3.719505e-001 4.895072e-001 5.321624e-001 7.110167e-001 5.948467e-001 5.552588e-001 6.033863e-001 6.298172e-001 5.887548e-001 1.714296e-001
<GCONST> 1.289660e+002
<STATE> 6
<MEAN> 39
 2.394099e+000 -1.419413e+001 -8.010851e+000 -3.139970e+000 1.366697e-001 7.514038e+000 -9.248755e+000 -1.305432e+000 -4.962907e-001 -5.177455e+000 -5.426210e+000 -8.797967e+000 7.715764e+001 1.139119e-001 4.643996e-001 -1.282486e-001 -6.983352e-002 2.640245e-001 2.159148e-001 1.016198e-001 -2.572489e-001 -1.766976e-001 2.973742e-003 1.090998e-001 -1.575283e-001 -5.746472e-002 -2.118414e-002 2.864163e-002 2.542955e-002 1.104019e-002 -7.588177e-003 -5.513019e-002 1.036791e-002 -2.242905e-003 -1.747446e-002 1.598923e-002 -6.273386e-003 3.473089e-002 -2.954520e-002
<VARIANCE> 39
 3.607855e+001 8.387456e+001 4.635216e+001 3.636879e+001 6.769133e+001 1.671169e+002 7.716516e+001 1.237210e+002 1.169549e+002 5.143541e+001 8.861911e+001 6.205626e+001 5.014326e+001 1.024628e+000 1.731104e+000 1.355028e+000 1.862501e+000 2.667091e+000 3.315349e+000 3.758144e+000 3.489468e+000 2.949675e+000 2.801041e+000 3.068215e+000 2.936180e+000 8.509572e-001 1.564715e-001 2.209011e-001 2.110029e-001 3.386088e-001 4.552654e-001 4.566946e-001 6.598187e-001 5.586361e-001 5.325484e-001 5.123882e-001 5.694240e-001 5.059825e-001 1.130676e-001
<GCONST> 1.239545e+002
<STATE> 7
<MEAN> 39
 2.584180e+000 -1.203156e+001 -8.230619e+000 -3.275999e+000 1.124899e+000 7.729715e+000 -8.764856e+000 -2.391440e+000 -1.400507e+000 -5.131337e+000 -4.963573e+000 -9.047031e+000 7.661001e+001 4.715345e-002 5.171834e-001 -2.496055e-002 -2.909367e-002 2.077400e-001 -2.062771e-002 1.564612e-001 -2.317320e-001 -2.442534e-001 2.977129e-002 4.023778e-002 -1.875399e-002 -1.810625e-001 -1.562462e-002 3.370063e-003 2.172296e-002 1.287382e-002 -1.153446e-002 -4.786452e-002 2.375904e-002 9.119553e-003 -1.423924e-002 7.884458e-004 -2.724532e-002 2.734964e-002 -3.849263e-002
<VARIANCE> 39
 3.643397e+001 7.307365e+001 4.370023e+001 3.762070e+001 6.910657e+001 1.532121e+002 8.114452e+001 1.033551e+002 1.165130e+002 4.495324e+001 8.304777e+001 5.428659e+001 5.925325e+001 8.392269e-001 1.307532e+000 1.158690e+000 1.774818e+000 2.611295e+000 3.099256e+000 3.847420e+000 3.381002e+000 2.991143e+000 2.600620e+000 3.014551e+000 2.639846e+000 8.797940e-001 1.226400e-001 1.735660e-001 1.800827e-001 3.243029e-001 4.513041e-001 4.538507e-001 6.609117e-001 5.528203e-001 5.523055e-001 4.769685e-001 5.361247e-001 4.729712e-001 9.808230e-002
<GCONST> 1.214875e+002
<STATE> 8
<MEAN> 39
 2.574724e+000 -9.892129e+000 -8.107907e+000 -3.245377e+000 1.862688e+000 7.102437e+000 -7.920350e+000 -3.258087e+000 -2.561496e+000 -5.092422e+000 -4.951806e+000 -8.824090e+000 7.550768e+001 -1.414867e-002 4.834885e-001 4.600362e-002 3.285927e-002 1.612292e-001 -1.824709e-001 2.924578e-001 -1.743013e-001 -2.989127e-001 7.879750e-003 -1.014775e-001 7.037283e-002 -3.560157e-001 -2.338777e-002 -1.516000e-002 1.600278e-002 1.919359e-002 -1.010237e-002 -2.984505e-002 3.468518e-002 1.411680e-002 -6.484023e-003 -9.360923e-003 -3.296680e-002 1.734501e-002 -4.380335e-002
<VARIANCE> 39
 3.796010e+001 6.088908e+001 4.150439e+001 4.030784e+001 7.284033e+001 1.414530e+002 8.844014e+001 8.106741e+001 1.167994e+002 4.204840e+001 7.847420e+001 4.748893e+001 6.967627e+001 8.419154e-001 1.125768e+000 1.148682e+000 1.786322e+000 2.681081e+000 3.123844e+000 4.209682e+000 3.386649e+000 3.226788e+000 2.654212e+000 3.138067e+000 2.565076e+000 1.092465e+000 1.195556e-001 1.535634e-001 1.783503e-001 3.301070e-001 4.730892e-001 5.004334e-001 7.082878e-001 5.685484e-001 5.992164e-001 4.848770e-001 5.254141e-001 4.823628e-001 1.106149e-001
<GCONST> 1.217081e+002
<STATE> 9
<MEAN> 39
 1.848798e-001 -7.450119e+000 -6.516672e+000 -1.570880e+000 2.128760e+000 4.562938e+000 -5.089517e+000 -3.721043e+000 -3.320258e+000 -5.196335e+000 -5.311759e+000 -7.251317e+000 7.070201e+001 -1.728526e-001 2.750109e-001 9.112036e-002 1.386949e-001 8.819839e-002 -2.326165e-001 4.300312e-001 -6.847812e-002 -2.690218e-001 -5.071685e-002 -1.865514e-001 1.105452e-001 -4.693213e-001 -4.330360e-002 -2.470467e-002 1.106253e-002 1.400280e-002 -1.273658e-002 -1.878123e-002 7.394644e-003 1.801681e-002 1.616039e-002 -7.443107e-003 -2.412321e-003 1.447235e-002 -8.380324e-003
<VARIANCE> 39
 6.022163e+001 4.255190e+001 3.831501e+001 5.383143e+001 8.337061e+001 1.192074e+002 9.485036e+001 5.302316e+001 1.106159e+002 4.446200e+001 7.081382e+001 4.391564e+001 1.080668e+002 1.223127e+000 1.048341e+000 1.296882e+000 2.133658e+000 2.933192e+000 3.709394e+000 4.695099e+000 3.389727e+000 3.649101e+000 3.074932e+000 3.371251e+000 2.836309e+000 1.614571e+000 1.682688e-001 1.392593e-001 2.055952e-001 4.261936e-001 5.211260e-001 6.464589e-001 7.855744e-001 5.998194e-001 6.706111e-001 5.632812e-001 5.694847e-001 5.449606e-001 1.899040e-001
<GCONST> 1.258522e+002
<TRANSP> 10
 0.000000e+000 1.000000e+000 0.000000e+000 0.000000e+000 0.000000e+000 0.000000e+000 0.000000e+000 0.000000e+000 0.000000e+000 0.000000e+000
 0.000000e+000 7.761288e-001 2.238712e-001 0.000000e+000 0.000000e+000 0.000000e+000 0.000000e+000 0.000000e+000 0.000000e+000 0.000000e+000
 0.000000e+000 0.000000e+000 7.761288e-001 2.238712e-001 0.000000e+000 0.000000e+000 0.000000e+000 0.000000e+000 0.000000e+000 0.000000e+000
 0.000000e+000 0.000000e+000 0.000000e+000 7.761288e-001 2.238713e-001 0.000000e+000 0.000000e+000 0.000000e+000 0.000000e+000 0.000000e+000
 0.000000e+000 0.000000e+000 0.000000e+000 0.000000e+000 7.761288e-001 2.238712e-001 0.000000e+000 0.000000e+000 0.000000e+000 0.000000e+000
 0.000000e+000 0.000000e+000 0.000000e+000 0.000000e+000 0.000000e+000 7.761291e-001 2.238709e-001 0.000000e+000 0.000000e+000 0.000000e+000
 0.000000e+000 0.000000e+000 0.000000e+000 0.000000e+000 0.000000e+000 0.000000e+000 7.761286e-001 2.238714e-001 0.000000e+000 0.000000e+000
 0.000000e+000 0.000000e+000 0.000000e+000 0.000000e+000 0.000000e+000 0.000000e+000 0.000000e+000 7.761290e-001 2.238711e-001 0.000000e+000
 0.000000e+000 0.000000e+000 0.000000e+000 0.000000e+000 0.000000e+000 0.000000e+000 0.000000e+000 0.000000e+000 9.079727e-001 9.202737e-002
 0.000000e+000 0.000000e+000 0.000000e+000 0.000000e+000 0.000000e+000 0.000000e+000 0.000000e+000 0.000000e+000 0.000000e+000 0.000000e+000
<ENDHMM>
~h "procent"
<BEGINHMM>
<NUMSTATES> 10
<STATE> 2
<MEAN> 39
 -6.067621e+000 -9.200415e+000 -4.336087e+000 -2.668048e+000 -4.480192e+000 -2.129186e-001 -1.389769e+001 -6.270867e+000 -3.222558e+000 9.559140e-001 -2.147037e+000 -2.284312e+000 7.105578e+001 2.273573e-001 1.765156e-001 3.424235e-002 -2.688099e-001 8.356574e-002 -9.207270e-002 -3.001006e-001 -1.509846e-001 -1.445113e-001 -5.082647e-002 -2.987378e-001 -1.143746e-001 8.567293e-001 -6.079593e-002 1.798342e-002 -6.389454e-003 6.840616e-003 4.055521e-002 -2.442245e-002 7.569547e-002 3.095594e-002 -4.786341e-003 1.718379e-003 -8.984767e-003 1.238667e-002 -9.867797e-002
<VARIANCE> 39
 9.772046e+001 6.618238e+001 4.144991e+001 1.048260e+002 6.823202e+001 1.202511e+002 1.591459e+002 8.642131e+001 9.622512e+001 7.078894e+001 7.147702e+001 6.831032e+001 1.593392e+002 6.175989e+000 5.074342e+000 3.351329e+000 7.438397e+000 4.586047e+000 8.693281e+000 1.217200e+001 6.789744e+000 5.461483e+000 5.564952e+000 5.362692e+000 4.372159e+000 1.052151e+001 7.654182e-001 9.852281e-001 5.744837e-001 1.189933e+000 6.936821e-001 1.555645e+000 1.967982e+000 1.176206e+000 9.680610e-001 9.715497e-001 9.954374e-001 7.803797e-001 1.467680e+000
<GCONST> 1.537669e+002
<STATE> 3
<MEAN> 39
 -6.096314e+000 -8.054649e+000 -4.265448e+000 -3.634794e+000 -3.421436e+000 -1.191833e+000 -1.402822e+001 -6.315836e+000 -3.877541e+000 7.468467e-001 -3.575735e+000 -2.542578e+000 7.328301e+001 -7.236341e-002 2.493009e-001 1.181488e-002 -1.511846e-001 2.754916e-001 -2.530218e-001 5.304115e-002 6.366961e-002 -1.129280e-001 -5.398093e-002 -3.164462e-001 -3.627355e-002 4.011286e-001 -5.319347e-002 9.550923e-003 -1.823209e-003 3.065745e-002 3.333347e-002 -2.954326e-002 6.413122e-002 4.589351e-002 1.118039e-002 -2.545796e-003 -2.143441e-003 1.415649e-002 -8.769274e-002
<VARIANCE> 39
 1.154222e+002 7.559688e+001 4.700084e+001 1.012071e+002 7.893571e+001 1.399823e+002 1.597138e+002 8.948902e+001 9.067096e+001 7.352993e+001 7.612766e+001 7.357146e+001 8.787635e+001 7.674831e+000 5.341274e+000 3.767954e+000 7.433663e+000 4.768523e+000 8.150448e+000 1.164918e+001 6.347562e+000 5.205780e+000 5.683712e+000 5.348076e+000 4.336283e+000 7.792971e+000 9.121839e-001 1.024316e+000 6.208777e-001 1.140676e+000 7.296168e-001 1.353274e+000 1.771697e+000 1.081717e+000 9.304455e-001 1.016063e+000 9.873782e-001 7.494273e-001 1.088462e+000
<GCONST> 1.535538e+002
<STATE> 4
<MEAN> 39
 -7.104828e+000 -6.807541e+000 -4.205555e+000 -3.806872e+000 -1.755018e+000 -2.773059e+000 -1.306407e+001 -5.383412e+000 -4.190797e+000 4.067098e-001 -5.029867e+000 -2.502398e+000 7.412765e+001 -1.994165e-001 2.326956e-001 2.976165e-002 3.176548e-002 3.512419e-001 -3.339546e-001 2.122226e-001 2.493033e-001 -3.138725e-002 -8.992425e-002 -3.168127e-001 3.926820e-003 1.607234e-001 -7.187288e-003 -1.073693e-002 8.455558e-003 3.877468e-002 3.260241e-003 -5.376268e-003 1.865787e-002 3.024598e-002 1.670295e-002 -8.370135e-003 9.840255e-004 2.632511e-003 -4.057448e-002
<VARIANCE> 39
 1.381472e+002 7.978852e+001 5.114972e+001 8.913220e+001 8.652299e+001 1.471898e+002 1.539660e+002 9.427572e+001 8.060573e+001 7.202757e+001 8.073941e+001 7.435950e+001 5.509471e+001 9.138870e+000 5.591968e+000 3.928349e+000 6.676031e+000 4.806141e+000 7.399131e+000 1.046717e+001 5.664972e+000 4.804865e+000 5.514423e+000 5.122344e+000 4.297920e+000 5.277471e+000 1.050900e+000 1.048996e+000 6.242585e-001 9.923733e-001 7.386909e-001 1.134030e+000 1.512896e+000 9.528049e-001 8.688650e-001 1.023179e+000 9.323408e-001 7.236293e-001 7.720198e-001
<GCONST> 1.517446e+002
<STATE> 5
<MEAN> 39
 -7.931619e+000 -5.972931e+000 -3.914291e+000 -3.145448e+000 -2.381337e-001 -4.257878e+000 -1.212221e+001 -3.933043e+000 -4.118913e+000 -1.494511e-001 -6.453952e+000 -2.494673e+000 7.463092e+001 -6.757440e-002 1.181771e-001 1.018864e-001 1.968298e-001 2.591332e-001 -2.544650e-001 1.563624e-001 3.047253e-001 3.635440e-002 -1.320746e-001 -3.036962e-001 -3.150706e-002 1.066295e-001 4.254703e-002 -2.599764e-002 1.852026e-002 3.075707e-002 -2.948939e-002 2.598574e-002 -1.639193e-002 -1.859221e-003 1.010110e-002 -6.778963e-003 4.673012e-003 -1.164820e-002 -1.160212e-002
<VARIANCE> 39
 1.548280e+002 7.778199e+001 5.437470e+001 7.699961e+001 8.892640e+001 1.376021e+002 1.395378e+002 1.001604e+002 7.409343e+001 7.008218e+001 8.776139e+001 7.303925e+001 4.464782e+001 1.011749e+001 5.668409e+000 3.830020e+000 5.628676e+000 4.734977e+000 6.669192e+000 9.204672e+000 5.129690e+000 4.443299e+000 5.168508e+000 4.780742e+000 4.240295e+000 3.813557e+000 1.117854e+000 1.032295e+000 5.925025e-001 8.301108e-001 7.182710e-001 9.446884e-001 1.273037e+000 8.379293e-001 8.140104e-001 9.927595e-001 8.491489e-001 6.964649e-001 5.795053e-001
<GCONST> 1.492252e+002
<STATE> 6
<MEAN> 39
 -7.539590e+000 -5.841726e+000 -3.176913e+000 -1.917914e+000 4.468997e-001 -4.952746e+000 -1.181147e+001 -2.628566e+000 -3.855422e+000 -8.282286e-001 -7.752234e+000 -2.831080e+000 7.514272e+001 2.274251e-001 -1.907886e-002 2.040361e-001 2.970337e-001 5.389098e-002 -6.591871e-002 3.976986e-002 2.097751e-001 5.439006e-002 -1.428800e-001 -2.642814e-001 -1.113315e-001 7.518019e-002 6.033649e-002 -2.259549e-002 2.006356e-002 1.708329e-002 -4.392762e-002 3.819554e-002 -1.561405e-002 -3.196567e-002 -1.025325e-003 1.347986e-003 1.171286e-002 -1.478027e-002 -1.545064e-002
<VARIANCE> 39
 1.636627e+002 7.196013e+001 5.666585e+001 6.827865e+001 8.982338e+001 1.187657e+002 1.232430e+002 1.060772e+002 7.366239e+001 6.958161e+001 9.687561e+001 7.248516e+001 4.203959e+001 9.925513e+000 5.318222e+000 3.503585e+000 4.698160e+000 4.456017e+000 5.953869e+000 8.010814e+000 4.933195e+000 4.177755e+000 4.762205e+000 4.393209e+000 4.096903e+000 3.084240e+000 1.073784e+000 9.421387e-001 5.360894e-001 7.003641e-001 6.746890e-001 8.023551e-001 1.085747e+000 7.634910e-001 7.716954e-001 9.332423e-001 7.583002e-001 6.626207e-001 4.711092e-001
<GCONST> 1.463935e+002
<STATE> 7
<MEAN> 39
 -5.690562e+000 -6.235010e+000 -1.985210e+000 -4.206198e-001 8.260409e-002 -4.707803e+000 -1.189778e+001 -2.070073e+000 -3.638734e+000 -1.435729e+000 -8.768719e+000 -3.530644e+000 7.535520e+001 4.877087e-001 -8.592737e-002 2.817327e-001 3.426850e-001 -1.480886e-001 9.874897e-002 1.960299e-002 5.025077e-003 2.439135e-002 -1.119470e-001 -1.864028e-001 -1.635948e-001 -3.876407e-002 3.669506e-002 -5.143087e-003 9.764424e-003 7.001646e-003 -3.348965e-002 2.399005e-002 8.490637e-003 -4.721184e-002 -1.006414e-002 8.829166e-003 2.078488e-002 -3.528724e-003 -3.177115e-002
<VARIANCE> 39
 1.622532e+002 6.482362e+001 5.717787e+001 6.322707e+001 9.201839e+001 1.009197e+002 1.104940e+002 1.133206e+002 7.647740e+001 7.010224e+001 1.053038e+002 7.297797e+001 4.213362e+001 8.476465e+000 4.559992e+000 3.039563e+000 4.010237e+000 3.968736e+000 5.222507e+000 6.948368e+000 4.962075e+000 3.966745e+000 4.390390e+000 4.029062e+000 3.864337e+000 2.655863e+000 9.282445e-001 7.833220e-001 4.659585e-001 6.064054e-001 6.219878e-001 7.061096e-001 9.460040e-001 7.298847e-001 7.335917e-001 8.621053e-001 6.794434e-001 6.250805e-001 3.949230e-001
<GCONST> 1.432643e+002
<STATE> 8
<MEAN> 39
 -3.022128e+000 -6.671217e+000 -5.857276e-001 1.195058e+000 -1.015867e+000 -3.968505e+000 -1.171814e+001 -2.589471e+000 -3.637155e+000 -1.822660e+000 -9.335606e+000 -4.301672e+000 7.482642e+001 5.560640e-001 -5.891294e-002 2.878348e-001 3.585140e-001 -2.473410e-001 1.448229e-001 1.283499e-001 -2.241483e-001 -3.511892e-002 -6.010231e-002 -7.120669e-002 -1.382517e-001 -2.200018e-001 -1.021405e-002 7.924343e-003 -7.478187e-003 -3.367073e-004 -7.733471e-003 -9.834422e-004 2.857576e-002 -4.060771e-002 -1.367300e-002 9.739048e-003 2.765330e-002 1.369099e-002 -3.710359e-002
<VARIANCE> 39
 1.439696e+002 5.862268e+001 5.537022e+001 6.095009e+001 9.275348e+001 8.905119e+001 1.022651e+002 1.224000e+002 7.845864e+001 7.039530e+001 1.095510e+002 7.292321e+001 4.557607e+001 6.524718e+000 3.634534e+000 2.570015e+000 3.489178e+000 3.484734e+000 4.615234e+000 6.031721e+000 4.988554e+000 3.776014e+000 4.092143e+000 3.751689e+000 3.636677e+000 2.296117e+000 7.298781e-001 5.967743e-001 3.931330e-001 5.330091e-001 5.756466e-001 6.507167e-001 8.402357e-001 7.243765e-001 6.971346e-001 7.965636e-001 6.265569e-001 5.967264e-001 3.325733e-001
<GCONST> 1.398965e+002
<STATE> 9
<MEAN> 39
 3.376345e-001 -6.709778e+000 1.250319e+000 3.691945e+000 -2.831268e+000 -3.263223e+000 -1.018047e+001 -4.925757e+000 -4.154207e+000 -1.934904e+000 -8.885491e+000 -4.640478e+000 7.271495e+001 2.549569e-001 1.441891e-002 1.400250e-001 3.156031e-001 -1.492097e-001 1.400088e-002 3.627572e-001 -4.034268e-001 -1.156064e-001 -1.553802e-002 1.199349e-001 3.320700e-002 -4.305952e-001 -6.834102e-002 -3.866266e-003 -2.984794e-002 -1.622408e-002 2.789300e-002 -1.978785e-002 2.567624e-002 7.941552e-004 -4.539877e-003 -2.002833e-003 2.093451e-002 2.792371e-002 -1.220967e-002
<VARIANCE> 39
 9.571172e+001 5.166105e+001 4.995953e+001 5.990965e+001 8.446872e+001 8.711561e+001 9.536510e+001 1.287692e+002 7.613606e+001 6.626048e+001 1.057496e+002 7.473140e+001 5.305762e+001 4.218720e+000 2.371749e+000 2.036483e+000 2.924623e+000 3.136262e+000 4.178949e+000 4.913609e+000 4.892744e+000 3.582857e+000 3.713124e+000 3.597425e+000 3.455065e+000 1.867235e+000 4.698846e-001 3.570193e-001 2.985326e-001 4.480332e-001 5.433877e-001 6.420648e-001 7.446330e-001 7.349832e-001 6.600894e-001 7.127810e-001 6.048752e-001 5.998467e-001 2.806047e-001
<GCONST> 1.350607e+002
<TRANSP> 10
 0.000000e+000 1.000000e+000 0.000000e+000 0.000000e+000 0.000000e+000 0.000000e+000 0.000000e+000 0.000000e+000 0.000000e+000 0.000000e+000
 0.000000e+000 7.832090e-001 2.167911e-001 0.000000e+000 0.000000e+000 0.000000e+000 0.000000e+000 0.000000e+000 0.000000e+000 0.000000e+000
 0.000000e+000 0.000000e+000 7.832090e-001 2.167910e-001 0.000000e+000 0.000000e+000 0.000000e+000 0.000000e+000 0.000000e+000 0.000000e+000
 0.000000e+000 0.000000e+000 0.000000e+000 7.832089e-001 2.167911e-001 0.000000e+000 0.000000e+000 0.000000e+000 0.000000e+000 0.000000e+000
 0.000000e+000 0.000000e+000 0.000000e+000 0.000000e+000 7.832092e-001 2.167908e-001 0.000000e+000 0.000000e+000 0.000000e+000 0.000000e+000
 0.000000e+000 0.000000e+000 0.000000e+000 0.000000e+000 0.000000e+000 7.832091e-001 2.167909e-001 0.000000e+000 0.000000e+000 0.000000e+000
 0.000000e+000 0.000000e+000 0.000000e+000 0.000000e+000 0.000000e+000 0.000000e+000 7.832091e-001 2.167909e-001 0.000000e+000 0.000000e+000
 0.000000e+000 0.000000e+000 0.000000e+000 0.000000e+000 0.000000e+000 0.000000e+000 0.000000e+000 7.832091e-001 2.167909e-001 0.000000e+000
 0.000000e+000 0.000000e+000 0.000000e+000 0.000000e+000 0.000000e+000 0.000000e+000 0.000000e+000 0.000000e+000 9.042380e-001 9.576202e-002
 0.000000e+000 0.000000e+000 0.000000e+000 0.000000e+000 0.000000e+000 0.000000e+000 0.000000e+000 0.000000e+000 0.000000e+000 0.000000e+000
<ENDHMM>
~h "dva"
<BEGINHMM>
<NUMSTATES> 10
<STATE> 2
<MEAN> 39
 -2.750460e+000 -5.763609e+000 3.644890e-001 4.330394e+000 5.659318e-001 1.051935e+000 -9.202627e+000 -6.012093e+000 -1.410165e+000 -1.581950e+000 -2.981796e+000 -4.282351e+000 6.859612e+001 4.668444e-001 -3.416272e-001 -2.752058e-001 -4.977026e-001 -1.220770e-001 4.463639e-001 -5.092312e-001 -2.415840e-001 -5.297570e-002 3.092597e-001 2.715552e-001 -3.073089e-001 9.381899e-001 3.183745e-002 -9.486579e-003 -3.069468e-002 -6.382000e-002 -6.630934e-002 7.180438e-002 8.610409e-003 -5.946550e-003 -2.388860e-002 3.543193e-002 2.034722e-002 -3.362153e-002 -4.896979e-002
<VARIANCE> 39
 7.046723e+001 4.921769e+001 4.993525e+001 6.934581e+001 6.130874e+001 8.487942e+001 1.003017e+002 9.010538e+001 1.120813e+002 5.716944e+001 6.243805e+001 6.150212e+001 1.016895e+002 6.431180e+000 3.499666e+000 2.388106e+000 5.223906e+000 5.820473e+000 4.397768e+000 5.615418e+000 5.695793e+000 6.277729e+000 4.649248e+000 4.323575e+000 5.931736e+000 7.385116e+000 1.161530e+000 6.081880e-001 3.836412e-001 8.962398e-001 1.073972e+000 7.886104e-001 1.135876e+000 1.016036e+000 1.006117e+000 9.211156e-001 7.863875e-001 1.233549e+000 1.376474e+000
<GCONST> 1.470232e+002
<STATE> 3
<MEAN> 39
 -9.429322e-001 -7.152526e+000 -9.293180e-001 2.260594e+000 -2.789915e-001 3.297561e+000 -1.082907e+001 -6.971712e+000 -1.792114e+000 -1.817398e-001 -1.973496e+000 -5.701161e+000 7.157379e+001 5.319307e-001 -3.748969e-001 -4.004724e-001 -6.523937e-001 -2.443617e-001 7.058709e-001 -3.885224e-001 -1.646177e-001 -1.694946e-001 3.530196e-001 3.129938e-001 -4.747969e-001 7.553014e-001 1.151532e-002 -6.360841e-003 -1.810421e-002 -3.042077e-002 -1.732480e-002 6.121606e-002 4.153683e-002 3.595325e-002 -2.144455e-002 -4.144096e-003 -5.875333e-003 -3.240096e-002 -4.536943e-002
<VARIANCE> 39
 6.319915e+001 4.396297e+001 5.635844e+001 8.426436e+001 5.887014e+001 1.059832e+002 9.482877e+001 8.931711e+001 1.308451e+002 5.999322e+001 7.974354e+001 7.540910e+001 7.532562e+001 5.267600e+000 2.783779e+000 2.155303e+000 5.074461e+000 5.096969e+000 3.877407e+000 5.339479e+000 5.311246e+000 5.842205e+000 4.576470e+000 4.282736e+000 5.903165e+000 5.681909e+000 9.796607e-001 4.920037e-001 3.645292e-001 8.542433e-001 9.726017e-001 6.872377e-001 1.063121e+000 9.149376e-001 9.553189e-001 9.009061e-001 7.508970e-001 1.212895e+000 1.036534e+000
<GCONST> 1.449722e+002
<STATE> 4
<MEAN> 39
 8.879181e-001 -8.611077e+000 -2.603985e+000 -2.092558e-001 -1.093421e+000 6.296784e+000 -1.189994e+001 -7.470441e+000 -2.540958e+000 1.062699e+000 -9.878507e-001 -7.673902e+000 7.396420e+001 4.984771e-001 -3.736433e-001 -4.395304e-001 -7.158651e-001 -1.874465e-001 8.562025e-001 -2.232597e-001 -4.358989e-003 -2.216092e-001 2.502346e-001 2.330622e-001 -5.424614e-001 5.999093e-001 -2.210660e-002 8.049394e-003 5.821653e-003 3.317134e-003 2.832141e-002 2.167578e-002 4.894934e-002 4.532729e-002 -1.754333e-003 -4.072695e-002 -4.197197e-002 8.995969e-003 -4.770948e-002
<VARIANCE> 39
 5.084717e+001 3.886171e+001 5.714965e+001 9.645338e+001 5.417777e+001 1.206237e+002 8.221672e+001 8.523500e+001 1.454699e+002 6.063768e+001 9.390997e+001 8.228839e+001 5.945657e+001 3.884611e+000 2.250890e+000 1.965344e+000 4.652727e+000 4.295598e+000 3.255578e+000 4.690854e+000 4.638914e+000 5.233977e+000 4.398440e+000 4.088728e+000 5.366491e+000 4.328588e+000 7.223878e-001 4.012773e-001 3.373666e-001 7.579433e-001 8.359604e-001 5.779798e-001 9.107003e-001 7.725493e-001 8.861682e-001 8.402770e-001 6.795155e-001 1.072157e+000 7.548043e-001
<GCONST> 1.408589e+002
<STATE> 5
<MEAN> 39
 2.455871e+000 -9.951196e+000 -4.247674e+000 -2.830048e+000 -1.523287e+000 9.523723e+000 -1.246840e+001 -7.336811e+000 -3.285493e+000 1.674794e+000 -4.793221e-001 -9.647893e+000 7.587555e+001 3.859437e-001 -3.057545e-001 -3.788002e-001 -6.736577e-001 -5.108920e-002 8.444006e-001 -6.895041e-002 1.583862e-001 -1.848459e-001 4.425438e-002 4.146826e-002 -4.440148e-001 4.270661e-001 -3.865859e-002 2.911714e-002 2.469603e-002 3.722462e-002 4.310318e-002 -2.503680e-002 5.032153e-002 3.331336e-002 1.745129e-002 -5.748025e-002 -6.283153e-002 4.932958e-002 -6.429227e-002
<VARIANCE> 39
 3.735601e+001 3.309417e+001 5.166759e+001 9.818148e+001 4.992633e+001 1.237524e+002 6.823497e+001 8.061421e+001 1.517861e+002 6.284655e+001 1.031829e+002 7.972069e+001 4.735502e+001 2.620124e+000 1.898812e+000 1.789944e+000 4.144585e+000 3.670910e+000 2.734564e+000 3.986592e+000 3.808165e+000 4.666610e+000 4.075657e+000 3.849468e+000 4.659913e+000 3.367553e+000 4.800988e-001 3.274763e-001 2.992832e-001 6.479551e-001 7.196710e-001 4.711858e-001 7.429256e-001 6.232193e-001 8.067716e-001 7.514288e-001 6.051060e-001 8.717782e-001 5.396717e-001
<GCONST> 1.352888e+002
<STATE> 6
<MEAN> 39
 3.623122e+000 -1.090299e+001 -5.523624e+000 -5.188360e+000 -1.489890e+000 1.243303e+001 -1.255840e+001 -6.617409e+000 -3.798610e+000 1.401202e+000 -7.147844e-001 -1.110198e+001 7.712607e+001 2.587966e-001 -1.610098e-001 -2.646483e-001 -5.056391e-001 9.297834e-002 6.814284e-001 1.056174e-001 2.647696e-001 -1.099974e-001 -1.836690e-001 -1.787615e-001 -2.357583e-001 1.687124e-001 -3.649867e-002 4.547293e-002 2.696145e-002 6.660677e-002 3.874809e-002 -6.449632e-002 6.184398e-002 8.586497e-003 2.337413e-002 -5.066173e-002 -5.775128e-002 6.507408e-002 -9.053877e-002
<VARIANCE> 39
 2.628770e+001 2.718307e+001 4.297851e+001 8.675700e+001 4.823798e+001 1.162570e+002 5.826228e+001 7.600643e+001 1.495003e+002 6.876778e+001 1.091998e+002 7.217553e+001 3.760974e+001 1.682543e+000 1.643543e+000 1.590956e+000 3.718023e+000 3.239036e+000 2.384775e+000 3.586525e+000 3.092437e+000 4.136679e+000 3.652962e+000 3.636527e+000 3.959435e+000 2.746458e+000 3.017830e-001 2.656098e-001 2.600353e-001 5.482289e-001 6.355833e-001 3.806604e-001 6.265188e-001 4.999796e-001 7.227370e-001 6.572352e-001 5.547807e-001 6.816516e-001 3.765105e-001
<GCONST> 1.292309e+002
<STATE> 7
<MEAN> 39
 4.402556e+000 -1.121573e+001 -6.335348e+000 -6.781419e+000 -9.777817e-001 1.456952e+001 -1.198602e+001 -5.572511e+000 -4.091094e+000 2.980538e-001 -1.640269e+000 -1.173686e+001 7.732085e+001 1.483649e-001 2.284707e-002 -1.672771e-001 -2.281105e-001 2.185996e-001 4.041698e-001 3.456766e-001 2.759868e-001 -4.580054e-002 -3.512522e-001 -3.461788e-001 4.074277e-003 -1.889755e-001 -3.161474e-002 4.341456e-002 1.407274e-002 8.233673e-002 2.499478e-002 -8.920112e-002 7.616968e-002 -1.723989e-002 1.871480e-002 -2.640014e-002 -3.533154e-002 5.838797e-002 -1.065432e-001
<VARIANCE> 39
 1.880140e+001 2.307030e+001 3.440374e+001 6.904888e+001 5.001233e+001 1.038517e+002 5.765333e+001 7.004833e+001 1.402810e+002 7.588216e+001 1.115262e+002 6.552719e+001 3.466003e+001 1.111219e+000 1.426215e+000 1.412296e+000 3.371977e+000 2.968976e+000 2.206131e+000 3.613805e+000 2.697477e+000 3.647401e+000 3.279761e+000 3.545975e+000 3.332175e+000 2.328056e+000 1.903643e-001 2.229398e-001 2.331613e-001 4.734566e-001 5.811597e-001 3.200327e-001 5.924616e-001 4.236540e-001 6.406213e-001 5.852993e-001 5.372962e-001 5.443813e-001 2.574297e-001
<GCONST> 1.240756e+002
<STATE> 8
<MEAN> 39
 4.827422e+000 -1.084638e+001 -6.838956e+000 -7.230982e+000 -2.987432e-002 1.561148e+001 -1.046116e+001 -4.555437e+000 -4.262822e+000 -1.297843e+000 -3.003744e+000 -1.149346e+001 7.614277e+001 3.957796e-002 1.680122e-001 -1.330059e-001 9.200128e-002 2.949499e-001 6.576499e-002 6.379424e-001 2.064858e-001 -1.168954e-002 -4.062215e-001 -4.265925e-001 2.059532e-001 -5.791423e-001 -3.482308e-002 2.193617e-002 -1.442905e-004 7.633825e-002 2.147570e-003 -9.404314e-002 7.214089e-002 -2.769986e-002 7.233344e-003 3.999475e-003 -6.977228e-003 3.587143e-002 -9.560902e-002
<VARIANCE> 39
 1.499969e+001 2.167477e+001 2.771801e+001 5.581939e+001 5.381265e+001 9.393881e+001 6.995272e+001 6.216655e+001 1.265383e+002 7.862806e+001 1.085741e+002 6.237806e+001 4.304523e+001 8.362586e-001 1.242929e+000 1.327439e+000 3.014297e+000 2.885314e+000 2.156657e+000 3.900796e+000 2.659251e+000 3.258024e+000 3.106508e+000 3.628914e+000 2.844718e+000 1.905938e+000 1.315365e-001 2.020284e-001 2.258478e-001 4.291284e-001 5.606484e-001 2.983531e-001 6.332949e-001 4.064400e-001 5.751315e-001 5.509135e-001 5.492619e-001 4.693039e-001 1.785026e-001
<GCONST> 1.210511e+002
<STATE> 9
<MEAN> 39
 5.006778e+000 -9.727272e+000 -7.171163e+000 -5.993110e+000 1.568933e+000 1.589126e+001 -7.343100e+000 -3.761565e+000 -3.983275e+000 -3.192271e+000 -5.127643e+000 -1.050510e+001 7.309680e+001 -1.253497e-001 2.362366e-001 -1.442504e-001 4.120259e-001 2.968260e-001 -3.330324e-001 9.217190e-001 1.456128e-001 -6.927725e-002 -3.457216e-001 -3.770127e-001 3.245090e-001 -9.334114e-001 -4.570905e-002 -7.026821e-003 4.006860e-003 4.612023e-002 -2.940246e-002 -7.738204e-002 2.779631e-002 -1.688157e-002 -9.662849e-003 3.179985e-002 2.516307e-002 2.899790e-003 -5.144648e-002
<VARIANCE> 39
 1.481924e+001 2.200744e+001 2.324546e+001 5.492670e+001 5.622863e+001 8.662910e+001 9.556268e+001 5.302575e+001 1.052878e+002 7.337381e+001 9.862008e+001 6.030432e+001 6.098744e+001 7.555479e-001 1.094561e+000 1.334103e+000 2.578901e+000 2.953144e+000 2.087653e+000 4.282026e+000 2.987060e+000 3.007139e+000 3.174531e+000 3.872028e+000 2.558593e+000 1.286505e+000 1.051957e-001 1.904952e-001 2.352870e-001 4.082099e-001 5.567061e-001 3.034679e-001 7.256261e-001 4.854372e-001 5.512728e-001 5.466322e-001 5.945775e-001 4.476020e-001 1.180675e-001
<GCONST> 1.198721e+002
<TRANSP> 10
 0.000000e+000 1.000000e+000 0.000000e+000 0.000000e+000 0.000000e+000 0.000000e+000 0.000000e+000 0.000000e+000 0.000000e+000 0.000000e+000
 0.000000e+000 7.335981e-001 2.664020e-001 0.000000e+000 0.000000e+000 0.000000e+000 0.000000e+000 0.000000e+000 0.000000e+000 0.000000e+000
 0.000000e+000 0.000000e+000 7.335981e-001 2.664019e-001 0.000000e+000 0.000000e+000 0.000000e+000 0.000000e+000 0.000000e+000 0.000000e+000
 0.000000e+000 0.000000e+000 0.000000e+000 7.335978e-001 2.664022e-001 0.000000e+000 0.000000e+000 0.000000e+000 0.000000e+000 0.000000e+000
 0.000000e+000 0.000000e+000 0.000000e+000 0.000000e+000 7.335979e-001 2.664021e-001 0.000000e+000 0.000000e+000 0.000000e+000 0.000000e+000
 0.000000e+000 0.000000e+000 0.000000e+000 0.000000e+000 0.000000e+000 7.335983e-001 2.664017e-001 0.000000e+000 0.000000e+000 0.000000e+000
 0.000000e+000 0.000000e+000 0.000000e+000 0.000000e+000 0.000000e+000 0.000000e+000 7.335978e-001 2.664022e-001 0.000000e+000 0.000000e+000
 0.000000e+000 0.000000e+000 0.000000e+000 0.000000e+000 0.000000e+000 0.000000e+000 0.000000e+000 7.335979e-001 2.664021e-001 0.000000e+000
 0.000000e+000 0.000000e+000 0.000000e+000 0.000000e+000 0.000000e+000 0.000000e+000 0.000000e+000 0.000000e+000 8.513101e-001 1.486900e-001
 0.000000e+000 0.000000e+000 0.000000e+000 0.000000e+000 0.000000e+000 0.000000e+000 0.000000e+000 0.000000e+000 0.000000e+000 0.000000e+000
<ENDHMM>
~h "rovnase"
<BEGINHMM>
<NUMSTATES> 10
<STATE> 2
<MEAN> 39
 -6.169829e-001 -8.841143e+000 -4.146003e+000 9.074643e-001 -1.746572e+000 3.077574e+000 -1.598676e+001 -7.321911e+000 -2.848531e+000 7.176799e-001 -3.126478e+000 -4.784752e-001 7.401332e+001 2.429743e-001 2.275313e-001 8.989028e-002 -1.240350e-001 9.182187e-002 -4.426986e-002 -1.766983e-001 6.399751e-002 -6.497192e-002 -1.753994e-001 -2.292371e-001 -1.181235e-001 5.922379e-001 -4.415671e-002 -4.278335e-004 -1.112805e-003 -8.009470e-004 1.956956e-002 5.259498e-003 3.013823e-002 3.410419e-002 1.307318e-002 -1.646613e-002 -9.140145e-003 -1.521957e-002 -5.033351e-002
<VARIANCE> 39
 6.500140e+001 5.741903e+001 3.883326e+001 5.976321e+001 6.573463e+001 1.045383e+002 1.110016e+002 1.027534e+002 1.094398e+002 8.019386e+001 8.092693e+001 5.821552e+001 8.437154e+001 3.819250e+000 3.201985e+000 2.541249e+000 5.391464e+000 4.511534e+000 6.094409e+000 8.447031e+000 9.810005e+000 5.764423e+000 4.877487e+000 5.272967e+000 3.673942e+000 4.850693e+000 5.969105e-001 4.333759e-001 3.992407e-001 8.900737e-001 7.908835e-001 1.038153e+000 1.346991e+000 1.994820e+000 1.012694e+000 8.525497e-001 9.746552e-001 6.156373e-001 6.885096e-001
<GCONST> 1.459069e+002
<STATE> 3
<MEAN> 39
 -1.363512e-001 -7.847874e+000 -3.740692e+000 2.471561e-001 -9.294775e-001 3.156165e+000 -1.649132e+001 -6.354569e+000 -2.871009e+000 -5.087658e-001 -4.360344e+000 -1.410537e+000 7.607392e+001 3.751379e-002 1.932376e-001 5.339322e-002 -1.301397e-001 1.810836e-001 -4.362435e-003 -5.565925e-002 2.249041e-001 7.173521e-004 -2.621183e-001 -2.408406e-001 -2.034779e-001 3.839217e-001 -3.678093e-002 -7.735861e-003 -8.568042e-003 -1.012710e-004 1.271839e-002 5.317168e-003 2.235479e-002 2.748092e-002 1.132636e-002 -1.109832e-002 2.065420e-003 -1.195428e-002 -4.077937e-002
<VARIANCE> 39
 6.541714e+001 5.438215e+001 4.202317e+001 5.573599e+001 6.073846e+001 1.151049e+002 1.231029e+002 1.144170e+002 1.160326e+002 7.949194e+001 7.943609e+001 5.925286e+001 5.012504e+001 3.502492e+000 2.962983e+000 2.704378e+000 4.756298e+000 3.945600e+000 5.515721e+000 8.256593e+000 1.047025e+001 5.295377e+000 4.515944e+000 4.897830e+000 3.383075e+000 3.133699e+000 5.300220e-001 4.020309e-001 4.148125e-001 7.711397e-001 6.961592e-001 8.812897e-001 1.262610e+000 2.106411e+000 9.295408e-001 7.884674e-001 9.181291e-001 5.729873e-001 4.518896e-001
<GCONST> 1.431333e+002
<STATE> 4
<MEAN> 39
 -5.177118e-001 -7.011154e+000 -3.689300e+000 -4.472005e-001 2.070143e-001 3.248571e+000 -1.640717e+001 -4.848830e+000 -2.695611e+000 -1.987927e+000 -5.497066e+000 -2.654569e+000 7.746854e+001 -1.202888e-001 1.681372e-001 -1.914994e-002 -1.256649e-001 2.213679e-001 -2.752633e-002 6.749865e-002 3.029603e-001 2.528504e-002 -2.786834e-001 -2.073634e-001 -2.364000e-001 2.495928e-001 -2.651503e-002 -4.516831e-003 -1.284827e-002 2.954987e-003 3.199250e-003 -7.438296e-003 2.324961e-002 1.031041e-002 2.491737e-003 2.673646e-003 8.743307e-003 -1.146688e-003 -2.667909e-002
<VARIANCE> 39
 7.703339e+001 5.288604e+001 4.505190e+001 5.260258e+001 5.674752e+001 1.301832e+002 1.419673e+002 1.210128e+002 1.244628e+002 7.282910e+001 7.498054e+001 5.723855e+001 3.572559e+001 3.439244e+000 2.739027e+000 2.794903e+000 4.152352e+000 3.457645e+000 5.147968e+000 8.046772e+000 1.050254e+001 4.870758e+000 4.172152e+000 4.478585e+000 3.092174e+000 2.046963e+000 4.838854e-001 3.721160e-001 4.216092e-001 6.674786e-001 6.092038e-001 7.561738e-001 1.168043e+000 2.078740e+000 8.523955e-001 7.296372e-001 8.321909e-001 5.310315e-001 2.981184e-001
<GCONST> 1.404661e+002
<STATE> 5
<MEAN> 39
 -1.636835e+000 -6.123555e+000 -4.082722e+000 -1.014121e+000 1.423225e+000 2.853411e+000 -1.551199e+001 -3.318234e+000 -2.585126e+000 -3.309555e+000 -6.444970e+000 -3.845361e+000 7.838786e+001 -2.461519e-001 1.803122e-001 -9.111536e-002 -8.722322e-002 2.155811e-001 -1.358155e-001 2.212230e-001 2.853169e-001 4.630327e-003 -2.234782e-001 -1.667832e-001 -2.024253e-001 1.497554e-001 -1.831215e-002 1.084913e-003 -9.656687e-003 9.002449e-003 -5.032308e-003 -1.979907e-002 2.628392e-002 -6.777339e-003 -4.002643e-003 1.395559e-002 7.802278e-003 1.024450e-002 -2.026672e-002
<VARIANCE> 39
 9.715459e+001 5.456716e+001 4.791904e+001 4.934324e+001 5.396166e+001 1.471872e+002 1.650215e+002 1.188549e+002 1.327125e+002 6.286879e+001 7.010610e+001 5.330631e+001 2.844815e+001 3.712419e+000 2.588942e+000 2.779473e+000 3.634162e+000 3.141230e+000 4.965483e+000 7.870266e+000 9.843156e+000 4.573019e+000 3.960183e+000 4.129301e+000 2.906384e+000 1.510113e+000 4.709580e-001 3.480441e-001 4.149793e-001 5.817236e-001 5.449999e-001 6.700693e-001 1.088539e+000 1.904674e+000 7.938774e-001 6.904256e-001 7.489786e-001 4.993747e-001 2.164345e-001
<GCONST> 1.383317e+002
<STATE> 6
<MEAN> 39
 -3.344054e+000 -5.041314e+000 -4.774066e+000 -1.260211e+000 2.500200e+000 1.654037e+000 -1.374981e+001 -2.141365e+000 -2.669019e+000 -4.186946e+000 -7.246443e+000 -4.683545e+000 7.883989e+001 -3.208619e-001 2.012038e-001 -1.195283e-001 -2.242572e-002 1.678980e-001 -2.717676e-001 3.558908e-001 2.094903e-001 -2.285196e-002 -1.264914e-001 -1.401282e-001 -1.211393e-001 5.441028e-002 -5.091208e-003 -4.468420e-004 1.399335e-004 1.134498e-002 -1.216859e-002 -1.950520e-002 1.915814e-002 -1.557667e-002 -1.877634e-003 1.898221e-002 4.030455e-003 1.708605e-002 -1.949803e-002
<VARIANCE> 39
 1.206762e+002 5.824657e+001 5.004998e+001 4.648041e+001 5.259465e+001 1.615676e+002 1.856258e+002 1.114876e+002 1.376456e+002 5.468534e+001 6.541232e+001 5.018881e+001 2.320335e+001 4.295476e+000 2.535683e+000 2.702453e+000 3.242426e+000 2.979816e+000 4.847285e+000 7.744232e+000 8.711821e+000 4.423899e+000 3.905855e+000 3.866020e+000 2.865650e+000 1.252377e+000 4.943970e-001 3.341725e-001 3.988654e-001 5.171302e-001 5.033531e-001 6.175537e-001 1.040684e+000 1.641398e+000 7.623482e-001 6.773365e-001 6.868492e-001 4.867169e-001 1.781865e-001
<GCONST> 1.368655e+002
<STATE> 7
<MEAN> 39
 -5.221655e+000 -3.902672e+000 -5.432362e+000 -1.153597e+000 3.215099e+000 -2.050231e-001 -1.152241e+001 -1.401584e+000 -2.839374e+000 -4.505734e+000 -7.946362e+000 -5.029548e+000 7.883038e+001 -2.937472e-001 1.785724e-001 -8.172310e-002 3.130236e-002 8.251870e-002 -3.501859e-001 3.967226e-001 1.322024e-001 -1.511440e-002 -2.157119e-002 -1.226661e-001 -2.418523e-002 -3.834525e-002 1.478530e-002 -9.986807e-003 1.128387e-002 7.055379e-003 -1.728929e-002 -6.084320e-003 2.021357e-003 -1.450865e-002 5.635371e-003 1.745892e-002 2.545655e-003 1.771982e-002 -1.982049e-002
<VARIANCE> 39
 1.400490e+002 6.078120e+001 5.138561e+001 4.513179e+001 5.306560e+001 1.656935e+002 1.933395e+002 1.048733e+002 1.382527e+002 5.235580e+001 6.077401e+001 4.972643e+001 1.986659e+001 5.099434e+000 2.565974e+000 2.621213e+000 3.014421e+000 2.923669e+000 4.728727e+000 7.693254e+000 7.490820e+000 4.403275e+000 4.001040e+000 3.665408e+000 2.939170e+000 1.130401e+000 5.467052e-001 3.318324e-001 3.787588e-001 4.773191e-001 4.798070e-001 5.880048e-001 1.022406e+000 1.369450e+000 7.549791e-001 6.889651e-001 6.468547e-001 4.938230e-001 1.647283e-001
<GCONST> 1.361072e+002
<STATE> 8
<MEAN> 39
 -6.598869e+000 -3.071233e+000 -5.696852e+000 -8.678271e-001 3.393501e+000 -2.186114e+000 -9.514622e+000 -9.154242e-001 -2.852928e+000 -4.312497e+000 -8.527595e+000 -4.897426e+000 7.841825e+001 -1.475380e-001 8.840807e-002 1.100810e-002 4.697994e-002 -2.137269e-002 -3.218322e-001 3.262050e-001 9.173167e-002 3.263838e-002 5.787146e-002 -9.811017e-002 5.913353e-002 -1.269220e-001 3.080326e-002 -2.052276e-002 1.781353e-002 1.503874e-003 -1.772846e-002 1.169430e-002 -1.321500e-002 -8.931136e-003 9.172698e-003 9.853722e-003 5.288080e-003 1.273327e-002 -2.061107e-002
<VARIANCE> 39
 1.512133e+002 6.061415e+001 5.310289e+001 4.543224e+001 5.563524e+001 1.545798e+002 1.843047e+002 1.022798e+002 1.368728e+002 5.691862e+001 5.652254e+001 5.149909e+001 1.953039e+001 5.880032e+000 2.606875e+000 2.542764e+000 2.959056e+000 2.911500e+000 4.589711e+000 7.664493e+000 6.497643e+000 4.433417e+000 4.224669e+000 3.513914e+000 3.058898e+000 1.115648e+000 6.074913e-001 3.354029e-001 3.583928e-001 4.616709e-001 4.690352e-001 5.675309e-001 1.016937e+000 1.144958e+000 7.561330e-001 7.172550e-001 6.205593e-001 5.136134e-001 1.664827e-001
<GCONST> 1.359549e+002
<STATE> 9
<MEAN> 39
 -6.851362e+000 -2.914337e+000 -4.844409e+000 -3.725347e-001 2.784166e+000 -4.430742e+000 -7.718386e+000 1.534774e-001 -2.154320e+000 -3.163051e+000 -9.062285e+000 -3.998715e+000 7.710158e+001 2.214139e-001 -1.518188e-001 2.066679e-001 2.319029e-002 -1.620333e-001 -6.901698e-002 9.013361e-002 1.251303e-001 9.130958e-002 8.626168e-002 1.104191e-002 1.221889e-001 -2.679909e-001 2.426770e-002 -2.473000e-002 1.106023e-002 4.179742e-003 -7.993348e-003 2.929388e-002 -6.964048e-003 -1.210252e-002 -5.282796e-003 -8.470546e-003 1.468736e-002 -1.399420e-003 -2.636247e-002
<VARIANCE> 39
 1.558345e+002 5.877079e+001 5.935025e+001 4.931400e+001 6.170527e+001 1.168034e+002 1.544909e+002 1.069175e+002 1.382527e+002 7.307689e+001 5.273864e+001 5.553395e+001 2.583731e+001 6.403866e+000 2.512469e+000 2.356786e+000 3.163641e+000 2.939009e+000 4.195573e+000 7.379087e+000 5.560404e+000 4.312192e+000 4.771433e+000 3.360488e+000 3.254299e+000 1.255696e+000 6.757715e-001 3.412536e-001 3.245140e-001 4.766140e-001 4.740327e-001 5.275865e-001 9.917629e-001 9.068339e-001 7.260618e-001 7.726254e-001 5.890021e-001 5.534419e-001 1.849167e-001
<GCONST> 1.362763e+002
<TRANSP> 10
 0.000000e+000 1.000000e+000 0.000000e+000 0.000000e+000 0.000000e+000 0.000000e+000 0.000000e+000 0.000000e+000 0.000000e+000 0.000000e+000
 0.000000e+000 8.021486e-001 1.978514e-001 0.000000e+000 0.000000e+000 0.000000e+000 0.000000e+000 0.000000e+000 0.000000e+000 0.000000e+000
 0.000000e+000 0.000000e+000 8.021486e-001 1.978513e-001 0.000000e+000 0.000000e+000 0.000000e+000 0.000000e+000 0.000000e+000 0.000000e+000
 0.000000e+000 0.000000e+000 0.000000e+000 8.021486e-001 1.978513e-001 0.000000e+000 0.000000e+000 0.000000e+000 0.000000e+000 0.000000e+000
 0.000000e+000 0.000000e+000 0.000000e+000 0.000000e+000 8.021483e-001 1.978517e-001 0.000000e+000 0.000000e+000 0.000000e+000 0.000000e+000
 0.000000e+000 0.000000e+000 0.000000e+000 0.000000e+000 0.000000e+000 8.021486e-001 1.978514e-001 0.000000e+000 0.000000e+000 0.000000e+000
 0.000000e+000 0.000000e+000 0.000000e+000 0.000000e+000 0.000000e+000 0.000000e+000 8.021486e-001 1.978514e-001 0.000000e+000 0.000000e+000
 0.000000e+000 0.000000e+000 0.000000e+000 0.000000e+000 0.000000e+000 0.000000e+000 0.000000e+000 8.021487e-001 1.978513e-001 0.000000e+000
 0.000000e+000 0.000000e+000 0.000000e+000 0.000000e+000 0.000000e+000 0.000000e+000 0.000000e+000 0.000000e+000 9.268366e-001 7.316346e-002
 0.000000e+000 0.000000e+000 0.000000e+000 0.000000e+000 0.000000e+000 0.000000e+000 0.000000e+000 0.000000e+000 0.000000e+000 0.000000e+000
<ENDHMM>
~h "osm"
<BEGINHMM>
<NUMSTATES> 10
<STATE> 2
<MEAN> 39
 -1.263721e+001 -5.049092e+000 -2.701218e+000 -2.023299e+000 2.194898e+000 4.724626e+000 -8.014081e+000 -2.443578e+000 -3.074203e+000 3.939400e-001 -2.136050e+000 4.151939e+000 7.286263e+001 1.071088e-001 1.157625e-001 1.059386e-001 1.877144e-001 7.399710e-002 2.720803e-002 -1.716058e-001 -1.776061e-001 1.819854e-002 -7.305625e-002 2.241360e-002 4.763876e-002 9.426596e-001 -2.431810e-002 7.372109e-004 3.646028e-003 3.816551e-002 -9.548078e-003 -4.344137e-002 1.790822e-002 -1.089160e-002 1.600668e-002 4.850761e-003 5.891597e-003 -2.110852e-002 -8.985545e-002
<VARIANCE> 39
 1.516471e+002 4.443755e+001 3.563650e+001 1.048217e+002 7.243793e+001 1.247112e+002 7.094534e+001 7.733740e+001 1.034635e+002 4.053842e+001 5.819837e+001 4.885917e+001 1.389329e+002 7.482057e+000 2.237010e+000 1.793813e+000 7.071628e+000 3.983875e+000 5.863515e+000 4.925364e+000 5.012810e+000 5.777795e+000 3.656163e+000 3.208375e+000 3.880725e+000 7.137197e+000 8.265768e-001 3.911558e-001 3.174993e-001 1.122403e+000 6.489572e-001 1.015774e+000 8.387054e-001 8.243675e-001 1.117635e+000 7.266022e-001 6.275885e-001 6.482825e-001 1.001342e+000
<GCONST> 1.428658e+002
<STATE> 3
<MEAN> 39
 -1.262736e+001 -4.703793e+000 -2.155376e+000 -5.516317e-001 2.367006e+000 4.083104e+000 -8.597982e+000 -3.388555e+000 -2.691711e+000 3.444269e-001 -1.937593e+000 4.007566e+000 7.525763e+001 1.450461e-001 5.620833e-002 1.711198e-001 3.788193e-001 -9.529362e-003 -1.596236e-001 -1.190875e-001 -2.708730e-001 5.155421e-002 -2.745066e-002 5.401174e-002 -3.692425e-002 4.493296e-001 1.797522e-002 -9.293368e-003 1.576552e-002 3.141825e-002 -1.822052e-002 -3.480994e-002 3.767962e-003 -1.696598e-002 1.410487e-003 1.517148e-002 3.119435e-003 -1.587389e-002 -1.018504e-001
<VARIANCE> 39
 1.762748e+002 4.461092e+001 4.305422e+001 1.061589e+002 7.091536e+001 1.422539e+002 7.611921e+001 1.002652e+002 1.091827e+002 4.599568e+001 6.089836e+001 4.619677e+001 7.102020e+001 7.259953e+000 2.212337e+000 1.873280e+000 5.623430e+000 3.805039e+000 5.048770e+000 4.684655e+000 5.202464e+000 5.512033e+000 3.782381e+000 3.077143e+000 3.504505e+000 4.730207e+000 7.336647e-001 3.848923e-001 3.333941e-001 9.088897e-001 6.362468e-001 8.984748e-001 7.894283e-001 8.474510e-001 1.047359e+000 7.502378e-001 6.062017e-001 5.940608e-001 6.358280e-001
<GCONST> 1.410749e+002
<STATE> 4
<MEAN> 39
 -1.154033e+001 -4.790102e+000 -1.120465e+000 1.571977e+000 1.977416e+000 2.941724e+000 -9.116790e+000 -4.989922e+000 -2.489505e+000 4.224191e-001 -1.599236e+000 3.672279e+000 7.577870e+001 4.001033e-001 -2.627794e-002 2.748257e-001 4.819869e-001 -1.279802e-001 -2.341830e-001 -1.199471e-001 -3.984407e-001 -4.001916e-003 7.256969e-003 7.205848e-002 -6.954515e-002 8.189610e-002 4.650730e-002 -1.608858e-002 1.821882e-002 1.480472e-002 -2.152521e-002 -8.796155e-003 -1.241117e-003 -2.225422e-002 -1.193049e-002 1.064688e-002 1.669440e-003 -6.179695e-003 -7.369054e-002
<VARIANCE> 39
 2.030271e+002 4.420893e+001 5.027913e+001 1.026587e+002 7.542632e+001 1.569286e+002 8.096808e+001 1.231689e+002 1.085159e+002 5.035762e+001 6.288562e+001 4.283105e+001 3.998851e+001 6.711148e+000 2.209870e+000 1.915466e+000 4.412093e+000 3.668132e+000 4.298475e+000 4.500919e+000 5.474226e+000 5.194610e+000 3.779434e+000 2.977292e+000 3.152358e+000 2.570365e+000 6.349791e-001 3.835698e-001 3.456260e-001 7.250686e-001 6.276722e-001 7.824160e-001 7.513337e-001 8.896294e-001 9.484380e-001 7.502465e-001 5.879616e-001 5.506200e-001 3.559966e-001
<GCONST> 1.386508e+002
<STATE> 5
<MEAN> 39
 -8.862740e+000 -5.232865e+000 3.869084e-001 3.925650e+000 9.916538e-001 1.798521e+000 -9.617377e+000 -7.195186e+000 -2.757584e+000 4.379216e-001 -1.221829e+000 3.321854e+000 7.528645e+001 6.738743e-001 -9.169389e-002 3.510136e-001 5.104832e-001 -2.362724e-001 -2.098559e-001 -1.043764e-001 -4.944437e-001 -9.251751e-002 -8.935222e-003 7.189105e-002 -7.591777e-002 -1.086585e-001 3.330315e-002 -1.306829e-002 7.614191e-003 2.212470e-003 -1.755340e-002 8.144587e-003 8.089019e-003 -1.341776e-002 -1.317107e-002 -3.799982e-003 -2.715120e-003 -3.046781e-003 -3.885892e-002
<VARIANCE> 39
 2.219836e+002 4.398082e+001 5.475853e+001 9.643185e+001 8.549249e+001 1.658181e+002 8.479554e+001 1.358938e+002 1.043116e+002 5.388994e+001 6.589661e+001 4.208455e+001 3.186744e+001 5.894210e+000 2.134980e+000 1.925269e+000 3.685773e+000 3.672214e+000 3.888785e+000 4.421125e+000 5.737653e+000 4.939232e+000 3.694986e+000 2.941539e+000 2.980752e+000 1.346970e+000 5.482666e-001 3.738042e-001 3.513930e-001 5.983742e-001 6.308407e-001 7.084085e-001 7.324759e-001 9.291669e-001 8.596373e-001 7.272292e-001 5.751213e-001 5.312992e-001 2.044028e-001
<GCONST> 1.365502e+002
<STATE> 6
<MEAN> 39
 -5.159597e+000 -5.795725e+000 2.086666e+000 6.247154e+000 -4.009345e-001 9.037662e-001 -9.930654e+000 -9.588570e+000 -3.419742e+000 1.740367e-001 -9.226834e-001 2.946944e+000 7.445058e+001 7.716487e-001 -1.064871e-001 3.536348e-001 4.837189e-001 -2.926230e-001 -1.444707e-001 -4.616955e-002 -4.919547e-001 -1.457266e-001 -7.491445e-002 4.291415e-002 -9.064354e-002 -1.747608e-001 -7.351540e-003 -2.842801e-003 -9.800813e-003 -1.136986e-002 -6.181263e-003 1.469088e-002 1.686782e-002 7.512305e-003 -4.691156e-003 -1.545669e-002 -1.123768e-002 -5.206773e-003 -1.572787e-002
<VARIANCE> 39
 2.145976e+002 4.372278e+001 5.489316e+001 8.736483e+001 9.597986e+001 1.675457e+002 8.674432e+001 1.302760e+002 9.772010e+001 5.820797e+001 7.060636e+001 4.430283e+001 3.200212e+001 4.977909e+000 1.954091e+000 1.927749e+000 3.267022e+000 3.685506e+000 3.681359e+000 4.369337e+000 5.759483e+000 4.732115e+000 3.548148e+000 2.937776e+000 2.974072e+000 8.718768e-001 4.578010e-001 3.441958e-001 3.473269e-001 5.129159e-001 6.251765e-001 6.663071e-001 7.265846e-001 9.263093e-001 7.909527e-001 6.854300e-001 5.617842e-001 5.299023e-001 1.385145e-001
<GCONST> 1.346316e+002
<STATE> 7
<MEAN> 39
 -1.541681e+000 -6.238339e+000 3.614928e+000 8.299962e+000 -1.830930e+000 3.676805e-001 -9.935434e+000 -1.161950e+001 -4.163569e+000 -4.731202e-001 -7.999288e-001 2.479125e+000 7.360864e+001 6.458023e-001 -8.274122e-002 2.772945e-001 3.955006e-001 -2.613898e-001 -5.147474e-002 3.265551e-002 -3.813974e-001 -1.401627e-001 -1.588193e-001 -1.161511e-002 -1.162717e-001 -1.863836e-001 -4.347256e-002 1.731479e-003 -2.442442e-002 -2.618192e-002 1.318240e-002 2.263596e-002 1.868016e-002 2.896294e-002 2.164668e-003 -1.851349e-002 -1.632430e-002 -5.872024e-003 -6.642495e-003
<VARIANCE> 39
 1.782834e+002 4.336880e+001 5.175069e+001 7.473032e+001 1.010236e+002 1.621348e+002 8.590884e+001 1.089818e+002 8.968477e+001 6.428905e+001 7.657172e+001 4.760925e+001 3.419720e+001 4.083318e+000 1.713353e+000 1.931755e+000 2.970962e+000 3.584221e+000 3.521360e+000 4.300277e+000 5.425770e+000 4.534948e+000 3.381208e+000 2.954792e+000 3.064497e+000 7.553467e-001 3.585467e-001 2.989820e-001 3.350376e-001 4.526001e-001 5.933450e-001 6.322856e-001 7.276976e-001 8.691137e-001 7.409689e-001 6.377541e-001 5.494658e-001 5.368761e-001 1.124700e-001
<GCONST> 1.324493e+002
<STATE> 8
<MEAN> 39
 1.069826e+000 -6.515828e+000 4.681569e+000 9.840924e+000 -2.830778e+000 3.410688e-001 -9.606909e+000 -1.290293e+001 -4.726509e+000 -1.466915e+000 -8.886636e-001 1.912404e+000 7.282558e+001 3.832552e-001 -7.125235e-002 1.515114e-001 2.584011e-001 -1.314461e-001 7.785757e-002 1.158960e-001 -2.053120e-001 -1.115727e-001 -2.275943e-001 -6.889971e-002 -1.384965e-001 -1.979254e-001 -5.588153e-002 -4.540757e-003 -2.852838e-002 -3.228608e-002 3.129981e-002 2.958014e-002 1.773127e-002 4.063810e-002 -9.352895e-004 -1.296608e-002 -1.193827e-002 -4.582290e-003 -7.564011e-003
<VARIANCE> 39
 1.325610e+002 4.314280e+001 4.831554e+001 6.086262e+001 9.935159e+001 1.528691e+002 8.280608e+001 8.357040e+001 8.210128e+001 7.102737e+001 8.234959e+001 5.012161e+001 3.728976e+001 3.149027e+000 1.493647e+000 1.910335e+000 2.710536e+000 3.370508e+000 3.392130e+000 4.256636e+000 4.842045e+000 4.338684e+000 3.306792e+000 3.025416e+000 3.176087e+000 7.753490e-001 2.652892e-001 2.528375e-001 3.191818e-001 4.134798e-001 5.426524e-001 6.043354e-001 7.351491e-001 7.872625e-001 7.120616e-001 6.069469e-001 5.510643e-001 5.463520e-001 1.036503e-001
<GCONST> 1.300327e+002
<STATE> 9
<MEAN> 39
 2.763070e+000 -6.826550e+000 5.432179e+000 1.125657e+001 -2.661137e+000 1.472425e+000 -8.539465e+000 -1.310247e+001 -5.147834e+000 -3.478338e+000 -1.663481e+000 7.846556e-001 7.137025e+001 2.449532e-003 -1.030336e-001 -2.576417e-002 6.094456e-002 1.439714e-001 2.252500e-001 2.521252e-001 4.931303e-002 -9.604625e-002 -2.638758e-001 -9.654054e-002 -1.415749e-001 -2.235238e-001 -4.495320e-002 -1.237903e-002 -2.264204e-002 -2.474656e-002 2.855943e-002 1.438093e-002 2.061806e-002 2.598815e-002 -1.129471e-002 4.640122e-003 -4.721964e-003 -5.425624e-003 -1.312997e-002
<VARIANCE> 39
 7.238156e+001 4.295430e+001 4.563273e+001 4.684341e+001 9.082236e+001 1.348827e+002 8.264272e+001 5.750054e+001 7.398321e+001 7.819955e+001 9.146790e+001 5.138199e+001 4.802190e+001 1.718641e+000 1.234204e+000 1.758637e+000 2.406257e+000 2.952967e+000 3.388767e+000 4.470478e+000 3.891156e+000 4.262000e+000 3.533384e+000 3.201527e+000 3.194070e+000 1.077603e+000 1.542290e-001 1.957109e-001 2.948215e-001 4.021504e-001 4.802309e-001 6.116795e-001 7.870545e-001 6.792418e-001 7.341347e-001 6.155052e-001 5.860534e-001 5.490630e-001 1.299101e-001
<GCONST> 1.272689e+002
<TRANSP> 10
 0.000000e+000 1.000000e+000 0.000000e+000 0.000000e+000 0.000000e+000 0.000000e+000 0.000000e+000 0.000000e+000 0.000000e+000 0.000000e+000
 0.000000e+000 7.775373e-001 2.224627e-001 0.000000e+000 0.000000e+000 0.000000e+000 0.000000e+000 0.000000e+000 0.000000e+000 0.000000e+000
 0.000000e+000 0.000000e+000 7.775372e-001 2.224627e-001 0.000000e+000 0.000000e+000 0.000000e+000 0.000000e+000 0.000000e+000 0.000000e+000
 0.000000e+000 0.000000e+000 0.000000e+000 7.775371e-001 2.224629e-001 0.000000e+000 0.000000e+000 0.000000e+000 0.000000e+000 0.000000e+000
 0.000000e+000 0.000000e+000 0.000000e+000 0.000000e+000 7.775373e-001 2.224627e-001 0.000000e+000 0.000000e+000 0.000000e+000 0.000000e+000
 0.000000e+000 0.000000e+000 0.000000e+000 0.000000e+000 0.000000e+000 7.775372e-001 2.224628e-001 0.000000e+000 0.000000e+000 0.000000e+000
 0.000000e+000 0.000000e+000 0.000000e+000 0.000000e+000 0.000000e+000 0.000000e+000 7.775372e-001 2.224628e-001 0.000000e+000 0.000000e+000
 0.000000e+000 0.000000e+000 0.000000e+000 0.000000e+000 0.000000e+000 0.000000e+000 0.000000e+000 7.775373e-001 2.224627e-001 0.000000e+000
 0.000000e+000 0.000000e+000 0.000000e+000 0.000000e+000 0.000000e+000 0.000000e+000 0.000000e+000 0.000000e+000 9.034992e-001 9.650077e-002
 0.000000e+000 0.000000e+000 0.000000e+000 0.000000e+000 0.000000e+000 0.000000e+000 0.000000e+000 0.000000e+000 0.000000e+000 0.000000e+000
<ENDHMM>
~h "nadruhou"
<BEGINHMM>
<NUMSTATES> 10
<STATE> 2
<MEAN> 39
 1.244306e+000 -5.714474e+000 -1.020347e+000 -2.106573e+000 -1.561791e+000 -1.751249e+000 -1.393205e+001 -8.986391e+000 -3.814111e+000 -4.260114e+000 -5.484228e+000 -2.660438e+000 7.252509e+001 3.969505e-001 1.375662e-001 -3.407290e-003 -1.642473e-001 -2.380162e-002 -3.316165e-002 -1.259065e-001 -7.460114e-002 -6.861800e-002 -1.215663e-001 3.277387e-002 5.924319e-002 5.859876e-001 -3.044008e-002 -7.445390e-003 -2.386853e-002 4.724288e-003 -1.008550e-002 -1.291640e-003 5.135769e-002 1.026239e-002 -1.434596e-002 1.182694e-002 3.932865e-002 2.831260e-002 -7.494903e-002
<VARIANCE> 39
 4.495221e+001 3.955006e+001 5.368294e+001 7.834883e+001 6.792448e+001 7.856684e+001 1.049154e+002 6.783785e+001 1.109135e+002 7.352715e+001 1.148860e+002 4.439741e+001 9.126799e+001 3.555868e+000 2.833213e+000 4.218308e+000 6.119381e+000 5.479709e+000 5.102380e+000 7.015750e+000 7.215564e+000 4.770830e+000 4.500840e+000 4.636721e+000 3.625255e+000 5.888883e+000 6.006974e-001 4.520391e-001 7.076014e-001 1.007014e+000 9.270853e-001 9.184399e-001 1.080414e+000 1.365209e+000 8.754441e-001 8.789614e-001 8.298161e-001 6.906660e-001 8.433452e-001
<GCONST> 1.450887e+002
<STATE> 3
<MEAN> 39
 2.715160e+000 -5.045102e+000 -1.293447e+000 -2.550805e+000 -1.892073e+000 -1.977509e+000 -1.370084e+001 -9.356822e+000 -4.522253e+000 -4.685654e+000 -4.664306e+000 -1.831913e+000 7.407829e+001 2.826090e-001 1.492839e-001 -5.872600e-002 -6.522122e-002 -9.233340e-002 -2.727094e-002 1.020606e-001 -8.682608e-002 -1.834155e-001 -8.782793e-002 2.218457e-001 1.893729e-001 2.369514e-001 -1.895859e-002 3.677378e-003 -7.965337e-003 1.779557e-002 -1.391847e-002 4.016676e-003 3.960680e-002 -3.720682e-003 -2.149453e-002 4.756078e-003 3.384382e-002 2.069032e-002 -6.220024e-002
<VARIANCE> 39
