~o
<STREAMINFO> 1 39
<VECSIZE> 39<NULLD><MFCC_D_A_0><DIAGC>
~h "ctyri"
<BEGINHMM>
<NUMSTATES> 10
<STATE> 2
<MEAN> 39
 -1.375866e+001 -1.234275e+001 7.246114e+000 2.054088e+000 -4.215987e+000 -3.814446e+000 -2.949238e+000 -4.479681e+000 -3.876750e+000 -2.885576e+000 2.719038e+000 -2.595899e+000 6.806025e+001 3.732177e-001 1.831908e-001 3.548641e-001 -1.442392e-001 -4.295082e-001 -6.483586e-001 -6.994079e-001 1.017246e-001 -3.231227e-001 -3.372879e-001 3.264417e-001 1.807469e-002 7.320341e-001 -4.087554e-002 5.933755e-002 -2.079073e-002 -2.837664e-002 -4.398677e-002 5.175386e-003 -3.269678e-003 3.994158e-003 5.815391e-002 -3.078505e-003 1.811573e-003 9.312799e-003 -1.238057e-002
<VARIANCE> 39
 8.508537e+001 4.761055e+001 4.933106e+001 3.426119e+001 9.144259e+001 1.111897e+002 2.292266e+002 7.897183e+001 9.943260e+001 7.047144e+001 6.320774e+001 4.467620e+001 1.009447e+002 4.245216e+000 3.331702e+000 2.859537e+000 2.885622e+000 9.377339e+000 6.450133e+000 9.946611e+000 7.497426e+000 6.261998e+000 4.025954e+000 4.530128e+000 4.721933e+000 5.008758e+000 5.721489e-001 5.607144e-001 5.219301e-001 5.344218e-001 1.674861e+000 1.109014e+000 1.541667e+000 1.303840e+000 1.037860e+000 7.939300e-001 8.587083e-001 8.449665e-001 5.825422e-001
<GCONST> 1.467866e+002
<STATE> 3
<MEAN> 39
 -1.251543e+001 -1.093201e+001 8.420672e+000 1.385507e+000 -5.792618e+000 -5.676814e+000 -5.462323e+000 -4.032459e+000 -4.623171e+000 -4.203919e+000 3.707705e+000 -2.462690e+000 7.021946e+001 2.670562e-001 3.594555e-001 2.542404e-001 -1.987223e-001 -4.273093e-001 -4.433976e-001 -5.533850e-001 1.161655e-001 -8.117767e-002 -2.945385e-001 2.488065e-001 5.340312e-002 5.610267e-001 -2.281879e-002 2.247597e-002 -2.929324e-002 -1.069650e-002 4.619456e-003 6.532958e-002 5.753545e-002 1.071791e-002 6.747404e-002 2.395384e-002 -1.607024e-002 5.508554e-003 -3.766415e-002
<VARIANCE> 39
 8.549452e+001 5.757177e+001 5.778054e+001 3.677806e+001 8.941393e+001 1.004366e+002 2.334214e+002 8.923337e+001 1.068309e+002 7.901941e+001 7.105924e+001 5.046958e+001 1.024276e+002 4.753415e+000 3.779990e+000 3.147861e+000 3.182799e+000 9.107266e+000 5.418917e+000 9.379033e+000 8.131931e+000 6.927229e+000 4.287638e+000 4.947221e+000 5.400845e+000 4.230999e+000 6.597428e-001 6.402174e-001 5.629057e-001 5.774264e-001 1.539267e+000 9.113907e-001 1.491269e+000 1.360459e+000 1.119408e+000 8.143058e-001 9.108640e-001 9.431973e-001 4.812343e-001
<GCONST> 1.483719e+002
<STATE> 4
<MEAN> 39
 -1.147984e+001 -9.278525e+000 9.241500e+000 6.876174e-001 -7.011206e+000 -6.573340e+000 -7.341694e+000 -3.464437e+000 -4.838605e+000 -5.319095e+000 4.287329e+000 -2.180438e+000 7.193813e+001 2.385837e-001 3.399396e-001 1.628344e-001 -1.792179e-001 -3.434275e-001 -1.700714e-001 -3.588352e-001 1.712312e-001 2.509080e-002 -2.053500e-001 1.697876e-001 6.319255e-002 4.601854e-001 1.931315e-003 -1.865133e-002 -1.964722e-002 1.550037e-002 2.007911e-002 7.530505e-002 4.957554e-002 1.887131e-002 1.124250e-002 2.813768e-002 -1.561896e-002 -5.957680e-003 -3.009944e-002
<VARIANCE> 39
 8.120943e+001 6.177608e+001 6.513515e+001 3.960813e+001 8.681004e+001 9.119399e+001 2.084154e+002 9.883769e+001 1.102821e+002 8.265111e+001 7.802203e+001 5.256177e+001 1.090842e+002 5.448287e+000 4.189086e+000 3.342058e+000 3.699788e+000 8.526120e+000 4.574382e+000 8.430454e+000 8.306754e+000 7.451840e+000 4.545752e+000 5.131026e+000 5.629824e+000 3.704916e+000 7.815084e-001 6.812087e-001 6.088350e-001 6.735688e-001 1.345499e+000 7.875257e-001 1.358942e+000 1.360024e+000 1.178302e+000 8.343484e-001 9.235280e-001 9.802798e-001 4.366776e-001
<GCONST> 1.490478e+002
<STATE> 5
<MEAN> 39
 -1.037501e+001 -8.028829e+000 9.906757e+000 2.092912e-001 -8.068900e+000 -6.637446e+000 -8.828886e+000 -2.508379e+000 -5.235875e+000 -6.145558e+000 4.676206e+000 -1.961540e+000 7.368330e+001 2.891122e-001 2.127738e-001 1.329344e-001 -8.611339e-002 -3.187401e-001 5.640098e-002 -2.724301e-001 2.695385e-001 -7.122955e-002 -1.141101e-001 1.315949e-001 1.045748e-002 4.058751e-001 1.547666e-002 -2.927262e-002 -3.083647e-003 3.485942e-002 6.760248e-003 5.618667e-002 1.571767e-002 1.815905e-002 -3.834296e-002 2.107908e-002 -1.589110e-002 -1.907165e-002 -3.525631e-002
<VARIANCE> 39
 7.858675e+001 5.930148e+001 6.902898e+001 4.069729e+001 9.193671e+001 8.393617e+001 1.800439e+002 1.034159e+002 1.130021e+002 7.877636e+001 8.671823e+001 5.190955e+001 1.085550e+002 5.988134e+000 4.254526e+000 3.395208e+000 4.116213e+000 7.989743e+000 4.026787e+000 7.559208e+000 7.838074e+000 7.675091e+000 4.566304e+000 5.061674e+000 5.399368e+000 3.352175e+000 8.787039e-001 6.582776e-001 6.350888e-001 7.620066e-001 1.183570e+000 7.240826e-001 1.202983e+000 1.277106e+000 1.178941e+000 8.274550e-001 9.029143e-001 9.476914e-001 4.053719e-001
<GCONST> 1.484618e+002
<STATE> 6
<MEAN> 39
 -9.061726e+000 -7.300368e+000 1.058373e+001 9.506153e-002 -9.297891e+000 -6.098722e+000 -1.017768e+001 -1.117581e+000 -6.118517e+000 -6.628218e+000 5.033655e+000 -2.010101e+000 7.536495e+001 3.471667e-001 1.105476e-001 1.310425e-001 2.775797e-002 -3.470469e-001 1.977437e-001 -2.463080e-001 3.306756e-001 -2.061519e-001 -3.092245e-002 8.672143e-002 -6.186131e-002 2.826474e-001 9.289605e-003 -1.340447e-002 -2.402040e-003 3.172977e-002 2.456923e-003 2.358792e-002 2.653179e-003 -2.656886e-003 -3.303514e-002 1.486054e-002 -2.848262e-002 -1.337248e-002 -5.652391e-002
<VARIANCE> 39
 7.882394e+001 5.338445e+001 6.725267e+001 3.988153e+001 1.027260e+002 7.662626e+001 1.609531e+002 9.947314e+001 1.136226e+002 6.797462e+001 9.689658e+001 5.096233e+001 9.457619e+001 6.207793e+000 3.869002e+000 3.286978e+000 4.234335e+000 7.504605e+000 3.697272e+000 6.869622e+000 6.972881e+000 7.466641e+000 4.286681e+000 4.797359e+000 4.860592e+000 3.023522e+000 9.231651e-001 5.739703e-001 6.252561e-001 7.968842e-001 1.058555e+000 6.754673e-001 1.065473e+000 1.147277e+000 1.139675e+000 7.812351e-001 8.580601e-001 8.648170e-001 3.486949e-001
<GCONST> 1.463659e+002
<STATE> 7
<MEAN> 39
 -7.638641e+000 -6.837734e+000 1.118533e+001 3.029523e-001 -1.065715e+001 -5.249040e+000 -1.125395e+001 3.227937e-001 -7.132118e+000 -6.747370e+000 5.219254e+000 -2.231525e+000 7.645643e+001 3.644124e-001 8.629967e-002 8.835091e-002 1.015392e-001 -3.265840e-001 2.233028e-001 -1.776360e-001 2.691099e-001 -2.142435e-001 4.293748e-002 -2.231359e-002 -7.302864e-002 4.297355e-002 -2.442420e-003 3.953198e-003 -1.807601e-002 1.315525e-002 2.380592e-002 -1.445298e-002 1.454002e-002 -3.474314e-002 8.503139e-003 1.236980e-002 -4.222813e-002 9.072809e-003 -7.464059e-002
<VARIANCE> 39
 8.024538e+001 4.684848e+001 6.111823e+001 3.858545e+001 1.111336e+002 6.848266e+001 1.470724e+002 8.731970e+001 1.088068e+002 5.483100e+001 1.048881e+002 5.146531e+001 7.407423e+001 6.193784e+000 3.268647e+000 3.059023e+000 4.103500e+000 6.995715e+000 3.531724e+000 6.258382e+000 6.148859e+000 7.053719e+000 3.889784e+000 4.501861e+000 4.257664e+000 2.660800e+000 9.259994e-001 4.621418e-001 5.820464e-001 7.748639e-001 9.544409e-001 6.247975e-001 9.539105e-001 1.022606e+000 1.092368e+000 7.161107e-001 8.091613e-001 7.694042e-001 2.688525e-001
<GCONST> 1.430844e+002
<STATE> 8
<MEAN> 39
 -6.205996e+000 -6.416306e+000 1.146126e+001 6.978213e-001 -1.177001e+001 -4.501792e+000 -1.173239e+001 1.246515e+000 -7.709741e+000 -6.535235e+000 4.938364e+000 -2.326001e+000 7.642292e+001 3.521747e-001 9.941616e-002 -2.361658e-002 1.225318e-001 -1.890401e-001 1.210912e-001 -3.624539e-002 8.524799e-002 -7.743584e-002 1.013454e-001 -1.787268e-001 -1.580333e-003 -2.764724e-001 -1.005388e-002 6.103863e-003 -3.548384e-002 -2.000129e-003 5.469020e-002 -4.194842e-002 2.798438e-002 -5.571186e-002 3.809239e-002 9.646060e-003 -3.765476e-002 2.667097e-002 -7.716656e-002
<VARIANCE> 39
 8.143446e+001 4.069207e+001 5.487397e+001 3.842507e+001 1.116973e+002 6.030791e+001 1.303787e+002 7.352808e+001 1.001634e+002 4.479252e+001 1.066329e+002 5.300150e+001 6.102179e+001 6.008567e+000 2.707577e+000 2.803017e+000 3.821871e+000 6.492192e+000 3.535437e+000 5.677608e+000 5.564354e+000 6.615827e+000 3.628263e+000 4.309021e+000 3.774425e+000 2.265443e+000 9.015660e-001 3.627795e-001 5.225341e-001 7.136237e-001 8.635831e-001 5.796615e-001 8.650579e-001 9.316149e-001 1.054639e+000 6.718149e-001 7.843587e-001 6.924303e-001 1.935063e-001
<GCONST> 1.395026e+002
<STATE> 9
<MEAN> 39
 -4.695951e+000 -5.673618e+000 1.166355e+001 1.763854e+000 -1.180717e+001 -4.468003e+000 -1.084376e+001 1.658410e+000 -7.259711e+000 -6.075250e+000 2.946298e+000 -1.442102e+000 7.484795e+001 3.427226e-001 4.191245e-002 -2.105455e-001 1.499207e-001 7.064576e-002 -6.415910e-002 1.692024e-001 -1.431551e-001 1.660664e-001 1.285763e-001 -2.841627e-001 1.081377e-001 -6.474340e-001 -1.809887e-002 -2.934993e-003 -4.138287e-002 -1.688955e-003 6.495789e-002 -2.421982e-002 1.058347e-002 -4.140425e-002 2.238934e-002 4.692455e-003 -9.388195e-003 1.052830e-002 -6.006763e-002
<VARIANCE> 39
 8.565776e+001 3.537577e+001 4.238095e+001 4.553068e+001 1.049219e+002 4.940380e+001 9.455332e+001 6.356982e+001 8.856696e+001 4.070525e+001 9.203712e+001 5.224855e+001 6.156034e+001 6.061046e+000 2.306798e+000 2.574936e+000 3.585986e+000 6.266845e+000 3.477933e+000 4.886637e+000 5.077837e+000 6.250368e+000 3.955551e+000 4.182652e+000 3.527573e+000 1.700579e+000 9.177985e-001 2.908250e-001 4.769986e-001 6.577364e-001 8.201581e-001 5.350129e-001 7.858272e-001 8.716752e-001 1.043171e+000 7.454965e-001 8.034739e-001 6.717176e-001 1.299271e-001
<GCONST> 1.362945e+002
<TRANSP> 10
 0.000000e+000 1.000000e+000 0.000000e+000 0.000000e+000 0.000000e+000 0.000000e+000 0.000000e+000 0.000000e+000 0.000000e+000 0.000000e+000
 0.000000e+000 7.550233e-001 2.449766e-001 0.000000e+000 0.000000e+000 0.000000e+000 0.000000e+000 0.000000e+000 0.000000e+000 0.000000e+000
 0.000000e+000 0.000000e+000 7.550235e-001 2.449765e-001 0.000000e+000 0.000000e+000 0.000000e+000 0.000000e+000 0.000000e+000 0.000000e+000
 0.000000e+000 0.000000e+000 0.000000e+000 7.550234e-001 2.449766e-001 0.000000e+000 0.000000e+000 0.000000e+000 0.000000e+000 0.000000e+000
 0.000000e+000 0.000000e+000 0.000000e+000 0.000000e+000 7.550235e-001 2.449765e-001 0.000000e+000 0.000000e+000 0.000000e+000 0.000000e+000
 0.000000e+000 0.000000e+000 0.000000e+000 0.000000e+000 0.000000e+000 7.550236e-001 2.449764e-001 0.000000e+000 0.000000e+000 0.000000e+000
 0.000000e+000 0.000000e+000 0.000000e+000 0.000000e+000 0.000000e+000 0.000000e+000 7.550235e-001 2.449765e-001 0.000000e+000 0.000000e+000
 0.000000e+000 0.000000e+000 0.000000e+000 0.000000e+000 0.000000e+000 0.000000e+000 0.000000e+000 7.550235e-001 2.449765e-001 0.000000e+000
 0.000000e+000 0.000000e+000 0.000000e+000 0.000000e+000 0.000000e+000 0.000000e+000 0.000000e+000 0.000000e+000 8.804708e-001 1.195292e-001
 0.000000e+000 0.000000e+000 0.000000e+000 0.000000e+000 0.000000e+000 0.000000e+000 0.000000e+000 0.000000e+000 0.000000e+000 0.000000e+000
<ENDHMM>
~h "sedm"
<BEGINHMM>
<NUMSTATES> 10
<STATE> 2
<MEAN> 39
 -1.076789e+001 -7.044988e+000 -1.421801e+000 4.155711e+000 -2.480000e+000 -4.368335e+000 -1.152719e+001 -3.309634e+000 2.115530e+000 -6.038133e+000 -1.912445e+000 -1.073981e+000 7.161102e+001 1.386532e+000 -2.058438e-001 7.164966e-001 1.828798e-002 -2.248130e-001 -7.885163e-002 -8.152697e-001 -3.089535e-001 -8.521499e-002 -1.637000e-001 -2.088563e-001 -2.318641e-001 7.014575e-001 1.263188e-002 4.010385e-002 1.077270e-002 4.383555e-002 1.036470e-002 1.923428e-002 2.922576e-002 -3.786297e-002 -3.366318e-002 3.517613e-002 1.275447e-002 -2.399736e-003 -8.577543e-002
<VARIANCE> 39
 2.051489e+002 6.102137e+001 8.320522e+001 6.730346e+001 4.946550e+001 5.717931e+001 1.479858e+002 7.592731e+001 8.044640e+001 5.588238e+001 6.146460e+001 4.202243e+001 1.322467e+002 5.025761e+000 5.162036e+000 3.537475e+000 5.219057e+000 3.361764e+000 4.570006e+000 1.153963e+001 6.004349e+000 4.213574e+000 3.130198e+000 4.767733e+000 4.411617e+000 7.090169e+000 6.585950e-001 8.262665e-001 6.551037e-001 7.577018e-001 6.067399e-001 8.966665e-001 1.946310e+000 1.114398e+000 8.564016e-001 5.423227e-001 8.934410e-001 8.558625e-001 9.760910e-001
<GCONST> 1.466925e+002
<STATE> 3
<MEAN> 39
 -5.231755e+000 -7.429019e+000 1.466685e+000 4.804712e+000 -3.336185e+000 -4.348868e+000 -1.443281e+001 -4.948340e+000 1.359023e+000 -6.324889e+000 -2.525526e+000 -1.951819e+000 7.331163e+001 1.281586e+000 -3.475027e-002 6.804613e-001 2.530386e-001 -1.992843e-001 4.390629e-003 -6.278908e-001 -4.693630e-001 -2.557724e-001 -4.026671e-002 -1.006732e-001 -1.632243e-001 2.686944e-001 -4.191372e-002 3.873015e-002 -1.498129e-002 5.612852e-002 1.005097e-002 1.353562e-002 4.755539e-002 -3.744253e-002 -3.869467e-002 2.351871e-002 2.669799e-002 2.396511e-002 -9.494578e-002
<VARIANCE> 39
 1.818975e+002 5.354779e+001 7.667178e+001 7.816806e+001 4.891149e+001 6.442552e+001 1.576142e+002 9.316098e+001 8.740453e+001 5.691489e+001 7.093790e+001 4.404004e+001 6.897057e+001 4.219014e+000 4.894520e+000 3.358807e+000 5.561756e+000 3.185000e+000 4.657665e+000 1.319921e+001 6.349607e+000 4.121949e+000 3.267311e+000 5.253359e+000 4.405187e+000 5.323044e+000 5.859708e-001 8.412748e-001 6.672437e-001 8.224387e-001 6.056439e-001 8.976253e-001 2.228848e+000 1.152504e+000 8.358181e-001 5.767419e-001 9.607636e-001 8.012666e-001 7.277303e-001
<GCONST> 1.462145e+002
<STATE> 4
<MEAN> 39
 -5.559615e-001 -7.257323e+000 4.037719e+000 6.391258e+000 -4.081212e+000 -4.232988e+000 -1.653277e+001 -7.233859e+000 -1.350359e-001 -6.320960e+000 -2.603078e+000 -2.277204e+000 7.346050e+001 1.028006e+000 8.275614e-002 5.932742e-001 4.571648e-001 -1.451740e-001 6.958205e-003 -4.408426e-001 -6.042214e-001 -4.124061e-001 5.008224e-003 1.442708e-002 -1.490748e-002 -4.662702e-002 -6.688491e-002 2.252340e-002 -2.144676e-002 3.842858e-002 1.977715e-002 -6.519824e-004 4.159373e-002 -2.173596e-002 -2.925409e-002 5.089244e-003 2.010591e-002 3.395895e-002 -5.993884e-002
<VARIANCE> 39
 1.316872e+002 4.417703e+001 6.325631e+001 8.778999e+001 4.490795e+001 7.422310e+001 1.624413e+002 1.067338e+002 9.199170e+001 5.679043e+001 7.811923e+001 4.886437e+001 3.829341e+001 3.180957e+000 4.314072e+000 2.982993e+000 5.506046e+000 2.892642e+000 4.630250e+000 1.348832e+001 6.206830e+000 4.050490e+000 3.446165e+000 5.504777e+000 4.568897e+000 3.460886e+000 4.566526e-001 7.814411e-001 6.140571e-001 8.612888e-001 5.544429e-001 8.796120e-001 2.322573e+000 1.116160e+000 8.236378e-001 6.234666e-001 9.719596e-001 7.758120e-001 5.073813e-001
<GCONST> 1.437763e+002
<STATE> 5
<MEAN> 39
 2.982070e+000 -6.764097e+000 6.262082e+000 8.564450e+000 -4.491844e+000 -4.241598e+000 -1.800420e+001 -9.893452e+000 -2.140507e+000 -6.318571e+000 -2.323313e+000 -1.952632e+000 7.279822e+001 7.415034e-001 1.418990e-001 5.117807e-001 5.441234e-001 -3.178976e-002 -6.332803e-003 -2.931802e-001 -6.346651e-001 -4.910634e-001 -1.199037e-002 5.355135e-002 1.132501e-001 -1.926951e-001 -6.881475e-002 9.304310e-003 -2.012258e-002 5.950088e-003 3.278662e-002 4.073198e-003 3.635231e-002 8.385565e-003 -7.984520e-003 -6.001986e-003 -2.526694e-003 2.026211e-002 -2.575274e-002
<VARIANCE> 39
 8.235978e+001 3.804803e+001 5.126719e+001 9.001206e+001 4.079131e+001 8.520634e+001 1.594297e+002 1.092058e+002 9.037053e+001 5.479731e+001 8.159238e+001 5.721656e+001 2.706217e+001 2.212121e+000 3.650290e+000 2.542220e+000 5.109516e+000 2.562172e+000 4.400054e+000 1.253130e+001 5.692541e+000 3.964879e+000 3.606433e+000 5.493188e+000 4.867279e+000 2.194002e+000 3.218776e-001 6.726282e-001 5.209548e-001 8.474678e-001 4.762032e-001 8.233510e-001 2.187086e+000 1.006690e+000 8.092180e-001 6.719407e-001 9.331387e-001 7.863972e-001 3.498281e-001
<GCONST> 1.399476e+002
<STATE> 6
<MEAN> 39
 5.420820e+000 -6.096382e+000 8.201771e+000 1.078838e+001 -4.309819e+000 -4.218500e+000 -1.888393e+001 -1.240459e+001 -4.220983e+000 -6.467827e+000 -2.145492e+000 -1.301145e+000 7.184303e+001 4.734536e-001 1.670551e-001 4.308265e-001 4.972020e-001 1.294989e-001 4.262982e-002 -1.283269e-001 -5.337418e-001 -4.676059e-001 -4.535679e-002 -2.011974e-002 1.376904e-001 -2.485815e-001 -6.422164e-002 6.120500e-004 -2.556386e-002 -2.497158e-002 3.867185e-002 2.184277e-002 4.511975e-002 3.546904e-002 1.172948e-002 -4.713953e-003 -2.532005e-002 -6.615580e-003 -1.233924e-002
<VARIANCE> 39
 4.730181e+001 3.573750e+001 4.311082e+001 8.203111e+001 3.964454e+001 9.415775e+001 1.455667e+002 9.757564e+001 8.173061e+001 5.171621e+001 8.079420e+001 6.558332e+001 2.342581e+001 1.489078e+000 2.964458e+000 2.160261e+000 4.488138e+000 2.233985e+000 4.002148e+000 1.079149e+001 4.993978e+000 3.857407e+000 3.693713e+000 5.220542e+000 5.233985e+000 1.444855e+000 2.122195e-001 5.379722e-001 4.194215e-001 7.661361e-001 3.983991e-001 7.352443e-001 1.864329e+000 8.560205e-001 7.846748e-001 7.136593e-001 8.569911e-001 8.170128e-001 2.372483e-001
<GCONST> 1.349711e+002
<STATE> 7
<MEAN> 39
 6.852905e+000 -5.358729e+000 9.781032e+000 1.260058e+001 -3.417553e+000 -3.844235e+000 -1.896579e+001 -1.428361e+001 -6.005607e+000 -6.715811e+000 -2.491602e+000 -8.398395e-001 7.074062e+001 2.203971e-001 1.559433e-001 3.035628e-001 3.456638e-001 2.905055e-001 1.673561e-001 9.030828e-002 -3.480161e-001 -3.869272e-001 -4.785919e-002 -1.626436e-001 4.670187e-002 -2.926206e-001 -6.292873e-002 -1.184144e-002 -4.128560e-002 -4.715496e-002 3.218854e-002 3.617707e-002 5.581086e-002 4.566555e-002 1.756245e-002 5.151481e-003 -3.265905e-002 -2.981491e-002 -1.310588e-002
<VARIANCE> 39
 2.690197e+001 3.493156e+001 3.717854e+001 6.717553e+001 4.179863e+001 9.975740e+001 1.249187e+002 7.740449e+001 7.074679e+001 4.826902e+001 7.775291e+001 7.132816e+001 2.302596e+001 1.050257e+000 2.313336e+000 1.921323e+000 3.804228e+000 1.949958e+000 3.598590e+000 8.744000e+000 4.250385e+000 3.678512e+000 3.671719e+000 4.766585e+000 5.607331e+000 9.841849e-001 1.374083e-001 4.026033e-001 3.343780e-001 6.389377e-001 3.449249e-001 6.434680e-001 1.463675e+000 7.154801e-001 7.452924e-001 7.339512e-001 7.731563e-001 8.560419e-001 1.557190e-001
<GCONST> 1.292921e+002
<STATE> 8
<MEAN> 39
 7.290644e+000 -4.751006e+000 1.072213e+001 1.366953e+001 -1.931413e+000 -2.874048e+000 -1.807716e+001 -1.533261e+001 -7.418331e+000 -6.879100e+000 -3.470279e+000 -9.438406e-001 6.944018e+001 -3.924025e-002 7.684899e-002 9.942401e-002 1.236983e-001 4.003226e-001 3.284771e-001 3.294195e-001 -1.574069e-001 -3.158011e-001 -4.484368e-003 -2.932386e-001 -1.091507e-001 -3.529469e-001 -6.485266e-002 -3.136204e-002 -5.573745e-002 -5.841873e-002 1.665475e-002 3.559223e-002 5.419959e-002 4.007120e-002 1.354515e-002 1.454386e-002 -2.186623e-002 -3.865391e-002 -1.531667e-002
<VARIANCE> 39
 1.830957e+001 3.376343e+001 3.264334e+001 5.225420e+001 4.480432e+001 1.038706e+002 1.055058e+002 5.821555e+001 6.327597e+001 4.489931e+001 7.457071e+001 7.504381e+001 2.435197e+001 8.372310e-001 1.807423e+000 1.823969e+000 3.237643e+000 1.770578e+000 3.345440e+000 6.803239e+000 3.611029e+000 3.412433e+000 3.544720e+000 4.324433e+000 5.907724e+000 6.995674e-001 9.435163e-002 2.916232e-001 2.787453e-001 5.162425e-001 3.264431e-001 5.789133e-001 1.106036e+000 6.275764e-001 6.913960e-001 7.240500e-001 7.166829e-001 8.975971e-001 1.017668e-001
<GCONST> 1.240540e+002
<STATE> 9
<MEAN> 39
 6.352887e+000 -4.506313e+000 1.054477e+001 1.364830e+001 5.988930e-001 -5.054486e-001 -1.564687e+001 -1.577203e+001 -8.884906e+000 -6.656882e+000 -5.431199e+000 -2.090605e+000 6.727808e+001 -3.929578e-001 -1.558623e-001 -2.205842e-001 -1.923732e-001 4.371127e-001 4.794137e-001 5.758047e-001 2.974404e-002 -2.565501e-001 8.595750e-002 -3.486316e-001 -2.897497e-001 -4.305680e-001 -5.835713e-002 -5.480457e-002 -4.941138e-002 -5.333054e-002 -1.033355e-002 6.142899e-003 3.059443e-002 3.139652e-002 1.473408e-002 1.773306e-002 9.035022e-003 -2.175052e-002 -6.058491e-003
<VARIANCE> 39
 2.103121e+001 3.273563e+001 3.005038e+001 4.153777e+001 4.648037e+001 1.067575e+002 8.760175e+001 4.399595e+001 6.164675e+001 4.287757e+001 6.907679e+001 7.918317e+001 2.563840e+001 7.049181e-001 1.416078e+000 1.715101e+000 2.745531e+000 1.745375e+000 3.277639e+000 4.873892e+000 3.172901e+000 3.073030e+000 3.341487e+000 3.991613e+000 6.098938e+000 4.895906e-001 7.098317e-002 1.994874e-001 2.482731e-001 4.250546e-001 3.473123e-001 5.462924e-001 7.945358e-001 6.083082e-001 6.212220e-001 6.893447e-001 6.972863e-001 9.479652e-001 6.463952e-002
<GCONST> 1.197797e+002
<TRANSP> 10
 0.000000e+000 1.000000e+000 0.000000e+000 0.000000e+000 0.000000e+000 0.000000e+000 0.000000e+000 0.000000e+000 0.000000e+000 0.000000e+000
 0.000000e+000 7.616402e-001 2.383598e-001 0.000000e+000 0.000000e+000 0.000000e+000 0.000000e+000 0.000000e+000 0.000000e+000 0.000000e+000
 0.000000e+000 0.000000e+000 7.616404e-001 2.383596e-001 0.000000e+000 0.000000e+000 0.000000e+000 0.000000e+000 0.000000e+000 0.000000e+000
 0.000000e+000 0.000000e+000 0.000000e+000 7.616401e-001 2.383600e-001 0.000000e+000 0.000000e+000 0.000000e+000 0.000000e+000 0.000000e+000
 0.000000e+000 0.000000e+000 0.000000e+000 0.000000e+000 7.616402e-001 2.383598e-001 0.000000e+000 0.000000e+000 0.000000e+000 0.000000e+000
 0.000000e+000 0.000000e+000 0.000000e+000 0.000000e+000 0.000000e+000 7.616402e-001 2.383598e-001 0.000000e+000 0.000000e+000 0.000000e+000
 0.000000e+000 0.000000e+000 0.000000e+000 0.000000e+000 0.000000e+000 0.000000e+000 7.616404e-001 2.383596e-001 0.000000e+000 0.000000e+000
 0.000000e+000 0.000000e+000 0.000000e+000 0.000000e+000 0.000000e+000 0.000000e+000 0.000000e+000 7.616402e-001 2.383598e-001 0.000000e+000
 0.000000e+000 0.000000e+000 0.000000e+000 0.000000e+000 0.000000e+000 0.000000e+000 0.000000e+000 0.000000e+000 8.783062e-001 1.216939e-001
 0.000000e+000 0.000000e+000 0.000000e+000 0.000000e+000 0.000000e+000 0.000000e+000 0.000000e+000 0.000000e+000 0.000000e+000 0.000000e+000
<ENDHMM>
~h "sest"
<BEGINHMM>
<NUMSTATES> 10
<STATE> 2
<MEAN> 39
 -1.857153e+001 -9.274487e+000 -1.481002e+000 2.348487e+000 -3.063245e+000 -5.063707e+000 -6.034434e+000 -3.953304e-001 -8.635605e-001 -3.244823e+000 -1.140841e-001 1.117071e+000 6.024066e+001 8.003688e-001 -2.732017e-001 6.035344e-001 1.069262e-001 1.332146e-001 -1.603568e-001 -9.690555e-001 2.122954e-002 -1.796314e-001 -3.419088e-001 -2.695659e-001 -3.268468e-002 1.949277e+000 1.194430e-001 -6.723229e-003 1.407802e-002 -5.009934e-002 -6.284114e-004 -1.766973e-002 -8.904440e-002 3.034532e-002 -4.689875e-002 -3.633964e-003 -7.513139e-002 -3.465787e-002 8.191636e-002
<VARIANCE> 39
 1.062682e+002 5.818932e+001 7.894464e+001 4.092163e+001 3.206919e+001 7.276392e+001 1.480498e+002 1.065090e+002 6.585782e+001 7.492838e+001 4.928039e+001 2.734817e+001 3.748993e+002 6.554609e+000 2.490868e+000 3.705182e+000 2.373589e+000 2.949473e+000 5.141919e+000 8.491176e+000 7.022435e+000 4.729511e+000 5.240624e+000 3.150707e+000 2.978684e+000 1.847107e+001 9.465795e-001 3.821728e-001 5.739118e-001 3.617361e-001 5.078328e-001 9.540118e-001 1.278588e+000 1.163980e+000 8.871959e-001 1.039691e+000 5.528440e-001 5.825285e-001 3.075993e+000
<GCONST> 1.446785e+002
<STATE> 3
<MEAN> 39
 -1.537240e+001 -1.016002e+001 3.185273e-001 2.425149e+000 -2.614188e+000 -5.551108e+000 -9.568280e+000 -1.677864e-001 -1.728975e+000 -4.420608e+000 -1.334420e+000 7.844332e-001 6.657367e+001 1.032965e+000 -1.901673e-001 4.692231e-001 -8.752503e-002 1.151503e-001 -1.627819e-001 -1.132976e+000 1.718373e-001 -2.879680e-001 -3.193431e-001 -4.834101e-001 -1.518628e-001 1.860831e+000 2.954851e-002 4.065063e-002 -5.887237e-002 -5.227018e-002 -1.541799e-003 5.965746e-003 -1.551666e-003 4.146870e-002 -1.649034e-002 2.042593e-002 -5.551114e-002 -3.681406e-002 -6.668120e-002
<VARIANCE> 39
 1.304001e+002 7.440850e+001 7.796997e+001 4.616232e+001 4.542958e+001 8.925011e+001 2.055941e+002 1.401337e+002 9.388549e+001 8.860669e+001 6.834036e+001 3.642601e+001 3.075811e+002 8.052079e+000 3.298301e+000 4.093849e+000 2.675693e+000 3.251572e+000 6.254923e+000 1.056690e+001 8.094374e+000 5.718062e+000 6.193997e+000 3.607848e+000 3.686045e+000 1.822262e+001 1.167266e+000 4.623689e-001 6.101308e-001 3.995879e-001 5.425781e-001 1.156935e+000 1.590880e+000 1.346902e+000 1.080489e+000 1.185147e+000 6.503505e-001 7.076160e-001 2.965607e+000
<GCONST> 1.512153e+002
<STATE> 4
<MEAN> 39
 -1.209840e+001 -1.046548e+001 1.226420e+000 1.901629e+000 -2.111454e+000 -5.816223e+000 -1.294992e+001 6.742825e-001 -2.714879e+000 -5.292834e+000 -3.052994e+000 3.967812e-002 7.148653e+001 8.828885e-001 5.183993e-002 1.513417e-001 -2.122343e-001 1.636810e-001 -1.026556e-001 -8.856136e-001 2.907307e-001 -2.656445e-001 -1.716245e-001 -5.788801e-001 -2.511728e-001 1.324475e+000 -9.161659e-002 8.662358e-002 -1.038699e-001 -1.690898e-002 2.733856e-002 1.428670e-002 1.287961e-001 9.832690e-003 2.168335e-002 5.595976e-002 -9.327675e-003 -1.512300e-002 -1.896272e-001
<VARIANCE> 39
 1.329770e+002 9.823074e+001 7.310327e+001 5.138770e+001 6.367627e+001 9.997971e+001 2.361030e+002 1.656144e+002 1.169136e+002 9.511430e+001 8.405238e+001 4.510329e+001 2.086031e+002 8.581928e+000 4.058790e+000 4.058064e+000 2.676880e+000 3.454353e+000 6.668945e+000 1.172605e+001 8.231877e+000 6.169520e+000 6.943089e+000 4.011509e+000 4.293016e+000 1.453021e+001 1.160972e+000 5.079074e-001 5.875646e-001 4.162647e-001 5.557936e-001 1.225548e+000 1.680028e+000 1.379522e+000 1.181237e+000 1.298417e+000 7.498157e-001 8.317531e-001 2.222122e+000
<GCONST> 1.538128e+002
<STATE> 5
<MEAN> 39
 -1.000755e+001 -9.732845e+000 9.939098e-001 1.180785e+000 -1.254959e+000 -5.934374e+000 -1.480736e+001 1.677307e+000 -3.417958e+000 -5.504821e+000 -4.815242e+000 -8.782588e-001 7.420483e+001 4.088324e-001 3.929457e-001 -1.961038e-001 -1.967188e-001 3.021012e-001 -9.695475e-002 -2.827038e-001 2.211658e-001 -1.421087e-001 3.791515e-002 -5.274894e-001 -2.424812e-001 6.148788e-001 -1.588196e-001 9.979372e-002 -1.001391e-001 2.176046e-002 4.678739e-002 -8.357084e-003 2.066424e-001 -4.880680e-002 4.632958e-002 5.777158e-002 3.390475e-002 1.887107e-002 -2.191573e-001
<VARIANCE> 39
 1.241080e+002 1.295670e+002 7.048016e+001 5.338422e+001 8.219066e+001 1.055248e+002 2.441946e+002 1.739374e+002 1.277725e+002 9.147110e+001 9.300175e+001 4.827720e+001 1.318699e+002 7.972855e+000 4.395734e+000 3.680116e+000 2.512188e+000 3.497845e+000 6.490995e+000 1.192137e+001 7.841888e+000 6.075157e+000 7.104260e+000 4.310889e+000 4.541405e+000 9.318876e+000 9.802362e-001 5.051374e-001 5.484124e-001 4.067011e-001 5.493341e-001 1.182602e+000 1.625618e+000 1.286893e+000 1.173787e+000 1.342624e+000 8.238544e-001 8.936471e-001 1.347800e+000
<GCONST> 1.529409e+002
<STATE> 6
<MEAN> 39
 -9.693521e+000 -7.886052e+000 -1.778577e-001 6.688154e-001 9.043980e-002 -6.276367e+000 -1.450110e+001 2.105443e+000 -3.642110e+000 -5.124381e+000 -6.256098e+000 -1.594556e+000 7.488620e+001 -1.176189e-001 6.788347e-001 -4.543581e-001 -9.342226e-002 4.374175e-001 -1.822442e-001 3.950962e-001 -2.604905e-002 2.683154e-002 1.754405e-001 -3.761418e-001 -1.508509e-001 5.061471e-003 -1.395326e-001 6.278775e-002 -6.855341e-002 3.589066e-002 3.098829e-002 -2.465010e-002 1.940628e-001 -7.957761e-002 5.771716e-002 2.497480e-002 6.199967e-002 2.676252e-002 -1.720660e-001
<VARIANCE> 39
 1.227514e+002 1.602701e+002 7.094997e+001 5.141121e+001 9.480714e+001 1.099869e+002 2.474731e+002 1.657274e+002 1.252240e+002 8.033424e+001 9.643923e+001 4.496170e+001 9.494024e+001 6.530630e+000 4.271629e+000 3.354151e+000 2.301923e+000 3.391816e+000 6.111242e+000 1.141436e+001 7.440959e+000 5.739012e+000 6.747945e+000 4.504763e+000 4.408831e+000 4.989819e+000 7.747577e-001 4.745329e-001 5.277169e-001 3.813526e-001 5.260710e-001 1.093038e+000 1.598189e+000 1.171460e+000 1.104360e+000 1.315619e+000 8.732483e-001 8.759010e-001 7.102405e-001
<GCONST> 1.501160e+002
<STATE> 7
<MEAN> 39
 -1.084116e+001 -5.374158e+000 -1.917291e+000 4.986427e-001 1.685902e+000 -7.030379e+000 -1.231549e+001 1.588271e+000 -3.315742e+000 -4.504527e+000 -7.151272e+000 -2.006720e+000 7.414605e+001 -4.568602e-001 7.729876e-001 -5.940199e-001 1.457731e-002 4.638828e-001 -2.614702e-001 8.922796e-001 -2.915319e-001 2.120055e-001 1.996578e-001 -1.564704e-001 -8.619639e-002 -3.954963e-001 -6.665517e-002 -3.332966e-003 -3.070166e-002 3.051388e-002 -8.089936e-003 -9.623059e-003 1.124854e-001 -6.149251e-002 5.438098e-002 -3.652696e-003 8.132868e-002 5.995362e-003 -1.016165e-001
<VARIANCE> 39
 1.293156e+002 1.780299e+002 7.163575e+001 4.764336e+001 9.776241e+001 1.156287e+002 2.429845e+002 1.477638e+002 1.127285e+002 6.830456e+001 9.630576e+001 3.901643e+001 8.310032e+001 5.093287e+000 4.056289e+000 3.282510e+000 2.113942e+000 3.166249e+000 5.744108e+000 1.059069e+001 7.056203e+000 5.412808e+000 6.152552e+000 4.680103e+000 4.053024e+000 2.602058e+000 6.103122e-001 4.349726e-001 5.275470e-001 3.558468e-001 4.791539e-001 9.949675e-001 1.605573e+000 1.098384e+000 1.032948e+000 1.235863e+000 9.077085e-001 8.061033e-001 3.658469e-001
<GCONST> 1.466172e+002
<STATE> 8
<MEAN> 39
 -1.259952e+001 -2.913091e+000 -3.863659e+000 6.198311e-001 3.082727e+000 -7.948202e+000 -9.097492e+000 3.253434e-001 -2.448174e+000 -3.889356e+000 -7.293130e+000 -2.302403e+000 7.257257e+001 -5.179702e-001 6.439883e-001 -6.141572e-001 1.001021e-001 3.589012e-001 -2.378803e-001 1.072187e+000 -4.400682e-001 3.545591e-001 1.820350e-001 1.134543e-001 -9.051925e-002 -6.091315e-001 1.023449e-002 -6.661407e-002 1.055079e-002 2.620566e-002 -4.255543e-002 1.410304e-002 8.882296e-004 -2.257589e-002 2.504450e-002 -5.298442e-003 8.294041e-002 -6.735392e-003 -4.176526e-002
<VARIANCE> 39
 1.316080e+002 1.768721e+002 6.958039e+001 4.539959e+001 9.399317e+001 1.189235e+002 2.158680e+002 1.266196e+002 9.588515e+001 6.130577e+001 9.293974e+001 3.461443e+001 7.926547e+001 4.188180e+000 3.978309e+000 3.329510e+000 2.001445e+000 2.824429e+000 5.386920e+000 9.486858e+000 6.497767e+000 5.122490e+000 5.500937e+000 4.769425e+000 3.686897e+000 1.663735e+000 4.822148e-001 3.936118e-001 5.249883e-001 3.469606e-001 4.147246e-001 8.912114e-001 1.529693e+000 1.042566e+000 9.952863e-001 1.129868e+000 9.214515e-001 7.303768e-001 2.214035e-001
<GCONST> 1.430445e+002
<STATE> 9
<MEAN> 39
 -1.215958e+001 -3.289919e+000 -4.530966e+000 1.214170e+000 1.907300e+000 -7.096639e+000 -5.014053e+000 -9.575335e-001 -2.664517e+000 -3.148731e+000 -4.041842e+000 -2.528751e+000 6.877697e+001 -1.465301e-001 2.620884e-001 -3.436117e-001 1.455948e-001 4.166886e-002 -1.323167e-001 5.977919e-001 -3.886478e-001 2.187003e-001 1.414237e-001 2.957647e-001 -2.759570e-002 -4.689246e-001 4.452386e-002 -8.323199e-002 3.915954e-002 2.447878e-002 -4.489965e-002 7.582869e-003 -7.462072e-002 9.318441e-004 -1.282586e-002 -7.860191e-003 3.164709e-002 1.693698e-002 5.331685e-003
<VARIANCE> 39
 1.192722e+002 1.639923e+002 6.538752e+001 4.302159e+001 1.018869e+002 1.216420e+002 1.398743e+002 1.036793e+002 9.404859e+001 4.914960e+001 8.571219e+001 3.601340e+001 9.358830e+001 2.959147e+000 3.509421e+000 3.024952e+000 1.947096e+000 2.585456e+000 4.483335e+000 7.295799e+000 5.498550e+000 5.434921e+000 4.434198e+000 4.170879e+000 3.745176e+000 1.893791e+000 3.015974e-001 3.402829e-001 4.590235e-001 3.469987e-001 3.923770e-001 7.180031e-001 1.189871e+000 8.874320e-001 1.127883e+000 9.447941e-001 8.175478e-001 7.706878e-001 1.995613e-001
<GCONST> 1.390088e+002
<TRANSP> 10
 0.000000e+000 1.000000e+000 0.000000e+000 0.000000e+000 0.000000e+000 0.000000e+000 0.000000e+000 0.000000e+000 0.000000e+000 0.000000e+000
 0.000000e+000 7.200667e-001 2.799333e-001 0.000000e+000 0.000000e+000 0.000000e+000 0.000000e+000 0.000000e+000 0.000000e+000 0.000000e+000
 0.000000e+000 0.000000e+000 7.200668e-001 2.799331e-001 0.000000e+000 0.000000e+000 0.000000e+000 0.000000e+000 0.000000e+000 0.000000e+000
 0.000000e+000 0.000000e+000 0.000000e+000 7.200667e-001 2.799332e-001 0.000000e+000 0.000000e+000 0.000000e+000 0.000000e+000 0.000000e+000
 0.000000e+000 0.000000e+000 0.000000e+000 0.000000e+000 7.200668e-001 2.799332e-001 0.000000e+000 0.000000e+000 0.000000e+000 0.000000e+000
 0.000000e+000 0.000000e+000 0.000000e+000 0.000000e+000 0.000000e+000 7.200667e-001 2.799333e-001 0.000000e+000 0.000000e+000 0.000000e+000
 0.000000e+000 0.000000e+000 0.000000e+000 0.000000e+000 0.000000e+000 0.000000e+000 7.200670e-001 2.799331e-001 0.000000e+000 0.000000e+000
 0.000000e+000 0.000000e+000 0.000000e+000 0.000000e+000 0.000000e+000 0.000000e+000 0.000000e+000 7.200668e-001 2.799332e-001 0.000000e+000
 0.000000e+000 0.000000e+000 0.000000e+000 0.000000e+000 0.000000e+000 0.000000e+000 0.000000e+000 0.000000e+000 8.636695e-001 1.363306e-001
 0.000000e+000 0.000000e+000 0.000000e+000 0.000000e+000 0.000000e+000 0.000000e+000 0.000000e+000 0.000000e+000 0.000000e+000 0.000000e+000
<ENDHMM>
~h "vymazat"
<BEGINHMM>
<NUMSTATES> 10
<STATE> 2
<MEAN> 39
 -8.023748e-001 -7.024382e+000 7.077685e+000 5.642056e+000 -7.936314e+000 -4.958141e+000 -1.838245e+001 -4.122197e+000 -4.930451e+000 -6.413388e+000 4.343754e+000 -6.125292e-001 7.246768e+001 3.365739e-001 -8.450668e-002 1.629859e-001 -3.094652e-001 -8.187855e-002 -4.411775e-002 -3.331301e-001 2.916914e-001 4.820484e-002 -2.408099e-001 2.026663e-001 3.871946e-002 9.012835e-001 -1.931694e-002 -4.331343e-003 -6.293579e-002 -4.057548e-002 7.666884e-002 5.734124e-002 7.113898e-002 -1.683822e-002 1.662710e-002 3.250145e-002 -3.879482e-002 -3.312088e-002 -8.511074e-002
<VARIANCE> 39
 4.665159e+001 4.364816e+001 6.956263e+001 7.063745e+001 1.155379e+002 1.020554e+002 6.876101e+001 7.552356e+001 8.940722e+001 4.375595e+001 9.291467e+001 4.847053e+001 9.001927e+001 3.842861e+000 3.203373e+000 4.602276e+000 5.340849e+000 6.376245e+000 4.906329e+000 4.734717e+000 7.135592e+000 3.713309e+000 3.891804e+000 4.820857e+000 4.348235e+000 4.065540e+000 6.464147e-001 5.237181e-001 6.403011e-001 8.668820e-001 8.826897e-001 8.517421e-001 8.355319e-001 1.069795e+000 7.147458e-001 7.638844e-001 9.025239e-001 7.581736e-001 5.071500e-001
<GCONST> 1.429693e+002
<STATE> 3
<MEAN> 39
 4.961926e-001 -7.342149e+000 6.790682e+000 3.853798e+000 -7.142763e+000 -4.385377e+000 -1.901667e+001 -3.444979e+000 -4.647890e+000 -7.008718e+000 4.562672e+000 -9.521555e-001 7.524021e+001 2.615973e-001 -1.969644e-002 -2.095918e-001 -4.622972e-001 3.235049e-001 1.956636e-001 -7.951977e-002 9.905319e-002 7.245027e-002 -7.232540e-002 -3.571222e-002 -1.288082e-001 5.353647e-001 -2.223030e-002 2.236506e-002 -8.344430e-002 -3.090845e-002 8.580795e-002 4.460268e-002 5.118866e-002 -4.110790e-002 6.793149e-003 4.017665e-002 -5.337998e-002 -3.288860e-002 -7.519598e-002
<VARIANCE> 39
 3.879999e+001 4.360495e+001 8.001335e+001 8.254470e+001 1.214497e+002 1.126269e+002 6.953833e+001 7.293575e+001 1.037216e+002 3.939728e+001 8.792470e+001 4.973261e+001 5.275245e+001 3.086874e+000 3.282083e+000 4.427344e+000 6.041731e+000 5.794982e+000 4.755563e+000 4.750531e+000 7.678305e+000 3.470041e+000 3.736944e+000 4.275125e+000 4.250584e+000 3.343414e+000 5.029266e-001 4.946248e-001 6.010191e-001 9.592452e-001 7.708125e-001 7.884166e-001 8.179106e-001 1.148018e+000 6.642264e-001 7.236429e-001 7.847518e-001 7.112507e-001 3.903835e-001
<GCONST> 1.410505e+002
<STATE> 4
<MEAN> 39
 1.312418e+000 -7.095803e+000 4.822473e+000 1.505170e+000 -4.728874e+000 -3.070334e+000 -1.887678e+001 -3.522589e+000 -4.282290e+000 -6.865223e+000 3.729332e+000 -1.876002e+000 7.675831e+001 1.214584e-001 1.320889e-001 -5.556626e-001 -5.695626e-001 6.324089e-001 3.048461e-001 7.846808e-002 -3.814941e-002 1.065824e-001 9.986286e-002 -2.541705e-001 -2.282953e-001 2.886112e-001 -3.473699e-002 3.482875e-002 -6.305924e-002 -1.722630e-002 5.059056e-002 1.061855e-002 3.004933e-002 -2.210361e-002 9.870302e-003 3.811192e-002 -4.103904e-002 -1.427775e-002 -4.663679e-002
<VARIANCE> 39
 3.406581e+001 5.044214e+001 9.680212e+001 9.389417e+001 1.258575e+002 1.241531e+002 8.063717e+001 7.474744e+001 1.148812e+002 3.821678e+001 8.434374e+001 5.182052e+001 3.297974e+001 2.625541e+000 3.826718e+000 4.200176e+000 6.515836e+000 4.644176e+000 4.945872e+000 5.406564e+000 8.307977e+000 3.338907e+000 3.584430e+000 3.654740e+000 4.186617e+000 2.674236e+000 3.983437e-001 5.262541e-001 6.188776e-001 1.019417e+000 6.315879e-001 7.814770e-001 8.964744e-001 1.274799e+000 6.380544e-001 6.876936e-001 6.728467e-001 6.828635e-001 3.170940e-001
<GCONST> 1.402715e+002
<STATE> 5
<MEAN> 39
 1.374199e+000 -6.078796e+000 1.751564e+000 -1.133613e+000 -1.530182e+000 -1.750404e+000 -1.826476e+001 -3.862279e+000 -3.701474e+000 -6.056773e+000 2.197086e+000 -2.984415e+000 7.760233e+001 -4.671699e-002 2.907594e-001 -7.215359e-001 -5.957278e-001 7.160240e-001 2.507154e-001 1.647104e-001 -6.537066e-002 1.599653e-001 2.483823e-001 -3.689574e-001 -2.369446e-001 1.602447e-001 -3.115606e-002 2.592031e-002 -1.582442e-002 2.769598e-003 -2.801938e-003 -1.939348e-002 1.236845e-002 6.622521e-004 1.004680e-002 3.122601e-002 -1.513693e-002 3.849183e-003 -2.512359e-002
<VARIANCE> 39
 3.455796e+001 6.624131e+001 1.079705e+002 9.583177e+001 1.199619e+002 1.311571e+002 9.693191e+001 7.675226e+001 1.233566e+002 4.203338e+001 8.123528e+001 5.227704e+001 2.379451e+001 2.494234e+000 4.866274e+000 4.306345e+000 6.439256e+000 3.745677e+000 5.450455e+000 6.744512e+000 8.852327e+000 3.282581e+000 3.517198e+000 3.309642e+000 4.129900e+000 2.179190e+000 3.583822e-001 6.287184e-001 6.934184e-001 9.916360e-001 5.275624e-001 8.162113e-001 1.058590e+000 1.387893e+000 6.260179e-001 6.642554e-001 6.084231e-001 6.598618e-001 2.684152e-001
<GCONST> 1.406496e+002
<STATE> 6
<MEAN> 39
 7.957390e-001 -4.492599e+000 -1.480341e+000 -3.623371e+000 1.444618e+000 -9.860516e-001 -1.743311e+001 -4.112049e+000 -2.884821e+000 -4.684291e+000 4.842411e-001 -3.936193e+000 7.809590e+001 -1.409784e-001 3.542892e-001 -6.647455e-001 -5.283415e-001 5.802405e-001 1.207321e-001 1.778984e-001 -2.246917e-002 1.930839e-001 3.670907e-001 -3.675100e-001 -1.849397e-001 8.035865e-002 -6.736754e-003 -2.975054e-003 3.040531e-002 1.955698e-002 -4.528034e-002 -2.399205e-002 -4.112186e-003 1.352972e-002 1.041488e-004 2.259321e-002 7.310078e-003 1.307857e-002 -2.056498e-002
<VARIANCE> 39
 3.796534e+001 8.470988e+001 1.044624e+002 8.513618e+001 1.017629e+002 1.309085e+002 1.119230e+002 7.822268e+001 1.286919e+002 5.098824e+001 7.692979e+001 5.046363e+001 1.936229e+001 2.610786e+000 6.209030e+000 4.835356e+000 5.805008e+000 3.400969e+000 5.977661e+000 8.435255e+000 9.152817e+000 3.191194e+000 3.516251e+000 3.310899e+000 4.012137e+000 1.845612e+000 3.706785e-001 7.744398e-001 7.896269e-001 8.721388e-001 4.807280e-001 8.639411e-001 1.258937e+000 1.452441e+000 6.062814e-001 6.442458e-001 5.930088e-001 6.349357e-001 2.339053e-001
<GCONST> 1.412673e+002
<STATE> 7
<MEAN> 39
 1.035832e-001 -2.962041e+000 -4.006164e+000 -5.647021e+000 3.448252e+000 -7.730891e-001 -1.673166e+001 -4.075655e+000 -2.030659e+000 -2.875473e+000 -9.885733e-001 -4.575247e+000 7.827769e+001 -9.738848e-002 2.594703e-001 -4.443559e-001 -4.180489e-001 3.145071e-001 4.160250e-002 1.226468e-001 5.577678e-002 1.600200e-001 4.452944e-001 -2.964354e-001 -1.167391e-001 -1.456647e-002 2.191510e-002 -3.388600e-002 5.498524e-002 2.544835e-002 -6.341916e-002 -8.151888e-003 -9.618838e-003 1.689971e-002 -1.645737e-002 1.057919e-002 1.589353e-002 1.337319e-002 -2.976079e-002
<VARIANCE> 39
 3.972362e+001 9.671751e+001 8.948090e+001 6.883585e+001 7.978727e+001 1.224710e+002 1.194823e+002 7.929359e+001 1.300253e+002 6.571739e+001 7.422812e+001 4.808618e+001 1.794543e+001 2.807909e+000 7.359330e+000 5.352067e+000 4.870754e+000 3.332201e+000 6.262340e+000 9.832033e+000 9.060169e+000 3.040213e+000 3.571171e+000 3.459514e+000 3.834701e+000 1.660055e+000 3.986590e-001 8.992197e-001 8.540743e-001 7.101775e-001 4.769701e-001 8.950758e-001 1.416424e+000 1.445417e+000 5.703973e-001 6.220046e-001 6.005070e-001 6.135020e-001 2.093895e-001
<GCONST> 1.411558e+002
<STATE> 8
<MEAN> 39
 -9.773262e-002 -2.185182e+000 -5.356970e+000 -7.199862e+000 4.181111e+000 -6.680124e-001 -1.638769e+001 -3.651291e+000 -1.490107e+000 -8.301589e-001 -2.083006e+000 -4.928559e+000 7.798952e+001 5.234123e-002 5.438059e-002 -1.788075e-001 -3.093087e-001 2.836310e-002 5.361817e-002 8.234789e-002 1.307870e-001 5.121612e-002 4.631670e-001 -2.239458e-001 -6.487945e-002 -1.699278e-001 3.323749e-002 -4.319170e-002 5.197122e-002 3.063219e-002 -5.879580e-002 1.816028e-003 9.180254e-003 9.702291e-003 -2.750608e-002 -6.730602e-003 1.276775e-002 8.566831e-003 -4.557212e-002
<VARIANCE> 39
 3.870747e+001 9.915271e+001 7.220968e+001 5.490147e+001 6.419324e+001 1.061802e+002 1.181994e+002 7.844096e+001 1.279339e+002 8.835237e+001 7.733689e+001 4.693732e+001 2.122243e+001 2.822474e+000 7.656269e+000 5.335343e+000 3.967927e+000 3.206083e+000 6.163237e+000 1.035534e+001 8.468678e+000 2.927879e+000 3.716360e+000 3.581738e+000 3.647746e+000 1.631079e+000 4.067642e-001 9.365723e-001 8.418564e-001 5.591518e-001 4.860170e-001 8.857201e-001 1.456910e+000 1.350500e+000 5.388879e-001 6.023536e-001 6.058558e-001 6.014887e-001 1.926891e-001
<GCONST> 1.401253e+002
<STATE> 9
<MEAN> 39
 8.287862e-001 -2.616895e+000 -5.564677e+000 -8.642743e+000 3.480786e+000 -1.012037e-001 -1.602482e+001 -2.657318e+000 -1.606853e+000 1.996462e+000 -3.350314e+000 -5.213823e+000 7.635014e+001 2.474278e-001 -1.856205e-001 8.277678e-002 -1.116197e-001 -2.615055e-001 7.783223e-002 2.345033e-001 1.545868e-001 -1.329297e-001 3.577497e-001 -1.678564e-001 -3.649420e-002 -4.939974e-001 3.384845e-003 -1.573949e-002 2.252823e-002 5.745633e-002 -3.416852e-002 -2.643494e-002 5.114501e-002 -1.110666e-002 -1.317238e-002 -3.608370e-002 1.146429e-002 3.983938e-003 -5.193343e-002
<VARIANCE> 39
 3.453901e+001 8.924635e+001 5.253832e+001 4.255460e+001 5.728223e+001 7.711022e+001 1.095684e+002 7.103132e+001 1.205455e+002 1.325577e+002 8.894790e+001 4.732689e+001 3.731782e+001 2.380153e+000 6.330908e+000 4.353022e+000 3.137861e+000 2.835919e+000 5.465447e+000 9.534675e+000 6.958788e+000 3.044747e+000 4.108553e+000 3.728785e+000 3.497024e+000 1.718184e+000 3.648623e-001 8.096545e-001 6.978065e-001 4.095301e-001 4.875969e-001 8.122252e-001 1.304283e+000 1.100163e+000 5.627454e-001 6.001161e-001 6.057205e-001 6.110679e-001 1.831722e-001
<GCONST> 1.375042e+002
<TRANSP> 10
 0.000000e+000 1.000000e+000 0.000000e+000 0.000000e+000 0.000000e+000 0.000000e+000 0.000000e+000 0.000000e+000 0.000000e+000 0.000000e+000
 0.000000e+000 7.744314e-001 2.255686e-001 0.000000e+000 0.000000e+000 0.000000e+000 0.000000e+000 0.000000e+000 0.000000e+000 0.000000e+000
 0.000000e+000 0.000000e+000 7.744312e-001 2.255688e-001 0.000000e+000 0.000000e+000 0.000000e+000 0.000000e+000 0.000000e+000 0.000000e+000
 0.000000e+000 0.000000e+000 0.000000e+000 7.744314e-001 2.255686e-001 0.000000e+000 0.000000e+000 0.000000e+000 0.000000e+000 0.000000e+000
 0.000000e+000 0.000000e+000 0.000000e+000 0.000000e+000 7.744312e-001 2.255688e-001 0.000000e+000 0.000000e+000 0.000000e+000 0.000000e+000
 0.000000e+000 0.000000e+000 0.000000e+000 0.000000e+000 0.000000e+000 7.744315e-001 2.255685e-001 0.000000e+000 0.000000e+000 0.000000e+000
 0.000000e+000 0.000000e+000 0.000000e+000 0.000000e+000 0.000000e+000 0.000000e+000 7.744315e-001 2.255686e-001 0.000000e+000 0.000000e+000
 0.000000e+000 0.000000e+000 0.000000e+000 0.000000e+000 0.000000e+000 0.000000e+000 0.000000e+000 7.744314e-001 2.255686e-001 0.000000e+000
 0.000000e+000 0.000000e+000 0.000000e+000 0.000000e+000 0.000000e+000 0.000000e+000 0.000000e+000 0.000000e+000 8.929919e-001 1.070081e-001
 0.000000e+000 0.000000e+000 0.000000e+000 0.000000e+000 0.000000e+000 0.000000e+000 0.000000e+000 0.000000e+000 0.000000e+000 0.000000e+000
<ENDHMM>
~h "krat"
<BEGINHMM>
<NUMSTATES> 10
<STATE> 2
<MEAN> 39
 -3.454858e+000 -1.733535e+001 -3.547144e+000 -6.797869e-001 -2.672681e+000 -3.162138e+000 -9.513700e+000 4.557585e+000 -2.154240e+000 -3.154155e+000 -3.862397e+000 -2.532745e+000 7.312900e+001 4.533887e-001 -2.742206e-001 -1.122753e-001 -2.820269e-001 -1.776657e-001 -2.508923e-001 -6.257553e-001 4.631216e-001 -4.764322e-002 -4.441396e-001 5.618710e-002 -2.320225e-001 9.635316e-001 1.111902e-002 -7.153433e-003 -2.785596e-002 -9.333047e-003 4.626916e-002 1.341254e-001 5.080297e-002 -2.993877e-002 -7.470256e-004 -3.137527e-002 -5.027785e-003 -6.576503e-002 -6.286620e-002
<VARIANCE> 39
 4.441590e+001 7.096201e+001 4.334331e+001 4.543856e+001 6.996099e+001 2.075688e+002 8.929633e+001 1.035253e+002 8.256757e+001 7.186945e+001 5.719658e+001 8.634946e+001 1.014717e+002 2.904701e+000 3.530746e+000 2.888632e+000 3.098253e+000 4.177318e+000 1.144276e+001 5.757825e+000 5.239152e+000 4.839601e+000 5.124584e+000 4.107330e+000 5.898511e+000 5.106749e+000 5.782164e-001 5.236248e-001 5.135394e-001 6.100581e-001 7.228200e-001 1.656524e+000 1.001348e+000 9.157483e-001 9.058385e-001 9.486139e-001 7.965202e-001 1.129371e+000 8.071599e-001
<GCONST> 1.449352e+002
<STATE> 3
<MEAN> 39
 -1.637098e+000 -1.840515e+001 -4.360734e+000 -1.911608e+000 -2.656556e+000 -2.206158e+000 -1.120433e+001 5.855981e+000 -2.186114e+000 -5.023190e+000 -3.751197e+000 -4.338414e+000 7.588174e+001 4.087702e-001 -2.057095e-001 -2.455432e-001 -2.944826e-001 9.320866e-002 3.681541e-001 -3.114870e-001 2.308548e-001 -4.158342e-002 -4.324324e-001 4.078266e-002 -4.822172e-001 5.836959e-001 -1.742824e-002 2.860866e-002 -2.893361e-002 -1.680242e-003 6.204116e-002 1.333735e-001 7.245346e-002 -6.174066e-002 1.585217e-003 1.817646e-002 -2.152126e-004 -4.468784e-002 -8.762007e-002
<VARIANCE> 39
 3.778590e+001 8.080045e+001 5.159039e+001 4.519144e+001 7.579939e+001 2.223142e+002 7.714776e+001 9.857001e+001 9.451552e+001 7.419871e+001 6.618678e+001 9.441102e+001 6.726840e+001 2.328188e+000 3.607347e+000 2.776063e+000 2.756906e+000 3.876715e+000 8.612605e+000 5.346322e+000 5.052304e+000 4.336313e+000 4.668316e+000 3.962536e+000 5.486316e+000 3.735571e+000 4.381766e-001 4.912721e-001 4.709572e-001 5.229574e-001 6.435115e-001 1.192892e+000 8.986184e-001 8.314772e-001 7.945288e-001 8.340553e-001 7.461898e-001 1.045499e+000 5.658025e-001
<GCONST> 1.415787e+002
<STATE> 4
<MEAN> 39
 -3.439802e-001 -1.868464e+001 -5.597945e+000 -3.017102e+000 -1.512248e+000 5.803445e-001 -1.166194e+001 6.018187e+000 -2.246846e+000 -6.369945e+000 -3.622858e+000 -6.653907e+000 7.713453e+001 2.744256e-001 2.698605e-002 -3.162261e-001 -2.585524e-001 3.262562e-001 7.081569e-001 -6.334806e-002 -4.695349e-002 -4.348325e-002 -2.636463e-001 5.384016e-002 -5.318796e-001 2.634373e-001 -3.142704e-002 6.078442e-002 -6.690634e-003 9.982132e-003 4.202438e-002 5.260615e-002 4.552231e-002 -6.295412e-002 1.452460e-003 4.676206e-002 1.880733e-003 5.574937e-003 -6.665225e-002
<VARIANCE> 39
 2.923052e+001 8.491447e+001 5.639742e+001 4.426414e+001 7.913528e+001 2.266675e+002 7.156696e+001 9.698646e+001 1.039849e+002 6.942455e+001 7.494756e+001 9.123106e+001 5.359023e+001 1.657225e+000 3.273105e+000 2.299977e+000 2.434699e+000 3.322599e+000 5.612345e+000 4.587296e+000 4.556293e+000 3.683357e+000 4.053988e+000 3.674142e+000 4.774711e+000 2.275018e+000 2.889755e-001 4.076091e-001 3.725202e-001 4.416428e-001 5.469380e-001 7.806460e-001 7.812299e-001 7.204328e-001 6.717065e-001 7.030771e-001 6.864628e-001 8.851357e-001 3.442291e-001
<GCONST> 1.357375e+002
<STATE> 5
<MEAN> 39
 3.435971e-001 -1.776515e+001 -6.815410e+000 -3.834780e+000 2.544690e-001 3.683404e+000 -1.151833e+001 5.118602e+000 -2.342893e+000 -6.922636e+000 -3.401262e+000 -8.604159e+000 7.746703e+001 1.498133e-001 3.086927e-001 -2.699630e-001 -1.915395e-001 4.120712e-001 6.845678e-001 2.665247e-002 -2.749490e-001 -4.256454e-002 -7.070880e-002 5.901886e-002 -3.904717e-001 7.340244e-002 -2.385572e-002 6.002330e-002 1.886130e-002 1.504089e-002 6.484622e-003 -2.595878e-002 1.358077e-002 -4.425530e-002 1.441313e-003 4.291999e-002 -6.860808e-003 4.184841e-002 -4.162447e-002
<VARIANCE> 39
 2.470777e+001 8.557977e+001 5.578608e+001 4.281146e+001 7.803996e+001 2.141216e+002 7.103155e+001 9.713810e+001 1.108472e+002 6.084928e+001 8.066624e+001 7.810407e+001 5.694239e+001 1.151273e+000 2.608134e+000 1.761995e+000 2.134904e+000 2.872421e+000 3.934322e+000 3.940605e+000 3.938585e+000 3.159980e+000 3.388932e+000 3.368798e+000 4.042012e+000 1.370458e+000 1.878304e-001 3.131846e-001 2.723815e-001 3.742955e-001 4.683326e-001 5.254143e-001 6.849731e-001 6.151463e-001 5.852761e-001 5.911229e-001 6.341984e-001 7.168519e-001 2.008343e-001
<GCONST> 1.293332e+002
<STATE> 6
<MEAN> 39
 6.606949e-001 -1.586373e+001 -7.617922e+000 -4.361693e+000 1.988838e+000 5.991285e+000 -1.132076e+001 3.486196e+000 -2.443967e+000 -6.874425e+000 -3.212076e+000 -9.679964e+000 7.730814e+001 8.736213e-002 5.002559e-001 -1.565754e-001 -1.301869e-001 3.630743e-001 4.462910e-001 3.839454e-002 -4.056190e-001 -4.407416e-002 5.336374e-002 5.240716e-003 -1.720807e-001 -5.242072e-002 -1.022814e-002 3.310975e-002 2.646438e-002 1.393976e-002 -1.608295e-002 -6.066542e-002 1.000689e-002 -1.977955e-002 -1.556168e-003 2.348192e-002 -2.612788e-002 4.877923e-002 -3.646540e-002
<VARIANCE> 39
 2.476355e+001 8.175768e+001 5.182652e+001 4.198083e+001 7.439893e+001 1.952213e+002 7.306867e+001 9.368687e+001 1.161922e+002 5.114824e+001 8.295657e+001 6.325204e+001 6.769847e+001 8.824495e-001 1.910336e+000 1.358121e+000 1.869508e+000 2.666776e+000 3.267161e+000 3.667689e+000 3.459772e+000 2.897220e+000 2.844985e+000 3.157361e+000 3.379136e+000 1.043197e+000 1.375276e-001 2.375068e-001 2.072262e-001 3.240016e-001 4.251429e-001 4.161243e-001 6.414520e-001 5.477675e-001 5.502119e-001 5.107376e-001 5.895872e-001 5.944395e-001 1.327539e-001
<GCONST> 1.243018e+002
<STATE> 7
<MEAN> 39
 8.672251e-001 -1.353076e+001 -7.954573e+000 -4.687017e+000 3.329356e+000 7.121785e+000 -1.108595e+001 1.552372e+000 -2.595294e+000 -6.558220e+000 -3.379056e+000 -9.862205e+000 7.672044e+001 7.092782e-002 5.602776e-001 -6.266471e-002 -7.813617e-002 2.724751e-001 1.748542e-001 1.079369e-001 -4.366351e-001 -6.588016e-002 9.939099e-002 -1.395150e-001 1.430980e-002 -2.020982e-001 -5.457474e-003 3.983024e-003 1.758512e-002 1.613409e-002 -1.741955e-002 -5.503471e-002 3.251074e-002 6.208332e-004 -6.195791e-003 5.714919e-003 -4.532281e-002 3.536071e-002 -4.795155e-002
<VARIANCE> 39
 2.750483e+001 7.294236e+001 4.749932e+001 4.253264e+001 7.301205e+001 1.794768e+002 7.779414e+001 8.398032e+001 1.212606e+002 4.265918e+001 8.449447e+001 5.185329e+001 8.059135e+001 7.923110e-001 1.440546e+000 1.170236e+000 1.701862e+000 2.636020e+000 3.037895e+000 3.817006e+000 3.256949e+000 2.910299e+000 2.522949e+000 3.115085e+000 2.918726e+000 1.097920e+000 1.201384e-001 1.887933e-001 1.858586e-001 2.961912e-001 4.203507e-001 4.063965e-001 6.574430e-001 5.287721e-001 5.613114e-001 4.656464e-001 5.533039e-001 5.381361e-001 1.157352e-001
<GCONST> 1.219804e+002
<STATE> 8
<MEAN> 39
 1.064164e+000 -1.122262e+001 -8.049568e+000 -4.806983e+000 4.312326e+000 7.257579e+000 -1.036102e+001 -3.063990e-001 -2.910289e+000 -6.203908e+000 -4.266389e+000 -9.441146e+000 7.547799e+001 4.727323e-002 5.248858e-001 -2.318026e-002 -1.965630e-003 2.089754e-001 -1.399242e-002 2.972761e-001 -3.931987e-001 -1.058686e-001 9.304692e-002 -3.429738e-001 1.215581e-001 -4.159773e-001 -1.766456e-002 -1.553107e-002 9.572648e-003 2.514221e-002 -1.395017e-002 -3.517671e-002 5.066725e-002 1.638135e-002 -3.922441e-003 -6.947287e-003 -4.346573e-002 1.959069e-002 -5.507893e-002
<VARIANCE> 39
 3.135011e+001 6.215425e+001 4.387674e+001 4.449377e+001 7.554716e+001 1.648767e+002 8.701414e+001 7.063504e+001 1.259953e+002 3.729181e+001 8.784659e+001 4.369127e+001 9.432533e+001 8.375366e-001 1.208727e+000 1.206207e+000 1.665613e+000 2.750587e+000 3.124898e+000 4.285521e+000 3.316676e+000 3.153572e+000 2.427496e+000 3.238362e+000 2.748434e+000 1.360251e+000 1.246852e-001 1.627847e-001 1.978352e-001 2.914681e-001 4.497968e-001 4.670499e-001 7.202925e-001 5.493870e-001 6.075005e-001 4.569608e-001 5.384840e-001 5.371680e-001 1.325295e-001
<GCONST> 1.225007e+002
<STATE> 9
<MEAN> 39
 -1.025176e+000 -8.502889e+000 -7.102707e+000 -2.596500e+000 5.678813e+000 6.104495e+000 -7.171673e+000 -2.345762e+000 -1.741177e+000 -5.272011e+000 -6.473738e+000 -7.919909e+000 6.936545e+001 -1.032810e-001 3.242922e-001 -6.103953e-003 1.623819e-001 1.076269e-001 -1.319983e-001 5.285174e-001 -2.192868e-001 -1.293143e-001 1.414888e-002 -3.922637e-001 1.582132e-001 -5.856852e-001 -4.805151e-002 -2.505046e-002 1.196286e-002 2.536952e-002 -2.467512e-002 -3.198878e-002 2.082428e-002 3.467255e-002 1.682466e-002 -1.245655e-002 9.255550e-003 1.523245e-002 -1.357493e-002
<VARIANCE> 39
 5.984084e+001 4.558169e+001 3.862332e+001 6.842486e+001 7.281414e+001 1.328084e+002 1.021238e+002 5.136434e+001 1.205045e+002 3.634272e+001 7.979792e+001 3.780266e+001 1.494370e+002 1.205111e+000 1.058913e+000 1.447688e+000 1.779887e+000 2.934569e+000 3.743600e+000 4.808322e+000 3.454313e+000 3.550320e+000 2.597269e+000 3.376855e+000 2.945332e+000 1.947325e+000 1.712577e-001 1.400930e-001 2.453331e-001 3.159581e-001 4.861906e-001 6.079473e-001 8.013005e-001 5.904653e-001 6.668205e-001 5.090526e-001 5.405610e-001 5.882035e-001 2.363548e-001
<GCONST> 1.262722e+002
<TRANSP> 10
 0.000000e+000 1.000000e+000 0.000000e+000 0.000000e+000 0.000000e+000 0.000000e+000 0.000000e+000 0.000000e+000 0.000000e+000 0.000000e+000
 0.000000e+000 7.692563e-001 2.307437e-001 0.000000e+000 0.000000e+000 0.000000e+000 0.000000e+000 0.000000e+000 0.000000e+000 0.000000e+000
 0.000000e+000 0.000000e+000 7.692561e-001 2.307439e-001 0.000000e+000 0.000000e+000 0.000000e+000 0.000000e+000 0.000000e+000 0.000000e+000
 0.000000e+000 0.000000e+000 0.000000e+000 7.692562e-001 2.307438e-001 0.000000e+000 0.000000e+000 0.000000e+000 0.000000e+000 0.000000e+000
 0.000000e+000 0.000000e+000 0.000000e+000 0.000000e+000 7.692565e-001 2.307436e-001 0.000000e+000 0.000000e+000 0.000000e+000 0.000000e+000
 0.000000e+000 0.000000e+000 0.000000e+000 0.000000e+000 0.000000e+000 7.692565e-001 2.307435e-001 0.000000e+000 0.000000e+000 0.000000e+000
 0.000000e+000 0.000000e+000 0.000000e+000 0.000000e+000 0.000000e+000 0.000000e+000 7.692561e-001 2.307439e-001 0.000000e+000 0.000000e+000
 0.000000e+000 0.000000e+000 0.000000e+000 0.000000e+000 0.000000e+000 0.000000e+000 0.000000e+000 7.692562e-001 2.307438e-001 0.000000e+000
 0.000000e+000 0.000000e+000 0.000000e+000 0.000000e+000 0.000000e+000 0.000000e+000 0.000000e+000 0.000000e+000 9.004283e-001 9.957169e-002
 0.000000e+000 0.000000e+000 0.000000e+000 0.000000e+000 0.000000e+000 0.000000e+000 0.000000e+000 0.000000e+000 0.000000e+000 0.000000e+000
<ENDHMM>
~h "procent"
<BEGINHMM>
<NUMSTATES> 10
<STATE> 2
<MEAN> 39
 -4.867517e+000 -7.323662e+000 -3.092745e+000 -2.380340e+000 -3.816434e+000 -1.459754e+000 -1.609346e+001 -5.136577e+000 -5.245576e+000 -9.471059e-001 -1.976009e+000 -4.423868e+000 7.029313e+001 2.125357e-001 3.032757e-001 -7.699379e-004 -3.188040e-001 6.419326e-002 -1.161921e-001 -3.017375e-001 -9.357310e-002 -1.741618e-001 -1.447816e-001 -3.476391e-001 -2.373902e-001 9.232687e-001 -6.970678e-002 1.440907e-002 -1.460376e-002 3.381394e-003 3.071335e-002 -2.848708e-002 8.958099e-002 2.449736e-002 1.143256e-002 1.298519e-002 -7.921725e-003 1.861455e-002 -9.926822e-002
<VARIANCE> 39
 9.714317e+001 6.082718e+001 4.132440e+001 1.355891e+002 5.936808e+001 1.385599e+002 1.753500e+002 8.708162e+001 8.351038e+001 7.195876e+001 8.290694e+001 7.395704e+001 1.669855e+002 5.934226e+000 5.709313e+000 3.454244e+000 8.255200e+000 4.626774e+000 9.836064e+000 1.418176e+001 6.802851e+000 4.606155e+000 5.934290e+000 6.031044e+000 4.728430e+000 1.075444e+001 6.921405e-001 1.159768e+000 5.567061e-001 1.164572e+000 7.311878e-001 1.789709e+000 2.305194e+000 1.240754e+000 8.318048e-001 1.025267e+000 1.110617e+000 8.095378e-001 1.509051e+000
<GCONST> 1.552885e+002
<STATE> 3
<MEAN> 39
 -5.097081e+000 -5.759360e+000 -3.353799e+000 -3.613981e+000 -3.029142e+000 -2.604424e+000 -1.600436e+001 -5.021641e+000 -5.730786e+000 -1.333519e+000 -3.522035e+000 -5.081563e+000 7.280547e+001 -1.282245e-001 3.311321e-001 -6.181765e-002 -2.012167e-001 2.130535e-001 -3.039512e-001 1.096429e-001 1.002543e-001 -5.737069e-002 -8.527446e-002 -3.373289e-001 -1.029615e-001 4.595848e-001 -5.974457e-002 -1.591161e-003 -7.818644e-003 3.295493e-002 2.556402e-002 -3.406187e-002 7.394721e-002 4.346194e-002 2.802981e-002 9.073680e-003 5.187739e-003 2.632932e-002 -8.868560e-002
<VARIANCE> 39
 1.180924e+002 6.639526e+001 5.015273e+001 1.317317e+002 6.778494e+001 1.668058e+002 1.837383e+002 9.711801e+001 7.951933e+001 7.368533e+001 8.439967e+001 7.762472e+001 9.104121e+001 7.598668e+000 5.852851e+000 3.952376e+000 8.316061e+000 4.877451e+000 9.271961e+000 1.352621e+001 6.481901e+000 4.642835e+000 6.227442e+000 6.108986e+000 4.926122e+000 8.022485e+000 8.651342e-001 1.154513e+000 5.996180e-001 1.107256e+000 7.741232e-001 1.539013e+000 2.049560e+000 1.132505e+000 8.456169e-001 1.110850e+000 1.131036e+000 8.133749e-001 1.138144e+000
<GCONST> 1.555506e+002
<STATE> 4
<MEAN> 39
 -6.450407e+000 -4.348918e+000 -3.715562e+000 -3.946603e+000 -1.739634e+000 -4.448777e+000 -1.467580e+001 -3.896608e+000 -5.578780e+000 -1.651468e+000 -4.905842e+000 -5.152973e+000 7.387620e+001 -2.731324e-001 2.559560e-001 -4.874037e-002 1.357051e-002 2.733945e-001 -3.933213e-001 2.825906e-001 3.013752e-001 7.714830e-002 -9.191472e-002 -2.959284e-001 -8.769611e-003 2.101400e-001 -7.629530e-003 -2.327911e-002 1.049986e-002 4.627213e-002 1.188982e-003 -4.080513e-003 1.803296e-002 3.405640e-002 2.547637e-002 -4.651533e-003 9.353447e-003 1.161343e-002 -4.227710e-002
<VARIANCE> 39
 1.442271e+002 6.846413e+001 5.841531e+001 1.142535e+002 7.650454e+001 1.778470e+002 1.849766e+002 1.084390e+002 7.589568e+001 7.258685e+001 8.443624e+001 7.789713e+001 5.566386e+001 9.288239e+000 6.060462e+000 4.308080e+000 7.515213e+000 4.904464e+000 8.552178e+000 1.220747e+001 5.918710e+000 4.471966e+000 6.208850e+000 5.874658e+000 5.009659e+000 5.466259e+000 1.040226e+000 1.143991e+000 6.238923e-001 9.632742e-001 7.752853e-001 1.279771e+000 1.735685e+000 9.957979e-001 8.294837e-001 1.156303e+000 1.082410e+000 8.018394e-001 8.192959e-001
<GCONST> 1.542808e+002
<STATE> 5
<MEAN> 39
 -7.637142e+000 -3.583699e+000 -3.736236e+000 -3.251086e+000 -5.753630e-001 -6.150144e+000 -1.347801e+001 -2.101234e+000 -4.964016e+000 -2.204374e+000 -6.104064e+000 -5.097379e+000 7.456860e+001 -1.274258e-001 9.385230e-002 5.935887e-002 2.160222e-001 1.890438e-001 -2.884755e-001 1.901784e-001 3.836308e-001 1.519701e-001 -1.451554e-001 -2.573016e-001 -2.529671e-002 1.477416e-001 4.847489e-002 -3.433978e-002 2.809110e-002 3.683680e-002 -2.720604e-002 3.322307e-002 -2.514933e-002 1.288701e-003 9.405142e-003 -9.351812e-003 8.230280e-003 -1.013283e-002 -1.429276e-002
<VARIANCE> 39
 1.601526e+002 6.777467e+001 6.463869e+001 9.463574e+001 8.346786e+001 1.661010e+002 1.709641e+002 1.180881e+002 7.822343e+001 7.164840e+001 8.987958e+001 7.647148e+001 4.417346e+001 1.048682e+001 6.128623e+000 4.417028e+000 6.258090e+000 4.754410e+000 7.858381e+000 1.083255e+001 5.470349e+000 4.268004e+000 5.947159e+000 5.474854e+000 4.994750e+000 3.951325e+000 1.140132e+000 1.107524e+000 6.247474e-001 8.071306e-001 7.443798e-001 1.056065e+000 1.451938e+000 8.810823e-001 8.074249e-001 1.146894e+000 9.905133e-001 7.763184e-001 6.184022e-001
<GCONST> 1.522289e+002
<STATE> 6
<MEAN> 39
 -7.475272e+000 -3.663406e+000 -3.066726e+000 -1.880470e+000 -1.532690e-001 -6.878164e+000 -1.318007e+001 -3.658955e-001 -4.243899e+000 -3.004821e+000 -7.167673e+000 -5.419720e+000 7.524182e+001 2.071211e-001 -6.278796e-002 2.174040e-001 3.271231e-001 4.866563e-003 -5.864911e-002 2.213800e-002 2.888528e-001 1.454143e-001 -1.753614e-001 -2.248797e-001 -1.193653e-001 1.031011e-001 6.915722e-002 -2.340981e-002 3.162801e-002 1.715067e-002 -3.849159e-002 4.518902e-002 -2.344121e-002 -3.579118e-002 -7.742792e-003 -2.951660e-004 9.030730e-003 -1.751634e-002 -2.016694e-002
<VARIANCE> 39
 1.651239e+002 6.532790e+001 6.762797e+001 7.740305e+001 8.956708e+001 1.428021e+002 1.500102e+002 1.237025e+002 8.594629e+001 7.179795e+001 1.023775e+002 7.474123e+001 4.182313e+001 1.038061e+001 5.734775e+000 4.161627e+000 5.019181e+000 4.389561e+000 7.075977e+000 9.455104e+000 5.410068e+000 4.127244e+000 5.564511e+000 4.991959e+000 4.832249e+000 3.218000e+000 1.116074e+000 1.003521e+000 5.929608e-001 6.767704e-001 6.961629e-001 8.823785e-001 1.231031e+000 8.160612e-001 7.882690e-001 1.091109e+000 8.799791e-001 7.404575e-001 5.042807e-001
<GCONST> 1.496514e+002
<STATE> 7
<MEAN> 39
 -5.641784e+000 -4.264705e+000 -1.693964e+000 -2.891361e-001 -6.491196e-001 -6.496144e+000 -1.347818e+001 5.238296e-001 -3.722296e+000 -3.792015e+000 -8.085278e+000 -6.228997e+000 7.554835e+001 5.099058e-001 -1.130995e-001 3.425983e-001 3.556704e-001 -1.644235e-001 1.265742e-001 -1.800482e-002 4.491813e-002 7.891726e-002 -1.411080e-001 -1.771920e-001 -1.890381e-001 -3.611537e-002 4.284641e-002 1.077746e-003 1.756765e-002 2.912527e-003 -2.554012e-002 2.411036e-002 8.496081e-003 -5.756490e-002 -1.869958e-002 1.249859e-002 1.500229e-002 -4.306978e-003 -3.862217e-002
<VARIANCE> 39
 1.602019e+002 5.996587e+001 6.563321e+001 6.335765e+001 9.493049e+001 1.212933e+002 1.310890e+002 1.287852e+002 9.405050e+001 7.224418e+001 1.171740e+002 7.210105e+001 4.380072e+001 8.847234e+000 4.902654e+000 3.583942e+000 4.025019e+000 3.855254e+000 6.164793e+000 8.166253e+000 5.623229e+000 4.029132e+000 5.202691e+000 4.484690e+000 4.528839e+000 2.841042e+000 9.767938e-001 8.296129e-001 5.274988e-001 5.744481e-001 6.455073e-001 7.601414e-001 1.066200e+000 7.996996e-001 7.687896e-001 1.016756e+000 7.722304e-001 7.022756e-001 4.281522e-001
<GCONST> 1.464609e+002
<STATE> 8
<MEAN> 39
 -2.809422e+000 -4.758881e+000 4.375278e-002 1.297538e+000 -1.709961e+000 -5.615968e+000 -1.347978e+001 7.452291e-002 -3.564730e+000 -4.270976e+000 -8.737018e+000 -7.166154e+000 7.497912e+001 5.990955e-001 -4.541666e-002 3.702602e-001 3.486255e-001 -2.249627e-001 1.523248e-001 1.148815e-001 -2.443074e-001 -1.545326e-002 -5.867103e-002 -9.338418e-002 -1.587085e-001 -2.517866e-001 -1.021227e-002 1.581345e-002 -6.295901e-003 -4.133821e-003 1.396465e-004 -8.612215e-003 3.477345e-002 -5.156200e-002 -2.136927e-002 1.725439e-002 2.286053e-002 1.754062e-002 -4.378217e-002
<VARIANCE> 39
 1.395621e+002 5.171810e+001 5.784850e+001 5.320915e+001 9.640540e+001 1.065538e+002 1.182933e+002 1.374754e+002 9.695236e+001 7.243102e+001 1.265594e+002 6.732841e+001 5.115482e+001 6.780889e+000 3.905964e+000 2.895137e+000 3.256946e+000 3.367417e+000 5.378969e+000 7.054240e+000 5.784911e+000 3.942658e+000 4.915252e+000 4.029491e+000 4.226355e+000 2.548135e+000 7.766059e-001 6.294510e-001 4.402219e-001 4.885616e-001 6.048049e-001 6.895444e-001 9.450544e-001 8.163825e-001 7.493720e-001 9.495277e-001 6.847951e-001 6.773701e-001 3.717145e-001
<GCONST> 1.427454e+002
<STATE> 9
<MEAN> 39
 8.562275e-001 -4.561077e+000 2.323806e+000 3.511572e+000 -3.218317e+000 -5.013269e+000 -1.198331e+001 -2.423937e+000 -4.051681e+000 -4.140695e+000 -8.757748e+000 -7.927029e+000 7.253654e+001 3.021746e-001 7.456727e-002 2.164156e-001 3.092906e-001 -1.020793e-001 -4.730896e-002 4.212162e-001 -5.083368e-001 -1.270982e-001 4.249560e-002 6.963094e-002 4.783935e-002 -5.108015e-001 -7.583479e-002 -5.582937e-003 -3.676700e-002 -1.350800e-002 2.878542e-002 -2.956826e-002 3.075582e-002 -2.066802e-003 -9.560249e-003 2.999748e-003 2.224989e-002 3.544302e-002 -1.470827e-002
<VARIANCE> 39
 8.974996e+001 3.918520e+001 4.193042e+001 4.432839e+001 8.914008e+001 1.027836e+002 1.112291e+002 1.462529e+002 8.913876e+001 7.124616e+001 1.209462e+002 6.229400e+001 6.615607e+001 4.526450e+000 2.616958e+000 2.077578e+000 2.440438e+000 3.022324e+000 4.836209e+000 5.718728e+000 5.816599e+000 3.848105e+000 4.526916e+000 3.565681e+000 4.019901e+000 2.213774e+000 5.201967e-001 3.853777e-001 3.173447e-001 3.801400e-001 5.823261e-001 6.890861e-001 8.461116e-001 8.709380e-001 7.348161e-001 8.634802e-001 6.114833e-001 6.995751e-001 3.406354e-001
<GCONST> 1.373409e+002
<TRANSP> 10
 0.000000e+000 1.000000e+000 0.000000e+000 0.000000e+000 0.000000e+000 0.000000e+000 0.000000e+000 0.000000e+000 0.000000e+000 0.000000e+000
 0.000000e+000 7.817731e-001 2.182269e-001 0.000000e+000 0.000000e+000 0.000000e+000 0.000000e+000 0.000000e+000 0.000000e+000 0.000000e+000
 0.000000e+000 0.000000e+000 7.817732e-001 2.182268e-001 0.000000e+000 0.000000e+000 0.000000e+000 0.000000e+000 0.000000e+000 0.000000e+000
 0.000000e+000 0.000000e+000 0.000000e+000 7.817731e-001 2.182268e-001 0.000000e+000 0.000000e+000 0.000000e+000 0.000000e+000 0.000000e+000
 0.000000e+000 0.000000e+000 0.000000e+000 0.000000e+000 7.817731e-001 2.182268e-001 0.000000e+000 0.000000e+000 0.000000e+000 0.000000e+000
 0.000000e+000 0.000000e+000 0.000000e+000 0.000000e+000 0.000000e+000 7.817733e-001 2.182267e-001 0.000000e+000 0.000000e+000 0.000000e+000
 0.000000e+000 0.000000e+000 0.000000e+000 0.000000e+000 0.000000e+000 0.000000e+000 7.817731e-001 2.182269e-001 0.000000e+000 0.000000e+000
 0.000000e+000 0.000000e+000 0.000000e+000 0.000000e+000 0.000000e+000 0.000000e+000 0.000000e+000 7.817732e-001 2.182268e-001 0.000000e+000
 0.000000e+000 0.000000e+000 0.000000e+000 0.000000e+000 0.000000e+000 0.000000e+000 0.000000e+000 0.000000e+000 9.016225e-001 9.837744e-002
 0.000000e+000 0.000000e+000 0.000000e+000 0.000000e+000 0.000000e+000 0.000000e+000 0.000000e+000 0.000000e+000 0.000000e+000 0.000000e+000
<ENDHMM>
~h "dva"
<BEGINHMM>
<NUMSTATES> 10
<STATE> 2
<MEAN> 39
 -1.984833e+000 -5.349382e+000 1.667653e+000 4.950332e+000 2.951456e-001 -1.257866e+000 -1.246003e+001 -5.666329e+000 -3.251482e+000 -2.876404e+000 -1.584426e+000 -5.214327e+000 6.723241e+001 4.883956e-001 -1.896411e-001 -2.621384e-001 -5.780008e-001 4.375752e-002 4.193680e-001 -5.367049e-001 -1.203001e-001 -4.867051e-001 1.918018e-001 5.436746e-001 -4.443773e-001 1.157358e+000 1.097191e-002 -2.514613e-002 -3.068494e-002 -1.090649e-001 -7.089590e-002 6.664634e-002 2.961124e-002 1.422300e-002 -1.079155e-002 4.634140e-002 1.518073e-002 -4.020957e-002 -5.534329e-002
<VARIANCE> 39
 7.235974e+001 5.341972e+001 5.753518e+001 7.681697e+001 5.575449e+001 7.067111e+001 7.540906e+001 7.930329e+001 1.101233e+002 5.341059e+001 6.597462e+001 6.972591e+001 1.189386e+002 6.560912e+000 3.493504e+000 2.540612e+000 4.914819e+000 6.206724e+000 3.651192e+000 5.281254e+000 5.920848e+000 4.507804e+000 4.767201e+000 4.075726e+000 6.379376e+000 7.409194e+000 1.139509e+000 5.921733e-001 3.705919e-001 8.333006e-001 1.146366e+000 6.729215e-001 1.101995e+000 1.013213e+000 8.195983e-001 9.115067e-001 7.738333e-001 1.375216e+000 1.411181e+000
<GCONST> 1.461439e+002
<STATE> 3
<MEAN> 39
 -3.360871e-001 -6.440342e+000 4.456789e-001 2.252824e+000 3.215106e-002 7.032985e-001 -1.397670e+001 -6.039272e+000 -4.899311e+000 -1.865097e+000 2.415304e-001 -7.095129e+000 7.097800e+001 4.947600e-001 -3.255644e-001 -3.966894e-001 -8.843194e-001 -1.135861e-001 6.526964e-001 -3.567289e-001 7.046176e-003 -4.673638e-001 2.628753e-001 5.148513e-001 -5.993153e-001 9.796412e-001 3.013459e-003 -3.154451e-002 -1.468010e-002 -5.678364e-002 -2.823075e-002 5.713682e-002 5.789486e-002 4.626685e-002 1.681364e-002 -8.023123e-004 -3.168954e-002 -2.443533e-002 -4.677400e-002
<VARIANCE> 39
 5.786718e+001 4.933347e+001 6.388684e+001 1.032808e+002 5.081231e+001 9.274228e+001 7.030812e+001 7.767935e+001 1.267100e+002 5.313308e+001 8.366798e+001 8.588830e+001 8.800687e+001 5.168154e+000 2.892687e+000 2.229120e+000 4.738118e+000 5.391357e+000 3.310378e+000 5.301027e+000 5.630323e+000 3.953374e+000 4.663340e+000 4.165223e+000 6.528245e+000 5.321447e+000 9.295293e-001 4.898017e-001 3.658762e-001 8.194382e-001 1.019383e+000 6.164839e-001 1.083983e+000 9.221495e-001 7.058733e-001 9.019336e-001 7.650277e-001 1.372517e+000 1.010941e+000
<GCONST> 1.440446e+002
<STATE> 4
<MEAN> 39
 1.195134e+000 -7.887182e+000 -1.179076e+000 -1.122165e+000 -2.805026e-001 3.417253e+000 -1.476208e+001 -5.909076e+000 -6.415496e+000 -9.860375e-001 1.710597e+000 -9.429986e+000 7.413094e+001 4.406674e-001 -3.835086e-001 -4.204729e-001 -9.601330e-001 -7.641200e-002 8.105876e-001 -1.356195e-001 1.685133e-001 -3.935259e-001 1.533792e-001 3.324406e-001 -6.266972e-001 7.959066e-001 -2.620998e-002 -2.639512e-003 1.327845e-002 1.651499e-002 2.549406e-002 2.516257e-002 6.681921e-002 4.247843e-002 2.980673e-002 -4.408864e-002 -7.192477e-002 2.477023e-002 -6.422612e-002
<VARIANCE> 39
 4.176353e+001 4.394973e+001 6.098779e+001 1.186053e+002 4.441079e+001 1.122921e+002 6.012664e+001 7.537192e+001 1.358981e+002 5.020243e+001 9.949644e+001 9.105259e+001 6.892436e+001 3.692217e+000 2.415127e+000 1.950088e+000 4.241691e+000 4.453253e+000 2.856147e+000 4.694712e+000 4.997809e+000 3.302199e+000 4.313768e+000 4.032619e+000 5.978134e+000 4.009418e+000 6.587011e-001 4.121993e-001 3.447607e-001 7.094849e-001 8.561978e-001 5.380395e-001 9.470155e-001 8.065127e-001 5.811753e-001 8.167449e-001 6.941905e-001 1.195366e+000 7.256086e-001
<GCONST> 1.394028e+002
<STATE> 5
<MEAN> 39
 2.423557e+000 -9.288326e+000 -2.703416e+000 -4.446477e+000 -2.394416e-001 6.470914e+000 -1.484697e+001 -5.218818e+000 -7.590728e+000 -7.762520e-001 2.411373e+000 -1.163274e+001 7.658034e+001 3.203465e-001 -3.248689e-001 -3.406065e-001 -8.244568e-001 5.509681e-002 8.288947e-001 7.854255e-002 3.018799e-001 -2.639062e-001 -5.711843e-002 5.840915e-002 -4.768030e-001 5.340852e-001 -4.122327e-002 2.932022e-002 2.710175e-002 6.894054e-002 4.350398e-002 -1.829138e-002 6.771799e-002 2.101629e-002 4.442632e-002 -5.551907e-002 -8.768257e-002 6.729551e-002 -9.493761e-002
<VARIANCE> 39
 2.777856e+001 3.671800e+001 4.976386e+001 1.137430e+002 4.087012e+001 1.225108e+002 5.138165e+001 7.363201e+001 1.368214e+002 5.023314e+001 1.125642e+002 8.397121e+001 5.238474e+001 2.404621e+000 2.075653e+000 1.697140e+000 3.734199e+000 3.735770e+000 2.411814e+000 3.930586e+000 4.166015e+000 2.734140e+000 3.803186e+000 3.771572e+000 5.122754e+000 3.252491e+000 4.168136e-001 3.448538e-001 3.052358e-001 5.627113e-001 7.232767e-001 4.419156e-001 7.798023e-001 6.778758e-001 4.705541e-001 6.995615e-001 6.094823e-001 9.346039e-001 5.188996e-001
<GCONST> 1.330719e+002
<STATE> 6
<MEAN> 39
 3.259653e+000 -1.029787e+001 -3.842353e+000 -7.155826e+000 2.114742e-001 9.345785e+000 -1.429751e+001 -4.046627e+000 -8.213061e+000 -1.384557e+000 2.157495e+000 -1.316674e+001 7.802383e+001 1.988380e-001 -1.766471e-001 -2.400166e-001 -5.571342e-001 1.873514e-001 6.982571e-001 2.933855e-001 3.600997e-001 -8.648583e-002 -2.508620e-001 -2.369626e-001 -2.168920e-001 1.691497e-001 -3.437003e-002 4.718702e-002 1.800065e-002 9.098060e-002 3.586937e-002 -5.889954e-002 7.201207e-002 -1.207730e-002 5.435264e-002 -3.795632e-002 -8.421274e-002 8.010278e-002 -1.220989e-001
<VARIANCE> 39
 1.850957e+001 2.894504e+001 3.675368e+001 9.230791e+001 4.215193e+001 1.216170e+002 4.950263e+001 7.084269e+001 1.332163e+002 5.592799e+001 1.239536e+002 7.292430e+001 4.029253e+001 1.479116e+000 1.793712e+000 1.448235e+000 3.337098e+000 3.288934e+000 2.093365e+000 3.551872e+000 3.462705e+000 2.339906e+000 3.345258e+000 3.524606e+000 4.247910e+000 2.821980e+000 2.487419e-001 2.827956e-001 2.635084e-001 4.376786e-001 6.384937e-001 3.498350e-001 6.742553e-001 5.653476e-001 3.955807e-001 6.000463e-001 5.502457e-001 6.981568e-001 3.640627e-001
<GCONST> 1.266248e+002
<STATE> 7
<MEAN> 39
 3.791391e+000 -1.068478e+001 -4.642938e+000 -8.854936e+000 1.042598e+000 1.158161e+001 -1.304908e+001 -2.718590e+000 -8.201416e+000 -2.606694e+000 9.171010e-001 -1.372232e+001 7.810487e+001 1.169660e-001 4.759482e-003 -1.938146e-001 -2.287697e-001 2.861827e-001 4.500206e-001 5.366446e-001 2.916410e-001 9.618315e-002 -3.517720e-001 -5.125629e-001 6.719555e-002 -2.777444e-001 -2.381730e-002 4.304763e-002 -1.887520e-003 9.055202e-002 1.609344e-002 -8.448680e-002 7.412273e-002 -4.715161e-002 4.915461e-002 -8.979772e-003 -6.802458e-002 6.754754e-002 -1.307989e-001
<VARIANCE> 39
 1.375469e+001 2.315400e+001 2.692682e+001 6.604508e+001 4.728792e+001 1.140949e+002 5.765550e+001 6.395397e+001 1.291615e+002 6.409858e+001 1.335293e+002 6.664474e+001 3.965792e+001 9.482712e-001 1.542185e+000 1.273014e+000 2.975623e+000 3.051032e+000 1.962804e+000 3.703596e+000 3.116810e+000 2.140187e+000 3.108057e+000 3.413917e+000 3.505481e+000 2.528575e+000 1.521307e-001 2.385042e-001 2.361136e-001 3.582092e-001 5.908303e-001 2.902889e-001 6.668103e-001 4.943959e-001 3.631178e-001 5.440868e-001 5.381497e-001 5.457411e-001 2.553459e-001
<GCONST> 1.219070e+002
<STATE> 8
<MEAN> 39
 4.141926e+000 -1.042098e+001 -5.358407e+000 -9.339499e+000 2.165780e+000 1.286254e+001 -1.095179e+001 -1.736950e+000 -7.653248e+000 -4.047059e+000 -1.230440e+000 -1.324525e+001 7.657942e+001 5.352661e-002 1.454828e-001 -2.192238e-001 9.194716e-002 3.168280e-001 1.436463e-001 7.869138e-001 1.089976e-001 2.262443e-001 -3.409260e-001 -7.217500e-001 2.977424e-001 -7.299100e-001 -2.602661e-002 2.122271e-002 -1.232141e-002 7.392529e-002 -1.203039e-002 -8.705174e-002 5.579703e-002 -5.951232e-002 2.573252e-002 1.660042e-002 -3.321224e-002 3.782241e-002 -1.086900e-001
<VARIANCE> 39
 1.252878e+001 2.072945e+001 2.167706e+001 4.626460e+001 5.247485e+001 1.069986e+002 7.519724e+001 5.364722e+001 1.253125e+002 6.877218e+001 1.384671e+002 6.761273e+001 5.415958e+001 7.186021e-001 1.350366e+000 1.232787e+000 2.552741e+000 2.964527e+000 1.983696e+000 4.070385e+000 3.112664e+000 2.095642e+000 3.110308e+000 3.498615e+000 2.968702e+000 2.131085e+000 1.070090e-001 2.189423e-001 2.313362e-001 3.212367e-001 5.680408e-001 2.800472e-001 7.333347e-001 4.852560e-001 3.637911e-001 5.323851e-001 5.761528e-001 4.790791e-001 1.869730e-001
<GCONST> 1.198496e+002
<STATE> 9
<MEAN> 39
 4.558967e+000 -9.488748e+000 -6.200481e+000 -8.574251e+000 3.813962e+000 1.375870e+001 -7.788589e+000 -1.394905e+000 -6.105376e+000 -5.601008e+000 -5.212358e+000 -1.216573e+001 7.305241e+001 -5.260249e-002 2.294112e-001 -2.788233e-001 3.784474e-001 2.496591e-001 -1.900226e-001 9.681978e-001 -6.062960e-002 2.148567e-001 -2.384563e-001 -7.667210e-001 4.360200e-001 -1.114620e+000 -4.358882e-002 -4.302546e-003 5.925144e-003 4.953216e-002 -4.055049e-002 -7.032415e-002 6.248836e-003 -3.393893e-002 -1.142545e-002 3.224035e-002 3.163573e-002 7.148218e-006 -5.157487e-002
<VARIANCE> 39
 1.428984e+001 2.180981e+001 2.025356e+001 3.551529e+001 5.231867e+001 1.017536e+002 9.780822e+001 4.402006e+001 1.177486e+002 6.699826e+001 1.335163e+002 7.101524e+001 7.941885e+001 6.831231e-001 1.203268e+000 1.304166e+000 2.047245e+000 2.880208e+000 1.927526e+000 4.413625e+000 3.512518e+000 2.134822e+000 3.305471e+000 3.998652e+000 2.694504e+000 1.454545e+000 8.970778e-002 2.077391e-001 2.459470e-001 3.108784e-001 5.382437e-001 2.939407e-001 8.364533e-001 6.075218e-001 3.920629e-001 5.471303e-001 6.753905e-001 4.825823e-001 1.325565e-001
<GCONST> 1.196413e+002
<TRANSP> 10
 0.000000e+000 1.000000e+000 0.000000e+000 0.000000e+000 0.000000e+000 0.000000e+000 0.000000e+000 0.000000e+000 0.000000e+000 0.000000e+000
 0.000000e+000 7.247183e-001 2.752816e-001 0.000000e+000 0.000000e+000 0.000000e+000 0.000000e+000 0.000000e+000 0.000000e+000 0.000000e+000
 0.000000e+000 0.000000e+000 7.247185e-001 2.752815e-001 0.000000e+000 0.000000e+000 0.000000e+000 0.000000e+000 0.000000e+000 0.000000e+000
 0.000000e+000 0.000000e+000 0.000000e+000 7.247183e-001 2.752817e-001 0.000000e+000 0.000000e+000 0.000000e+000 0.000000e+000 0.000000e+000
 0.000000e+000 0.000000e+000 0.000000e+000 0.000000e+000 7.247183e-001 2.752817e-001 0.000000e+000 0.000000e+000 0.000000e+000 0.000000e+000
 0.000000e+000 0.000000e+000 0.000000e+000 0.000000e+000 0.000000e+000 7.247184e-001 2.752816e-001 0.000000e+000 0.000000e+000 0.000000e+000
 0.000000e+000 0.000000e+000 0.000000e+000 0.000000e+000 0.000000e+000 0.000000e+000 7.247185e-001 2.752816e-001 0.000000e+000 0.000000e+000
 0.000000e+000 0.000000e+000 0.000000e+000 0.000000e+000 0.000000e+000 0.000000e+000 0.000000e+000 7.247185e-001 2.752815e-001 0.000000e+000
 0.000000e+000 0.000000e+000 0.000000e+000 0.000000e+000 0.000000e+000 0.000000e+000 0.000000e+000 0.000000e+000 8.416168e-001 1.583832e-001
 0.000000e+000 0.000000e+000 0.000000e+000 0.000000e+000 0.000000e+000 0.000000e+000 0.000000e+000 0.000000e+000 0.000000e+000 0.000000e+000
<ENDHMM>
~h "rovnase"
<BEGINHMM>
<NUMSTATES> 10
<STATE> 2
<MEAN> 39
 -1.516922e+000 -8.609611e+000 -4.532736e+000 1.029319e+000 -2.775997e+000 5.338256e-001 -1.581241e+001 -6.187209e+000 -3.520393e+000 -4.604882e-001 -1.058367e+000 -1.331541e+000 7.446973e+001 2.096330e-001 2.146166e-001 1.010288e-001 -2.946537e-002 1.533319e-001 -4.205119e-002 -9.470516e-002 5.668918e-002 -1.126820e-001 -1.802281e-001 -1.878055e-001 -1.132746e-001 6.769994e-001 -4.164036e-002 3.016294e-003 4.803886e-003 -5.216258e-003 1.206291e-002 3.438347e-003 2.416130e-002 3.645779e-002 1.350929e-002 -9.698488e-003 -8.781937e-003 -1.222534e-002 -6.672463e-002
<VARIANCE> 39
 6.587508e+001 5.901704e+001 4.417573e+001 5.888103e+001 6.707874e+001 8.909042e+001 1.194839e+002 1.125874e+002 1.364861e+002 8.649311e+001 7.074756e+001 7.090834e+001 1.032232e+002 3.161154e+000 3.384153e+000 2.821180e+000 5.387640e+000 4.529474e+000 5.530416e+000 8.973258e+000 9.961566e+000 6.472980e+000 4.956511e+000 3.921056e+000 3.850131e+000 5.963163e+000 5.029712e-001 4.383266e-001 4.503293e-001 8.577262e-001 8.056191e-001 9.887727e-001 1.453853e+000 2.015674e+000 1.114014e+000 8.205482e-001 6.712734e-001 5.664455e-001 8.294128e-001
<GCONST> 1.464569e+002
<STATE> 3
<MEAN> 39
 -1.200770e+000 -7.584846e+000 -3.914963e+000 7.384389e-001 -1.758969e+000 5.827011e-001 -1.603462e+001 -5.150540e+000 -3.721409e+000 -1.598634e+000 -2.145860e+000 -2.273020e+000 7.667747e+001 9.160821e-003 1.992223e-001 1.013855e-001 -6.012138e-002 2.136989e-001 -1.440974e-002 -1.388288e-002 2.448522e-001 -2.800047e-002 -2.354113e-001 -2.191657e-001 -2.120578e-001 4.046195e-001 -3.389151e-002 -5.846702e-003 -1.878523e-003 -5.010896e-003 6.991572e-003 5.228867e-003 1.253220e-002 3.340996e-002 1.638732e-002 -5.039496e-003 -1.467894e-003 -1.409952e-002 -5.324930e-002
<VARIANCE> 39
 6.752901e+001 5.758426e+001 4.828231e+001 5.803484e+001 6.759370e+001 1.057666e+002 1.346528e+002 1.269572e+002 1.453810e+002 8.665034e+001 7.219106e+001 7.204559e+001 5.711913e+001 2.956666e+000 3.197736e+000 2.968580e+000 5.042673e+000 4.188547e+000 5.207020e+000 8.872118e+000 1.079156e+001 5.864820e+000 4.756854e+000 3.742504e+000 3.472970e+000 3.819750e+000 4.548390e-001 4.078103e-001 4.605943e-001 7.875995e-001 7.382501e-001 8.747352e-001 1.372848e+000 2.151410e+000 1.017422e+000 7.990661e-001 6.452211e-001 5.157294e-001 5.377284e-001
<GCONST> 1.443947e+002
<STATE> 4
<MEAN> 39
 -1.752415e+000 -6.696493e+000 -3.532860e+000 3.249018e-001 -4.685874e-001 6.400300e-001 -1.584503e+001 -3.453822e+000 -3.576361e+000 -2.900094e+000 -3.293106e+000 -3.661045e+000 7.802322e+001 -1.362250e-001 1.694782e-001 4.609507e-002 -7.453936e-002 2.450803e-001 -2.506114e-002 6.503429e-002 3.479924e-001 2.819968e-002 -2.368346e-001 -2.120655e-001 -2.649178e-001 2.332164e-001 -2.143152e-002 -6.849138e-003 -1.043792e-002 -1.046033e-003 1.717543e-003 -2.130823e-003 1.312668e-002 1.557279e-002 8.272971e-003 4.666065e-003 4.896832e-003 -3.718233e-003 -3.349148e-002
<VARIANCE> 39
 7.872021e+001 5.656892e+001 5.229186e+001 5.612413e+001 6.612317e+001 1.267390e+002 1.528689e+002 1.344086e+002 1.578019e+002 7.966834e+001 7.213011e+001 6.849752e+001 3.819910e+001 3.014360e+000 2.950759e+000 3.084813e+000 4.600688e+000 3.823797e+000 5.015580e+000 8.653869e+000 1.097608e+001 5.257286e+000 4.521687e+000 3.732691e+000 3.125668e+000 2.402755e+000 4.309658e-001 3.735497e-001 4.640599e-001 7.150178e-001 6.644765e-001 7.674879e-001 1.273929e+000 2.145836e+000 9.185640e-001 7.724443e-001 6.381404e-001 4.786651e-001 3.424090e-001
<GCONST> 1.422637e+002
<STATE> 5
<MEAN> 39
 -2.950127e+000 -5.827406e+000 -3.633574e+000 -4.115198e-002 9.110440e-001 3.304883e-001 -1.503403e+001 -1.658368e+000 -3.351261e+000 -4.024769e+000 -4.367269e+000 -5.063253e+000 7.879292e+001 -2.309916e-001 1.651093e-001 -3.640013e-002 -5.421093e-002 2.418502e-001 -9.892682e-002 1.759844e-001 3.468746e-001 3.005753e-002 -1.839963e-001 -1.870234e-001 -2.366851e-001 1.161018e-001 -1.104798e-002 -1.986237e-003 -1.193131e-002 5.313159e-003 -4.008263e-003 -1.167339e-002 1.837873e-002 -3.698453e-003 -1.568909e-003 1.200876e-002 5.861468e-003 1.022284e-002 -2.324681e-002
<VARIANCE> 39
 9.574033e+001 5.809154e+001 5.678129e+001 5.320127e+001 6.361446e+001 1.484733e+002 1.737832e+002 1.314679e+002 1.702006e+002 6.881858e+001 7.110984e+001 6.123069e+001 3.033553e+001 3.341079e+000 2.736806e+000 3.121562e+000 4.119083e+000 3.515532e+000 4.967688e+000 8.406704e+000 1.046308e+001 4.780639e+000 4.353265e+000 3.837157e+000 2.911626e+000 1.708091e+000 4.303944e-001 3.435798e-001 4.561402e-001 6.425468e-001 5.994033e-001 6.871901e-001 1.182187e+000 1.991324e+000 8.349164e-001 7.513301e-001 6.476295e-001 4.557625e-001 2.390635e-001
<GCONST> 1.404650e+002
<STATE> 6
<MEAN> 39
 -4.547617e+000 -4.827261e+000 -4.161047e+000 -1.745654e-001 2.167688e+000 -6.246402e-001 -1.352407e+001 -1.694303e-001 -3.262809e+000 -4.748593e+000 -5.331154e+000 -6.075378e+000 7.904254e+001 -2.675489e-001 1.774392e-001 -8.674946e-002 -6.994020e-003 2.004146e-001 -2.017298e-001 2.833691e-001 2.797910e-001 1.844122e-003 -1.031918e-001 -1.634578e-001 -1.446795e-001 1.200038e-002 6.881214e-004 -6.451227e-004 -3.585615e-003 8.287947e-003 -1.013397e-002 -1.387172e-002 1.680376e-002 -1.523206e-002 -4.218442e-003 1.483001e-002 3.298632e-003 1.933883e-002 -2.131398e-002
<VARIANCE> 39
 1.146350e+002 6.170719e+001 6.126437e+001 5.013255e+001 6.110686e+001 1.660081e+002 1.931351e+002 1.220755e+002 1.768270e+002 5.930389e+001 6.870927e+001 5.426798e+001 2.592277e+001 3.887018e+000 2.624920e+000 3.091481e+000 3.668588e+000 3.296065e+000 4.978631e+000 8.218035e+000 9.430872e+000 4.456432e+000 4.260424e+000 3.917365e+000 2.856759e+000 1.401644e+000 4.536824e-001 3.271595e-001 4.388937e-001 5.730529e-001 5.486163e-001 6.353805e-001 1.120901e+000 1.736719e+000 7.749337e-001 7.400410e-001 6.602937e-001 4.501474e-001 1.928037e-001
<GCONST> 1.391055e+002
<STATE> 7
<MEAN> 39
 -6.134317e+000 -3.767238e+000 -4.753865e+000 -3.172734e-002 3.082675e+000 -2.144613e+000 -1.162544e+001 9.144694e-001 -3.336780e+000 -5.005349e+000 -6.173113e+000 -6.499250e+000 7.879652e+001 -2.176534e-001 1.635626e-001 -6.307554e-002 3.426659e-002 1.233689e-001 -2.681186e-001 3.249776e-001 2.019791e-001 -1.572493e-002 -1.918924e-002 -1.442723e-001 -3.121848e-002 -8.772823e-002 1.580872e-002 -6.396010e-003 8.771815e-003 5.373983e-003 -1.514233e-002 -6.218029e-003 5.942219e-003 -1.715693e-002 2.467481e-004 1.420490e-002 1.450141e-003 2.023154e-002 -2.161789e-002
<VARIANCE> 39
 1.311277e+002 6.473246e+001 6.487392e+001 4.828863e+001 5.970099e+001 1.726934e+002 2.024816e+002 1.128071e+002 1.754329e+002 5.514858e+001 6.478154e+001 5.118516e+001 2.363005e+001 4.582953e+000 2.626052e+000 3.035774e+000 3.331055e+000 3.161182e+000 4.975522e+000 8.141452e+000 8.247334e+000 4.258810e+000 4.221919e+000 3.884784e+000 2.924485e+000 1.271942e+000 4.998941e-001 3.287487e-001 4.150818e-001 5.146169e-001 5.134764e-001 6.056063e-001 1.094962e+000 1.461522e+000 7.395510e-001 7.362360e-001 6.617888e-001 4.624842e-001 1.771012e-001
<GCONST> 1.382505e+002
<STATE> 8
<MEAN> 39
 -7.147242e+000 -2.937047e+000 -4.962416e+000 2.489419e-001 3.491914e+000 -3.793152e+000 -9.903062e+000 1.745892e+000 -3.438094e+000 -4.840206e+000 -6.864359e+000 -6.360863e+000 7.812610e+001 -7.454437e-002 9.700340e-002 2.786655e-002 4.616849e-002 2.705920e-002 -2.523274e-001 2.786913e-001 1.495821e-001 -2.203382e-003 5.060517e-002 -1.213819e-001 6.326924e-002 -1.817680e-001 2.737519e-002 -1.476524e-002 1.692810e-002 1.626044e-003 -1.642921e-002 6.661209e-003 -6.633331e-003 -1.404438e-002 5.084190e-003 1.063909e-002 2.831524e-003 1.410446e-002 -2.179379e-002
<VARIANCE> 39
 1.432826e+002 6.513424e+001 6.808806e+001 4.821515e+001 6.017041e+001 1.642233e+002 1.976544e+002 1.076507e+002 1.690028e+002 5.777162e+001 6.027302e+001 5.220499e+001 2.421142e+001 5.249238e+000 2.670860e+000 2.949321e+000 3.157325e+000 3.069053e+000 4.914921e+000 8.131926e+000 7.258093e+000 4.122056e+000 4.220059e+000 3.746627e+000 3.055936e+000 1.260484e+000 5.564952e-001 3.415372e-001 3.869269e-001 4.742618e-001 4.908552e-001 5.869910e-001 1.087964e+000 1.228239e+000 7.182435e-001 7.347143e-001 6.449369e-001 4.875058e-001 1.781455e-001
<GCONST> 1.378632e+002
<STATE> 9
<MEAN> 39
 -6.982480e+000 -2.492334e+000 -3.928553e+000 7.441002e-001 3.294513e+000 -5.691035e+000 -8.299367e+000 3.196597e+000 -3.078948e+000 -3.618909e+000 -7.646471e+000 -5.322121e+000 7.645151e+001 2.696191e-001 -1.087471e-001 2.395251e-001 3.583516e-002 -1.168880e-001 -2.954820e-002 7.307598e-002 1.596524e-001 3.832369e-002 1.096230e-001 -1.533326e-002 1.287993e-001 -3.150299e-001 2.006624e-002 -2.236316e-002 1.090686e-002 6.248070e-003 -7.941329e-003 2.493767e-002 -4.238350e-003 -2.121355e-002 1.093217e-005 -2.549047e-003 1.022098e-002 -2.378528e-004 -2.554621e-002
<VARIANCE> 39
 1.535903e+002 6.219789e+001 7.415130e+001 5.175049e+001 6.379291e+001 1.276932e+002 1.735369e+002 1.081423e+002 1.617547e+002 7.252245e+001 5.557295e+001 5.795732e+001 3.113784e+001 5.807316e+000 2.640878e+000 2.661274e+000 3.216024e+000 2.963222e+000 4.570746e+000 7.884823e+000 6.288283e+000 3.807112e+000 4.333914e+000 3.430024e+000 3.335558e+000 1.407324e+000 6.352450e-001 3.635810e-001 3.346702e-001 4.510560e-001 4.748960e-001 5.541636e-001 1.048046e+000 9.740584e-001 6.691691e-001 7.325912e-001 5.898096e-001 5.412869e-001 1.969802e-001
<GCONST> 1.376444e+002
<TRANSP> 10
 0.000000e+000 1.000000e+000 0.000000e+000 0.000000e+000 0.000000e+000 0.000000e+000 0.000000e+000 0.000000e+000 0.000000e+000 0.000000e+000
 0.000000e+000 8.031892e-001 1.968107e-001 0.000000e+000 0.000000e+000 0.000000e+000 0.000000e+000 0.000000e+000 0.000000e+000 0.000000e+000
 0.000000e+000 0.000000e+000 8.031893e-001 1.968107e-001 0.000000e+000 0.000000e+000 0.000000e+000 0.000000e+000 0.000000e+000 0.000000e+000
 0.000000e+000 0.000000e+000 0.000000e+000 8.031894e-001 1.968106e-001 0.000000e+000 0.000000e+000 0.000000e+000 0.000000e+000 0.000000e+000
 0.000000e+000 0.000000e+000 0.000000e+000 0.000000e+000 8.031893e-001 1.968108e-001 0.000000e+000 0.000000e+000 0.000000e+000 0.000000e+000
 0.000000e+000 0.000000e+000 0.000000e+000 0.000000e+000 0.000000e+000 8.031893e-001 1.968107e-001 0.000000e+000 0.000000e+000 0.000000e+000
 0.000000e+000 0.000000e+000 0.000000e+000 0.000000e+000 0.000000e+000 0.000000e+000 8.031892e-001 1.968108e-001 0.000000e+000 0.000000e+000
 0.000000e+000 0.000000e+000 0.000000e+000 0.000000e+000 0.000000e+000 0.000000e+000 0.000000e+000 8.031894e-001 1.968106e-001 0.000000e+000
 0.000000e+000 0.000000e+000 0.000000e+000 0.000000e+000 0.000000e+000 0.000000e+000 0.000000e+000 0.000000e+000 9.287583e-001 7.124168e-002
 0.000000e+000 0.000000e+000 0.000000e+000 0.000000e+000 0.000000e+000 0.000000e+000 0.000000e+000 0.000000e+000 0.000000e+000 0.000000e+000
<ENDHMM>
~h "osm"
<BEGINHMM>
<NUMSTATES> 10
<STATE> 2
<MEAN> 39
 -1.049054e+001 -4.477647e+000 -1.368911e+000 -3.523335e+000 3.271172e+000 1.769857e+000 -1.051253e+001 -2.139735e+000 -4.965331e+000 2.435683e-002 -1.921329e+000 5.271803e+000 7.254306e+001 3.954725e-002 2.372587e-001 8.799910e-002 1.187659e-001 3.811451e-002 -2.465386e-001 -2.713201e-001 -1.208337e-001 2.689654e-002 -9.777538e-002 1.078797e-001 8.110013e-002 7.678695e-001 -4.470237e-002 3.153145e-003 1.718910e-003 5.800886e-002 1.439222e-003 -3.999136e-002 3.168703e-002 -3.652439e-003 3.924517e-002 -2.647982e-004 4.412434e-003 -2.938608e-002 -9.853542e-002
<VARIANCE> 39
 1.566237e+002 5.225792e+001 3.982904e+001 1.243791e+002 8.776874e+001 1.176497e+002 6.620135e+001 9.086721e+001 1.151454e+002 3.935041e+001 6.361580e+001 5.608742e+001 1.034741e+002 7.810307e+000 2.442967e+000 2.170943e+000 8.430735e+000 4.347733e+000 5.280056e+000 5.489464e+000 5.275804e+000 6.176814e+000 3.542060e+000 3.303749e+000 4.623258e+000 5.549485e+000 8.036533e-001 4.247838e-001 3.752310e-001 1.253385e+000 6.601692e-001 9.522887e-001 8.867149e-001 7.791145e-001 1.183457e+000 7.057337e-001 6.664554e-001 7.337357e-001 7.368966e-001
<GCONST> 1.443943e+002
<STATE> 3
<MEAN> 39
 -1.095509e+001 -3.663926e+000 -8.468633e-001 -2.072664e+000 3.575872e+000 2.364305e-001 -1.128742e+001 -2.724909e+000 -4.377002e+000 -2.027080e-001 -1.323181e+000 5.170522e+000 7.439484e+001 5.754421e-003 1.416004e-001 1.670409e-001 4.155921e-001 5.714508e-003 -3.599151e-001 -1.696019e-001 -2.155786e-001 1.472454e-001 -6.543233e-002 1.254214e-001 -3.969609e-002 2.899246e-001 7.886088e-003 -2.144056e-002 2.019526e-002 5.511234e-002 -8.732851e-003 -1.744562e-002 1.663004e-002 -1.816378e-002 2.094878e-002 5.799819e-003 2.194290e-003 -2.330054e-002 -9.226532e-002
<VARIANCE> 39
 1.836670e+002 4.918391e+001 4.902148e+001 1.257878e+002 7.930618e+001 1.310617e+002 6.541976e+001 1.176801e+002 1.191833e+002 4.292709e+001 6.545515e+001 5.129400e+001 5.061081e+001 7.547175e+000 2.290932e+000 2.248833e+000 6.398058e+000 3.814586e+000 4.425153e+000 4.902882e+000 5.475870e+000 5.463566e+000 3.579681e+000 2.992742e+000 4.075742e+000 3.574499e+000 7.360811e-001 3.845628e-001 3.892603e-001 9.625978e-001 5.909044e-001 8.189050e-001 7.662959e-001 8.121080e-001 1.029795e+000 7.075788e-001 6.190972e-001 6.597411e-001 4.811090e-001
<GCONST> 1.412876e+002
<STATE> 4
<MEAN> 39
 -1.051725e+001 -3.551799e+000 2.882896e-001 4.498812e-001 3.445329e+000 -1.358519e+000 -1.195936e+001 -4.133395e+000 -3.638090e+000 -2.855849e-001 -7.224387e-001 4.782854e+000 7.451192e+001 2.568055e-001 -4.577940e-003 3.023033e-001 5.999445e-001 -9.948792e-002 -3.414800e-001 -1.611886e-001 -3.816740e-001 1.585554e-001 -4.825078e-002 1.212842e-001 -8.901688e-002 -2.766537e-002 5.671703e-002 -2.801662e-002 2.703698e-002 2.719161e-002 -2.226313e-002 1.129161e-002 1.597142e-003 -2.870326e-002 -1.805517e-003 1.210567e-003 -8.920685e-004 -9.311613e-003 -5.641614e-002
<VARIANCE> 39
 2.101765e+002 4.738142e+001 5.717758e+001 1.245660e+002 7.496896e+001 1.401936e+002 6.675894e+001 1.448819e+002 1.144594e+002 4.720459e+001 6.673460e+001 4.569171e+001 3.121573e+001 6.951903e+000 2.235940e+000 2.275874e+000 4.665194e+000 3.349294e+000 3.686239e+000 4.518410e+000 5.790550e+000 4.840111e+000 3.515478e+000 2.800864e+000 3.497029e+000 1.940406e+000 6.439608e-001 3.652788e-001 3.985698e-001 7.272301e-001 5.396779e-001 6.813198e-001 6.929379e-001 8.714733e-001 8.709119e-001 6.898741e-001 5.915983e-001 5.836694e-001 2.858326e-001
<GCONST> 1.378969e+002
<STATE> 5
<MEAN> 39
 -8.327972e+000 -4.047665e+000 2.026103e+000 3.435837e+000 2.637918e+000 -2.587612e+000 -1.271555e+001 -6.405931e+000 -3.124504e+000 -4.557725e-001 -2.346532e-001 4.349498e+000 7.378499e+001 6.072524e-001 -1.075555e-001 4.095221e-001 6.510049e-001 -2.393508e-001 -2.425645e-001 -1.624604e-001 -5.221108e-001 1.031562e-001 -8.354875e-002 9.582923e-002 -1.044135e-001 -1.663720e-001 6.023627e-002 -1.535782e-002 1.564504e-002 -1.328779e-003 -2.463556e-002 2.647874e-002 6.341355e-003 -1.749693e-002 -1.387892e-002 -9.501883e-003 -6.655403e-003 -6.245921e-003 -2.333781e-002
<VARIANCE> 39
 2.303501e+002 4.785785e+001 6.068797e+001 1.190091e+002 7.705472e+001 1.452946e+002 6.650558e+001 1.608317e+002 1.037347e+002 5.231743e+001 6.981795e+001 4.359444e+001 2.888435e+001 6.055484e+000 2.156066e+000 2.253673e+000 3.652198e+000 3.096079e+000 3.231078e+000 4.368736e+000 6.106638e+000 4.486890e+000 3.389828e+000 2.742330e+000 3.171245e+000 1.113937e+000 5.561562e-001 3.561803e-001 4.013598e-001 5.764847e-001 5.171681e-001 5.832718e-001 6.732340e-001 9.283183e-001 7.626473e-001 6.562138e-001 5.801027e-001 5.389180e-001 1.802514e-001
<GCONST> 1.353912e+002
<STATE> 6
<MEAN> 39
 -4.699425e+000 -4.754342e+000 4.022686e+000 6.393394e+000 1.195449e+000 -3.355623e+000 -1.333355e+001 -9.055718e+000 -2.886525e+000 -9.805248e-001 6.761608e-002 3.830115e+000 7.285410e+001 8.193107e-001 -1.210266e-001 4.268954e-001 5.947090e-001 -3.424069e-001 -1.261645e-001 -9.916682e-002 -5.368611e-001 4.566222e-002 -1.661503e-001 4.913772e-002 -1.411261e-001 -1.959250e-001 2.086131e-002 9.632963e-004 -6.609581e-003 -2.329765e-002 -1.096675e-002 3.057472e-002 2.263787e-002 9.744190e-003 -1.408122e-002 -1.632530e-002 -1.386831e-002 -1.260436e-002 -6.827812e-003
<VARIANCE> 39
 2.258256e+002 4.842604e+001 5.731481e+001 1.068636e+002 8.353576e+001 1.464693e+002 6.310363e+001 1.547564e+002 8.994959e+001 5.868657e+001 7.550030e+001 4.607934e+001 3.206946e+001 4.979028e+000 2.016054e+000 2.228475e+000 3.161612e+000 2.957938e+000 3.023385e+000 4.324508e+000 6.177848e+000 4.297267e+000 3.237605e+000 2.741331e+000 3.104142e+000 8.701403e-001 4.692896e-001 3.396211e-001 3.948437e-001 4.871770e-001 5.011581e-001 5.329471e-001 6.849747e-001 9.396103e-001 7.057911e-001 6.158963e-001 5.688673e-001 5.264264e-001 1.376653e-001
<GCONST> 1.335921e+002
<STATE> 7
<MEAN> 39
 -7.288064e-001 -5.282152e+000 5.841726e+000 8.924027e+000 -5.353929e-001 -3.688833e+000 -1.350189e+001 -1.136342e+001 -2.769144e+000 -1.979857e+000 1.426789e-001 3.077703e+000 7.199339e+001 7.810121e-001 -7.612807e-002 3.483174e-001 4.602126e-001 -3.461531e-001 -4.541682e-003 2.983516e-002 -4.125449e-001 1.298502e-002 -2.529027e-001 -1.639121e-002 -2.072229e-001 -1.950891e-001 -2.956584e-002 5.897927e-003 -2.616483e-002 -3.518845e-002 1.292624e-002 3.296114e-002 3.491102e-002 3.297760e-002 -1.064219e-002 -1.193252e-002 -1.886188e-002 -1.709408e-002 -5.192442e-003
<VARIANCE> 39
 1.862906e+002 4.763095e+001 4.867994e+001 8.832275e+001 8.980553e+001 1.430093e+002 5.885579e+001 1.289064e+002 7.616936e+001 6.598704e+001 8.348908e+001 5.102343e+001 3.680393e+001 3.974685e+000 1.828083e+000 2.219668e+000 2.895986e+000 2.844438e+000 2.963369e+000 4.290074e+000 5.862817e+000 4.134972e+000 3.115931e+000 2.779885e+000 3.188334e+000 8.801830e-001 3.711219e-001 3.108739e-001 3.803040e-001 4.333362e-001 4.733616e-001 5.152918e-001 7.095464e-001 8.900577e-001 6.773659e-001 5.847539e-001 5.581000e-001 5.332606e-001 1.247494e-001
<GCONST> 1.317722e+002
<STATE> 8
<MEAN> 39
 2.463004e+000 -5.514851e+000 7.168562e+000 1.076487e+001 -2.021884e+000 -3.532746e+000 -1.305564e+001 -1.282612e+001 -2.666437e+000 -3.324778e+000 -4.856677e-002 2.038541e+000 7.118180e+001 5.385656e-001 -3.944071e-002 2.129293e-001 2.961761e-001 -2.313747e-001 1.330606e-001 1.868614e-001 -2.185984e-001 -1.405334e-002 -2.862867e-001 -9.307836e-002 -2.726561e-001 -2.166017e-001 -6.171795e-002 -4.057550e-004 -3.317456e-002 -3.387248e-002 3.430983e-002 3.382183e-002 3.640830e-002 3.924288e-002 -1.104088e-002 3.313565e-003 -1.767656e-002 -1.293201e-002 -1.040167e-002
<VARIANCE> 39
 1.280209e+002 4.549723e+001 3.900282e+001 6.809875e+001 9.290620e+001 1.360254e+002 5.739964e+001 9.725370e+001 6.524323e+001 7.216671e+001 9.237672e+001 5.518153e+001 4.212381e+001 3.077375e+000 1.638097e+000 2.192641e+000 2.672691e+000 2.738610e+000 2.957688e+000 4.250896e+000 5.216748e+000 3.949734e+000 3.141035e+000 2.923241e+000 3.306752e+000 9.758508e-001 2.711817e-001 2.771742e-001 3.630124e-001 4.020728e-001 4.376366e-001 5.164081e-001 7.391786e-001 8.047231e-001 6.617032e-001 5.825268e-001 5.675349e-001 5.484939e-001 1.237542e-001
<GCONST> 1.296477e+002
<STATE> 9
<MEAN> 39
 4.436643e+000 -5.434978e+000 8.171023e+000 1.256508e+001 -2.410365e+000 -1.766731e+000 -1.138361e+001 -1.309614e+001 -2.521755e+000 -5.379222e+000 -1.614296e+000 1.338585e-001 6.953362e+001 7.570864e-002 -4.095908e-002 3.213700e-002 1.146195e-001 5.148708e-002 2.588575e-001 3.456818e-001 2.513393e-002 -8.000501e-002 -2.168273e-001 -1.785993e-001 -2.564789e-001 -2.617564e-001 -5.863667e-002 -1.012984e-002 -2.714006e-002 -2.403177e-002 3.946723e-002 2.252647e-002 2.525492e-002 2.136715e-002 -2.049316e-002 2.153997e-002 -1.169597e-002 -1.045865e-003 -1.609486e-002
<VARIANCE> 39
 6.040865e+001 3.879594e+001 2.792612e+001 4.599185e+001 9.381875e+001 1.244037e+002 6.665896e+001 6.298784e+001 5.329418e+001 7.693387e+001 1.085689e+002 5.653115e+001 5.555234e+001 1.785074e+000 1.327461e+000 1.991734e+000 2.384134e+000 2.559205e+000 2.954587e+000 4.499731e+000 4.112920e+000 3.710940e+000 3.524415e+000 3.214796e+000 3.369254e+000 1.423313e+000 1.565936e-001 2.204722e-001 3.364633e-001 3.999519e-001 4.022036e-001 5.458103e-001 8.200583e-001 6.858565e-001 6.677186e-001 6.302227e-001 6.155712e-001 5.619589e-001 1.663484e-001
<GCONST> 1.268443e+002
<TRANSP> 10
 0.000000e+000 1.000000e+000 0.000000e+000 0.000000e+000 0.000000e+000 0.000000e+000 0.000000e+000 0.000000e+000 0.000000e+000 0.000000e+000
 0.000000e+000 7.824073e-001 2.175927e-001 0.000000e+000 0.000000e+000 0.000000e+000 0.000000e+000 0.000000e+000 0.000000e+000 0.000000e+000
 0.000000e+000 0.000000e+000 7.824073e-001 2.175927e-001 0.000000e+000 0.000000e+000 0.000000e+000 0.000000e+000 0.000000e+000 0.000000e+000
 0.000000e+000 0.000000e+000 0.000000e+000 7.824072e-001 2.175928e-001 0.000000e+000 0.000000e+000 0.000000e+000 0.000000e+000 0.000000e+000
 0.000000e+000 0.000000e+000 0.000000e+000 0.000000e+000 7.824072e-001 2.175928e-001 0.000000e+000 0.000000e+000 0.000000e+000 0.000000e+000
 0.000000e+000 0.000000e+000 0.000000e+000 0.000000e+000 0.000000e+000 7.824072e-001 2.175929e-001 0.000000e+000 0.000000e+000 0.000000e+000
 0.000000e+000 0.000000e+000 0.000000e+000 0.000000e+000 0.000000e+000 0.000000e+000 7.824072e-001 2.175928e-001 0.000000e+000 0.000000e+000
 0.000000e+000 0.000000e+000 0.000000e+000 0.000000e+000 0.000000e+000 0.000000e+000 0.000000e+000 7.824072e-001 2.175928e-001 0.000000e+000
 0.000000e+000 0.000000e+000 0.000000e+000 0.000000e+000 0.000000e+000 0.000000e+000 0.000000e+000 0.000000e+000 9.066810e-001 9.331895e-002
 0.000000e+000 0.000000e+000 0.000000e+000 0.000000e+000 0.000000e+000 0.000000e+000 0.000000e+000 0.000000e+000 0.000000e+000 0.000000e+000
<ENDHMM>
~h "nadruhou"
<BEGINHMM>
<NUMSTATES> 10
<STATE> 2
<MEAN> 39
 1.530643e+000 -5.363729e+000 -2.753104e-001 -1.273698e+000 -1.382787e+000 -3.899342e+000 -1.687573e+001 -8.443482e+000 -2.049350e+000 -7.386799e+000 -3.224623e+000 -2.538011e+000 7.147531e+001 4.307254e-001 1.349887e-001 4.053447e-002 -1.576784e-001 -3.752657e-002 -4.591401e-003 -5.073123e-002 -8.222473e-002 -9.931956e-002 -1.793739e-001 1.368492e-001 8.806201e-002 7.091135e-001 -3.691891e-002 -5.461103e-004 -2.841942e-002 -4.391028e-005 -1.179586e-002 3.849576e-003 5.812944e-002 9.964434e-003 -1.841084e-002 2.645453e-002 3.683135e-002 2.554161e-002 -9.152083e-002
<VARIANCE> 39
 4.778486e+001 4.710169e+001 6.084906e+001 8.866460e+001 6.682819e+001 7.182795e+001 9.969056e+001 5.955539e+001 1.340093e+002 5.776190e+001 1.292690e+002 4.629319e+001 1.180430e+002 3.783164e+000 3.226907e+000 4.426206e+000 6.483436e+000 4.945646e+000 5.525309e+000 7.880480e+000 6.830692e+000 5.167646e+000 4.272871e+000 5.056320e+000 3.966127e+000 7.810510e+000 6.259392e-001 5.017967e-001 7.518644e-001 9.915186e-001 7.618483e-001 1.041540e+000 1.161764e+000 1.303918e+000 9.602488e-001 8.076938e-001 9.110472e-001 7.702537e-001 1.092217e+000
<GCONST> 1.470903e+002
<STATE> 3
<MEAN> 39
 3.037397e+000 -4.560576e+000 -4.138936e-001 -1.756495e+000 -1.757279e+000 -3.958689e+000 -1.623037e+001 -8.848165e+000 -2.977954e+000 -7.830963e+000 -2.032418e+000 -1.642005e+000 7.334529e+001 2.846236e-001 1.835513e-001 -4.079647e-002 -8.312099e-002 -9.818990e-002 1.354163e-003 1.833792e-001 -9.051879e-002 -2.362535e-001 -8.299117e-002 2.809618e-001 1.970479e-001 2.908439e-001 -2.469357e-002 9.652502e-003 -1.298474e-002 1.306494e-002 -1.237175e-002 3.632121e-003 3.989249e-002 -2.763433e-003 -2.565328e-002 1.485981e-002 2.501169e-002 1.669965e-002 -7.457163e-002
<VARIANCE> 39
