~o
<STREAMINFO> 1 16
<VECSIZE> 16<NULLD><FBANK><DIAGC>
~h "ctyri"
<BEGINHMM>
<NUMSTATES> 10
<STATE> 2
<MEAN> 16
 5.711211e+000 5.733947e+000 5.972762e+000 6.178769e+000 6.318564e+000 6.480895e+000 6.643234e+000 6.900058e+000 7.353710e+000 7.530697e+000 7.696693e+000 8.025098e+000 8.254376e+000 8.417953e+000 8.377116e+000 8.418806e+000
<VARIANCE> 16
 1.442139e-001 1.078954e-001 1.340852e-001 7.898041e-002 5.527736e-002 4.730117e-002 5.881545e-002 9.093132e-002 1.913490e-001 3.705210e-001 3.890658e-001 5.716140e-001 5.960143e-001 5.829995e-001 3.475703e-001 1.501429e-001
<GCONST> 1.357719e+000
<STATE> 3
<MEAN> 16
 5.643040e+000 5.810518e+000 6.020343e+000 6.201444e+000 6.339777e+000 6.520085e+000 6.809423e+000 7.030107e+000 7.504934e+000 8.083080e+000 9.232785e+000 1.024579e+001 1.088742e+001 1.083954e+001 1.016725e+001 9.500710e+000
<VARIANCE> 16
 1.051882e-001 6.543081e-002 1.143126e-001 7.482547e-002 6.118313e-002 5.521286e-002 8.206852e-002 7.541420e-002 9.263292e-002 3.567370e-001 7.475771e-001 7.834977e-001 9.567595e-001 9.073039e-001 6.629525e-001 4.144921e-001
<GCONST> 3.512437e+000
<STATE> 4
<MEAN> 16
 5.793810e+000 5.899815e+000 6.102111e+000 6.313959e+000 6.388513e+000 6.598821e+000 6.814823e+000 7.476617e+000 8.530478e+000 9.426140e+000 1.005177e+001 1.072930e+001 1.103025e+001 1.091652e+001 1.039841e+001 9.565339e+000
<VARIANCE> 16
 1.822629e-001 1.136401e-001 1.020396e-001 9.027339e-002 5.319361e-002 7.701187e-002 7.207329e-002 2.437069e-001 6.040921e-001 1.225733e+000 1.214733e+000 1.192184e+000 8.997686e-001 8.989098e-001 8.081542e-001 4.718561e-001
<GCONST> 1.019578e+001
<STATE> 5
<MEAN> 16
 5.733342e+000 5.791744e+000 5.943419e+000 6.083629e+000 6.285101e+000 6.459527e+000 6.652166e+000 6.861991e+000 7.272033e+000 7.437667e+000 7.918831e+000 8.593318e+000 9.114425e+000 8.930869e+000 8.414220e+000 8.163520e+000
<VARIANCE> 16
 1.154962e-001 1.039371e-001 1.164396e-001 6.782108e-002 6.817766e-002 6.730713e-002 7.164289e-002 9.351864e-002 9.996665e-002 2.416434e-001 2.937213e-001 3.674097e-001 3.370689e-001 3.554061e-001 2.267521e-001 6.912376e-002
<GCONST> -2.474833e+000
<STATE> 6
<MEAN> 16
 5.822169e+000 6.294481e+000 6.809060e+000 6.896774e+000 6.934966e+000 6.962109e+000 7.251516e+000 7.737349e+000 8.350406e+000 8.552023e+000 8.734481e+000 9.299370e+000 9.733094e+000 9.488106e+000 8.763490e+000 8.546790e+000
<VARIANCE> 16
 1.064974e-001 2.829160e-001 3.769785e-001 2.455064e-001 1.088738e-001 1.448636e-001 2.481355e-001 2.092687e-001 2.843345e-001 2.642424e-001 3.170250e-001 4.693472e-001 4.759410e-001 4.844663e-001 8.634356e-002 9.691369e-002
<GCONST> 5.672145e+000
<STATE> 7
<MEAN> 16
 5.951598e+000 7.474868e+000 8.095385e+000 8.999851e+000 7.393669e+000 7.313436e+000 7.686625e+000 8.569518e+000 9.596869e+000 1.029180e+001 1.065166e+001 1.097325e+001 1.151191e+001 1.086436e+001 9.227917e+000 8.725061e+000
<VARIANCE> 16
 1.241945e-001 4.408154e-001 7.149543e-001 8.965935e-001 3.674490e-001 1.864783e-001 2.660017e-001 3.983822e-001 4.845900e-001 7.087896e-001 8.842574e-001 7.540304e-001 9.484605e-001 1.090122e+000 9.958175e-001 4.942519e-001
<GCONST> 1.898159e+001
<STATE> 8
<MEAN> 16
 6.497048e+000 7.752603e+000 9.544363e+000 9.540917e+000 8.507171e+000 8.216737e+000 8.338217e+000 8.996344e+000 1.030391e+001 1.081349e+001 1.077859e+001 1.099470e+001 1.156807e+001 1.095791e+001 9.444696e+000 8.664780e+000
<VARIANCE> 16
 1.522532e-001 3.368649e-001 7.188433e-001 7.872815e-001 6.405594e-001 5.659325e-001 4.233048e-001 3.080896e-001 4.518596e-001 4.226872e-001 4.227389e-001 5.573413e-001 5.344343e-001 7.417687e-001 8.834788e-001 3.642704e-001
<GCONST> 1.765465e+001
<STATE> 9
<MEAN> 16
 6.526446e+000 7.845348e+000 9.108368e+000 8.528843e+000 7.649401e+000 7.292386e+000 7.506812e+000 8.449903e+000 9.685190e+000 9.911819e+000 9.040140e+000 9.077017e+000 9.479140e+000 9.010645e+000 8.478903e+000 8.494842e+000
<VARIANCE> 16
 1.814752e-001 3.612519e-001 5.074940e-001 2.791573e-001 1.858822e-001 1.987350e-001 1.399899e-001 6.185022e-001 9.554905e-001 3.527253e-001 7.114781e-001 6.587339e-001 9.162472e-001 6.338337e-001 1.799650e-001 1.680430e-001
<GCONST> 1.309449e+001
<TRANSP> 10
 0.000000e+000 1.000000e+000 0.000000e+000 0.000000e+000 0.000000e+000 0.000000e+000 0.000000e+000 0.000000e+000 0.000000e+000 0.000000e+000
 0.000000e+000 8.237174e-001 1.762826e-001 0.000000e+000 0.000000e+000 0.000000e+000 0.000000e+000 0.000000e+000 0.000000e+000 0.000000e+000
 0.000000e+000 0.000000e+000 7.706125e-001 2.293875e-001 0.000000e+000 0.000000e+000 0.000000e+000 0.000000e+000 0.000000e+000 0.000000e+000
 0.000000e+000 0.000000e+000 0.000000e+000 7.722263e-001 2.277737e-001 0.000000e+000 0.000000e+000 0.000000e+000 0.000000e+000 0.000000e+000
 0.000000e+000 0.000000e+000 0.000000e+000 0.000000e+000 8.143690e-001 1.856311e-001 0.000000e+000 0.000000e+000 0.000000e+000 0.000000e+000
 0.000000e+000 0.000000e+000 0.000000e+000 0.000000e+000 0.000000e+000 3.311803e-001 6.688197e-001 0.000000e+000 0.000000e+000 0.000000e+000
 0.000000e+000 0.000000e+000 0.000000e+000 0.000000e+000 0.000000e+000 0.000000e+000 8.888731e-001 1.111269e-001 0.000000e+000 0.000000e+000
 0.000000e+000 0.000000e+000 0.000000e+000 0.000000e+000 0.000000e+000 0.000000e+000 0.000000e+000 9.507946e-001 4.920543e-002 0.000000e+000
 0.000000e+000 0.000000e+000 0.000000e+000 0.000000e+000 0.000000e+000 0.000000e+000 0.000000e+000 0.000000e+000 9.264840e-001 7.351597e-002
 0.000000e+000 0.000000e+000 0.000000e+000 0.000000e+000 0.000000e+000 0.000000e+000 0.000000e+000 0.000000e+000 0.000000e+000 0.000000e+000
<ENDHMM>
~h "sedm"
<BEGINHMM>
<NUMSTATES> 10
<STATE> 2
<MEAN> 16
 5.630100e+000 5.747922e+000 5.988541e+000 6.170894e+000 6.270652e+000 6.486735e+000 6.619992e+000 6.899395e+000 7.312510e+000 7.353803e+000 7.507364e+000 7.888383e+000 8.732271e+000 9.047449e+000 9.329047e+000 9.149394e+000
<VARIANCE> 16
 1.141178e-001 8.709430e-002 7.216392e-002 7.880316e-002 5.518897e-002 4.571331e-002 4.082048e-002 5.831220e-002 6.260966e-002 4.246808e-002 9.053959e-002 1.085052e-001 1.405209e-001 1.940950e-001 2.912068e-001 3.583965e-001
<GCONST> -8.812151e+000
<STATE> 3
<MEAN> 16
 5.728712e+000 5.797990e+000 5.879190e+000 6.145658e+000 6.279189e+000 6.490093e+000 6.694295e+000 7.135726e+000 7.507959e+000 7.581471e+000 7.816436e+000 8.401221e+000 9.480827e+000 9.732475e+000 9.964025e+000 9.968727e+000
<VARIANCE> 16
 1.519582e-001 9.318619e-002 1.334562e-001 1.223615e-001 9.931966e-002 5.195285e-002 4.762930e-002 5.847482e-002 7.239842e-002 6.498775e-002 1.753377e-001 8.686969e-002 1.783399e-001 1.503602e-001 2.699797e-001 4.037836e-001
<GCONST> -5.494910e+000
<STATE> 4
<MEAN> 16
 5.764397e+000 5.806092e+000 5.914035e+000 6.202868e+000 6.497942e+000 6.560719e+000 6.786567e+000 7.303054e+000 7.737683e+000 7.784103e+000 8.131615e+000 8.725267e+000 9.893108e+000 1.020265e+001 1.036347e+001 1.020387e+001
<VARIANCE> 16
 2.176057e-001 8.963767e-002 7.866635e-002 7.230211e-002 4.579682e-002 5.680793e-002 5.155628e-002 7.193392e-002 8.212159e-002 6.386892e-002 1.749433e-001 1.139612e-001 2.385198e-001 3.293730e-001 5.901369e-001 5.231872e-001
<GCONST> -4.133918e+000
<STATE> 5
<MEAN> 16
 5.707000e+000 5.736660e+000 5.985394e+000 6.322916e+000 6.494296e+000 6.801398e+000 7.024243e+000 7.560470e+000 8.081358e+000 8.156912e+000 8.479785e+000 9.176475e+000 1.024363e+001 1.052799e+001 1.027562e+001 1.000952e+001
<VARIANCE> 16
 1.372551e-001 1.086102e-001 1.186081e-001 8.625336e-002 6.355168e-002 8.790253e-002 8.336622e-002 1.165745e-001 2.117395e-001 1.249474e-001 3.062751e-001 2.958257e-001 5.075789e-001 6.714094e-001 6.273620e-001 4.355071e-001
<GCONST> 2.389094e+000
<STATE> 6
<MEAN> 16
 5.981651e+000 6.162637e+000 6.491984e+000 6.845958e+000 6.905561e+000 7.189411e+000 7.456094e+000 8.127995e+000 8.759374e+000 8.711914e+000 9.041446e+000 9.562168e+000 1.055694e+001 1.084834e+001 1.030427e+001 1.004013e+001
<VARIANCE> 16
 2.143823e-001 2.453938e-001 3.455747e-001 2.722440e-001 1.321265e-001 1.301797e-001 1.584487e-001 1.346837e-001 2.388988e-001 2.757929e-001 3.837589e-001 4.466373e-001 6.681009e-001 9.477496e-001 7.238152e-001 4.832526e-001
<GCONST> 1.019658e+001
<STATE> 7
<MEAN> 16
 6.482973e+000 7.819953e+000 9.019420e+000 9.327474e+000 8.441724e+000 7.983274e+000 8.704860e+000 9.834094e+000 9.282321e+000 9.126531e+000 8.779479e+000 9.033189e+000 9.603497e+000 9.431274e+000 8.950688e+000 8.848256e+000
<VARIANCE> 16
 1.664882e-001 1.474637e-001 2.622711e-001 2.829013e-001 3.599684e-001 3.435400e-001 2.159097e-001 2.726881e-001 3.636532e-001 3.161685e-001 9.324672e-001 5.673460e-001 4.579767e-001 3.331389e-001 2.518823e-001 8.831698e-002
<GCONST> 9.689993e+000
<STATE> 8
<MEAN> 16
 6.749690e+000 8.030017e+000 9.098423e+000 9.748681e+000 9.545619e+000 9.068809e+000 9.272183e+000 1.008467e+001 1.055275e+001 1.040272e+001 1.063402e+001 1.048371e+001 1.103121e+001 1.049504e+001 8.855329e+000 8.502230e+000
<VARIANCE> 16
 2.834542e-001 4.807642e-001 5.451245e-001 7.684031e-001 1.125119e+000 6.163585e-001 5.652964e-001 8.654378e-001 8.203874e-001 7.070397e-001 1.201571e+000 1.455078e+000 1.190414e+000 1.338778e+000 7.929960e-001 2.597037e-001
<GCONST> 2.436176e+001
<STATE> 9
<MEAN> 16
 6.509630e+000 8.000523e+000 8.602373e+000 8.635669e+000 8.007338e+000 7.945102e+000 8.239569e+000 8.545498e+000 8.647143e+000 8.770008e+000 8.810280e+000 9.323616e+000 9.631088e+000 8.979497e+000 8.118411e+000 8.101085e+000
<VARIANCE> 16
 1.864190e-001 1.452283e-001 4.334937e-001 4.054337e-001 2.713792e-001 2.998857e-001 4.864457e-001 6.685196e-001 5.828356e-001 5.028930e-001 8.094026e-001 1.395332e+000 1.272543e+000 4.574669e-001 7.614558e-002 5.181313e-002
<GCONST> 1.324443e+001
<TRANSP> 10
 0.000000e+000 1.000000e+000 0.000000e+000 0.000000e+000 0.000000e+000 0.000000e+000 0.000000e+000 0.000000e+000 0.000000e+000 0.000000e+000
 0.000000e+000 7.591658e-001 2.408342e-001 0.000000e+000 0.000000e+000 0.000000e+000 0.000000e+000 0.000000e+000 0.000000e+000 0.000000e+000
 0.000000e+000 0.000000e+000 6.436398e-001 3.563602e-001 0.000000e+000 0.000000e+000 0.000000e+000 0.000000e+000 0.000000e+000 0.000000e+000
 0.000000e+000 0.000000e+000 0.000000e+000 4.548282e-001 5.451718e-001 0.000000e+000 0.000000e+000 0.000000e+000 0.000000e+000 0.000000e+000
 0.000000e+000 0.000000e+000 0.000000e+000 0.000000e+000 5.101197e-001 4.898803e-001 0.000000e+000 0.000000e+000 0.000000e+000 0.000000e+000
 0.000000e+000 0.000000e+000 0.000000e+000 0.000000e+000 0.000000e+000 6.920162e-001 3.079838e-001 0.000000e+000 0.000000e+000 0.000000e+000
 0.000000e+000 0.000000e+000 0.000000e+000 0.000000e+000 0.000000e+000 0.000000e+000 4.937715e-001 5.062285e-001 0.000000e+000 0.000000e+000
 0.000000e+000 0.000000e+000 0.000000e+000 0.000000e+000 0.000000e+000 0.000000e+000 0.000000e+000 9.303441e-001 6.965587e-002 0.000000e+000
 0.000000e+000 0.000000e+000 0.000000e+000 0.000000e+000 0.000000e+000 0.000000e+000 0.000000e+000 0.000000e+000 9.667606e-001 3.323935e-002
 0.000000e+000 0.000000e+000 0.000000e+000 0.000000e+000 0.000000e+000 0.000000e+000 0.000000e+000 0.000000e+000 0.000000e+000 0.000000e+000
<ENDHMM>
~h "sest"
<BEGINHMM>
<NUMSTATES> 10
<STATE> 2
<MEAN> 16
 5.670715e+000 5.715777e+000 5.888912e+000 6.081047e+000 6.319939e+000 6.478985e+000 6.646444e+000 7.053258e+000 7.713367e+000 7.996859e+000 8.361996e+000 8.901556e+000 9.209581e+000 9.291735e+000 8.863614e+000 8.307952e+000
<VARIANCE> 16
 8.047434e-002 9.797649e-002 9.269592e-002 5.577464e-002 4.138785e-002 4.910674e-002 4.601475e-002 7.034908e-002 2.072413e-001 3.944195e-001 3.971557e-001 3.558355e-001 2.856634e-001 3.570441e-001 4.005386e-001 5.949186e-002
<GCONST> -3.113911e+000
<STATE> 3
<MEAN> 16
 5.688791e+000 5.779533e+000 5.900338e+000 6.092952e+000 6.316396e+000 6.451284e+000 6.628362e+000 7.220135e+000 8.077236e+000 8.714581e+000 9.256974e+000 9.951140e+000 1.015542e+001 1.019426e+001 9.622641e+000 8.843257e+000
<VARIANCE> 16
 1.300787e-001 1.014418e-001 6.908718e-002 9.434109e-002 5.738572e-002 4.162379e-002 6.126903e-002 1.345899e-001 4.356129e-001 5.945327e-001 3.305449e-001 2.616356e-001 1.521409e-001 1.978796e-001 2.098600e-001 1.444688e-001
<GCONST> -1.587971e+000
<STATE> 4
<MEAN> 16
 5.766687e+000 5.738258e+000 5.995324e+000 6.218155e+000 6.390651e+000 6.501758e+000 6.786742e+000 7.433020e+000 8.419139e+000 9.296298e+000 9.708667e+000 1.030771e+001 1.058663e+001 1.059660e+001 1.011583e+001 9.272754e+000
<VARIANCE> 16
 1.362178e-001 1.013782e-001 5.771599e-002 7.353290e-002 4.165391e-002 7.619179e-002 5.842787e-002 1.581750e-001 3.936294e-001 5.515851e-001 2.446701e-001 2.455228e-001 2.385759e-001 2.283053e-001 1.559130e-001 1.752622e-001
<GCONST> -1.625066e+000
<STATE> 5
<MEAN> 16
 5.750824e+000 5.852180e+000 6.021615e+000 6.212647e+000 6.291731e+000 6.529914e+000 6.830675e+000 7.454973e+000 8.343633e+000 9.196345e+000 1.011018e+001 1.111156e+001 1.140047e+001 1.128167e+001 1.067569e+001 9.794846e+000
<VARIANCE> 16
 6.290172e-002 7.284949e-002 7.526109e-002 6.801388e-002 5.328422e-002 5.597694e-002 1.219725e-001 1.262203e-001 3.250350e-001 4.160335e-001 2.111867e-001 3.448333e-001 3.137947e-001 3.860404e-001 3.119191e-001 2.477108e-001
<GCONST> -5.348150e-001
<STATE> 6
<MEAN> 16
 5.800601e+000 5.923846e+000 6.264359e+000 6.466644e+000 6.582098e+000 6.833952e+000 7.086744e+000 8.085120e+000 9.101761e+000 9.793025e+000 1.024510e+001 1.079294e+001 1.121903e+001 1.110050e+001 1.057157e+001 9.844291e+000
<VARIANCE> 16
 8.311094e-002 8.999455e-002 1.231051e-001 1.254911e-001 8.885626e-002 1.149186e-001 8.467574e-002 2.038899e-001 4.286766e-001 6.090780e-001 2.143542e-001 2.955975e-001 5.453234e-001 5.619146e-001 4.750899e-001 2.397951e-001
<GCONST> 4.240097e+000
<STATE> 7
<MEAN> 16
 6.127483e+000 7.122833e+000 7.794406e+000 8.084441e+000 7.526049e+000 7.291901e+000 7.539241e+000 8.508307e+000 9.105614e+000 9.249486e+000 9.412548e+000 9.565067e+000 9.749077e+000 9.396705e+000 8.829257e+000 8.634024e+000
<VARIANCE> 16
 1.358125e-001 7.610550e-001 1.423176e+000 1.375332e+000 8.502310e-001 4.372552e-001 3.587943e-001 7.790022e-001 6.020562e-001 4.438497e-001 3.591008e-001 4.524023e-001 5.704120e-001 6.138626e-001 4.491568e-001 1.291102e-001
<GCONST> 1.851000e+001
<STATE> 8
<MEAN> 16
 6.443707e+000 7.525974e+000 8.973528e+000 9.986549e+000 9.881004e+000 9.201556e+000 9.383326e+000 1.045298e+001 1.082588e+001 1.058013e+001 1.067008e+001 1.077045e+001 1.114423e+001 1.052515e+001 9.135463e+000 8.655319e+000
<VARIANCE> 16
 1.958548e-001 2.554422e-001 3.533436e-001 4.212271e-001 1.168899e+000 1.032287e+000 5.945514e-001 5.439762e-001 1.051396e+000 8.921054e-001 1.653899e+000 1.434896e+000 1.482857e+000 1.559619e+000 5.571260e-001 1.566172e-001
<GCONST> 2.276471e+001
<STATE> 9
<MEAN> 16
 5.733105e+000 5.940495e+000 6.484261e+000 7.141374e+000 7.245346e+000 7.052459e+000 7.179688e+000 7.821961e+000 8.190101e+000 8.151050e+000 8.558294e+000 9.085814e+000 9.966703e+000 1.044705e+001 1.036582e+001 1.007065e+001
<VARIANCE> 16
 1.186735e-001 1.571039e-001 3.193030e-001 5.103765e-001 5.041308e-001 3.310942e-001 1.783052e-001 2.591272e-001 4.308702e-001 3.521568e-001 3.814741e-001 3.427716e-001 4.877799e-001 5.277030e-001 2.846262e-001 2.384334e-001
<GCONST> 1.077723e+001
<TRANSP> 10
 0.000000e+000 1.000000e+000 0.000000e+000 0.000000e+000 0.000000e+000 0.000000e+000 0.000000e+000 0.000000e+000 0.000000e+000 0.000000e+000
 0.000000e+000 4.799398e-001 5.200602e-001 0.000000e+000 0.000000e+000 0.000000e+000 0.000000e+000 0.000000e+000 0.000000e+000 0.000000e+000
 0.000000e+000 0.000000e+000 3.646539e-001 6.353462e-001 0.000000e+000 0.000000e+000 0.000000e+000 0.000000e+000 0.000000e+000 0.000000e+000
 0.000000e+000 0.000000e+000 0.000000e+000 3.605627e-001 6.394373e-001 0.000000e+000 0.000000e+000 0.000000e+000 0.000000e+000 0.000000e+000
 0.000000e+000 0.000000e+000 0.000000e+000 0.000000e+000 7.159353e-001 2.840647e-001 0.000000e+000 0.000000e+000 0.000000e+000 0.000000e+000
 0.000000e+000 0.000000e+000 0.000000e+000 0.000000e+000 0.000000e+000 7.330144e-001 2.669856e-001 0.000000e+000 0.000000e+000 0.000000e+000
 0.000000e+000 0.000000e+000 0.000000e+000 0.000000e+000 0.000000e+000 0.000000e+000 5.200883e-001 4.799118e-001 0.000000e+000 0.000000e+000
 0.000000e+000 0.000000e+000 0.000000e+000 0.000000e+000 0.000000e+000 0.000000e+000 0.000000e+000 9.517151e-001 4.828494e-002 0.000000e+000
 0.000000e+000 0.000000e+000 0.000000e+000 0.000000e+000 0.000000e+000 0.000000e+000 0.000000e+000 0.000000e+000 9.382465e-001 6.175345e-002
 0.000000e+000 0.000000e+000 0.000000e+000 0.000000e+000 0.000000e+000 0.000000e+000 0.000000e+000 0.000000e+000 0.000000e+000 0.000000e+000
<ENDHMM>
~h "dva"
<BEGINHMM>
<NUMSTATES> 10
<STATE> 2
<MEAN> 16
 6.023159e+000 6.621115e+000 6.835267e+000 6.675348e+000 6.483601e+000 6.561359e+000 6.734260e+000 6.938217e+000 7.245630e+000 7.128742e+000 7.228650e+000 7.430391e+000 7.648152e+000 7.744375e+000 7.825835e+000 8.013661e+000
<VARIANCE> 16
 1.528272e-001 3.419017e-001 5.029747e-001 4.055950e-001 1.281012e-001 8.016971e-002 9.512539e-002 1.406811e-001 1.044468e-001 9.595893e-002 6.542414e-002 6.016442e-002 6.368345e-002 5.240706e-002 2.233464e-002 3.712866e-002
<GCONST> -6.965605e+000
<STATE> 3
<MEAN> 16
 6.142681e+000 6.864820e+000 7.173812e+000 7.220079e+000 6.863960e+000 7.050624e+000 7.586158e+000 7.903465e+000 8.088119e+000 8.116885e+000 8.350812e+000 8.649448e+000 8.995219e+000 8.535838e+000 8.016541e+000 8.045443e+000
<VARIANCE> 16
 1.136906e-001 3.700298e-001 5.077905e-001 3.712994e-001 1.655831e-001 1.606695e-001 2.269613e-001 4.347157e-001 3.698678e-001 3.441929e-001 5.212710e-001 5.761719e-001 6.389500e-001 3.892784e-001 7.057472e-002 1.844094e-002
<GCONST> 7.326772e+000
<STATE> 4
<MEAN> 16
 6.214781e+000 7.247443e+000 8.030736e+000 8.003827e+000 7.391764e+000 7.438708e+000 7.814163e+000 8.102582e+000 8.137625e+000 8.328980e+000 8.478629e+000 8.882513e+000 8.766312e+000 8.386796e+000 8.025018e+000 8.048874e+000
<VARIANCE> 16
 2.037277e-001 1.419127e-001 5.709952e-001 5.156697e-001 2.546407e-001 1.842980e-001 2.454224e-001 7.480014e-001 7.115323e-001 6.169176e-001 7.569663e-001 8.175943e-001 8.861026e-001 5.291034e-001 8.999033e-002 3.978356e-002
<GCONST> 1.219260e+001
<STATE> 5
<MEAN> 16
 6.701584e+000 7.559400e+000 8.162907e+000 8.175067e+000 7.763929e+000 8.056980e+000 8.392738e+000 8.095279e+000 7.978022e+000 8.175121e+000 8.339601e+000 8.458051e+000 8.989030e+000 8.665380e+000 8.100263e+000 8.099978e+000
<VARIANCE> 16
 4.373310e-001 2.658203e-001 5.121818e-001 6.630452e-001 2.855364e-001 2.601639e-001 2.039404e-001 4.889659e-001 4.764984e-001 3.901598e-001 5.514994e-001 7.265214e-001 6.178365e-001 3.614913e-001 8.845887e-002 6.104436e-002
<GCONST> 1.195132e+001
<STATE> 6
<MEAN> 16
 6.758451e+000 7.591591e+000 8.442819e+000 8.808865e+000 8.388540e+000 8.669731e+000 9.099326e+000 8.727994e+000 8.425614e+000 8.736478e+000 8.892226e+000 9.191509e+000 9.579633e+000 8.987093e+000 8.076610e+000 8.113388e+000
<VARIANCE> 16
 2.623084e-001 1.313954e-001 2.093010e-001 3.904851e-001 4.940295e-001 4.955537e-001 5.035551e-001 4.727352e-001 3.075005e-001 3.928763e-001 5.738173e-001 9.278650e-001 7.171070e-001 3.215673e-001 3.556572e-002 5.605903e-002
<GCONST> 1.026273e+001
<STATE> 7
<MEAN> 16
 6.498649e+000 7.438664e+000 8.615428e+000 1.000105e+001 1.060388e+001 1.012658e+001 1.031657e+001 9.338782e+000 9.243155e+000 9.754476e+000 8.864000e+000 9.608149e+000 9.766561e+000 9.413615e+000 8.524697e+000 8.321868e+000
<VARIANCE> 16
 1.459471e-001 9.490126e-002 6.625836e-002 1.433716e-001 3.228959e-001 2.113484e-001 1.780893e-001 2.144242e-001 2.052219e-001 2.243127e-001 8.799168e-001 1.517800e+000 6.057069e-001 4.010522e-001 2.749496e-001 9.674870e-002
<GCONST> 6.689283e+000
<STATE> 8
<MEAN> 16
 6.686580e+000 7.572692e+000 8.528315e+000 9.656258e+000 1.063496e+001 1.108808e+001 1.153524e+001 1.126330e+001 1.006732e+001 1.041270e+001 1.098416e+001 1.123599e+001 1.200348e+001 1.089490e+001 8.959796e+000 8.561426e+000
<VARIANCE> 16
 5.105215e-001 4.404436e-001 7.560210e-001 6.166214e-001 7.074065e-001 6.554359e-001 6.088215e-001 7.434455e-001 4.196654e-001 5.404267e-001 6.364135e-001 8.282052e-001 8.064678e-001 7.117708e-001 5.386857e-001 3.584953e-001
<GCONST> 2.126561e+001
<STATE> 9
<MEAN> 16
 5.879018e+000 6.432297e+000 6.632411e+000 7.510955e+000 8.472832e+000 8.789689e+000 8.801492e+000 8.474070e+000 7.880678e+000 8.008700e+000 8.355689e+000 8.674231e+000 9.218356e+000 8.562100e+000 7.902604e+000 7.961664e+000
<VARIANCE> 16
 2.570294e-001 4.706234e-001 3.042082e-001 5.407867e-001 5.439203e-001 3.873202e-001 4.406542e-001 6.043325e-001 2.593337e-001 3.068649e-001 4.613827e-001 3.351879e-001 3.743038e-001 2.637705e-001 4.759211e-002 5.573481e-002
<GCONST> 9.963236e+000
<TRANSP> 10
 0.000000e+000 1.000000e+000 0.000000e+000 0.000000e+000 0.000000e+000 0.000000e+000 0.000000e+000 0.000000e+000 0.000000e+000 0.000000e+000
 0.000000e+000 8.138586e-001 1.861414e-001 0.000000e+000 0.000000e+000 0.000000e+000 0.000000e+000 0.000000e+000 0.000000e+000 0.000000e+000
 0.000000e+000 0.000000e+000 5.194474e-001 4.805527e-001 0.000000e+000 0.000000e+000 0.000000e+000 0.000000e+000 0.000000e+000 0.000000e+000
 0.000000e+000 0.000000e+000 0.000000e+000 6.965970e-001 3.034030e-001 0.000000e+000 0.000000e+000 0.000000e+000 0.000000e+000 0.000000e+000
 0.000000e+000 0.000000e+000 0.000000e+000 0.000000e+000 3.416142e-001 6.583858e-001 0.000000e+000 0.000000e+000 0.000000e+000 0.000000e+000
 0.000000e+000 0.000000e+000 0.000000e+000 0.000000e+000 0.000000e+000 4.474784e-001 5.525215e-001 0.000000e+000 0.000000e+000 0.000000e+000
 0.000000e+000 0.000000e+000 0.000000e+000 0.000000e+000 0.000000e+000 0.000000e+000 8.774767e-001 1.225233e-001 0.000000e+000 0.000000e+000
 0.000000e+000 0.000000e+000 0.000000e+000 0.000000e+000 0.000000e+000 0.000000e+000 0.000000e+000 9.336234e-001 6.637663e-002 0.000000e+000
 0.000000e+000 0.000000e+000 0.000000e+000 0.000000e+000 0.000000e+000 0.000000e+000 0.000000e+000 0.000000e+000 8.840141e-001 1.159860e-001
 0.000000e+000 0.000000e+000 0.000000e+000 0.000000e+000 0.000000e+000 0.000000e+000 0.000000e+000 0.000000e+000 0.000000e+000 0.000000e+000
<ENDHMM>
~h "osm"
<BEGINHMM>
<NUMSTATES> 10
<STATE> 2
<MEAN> 16
 5.333069e+000 5.680831e+000 5.945522e+000 6.271956e+000 6.446485e+000 6.592881e+000 6.630835e+000 6.657707e+000 6.969353e+000 6.917820e+000 7.200387e+000 7.643579e+000 8.143902e+000 8.302034e+000 8.328114e+000 8.422325e+000
<VARIANCE> 16
 3.428153e-001 1.892173e-001 2.063274e-001 4.193208e-001 4.920004e-001 4.524519e-001 1.839977e-001 9.314222e-002 1.383680e-001 1.652632e-001 3.534682e-002 1.352978e-001 5.589831e-001 6.264903e-001 6.995023e-001 5.540105e-001
<GCONST> 7.536294e+000
<STATE> 3
<MEAN> 16
 5.850782e+000 6.557616e+000 7.530977e+000 8.366501e+000 8.246317e+000 8.265394e+000 7.683882e+000 7.178957e+000 7.468792e+000 7.699948e+000 7.590394e+000 7.983039e+000 8.594981e+000 8.153445e+000 8.061660e+000 8.303977e+000
<VARIANCE> 16
 2.309214e-001 5.427161e-001 1.171831e+000 1.172419e+000 6.190123e-001 6.331602e-001 5.382497e-001 1.568740e-001 1.018717e-001 2.314015e-001 2.303363e-001 5.728461e-001 3.502899e-001 1.511293e-001 1.449373e-001 1.812345e-001
<GCONST> 1.188739e+001
<STATE> 4
<MEAN> 16
 6.358453e+000 7.407568e+000 8.736455e+000 9.645524e+000 9.469104e+000 9.661904e+000 9.004051e+000 8.226878e+000 8.160378e+000 8.681683e+000 8.636969e+000 9.158927e+000 9.706181e+000 8.944106e+000 8.345557e+000 8.438642e+000
<VARIANCE> 16
 2.527445e-001 1.939871e-001 3.847691e-001 2.847002e-001 5.372478e-001 2.609763e-001 5.525734e-001 1.916635e-001 1.091258e-001 2.632818e-001 6.688789e-001 1.532841e+000 7.454528e-001 5.688580e-001 4.429008e-001 2.180889e-001
<GCONST> 1.324950e+001
<STATE> 5
<MEAN> 16
 6.429119e+000 7.508762e+000 8.815807e+000 9.910071e+000 1.016524e+001 1.022938e+001 9.635440e+000 8.764991e+000 8.534265e+000 9.024380e+000 9.490923e+000 1.022827e+001 1.069677e+001 9.769067e+000 8.567086e+000 8.443748e+000
<VARIANCE> 16
 2.114963e-001 3.478823e-001 2.089313e-001 4.767970e-001 8.759960e-001 4.672196e-001 9.529820e-001 3.330671e-001 1.774701e-001 4.342454e-001 1.061114e+000 1.961099e+000 9.584033e-001 7.102593e-001 6.990252e-001 2.260105e-001
<GCONST> 1.838914e+001
<STATE> 6
<MEAN> 16
 6.556041e+000 7.716649e+000 9.107373e+000 1.010153e+001 1.028639e+001 1.033836e+001 9.685885e+000 8.856724e+000 8.567546e+000 9.047771e+000 9.649755e+000 1.044194e+001 1.093283e+001 9.879260e+000 8.327095e+000 8.476728e+000
<VARIANCE> 16
 2.008412e-001 2.873128e-001 4.454501e-001 4.818469e-001 8.190562e-001 4.190273e-001 7.068604e-001 2.644128e-001 1.246503e-001 4.762739e-001 7.351542e-001 1.322950e+000 6.511984e-001 4.522349e-001 2.106106e-001 1.483154e-001
<GCONST> 1.472775e+001
<STATE> 7
<MEAN> 16
 6.680191e+000 7.701015e+000 9.366349e+000 1.053084e+001 1.085768e+001 1.085820e+001 1.062527e+001 9.609507e+000 9.132263e+000 9.362836e+000 1.044174e+001 1.115474e+001 1.177656e+001 1.105906e+001 9.267662e+000 8.597667e+000
<VARIANCE> 16
 2.440043e-001 4.481124e-001 6.713366e-001 6.773906e-001 9.369392e-001 7.790514e-001 8.776219e-001 4.110001e-001 3.258681e-001 3.335173e-001 5.880021e-001 1.025937e+000 5.762604e-001 5.374050e-001 5.483916e-001 1.399157e-001
<GCONST> 1.860582e+001
<STATE> 8
<MEAN> 16
 6.119658e+000 6.689890e+000 7.527702e+000 8.121704e+000 8.195134e+000 8.419183e+000 8.452335e+000 8.456127e+000 8.575051e+000 8.757707e+000 9.344197e+000 9.947698e+000 1.062107e+001 1.060700e+001 1.012288e+001 9.943575e+000
<VARIANCE> 16
 5.871009e-001 1.439253e+000 2.306406e+000 1.712521e+000 1.355936e+000 1.559824e+000 1.391691e+000 1.224370e+000 1.120970e+000 1.187494e+000 1.044791e+000 8.010341e-001 6.657444e-001 6.424872e-001 1.150073e+000 1.401110e+000
<GCONST> 3.162910e+001
<STATE> 9
<MEAN> 16
 6.434689e+000 7.917019e+000 8.683365e+000 8.614757e+000 7.835238e+000 8.267116e+000 8.461420e+000 8.357017e+000 8.459326e+000 8.698277e+000 8.811509e+000 9.612429e+000 9.966146e+000 9.078835e+000 8.116292e+000 8.122602e+000
<VARIANCE> 16
 1.734635e-001 9.038911e-002 3.396399e-001 4.443863e-001 2.243067e-001 3.807665e-001 5.199578e-001 6.493466e-001 4.497141e-001 4.718663e-001 5.959720e-001 8.678477e-001 9.445909e-001 3.954870e-001 9.383992e-002 5.970578e-002
<GCONST> 1.143494e+001
<TRANSP> 10
 0.000000e+000 1.000000e+000 0.000000e+000 0.000000e+000 0.000000e+000 0.000000e+000 0.000000e+000 0.000000e+000 0.000000e+000 0.000000e+000
 0.000000e+000 3.104100e-001 6.895901e-001 0.000000e+000 0.000000e+000 0.000000e+000 0.000000e+000 0.000000e+000 0.000000e+000 0.000000e+000
 0.000000e+000 0.000000e+000 3.870301e-001 6.129699e-001 0.000000e+000 0.000000e+000 0.000000e+000 0.000000e+000 0.000000e+000 0.000000e+000
 0.000000e+000 0.000000e+000 0.000000e+000 3.947887e-001 6.052113e-001 0.000000e+000 0.000000e+000 0.000000e+000 0.000000e+000 0.000000e+000
 0.000000e+000 0.000000e+000 0.000000e+000 0.000000e+000 7.485332e-002 9.251467e-001 0.000000e+000 0.000000e+000 0.000000e+000 0.000000e+000
 0.000000e+000 0.000000e+000 0.000000e+000 0.000000e+000 0.000000e+000 6.199579e-001 3.800422e-001 0.000000e+000 0.000000e+000 0.000000e+000
 0.000000e+000 0.000000e+000 0.000000e+000 0.000000e+000 0.000000e+000 0.000000e+000 8.011279e-001 1.988721e-001 0.000000e+000 0.000000e+000
 0.000000e+000 0.000000e+000 0.000000e+000 0.000000e+000 0.000000e+000 0.000000e+000 0.000000e+000 9.496247e-001 5.037535e-002 0.000000e+000
 0.000000e+000 0.000000e+000 0.000000e+000 0.000000e+000 0.000000e+000 0.000000e+000 0.000000e+000 0.000000e+000 9.599626e-001 4.003739e-002
 0.000000e+000 0.000000e+000 0.000000e+000 0.000000e+000 0.000000e+000 0.000000e+000 0.000000e+000 0.000000e+000 0.000000e+000 0.000000e+000
<ENDHMM>
~h "pet"
<BEGINHMM>
<NUMSTATES> 10
<STATE> 2
<MEAN> 16
 5.921702e+000 5.985038e+000 6.246123e+000 6.219989e+000 6.268898e+000 6.430264e+000 6.645176e+000 6.847342e+000 7.178694e+000 7.055128e+000 7.227747e+000 7.432313e+000 7.714917e+000 7.781195e+000 7.823634e+000 7.962749e+000
<VARIANCE> 16
 2.279466e-001 2.102428e-001 3.504944e-001 1.094935e-001 4.739911e-002 7.103838e-002 4.426127e-002 4.868955e-002 6.147988e-002 3.748130e-002 2.680789e-002 2.658241e-002 6.821617e-002 5.938033e-002 1.732229e-002 1.482120e-002
<GCONST> -1.582187e+001
<STATE> 3
<MEAN> 16
 5.936151e+000 6.488911e+000 6.932671e+000 6.679742e+000 6.415798e+000 6.459451e+000 6.890004e+000 7.343147e+000 7.893317e+000 7.828227e+000 7.813532e+000 7.969395e+000 8.331285e+000 8.307821e+000 8.122900e+000 8.134932e+000
<VARIANCE> 16
 3.598737e-001 5.886069e-001 7.112288e-001 2.400761e-001 9.253563e-002 6.203087e-002 9.563251e-002 3.089537e-001 4.691745e-001 4.200448e-001 3.965912e-001 3.026910e-001 2.534750e-001 2.239280e-001 8.189034e-002 5.230035e-002
<GCONST> 5.338270e+000
<STATE> 4
<MEAN> 16
 6.351660e+000 7.554504e+000 8.477324e+000 8.152946e+000 7.230410e+000 6.962053e+000 7.284001e+000 8.208838e+000 9.282521e+000 9.335526e+000 8.825804e+000 8.812705e+000 9.254560e+000 9.018489e+000 8.330841e+000 8.327417e+000
<VARIANCE> 16
 1.698408e-001 1.952051e-001 4.134856e-001 3.087793e-001 1.177286e-001 1.229715e-001 6.815282e-002 2.582681e-001 2.755886e-001 5.323443e-001 8.623787e-001 1.091932e+000 6.416631e-001 4.200530e-001 7.904632e-002 9.354771e-002
<GCONST> 7.468741e+000
<STATE> 5
<MEAN> 16
 6.597565e+000 7.946033e+000 9.277055e+000 9.274234e+000 8.070699e+000 7.681529e+000 7.961847e+000 8.862545e+000 1.017214e+001 1.067107e+001 1.024053e+001 1.012558e+001 1.033469e+001 9.582204e+000 8.298789e+000 8.146500e+000
<VARIANCE> 16
 2.704246e-001 1.666846e-001 1.414251e-001 1.006416e-001 2.657813e-001 1.721503e-001 2.317585e-001 3.778918e-001 2.632829e-001 3.546042e-001 9.098161e-001 1.547280e+000 1.159678e+000 1.035183e+000 8.861677e-002 8.528865e-002
<GCONST> 9.803047e+000
<STATE> 6
<MEAN> 16
 6.405293e+000 7.489171e+000 9.359524e+000 9.394252e+000 8.307239e+000 7.780450e+000 8.147782e+000 8.913848e+000 1.031205e+001 1.126727e+001 1.128021e+001 1.138071e+001 1.127706e+001 1.029329e+001 8.661444e+000 8.257056e+000
<VARIANCE> 16
 2.112485e-001 2.287265e-001 4.192187e-001 3.207018e-001 3.050643e-001 1.742744e-001 7.334428e-002 1.793486e-001 2.776913e-001 2.476049e-001 5.794759e-001 1.029228e+000 9.412611e-001 1.676702e+000 2.227113e-001 5.363563e-002
<GCONST> 9.938993e+000
<STATE> 7
<MEAN> 16
 6.810153e+000 7.837607e+000 9.485654e+000 1.018988e+001 8.966804e+000 8.307176e+000 8.536191e+000 9.884160e+000 1.045419e+001 1.023983e+001 9.553072e+000 9.520480e+000 1.007790e+001 9.670232e+000 8.698857e+000 8.744261e+000
<VARIANCE> 16
 1.647946e-001 1.058825e-001 1.702830e-001 1.191562e-001 1.184192e-001 8.220922e-002 6.919152e-002 2.255516e-001 2.257783e-001 7.189156e-001 1.281189e+000 1.630387e+000 7.977620e-001 5.519405e-001 7.313750e-002 1.126655e-001
<GCONST> 5.967230e+000
<STATE> 8
<MEAN> 16
 6.433485e+000 7.426906e+000 8.978514e+000 1.009138e+001 1.016305e+001 9.257018e+000 9.336905e+000 1.015314e+001 1.107002e+001 1.111513e+001 1.121766e+001 1.121924e+001 1.155995e+001 1.070814e+001 8.817161e+000 8.409948e+000
<VARIANCE> 16
 1.514868e-001 2.087412e-001 4.740786e-001 3.184570e-001 6.002924e-001 6.026440e-001 3.098399e-001 2.795786e-001 3.283098e-001 5.272365e-001 4.238422e-001 4.936799e-001 5.140128e-001 7.929512e-001 2.733786e-001 1.369060e-001
<GCONST> 1.309751e+001
<STATE> 9
<MEAN> 16
 5.912848e+000 6.350817e+000 7.311514e+000 8.178462e+000 8.086748e+000 7.516479e+000 7.526659e+000 8.248219e+000 8.812135e+000 8.726308e+000 8.994414e+000 9.044642e+000 9.207053e+000 8.455603e+000 7.918375e+000 8.027068e+000
<VARIANCE> 16
 1.365119e-001 3.476002e-001 5.856931e-001 4.351914e-001 4.002333e-001 3.083518e-001 2.156865e-001 4.077888e-001 3.424836e-001 3.510726e-001 5.186726e-001 3.957767e-001 3.650613e-001 3.582139e-001 4.316840e-002 4.194054e-002
<GCONST> 8.417754e+000
<TRANSP> 10
 0.000000e+000 1.000000e+000 0.000000e+000 0.000000e+000 0.000000e+000 0.000000e+000 0.000000e+000 0.000000e+000 0.000000e+000 0.000000e+000
 0.000000e+000 7.629042e-001 2.370957e-001 0.000000e+000 0.000000e+000 0.000000e+000 0.000000e+000 0.000000e+000 0.000000e+000 0.000000e+000
 0.000000e+000 0.000000e+000 1.952187e-001 8.047813e-001 0.000000e+000 0.000000e+000 0.000000e+000 0.000000e+000 0.000000e+000 0.000000e+000
 0.000000e+000 0.000000e+000 0.000000e+000 4.593603e-001 5.406397e-001 0.000000e+000 0.000000e+000 0.000000e+000 0.000000e+000 0.000000e+000
 0.000000e+000 0.000000e+000 0.000000e+000 0.000000e+000 1.451341e-001 8.548659e-001 0.000000e+000 0.000000e+000 0.000000e+000 0.000000e+000
 0.000000e+000 0.000000e+000 0.000000e+000 0.000000e+000 0.000000e+000 6.679672e-001 3.320328e-001 0.000000e+000 0.000000e+000 0.000000e+000
 0.000000e+000 0.000000e+000 0.000000e+000 0.000000e+000 0.000000e+000 0.000000e+000 7.733292e-001 2.266708e-001 0.000000e+000 0.000000e+000
 0.000000e+000 0.000000e+000 0.000000e+000 0.000000e+000 0.000000e+000 0.000000e+000 0.000000e+000 9.324184e-001 6.758163e-002 0.000000e+000
 0.000000e+000 0.000000e+000 0.000000e+000 0.000000e+000 0.000000e+000 0.000000e+000 0.000000e+000 0.000000e+000 8.345348e-001 1.654652e-001
 0.000000e+000 0.000000e+000 0.000000e+000 0.000000e+000 0.000000e+000 0.000000e+000 0.000000e+000 0.000000e+000 0.000000e+000 0.000000e+000
<ENDHMM>
~h "sil"
<BEGINHMM>
<NUMSTATES> 5
<STATE> 2
<MEAN> 16
 5.730136e+000 5.983153e+000 6.274127e+000 6.580942e+000 6.697103e+000 6.790332e+000 6.923480e+000 7.169476e+000 7.447399e+000 7.423030e+000 7.595849e+000 7.826365e+000 8.200463e+000 8.056743e+000 7.958612e+000 8.086337e+000
<VARIANCE> 16
 1.594710e-001 2.782247e-001 2.719711e-001 2.955012e-001 2.758733e-001 2.243800e-001 2.052444e-001 2.409428e-001 1.821428e-001 1.949296e-001 2.252346e-001 2.109502e-001 2.988833e-001 2.232129e-001 1.034876e-001 6.916878e-002
<GCONST> 3.949030e+000
<STATE> 3
<MEAN> 16
 5.633726e+000 5.737989e+000 5.905139e+000 6.094541e+000 6.259972e+000 6.436053e+000 6.592250e+000 6.757185e+000 7.110535e+000 7.017827e+000 7.170761e+000 7.347168e+000 7.546340e+000 7.643366e+000 7.811785e+000 8.015423e+000
<VARIANCE> 16
 1.140851e-001 1.003593e-001 8.668584e-002 7.077461e-002 6.270567e-002 5.492024e-002 4.797187e-002 3.986948e-002 3.040446e-002 2.983668e-002 2.636264e-002 2.426222e-002 2.742978e-002 2.024877e-002 1.749569e-002 3.421091e-002
<GCONST> -2.136458e+001
<STATE> 4
<MEAN> 16
 5.366181e+000 5.725682e+000 5.903935e+000 6.004379e+000 6.073643e+000 6.260748e+000 6.430419e+000 6.546947e+000 6.820202e+000 6.844034e+000 7.029398e+000 7.245472e+000 7.539907e+000 7.621753e+000 7.661114e+000 7.772118e+000
<VARIANCE> 16
 4.212655e-001 2.385249e-001 1.609673e-001 1.186121e-001 1.620012e-001 1.595111e-001 1.611672e-001 2.420125e-001 3.519749e-001 2.643137e-001 3.002679e-001 3.221885e-001 4.072509e-001 3.563044e-001 1.905689e-001 1.829367e-001
<GCONST> 6.252769e+000
<TRANSP> 5
 0.000000e+000 1.000000e+000 0.000000e+000 0.000000e+000 0.000000e+000
 0.000000e+000 8.637378e-001 1.362622e-001 0.000000e+000 0.000000e+000
 0.000000e+000 0.000000e+000 9.840608e-001 1.593915e-002 0.000000e+000
 0.000000e+000 0.000000e+000 0.000000e+000 6.815013e-001 3.184987e-001
 0.000000e+000 0.000000e+000 0.000000e+000 0.000000e+000 0.000000e+000
<ENDHMM>
~h "tri"
<BEGINHMM>
<NUMSTATES> 10
<STATE> 2
<MEAN> 16
 5.830174e+000 5.934131e+000 6.156551e+000 6.335964e+000 6.462046e+000 6.669351e+000 6.922347e+000 7.302979e+000 7.664660e+000 7.710241e+000 7.898455e+000 8.460628e+000 8.924278e+000 8.876222e+000 8.391935e+000 8.234815e+000
<VARIANCE> 16
 1.130058e-001 1.505923e-001 2.589293e-001 1.310183e-001 6.950893e-002 7.068972e-002 1.331655e-001 1.997590e-001 2.251842e-001 2.340155e-001 3.043309e-001 4.600446e-001 5.258198e-001 5.795543e-001 3.405851e-001 2.284097e-001
<GCONST> 4.355085e+000
<STATE> 3
<MEAN> 16
 5.600650e+000 5.934533e+000 6.375412e+000 6.584726e+000 6.767064e+000 6.984480e+000 7.357126e+000 7.994872e+000 8.339331e+000 8.541015e+000 8.785625e+000 9.583918e+000 9.969653e+000 9.839370e+000 9.107599e+000 8.886950e+000
<VARIANCE> 16
 1.500788e-001 1.220547e-001 1.491970e-001 1.584764e-001 1.656507e-001 2.225756e-001 3.324018e-001 2.446361e-001 2.236317e-001 1.697016e-001 2.820351e-001 2.663454e-001 2.220182e-001 2.813736e-001 2.364967e-001 2.554968e-001
<GCONST> 4.412166e+000
<STATE> 4
<MEAN> 16
 5.972402e+000 5.870708e+000 6.534473e+000 6.996241e+000 7.128661e+000 7.404787e+000 7.650037e+000 8.139163e+000 8.899876e+000 8.988479e+000 9.266244e+000 9.996262e+000 1.066679e+001 1.064839e+001 9.625546e+000 9.164309e+000
<VARIANCE> 16
 2.567596e-001 1.178088e-001 1.843220e-001 3.986228e-001 3.882346e-001 4.978207e-001 3.866367e-001 2.539490e-001 4.320001e-001 3.631558e-001 2.461783e-001 1.913520e-001 1.912441e-001 1.795532e-001 2.566082e-001 3.612204e-001
<GCONST> 8.674809e+000
<STATE> 5
<MEAN> 16
 5.840219e+000 5.859877e+000 6.291227e+000 6.589799e+000 6.774900e+000 7.042290e+000 7.298131e+000 7.738113e+000 8.487232e+000 8.593334e+000 9.169583e+000 1.051172e+001 1.136069e+001 1.152169e+001 1.034823e+001 9.366558e+000
<VARIANCE> 16
 1.560751e-001 6.687861e-002 8.792583e-002 2.754383e-001 2.057724e-001 2.243470e-001 1.167536e-001 2.026130e-001 2.838701e-001 3.188502e-001 4.411190e-001 3.371829e-001 3.301221e-001 2.692670e-001 2.312098e-001 2.247049e-001
<GCONST> 4.617808e+000
<STATE> 6
<MEAN> 16
 5.706007e+000 5.835174e+000 6.097732e+000 6.409707e+000 6.529199e+000 6.672809e+000 6.977774e+000 7.809412e+000 8.448097e+000 8.832427e+000 9.832254e+000 1.096298e+001 1.173057e+001 1.188311e+001 1.115812e+001 1.031227e+001
<VARIANCE> 16
 1.196645e-001 1.061186e-001 8.887378e-002 1.071307e-001 7.737971e-002 7.243565e-002 8.187435e-002 2.938264e-001 2.399110e-001 2.149166e-001 4.248185e-001 5.848822e-001 4.112614e-001 2.433306e-001 3.220498e-001 3.872109e-001
<GCONST> 2.732980e+000
<STATE> 7
<MEAN> 16
 6.085127e+000 6.381203e+000 6.657279e+000 6.864070e+000 6.885148e+000 7.125542e+000 7.397011e+000 8.465152e+000 9.632877e+000 9.690863e+000 1.051842e+001 1.128398e+001 1.188975e+001 1.190480e+001 1.115572e+001 9.800711e+000
<VARIANCE> 16
 2.001691e-001 2.872767e-001 4.186385e-001 3.384180e-001 1.722663e-001 1.599401e-001 9.238626e-002 1.742118e-001 2.654083e-001 2.897592e-001 7.817829e-001 9.096598e-001 8.639089e-001 8.973938e-001 6.879261e-001 2.859182e-001
<GCONST> 1.208825e+001
<STATE> 8
<MEAN> 16
 6.399298e+000 7.882070e+000 9.281479e+000 9.389921e+000 8.234925e+000 7.870696e+000 8.128776e+000 8.899538e+000 1.026801e+001 1.100934e+001 1.072890e+001 1.070438e+001 1.106083e+001 1.041579e+001 8.972586e+000 8.533474e+000
<VARIANCE> 16
 1.696083e-001 2.724714e-001 5.891242e-001 7.187466e-001 8.292965e-001 7.118790e-001 4.329569e-001 3.501382e-001 5.504090e-001 5.287430e-001 1.497901e+000 1.604875e+000 1.461734e+000 1.299422e+000 2.906820e-001 1.127203e-001
<GCONST> 1.992455e+001
<STATE> 9
<MEAN> 16
 6.025693e+000 6.901851e+000 7.635879e+000 7.677909e+000 7.271326e+000 7.145582e+000 7.018891e+000 7.227746e+000 8.213069e+000 9.101286e+000 9.139111e+000 9.140410e+000 9.606374e+000 9.045387e+000 8.089928e+000 8.074920e+000
<VARIANCE> 16
 2.048283e-001 5.034522e-001 4.343451e-001 5.292005e-001 3.924679e-001 4.262199e-001 1.427429e-001 1.266758e-001 4.163457e-001 3.497561e-001 4.768531e-001 3.057169e-001 4.203842e-001 4.103582e-001 1.086578e-001 5.334553e-002
<GCONST> 9.102713e+000
<TRANSP> 10
 0.000000e+000 1.000000e+000 0.000000e+000 0.000000e+000 0.000000e+000 0.000000e+000 0.000000e+000 0.000000e+000 0.000000e+000 0.000000e+000
 0.000000e+000 5.216809e-001 4.783191e-001 0.000000e+000 0.000000e+000 0.000000e+000 0.000000e+000 0.000000e+000 0.000000e+000 0.000000e+000
 0.000000e+000 0.000000e+000 4.081287e-001 5.918713e-001 0.000000e+000 0.000000e+000 0.000000e+000 0.000000e+000 0.000000e+000 0.000000e+000
 0.000000e+000 0.000000e+000 0.000000e+000 2.775063e-001 7.224936e-001 0.000000e+000 0.000000e+000 0.000000e+000 0.000000e+000 0.000000e+000
 0.000000e+000 0.000000e+000 0.000000e+000 0.000000e+000 3.701976e-001 6.298025e-001 0.000000e+000 0.000000e+000 0.000000e+000 0.000000e+000
 0.000000e+000 0.000000e+000 0.000000e+000 0.000000e+000 0.000000e+000 8.325840e-001 1.674161e-001 0.000000e+000 0.000000e+000 0.000000e+000
 0.000000e+000 0.000000e+000 0.000000e+000 0.000000e+000 0.000000e+000 0.000000e+000 6.707790e-001 3.292209e-001 0.000000e+000 0.000000e+000
 0.000000e+000 0.000000e+000 0.000000e+000 0.000000e+000 0.000000e+000 0.000000e+000 0.000000e+000 9.530667e-001 4.693331e-002 0.000000e+000
 0.000000e+000 0.000000e+000 0.000000e+000 0.000000e+000 0.000000e+000 0.000000e+000 0.000000e+000 0.000000e+000 8.284322e-001 1.715678e-001
 0.000000e+000 0.000000e+000 0.000000e+000 0.000000e+000 0.000000e+000 0.000000e+000 0.000000e+000 0.000000e+000 0.000000e+000 0.000000e+000
<ENDHMM>
~h "nula"
<BEGINHMM>
<NUMSTATES> 10
<STATE> 2
<MEAN> 16
 6.168642e+000 6.989769e+000 7.045430e+000 6.919016e+000 6.485614e+000 6.672591e+000 6.876482e+000 7.045640e+000 7.327363e+000 7.313096e+000 7.441078e+000 7.634501e+000 8.248597e+000 8.223916e+000 7.930932e+000 8.096643e+000
<VARIANCE> 16
 3.215324e-001 3.035661e-001 2.679302e-001 2.669055e-001 1.530852e-001 1.456566e-001 1.500933e-001 1.202309e-001 1.162984e-001 1.191623e-001 1.249471e-001 1.946115e-001 3.774489e-001 2.486905e-001 5.329427e-002 4.084630e-002
<GCONST> 1.320162e-001
<STATE> 3
<MEAN> 16
 6.475550e+000 7.834117e+000 8.132442e+000 8.211088e+000 7.709572e+000 7.652036e+000 7.141599e+000 7.276950e+000 7.634908e+000 7.689920e+000 7.601494e+000 7.650279e+000 8.246801e+000 8.305323e+000 7.955160e+000 8.145641e+000
<VARIANCE> 16
 2.134202e-001 3.066763e-001 4.384928e-001 2.972455e-001 3.786992e-001 5.364088e-001 1.597934e-001 1.992788e-001 1.481540e-001 2.779838e-001 3.033871e-001 1.500520e-001 3.031786e-001 1.370776e-001 1.847865e-002 3.871011e-002
<GCONST> 2.898523e+000
<STATE> 4
<MEAN> 16
 6.542885e+000 7.986200e+000 8.402061e+000 8.287835e+000 7.495290e+000 7.296685e+000 7.246481e+000 7.751738e+000 8.014573e+000 8.385570e+000 8.440912e+000 8.381020e+000 8.872161e+000 8.486309e+000 7.952706e+000 7.995106e+000
<VARIANCE> 16
 3.861982e-001 2.263614e-001 4.598925e-001 3.260800e-001 2.617764e-001 4.204277e-001 2.170433e-001 2.042677e-001 2.470954e-001 4.956810e-001 3.029933e-001 2.584374e-001 5.690078e-001 2.347058e-001 3.882769e-002 3.892186e-002
<GCONST> 6.593845e+000
<STATE> 5
<MEAN> 16
 6.806138e+000 8.308753e+000 8.697111e+000 8.707029e+000 8.039376e+000 7.841501e+000 7.654050e+000 8.022670e+000 8.057230e+000 8.621354e+000 8.499874e+000 8.219134e+000 8.637702e+000 8.433429e+000 8.223482e+000 8.175473e+000
<VARIANCE> 16
 4.280049e-001 3.841919e-001 4.686588e-001 3.767600e-001 3.274424e-001 6.029578e-001 2.641973e-001 3.219477e-001 2.475148e-001 7.143793e-001 7.629066e-001 3.412564e-001 4.378969e-001 2.015111e-001 2.116843e-001 2.748387e-001
<GCONST> 1.342972e+001
<STATE> 6
<MEAN> 16
 6.552204e+000 8.133677e+000 9.109973e+000 9.368123e+000 8.675317e+000 8.809741e+000 8.328870e+000 8.311937e+000 8.508778e+000 8.680820e+000 8.634046e+000 8.638829e+000 8.589366e+000 8.231606e+000 8.085546e+000 8.184885e+000
<VARIANCE> 16
 3.116465e-001 2.729561e-001 4.322341e-001 2.933530e-001 3.059461e-001 4.605929e-001 2.275713e-001 3.035809e-001 2.042994e-001 1.871123e-001 5.179102e-001 6.405854e-001 6.147535e-001 2.549060e-001 2.624030e-001 2.767950e-001
<GCONST> 1.140126e+001
<STATE> 7
<MEAN> 16
 6.571599e+000 7.961577e+000 9.099604e+000 1.000396e+001 9.760530e+000 9.774295e+000 9.620160e+000 8.924506e+000 8.877511e+000 9.205537e+000 9.208542e+000 9.624110e+000 9.685761e+000 9.015079e+000 8.316230e+000 8.226715e+000
<VARIANCE> 16
 2.590861e-001 3.287075e-001 7.027358e-001 1.963128e-001 5.218633e-001 5.046580e-001 3.893536e-001 2.970074e-001 2.783355e-001 3.185565e-001 1.051100e+000 1.123108e+000 7.611132e-001 3.418649e-001 2.128859e-001 9.904534e-002
<GCONST> 1.400810e+001
<STATE> 8
<MEAN> 16
 6.694580e+000 7.723710e+000 8.998765e+000 1.018055e+001 1.067439e+001 1.086232e+001 1.115948e+001 1.054018e+001 9.711830e+000 1.020098e+001 1.091536e+001 1.101460e+001 1.162959e+001 1.065841e+001 9.000076e+000 8.657051e+000
<VARIANCE> 16
 4.175680e-001 5.863144e-001 1.296761e+000 4.951452e-001 6.642666e-001 4.894480e-001 6.924884e-001 1.023673e+000 3.493062e-001 4.646695e-001 6.849918e-001 6.581456e-001 9.588868e-001 1.104224e+000 1.004538e+000 6.803214e-001
<GCONST> 2.314976e+001
<STATE> 9
<MEAN> 16
 5.999927e+000 6.689093e+000 6.980500e+000 8.067718e+000 8.769990e+000 8.950434e+000 9.008326e+000 8.532629e+000 7.942575e+000 8.184093e+000 8.453643e+000 8.613294e+000 9.109332e+000 8.672364e+000 7.999740e+000 8.017111e+000
<VARIANCE> 16
 2.980826e-001 7.506884e-001 3.971949e-001 4.839249e-001 3.823418e-001 3.510695e-001 4.538350e-001 7.011581e-001 2.950322e-001 3.490499e-001 5.961953e-001 4.430079e-001 4.067424e-001 2.870689e-001 1.087379e-001 6.981368e-002
<GCONST> 1.247356e+001
<TRANSP> 10
 0.000000e+000 1.000000e+000 0.000000e+000 0.000000e+000 0.000000e+000 0.000000e+000 0.000000e+000 0.000000e+000 0.000000e+000 0.000000e+000
 0.000000e+000 5.378048e-001 4.621952e-001 0.000000e+000 0.000000e+000 0.000000e+000 0.000000e+000 0.000000e+000 0.000000e+000 0.000000e+000
 0.000000e+000 0.000000e+000 4.976510e-001 5.023490e-001 0.000000e+000 0.000000e+000 0.000000e+000 0.000000e+000 0.000000e+000 0.000000e+000
 0.000000e+000 0.000000e+000 0.000000e+000 4.860910e-001 5.139090e-001 0.000000e+000 0.000000e+000 0.000000e+000 0.000000e+000 0.000000e+000
 0.000000e+000 0.000000e+000 0.000000e+000 0.000000e+000 4.114428e-001 5.885572e-001 0.000000e+000 0.000000e+000 0.000000e+000 0.000000e+000
 0.000000e+000 0.000000e+000 0.000000e+000 0.000000e+000 0.000000e+000 7.485015e-001 2.514985e-001 0.000000e+000 0.000000e+000 0.000000e+000
 0.000000e+000 0.000000e+000 0.000000e+000 0.000000e+000 0.000000e+000 0.000000e+000 9.227510e-001 7.724899e-002 0.000000e+000 0.000000e+000
 0.000000e+000 0.000000e+000 0.000000e+000 0.000000e+000 0.000000e+000 0.000000e+000 0.000000e+000 9.399953e-001 6.000469e-002 0.000000e+000
 0.000000e+000 0.000000e+000 0.000000e+000 0.000000e+000 0.000000e+000 0.000000e+000 0.000000e+000 0.000000e+000 8.696872e-001 1.303128e-001
 0.000000e+000 0.000000e+000 0.000000e+000 0.000000e+000 0.000000e+000 0.000000e+000 0.000000e+000 0.000000e+000 0.000000e+000 0.000000e+000
<ENDHMM>
~h "devet"
<BEGINHMM>
<NUMSTATES> 10
<STATE> 2
<MEAN> 16
 6.224545e+000 6.655309e+000 6.913997e+000 6.750130e+000 6.424108e+000 6.563726e+000 6.660493e+000 6.767872e+000 7.152994e+000 7.108521e+000 7.244685e+000 7.445650e+000 7.744638e+000 7.795845e+000 7.826929e+000 7.977545e+000
<VARIANCE> 16
 2.314542e-001 1.587065e-001 3.014913e-001 2.320506e-001 8.082089e-002 7.175323e-002 7.696249e-002 3.810330e-002 3.320623e-002 2.792367e-002 4.064250e-002 5.329660e-002 1.535230e-001 9.651134e-002 1.966798e-002 1.833765e-002
<GCONST> -1.279747e+001
<STATE> 3
<MEAN> 16
 6.238125e+000 7.037413e+000 7.192465e+000 7.134574e+000 6.869932e+000 6.706700e+000 6.863288e+000 7.175980e+000 7.616083e+000 7.534040e+000 7.681673e+000 7.848161e+000 8.120249e+000 8.069374e+000 7.880651e+000 8.020437e+000
<VARIANCE> 16
 2.039818e-001 4.081068e-001 3.297129e-001 3.718785e-001 2.353660e-001 2.320476e-001 1.447385e-001 3.121267e-001 3.436324e-001 2.269829e-001 2.244475e-001 3.146120e-001 3.011876e-001 1.686557e-001 4.156807e-002 6.425057e-002
<GCONST> 4.709865e+000
<STATE> 4
<MEAN> 16
 6.458261e+000 7.420859e+000 7.704965e+000 7.619503e+000 7.011554e+000 6.884892e+000 7.091742e+000 7.775667e+000 8.333305e+000 8.198225e+000 8.352507e+000 8.418186e+000 8.778364e+000 8.630578e+000 8.075871e+000 8.055756e+000
<VARIANCE> 16
 4.307016e-001 6.947408e-001 4.158190e-001 3.397464e-001 1.243929e-001 9.091767e-002 1.144122e-001 4.090353e-001 3.128295e-001 1.394412e-001 2.855200e-001 4.076068e-001 3.145587e-001 2.350734e-001 5.472199e-002 5.731731e-002
<GCONST> 5.046216e+000
<STATE> 5
<MEAN> 16
 6.328697e+000 7.450727e+000 8.538488e+000 8.781420e+000 7.839501e+000 7.437135e+000 7.919664e+000 9.050714e+000 9.679375e+000 9.500233e+000 9.348040e+000 9.522654e+000 9.960263e+000 9.441680e+000 8.512336e+000 8.365169e+000
<VARIANCE> 16
 2.823700e-001 2.679494e-001 5.853140e-001 4.423631e-001 1.803665e-001 9.107992e-002 7.267466e-002 4.005274e-001 2.600379e-001 2.529571e-001 9.715340e-001 1.267637e+000 9.686562e-001 7.146769e-001 3.406366e-001 1.320186e-001
<GCONST> 1.184508e+001
<STATE> 6
<MEAN> 16
 6.578994e+000 7.703219e+000 9.276567e+000 9.643945e+000 8.700188e+000 8.152884e+000 8.560620e+000 9.677023e+000 1.046417e+001 1.038390e+001 1.024586e+001 1.033957e+001 1.064404e+001 9.853620e+000 8.846254e+000 8.541924e+000
<VARIANCE> 16
 1.845065e-001 2.394642e-001 2.992204e-001 1.347175e-001 1.034690e-001 1.160272e-001 3.884009e-002 3.848465e-001 1.462225e-001 1.546597e-001 1.192149e+000 1.363460e+000 9.323404e-001 1.157834e+000 2.726619e-001 2.005915e-001
<GCONST> 8.316949e+000
<STATE> 7
<MEAN> 16
 6.637961e+000 7.760690e+000 9.497119e+000 1.014194e+001 9.283752e+000 8.641256e+000 8.889630e+000 1.028667e+001 1.087061e+001 1.083272e+001 1.063657e+001 1.096543e+001 1.084895e+001 9.588625e+000 8.810994e+000 8.570637e+000
<VARIANCE> 16
 1.501292e-001 1.681760e-001 1.712367e-001 1.151756e-001 2.757513e-001 1.306147e-001 5.657239e-002 4.335764e-001 1.598639e-001 1.711738e-001 9.223375e-001 1.483243e+000 6.249654e-001 7.521939e-001 1.462196e-001 1.911781e-001
<GCONST> 7.152206e+000
<STATE> 8
<MEAN> 16
 6.362281e+000 7.690461e+000 9.016869e+000 8.921392e+000 7.886305e+000 7.535662e+000 8.047402e+000 9.344544e+000 9.728974e+000 9.607579e+000 8.699516e+000 8.987838e+000 9.542572e+000 9.320032e+000 8.383058e+000 8.444351e+000
<VARIANCE> 16
 1.476352e-001 1.643183e-001 3.486025e-001 3.486948e-001 4.605213e-001 2.270761e-001 1.895367e-001 2.949387e-001 4.365871e-001 4.007169e-001 1.037701e+000 1.545779e+000 7.084123e-001 7.472758e-001 1.371219e-001 1.223717e-001
<GCONST> 1.244331e+001
<STATE> 9
<MEAN> 16
 6.449147e+000 7.485799e+000 8.936834e+000 9.687527e+000 9.506227e+000 8.662174e+000 8.890001e+000 9.655361e+000 1.070271e+001 1.089704e+001 1.116322e+001 1.122406e+001 1.149109e+001 1.064669e+001 8.708816e+000 8.348352e+000
<VARIANCE> 16
 2.009023e-001 3.317455e-001 6.129594e-001 6.751221e-001 1.065493e+000 5.982894e-001 4.231331e-001 4.232654e-001 5.721263e-001 6.945498e-001 6.650133e-001 7.090592e-001 7.236995e-001 1.121164e+000 3.225125e-001 1.030489e-001
<GCONST> 1.835749e+001
<TRANSP> 10
 0.000000e+000 1.000000e+000 0.000000e+000 0.000000e+000 0.000000e+000 0.000000e+000 0.000000e+000 0.000000e+000 0.000000e+000 0.000000e+000
 0.000000e+000 7.693447e-001 2.306552e-001 0.000000e+000 0.000000e+000 0.000000e+000 0.000000e+000 0.000000e+000 0.000000e+000 0.000000e+000
 0.000000e+000 0.000000e+000 2.335104e-001 7.664896e-001 0.000000e+000 0.000000e+000 0.000000e+000 0.000000e+000 0.000000e+000 0.000000e+000
 0.000000e+000 0.000000e+000 0.000000e+000 2.346712e-001 7.653288e-001 0.000000e+000 0.000000e+000 0.000000e+000 0.000000e+000 0.000000e+000
 0.000000e+000 0.000000e+000 0.000000e+000 0.000000e+000 3.054820e-001 6.945180e-001 0.000000e+000 0.000000e+000 0.000000e+000 0.000000e+000
 0.000000e+000 0.000000e+000 0.000000e+000 0.000000e+000 0.000000e+000 1.646222e-001 8.353779e-001 0.000000e+000 0.000000e+000 0.000000e+000
 0.000000e+000 0.000000e+000 0.000000e+000 0.000000e+000 0.000000e+000 0.000000e+000 7.045616e-001 2.954384e-001 0.000000e+000 0.000000e+000
 0.000000e+000 0.000000e+000 0.000000e+000 0.000000e+000 0.000000e+000 0.000000e+000 0.000000e+000 8.751186e-001 1.248814e-001 0.000000e+000
 0.000000e+000 0.000000e+000 0.000000e+000 0.000000e+000 0.000000e+000 0.000000e+000 0.000000e+000 0.000000e+000 9.659328e-001 3.406722e-002
 0.000000e+000 0.000000e+000 0.000000e+000 0.000000e+000 0.000000e+000 0.000000e+000 0.000000e+000 0.000000e+000 0.000000e+000 0.000000e+000
<ENDHMM>
~h "jedna"
<BEGINHMM>
<NUMSTATES> 10
<STATE> 2
<MEAN> 16
 6.101199e+000 6.850095e+000 6.961500e+000 6.852543e+000 6.547821e+000 6.551563e+000 6.678526e+000 6.911504e+000 7.516919e+000 7.848320e+000 7.865562e+000 8.178467e+000 8.599785e+000 8.340827e+000 7.926711e+000 8.071610e+000
<VARIANCE> 16
 1.930805e-001 3.848542e-001 4.062828e-001 2.071933e-001 1.062245e-001 8.371419e-002 4.303028e-002 3.143908e-002 2.012026e-001 3.114323e-001 2.841233e-001 5.279142e-001 6.523920e-001 2.948009e-001 9.070508e-002 7.276501e-002
<GCONST> 1.667172e+000
<STATE> 3
<MEAN> 16
 6.346113e+000 7.634226e+000 8.073829e+000 7.753348e+000 7.103483e+000 6.780878e+000 6.760151e+000 7.044267e+000 8.008559e+000 9.007134e+000 9.204168e+000 9.532489e+000 9.568072e+000 8.909318e+000 8.076327e+000 8.065401e+000
<VARIANCE> 16
 1.642528e-001 2.134441e-001 2.327984e-001 2.072301e-001 1.643500e-001 1.849311e-001 6.451443e-002 9.700708e-002 3.593033e-001 4.118274e-001 5.299399e-001 1.138260e+000 1.183619e+000 5.109256e-001 6.920076e-002 4.026150e-002
<GCONST> 5.654141e+000
<STATE> 4
<MEAN> 16
 6.418906e+000 7.467619e+000 8.134443e+000 7.812788e+000 7.031322e+000 6.837020e+000 7.140081e+000 7.974679e+000 8.525157e+000 8.616284e+000 8.366313e+000 8.317822e+000 8.898915e+000 8.576921e+000 8.396459e+000 8.484386e+000
<VARIANCE> 16
 1.023289e-001 3.075777e-001 9.929052e-001 8.245915e-001 3.200867e-001 1.477100e-001 2.000889e-001 7.176535e-001 1.125967e+000 9.850739e-001 9.436820e-001 1.263881e+000 1.030481e+000 4.932890e-001 1.924516e-001 1.209045e-001
<GCONST> 1.659755e+001
<STATE> 5
<MEAN> 16
 6.360032e+000 7.732968e+000 8.850333e+000 8.813518e+000 7.828333e+000 7.360200e+000 7.652462e+000 8.483450e+000 8.882569e+000 9.522704e+000 9.398520e+000 9.954027e+000 9.884088e+000 8.760187e+000 8.252701e+000 8.157100e+000
<VARIANCE> 16
 8.566242e-002 1.535178e-001 4.357405e-001 4.766907e-001 3.165568e-001 2.172953e-001 1.910382e-001 7.853131e-001 8.970563e-001 8.745378e-001 1.179149e+000 1.374097e+000 1.051267e+000 8.152453e-001 2.260269e-001 5.850770e-002
<GCONST> 1.468938e+001
<STATE> 6
<MEAN> 16
 6.375345e+000 7.442393e+000 8.210607e+000 8.233154e+000 7.760083e+000 7.457189e+000 7.514277e+000 8.148076e+000 8.856994e+000 9.519940e+000 9.984284e+000 1.005452e+001 1.034105e+001 9.698529e+000 8.259508e+000 8.090364e+000
<VARIANCE> 16
 1.845239e-001 3.561241e-001 7.570643e-001 6.083878e-001 3.090332e-001 2.805345e-001 5.554349e-001 6.600309e-001 1.035437e+000 1.347007e+000 1.421054e+000 1.783192e+000 1.726995e+000 1.331578e+000 3.385965e-001 5.740698e-002
<GCONST> 2.061422e+001
<STATE> 7
<MEAN> 16
 6.637910e+000 7.797459e+000 8.923489e+000 9.135498e+000 8.805037e+000 8.234849e+000 8.246594e+000 8.840038e+000 9.672372e+000 1.013977e+001 1.025566e+001 1.028724e+001 1.077048e+001 9.881662e+000 8.435897e+000 8.244115e+000
<VARIANCE> 16
 1.635553e-001 3.580402e-001 6.936626e-001 9.164689e-001 1.131645e+000 6.956747e-001 7.830746e-001 8.565368e-001 9.188396e-001 1.565107e+000 1.498291e+000 1.540416e+000 1.388356e+000 1.488353e+000 5.413199e-001 1.406188e-001
<GCONST> 2.482677e+001
<STATE> 8
<MEAN> 16
 6.579140e+000 7.673098e+000 8.560702e+000 9.440708e+000 1.003255e+001 1.024390e+001 1.066929e+001 1.105916e+001 1.036208e+001 1.009379e+001 1.029059e+001 1.054353e+001 1.108336e+001 1.036869e+001 8.508479e+000 8.297622e+000
<VARIANCE> 16
 1.171147e-001 2.620857e-001 3.848250e-001 4.019735e-001 4.669037e-001 5.372661e-001 4.134314e-001 6.527734e-001 3.474806e-001 2.322314e-001 1.320491e+000 1.129279e+000 1.136321e+000 8.114391e-001 2.320194e-001 8.983849e-002
<GCONST> 1.529401e+001
<STATE> 9
<MEAN> 16
 6.239323e+000 7.074914e+000 7.516579e+000 8.328730e+000 9.150659e+000 9.133629e+000 9.347351e+000 9.056949e+000 8.559108e+000 8.579142e+000 8.720902e+000 9.071554e+000 9.397799e+000 8.825466e+000 7.993199e+000 8.108189e+000
<VARIANCE> 16
 1.720715e-001 3.752909e-001 5.018714e-001 7.647895e-001 8.910475e-001 4.373384e-001 4.455599e-001 4.065055e-001 2.981217e-001 3.557362e-001 7.505092e-001 8.194477e-001 4.544666e-001 1.919207e-001 3.303945e-002 4.013857e-002
<GCONST> 1.126286e+001
<TRANSP> 10
 0.000000e+000 1.000000e+000 0.000000e+000 0.000000e+000 0.000000e+000 0.000000e+000 0.000000e+000 0.000000e+000 0.000000e+000 0.000000e+000
 0.000000e+000 5.321321e-001 4.678679e-001 0.000000e+000 0.000000e+000 0.000000e+000 0.000000e+000 0.000000e+000 0.000000e+000 0.000000e+000
 0.000000e+000 0.000000e+000 4.943871e-001 5.056129e-001 0.000000e+000 0.000000e+000 0.000000e+000 0.000000e+000 0.000000e+000 0.000000e+000
 0.000000e+000 0.000000e+000 0.000000e+000 7.845124e-001 2.154876e-001 0.000000e+000 0.000000e+000 0.000000e+000 0.000000e+000 0.000000e+000
 0.000000e+000 0.000000e+000 0.000000e+000 0.000000e+000 8.019832e-001 1.980168e-001 0.000000e+000 0.000000e+000 0.000000e+000 0.000000e+000
 0.000000e+000 0.000000e+000 0.000000e+000 0.000000e+000 0.000000e+000 7.897146e-001 2.102854e-001 0.000000e+000 0.000000e+000 0.000000e+000
 0.000000e+000 0.000000e+000 0.000000e+000 0.000000e+000 0.000000e+000 0.000000e+000 9.208251e-001 7.917488e-002 0.000000e+000 0.000000e+000
 0.000000e+000 0.000000e+000 0.000000e+000 0.000000e+000 0.000000e+000 0.000000e+000 0.000000e+000 9.356984e-001 6.430157e-002 0.000000e+000
 0.000000e+000 0.000000e+000 0.000000e+000 0.000000e+000 0.000000e+000 0.000000e+000 0.000000e+000 0.000000e+000 8.960624e-001 1.039376e-001
 0.000000e+000 0.000000e+000 0.000000e+000 0.000000e+000 0.000000e+000 0.000000e+000 0.000000e+000 0.000000e+000 0.000000e+000 0.000000e+000
<ENDHMM>
