~o
<STREAMINFO> 1 39
<VECSIZE> 39<NULLD><MFCC_D_A_0><DIAGC>
~h "proto-8s-39f"
<BEGINHMM>
<NUMSTATES> 10
<STATE> 2
<MEAN> 39
 -3.716128e+000 -6.380129e+000 2.174243e-001 1.145184e+000 -2.123226e+000 -8.519364e-001 -9.886113e+000 -4.108275e+000 -3.738258e+000 -3.982974e+000 -2.040710e+000 -2.886485e+000 6.860046e+001 1.161692e-001 1.839738e-002 1.318147e-002 3.522809e-002 4.765216e-002 -6.578477e-002 -1.075455e-002 -4.797672e-002 -4.322467e-002 -4.185076e-002 -6.161644e-002 -2.040082e-002 2.105548e-001 -7.967934e-003 -2.342422e-003 -3.171186e-003 3.817672e-004 1.083124e-003 -6.746306e-004 2.956044e-003 -1.842732e-003 1.327892e-003 -6.019532e-003 5.764290e-004 3.126013e-003 -9.292936e-003
<VARIANCE> 39
 1.163700e+002 6.260301e+001 7.997113e+001 7.530503e+001 9.084264e+001 1.255554e+002 1.256672e+002 1.057140e+002 9.768964e+001 7.345087e+001 9.568368e+001 6.325558e+001 1.612454e+002 3.567134e+000 2.563311e+000 2.805294e+000 3.755164e+000 3.918174e+000 5.156590e+000 5.945898e+000 5.293903e+000 4.062713e+000 3.943087e+000 4.098376e+000 3.774606e+000 4.186843e+000 4.536186e-001 3.917156e-001 4.389131e-001 5.880703e-001 6.157338e-001 8.505340e-001 9.490976e-001 8.981448e-001 7.189521e-001 7.004464e-001 7.116325e-001 6.557901e-001 5.184597e-001
<GCONST> 1.427537e+002
<STATE> 3
<MEAN> 39
 -3.716128e+000 -6.380129e+000 2.174243e-001 1.145184e+000 -2.123226e+000 -8.519364e-001 -9.886113e+000 -4.108275e+000 -3.738258e+000 -3.982974e+000 -2.040710e+000 -2.886485e+000 6.860046e+001 1.161692e-001 1.839738e-002 1.318147e-002 3.522809e-002 4.765216e-002 -6.578477e-002 -1.075455e-002 -4.797672e-002 -4.322467e-002 -4.185076e-002 -6.161644e-002 -2.040082e-002 2.105548e-001 -7.967934e-003 -2.342422e-003 -3.171186e-003 3.817672e-004 1.083124e-003 -6.746306e-004 2.956044e-003 -1.842732e-003 1.327892e-003 -6.019532e-003 5.764290e-004 3.126013e-003 -9.292936e-003
<VARIANCE> 39
 1.163700e+002 6.260301e+001 7.997113e+001 7.530503e+001 9.084264e+001 1.255554e+002 1.256672e+002 1.057140e+002 9.768964e+001 7.345087e+001 9.568368e+001 6.325558e+001 1.612454e+002 3.567134e+000 2.563311e+000 2.805294e+000 3.755164e+000 3.918174e+000 5.156590e+000 5.945898e+000 5.293903e+000 4.062713e+000 3.943087e+000 4.098376e+000 3.774606e+000 4.186843e+000 4.536186e-001 3.917156e-001 4.389131e-001 5.880703e-001 6.157338e-001 8.505340e-001 9.490976e-001 8.981448e-001 7.189521e-001 7.004464e-001 7.116325e-001 6.557901e-001 5.184597e-001
<GCONST> 1.427537e+002
<STATE> 4
<MEAN> 39
 -3.716128e+000 -6.380129e+000 2.174243e-001 1.145184e+000 -2.123226e+000 -8.519364e-001 -9.886113e+000 -4.108275e+000 -3.738258e+000 -3.982974e+000 -2.040710e+000 -2.886485e+000 6.860046e+001 1.161692e-001 1.839738e-002 1.318147e-002 3.522809e-002 4.765216e-002 -6.578477e-002 -1.075455e-002 -4.797672e-002 -4.322467e-002 -4.185076e-002 -6.161644e-002 -2.040082e-002 2.105548e-001 -7.967934e-003 -2.342422e-003 -3.171186e-003 3.817672e-004 1.083124e-003 -6.746306e-004 2.956044e-003 -1.842732e-003 1.327892e-003 -6.019532e-003 5.764290e-004 3.126013e-003 -9.292936e-003
<VARIANCE> 39
 1.163700e+002 6.260301e+001 7.997113e+001 7.530503e+001 9.084264e+001 1.255554e+002 1.256672e+002 1.057140e+002 9.768964e+001 7.345087e+001 9.568368e+001 6.325558e+001 1.612454e+002 3.567134e+000 2.563311e+000 2.805294e+000 3.755164e+000 3.918174e+000 5.156590e+000 5.945898e+000 5.293903e+000 4.062713e+000 3.943087e+000 4.098376e+000 3.774606e+000 4.186843e+000 4.536186e-001 3.917156e-001 4.389131e-001 5.880703e-001 6.157338e-001 8.505340e-001 9.490976e-001 8.981448e-001 7.189521e-001 7.004464e-001 7.116325e-001 6.557901e-001 5.184597e-001
<GCONST> 1.427537e+002
<STATE> 5
<MEAN> 39
 -3.716128e+000 -6.380129e+000 2.174243e-001 1.145184e+000 -2.123226e+000 -8.519364e-001 -9.886113e+000 -4.108275e+000 -3.738258e+000 -3.982974e+000 -2.040710e+000 -2.886485e+000 6.860046e+001 1.161692e-001 1.839738e-002 1.318147e-002 3.522809e-002 4.765216e-002 -6.578477e-002 -1.075455e-002 -4.797672e-002 -4.322467e-002 -4.185076e-002 -6.161644e-002 -2.040082e-002 2.105548e-001 -7.967934e-003 -2.342422e-003 -3.171186e-003 3.817672e-004 1.083124e-003 -6.746306e-004 2.956044e-003 -1.842732e-003 1.327892e-003 -6.019532e-003 5.764290e-004 3.126013e-003 -9.292936e-003
<VARIANCE> 39
 1.163700e+002 6.260301e+001 7.997113e+001 7.530503e+001 9.084264e+001 1.255554e+002 1.256672e+002 1.057140e+002 9.768964e+001 7.345087e+001 9.568368e+001 6.325558e+001 1.612454e+002 3.567134e+000 2.563311e+000 2.805294e+000 3.755164e+000 3.918174e+000 5.156590e+000 5.945898e+000 5.293903e+000 4.062713e+000 3.943087e+000 4.098376e+000 3.774606e+000 4.186843e+000 4.536186e-001 3.917156e-001 4.389131e-001 5.880703e-001 6.157338e-001 8.505340e-001 9.490976e-001 8.981448e-001 7.189521e-001 7.004464e-001 7.116325e-001 6.557901e-001 5.184597e-001
<GCONST> 1.427537e+002
<STATE> 6
<MEAN> 39
 -3.716128e+000 -6.380129e+000 2.174243e-001 1.145184e+000 -2.123226e+000 -8.519364e-001 -9.886113e+000 -4.108275e+000 -3.738258e+000 -3.982974e+000 -2.040710e+000 -2.886485e+000 6.860046e+001 1.161692e-001 1.839738e-002 1.318147e-002 3.522809e-002 4.765216e-002 -6.578477e-002 -1.075455e-002 -4.797672e-002 -4.322467e-002 -4.185076e-002 -6.161644e-002 -2.040082e-002 2.105548e-001 -7.967934e-003 -2.342422e-003 -3.171186e-003 3.817672e-004 1.083124e-003 -6.746306e-004 2.956044e-003 -1.842732e-003 1.327892e-003 -6.019532e-003 5.764290e-004 3.126013e-003 -9.292936e-003
<VARIANCE> 39
 1.163700e+002 6.260301e+001 7.997113e+001 7.530503e+001 9.084264e+001 1.255554e+002 1.256672e+002 1.057140e+002 9.768964e+001 7.345087e+001 9.568368e+001 6.325558e+001 1.612454e+002 3.567134e+000 2.563311e+000 2.805294e+000 3.755164e+000 3.918174e+000 5.156590e+000 5.945898e+000 5.293903e+000 4.062713e+000 3.943087e+000 4.098376e+000 3.774606e+000 4.186843e+000 4.536186e-001 3.917156e-001 4.389131e-001 5.880703e-001 6.157338e-001 8.505340e-001 9.490976e-001 8.981448e-001 7.189521e-001 7.004464e-001 7.116325e-001 6.557901e-001 5.184597e-001
<GCONST> 1.427537e+002
<STATE> 7
<MEAN> 39
 -3.716128e+000 -6.380129e+000 2.174243e-001 1.145184e+000 -2.123226e+000 -8.519364e-001 -9.886113e+000 -4.108275e+000 -3.738258e+000 -3.982974e+000 -2.040710e+000 -2.886485e+000 6.860046e+001 1.161692e-001 1.839738e-002 1.318147e-002 3.522809e-002 4.765216e-002 -6.578477e-002 -1.075455e-002 -4.797672e-002 -4.322467e-002 -4.185076e-002 -6.161644e-002 -2.040082e-002 2.105548e-001 -7.967934e-003 -2.342422e-003 -3.171186e-003 3.817672e-004 1.083124e-003 -6.746306e-004 2.956044e-003 -1.842732e-003 1.327892e-003 -6.019532e-003 5.764290e-004 3.126013e-003 -9.292936e-003
<VARIANCE> 39
 1.163700e+002 6.260301e+001 7.997113e+001 7.530503e+001 9.084264e+001 1.255554e+002 1.256672e+002 1.057140e+002 9.768964e+001 7.345087e+001 9.568368e+001 6.325558e+001 1.612454e+002 3.567134e+000 2.563311e+000 2.805294e+000 3.755164e+000 3.918174e+000 5.156590e+000 5.945898e+000 5.293903e+000 4.062713e+000 3.943087e+000 4.098376e+000 3.774606e+000 4.186843e+000 4.536186e-001 3.917156e-001 4.389131e-001 5.880703e-001 6.157338e-001 8.505340e-001 9.490976e-001 8.981448e-001 7.189521e-001 7.004464e-001 7.116325e-001 6.557901e-001 5.184597e-001
<GCONST> 1.427537e+002
<STATE> 8
<MEAN> 39
 -3.716128e+000 -6.380129e+000 2.174243e-001 1.145184e+000 -2.123226e+000 -8.519364e-001 -9.886113e+000 -4.108275e+000 -3.738258e+000 -3.982974e+000 -2.040710e+000 -2.886485e+000 6.860046e+001 1.161692e-001 1.839738e-002 1.318147e-002 3.522809e-002 4.765216e-002 -6.578477e-002 -1.075455e-002 -4.797672e-002 -4.322467e-002 -4.185076e-002 -6.161644e-002 -2.040082e-002 2.105548e-001 -7.967934e-003 -2.342422e-003 -3.171186e-003 3.817672e-004 1.083124e-003 -6.746306e-004 2.956044e-003 -1.842732e-003 1.327892e-003 -6.019532e-003 5.764290e-004 3.126013e-003 -9.292936e-003
<VARIANCE> 39
 1.163700e+002 6.260301e+001 7.997113e+001 7.530503e+001 9.084264e+001 1.255554e+002 1.256672e+002 1.057140e+002 9.768964e+001 7.345087e+001 9.568368e+001 6.325558e+001 1.612454e+002 3.567134e+000 2.563311e+000 2.805294e+000 3.755164e+000 3.918174e+000 5.156590e+000 5.945898e+000 5.293903e+000 4.062713e+000 3.943087e+000 4.098376e+000 3.774606e+000 4.186843e+000 4.536186e-001 3.917156e-001 4.389131e-001 5.880703e-001 6.157338e-001 8.505340e-001 9.490976e-001 8.981448e-001 7.189521e-001 7.004464e-001 7.116325e-001 6.557901e-001 5.184597e-001
<GCONST> 1.427537e+002
<STATE> 9
<MEAN> 39
 -3.716128e+000 -6.380129e+000 2.174243e-001 1.145184e+000 -2.123226e+000 -8.519364e-001 -9.886113e+000 -4.108275e+000 -3.738258e+000 -3.982974e+000 -2.040710e+000 -2.886485e+000 6.860046e+001 1.161692e-001 1.839738e-002 1.318147e-002 3.522809e-002 4.765216e-002 -6.578477e-002 -1.075455e-002 -4.797672e-002 -4.322467e-002 -4.185076e-002 -6.161644e-002 -2.040082e-002 2.105548e-001 -7.967934e-003 -2.342422e-003 -3.171186e-003 3.817672e-004 1.083124e-003 -6.746306e-004 2.956044e-003 -1.842732e-003 1.327892e-003 -6.019532e-003 5.764290e-004 3.126013e-003 -9.292936e-003
<VARIANCE> 39
 1.163700e+002 6.260301e+001 7.997113e+001 7.530503e+001 9.084264e+001 1.255554e+002 1.256672e+002 1.057140e+002 9.768964e+001 7.345087e+001 9.568368e+001 6.325558e+001 1.612454e+002 3.567134e+000 2.563311e+000 2.805294e+000 3.755164e+000 3.918174e+000 5.156590e+000 5.945898e+000 5.293903e+000 4.062713e+000 3.943087e+000 4.098376e+000 3.774606e+000 4.186843e+000 4.536186e-001 3.917156e-001 4.389131e-001 5.880703e-001 6.157338e-001 8.505340e-001 9.490976e-001 8.981448e-001 7.189521e-001 7.004464e-001 7.116325e-001 6.557901e-001 5.184597e-001
<GCONST> 1.427537e+002
<TRANSP> 10
 0.000000e+000 1.000000e+000 0.000000e+000 0.000000e+000 0.000000e+000 0.000000e+000 0.000000e+000 0.000000e+000 0.000000e+000 0.000000e+000
 0.000000e+000 6.000000e-001 4.000000e-001 0.000000e+000 0.000000e+000 0.000000e+000 0.000000e+000 0.000000e+000 0.000000e+000 0.000000e+000
 0.000000e+000 0.000000e+000 6.000000e-001 4.000000e-001 0.000000e+000 0.000000e+000 0.000000e+000 0.000000e+000 0.000000e+000 0.000000e+000
 0.000000e+000 0.000000e+000 0.000000e+000 6.000000e-001 4.000000e-001 0.000000e+000 0.000000e+000 0.000000e+000 0.000000e+000 0.000000e+000
 0.000000e+000 0.000000e+000 0.000000e+000 0.000000e+000 6.000000e-001 4.000000e-001 0.000000e+000 0.000000e+000 0.000000e+000 0.000000e+000
 0.000000e+000 0.000000e+000 0.000000e+000 0.000000e+000 0.000000e+000 6.000000e-001 4.000000e-001 0.000000e+000 0.000000e+000 0.000000e+000
 0.000000e+000 0.000000e+000 0.000000e+000 0.000000e+000 0.000000e+000 0.000000e+000 6.000000e-001 4.000000e-001 0.000000e+000 0.000000e+000
 0.000000e+000 0.000000e+000 0.000000e+000 0.000000e+000 0.000000e+000 0.000000e+000 0.000000e+000 6.000000e-001 4.000000e-001 0.000000e+000
 0.000000e+000 0.000000e+000 0.000000e+000 0.000000e+000 0.000000e+000 0.000000e+000 0.000000e+000 0.000000e+000 7.000000e-001 3.000000e-001
 0.000000e+000 0.000000e+000 0.000000e+000 0.000000e+000 0.000000e+000 0.000000e+000 0.000000e+000 0.000000e+000 0.000000e+000 0.000000e+000
<ENDHMM>
