~o
<STREAMINFO> 1 39
<VECSIZE> 39<NULLD><MFCC_D_A_0><DIAGC>
~h "proto-8s-39f"
<BEGINHMM>
<NUMSTATES> 10
<STATE> 2
<MEAN> 39
 -4.012516e+000 -6.984251e+000 -7.355643e-001 9.290292e-001 -2.498109e+000 1.007407e+000 -8.284309e+000 -5.285375e+000 -3.739548e+000 -2.582871e+000 -2.934417e+000 -2.210364e+000 6.938052e+001 1.113357e-001 4.777725e-003 1.307855e-002 3.500093e-002 4.448831e-002 -4.446980e-002 -1.134589e-003 -5.575220e-002 -6.231256e-002 -4.503648e-002 -4.546318e-002 -2.446341e-002 2.018463e-001 -6.686741e-003 -1.861125e-003 -3.438381e-003 -1.167120e-003 7.859294e-004 -1.187041e-003 1.488631e-003 -6.715451e-004 7.508969e-004 -4.395491e-003 -1.389857e-003 2.549347e-003 -7.873314e-003
<VARIANCE> 39
 1.219247e+002 5.771131e+001 7.208127e+001 6.799068e+001 8.871048e+001 1.168707e+002 1.230477e+002 9.776522e+001 9.119386e+001 7.151423e+001 8.359666e+001 5.704162e+001 1.476736e+002 3.664264e+000 2.379587e+000 2.563183e+000 3.638295e+000 3.928104e+000 4.837755e+000 5.740596e+000 5.089455e+000 4.248598e+000 3.858585e+000 3.910448e+000 3.474311e+000 3.927551e+000 4.815065e-001 3.737085e-001 4.066374e-001 5.888371e-001 6.232503e-001 8.061264e-001 9.237781e-001 8.806767e-001 7.528416e-001 6.915780e-001 6.884701e-001 6.176981e-001 5.003774e-001
<GCONST> 1.411748e+002
<STATE> 3
<MEAN> 39
 -4.012516e+000 -6.984251e+000 -7.355643e-001 9.290292e-001 -2.498109e+000 1.007407e+000 -8.284309e+000 -5.285375e+000 -3.739548e+000 -2.582871e+000 -2.934417e+000 -2.210364e+000 6.938052e+001 1.113357e-001 4.777725e-003 1.307855e-002 3.500093e-002 4.448831e-002 -4.446980e-002 -1.134589e-003 -5.575220e-002 -6.231256e-002 -4.503648e-002 -4.546318e-002 -2.446341e-002 2.018463e-001 -6.686741e-003 -1.861125e-003 -3.438381e-003 -1.167120e-003 7.859294e-004 -1.187041e-003 1.488631e-003 -6.715451e-004 7.508969e-004 -4.395491e-003 -1.389857e-003 2.549347e-003 -7.873314e-003
<VARIANCE> 39
 1.219247e+002 5.771131e+001 7.208127e+001 6.799068e+001 8.871048e+001 1.168707e+002 1.230477e+002 9.776522e+001 9.119386e+001 7.151423e+001 8.359666e+001 5.704162e+001 1.476736e+002 3.664264e+000 2.379587e+000 2.563183e+000 3.638295e+000 3.928104e+000 4.837755e+000 5.740596e+000 5.089455e+000 4.248598e+000 3.858585e+000 3.910448e+000 3.474311e+000 3.927551e+000 4.815065e-001 3.737085e-001 4.066374e-001 5.888371e-001 6.232503e-001 8.061264e-001 9.237781e-001 8.806767e-001 7.528416e-001 6.915780e-001 6.884701e-001 6.176981e-001 5.003774e-001
<GCONST> 1.411748e+002
<STATE> 4
<MEAN> 39
 -4.012516e+000 -6.984251e+000 -7.355643e-001 9.290292e-001 -2.498109e+000 1.007407e+000 -8.284309e+000 -5.285375e+000 -3.739548e+000 -2.582871e+000 -2.934417e+000 -2.210364e+000 6.938052e+001 1.113357e-001 4.777725e-003 1.307855e-002 3.500093e-002 4.448831e-002 -4.446980e-002 -1.134589e-003 -5.575220e-002 -6.231256e-002 -4.503648e-002 -4.546318e-002 -2.446341e-002 2.018463e-001 -6.686741e-003 -1.861125e-003 -3.438381e-003 -1.167120e-003 7.859294e-004 -1.187041e-003 1.488631e-003 -6.715451e-004 7.508969e-004 -4.395491e-003 -1.389857e-003 2.549347e-003 -7.873314e-003
<VARIANCE> 39
 1.219247e+002 5.771131e+001 7.208127e+001 6.799068e+001 8.871048e+001 1.168707e+002 1.230477e+002 9.776522e+001 9.119386e+001 7.151423e+001 8.359666e+001 5.704162e+001 1.476736e+002 3.664264e+000 2.379587e+000 2.563183e+000 3.638295e+000 3.928104e+000 4.837755e+000 5.740596e+000 5.089455e+000 4.248598e+000 3.858585e+000 3.910448e+000 3.474311e+000 3.927551e+000 4.815065e-001 3.737085e-001 4.066374e-001 5.888371e-001 6.232503e-001 8.061264e-001 9.237781e-001 8.806767e-001 7.528416e-001 6.915780e-001 6.884701e-001 6.176981e-001 5.003774e-001
<GCONST> 1.411748e+002
<STATE> 5
<MEAN> 39
 -4.012516e+000 -6.984251e+000 -7.355643e-001 9.290292e-001 -2.498109e+000 1.007407e+000 -8.284309e+000 -5.285375e+000 -3.739548e+000 -2.582871e+000 -2.934417e+000 -2.210364e+000 6.938052e+001 1.113357e-001 4.777725e-003 1.307855e-002 3.500093e-002 4.448831e-002 -4.446980e-002 -1.134589e-003 -5.575220e-002 -6.231256e-002 -4.503648e-002 -4.546318e-002 -2.446341e-002 2.018463e-001 -6.686741e-003 -1.861125e-003 -3.438381e-003 -1.167120e-003 7.859294e-004 -1.187041e-003 1.488631e-003 -6.715451e-004 7.508969e-004 -4.395491e-003 -1.389857e-003 2.549347e-003 -7.873314e-003
<VARIANCE> 39
 1.219247e+002 5.771131e+001 7.208127e+001 6.799068e+001 8.871048e+001 1.168707e+002 1.230477e+002 9.776522e+001 9.119386e+001 7.151423e+001 8.359666e+001 5.704162e+001 1.476736e+002 3.664264e+000 2.379587e+000 2.563183e+000 3.638295e+000 3.928104e+000 4.837755e+000 5.740596e+000 5.089455e+000 4.248598e+000 3.858585e+000 3.910448e+000 3.474311e+000 3.927551e+000 4.815065e-001 3.737085e-001 4.066374e-001 5.888371e-001 6.232503e-001 8.061264e-001 9.237781e-001 8.806767e-001 7.528416e-001 6.915780e-001 6.884701e-001 6.176981e-001 5.003774e-001
<GCONST> 1.411748e+002
<STATE> 6
<MEAN> 39
 -4.012516e+000 -6.984251e+000 -7.355643e-001 9.290292e-001 -2.498109e+000 1.007407e+000 -8.284309e+000 -5.285375e+000 -3.739548e+000 -2.582871e+000 -2.934417e+000 -2.210364e+000 6.938052e+001 1.113357e-001 4.777725e-003 1.307855e-002 3.500093e-002 4.448831e-002 -4.446980e-002 -1.134589e-003 -5.575220e-002 -6.231256e-002 -4.503648e-002 -4.546318e-002 -2.446341e-002 2.018463e-001 -6.686741e-003 -1.861125e-003 -3.438381e-003 -1.167120e-003 7.859294e-004 -1.187041e-003 1.488631e-003 -6.715451e-004 7.508969e-004 -4.395491e-003 -1.389857e-003 2.549347e-003 -7.873314e-003
<VARIANCE> 39
 1.219247e+002 5.771131e+001 7.208127e+001 6.799068e+001 8.871048e+001 1.168707e+002 1.230477e+002 9.776522e+001 9.119386e+001 7.151423e+001 8.359666e+001 5.704162e+001 1.476736e+002 3.664264e+000 2.379587e+000 2.563183e+000 3.638295e+000 3.928104e+000 4.837755e+000 5.740596e+000 5.089455e+000 4.248598e+000 3.858585e+000 3.910448e+000 3.474311e+000 3.927551e+000 4.815065e-001 3.737085e-001 4.066374e-001 5.888371e-001 6.232503e-001 8.061264e-001 9.237781e-001 8.806767e-001 7.528416e-001 6.915780e-001 6.884701e-001 6.176981e-001 5.003774e-001
<GCONST> 1.411748e+002
<STATE> 7
<MEAN> 39
 -4.012516e+000 -6.984251e+000 -7.355643e-001 9.290292e-001 -2.498109e+000 1.007407e+000 -8.284309e+000 -5.285375e+000 -3.739548e+000 -2.582871e+000 -2.934417e+000 -2.210364e+000 6.938052e+001 1.113357e-001 4.777725e-003 1.307855e-002 3.500093e-002 4.448831e-002 -4.446980e-002 -1.134589e-003 -5.575220e-002 -6.231256e-002 -4.503648e-002 -4.546318e-002 -2.446341e-002 2.018463e-001 -6.686741e-003 -1.861125e-003 -3.438381e-003 -1.167120e-003 7.859294e-004 -1.187041e-003 1.488631e-003 -6.715451e-004 7.508969e-004 -4.395491e-003 -1.389857e-003 2.549347e-003 -7.873314e-003
<VARIANCE> 39
 1.219247e+002 5.771131e+001 7.208127e+001 6.799068e+001 8.871048e+001 1.168707e+002 1.230477e+002 9.776522e+001 9.119386e+001 7.151423e+001 8.359666e+001 5.704162e+001 1.476736e+002 3.664264e+000 2.379587e+000 2.563183e+000 3.638295e+000 3.928104e+000 4.837755e+000 5.740596e+000 5.089455e+000 4.248598e+000 3.858585e+000 3.910448e+000 3.474311e+000 3.927551e+000 4.815065e-001 3.737085e-001 4.066374e-001 5.888371e-001 6.232503e-001 8.061264e-001 9.237781e-001 8.806767e-001 7.528416e-001 6.915780e-001 6.884701e-001 6.176981e-001 5.003774e-001
<GCONST> 1.411748e+002
<STATE> 8
<MEAN> 39
 -4.012516e+000 -6.984251e+000 -7.355643e-001 9.290292e-001 -2.498109e+000 1.007407e+000 -8.284309e+000 -5.285375e+000 -3.739548e+000 -2.582871e+000 -2.934417e+000 -2.210364e+000 6.938052e+001 1.113357e-001 4.777725e-003 1.307855e-002 3.500093e-002 4.448831e-002 -4.446980e-002 -1.134589e-003 -5.575220e-002 -6.231256e-002 -4.503648e-002 -4.546318e-002 -2.446341e-002 2.018463e-001 -6.686741e-003 -1.861125e-003 -3.438381e-003 -1.167120e-003 7.859294e-004 -1.187041e-003 1.488631e-003 -6.715451e-004 7.508969e-004 -4.395491e-003 -1.389857e-003 2.549347e-003 -7.873314e-003
<VARIANCE> 39
 1.219247e+002 5.771131e+001 7.208127e+001 6.799068e+001 8.871048e+001 1.168707e+002 1.230477e+002 9.776522e+001 9.119386e+001 7.151423e+001 8.359666e+001 5.704162e+001 1.476736e+002 3.664264e+000 2.379587e+000 2.563183e+000 3.638295e+000 3.928104e+000 4.837755e+000 5.740596e+000 5.089455e+000 4.248598e+000 3.858585e+000 3.910448e+000 3.474311e+000 3.927551e+000 4.815065e-001 3.737085e-001 4.066374e-001 5.888371e-001 6.232503e-001 8.061264e-001 9.237781e-001 8.806767e-001 7.528416e-001 6.915780e-001 6.884701e-001 6.176981e-001 5.003774e-001
<GCONST> 1.411748e+002
<STATE> 9
<MEAN> 39
 -4.012516e+000 -6.984251e+000 -7.355643e-001 9.290292e-001 -2.498109e+000 1.007407e+000 -8.284309e+000 -5.285375e+000 -3.739548e+000 -2.582871e+000 -2.934417e+000 -2.210364e+000 6.938052e+001 1.113357e-001 4.777725e-003 1.307855e-002 3.500093e-002 4.448831e-002 -4.446980e-002 -1.134589e-003 -5.575220e-002 -6.231256e-002 -4.503648e-002 -4.546318e-002 -2.446341e-002 2.018463e-001 -6.686741e-003 -1.861125e-003 -3.438381e-003 -1.167120e-003 7.859294e-004 -1.187041e-003 1.488631e-003 -6.715451e-004 7.508969e-004 -4.395491e-003 -1.389857e-003 2.549347e-003 -7.873314e-003
<VARIANCE> 39
 1.219247e+002 5.771131e+001 7.208127e+001 6.799068e+001 8.871048e+001 1.168707e+002 1.230477e+002 9.776522e+001 9.119386e+001 7.151423e+001 8.359666e+001 5.704162e+001 1.476736e+002 3.664264e+000 2.379587e+000 2.563183e+000 3.638295e+000 3.928104e+000 4.837755e+000 5.740596e+000 5.089455e+000 4.248598e+000 3.858585e+000 3.910448e+000 3.474311e+000 3.927551e+000 4.815065e-001 3.737085e-001 4.066374e-001 5.888371e-001 6.232503e-001 8.061264e-001 9.237781e-001 8.806767e-001 7.528416e-001 6.915780e-001 6.884701e-001 6.176981e-001 5.003774e-001
<GCONST> 1.411748e+002
<TRANSP> 10
 0.000000e+000 1.000000e+000 0.000000e+000 0.000000e+000 0.000000e+000 0.000000e+000 0.000000e+000 0.000000e+000 0.000000e+000 0.000000e+000
 0.000000e+000 6.000000e-001 4.000000e-001 0.000000e+000 0.000000e+000 0.000000e+000 0.000000e+000 0.000000e+000 0.000000e+000 0.000000e+000
 0.000000e+000 0.000000e+000 6.000000e-001 4.000000e-001 0.000000e+000 0.000000e+000 0.000000e+000 0.000000e+000 0.000000e+000 0.000000e+000
 0.000000e+000 0.000000e+000 0.000000e+000 6.000000e-001 4.000000e-001 0.000000e+000 0.000000e+000 0.000000e+000 0.000000e+000 0.000000e+000
 0.000000e+000 0.000000e+000 0.000000e+000 0.000000e+000 6.000000e-001 4.000000e-001 0.000000e+000 0.000000e+000 0.000000e+000 0.000000e+000
 0.000000e+000 0.000000e+000 0.000000e+000 0.000000e+000 0.000000e+000 6.000000e-001 4.000000e-001 0.000000e+000 0.000000e+000 0.000000e+000
 0.000000e+000 0.000000e+000 0.000000e+000 0.000000e+000 0.000000e+000 0.000000e+000 6.000000e-001 4.000000e-001 0.000000e+000 0.000000e+000
 0.000000e+000 0.000000e+000 0.000000e+000 0.000000e+000 0.000000e+000 0.000000e+000 0.000000e+000 6.000000e-001 4.000000e-001 0.000000e+000
 0.000000e+000 0.000000e+000 0.000000e+000 0.000000e+000 0.000000e+000 0.000000e+000 0.000000e+000 0.000000e+000 7.000000e-001 3.000000e-001
 0.000000e+000 0.000000e+000 0.000000e+000 0.000000e+000 0.000000e+000 0.000000e+000 0.000000e+000 0.000000e+000 0.000000e+000 0.000000e+000
<ENDHMM>
